669 32
800 0.296347 -0.040151 -0.105403 -0.0458793 -0.0759499 0.101633 -0.181691 0.16953 -0.232308 0.208717 0.0444337 -0.117207 -0.292081 -0.0773604 0.359343 0.185628 0.0577947 0.366334 -0.291839 0.143049 -0.0484352 -0.137609 0.0432736 -0.112981 -0.00194963 0.2856 -0.0744082 -0.144994 0.20626 0.182847 -0.150497 -0.00139781
566 -0.491279 0.0389419 0.487856 0.125668 0.380578 -0.292803 0.0618285 0.237878 0.442442 -0.00475718 0.221391 0.886984 0.311515 0.60418 -0.0148628 0.364858 -0.352032 -0.489295 -0.032251 0.233888 0.110325 0.0263506 -0.208527 -0.338622 -0.049385 -0.118533 -0.268677 -0.227812 -0.275344 -0.420684 -0.211451 0.827752
452 -0.27193 -0.00590683 0.0533793 0.139199 -0.0858735 -0.242426 0.175855 0.0839444 0.100851 0.0808222 0.402308 -0.052797 -0.152245 -0.365503 -0.0123593 0.199661 0.0742976 0.0142169 0.0701103 0.223051 0.0447316 0.0110196 -0.325599 -0.0463689 0.252315 0.163157 -0.185035 -0.317 -0.0308372 0.191257 -0.183331 0.0384639
32 0.0653603 -0.0754876 -0.0496095 0.0730138 0.223424 0.103082 0.0793932 0.17871 -0.261887 -0.0867571 -0.150995 0.157127 -0.144741 0.341692 0.0242536 0.0110727 -0.0365887 -0.400832 0.18684 -0.00137782 -0.462598 0.184223 0.222263 -0.131603 -0.129543 0.0620948 -0.0189182 0.198841 0.407281 0.0851804 -0.0813062 0.234561
230 0.188879 -0.161228 -0.0185142 -0.17766 -0.153502 0.107249 -0.167644 0.0621036 0.0609973 0.0627088 0.0427229 -0.0266829 -0.151334 0.105812 0.249818 0.00313818 0.0668897 0.212897 -0.341567 0.198427 0.0926792 -0.0288436 0.125588 -0.0240792 -0.0120018 0.187329 0.144178 0.0571282 -0.146385 0.0666961 -0.1136 -0.159637
303 0.14408 0.0222211 -0.124192 0.0433859 -0.102222 0.0375047 -0.0795931 -0.0264621 -0.288393 0.243211 0.11627 -0.223911 -0.182387 -0.23433 0.0368293 0.200154 -0.00507716 0.283778 -0.013279 0.0799412 -0.197605 -0.00915133 -0.128656 -0.0762505 -0.0637259 0.102148 -0.133286 -0.224613 0.203165 0.179487 -0.108725 -0.052541
529 0.162381 -0.181056 -0.00874823 -0.174304 -0.15807 0.0912279 -0.149202 0.0840452 0.0847244 0.0523083 0.0748527 -0.0132064 -0.174201 0.102516 0.262159 0.0092507 0.0798021 0.188238 -0.34331 0.231558 0.0920132 -0.0161818 0.119477 -0.0294275 0.0131469 0.213113 0.14638 0.0545222 -0.155831 0.0868694 -0.137042 -0.156025
513 0.12521 0.0108087 -0.101268 0.0364202 -0.10256 0.029448 -0.083578 -0.0374963 -0.24899 0.24806 0.136445 -0.186129 -0.160842 -0.210214 0.0321253 0.218184 -0.0240335 0.28253 -0.0255775 0.0958055 -0.183362 -0.00675681 -0.146359 -0.086264 -0.0697774 0.090981 -0.126524 -0.240682 0.154553 0.1624 -0.123047 -0.038581
628 0.21977 -0.0253402 -0.033324 -0.101713 0.0755029 0.101989 -0.0600693 0.303687 0.0254237 -0.199743 -0.255802 0.0392592 -0.146432 0.167443 0.397515 -0.227015 0.185146 -0.0226641 -0.278312 -0.0587482 0.235275 -0.180138 0.366853 0.059192 0.153959 0.234138 0.114169 0.296324 0.141572 0.00680562 0.0870499 -0.00306567
692 0.194785 -0.156961 -0.0233516 -0.176255 -0.16648 0.101285 -0.169854 0.0839426 0.0449487 0.070535 0.054775 -0.0491639 -0.179492 0.0828275 0.265671 0.00553444 0.0826201 0.222215 -0.356849 0.219742 0.0972819 -0.032129 0.124923 -0.0272142 0.000779762 0.213316 0.12698 0.0526193 -0.123888 0.0786405 -0.120522 -0.162842
412 0.198392 0.0211623 -0.133983 0.0368254 -0.0959545 0.0557163 -0.114499 0.00519635 -0.300933 0.270534 0.10986 -0.211467 -0.213514 -0.241315 0.123897 0.237768 -0.0041205 0.364568 -0.0741789 0.0746967 -0.171791 -0.0652176 -0.12378 -0.0938205 -0.053821 0.140979 -0.136515 -0.261885 0.213379 0.196629 -0.124599 -0.0329691
119 0.194112 -0.155577 -0.0206112 -0.179477 -0.168652 0.100096 -0.173456 0.0911526 0.0506789 0.0708942 0.0550855 -0.0490174 -0.181082 0.0818084 0.276085 0.00414357 0.086305 0.230005 -0.370216 0.221412 0.11292 -0.0425696 0.128141 -0.0274765 0.00801326 0.222556 0.126144 0.0514793 -0.125862 0.0787903 -0.121942 -0.163394
332 0.161219 0.187528 -0.109049 0.109073 0.160996 0.0427621 0.0130072 0.187825 -0.315005 -0.0417886 -0.24915 -0.114172 -0.0923518 -0.0820389 0.121925 -0.0698906 0.0727527 -0.0183682 0.0740429 -0.220672 -0.0468378 -0.146272 0.147749 0.010336 0.0449923 0.0710774 -0.165394 0.0730548 0.479559 0.0265442 0.141505 0.144752
479 0.0531109 0.0344349 -0.0548811 0.0341724 -0.087641 -0.00552553 -0.0604822 -0.0533156 -0.16854 0.199459 0.123413 -0.144363 -0.0819915 -0.177665 -0.0279745 0.166638 -0.0334545 0.209182 -0.00586364 0.0773965 -0.110561 0.000383955 -0.14817 -0.0613511 -0.0588388 0.0331754 -0.121179 -0.20203 0.0845702 0.0854519 -0.0802552 -0.022684
563 0.12614 -0.150765 0.0189048 -0.171782 -0.149975 0.0716023 -0.149584 0.0580543 0.107825 0.0504491 0.0679799 0.00624633 -0.118266 0.120494 0.209173 0.00188145 0.0534051 0.163862 -0.329599 0.220635 0.117732 -0.0118354 0.100995 -0.0283018 -0.00763442 0.165658 0.12802 0.0543679 -0.184664 0.030773 -0.115502 -0.13592
643 0.188018 -0.158092 -0.0159167 -0.168483 -0.147946 0.0934129 -0.162019 0.112799 0.0534446 0.0614857 0.0567905 -0.0249777 -0.19015 0.0923965 0.29425 0.0133453 0.0871265 0.209683 -0.364666 0.222449 0.105068 -0.045558 0.130486 -0.0358455 0.0197867 0.233781 0.120188 0.049299 -0.110854 0.0856088 -0.129633 -0.136618
108 0.130607 -0.148077 0.0218942 -0.176623 -0.148228 0.0740538 -0.152719 0.0728384 0.107966 0.0414931 0.056828 0.00608013 -0.118609 0.132296 0.21439 -0.0141997 0.060225 0.149868 -0.33813 0.221611 0.129272 -0.013732 0.118526 -0.025331 -0.00377546 0.172635 0.126876 0.0742315 -0.175949 0.0220063 -0.107251 -0.132578
305 0.26559 -0.165809 -0.0559971 -0.179423 -0.172182 0.128392 -0.201523 0.117777 -0.002402 0.10687 0.0542295 -0.0714544 -0.243428 0.0527008 0.357878 0.0470866 0.0978843 0.311338 -0.407309 0.223556 0.0875825 -0.0773369 0.135317 -0.0436429 0.0128477 0.275257 0.120955 0.0165357 -0.0739433 0.132705 -0.146456 -0.164576
716 0.173085 0.0223774 -0.119057 0.0338041 -0.0952344 0.0494479 -0.106588 -0.0114204 -0.286584 0.258031 0.106058 -0.202361 -0.184304 -0.213609 0.0834343 0.219516 -0.0131493 0.32327 -0.0566635 0.0798537 -0.175663 -0.0397915 -0.119592 -0.088998 -0.0687839 0.115088 -0.133033 -0.237388 0.196163 0.170146 -0.114806 -0.0332948
530 0.253501 -0.153477 -0.0454726 -0.188618 -0.197386 0.117921 -0.212687 0.11682 -0.00819232 0.119078 0.0646969 -0.100605 -0.241835 0.0449141 0.333658 0.0328203 0.103416 0.311197 -0.425371 0.249903 0.106648 -0.0675056 0.135031 -0.0420946 0.00615634 0.277255 0.102958 0.0249649 -0.0774524 0.11413 -0.142426 -0.178188
99 0.284598 -0.0133063 -0.0517251 -0.115019 0.066812 0.124399 -0.0998593 0.340219 -0.015822 -0.178672 -0.282222 0.010943 -0.180759 0.158548 0.463548 -0.224968 0.203244 0.0381613 -0.338139 -0.0569407 0.260697 -0.222812 0.398723 0.0542643 0.157691 0.279081 0.0975446 0.298137 0.188687 0.0157352 0.090916 -0.00356316
74 0.0763879 0.0262507 -0.0756648 0.0415711 -0.0781978 0.011768 -0.0576388 -0.0386232 -0.214668 0.201601 0.109562 -0.156636 -0.115483 -0.172628 -0.0123432 0.171777 -0.0271917 0.199651 0.00865739 0.0732764 -0.161646 0.0108106 -0.127231 -0.0700677 -0.0677076 0.0493403 -0.121112 -0.190789 0.137756 0.113741 -0.0885483 -0.0187089
480 0.137643 0.188974 -0.0981818 0.112689 0.161588 0.0294791 0.0241839 0.172965 -0.281539 -0.050304 -0.238786 -0.101316 -0.0690316 -0.0924777 0.109734 -0.0698642 0.067514 -0.0186841 0.081765 -0.229465 -0.0227933 -0.151002 0.127978 0.019768 0.0572432 0.0535949 -0.15782 0.0614133 0.44019 0.0157998 0.147359 0.141865
243 0.0949372 0.0441136 -0.0829975 0.0472204 -0.0624953 0.0189606 -0.0615397 -0.0393552 -0.22653 0.19582 0.0809217 -0.161488 -0.103528 -0.178025 -0.00538115 0.164381 -0.028406 0.21252 0.0117488 0.0407109 -0.151955 -0.0118915 -0.11896 -0.0623403 -0.0671258 0.0400255 -0.127256 -0.188241 0.157709 0.105152 -0.0671107 -0.0104989
182 -0.544818 -0.0362715 0.388635 -0.0187412 -0.209642 -0.338642 -0.0294835 0.112397 0.132895 0.301221 0.623239 0.170984 -0.0345441 0.250977 -0.363287 0.310871 -0.167125 -0.381996 -0.141841 0.84439 -0.111797 0.420179 -0.318852 -0.331547 -0.165392 0.083456 -0.404787 -0.191575 -0.201446 -0.222978 -0.409194 0.288111
422 0.074541 0.154122 -0.0537681 0.0905504 0.149977 0.0126337 0.0363014 0.14395 -0.195925 -0.0737392 -0.206572 -0.0448759 -0.0257383 -0.028237 0.0609398 -0.0837136 0.0477557 -0.083007 0.0817901 -0.185428 -0.00961178 -0.101683 0.118661 0.018606 0.0431507 0.0205778 -0.120484 0.0854662 0.33757 -0.0217389 0.131034 0.135509
8 0.199711 0.20353 -0.131514 0.11744 0.162068 0.0499534 0.00313377 0.19953 -0.340946 -0.027365 -0.259276 -0.144046 -0.117273 -0.131677 0.173426 -0.0541037 0.0873172 0.0525917 0.0507555 -0.243689 -0.0275183 -0.19092 0.142701 0.0153575 0.0660318 0.0950241 -0.175101 0.0435344 0.506009 0.0489073 0.148618 0.139587
432 0.0520756 0.0344008 -0.0566633 0.0439059 -0.0630229 0.00197709 -0.0509699 -0.0637017 -0.168514 0.186342 0.102912 -0.122039 -0.0646715 -0.160667 -0.0328825 0.168568 -0.0464364 0.194323 0.0192652 0.047092 -0.129995 -0.00045267 -0.144513 -0.060681 -0.0673627 0.0109062 -0.111847 -0.198115 0.0884256 0.0806232 -0.0722854 -0.00658982
329 0.261442 -0.178688 -0.0580753 -0.184197 -0.191229 0.124436 -0.199693 0.11695 -0.000153721 0.114531 0.0777647 -0.0875466 -0.259725 0.0357046 0.357319 0.0511943 0.107418 0.320886 -0.415538 0.246961 0.0843797 -0.0688902 0.127598 -0.0442951 0.0195712 0.293073 0.123591 0.00785234 -0.0811481 0.152081 -0.162347 -0.185607
478 -0.262768 0.00659293 0.0478647 0.150785 -0.0819355 -0.24624 0.171713 0.109832 0.073084 0.0974295 0.409161 -0.0620781 -0.177785 -0.384668 0.0138893 0.219643 0.079888 0.0324328 0.0608175 0.227826 0.0392247 -0.00456409 -0.330767 -0.0585639 0.262588 0.190527 -0.208559 -0.339039 0.00442743 0.207081 -0.193967 0.0554108
519 0.108376 0.0274703 -0.0921214 0.0447878 -0.076984 0.0266146 -0.0735224 -0.0481621 -0.239863 0.226251 0.106769 -0.165777 -0.123518 -0.187185 0.00461178 0.198521 -0.0367291 0.24859 0.00237882 0.0608534 -0.178143 -0.00605929 -0.137908 -0.0780213 -0.0790671 0.054225 -0.12604 -0.221613 0.153378 0.131084 -0.0955022 -0.0189544
75 -0.120281 0.0315404 0.00544746 0.277341 0.387546 -0.153593 0.310753 0.169805 0.326595 -0.252684 0.00579258 0.394747 0.0476664 -0.272031 0.379154 0.165789 0.0404069 0.0318124 0.218868 -0.429394 0.250223 -0.402676 -0.199751 0.0573676 0.480347 0.0586369 0.0256121 -0.327846 -0.0227783 0.190739 0.0361496 0.328215
39 -0.476007 -0.216135 0.405967 -0.0114232 -0.0413153 -0.236305 -0.0458407 -0.200739 0.506615 0.274427 0.60851 0.590344 0.244263 0.358623 -0.245254 0.540445 -0.390286 -0.121754 -0.060548 0.536815 -0.0791733 0.249583 -0.483458 -0.315162 -0.203527 -0.157686 -0.101667 -0.448367 -0.677982 -0.209803 -0.430544 0.355108
658 0.271592 -0.166246 -0.0553715 -0.183319 -0.189202 0.124929 -0.212791 0.117524 -0.000997913 0.125429 0.0728157 -0.0852355 -0.253936 0.0307594 0.372934 0.060842 0.101698 0.349103 -0.433833 0.239692 0.1043 -0.0901071 0.120871 -0.0467796 0.0188543 0.290807 0.114848 -0.00670864 -0.0834332 0.141518 -0.156934 -0.17628
645 0.319613 0.0867212 -0.159983 0.146075 0.367656 0.165763 -1.68796e-06 -0.048916 -0.0558245 -0.0773932 -0.35712 0.230616 0.13983 -0.0697906 0.333626 0.131639 -0.103464 0.316906 0.147166 -0.63682 0.0187834 -0.413571 0.0158121 0.0478301 0.0606799 -0.127729 0.105947 -0.193093 0.144437 0.0721324 0.178795 0.218702
104 0.0721224 0.0369147 -0.0606212 0.0373246 -0.0657525 0.015745 -0.0731086 -0.0566544 -0.202139 0.207868 0.0949913 -0.128693 -0.0789649 -0.142365 -0.0231867 0.179995 -0.0529938 0.208371 0.00264596 0.0601396 -0.151364 0.00273002 -0.131444 -0.0759621 -0.0919066 0.0221446 -0.123246 -0.196781 0.115597 0.0784018 -0.0793734 0.00256467
73 0.177684 -0.151583 -0.00709352 -0.167809 -0.139363 0.0899506 -0.160194 0.0875718 0.086835 0.0528981 0.0485884 -0.00440894 -0.151805 0.0921268 0.283213 0.0119596 0.0734315 0.220442 -0.356553 0.192546 0.133728 -0.0599844 0.116532 -0.0239785 0.0212932 0.202077 0.133462 0.0398471 -0.150866 0.064643 -0.111622 -0.134228
81 0.0921217 0.0601922 0.19698 -0.0383999 0.332715 0.138111 -0.25206 -0.0796609 -0.0165739 0.127485 -0.261333 0.594134 0.384535 0.746098 -0.0502993 0.240219 -0.449584 -0.112797 -0.0545454 -0.111091 -0.183313 0.00344506 0.0814409 -0.266537 -0.490197 -0.333839 -0.0534164 -0.0146713 -0.0755017 -0.459549 -0.00546351 0.545565
301 0.111498 0.0395959 -0.097171 0.0468443 -0.0885155 0.0211001 -0.075761 -0.0445689 -0.25184 0.235834 0.112561 -0.188798 -0.131816 -0.214982 0.00477566 0.199236 -0.0288736 0.267255 -0.00570245 0.0666508 -0.168041 -0.01416 -0.146876 -0.0762392 -0.0724816 0.0616403 -0.142112 -0.231563 0.165347 0.134104 -0.0933207 -0.0260468
18 0.148407 -0.240351 0.0266276 -0.159024 -0.0241361 0.131972 -0.134315 -0.1634 0.352874 0.00556623 0.0270455 0.27695 0.109066 0.185375 0.236225 0.111681 -0.0980494 0.300337 -0.23109 -0.0339283 0.14831 -0.11536 -0.0114607 0.00308234 -0.0337025 -0.0405803 0.339669 -0.0955856 -0.508696 0.0105821 -0.0896898 -0.100988
411 0.0903965 0.0235535 -0.079763 0.0344563 -0.0916718 0.0184134 -0.0736201 -0.0494741 -0.221784 0.221245 0.117219 -0.166361 -0.116001 -0.177918 -0.0122039 0.183527 -0.0333782 0.226952 -0.00497348 0.0825906 -0.16419 0.00948337 -0.136577 -0.0735771 -0.0780642 0.0496695 -0.121678 -0.205085 0.128874 0.117134 -0.0966624 -0.0301609
550 0.105404 0.326801 0.144225 0.0226016 0.249328 0.0156016 -0.240923 -0.0754042 0.036511 0.108734 -0.309454 0.297745 0.446505 0.190027 0.0464623 0.115968 -0.281806 0.268175 -0.138004 -0.35878 0.34576 -0.362804 -0.0514079 -0.0591892 -0.186374 -0.315879 -0.175496 -0.168915 -0.087169 -0.481787 0.242536 0.396223
318 -0.00724341 0.00769463 -0.0224212 0.0307863 -0.0658075 -0.0115709 -0.0294182 -0.0961342 -0.106904 0.156 0.120047 -0.0801446 -0.0211143 -0.0988845 -0.102075 0.142871 -0.0654559 0.102358 0.05238 0.0723485 -0.140542 0.0584129 -0.143689 -0.0566087 -0.0871507 -0.0296749 -0.0837559 -0.158297 0.0216071 0.0465069 -0.0752339 -0.0105075
321 0.129843 0.173268 -0.0970724 0.111473 0.159289 0.031096 0.0305893 0.170254 -0.278792 -0.052373 -0.227171 -0.0947357 -0.075951 -0.0781032 0.0998936 -0.0675225 0.0661106 -0.040936 0.091007 -0.212046 -0.0464187 -0.128645 0.128522 0.0143581 0.0506631 0.0559405 -0.15127 0.0676769 0.437347 0.0244558 0.133083 0.139226
152 0.122105 -0.365887 -0.067957 0.0110123 0.114712 0.204908 -0.0278394 -0.340947 0.058849 0.16494 0.145828 0.384718 0.0482462 0.274619 0.00144838 0.445129 -0.31789 0.134352 0.206952 -0.0366799 -0.591402 0.168277 -0.187095 -0.181488 -0.296008 -0.169683 0.289632 -0.301632 -0.269267 0.224652 -0.301596 0.076663
684 -0.541806 0.183626 0.408325 0.0894314 0.0942173 -0.378968 0.0963712 0.528156 -0.00581475 0.00704648 0.263768 0.263208 -0.0727036 0.403337 -0.191963 0.0375472 -0.0249127 -0.780378 -0.0964001 0.624227 0.0248244 0.280013 0.00697413 -0.299735 0.00853127 0.189176 -0.554034 0.134389 0.275259 -0.348803 -0.194872 0.585458
26 0.0185193 0.0423201 0.216068 -0.0416036 0.291793 0.102526 -0.219133 -0.094238 0.0117682 0.117729 -0.200097 0.565125 0.378641 0.723603 -0.124658 0.2183 -0.433308 -0.178742 -0.0230204 -0.0519602 -0.192172 0.0675367 0.0534951 -0.254992 -0.475814 -0.337443 -0.0566567 -0.00113436 -0.109275 -0.448982 -0.0234083 0.505784
679 -0.21778 -0.138544 0.0479497 0.157936 0.0771558 -0.15423 0.197094 -0.141138 0.379547 0.0162489 0.349587 0.279016 0.0630668 -0.281674 0.0880172 0.345625 -0.0856528 0.173894 0.177592 -0.0700946 0.0508305 -0.121512 -0.42932 -0.0177787 0.242299 -0.0292237 0.0749681 -0.487898 -0.369982 0.215459 -0.177332 0.0928206
461 0.07614 0.338503 0.16347 0.0273031 0.258614 -0.00293554 -0.228982 -0.065598 0.0519419 0.0937426 -0.307602 0.31274 0.462195 0.205246 0.0245545 0.101878 -0.282485 0.2249 -0.12885 -0.348372 0.35916 -0.350112 -0.0497985 -0.0597366 -0.181948 -0.324589 -0.189232 -0.150918 -0.085146 -0.505637 0.250669 0.415359
51 -0.482234 0.0368568 0.458529 0.140828 0.38421 -0.292734 0.0827731 0.206393 0.420064 0.0022145 0.228299 0.857013 0.30679 0.543927 -0.0309403 0.374418 -0.347655 -0.472998 0.0171704 0.194194 0.0805175 0.0157916 -0.239646 -0.33063 -0.0256451 -0.119078 -0.270843 -0.256896 -0.246581 -0.384483 -0.216605 0.79998
197 0.235121 -0.00594714 -0.024509 -0.107548 0.072098 0.102626 -0.0903048 0.316149 0.00237159 -0.169897 -0.257886 0.0376978 -0.145167 0.182094 0.404979 -0.209808 0.173264 -0.00168899 -0.310116 -0.039321 0.244401 -0.190111 0.366981 0.0402325 0.132579 0.241496 0.0809837 0.284684 0.158656 -0.0182331 0.0836228 0.0205514
293 -0.469154 -0.22725 0.415725 0.0147794 -0.0164867 -0.249397 -0.0624427 -0.164686 0.483272 0.351085 0.678363 0.655102 0.206617 0.359594 -0.178253 0.671645 -0.432514 -0.0611882 -0.0848167 0.581483 -0.129718 0.227826 -0.555462 -0.387349 -0.208119 -0.114989 -0.14828 -0.573211 -0.663194 -0.173897 -0.51391 0.441757
102 0.074146 0.034605 -0.0651263 0.0370365 -0.0781175 0.0105784 -0.0722836 -0.0521569 -0.206611 0.214184 0.109344 -0.147245 -0.0937313 -0.162559 -0.021888 0.181323 -0.043355 0.217365 -0.00337676 0.0746819 -0.15017 0.00499822 -0.137691 -0.0753415 -0.0837378 0.0340641 -0.129492 -0.202567 0.1201 0.0906784 -0.0851679 -0.00977653
370 -0.303532 0.339713 0.322283 0.164444 0.271831 -0.327898 0.0206676 0.164196 0.414167 -0.011537 0.055332 0.454444 0.372675 -0.0785069 0.151287 0.198806 -0.147938 0.104722 -0.135207 -0.170672 0.684909 -0.453023 -0.31176 -0.0593574 0.25424 -0.116505 -0.327008 -0.389448 -0.246404 -0.402605 0.119613 0.554432
206 -0.52714 0.146857 0.403291 0.077354 0.10375 -0.348717 0.0892799 0.433672 0.0716212 -0.00568219 0.247039 0.317955 -0.00240352 0.419952 -0.200521 0.0505243 -0.0665778 -0.729078 -0.0721046 0.555362 0.0367925 0.266045 -0.0193797 -0.273581 -0.00986468 0.117574 -0.468012 0.110042 0.156793 -0.351137 -0.180393 0.553973
37 0.181669 -0.0487622 -0.119138 0.0898386 0.233369 0.149492 0.0459018 0.257426 -0.436452 -0.0440564 -0.20173 0.0648476 -0.262474 0.301468 0.111794 0.0270513 0.00360689 -0.340245 0.163915 -0.00955913 -0.543364 0.152503 0.283093 -0.154907 -0.137218 0.152351 -0.0752061 0.20466 0.612416 0.15983 -0.0877628 0.246015
142 -0.181961 -0.342708 0.0274583 0.266882 0.515711 -0.0458809 0.426648 0.212532 0.345013 -0.326134 0.122513 0.754214 -0.112576 0.236971 0.364575 0.312268 -0.0702658 -0.43667 0.400124 -0.192096 -0.361262 -0.0127174 -0.0823588 -0.135857 0.305904 0.121938 0.232296 -0.192976 -0.0104237 0.384889 -0.283942 0.464591
511 0.0858302 0.0327638 -0.0788771 0.0436049 -0.082745 0.0122391 -0.06911 -0.0422936 -0.22719 0.224074 0.119842 -0.164341 -0.118975 -0.186386 -0.00933684 0.193264 -0.0357719 0.228129 0.000158482 0.0786282 -0.165059 0.00267501 -0.144116 -0.0795401 -0.0749138 0.0533098 -0.136377 -0.217632 0.143085 0.116767 -0.0972343 -0.0135024
464 0.226397 0.0212998 -0.146818 0.0258917 -0.113658 0.0709604 -0.135132 -0.00788783 -0.324743 0.290516 0.105065 -0.236831 -0.217911 -0.244638 0.121346 0.240292 -0.00642117 0.394239 -0.0881426 0.0800308 -0.182566 -0.0629042 -0.119597 -0.0942374 -0.0736338 0.140048 -0.137558 -0.262683 0.222331 0.19912 -0.12454 -0.0518052
90 0.0431611 0.0348193 -0.0514362 0.0467112 -0.0670223 -0.00634179 -0.049458 -0.0404817 -0.182902 0.19346 0.118803 -0.127171 -0.0880261 -0.156635 -0.0293043 0.175337 -0.0398156 0.176688 0.0130926 0.0780951 -0.143294 0.0115501 -0.142413 -0.0733573 -0.0651036 0.0335312 -0.132217 -0.197046 0.113577 0.0867245 -0.0862527 0.00606861
419 0.010589 -0.359808 -0.0841265 0.345915 0.642614 0.0255267 0.425941 0.341838 0.193327 -0.29691 0.0633589 0.791587 -0.277068 0.167999 0.646875 0.451362 -0.0422476 -0.281757 0.39081 -0.307082 -0.468242 -0.167675 -0.0535701 -0.189425 0.380049 0.271746 0.208559 -0.315097 0.232136 0.5753 -0.338457 0.580648
697 0.278687 -0.271474 -0.0368807 -0.164232 -0.0109951 0.189877 -0.169194 -0.120626 0.303618 0.028097 -0.00129316 0.264243 0.0203448 0.144015 0.402637 0.160156 -0.0682994 0.441779 -0.29918 -0.0699028 0.139646 -0.201811 0.0194891 -0.00437797 0.00114865 0.0468146 0.370243 -0.140325 -0.446957 0.107143 -0.115818 -0.112403
88 -0.0307733 -0.198666 -0.0180278 -0.010498 -0.0723225 0.0636848 -0.0131475 -0.0843822 -0.185585 0.176844 0.20622 0.0216163 -0.14961 0.200135 -0.17974 0.208593 -0.122375 -0.160452 0.119652 0.303561 -0.543157 0.353924 -0.0575773 -0.182926 -0.259427 0.0157797 -0.00217633 -0.0425643 0.0664465 0.139961 -0.272462 0.0122956
76 0.224347 0.209159 -0.146215 0.128089 0.1752 0.0571081 0.00216728 0.231103 -0.369658 -0.0264612 -0.271616 -0.150035 -0.146005 -0.147891 0.215089 -0.0479461 0.102176 0.0643074 0.0456368 -0.255874 -0.0311394 -0.215206 0.155313 0.0126512 0.0847752 0.125996 -0.186611 0.0374937 0.554695 0.075744 0.146154 0.150854
308 0.183085 0.0247453 -0.127919 0.0399911 -0.0915927 0.0517146 -0.10526 -0.00897534 -0.300575 0.263472 0.105434 -0.208972 -0.196901 -0.228831 0.0929416 0.228465 -0.0111053 0.338076 -0.054689 0.0737743 -0.184575 -0.046508 -0.124139 -0.0905336 -0.0655188 0.121454 -0.137176 -0.249639 0.212082 0.184184 -0.116978 -0.0323732
23 0.164367 0.355866 0.116476 0.0279612 0.271544 0.0445192 -0.263977 -0.0686527 -0.0226311 0.117239 -0.366976 0.273471 0.441927 0.180997 0.0764421 0.111366 -0.28119 0.308293 -0.142339 -0.410986 0.339825 -0.398794 -0.0225732 -0.0547689 -0.201256 -0.317469 -0.187445 -0.160321 -0.0200645 -0.483746 0.273515 0.408
147 0.0366743 -0.0541805 -0.0339075 0.0645981 0.202925 0.0839127 0.0810062 0.155904 -0.226512 -0.0969455 -0.149037 0.139004 -0.10598 0.319189 -0.0133805 -0.0198721 -0.0329517 -0.397772 0.184962 -0.0100701 -0.402822 0.178629 0.208998 -0.106751 -0.120348 0.0331649 -0.0169834 0.207966 0.359797 0.0489034 -0.051755 0.207685
343 0.212984 0.210113 -0.129899 0.119664 0.166279 0.0518253 -0.0109263 0.22844 -0.369945 -0.0131898 -0.261725 -0.143245 -0.136481 -0.118653 0.190321 -0.0439057 0.0877124 0.0490855 0.0331211 -0.226025 -0.0375025 -0.194812 0.154361 -0.00131632 0.0603906 0.118459 -0.200433 0.0433342 0.545424 0.0502601 0.138268 0.161399
93 -0.4232 0.0222475 0.445307 0.121208 0.375143 -0.260583 0.043676 0.216083 0.394251 0.0254808 0.221266 0.866409 0.27796 0.583032 0.0289452 0.408669 -0.354844 -0.404125 -0.0388702 0.222592 0.0687663 0.00252472 -0.223586 -0.348206 -0.0629434 -0.0942882 -0.251117 -0.272219 -0.249973 -0.372535 -0.238695 0.80944
342 0.157828 0.214211 -0.102209 0.119874 0.160651 0.0254619 0.00750686 0.205361 -0.321639 -0.0261613 -0.24028 -0.123651 -0.094639 -0.114291 0.140863 -0.0553609 0.0769746 0.0128276 0.0533651 -0.217867 -0.0117472 -0.174858 0.127939 0.00709667 0.0633266 0.0847027 -0.196729 0.042673 0.487621 0.0194747 0.144866 0.159433
538 0.0511062 0.154129 -0.0445549 0.0927564 0.149783 0.00196814 0.0460033 0.131403 -0.171752 -0.0783815 -0.193968 -0.0335037 -0.0062529 -0.0288174 0.0405282 -0.0831022 0.0407185 -0.0975535 0.0957173 -0.187657 0.00110679 -0.0955196 0.102013 0.0223733 0.0476688 0.00393695 -0.118833 0.0793233 0.310591 -0.0314711 0.131778 0.137935
347 0.264105 0.0679341 -0.127706 0.132649 0.351743 0.146489 0.0123761 -0.0407615 -0.0354859 -0.0869494 -0.325654 0.246259 0.139335 -0.0162824 0.284983 0.115121 -0.105942 0.23545 0.149244 -0.568232 -0.00425169 -0.34888 0.0226014 0.0337425 0.0427955 -0.129532 0.102441 -0.155279 0.121995 0.050512 0.155247 0.22306
539 -0.0140196 0.00607604 -0.0271422 0.0373062 -0.0602397 -0.0122662 -0.0190084 -0.103588 -0.102953 0.149202 0.118578 -0.0781225 -0.0164091 -0.109091 -0.104718 0.142707 -0.0650142 0.10337 0.0683147 0.0568797 -0.145237 0.0581368 -0.150309 -0.0503867 -0.0810123 -0.0387944 -0.0733319 -0.162639 0.0137265 0.0524504 -0.0698066 -0.0135644
556 0.228934 -0.167186 -0.040589 -0.175623 -0.161571 0.117963 -0.180832 0.098627 0.0250075 0.0830353 0.0514816 -0.0496319 -0.207856 0.07548 0.311721 0.0270085 0.0878381 0.260209 -0.373245 0.213839 0.0843963 -0.0538653 0.131354 -0.0358216 0.00711242 0.242515 0.132058 0.0352937 -0.100553 0.11119 -0.135419 -0.161378
582 0.0376467 0.0272747 -0.0560252 0.0332136 -0.0934196 -0.00396555 -0.0481618 -0.0631787 -0.171676 0.186316 0.121104 -0.152644 -0.0803735 -0.165892 -0.0564385 0.147748 -0.03111 0.172831 0.0177961 0.0815598 -0.133434 0.0292029 -0.139118 -0.0552532 -0.0671053 0.0220474 -0.112922 -0.176376 0.0884882 0.085998 -0.0777174 -0.0360931
381 0.0358128 0.0145002 -0.0494185 0.037666 -0.070842 0.00128914 -0.0459164 -0.0784059 -0.148614 0.18462 0.120771 -0.109367 -0.0593145 -0.144603 -0.052027 0.1708 -0.0539977 0.172704 0.031328 0.0616206 -0.144122 0.0231123 -0.151141 -0.0625363 -0.0743493 0.00332868 -0.0955019 -0.194953 0.0584695 0.0820408 -0.0834555 -0.013353
475 0.118389 0.177419 -0.0923928 0.11297 0.161579 0.0247607 0.0398315 0.173778 -0.264057 -0.0666232 -0.231925 -0.0932259 -0.070546 -0.0846537 0.103372 -0.0813858 0.0741747 -0.0469027 0.0905134 -0.220403 -0.0248837 -0.136171 0.131049 0.0244921 0.0675393 0.0539077 -0.145174 0.0757454 0.427065 0.0203025 0.144065 0.136627
319 0.160932 0.196902 -0.0967218 0.115792 0.183794 0.0380046 0.0103393 0.195023 -0.293794 -0.0447532 -0.256455 -0.0782772 -0.0728905 -0.0709576 0.145466 -0.0551927 0.0611165 -0.00581741 0.0623317 -0.238073 -0.0188692 -0.174055 0.139446 0.0057956 0.0545742 0.0654449 -0.168822 0.0540017 0.463437 0.0100602 0.146175 0.176052
168 0.156775 -0.155459 -0.00438786 -0.171364 -0.15335 0.0857957 -0.1512 0.0757557 0.0836869 0.0465525 0.0556865 -0.0179971 -0.145705 0.100015 0.237986 -0.00699769 0.0739977 0.182723 -0.3355 0.208841 0.112724 -0.0255579 0.118758 -0.0208069 0.00763502 0.191562 0.134167 0.0609002 -0.152302 0.0593915 -0.111839 -0.151254
57 0.219924 0.194043 -0.137197 0.119101 0.182348 0.0639005 0.00197903 0.220981 -0.352541 -0.0381365 -0.280076 -0.123013 -0.128959 -0.106186 0.199708 -0.0560097 0.0892051 0.0359274 0.0517495 -0.255257 -0.0432837 -0.19731 0.167901 0.00976649 0.0668264 0.109647 -0.167977 0.0571614 0.534159 0.0608783 0.145005 0.155112
177 0.141303 0.0523486 -0.062593 0.114704 0.314552 0.0949174 0.0455742 -0.0707966 0.0537576 -0.114574 -0.263538 0.272627 0.192981 0.0374881 0.161365 0.0739607 -0.118641 0.106568 0.172953 -0.484013 0.0126709 -0.254323 0.000580868 0.0366502 0.0276166 -0.172931 0.107373 -0.108608 0.0203609 -0.0125325 0.1431 0.20662
429 0.0323675 0.0145995 -0.0444806 0.0305313 -0.0740863 0.00138927 -0.0469991 -0.0801571 -0.143894 0.175664 0.113035 -0.110855 -0.0498104 -0.129124 -0.0674531 0.153571 -0.0524457 0.15573 0.0266869 0.0688996 -0.141492 0.0336092 -0.136986 -0.0596162 -0.0824824 9.30256e-05 -0.0929281 -0.174368 0.0588114 0.0723413 -0.0784848 -0.0214414
497 -0.0514551 0.258866 0.150205 -0.0471628 -0.167909 -0.0998153 -0.279123 -0.063047 -0.186337 0.380981 0.120996 -0.13778 0.136353 -0.00379436 -0.228372 0.173231 -0.175755 0.223062 -0.229819 0.261206 0.11871 0.00621131 -0.187935 -0.153392 -0.27336 -0.103593 -0.384958 -0.198789 0.00055698 -0.339255 -0.012495 0.135142
425 -0.277512 0.402579 0.320454 0.185063 0.292457 -0.336889 -0.00318319 0.201435 0.364669 0.0170106 0.0296324 0.435794 0.37102 -0.118292 0.191639 0.218388 -0.148205 0.161432 -0.162382 -0.201747 0.726821 -0.517611 -0.317069 -0.0702567 0.265772 -0.100718 -0.391632 -0.422543 -0.178505 -0.422799 0.143299 0.601015
531 0.0938179 -0.0612597 0.198344 -0.251516 -0.0954693 0.0673796 -0.341015 -0.160189 0.368825 0.148567 0.00762001 0.297646 0.293901 0.344106 0.117974 0.106374 -0.207279 0.351502 -0.471049 0.111886 0.392999 -0.146895 -0.0220006 -0.0654045 -0.199566 -0.136865 0.145443 -0.0850819 -0.608567 -0.349959 -0.025567 0.0197542
507 0.0893403 0.190068 -0.0719919 0.114926 0.156087 0.00202132 0.0395112 0.17219 -0.24284 -0.0577794 -0.208213 -0.081387 -0.0505308 -0.0873074 0.0810104 -0.0708911 0.0629949 -0.0537313 0.0872775 -0.202447 -0.00183813 -0.133098 0.104459 0.0177617 0.0673824 0.0432868 -0.165646 0.0567243 0.400746 -0.00508758 0.139748 0.152021
145 0.147817 0.0157021 -0.109489 0.0276541 -0.105871 0.0421403 -0.0969195 -0.045672 -0.256382 0.24897 0.115924 -0.195921 -0.152233 -0.206669 0.03597 0.206845 -0.0238051 0.301771 -0.0353464 0.0801875 -0.174747 -0.0168075 -0.134 -0.0791662 -0.079187 0.0826405 -0.118537 -0.231633 0.154696 0.154679 -0.109366 -0.0503909
144 0.157138 0.0290106 -0.118026 0.0409336 -0.093831 0.0395418 -0.0909684 -0.01156 -0.285094 0.247616 0.108535 -0.208162 -0.181352 -0.223521 0.0638554 0.209151 -0.00898443 0.300118 -0.0367865 0.0758292 -0.177011 -0.0311194 -0.124229 -0.0831776 -0.0613738 0.108376 -0.140599 -0.231444 0.204245 0.168385 -0.107554 -0.0325278
141 -0.224706 -0.335499 0.0562584 0.247151 0.471947 -0.0632925 0.404676 0.149753 0.372981 -0.290237 0.159142 0.741708 -0.0595825 0.241713 0.282315 0.316539 -0.0996963 -0.427144 0.390708 -0.150738 -0.343354 0.0215277 -0.123293 -0.138516 0.261915 0.0710424 0.218346 -0.206308 -0.0849557 0.329152 -0.283267 0.44352
572 0.0488294 -0.334066 -0.0248443 0.00298796 0.0901482 0.160196 -0.0140394 -0.331039 0.0968074 0.141019 0.160066 0.369301 0.0802493 0.284112 -0.0662171 0.390053 -0.305178 0.0565424 0.204815 0.00423455 -0.531416 0.198936 -0.183739 -0.166387 -0.285744 -0.185502 0.258612 -0.253357 -0.294889 0.161798 -0.277319 0.0740471
196 -0.407509 0.0348349 0.446817 0.137767 0.411932 -0.250064 0.0436002 0.255488 0.366207 0.0197436 0.193597 0.881751 0.266651 0.611538 0.0501841 0.411363 -0.35431 -0.44122 -0.0345047 0.204618 0.042672 -0.0081208 -0.194773 -0.36418 -0.0616265 -0.0829599 -0.280965 -0.256159 -0.191059 -0.382263 -0.231861 0.860938
143 0.102058 -0.229604 0.0356069 -0.147863 0.100446 0.142351 -0.0129887 0.25759 0.0597139 -0.226692 -0.171689 0.242602 -0.146573 0.551937 0.213549 -0.192253 0.0744147 -0.392237 -0.159399 0.148113 -0.127359 0.153696 0.425682 -0.0575115 -0.045331 0.175096 0.223002 0.436952 0.0616327 0.000794242 -0.0815429 0.0513915
474 -0.29974 0.364789 0.321765 0.155244 0.249614 -0.3277 0.0076425 0.156732 0.38987 -0.00253456 0.0430333 0.413932 0.381398 -0.0933839 0.128612 0.176306 -0.143188 0.114059 -0.144282 -0.171282 0.699583 -0.45285 -0.302059 -0.0480472 0.24348 -0.124598 -0.343517 -0.371804 -0.232772 -0.42458 0.143355 0.53294
11 -0.467786 0.0078739 0.437087 0.130058 0.368211 -0.265773 0.0865239 0.163715 0.429589 -0.00573273 0.231726 0.838074 0.299676 0.554789 -0.0449718 0.369313 -0.337193 -0.456521 0.027556 0.205922 0.0517257 0.0461576 -0.232985 -0.314035 -0.0560936 -0.134333 -0.217425 -0.24659 -0.284962 -0.362718 -0.217617 0.750774
133 0.234219 -0.0161916 -0.0255428 -0.113649 0.067117 0.107784 -0.0886365 0.303807 0.0158272 -0.178888 -0.261243 0.0395997 -0.137733 0.18651 0.400376 -0.219407 0.174521 -0.0023881 -0.310922 -0.0430496 0.246308 -0.186481 0.372285 0.0483462 0.132079 0.235698 0.100407 0.294113 0.141477 -0.014389 0.0855326 0.00333725
606 0.146516 0.173847 -0.107963 0.121331 0.171778 0.0313642 0.0376902 0.191922 -0.277099 -0.059758 -0.231208 -0.0931958 -0.0953204 -0.106321 0.146323 -0.059959 0.0812404 -0.0107363 0.0804866 -0.232031 -0.0279921 -0.162787 0.128394 0.0193022 0.0833608 0.0804183 -0.146867 0.050897 0.448693 0.0491597 0.134247 0.144241
304 0.0700998 0.0404649 -0.0730321 0.0431879 -0.0886506 0.00263132 -0.0624428 -0.0454596 -0.210376 0.212077 0.118724 -0.172134 -0.107415 -0.198562 -0.0177951 0.176008 -0.0274058 0.224112 0.000807468 0.0727711 -0.138138 -0.00250458 -0.14535 -0.0658062 -0.0622615 0.0468582 -0.133761 -0.209251 0.12839 0.108316 -0.0838428 -0.025859
352 0.142723 0.0188645 -0.112437 0.0409658 -0.082872 0.0429018 -0.0835808 -0.0367241 -0.265352 0.236885 0.104108 -0.182092 -0.1552 -0.198181 0.0377054 0.207888 -0.0271033 0.275676 -0.01176 0.0628136 -0.193403 -0.0138271 -0.128141 -0.0813675 -0.0779989 0.0761202 -0.11921 -0.224757 0.174016 0.156568 -0.105563 -0.0291904
117 0.165853 0.0409169 -0.121694 0.0426874 -0.0996847 0.0366319 -0.0997179 -0.00868232 -0.29614 0.260389 0.109467 -0.223942 -0.184719 -0.246116 0.0724823 0.215079 -0.00547355 0.328876 -0.050168 0.0745997 -0.162699 -0.0478636 -0.131326 -0.0829714 -0.0567819 0.117551 -0.153578 -0.247438 0.213328 0.171023 -0.105078 -0.0360525
687 -0.318265 0.347006 0.333238 0.159731 0.263544 -0.335575 0.0142932 0.176437 0.406888 -0.00303363 0.0652438 0.451011 0.372773 -0.065276 0.140074 0.196022 -0.149879 0.0866759 -0.146233 -0.144012 0.686885 -0.441357 -0.307163 -0.0691885 0.24639 -0.11063 -0.344813 -0.378676 -0.241269 -0.418257 0.115072 0.562235
708 -0.154606 -7.81719e-05 0.214173 -0.105028 -0.143109 -0.0424347 -0.222941 -0.0832407 -0.125897 0.329237 0.217872 0.0849151 0.084681 0.405006 -0.352615 0.210849 -0.261441 -0.165866 -0.12723 0.499091 -0.267276 0.348925 -0.0929559 -0.271742 -0.445148 -0.11119 -0.238461 -0.0313097 -0.0769265 -0.293299 -0.215351 0.182059
335 0.24222 -0.208405 -0.111628 0.0923967 0.429002 0.267294 0.0501088 -0.0947742 -0.0497791 -0.108833 -0.276474 0.507295 0.0847232 0.432362 0.185573 0.215944 -0.24333 -0.105045 0.292014 -0.399384 -0.509915 -0.0122546 0.122874 -0.116433 -0.195866 -0.162612 0.277971 -0.0269414 0.0950677 0.133303 -0.0644372 0.299113
302 0.164446 0.178347 -0.115721 0.119003 0.169751 0.0423761 0.0249702 0.179287 -0.297823 -0.0446828 -0.239501 -0.100669 -0.0896569 -0.102943 0.137049 -0.0531573 0.0720044 0.00517329 0.0827976 -0.237731 -0.0439522 -0.161353 0.128169 0.0147083 0.0635974 0.0714563 -0.151194 0.0459412 0.461349 0.0475976 0.135701 0.142453
704 -0.308349 0.371495 0.334709 0.171377 0.286583 -0.335675 0.00868118 0.177455 0.408298 -0.00567848 0.0404176 0.462362 0.39258 -0.0734079 0.158636 0.201364 -0.15706 0.111048 -0.148324 -0.181874 0.711506 -0.476392 -0.31116 -0.0663553 0.25281 -0.122698 -0.355173 -0.392595 -0.22991 -0.431288 0.133892 0.587366
535 -0.238772 -0.312324 0.078737 0.19847 0.414065 -0.0644947 0.367529 0.108828 0.385806 -0.287074 0.13757 0.69239 -0.00756662 0.270035 0.201324 0.246551 -0.101716 -0.433933 0.354143 -0.125859 -0.289081 0.05221 -0.0980533 -0.113222 0.215484 0.0246446 0.227543 -0.145023 -0.14608 0.251446 -0.242374 0.382112
35 -0.24789 -0.126595 0.0881702 0.154207 0.0841456 -0.175177 0.180512 -0.153288 0.420545 0.0348951 0.369559 0.328309 0.108533 -0.246914 0.0695029 0.374186 -0.12187 0.176899 0.155191 -0.050974 0.0845649 -0.128269 -0.458729 -0.0375797 0.223364 -0.0557163 0.0555736 -0.516719 -0.42386 0.162399 -0.184663 0.132633
693 0.185992 -0.167363 -0.0153184 -0.173465 -0.163078 0.0939215 -0.168314 0.103576 0.0485531 0.0795099 0.0767413 -0.0333632 -0.200176 0.0896676 0.287628 0.0282968 0.082735 0.223304 -0.37036 0.244874 0.0910081 -0.0326387 0.119282 -0.0434131 0.00927006 0.236759 0.120464 0.0375858 -0.122092 0.09211 -0.145606 -0.146244
16 0.14532 -0.0577934 -0.0987011 0.0908262 0.243048 0.138328 0.0593525 0.239053 -0.389499 -0.0611943 -0.193508 0.103269 -0.228193 0.325067 0.0897657 0.0261992 -0.0117687 -0.370813 0.181284 -0.0142753 -0.531946 0.163643 0.269993 -0.151598 -0.13654 0.123317 -0.0589178 0.206412 0.564035 0.139355 -0.0869793 0.256017
698 0.0810777 0.305 0.144173 0.0135462 0.2368 0.0187683 -0.223321 -0.106852 0.0516722 0.0894357 -0.306264 0.293418 0.460536 0.209507 -0.00493342 0.0896197 -0.283805 0.221638 -0.104887 -0.350907 0.316914 -0.315078 -0.0454276 -0.0480708 -0.204642 -0.343429 -0.149478 -0.13378 -0.110057 -0.485909 0.246606 0.368731
20 0.0950508 0.178824 -0.0662847 0.104833 0.155342 0.0137365 0.0239731 0.165193 -0.249933 -0.0461781 -0.210812 -0.0697451 -0.0487155 -0.0511701 0.0778679 -0.0616275 0.0486963 -0.0570668 0.07788 -0.187541 -0.0248409 -0.117015 0.114543 0.00455113 0.0383135 0.0383515 -0.159845 0.0635136 0.396422 -0.012995 0.128901 0.156693
297 -0.103318 0.187963 0.217923 -0.0466011 0.0960174 -0.0291679 -0.171881 0.17644 -0.253117 0.107783 -0.137566 0.152264 0.121362 0.571881 -0.256844 -0.0296956 -0.188251 -0.441996 -0.092876 0.266722 -0.162567 0.233488 0.190483 -0.230576 -0.382969 -0.100237 -0.32442 0.254188 0.272791 -0.447494 0.00141073 0.392354
690 -0.207647 -0.13025 0.0543238 0.149976 0.0684991 -0.156905 0.179291 -0.141629 0.391458 0.0294094 0.353816 0.280565 0.0701284 -0.288541 0.105593 0.35466 -0.0887784 0.215348 0.143049 -0.0663236 0.0865432 -0.145196 -0.438491 -0.0189443 0.244996 -0.0266614 0.0707529 -0.50635 -0.392646 0.203004 -0.176127 0.0910808
502 -0.371405 -0.105556 0.11647 0.179402 0.190818 -0.214001 0.356824 0.390446 0.0627368 -0.229056 0.20993 0.245548 -0.244193 0.145539 0.0083622 0.0147762 0.110812 -0.696597 0.240291 0.256571 -0.245574 0.239341 0.0277255 -0.124349 0.240369 0.243235 -0.131242 0.106987 0.26938 0.168562 -0.213517 0.306137
222 0.0370873 0.0315543 -0.0444409 0.0365649 -0.0808478 -0.00986285 -0.0553927 -0.0588209 -0.156231 0.194643 0.125378 -0.12381 -0.0662696 -0.158779 -0.0414056 0.169376 -0.0440971 0.187658 0.00460631 0.0792277 -0.117043 0.00968415 -0.152155 -0.0664898 -0.0653339 0.0219126 -0.120915 -0.20072 0.0728615 0.0738595 -0.08266 -0.00993807
19 0.0312562 0.0765997 0.214301 -0.0509177 0.278431 0.106378 -0.238219 -0.129124 0.0150853 0.120752 -0.23301 0.534791 0.420625 0.698372 -0.142086 0.185151 -0.434258 -0.137053 -0.0380675 -0.0877794 -0.139533 0.03878 0.0570857 -0.229096 -0.482949 -0.372039 -0.0515934 0.00881075 -0.1356 -0.487983 0.0230036 0.474802
83 -0.0563559 -0.125239 0.227635 -0.123174 -0.02129 0.0750424 -0.30565 -0.397489 0.117012 0.387908 0.18992 0.426885 0.358535 0.545329 -0.308043 0.44502 -0.515591 0.106997 -0.0804759 0.254121 -0.293134 0.230728 -0.250521 -0.295747 -0.589376 -0.371476 -0.00633811 -0.277042 -0.484047 -0.339968 -0.238329 0.248418
395 -0.549131 0.156803 0.412349 0.0660104 0.0848475 -0.362846 0.0976043 0.448537 0.079717 -0.0225412 0.248829 0.292933 -0.00132345 0.414552 -0.22213 0.0101158 -0.0445546 -0.758189 -0.0817427 0.57194 0.0677668 0.276929 -0.00571392 -0.262122 0.00106514 0.121205 -0.474807 0.141693 0.150452 -0.373803 -0.164466 0.531276
718 0.161936 0.198204 -0.108338 0.113449 0.160008 0.0367297 0.0107643 0.198837 -0.320762 -0.036363 -0.24654 -0.120516 -0.0957032 -0.0949081 0.130964 -0.0666753 0.0774006 -0.00722256 0.0635246 -0.217783 -0.0336343 -0.15773 0.142549 0.00968276 0.0543617 0.0780666 -0.178071 0.062282 0.48604 0.0255397 0.142917 0.149167
715 0.018225 0.0343114 -0.0420108 0.0392847 -0.0823925 -0.012693 -0.0456215 -0.0821733 -0.155613 0.189799 0.125096 -0.129484 -0.0506875 -0.15587 -0.0815425 0.161286 -0.0528256 0.164281 0.0318255 0.0756478 -0.134538 0.0324251 -0.157663 -0.0607357 -0.0803277 -0.00425552 -0.118315 -0.190941 0.0661462 0.0644307 -0.0757265 -0.0174585
334 0.0432253 0.0261698 -0.0561858 0.0379449 -0.0728394 0.00313081 -0.0441395 -0.0823398 -0.156132 0.176289 0.104036 -0.128731 -0.0561072 -0.158528 -0.0546799 0.152361 -0.0448623 0.178262 0.0345472 0.0459265 -0.131655 0.0167577 -0.141307 -0.0496733 -0.0708545 -0.00285458 -0.0946086 -0.181219 0.0680451 0.0778429 -0.0650425 -0.0277869
400 -0.256707 -0.280417 0.0954243 0.235185 0.447661 -0.0915837 0.37059 0.144023 0.371102 -0.260932 0.163235 0.723487 -0.0101748 0.254676 0.22072 0.302304 -0.120716 -0.429254 0.358274 -0.119858 -0.287469 0.0258523 -0.139336 -0.144293 0.22791 0.0385676 0.164005 -0.205476 -0.102502 0.245896 -0.257557 0.462888
406 0.184855 0.0142856 -0.130325 0.0336116 -0.112006 0.0461202 -0.106232 0.00545519 -0.288835 0.265692 0.127698 -0.223045 -0.219686 -0.251186 0.114733 0.229837 0.00711101 0.354448 -0.0758644 0.094961 -0.165414 -0.053481 -0.128229 -0.0883104 -0.0425641 0.148624 -0.136854 -0.256759 0.205129 0.202556 -0.128934 -0.0481044
358 -0.250045 -0.296595 0.0698599 0.224036 0.409693 -0.0777863 0.377947 0.109144 0.352005 -0.263338 0.167486 0.660788 -0.0268233 0.21868 0.184905 0.273325 -0.100752 -0.426902 0.378967 -0.115271 -0.314649 0.0569577 -0.131927 -0.118939 0.222416 0.0332736 0.18818 -0.177553 -0.104223 0.273669 -0.252657 0.38858
713 0.0380394 0.0237403 -0.0500998 0.0262695 -0.0921229 -8.23651e-05 -0.056129 -0.0804207 -0.158349 0.18798 0.115961 -0.139567 -0.0591705 -0.151969 -0.0675694 0.149247 -0.0440956 0.175495 0.0178251 0.0751366 -0.129879 0.0295588 -0.141327 -0.0552727 -0.0806288 0.00469202 -0.101845 -0.177014 0.0630212 0.0717265 -0.0734812 -0.0357039
528 -0.00631357 0.401775 0.144677 0.00591196 0.0623691 -0.0846766 -0.198693 0.173398 -0.241268 0.122168 -0.213076 -0.0631629 0.168 0.122365 -0.101125 -0.0795323 -0.0742799 -0.037056 -0.182707 0.00819706 0.252216 -0.124457 0.0890297 -0.0792413 -0.154441 -0.078965 -0.41212 0.0843721 0.289436 -0.4459 0.201339 0.299434
149 -0.187477 0.0313732 0.0561143 0.246865 0.346441 -0.176043 0.29201 0.109934 0.377298 -0.233769 0.0398264 0.409946 0.119105 -0.217495 0.274668 0.153112 0.000850753 -0.00997364 0.212579 -0.372409 0.266127 -0.340234 -0.225138 0.0525937 0.421488 -0.00621301 0.0276082 -0.308447 -0.122208 0.109757 0.0373735 0.311305
146 0.0475909 0.0239302 -0.0518516 0.0337012 -0.0792854 0.00165739 -0.0575225 -0.063071 -0.172608 0.197301 0.120246 -0.126942 -0.0765052 -0.146036 -0.0437352 0.172071 -0.0475196 0.181966 0.00973724 0.0816461 -0.144036 0.0224396 -0.142732 -0.0705092 -0.0801043 0.0219206 -0.115298 -0.192897 0.0871207 0.0830013 -0.0878384 -0.0135742
249 -0.478363 0.0326699 0.463192 0.119205 0.353939 -0.26837 0.0463516 0.180041 0.384921 0.0358482 0.230647 0.839347 0.314936 0.615625 -0.0839482 0.376451 -0.37135 -0.488311 0.0110698 0.253077 0.0189659 0.0779166 -0.228293 -0.352339 -0.10336 -0.138937 -0.268727 -0.231117 -0.253328 -0.412044 -0.235306 0.801242
110 0.0832973 0.0310934 -0.0767293 0.0431628 -0.0808951 0.0126769 -0.0665504 -0.0504713 -0.215855 0.217339 0.114649 -0.159665 -0.108117 -0.186607 -0.0110383 0.187168 -0.0358351 0.227837 0.00599426 0.0659134 -0.155111 -0.00137048 -0.143689 -0.0711917 -0.0706884 0.0440968 -0.126415 -0.213604 0.128971 0.113045 -0.089648 -0.0187496
509 -0.36913 0.023332 0.430798 0.154166 0.438049 -0.24383 0.0345875 0.272667 0.352891 0.0416137 0.192569 0.908425 0.231159 0.584637 0.129081 0.463641 -0.362113 -0.381202 -0.0511895 0.191294 0.0362582 -0.0477628 -0.212808 -0.38308 -0.0429394 -0.0516672 -0.279865 -0.308776 -0.160121 -0.339676 -0.264764 0.888271
610 0.132592 0.0719191 0.188375 -0.0419393 0.350864 0.168151 -0.283985 -0.0953901 -0.0616554 0.146851 -0.302852 0.600959 0.401503 0.780644 -0.0543862 0.249669 -0.476011 -0.0958201 -0.0532691 -0.141561 -0.216016 -0.000889538 0.096207 -0.277374 -0.537436 -0.360897 -0.0569769 -0.0101528 -0.0500827 -0.480024 0.00608168 0.565153
581 0.10368 0.179475 -0.0773654 0.116219 0.167925 0.0142795 0.0364435 0.157228 -0.239795 -0.0529085 -0.214085 -0.062609 -0.0446683 -0.0771217 0.0954278 -0.0512217 0.0489178 -0.0339582 0.0919867 -0.220008 -0.0172288 -0.140622 0.0995199 0.0123329 0.0569722 0.0343156 -0.149536 0.0410238 0.389517 0.00297956 0.134366 0.157741
640 0.116597 0.216265 0.192974 -0.206047 -0.0186023 -0.00197007 -0.30265 0.342299 0.0105507 -0.0195327 -0.266649 0.0428845 0.0629271 0.36949 0.223227 -0.24761 0.0618462 -0.0158374 -0.56657 0.163432 0.520826 -0.184447 0.35753 -0.0385027 -0.0546583 0.125342 -0.169651 0.33231 0.0609879 -0.454241 0.160568 0.163314
312 -0.0703391 0.228954 0.154241 -0.0421936 -0.148362 -0.100493 -0.249542 -0.0649382 -0.148307 0.348166 0.126193 -0.0986781 0.137887 0.01588 -0.220933 0.170807 -0.174445 0.184793 -0.20405 0.251969 0.102822 0.0187534 -0.18543 -0.150192 -0.256591 -0.104911 -0.351287 -0.189656 -0.0252697 -0.321851 -0.0225473 0.14033
135 -0.338607 -0.275607 0.0748627 0.102833 -0.0704347 -0.173092 0.237347 0.103165 0.0668253 0.0636182 0.524365 0.117563 -0.295181 0.00390043 -0.106106 0.273741 0.00956406 -0.359874 0.184645 0.493818 -0.430768 0.373474 -0.231823 -0.190379 0.0817215 0.219898 -0.0655311 -0.176069 -0.00909071 0.316337 -0.430873 0.0791985
161 0.0365204 0.0354164 -0.0533776 0.0396388 -0.0915272 -0.0123409 -0.0510501 -0.0707403 -0.158566 0.198086 0.132531 -0.147832 -0.0709253 -0.19274 -0.0464107 0.168885 -0.0376723 0.206974 0.0120609 0.0711791 -0.111668 0.00472243 -0.165084 -0.0557334 -0.055443 0.0202456 -0.119264 -0.212551 0.0682192 0.085512 -0.0778638 -0.0295483
184 0.0954438 0.0243217 -0.0820641 0.0369255 -0.0881117 0.0196506 -0.075068 -0.0456198 -0.227025 0.226045 0.117808 -0.163975 -0.123001 -0.180026 0.000187428 0.193755 -0.0343379 0.237835 -0.0090282 0.0820268 -0.167009 0.00249575 -0.138371 -0.079164 -0.0783133 0.0556166 -0.126801 -0.213595 0.135663 0.118917 -0.0991555 -0.0214478
372 0.0870208 0.179795 -0.0577091 0.0942321 0.152207 0.0125645 0.0245249 0.143957 -0.211881 -0.0634788 -0.221047 -0.0588259 -0.0169934 -0.0430191 0.0653563 -0.0827437 0.045613 -0.0575927 0.074254 -0.2034 0.00903378 -0.122841 0.115512 0.0207211 0.0404456 0.0152967 -0.139314 0.0761469 0.352825 -0.0356117 0.147829 0.141789
417 0.044761 0.0509346 0.210346 -0.0538979 0.289511 0.11577 -0.23559 -0.122031 0.0326419 0.116538 -0.224817 0.569526 0.407579 0.712992 -0.110782 0.210737 -0.439567 -0.127447 -0.041357 -0.0893146 -0.152928 0.0355271 0.0506785 -0.240304 -0.479281 -0.362059 -0.0330046 -0.00829246 -0.150725 -0.470001 -0.00139634 0.489264
486 0.116911 0.163505 -0.0943855 0.106635 0.153285 0.0284112 0.0416326 0.158306 -0.251523 -0.0695463 -0.224512 -0.0923891 -0.0657195 -0.0806878 0.0907697 -0.0836975 0.0722288 -0.0485415 0.0965073 -0.217098 -0.0338056 -0.123792 0.127988 0.0273821 0.061694 0.0486633 -0.128708 0.0773389 0.407474 0.026959 0.138244 0.119603
392 0.161624 -0.0933631 -0.0943257 0.0556575 0.0835135 0.114695 -0.0561391 -0.296169 0.055046 0.15824 0.0408352 0.167358 0.125792 -0.104218 0.0843536 0.330263 -0.206089 0.420384 0.104179 -0.251182 -0.141442 -0.148467 -0.248215 -0.0380002 -0.095655 -0.168891 0.142681 -0.389235 -0.215865 0.129016 -0.069364 0.0254638
592 0.135665 0.343722 0.121105 0.0372713 0.27104 0.0298939 -0.238472 -0.0768155 -0.00214437 0.106028 -0.343937 0.281601 0.443406 0.1703 0.0567793 0.113851 -0.279293 0.282554 -0.113071 -0.405709 0.326733 -0.381738 -0.0408763 -0.052224 -0.188346 -0.321579 -0.180427 -0.167944 -0.035803 -0.468321 0.262659 0.403168
382 -0.0180915 0.403708 0.153679 -0.00232047 0.0575436 -0.0881148 -0.196442 0.164115 -0.217541 0.10657 -0.220625 -0.0598075 0.187748 0.133206 -0.119995 -0.102295 -0.0747615 -0.0538588 -0.183052 0.00411901 0.273792 -0.119548 0.0948729 -0.0670222 -0.154997 -0.096681 -0.400706 0.103439 0.263894 -0.465581 0.215679 0.287444
357 0.0431686 0.0134819 -0.0641666 0.0351826 -0.0815968 0.00619742 -0.0364709 -0.086632 -0.1587 0.172651 0.110612 -0.141572 -0.0674868 -0.163385 -0.0626024 0.145787 -0.0375762 0.171039 0.0400899 0.0536117 -0.148549 0.0301983 -0.13864 -0.0461599 -0.069459 0.00509964 -0.0850054 -0.174556 0.0708417 0.0949109 -0.0710737 -0.0458842
223 -0.170833 -0.334583 0.00953557 0.262148 0.486889 -0.0375218 0.415864 0.167342 0.322978 -0.303807 0.122425 0.707482 -0.102722 0.201839 0.328178 0.307359 -0.0729512 -0.396802 0.409565 -0.201009 -0.370108 -0.00483163 -0.0991441 -0.122944 0.285717 0.100392 0.234263 -0.203992 -0.0200246 0.385422 -0.272049 0.425135
534 0.0340501 0.039806 -0.040601 0.0311457 -0.0866467 -0.00853099 -0.0634409 -0.0735698 -0.163215 0.201481 0.119301 -0.132523 -0.0556541 -0.153051 -0.0613239 0.165191 -0.0526223 0.187304 0.00865122 0.0778088 -0.118385 0.0196057 -0.152492 -0.0645802 -0.0841812 0.00169376 -0.125044 -0.192592 0.0679609 0.0538492 -0.0734922 -0.0128197
68 -0.0336567 0.0122214 -0.0233257 0.0363601 -0.0842377 -0.0289704 -0.0110658 -0.0852517 -0.108515 0.148239 0.139736 -0.110426 -0.0371947 -0.130182 -0.119237 0.126589 -0.0432957 0.0864945 0.0605064 0.0928346 -0.136127 0.0725213 -0.148985 -0.0483519 -0.0659975 -0.0144488 -0.0935027 -0.150862 0.0313048 0.0594492 -0.0759251 -0.0297119
618 -0.484326 0.0253027 0.447862 0.140044 0.367507 -0.284116 0.0777701 0.19207 0.425309 -0.0109764 0.230707 0.849889 0.302494 0.556885 -0.0193551 0.361492 -0.337824 -0.468031 0.00793525 0.209146 0.0796029 0.0232323 -0.233928 -0.318581 -0.0396428 -0.116718 -0.241261 -0.236755 -0.264555 -0.377427 -0.216621 0.785812
666 0.311743 -0.11957 -0.0375898 -0.108876 0.216614 0.199526 -0.0901065 0.0718596 0.280342 -0.230242 -0.336677 0.34211 0.0963703 0.25212 0.497106 -0.0920176 0.014954 0.203553 -0.231812 -0.357231 0.299011 -0.344166 0.268068 0.0876495 0.113449 0.0252631 0.355105 0.122981 -0.210078 -0.0207292 0.120509 0.0374228
621 -0.43074 0.0248646 0.452209 0.155489 0.430555 -0.273946 0.067788 0.272524 0.398518 0.0038305 0.210355 0.918399 0.253317 0.588053 0.087151 0.427628 -0.343381 -0.444437 -0.0291742 0.204733 0.0615351 -0.0248374 -0.216297 -0.368673 -0.0238546 -0.0614183 -0.273964 -0.287514 -0.204442 -0.355333 -0.256222 0.875423
364 0.14142 0.339216 0.114198 0.0387345 0.266576 0.0319759 -0.238966 -0.0677739 -0.0143049 0.113642 -0.334346 0.272809 0.42553 0.162174 0.0661697 0.121425 -0.274006 0.28978 -0.119046 -0.393948 0.318252 -0.381427 -0.0414364 -0.0570649 -0.184106 -0.30491 -0.186956 -0.174509 -0.0211089 -0.454093 0.253551 0.401985
348 -0.530745 0.170488 0.406327 0.0806428 0.0964496 -0.366349 0.0861499 0.497424 0.0137699 0.0102746 0.257667 0.283629 -0.0512251 0.413017 -0.193699 0.0470059 -0.0411942 -0.757083 -0.0936974 0.606643 0.0249285 0.276913 -0.00207363 -0.296356 -0.00339089 0.167424 -0.526153 0.122982 0.23468 -0.351448 -0.193904 0.575426
211 0.19413 0.195248 -0.12785 0.121164 0.163479 0.0458548 0.0075553 0.212426 -0.340101 -0.0266872 -0.247045 -0.132751 -0.126136 -0.126408 0.177994 -0.0460363 0.0887149 0.0372266 0.0523126 -0.230352 -0.0368079 -0.185404 0.139902 0.00844484 0.0725537 0.10683 -0.178088 0.0390683 0.511187 0.0603482 0.135559 0.14805
631 -0.481192 0.0369116 0.444223 0.146453 0.348835 -0.284438 0.084674 0.170878 0.410994 0.00686714 0.243536 0.807865 0.295386 0.526112 -0.0594873 0.371102 -0.342774 -0.446001 0.0252492 0.207072 0.0648719 0.0412865 -0.255497 -0.313132 -0.0462244 -0.135425 -0.254828 -0.256222 -0.263658 -0.377372 -0.214094 0.771378
526 -0.24687 0.175328 0.0454564 0.233654 0.158329 -0.270526 0.287907 0.400429 0.0237522 -0.185016 0.0906745 -0.00522415 -0.176401 -0.317586 0.163564 -0.0436864 0.218145 -0.248654 0.117678 -0.0238487 0.215528 -0.160397 -0.0661704 0.0280037 0.448867 0.251312 -0.275013 -0.0666867 0.334979 0.119462 0.0273441 0.236897
3 -0.545412 0.181377 0.39259 0.0656815 0.0555639 -0.360587 0.0926648 0.415878 0.0306989 -0.00372383 0.242481 0.223006 -0.000694583 0.37249 -0.279562 -0.0104949 -0.0410459 -0.745156 -0.0581986 0.568167 0.0454851 0.298644 -0.0124567 -0.24691 -0.0241329 0.100245 -0.492088 0.149957 0.179295 -0.373283 -0.144195 0.489366
89 -0.00207299 0.0139759 -0.0327697 0.0352161 -0.0803634 -0.016993 -0.0308593 -0.0850841 -0.127323 0.172255 0.136191 -0.10754 -0.0443556 -0.133228 -0.0937922 0.153375 -0.0543376 0.12668 0.0440764 0.0865573 -0.141769 0.0532525 -0.155046 -0.0596483 -0.0766808 -0.00931657 -0.100515 -0.175712 0.0410084 0.0634084 -0.083041 -0.0184816
638 -0.47224 0.0499845 0.467298 0.123188 0.362575 -0.285577 0.0588083 0.190574 0.431836 0.0138888 0.227883 0.84943 0.327633 0.572256 -0.0336429 0.369854 -0.351178 -0.446509 -0.0160998 0.215422 0.105297 0.013443 -0.240292 -0.330486 -0.0556987 -0.126277 -0.256894 -0.258411 -0.288713 -0.411053 -0.209071 0.787825
379 -0.503157 -0.219037 0.412749 -0.00731802 -0.062315 -0.250452 -0.0441321 -0.228105 0.509965 0.299645 0.648466 0.577877 0.250648 0.34074 -0.283091 0.56227 -0.40335 -0.12091 -0.0433185 0.564988 -0.100302 0.273275 -0.52037 -0.32062 -0.213606 -0.169849 -0.114701 -0.475995 -0.6976 -0.208495 -0.448767 0.346688
127 0.118245 0.0425929 0.175084 -0.0437702 0.326752 0.170305 -0.264597 -0.122907 -0.0563365 0.145066 -0.275613 0.580803 0.385154 0.763842 -0.0820139 0.245951 -0.467268 -0.11053 -0.0242718 -0.122479 -0.25419 0.0360986 0.0865855 -0.269238 -0.535312 -0.358362 -0.0335091 -0.00793614 -0.0634545 -0.444084 -0.0112047 0.523413
173 0.200379 -0.229783 -0.0979171 0.0953144 0.421362 0.248412 0.0781374 -0.0929368 -0.0183494 -0.126522 -0.243519 0.519636 0.0810193 0.441024 0.163129 0.20695 -0.235415 -0.156666 0.308175 -0.367914 -0.516896 0.0216852 0.112873 -0.114532 -0.180318 -0.161277 0.287327 -0.0153232 0.067902 0.142417 -0.0806501 0.292438
424 0.130108 0.0422653 0.18054 -0.0570227 0.322703 0.172777 -0.279478 -0.123851 -0.0234469 0.143483 -0.278162 0.594488 0.398072 0.75943 -0.0506702 0.247826 -0.467428 -0.0698648 -0.060539 -0.130729 -0.204596 0.00402672 0.0836569 -0.263131 -0.522089 -0.356111 -0.0159653 -0.0195613 -0.102663 -0.452129 -0.00570372 0.516236
580 0.131109 0.175125 -0.0865048 0.107718 0.168412 0.0297087 0.0226766 0.176287 -0.263053 -0.0531965 -0.232162 -0.0709015 -0.0653744 -0.0613541 0.114763 -0.0614413 0.0581553 -0.0333677 0.0737631 -0.215459 -0.0272156 -0.14296 0.130172 0.00916724 0.0514582 0.0552929 -0.147912 0.0632521 0.421223 0.0103767 0.133215 0.155848
671 0.0137844 -0.0194428 0.239206 -0.246507 0.0151909 0.0547335 -0.23677 0.306113 0.0293744 -0.056892 -0.176855 0.250448 0.0232763 0.759765 0.0561669 -0.204951 -0.0400667 -0.402408 -0.426758 0.372247 0.103202 0.16858 0.428215 -0.161621 -0.24754 0.092039 -0.0328927 0.476806 0.0013918 -0.40779 -0.0340651 0.206556
801 0.36148 -0.033908 -0.150573 -0.089301 -0.12589 0.164165 -0.224661 0.0785448 -0.290258 0.215452 -0.0301224 -0.214678 -0.256887 -0.0735905 0.282833 0.111073 0.0554658 0.402036 -0.277554 0.0951139 -0.0807778 -0.103988 0.0937827 -0.0677653 -0.0807495 0.21945 -0.0217345 -0.0690923 0.201123 0.158946 -0.0895312 -0.111122
373 0.3198 -0.102608 -0.0470549 -0.095193 0.229559 0.203532 -0.088292 0.0705668 0.244059 -0.223278 -0.352747 0.330068 0.0948746 0.243902 0.486631 -0.0888865 0.0106186 0.202295 -0.212924 -0.375095 0.274738 -0.345388 0.269344 0.0844895 0.103144 0.0200219 0.338286 0.120073 -0.168737 -0.0184078 0.128554 0.0497758
138 0.0539405 0.0215049 0.0921897 -0.216996 -0.0412793 0.234136 -0.273789 -0.560781 -0.0257718 0.0771468 -0.337007 0.102685 0.579022 0.618045 -0.631201 -0.181067 -0.382741 -0.149462 0.110875 -0.146242 -0.216447 0.316497 0.151299 0.0163504 -0.701056 -0.653952 0.208559 0.325996 -0.36382 -0.543229 0.230942 -0.0976901
201 0.211028 -0.332752 -0.25115 -0.0396553 0.148926 0.361786 0.135383 -0.465727 0.0163239 -0.255886 -0.318988 0.12077 0.166784 0.267948 -0.211316 -0.158521 -0.118045 -0.182705 0.495371 -0.472252 -0.572325 0.248698 0.195868 0.160848 -0.250082 -0.364695 0.603157 0.276699 -0.152382 0.20478 0.0993635 -0.296088
285 0.103658 0.169748 -0.20027 0.0218855 -0.0730277 0.0647461 0.0828659 -0.0444169 -0.285501 -0.153581 -0.281545 -0.476125 -0.0353491 -0.284656 -0.185014 -0.393999 0.207532 -0.0699407 0.19997 -0.265487 0.00260372 0.0144303 0.194953 0.240451 0.0551663 -0.0540995 0.00895031 0.305573 0.333476 0.0472859 0.305244 -0.307727
506 0.154032 -0.176563 -0.0909812 -0.268605 -0.372859 0.129927 -0.137217 -0.13539 0.0849373 -0.00980464 0.0234811 -0.34332 -0.107064 -0.0619839 -0.00269784 -0.264423 0.179067 0.19758 -0.270411 0.186511 0.149655 0.103124 0.167129 0.163879 -0.0170461 0.0887513 0.284009 0.25092 -0.27707 0.0747621 0.0174851 -0.549809
616 0.0143077 0.0296214 -0.0377553 0.0448708 -0.058352 -0.0146647 -0.0311076 -0.0632479 -0.134672 0.16344 0.112868 -0.100369 -0.0482256 -0.142961 -0.0572676 0.1531 -0.0474269 0.14366 0.038319 0.0546276 -0.120897 0.018957 -0.146081 -0.0561255 -0.0574198 0.0030088 -0.106432 -0.181903 0.0658991 0.0683799 -0.0706407 -0.000200957
120 0.0409945 0.0315563 -0.054459 0.0366285 -0.0867989 -0.00256849 -0.0525972 -0.0754135 -0.175396 0.19714 0.120327 -0.146643 -0.0713355 -0.167832 -0.0586537 0.163333 -0.0440001 0.187171 0.0220127 0.0721276 -0.1394 0.0239699 -0.150844 -0.0596652 -0.0772158 0.00907994 -0.11619 -0.192886 0.0826317 0.0799767 -0.0768058 -0.0268543
689 0.0968235 0.0289674 -0.0894209 0.0451853 -0.079648 0.0190231 -0.0642676 -0.0565468 -0.216984 0.215317 0.110696 -0.163821 -0.108795 -0.200915 -0.00330956 0.189922 -0.0329925 0.249955 0.00766036 0.0528038 -0.157949 -0.0106451 -0.146771 -0.066821 -0.0669025 0.0464997 -0.118595 -0.222952 0.131464 0.127415 -0.0877444 -0.0280529
512 0.155631 -0.155486 -0.000690526 -0.169187 -0.151241 0.0825854 -0.152729 0.0737067 0.0917172 0.0527538 0.0633939 -0.0118539 -0.146415 0.0941873 0.24872 0.00567636 0.0708568 0.19969 -0.342742 0.210209 0.119262 -0.0337761 0.108568 -0.0238006 0.0109619 0.191882 0.133694 0.04547 -0.163242 0.0612117 -0.116692 -0.146768
236 0.0339621 0.0315721 0.0971273 -0.231417 -0.0395585 0.231479 -0.277904 -0.568038 -0.0148202 0.0795083 -0.331292 0.101756 0.590276 0.628755 -0.660922 -0.182712 -0.390151 -0.175002 0.11345 -0.131852 -0.22375 0.333333 0.134568 0.0153856 -0.706671 -0.665152 0.20707 0.323013 -0.378406 -0.561789 0.220613 -0.0992198
200 0.0134885 -0.00102572 0.111716 -0.239266 -0.055492 0.220445 -0.255115 -0.558204 0.0191949 0.0594152 -0.303221 0.118793 0.571401 0.63293 -0.646035 -0.195443 -0.385513 -0.203302 0.116233 -0.105482 -0.218964 0.360805 0.141124 0.0142222 -0.6915 -0.651306 0.225049 0.346313 -0.393976 -0.550746 0.201055 -0.120561
295 0.198448 -0.213372 -0.0874228 0.0939033 0.416747 0.235036 0.068456 -0.0660422 -0.018762 -0.11766 -0.237704 0.51333 0.0720205 0.425309 0.185906 0.210386 -0.225716 -0.13808 0.277368 -0.356102 -0.477308 -0.00236208 0.110024 -0.118239 -0.1615 -0.139559 0.263306 -0.0264658 0.0758657 0.132736 -0.0798403 0.306135
454 -0.0980249 -0.206539 0.151161 -0.26794 -0.325521 0.140393 -0.311532 -0.756707 0.17001 0.349551 0.200408 0.0601443 0.460634 0.417158 -0.700481 0.161116 -0.444312 0.100829 0.0234787 0.28112 -0.318341 0.4671 -0.217084 -0.0831922 -0.701703 -0.557134 0.208522 -0.0464086 -0.731911 -0.34687 -0.112589 -0.261707
612 0.0141119 0.0358333 0.113643 -0.222619 -0.0334171 0.204912 -0.254551 -0.524289 -0.00659692 0.0691923 -0.305515 0.0962054 0.568847 0.593034 -0.630238 -0.185076 -0.37613 -0.176364 0.1097 -0.112127 -0.196787 0.320628 0.137267 0.0101412 -0.664035 -0.622559 0.177678 0.318857 -0.350576 -0.549453 0.225941 -0.0873877
508 0.072863 0.0328222 -0.0694349 0.0464919 -0.0706994 0.00536662 -0.0571861 -0.0496759 -0.19022 0.202454 0.113478 -0.140667 -0.0922999 -0.183397 -0.00902804 0.184013 -0.0372117 0.222471 0.00715385 0.056601 -0.137831 -0.0107325 -0.148871 -0.0678067 -0.0588587 0.0389527 -0.121814 -0.217257 0.113498 0.107922 -0.0848961 -0.0116855
180 0.137671 0.0552445 0.0549869 -0.239325 -0.018945 0.284628 -0.310518 -0.539478 -0.0866599 0.0684266 -0.42499 0.0768315 0.562358 0.62475 -0.57705 -0.205592 -0.378374 -0.105934 0.0815474 -0.202864 -0.222432 0.278538 0.211477 0.0230324 -0.710207 -0.637214 0.215204 0.360201 -0.285494 -0.547448 0.25841 -0.10977
282 0.260877 -0.220283 -0.125923 0.100728 0.440168 0.270835 0.0614183 -0.028591 -0.0826801 -0.122543 -0.279435 0.498404 0.021692 0.434288 0.242614 0.210211 -0.208978 -0.128008 0.276842 -0.380036 -0.526314 -0.0165273 0.157786 -0.124945 -0.163751 -0.102142 0.266795 -0.00521791 0.164364 0.174472 -0.0804066 0.314189
279 0.0489735 0.0259427 0.0992923 -0.23566 -0.042296 0.232706 -0.282946 -0.552106 -0.00336338 0.0541654 -0.35491 0.108976 0.583094 0.649497 -0.637519 -0.216701 -0.380875 -0.187164 0.103321 -0.141166 -0.201334 0.321873 0.176399 0.0194452 -0.70351 -0.656375 0.214305 0.366438 -0.374201 -0.56778 0.237402 -0.100372
270 0.105436 0.0386983 0.189042 -0.0515837 0.317762 0.157174 -0.265274 -0.0870981 -0.0369243 0.1397 -0.256199 0.58446 0.365349 0.767434 -0.055079 0.241447 -0.450642 -0.118313 -0.0593882 -0.0875441 -0.224388 0.0320608 0.0959577 -0.2745 -0.513309 -0.327451 -0.0366607 0.000296248 -0.0716712 -0.441998 -0.02328 0.526958
677 0.0182474 0.00819828 0.108836 -0.231187 -0.0613296 0.222589 -0.261039 -0.554394 0.00482072 0.0639919 -0.305651 0.0918083 0.568822 0.61377 -0.651405 -0.184912 -0.377563 -0.191935 0.117327 -0.0942684 -0.220514 0.349227 0.144344 0.0199187 -0.687778 -0.635487 0.206705 0.333417 -0.385346 -0.543702 0.207169 -0.110329
170 0.0344048 0.0299781 -0.0495003 0.0439822 -0.0645813 -0.00244996 -0.0435622 -0.0814057 -0.15531 0.182386 0.109745 -0.116125 -0.0488924 -0.154484 -0.058424 0.16491 -0.0541009 0.175136 0.0383747 0.0460405 -0.135384 0.0149276 -0.152217 -0.0578469 -0.0735438 -0.0063941 -0.107186 -0.194712 0.0706549 0.0719941 -0.0690646 -0.00730357
340 0.0586873 0.0500336 0.210263 -0.050721 0.314367 0.131199 -0.245627 -0.112349 0.017081 0.114574 -0.250669 0.593427 0.415084 0.760059 -0.105551 0.210828 -0.45368 -0.146811 -0.0407666 -0.100121 -0.174926 0.0378089 0.0732671 -0.251642 -0.499663 -0.364967 -0.0314513 0.00575364 -0.129478 -0.477195 0.00245206 0.514666
240 0.0368447 0.0267547 0.101032 -0.217883 -0.0189691 0.231077 -0.267855 -0.554774 -0.0377273 0.0716357 -0.329551 0.123525 0.576851 0.638687 -0.641559 -0.172976 -0.397356 -0.193101 0.132611 -0.132702 -0.241179 0.330331 0.142566 -0.00678431 -0.7144 -0.664742 0.184553 0.333423 -0.332849 -0.553781 0.218002 -0.0652694
238 0.231501 -0.203027 -0.0993651 0.0893264 0.420429 0.255211 0.0452336 -0.074417 -0.0474267 -0.105189 -0.265703 0.505333 0.0782025 0.43725 0.187113 0.211606 -0.237831 -0.117805 0.273965 -0.374411 -0.493213 -0.00907354 0.125228 -0.121839 -0.191119 -0.150663 0.259951 -0.020417 0.0988361 0.120279 -0.0666091 0.309804
46 0.0528925 0.013088 0.0998489 -0.238038 -0.0310358 0.248015 -0.29499 -0.565465 -0.0315551 0.0708451 -0.35125 0.121397 0.587636 0.679985 -0.656903 -0.179788 -0.411753 -0.199479 0.111972 -0.131214 -0.252455 0.35439 0.167599 -0.00599962 -0.739115 -0.676265 0.206081 0.349386 -0.361115 -0.577197 0.223028 -0.0809587
166 0.044994 0.163952 -0.0404997 0.087295 0.131823 -0.00956978 0.043286 0.115307 -0.15259 -0.0745531 -0.185513 -0.0502492 0.00792145 -0.0590588 0.0339768 -0.0899332 0.045364 -0.0671776 0.0814842 -0.188686 0.0396241 -0.109801 0.0864469 0.0346681 0.0572941 -0.0034232 -0.118428 0.0689574 0.280309 -0.043449 0.144417 0.117374
518 0.108412 0.0357927 -0.0954988 0.0417464 -0.0909433 0.0226286 -0.0750762 -0.0417145 -0.245253 0.226191 0.108274 -0.189775 -0.130417 -0.206842 0.00516105 0.185973 -0.0231865 0.254746 -0.00468705 0.0663413 -0.162065 -0.00769921 -0.136489 -0.0694763 -0.0695973 0.0609026 -0.131722 -0.214058 0.157785 0.130649 -0.0894214 -0.0337697
167 0.0854075 -0.0574504 0.192112 -0.24177 -0.0940161 0.0606777 -0.324898 -0.156869 0.365125 0.137949 0.00791375 0.282842 0.286291 0.320808 0.115786 0.0964037 -0.194579 0.346809 -0.456342 0.103733 0.392135 -0.147389 -0.0242613 -0.0563494 -0.184162 -0.135486 0.144435 -0.0823723 -0.598284 -0.337787 -0.0195863 0.0111589
64 0.178077 0.0194803 -0.210597 0.0226072 0.0845022 0.173775 0.0823581 -0.375568 0.0724885 -0.201424 -0.334619 -0.102741 0.26648 -0.218349 -0.0955711 -0.215511 -0.00098149 0.205769 0.299367 -0.626973 0.0540347 -0.161412 0.0318361 0.288331 0.0226424 -0.326262 0.339386 0.065489 -0.148273 0.0535599 0.326035 -0.293606
118 0.320239 0.036568 -0.0215758 -0.27043 -0.00218971 0.409702 -0.40676 -0.593224 -0.227205 0.132896 -0.53722 0.04309 0.554593 0.685736 -0.535181 -0.179566 -0.418674 0.0115971 0.0647597 -0.282979 -0.335515 0.253075 0.281027 0.00379549 -0.837327 -0.671232 0.254166 0.378524 -0.203532 -0.533588 0.280136 -0.123586
548 -0.0293781 -0.123155 -0.118634 -0.0579925 -0.0758838 0.131459 0.125679 -0.125459 -0.222946 -0.171119 -0.147106 -0.228898 -0.0551529 0.19819 -0.403419 -0.332139 0.0680791 -0.497746 0.318858 0.0320672 -0.463979 0.445948 0.265915 0.0904585 -0.203338 -0.115689 0.176535 0.473214 0.190269 0.0638314 0.0634372 -0.272799
436 -0.230652 -0.0348707 0.153045 -0.242799 -0.468313 -0.00844123 -0.228154 -0.410102 -0.133282 0.315932 0.245467 -0.321619 0.175218 0.275288 -0.805609 -0.0843006 -0.1902 -0.221524 -0.023098 0.582323 -0.30443 0.624464 -0.0717018 -0.0827544 -0.581179 -0.295578 -0.0927064 0.207428 -0.275442 -0.336568 -0.093454 -0.309844
53 0.016846 0.0288456 0.104668 -0.222976 -0.0468124 0.216671 -0.258076 -0.555725 -0.0275482 0.0595233 -0.319339 0.0765519 0.5816 0.597733 -0.679523 -0.202949 -0.375674 -0.199687 0.134749 -0.12219 -0.221237 0.348459 0.152297 0.0202937 -0.685682 -0.665423 0.186361 0.351619 -0.342631 -0.561868 0.227895 -0.105615
376 0.0254387 0.0289551 -0.046465 0.0452465 -0.0597684 -0.00673865 -0.0333055 -0.0779022 -0.141923 0.166677 0.10627 -0.106571 -0.0430924 -0.146797 -0.0641149 0.154515 -0.0508125 0.155056 0.0446237 0.0445626 -0.130642 0.0183637 -0.146236 -0.0538329 -0.0665201 -0.00460571 -0.103181 -0.183819 0.0698308 0.0703404 -0.0662493 -0.00684046
296 0.114062 0.187717 -0.0863134 0.112874 0.16225 0.0188018 0.0349299 0.161849 -0.251006 -0.0621666 -0.230779 -0.0892404 -0.0494505 -0.0931345 0.0958308 -0.0765771 0.0653522 -0.0307624 0.0903139 -0.231918 -0.00326445 -0.14825 0.115313 0.0279712 0.0664549 0.0390436 -0.14954 0.0603283 0.406305 0.00421486 0.153639 0.138922
574 0.197769 -0.163243 -0.0233315 -0.175683 -0.165449 0.100634 -0.172342 0.0906477 0.048666 0.0772466 0.0642239 -0.0411227 -0.188668 0.0805419 0.283141 0.0205642 0.0825752 0.237847 -0.366563 0.224982 0.0981647 -0.0410864 0.120011 -0.0330186 0.00679723 0.224743 0.126578 0.0387823 -0.125631 0.0895284 -0.132275 -0.157176
421 0.252499 0.0503931 -0.239669 0.0259469 0.110056 0.208527 0.0489255 -0.364165 0.00545551 -0.186939 -0.402125 -0.122132 0.261161 -0.222642 -0.0499034 -0.214389 -0.00500882 0.261852 0.284134 -0.687573 0.0531712 -0.210489 0.0646537 0.289715 0.00526798 -0.32782 0.324693 0.0691089 -0.0806948 0.0467402 0.359351 -0.273804
641 0.144346 0.0297276 -0.114141 0.0350244 -0.103106 0.0399676 -0.0926597 -0.0405601 -0.275138 0.246746 0.105983 -0.212315 -0.153989 -0.218795 0.0268717 0.197098 -0.0188635 0.292219 -0.0242167 0.0706312 -0.176703 -0.0168734 -0.129867 -0.0744613 -0.0779724 0.0798315 -0.130527 -0.2237 0.17691 0.150462 -0.0972452 -0.0487162
153 0.0518075 0.15559 -0.0368737 0.0889309 0.149647 0.000312736 0.0397962 0.14492 -0.180472 -0.0749166 -0.194769 -0.0295936 -0.0148395 -0.00871913 0.0434883 -0.0834618 0.0404453 -0.109459 0.0820692 -0.167138 -0.00473273 -0.0869536 0.113442 0.0121915 0.0379778 0.0121072 -0.127251 0.0910015 0.319764 -0.0421466 0.126291 0.148514
536 0.291922 0.288657 0.0690476 -0.0378973 0.146297 0.13267 -0.386226 0.439975 -0.783143 0.313594 -0.314021 -0.0209607 -0.182817 0.610362 0.0558401 0.0898432 -0.149015 -0.219966 -0.295313 0.30335 -0.375136 0.110674 0.394465 -0.381969 -0.506428 0.158927 -0.545425 0.252247 0.861049 -0.343344 -0.0470296 0.541035
237 0.307373 0.0493255 -0.0145752 -0.268853 -0.00697572 0.402609 -0.407558 -0.592612 -0.236184 0.135261 -0.535081 0.0373555 0.558852 0.6968 -0.55686 -0.184065 -0.425081 -0.0067701 0.0653017 -0.268602 -0.336553 0.266077 0.280767 0.0011118 -0.849189 -0.678842 0.238267 0.386151 -0.201319 -0.55131 0.283135 -0.118402
354 0.192573 0.0775253 0.156703 -0.0319439 0.368399 0.193761 -0.30297 -0.0750516 -0.113341 0.168197 -0.327416 0.590285 0.364284 0.761933 0.0112967 0.278515 -0.471542 -0.0365541 -0.0684703 -0.16907 -0.237053 -0.0416036 0.111278 -0.287449 -0.536505 -0.3305 -0.065835 -0.0333574 0.0128239 -0.444789 0.00318223 0.577839
224 0.171166 -0.00600172 -0.00273706 -0.103797 0.0677491 0.0811056 -0.0636862 0.270619 0.044347 -0.188671 -0.242993 0.0505242 -0.0928262 0.18788 0.325471 -0.230392 0.15619 -0.0546204 -0.259772 -0.0454193 0.245303 -0.151625 0.340022 0.05578 0.12281 0.186206 0.0954577 0.295201 0.101661 -0.0466744 0.0970942 0.00679081
547 0.0130117 0.0241632 0.112135 -0.23491 -0.0613662 0.211735 -0.255473 -0.549689 0.0114477 0.057392 -0.296092 0.0883968 0.56875 0.586567 -0.647558 -0.19855 -0.365938 -0.181229 0.110801 -0.106529 -0.186767 0.328156 0.132317 0.03334 -0.663563 -0.645101 0.205303 0.332051 -0.398492 -0.545847 0.212368 -0.129078
420 0.0503106 0.0252122 0.0929308 -0.226148 -0.029403 0.243522 -0.290542 -0.581783 -0.0129236 0.0831803 -0.344635 0.107896 0.606726 0.621204 -0.647063 -0.162863 -0.410374 -0.137054 0.113593 -0.156102 -0.219698 0.318928 0.13702 0.0109694 -0.725789 -0.684866 0.198169 0.311681 -0.370031 -0.570193 0.231463 -0.0998265
322 0.137435 0.17634 -0.106786 0.121215 0.163858 0.0247271 0.0415489 0.20059 -0.283862 -0.0623968 -0.226138 -0.10459 -0.105254 -0.107604 0.138509 -0.0682902 0.0899489 -0.0286158 0.0834496 -0.217551 -0.0327648 -0.151032 0.132835 0.0184981 0.0853808 0.0867995 -0.156469 0.0614778 0.463585 0.05096 0.132153 0.141463
67 0.0285257 -0.0537657 -0.02854 0.0623419 0.197921 0.0824524 0.0777607 0.14793 -0.227567 -0.0912803 -0.143759 0.139425 -0.100699 0.326935 -0.0291205 -0.0173188 -0.0384886 -0.403174 0.185935 0.00259162 -0.411369 0.190224 0.206004 -0.111303 -0.131927 0.0291545 -0.0222121 0.207334 0.356143 0.0422738 -0.0566996 0.209477
532 0.210978 -0.167878 -0.0283969 -0.178771 -0.156446 0.112291 -0.173715 0.0862306 0.0553535 0.0662362 0.0463785 -0.0319138 -0.180915 0.0888322 0.293922 0.0126581 0.0804983 0.236902 -0.362142 0.201562 0.103652 -0.0496178 0.131668 -0.0259627 0.0075939 0.216244 0.14455 0.048752 -0.132793 0.0870824 -0.121639 -0.159129
696 -0.0845953 0.441803 0.0865383 -0.10496 -0.219783 -0.0881939 -0.174914 -0.088661 -0.207499 0.0509133 -0.239919 -0.469872 0.277207 -0.0969724 -0.472438 -0.421297 0.0446532 -0.05213 -0.100647 -0.00824338 0.379165 0.0285341 0.11383 0.157407 -0.178577 -0.246167 -0.289879 0.31287 0.108863 -0.509807 0.398239 -0.165457
423 0.119131 0.177562 -0.0823225 0.1056 0.160364 0.0261415 0.0253579 0.162514 -0.254501 -0.0562054 -0.229176 -0.0772697 -0.052926 -0.0643668 0.0962587 -0.0701595 0.0573402 -0.0391732 0.0817264 -0.214961 -0.0242954 -0.133722 0.125495 0.0160144 0.0471717 0.0420242 -0.146352 0.0685633 0.408737 0.00231941 0.139967 0.145192
160 -0.108637 -0.210789 0.148286 -0.262204 -0.325184 0.135163 -0.298018 -0.752737 0.1619 0.343165 0.205515 0.0553096 0.448626 0.411739 -0.712394 0.157533 -0.440507 0.0775612 0.0463905 0.285612 -0.336611 0.481615 -0.223473 -0.0822452 -0.698089 -0.555286 0.202128 -0.0430416 -0.72169 -0.336441 -0.114827 -0.260162
485 0.00341619 0.0182533 -0.0289468 0.040094 -0.0612889 -0.0162115 -0.0312047 -0.0687345 -0.119235 0.162371 0.12259 -0.0867217 -0.0423456 -0.124709 -0.0677855 0.154636 -0.0531407 0.12915 0.0367031 0.0696425 -0.126337 0.0320525 -0.146825 -0.0606348 -0.0645079 -0.00323579 -0.0998143 -0.177804 0.0462191 0.0615323 -0.078738 0.00219772
13 0.131649 0.187767 -0.0945736 0.115202 0.161491 0.0216178 0.0283014 0.189008 -0.271758 -0.0511198 -0.22616 -0.0969957 -0.0798667 -0.0993706 0.127244 -0.0639298 0.0745809 -0.0166991 0.0709406 -0.217713 -0.0101262 -0.158125 0.123232 0.0164757 0.0733189 0.0705691 -0.161851 0.0528527 0.4383 0.0224842 0.13894 0.14904
402 0.147916 -0.0213515 0.00196462 -0.0995125 0.0699915 0.0692363 -0.0369831 0.278266 0.0749663 -0.215138 -0.230123 0.0634036 -0.096197 0.185592 0.323267 -0.242783 0.16902 -0.0869651 -0.24596 -0.0411969 0.251162 -0.142139 0.339458 0.0646139 0.147938 0.191008 0.110216 0.305463 0.0836758 -0.0363173 0.0938106 0.00291894
583 0.0889937 0.0245243 -0.0798039 0.0435374 -0.0776735 0.0176697 -0.0685682 -0.0573163 -0.213413 0.221024 0.118366 -0.150249 -0.104747 -0.180433 -0.0108883 0.199803 -0.0446505 0.236536 0.00959502 0.0643333 -0.169221 0.00136576 -0.150937 -0.0768804 -0.0787499 0.0383004 -0.120531 -0.224794 0.122173 0.118129 -0.0967124 -0.0149196
613 0.113086 0.329834 0.03724 -0.123753 -0.0454266 0.0911019 -0.25766 -0.435645 0.0542377 0.0438565 -0.397907 -0.129953 0.593538 -0.00888406 -0.337262 -0.243128 -0.188555 0.332325 -0.0450379 -0.452256 0.428245 -0.208915 0.000734297 0.203376 -0.276229 -0.541356 0.0369918 0.0812337 -0.314019 -0.537747 0.469885 -0.145464
95 0.216477 0.0426719 -0.235763 0.0266277 0.0804717 0.191245 0.067197 -0.391309 0.0333559 -0.1885 -0.364693 -0.144479 0.268034 -0.259457 -0.0904994 -0.220447 0.0027465 0.255503 0.302877 -0.66868 0.0602361 -0.189638 0.0346264 0.304247 0.0195954 -0.334734 0.332887 0.0580219 -0.122206 0.0575435 0.353103 -0.310267
286 -4.12988e-05 0.396329 0.145476 -0.000345538 0.0666142 -0.0738553 -0.203248 0.169643 -0.244923 0.117084 -0.227083 -0.0552292 0.171797 0.149326 -0.106185 -0.0862326 -0.0805028 -0.052512 -0.177937 0.00554114 0.236615 -0.113321 0.10391 -0.0802008 -0.171797 -0.089743 -0.404558 0.103062 0.292762 -0.453669 0.204164 0.302356
579 0.138723 -0.276391 -0.174709 -0.0652848 0.0964784 0.304576 0.0838003 -0.452645 0.0208214 -0.187973 -0.261412 0.112566 0.20732 0.305867 -0.287465 -0.145036 -0.151736 -0.200556 0.423749 -0.353898 -0.511964 0.28107 0.159149 0.11948 -0.300487 -0.377357 0.506268 0.262672 -0.190873 0.09461 0.0842981 -0.258168
158 0.219699 0.0435552 -0.232735 0.0241309 0.0866398 0.194479 0.0627172 -0.372339 0.00593618 -0.184519 -0.372156 -0.141345 0.253973 -0.226901 -0.0937975 -0.221575 -0.0012417 0.225441 0.302217 -0.649804 0.0310518 -0.169076 0.0523833 0.288169 -0.000566822 -0.329727 0.318787 0.0769385 -0.0879725 0.0502582 0.345794 -0.290417
24 0.058345 -0.136083 -0.142903 -0.046624 -0.159963 0.123255 0.000739229 -0.573784 0.146094 0.0649695 0.050953 -0.13719 0.229144 -0.252344 -0.267915 0.0394878 -0.114945 0.35139 0.225847 -0.25012 -0.101506 0.0451862 -0.232039 0.170419 -0.126418 -0.331893 0.32057 -0.176285 -0.442402 0.109447 0.0675877 -0.406282
183 0.162426 0.0321022 -0.187581 0.00706412 0.0751911 0.173577 0.0621217 -0.404634 0.0733117 -0.187772 -0.341889 -0.0944967 0.310349 -0.171832 -0.152943 -0.225426 -0.0316773 0.178266 0.297753 -0.610064 0.0523286 -0.131569 0.0327122 0.281935 -0.0249621 -0.370631 0.328751 0.0863204 -0.176448 -0.00527688 0.337721 -0.282018
328 -0.0268577 -0.0970285 -0.109636 -0.0656582 -0.0819797 0.131765 0.104214 -0.123261 -0.246366 -0.159042 -0.166279 -0.244421 -0.0402253 0.217358 -0.425301 -0.346219 0.0605511 -0.506518 0.307901 0.0386495 -0.456202 0.451818 0.277963 0.0869974 -0.229266 -0.127835 0.148266 0.493232 0.210238 0.0255115 0.0808466 -0.264333
231 0.077447 0.168888 -0.16357 0.0169202 -0.0562426 0.0560744 0.0656161 -0.0797214 -0.228488 -0.13777 -0.268839 -0.401242 0.0301193 -0.239213 -0.201959 -0.355222 0.155968 -0.0574631 0.191035 -0.268712 0.0252633 0.00597914 0.159496 0.222169 0.02609 -0.103904 0.0128821 0.268465 0.254779 -0.0047452 0.298361 -0.265656
229 0.104496 0.16958 -0.19819 0.0186704 -0.0737296 0.0682697 0.078809 -0.0679855 -0.271714 -0.151242 -0.284138 -0.467506 -0.0129801 -0.281732 -0.199423 -0.390858 0.195211 -0.0594307 0.205203 -0.276495 0.00430828 0.0137197 0.185964 0.243541 0.0438641 -0.0767873 0.0180032 0.298722 0.309995 0.0354551 0.310632 -0.310584
80 0.253585 -0.321486 -0.270173 -0.0359757 0.158434 0.382915 0.112078 -0.452824 -0.0396273 -0.229969 -0.342373 0.111174 0.147526 0.269354 -0.181806 -0.138117 -0.125251 -0.145019 0.483744 -0.486158 -0.60106 0.227538 0.210024 0.145532 -0.269167 -0.348962 0.589409 0.263653 -0.101452 0.220122 0.094741 -0.281508
625 -0.0377171 -0.125689 -0.125782 -0.0498389 -0.0694177 0.127496 0.145499 -0.113572 -0.224248 -0.190475 -0.150216 -0.235634 -0.0681942 0.1881 -0.39867 -0.347557 0.0846993 -0.523339 0.337877 0.0234186 -0.470245 0.449233 0.275424 0.0986134 -0.185087 -0.104954 0.177937 0.487484 0.210791 0.0800428 0.0669087 -0.276676
60 0.105977 0.18917 -0.187516 0.0172947 -0.0770063 0.0612863 0.058627 -0.0614277 -0.27794 -0.130864 -0.283479 -0.469282 -0.00541556 -0.284704 -0.191153 -0.378833 0.187038 -0.0331822 0.179173 -0.269673 0.0326041 -0.00551212 0.177267 0.235454 0.038823 -0.0771755 -0.00774755 0.283464 0.310376 0.0122844 0.31456 -0.293877
190 0.0170573 -0.12794 -0.172065 -0.0383873 -0.0559354 0.160827 0.148693 -0.128625 -0.270058 -0.192161 -0.185554 -0.265473 -0.0883459 0.152289 -0.374825 -0.344522 0.0924792 -0.479151 0.366085 -0.0329317 -0.510174 0.429124 0.285969 0.113145 -0.183495 -0.105921 0.201447 0.480613 0.255558 0.126369 0.081435 -0.298836
49 0.141383 0.0298719 0.0540373 -0.235946 -0.010083 0.297405 -0.316621 -0.572744 -0.0928401 0.0922389 -0.409935 0.0850194 0.571822 0.63634 -0.596857 -0.174301 -0.400722 -0.103042 0.106302 -0.199951 -0.263919 0.287674 0.192813 0.0130508 -0.744939 -0.65855 0.21628 0.342403 -0.297674 -0.544156 0.244934 -0.0959398
584 0.266632 -0.325354 -0.277409 -0.0458177 0.151061 0.398677 0.101598 -0.482805 -0.0457341 -0.223441 -0.353211 0.0996225 0.16147 0.27755 -0.201207 -0.142488 -0.136219 -0.133118 0.488704 -0.495734 -0.61404 0.238567 0.20961 0.150804 -0.293719 -0.37252 0.604865 0.269194 -0.116267 0.212269 0.103251 -0.300465
559 -0.00204278 0.141032 -0.122758 0.0112084 -0.0706502 0.0234211 0.0958407 -0.102291 -0.156872 -0.155382 -0.214907 -0.36017 0.0596328 -0.202473 -0.268417 -0.358547 0.140336 -0.138926 0.215425 -0.2155 0.021289 0.0662535 0.130206 0.217362 0.0228186 -0.130759 0.029023 0.277827 0.172014 -0.0281123 0.273893 -0.268323
50 0.207843 0.196623 -0.276004 0.0272043 -0.0958914 0.106477 0.05723 -0.0382775 -0.39957 -0.123825 -0.327875 -0.594098 -0.100088 -0.383428 -0.134061 -0.403812 0.249921 0.0414341 0.187446 -0.314186 -0.0200865 -0.0339181 0.221374 0.263132 0.0638865 -0.0126182 -0.0044169 0.298778 0.444974 0.112151 0.332864 -0.366564
578 0.115888 -0.311884 -0.185722 -0.0477545 0.107548 0.293598 0.133602 -0.437041 0.054926 -0.234409 -0.245842 0.123928 0.17995 0.280276 -0.267497 -0.159913 -0.121008 -0.238876 0.460021 -0.366233 -0.517281 0.287282 0.159203 0.138298 -0.244311 -0.354903 0.540689 0.270111 -0.19571 0.146835 0.0745643 -0.273001
585 0.0252979 0.0263616 0.0938477 -0.227241 -0.0423815 0.224334 -0.262305 -0.539419 -0.0282034 0.0498439 -0.33294 0.0806064 0.564454 0.636339 -0.665025 -0.218875 -0.373837 -0.220547 0.117439 -0.111097 -0.23459 0.347208 0.175699 0.0179381 -0.706735 -0.647848 0.188892 0.379097 -0.332589 -0.559878 0.221315 -0.110606
111 0.216071 -0.32645 -0.249467 -0.0507457 0.132746 0.364632 0.117567 -0.471121 -0.000155234 -0.235676 -0.318381 0.105153 0.170058 0.274485 -0.226215 -0.158948 -0.123825 -0.169277 0.47881 -0.453533 -0.57441 0.257053 0.198369 0.152982 -0.271289 -0.362318 0.592596 0.280764 -0.1488 0.192648 0.0967648 -0.301782
449 0.194126 -0.323375 -0.23593 -0.0475377 0.130349 0.34719 0.122898 -0.463105 0.0145632 -0.235683 -0.298551 0.112163 0.168572 0.269559 -0.227496 -0.153579 -0.123819 -0.180459 0.475914 -0.438775 -0.558487 0.256494 0.185489 0.150853 -0.258125 -0.360156 0.582647 0.26921 -0.161622 0.188996 0.0898343 -0.294093
636 0.021633 0.0194985 0.0905356 -0.218633 -0.03177 0.230055 -0.241095 -0.543052 -0.0107133 0.0386439 -0.333258 0.101542 0.564176 0.633074 -0.652037 -0.208887 -0.360848 -0.217494 0.137723 -0.131254 -0.236173 0.351268 0.171898 0.0255453 -0.681069 -0.642776 0.227547 0.374059 -0.350237 -0.538561 0.218882 -0.109047
472 0.146876 -0.0503393 -0.0995553 0.0757042 0.211941 0.138691 0.0489503 0.220762 -0.393283 -0.0565153 -0.194668 0.0658347 -0.219621 0.313422 0.0605043 0.000528894 -0.00462512 -0.363923 0.170216 -0.00243628 -0.516795 0.175659 0.274393 -0.13815 -0.147233 0.115112 -0.0579733 0.224971 0.5514 0.125583 -0.0740379 0.219061
157 0.152591 0.0202119 0.036664 -0.250801 -0.0332803 0.308437 -0.306681 -0.570118 -0.100348 0.0678224 -0.423758 0.0607068 0.55365 0.64049 -0.597993 -0.214649 -0.374063 -0.118181 0.105144 -0.203936 -0.275013 0.304624 0.227692 0.0271047 -0.740616 -0.65079 0.246548 0.381901 -0.294755 -0.530296 0.249175 -0.138983
79 0.230986 -0.226376 -0.103116 0.0872061 0.432128 0.264124 0.0627673 -0.0723149 -0.0357495 -0.130702 -0.273251 0.522714 0.0708415 0.461202 0.190517 0.196974 -0.230639 -0.151624 0.28901 -0.378731 -0.512316 0.00629086 0.144617 -0.117069 -0.18488 -0.146074 0.288989 0.00316105 0.0952892 0.138499 -0.0737417 0.300309
66 -0.0622319 0.232113 0.142884 -0.0436014 -0.164098 -0.0953293 -0.253751 -0.0723763 -0.171181 0.358416 0.128163 -0.129101 0.128913 -0.0030181 -0.234349 0.165241 -0.168365 0.196718 -0.200191 0.255511 0.0914979 0.0259169 -0.186073 -0.144806 -0.260998 -0.102687 -0.355253 -0.188111 -0.00978592 -0.310381 -0.0214655 0.117947
259 0.148929 0.0570866 0.050384 -0.236544 -0.0335895 0.289837 -0.328614 -0.569614 -0.115094 0.111036 -0.406247 0.0487814 0.574346 0.614788 -0.615081 -0.190389 -0.391239 -0.088084 0.0911474 -0.189501 -0.241741 0.29193 0.185802 0.0106224 -0.754723 -0.663633 0.190369 0.345386 -0.27726 -0.562094 0.256977 -0.109479
706 0.0322183 0.325298 0.0676433 -0.107554 -0.0559059 0.0398885 -0.214742 -0.417051 0.101896 0.0251997 -0.337817 -0.116683 0.585845 -0.021595 -0.368138 -0.246288 -0.173378 0.262296 -0.0260212 -0.399384 0.446869 -0.178962 -0.0304174 0.201879 -0.237926 -0.526138 0.0182769 0.0779676 -0.338652 -0.534269 0.444898 -0.135844
646 0.0148679 0.013031 0.11259 -0.218973 -0.0429508 0.226063 -0.257489 -0.569534 -0.0187935 0.0761399 -0.308282 0.10052 0.577254 0.6428 -0.676356 -0.175939 -0.396439 -0.207645 0.137038 -0.103874 -0.253431 0.370338 0.135484 0.0107556 -0.711278 -0.651179 0.190048 0.342439 -0.366095 -0.562702 0.205958 -0.0922301
397 0.125486 0.0386605 0.0634433 -0.242034 -0.0348259 0.282245 -0.31366 -0.535403 -0.106043 0.0897758 -0.39743 0.0673066 0.54845 0.642423 -0.595536 -0.203378 -0.376042 -0.131785 0.0795702 -0.156317 -0.245273 0.307587 0.205257 0.00249468 -0.731908 -0.635631 0.195877 0.367964 -0.279681 -0.554161 0.238277 -0.102813
221 -0.130099 -0.213296 0.144189 -0.253229 -0.33253 0.119037 -0.272219 -0.763132 0.194374 0.323959 0.220966 0.0411229 0.451967 0.360621 -0.710279 0.145371 -0.418975 0.085001 0.0613009 0.268788 -0.303258 0.464739 -0.243144 -0.0586245 -0.65736 -0.552576 0.21807 -0.0558793 -0.745411 -0.315631 -0.106348 -0.288399
174 0.030049 0.0440888 0.100945 -0.2153 -0.0239551 0.220755 -0.256915 -0.548321 -0.0183571 0.0673156 -0.33983 0.102195 0.587351 0.610076 -0.646659 -0.188281 -0.381327 -0.180284 0.126447 -0.15292 -0.215771 0.315213 0.147632 0.0166417 -0.692532 -0.656368 0.184207 0.334714 -0.339711 -0.558032 0.230261 -0.0779231
70 0.113202 -0.287478 -0.16475 -0.0648099 0.0928321 0.290291 0.101797 -0.458363 0.0563812 -0.205229 -0.245938 0.124143 0.216065 0.305514 -0.303165 -0.152691 -0.14732 -0.224171 0.430146 -0.34488 -0.494746 0.288612 0.149429 0.127754 -0.285997 -0.384036 0.51843 0.269408 -0.223564 0.0911681 0.0832068 -0.263721
241 0.0152353 0.136185 -0.13739 0.0131178 -0.0713295 0.0288091 0.0986501 -0.0940045 -0.160782 -0.158578 -0.21594 -0.373417 0.038326 -0.229209 -0.23843 -0.356779 0.155926 -0.111509 0.209359 -0.225999 0.0264182 0.0481779 0.133209 0.224557 0.0433776 -0.109082 0.0359795 0.26886 0.184886 -1.33523e-05 0.271469 -0.279123
205 0.0240311 0.314855 0.0650166 -0.109073 -0.063575 0.0425126 -0.207861 -0.420893 0.0871413 0.0272102 -0.329036 -0.126767 0.57954 -0.0120281 -0.394685 -0.248654 -0.171116 0.234285 -0.00963096 -0.376971 0.408845 -0.142718 -0.0247614 0.196223 -0.248713 -0.524881 0.017242 0.0901014 -0.325278 -0.526698 0.435887 -0.144245
122 0.133692 0.0382515 0.051659 -0.250845 -0.0579453 0.291915 -0.326064 -0.582546 -0.106608 0.111737 -0.391504 0.0370818 0.566525 0.621423 -0.637205 -0.190163 -0.395298 -0.0963581 0.0964972 -0.166381 -0.260567 0.316061 0.182655 0.015937 -0.753467 -0.661494 0.207585 0.348353 -0.30504 -0.548511 0.241382 -0.138515
462 0.0531362 0.0423773 0.199688 -0.0595077 0.280095 0.128922 -0.234626 -0.12636 0.0124544 0.108911 -0.238059 0.546742 0.398569 0.723854 -0.125273 0.187026 -0.430282 -0.147802 -0.030882 -0.0882551 -0.179613 0.0589194 0.0752822 -0.229417 -0.493056 -0.364989 -0.0197112 0.0264874 -0.135814 -0.462886 0.00884593 0.462506
660 0.0316035 0.0556983 0.206356 -0.0515026 0.274503 0.113207 -0.236673 -0.125416 -0.000761099 0.127555 -0.21843 0.535366 0.394691 0.712715 -0.143201 0.200311 -0.435519 -0.15445 -0.0297989 -0.0646066 -0.183843 0.0668625 0.0598711 -0.241782 -0.493838 -0.356351 -0.050715 0.0137882 -0.119136 -0.469756 -9.72507e-05 0.478449
521 0.152462 0.0228164 -0.18678 0.00844345 0.0722218 0.167737 0.071089 -0.389429 0.0759923 -0.192393 -0.329458 -0.0951907 0.291844 -0.177406 -0.143522 -0.222888 -0.0214325 0.171224 0.295945 -0.596377 0.0497512 -0.126447 0.0333409 0.27892 -0.011224 -0.352867 0.332485 0.0879398 -0.174922 0.011328 0.324849 -0.287192
802 0.294465 0.00259579 -0.13322 -0.0589548 -0.141862 0.0901354 -0.174654 0.110938 -0.212856 0.188746 0.0268857 -0.240974 -0.260284 -0.21043 0.311 0.100435 0.107451 0.435689 -0.28726 0.0882681 0.057249 -0.170554 0.0293317 -0.0298421 0.0424641 0.254263 -0.0545116 -0.125996 0.161842 0.175391 -0.0715458 -0.12407
669 -0.16517 -0.143813 0.0194379 0.176616 0.0709922 -0.15298 0.175213 -0.129408 0.363861 0.0827501 0.403116 0.275215 0.0103206 -0.373682 0.188739 0.448041 -0.0889509 0.33119 0.128969 -0.0717676 0.0648001 -0.198337 -0.499428 -0.0434361 0.278367 0.024395 0.0587654 -0.620333 -0.372737 0.286457 -0.226222 0.102312
151 -0.480186 0.0412279 0.260281 -0.0862755 -0.412683 -0.296041 -0.0412537 -0.539628 0.574676 0.207388 0.507011 -0.105934 0.438815 -0.366105 -0.541691 0.0915737 -0.14416 0.281804 -0.0356966 0.243477 0.481313 0.0720424 -0.577257 0.125012 -0.00400981 -0.3531 -0.0297295 -0.36637 -0.8995 -0.27938 0.00817568 -0.303226
644 0.17629 -0.0370161 -0.100482 -0.207657 -0.149185 0.135637 -0.0330071 0.0833109 0.0381339 -0.285603 -0.304846 -0.285104 -0.0701821 0.04813 0.0842739 -0.536399 0.286243 -0.0901988 -0.186996 -0.0734778 0.270308 -0.00594875 0.436708 0.254294 0.107311 0.0982605 0.266792 0.544511 0.00260231 -0.0240653 0.240603 -0.410048
427 -0.426644 0.433876 0.241963 0.0385006 -0.106869 -0.360014 0.059521 -0.222321 0.524426 -0.102422 0.0331679 -0.0992069 0.570536 -0.495268 -0.329116 -0.246025 0.0171366 0.194773 -0.0243252 -0.266525 0.972942 -0.34286 -0.351894 0.297595 0.288503 -0.361238 -0.169028 -0.166473 -0.55934 -0.49435 0.428197 -0.0894716
208 -0.514346 0.397893 0.283219 0.0495525 -0.116079 -0.403407 0.106323 -0.232429 0.576832 -0.123616 0.109603 -0.0627962 0.580318 -0.449932 -0.385182 -0.232179 0.0123495 0.102716 0.0145308 -0.202784 0.933841 -0.262414 -0.385231 0.283376 0.289916 -0.368936 -0.162421 -0.157829 -0.608045 -0.49492 0.386244 -0.0712136
17 -0.268202 0.00424152 0.0457686 0.146807 -0.0822582 -0.241591 0.178367 0.082072 0.0965832 0.077566 0.39398 -0.0657751 -0.154045 -0.38913 -0.00130362 0.196662 0.0809528 0.0303021 0.0768947 0.201257 0.0540559 -0.00478943 -0.327726 -0.0368365 0.264334 0.162297 -0.184633 -0.321903 -0.0236497 0.196485 -0.170589 0.0347483
626 -0.399148 0.464023 0.220228 0.047039 -0.115204 -0.366192 0.0609574 -0.216467 0.50357 -0.111083 0.0154902 -0.156046 0.556898 -0.572794 -0.299911 -0.263849 0.0477326 0.249728 -0.0273077 -0.307379 1.02095 -0.394301 -0.353258 0.325296 0.326701 -0.348246 -0.184293 -0.181944 -0.522562 -0.478389 0.459773 -0.110292
338 -0.306524 -0.210161 -0.0281306 0.0571504 -0.226648 -0.156192 0.253446 -0.463173 0.50588 -0.0327391 0.44343 -0.076591 0.135736 -0.558373 -0.234018 0.108442 0.0220446 0.240042 0.280291 -0.0584382 0.127022 0.0336337 -0.4976 0.20883 0.2627 -0.166928 0.274307 -0.37717 -0.668498 0.272574 -0.0732587 -0.412054
36 -0.539257 0.434731 0.258853 0.00395438 -0.269637 -0.419996 0.0955329 0.0872707 0.132158 -0.0727194 0.134453 -0.40079 0.214308 -0.331938 -0.518722 -0.413456 0.184634 -0.309805 -0.0487172 0.240966 0.631462 0.0681409 -0.116356 0.175909 0.191407 -0.0916005 -0.418597 0.190364 -0.062038 -0.448978 0.285584 -0.105942
413 -0.267822 -0.0127436 -0.0564344 0.144925 0.0467981 -0.158921 0.385093 -0.20641 0.459818 -0.359059 0.0479878 -0.022611 0.193109 -0.509022 -0.0932135 -0.20381 0.156434 -0.0246817 0.373522 -0.427308 0.334051 -0.160539 -0.218641 0.334301 0.456358 -0.157713 0.250616 -0.0833341 -0.350481 0.16689 0.212161 -0.253567
114 -0.415543 0.456698 0.318123 0.131199 0.05475 -0.421561 0.0481258 0.408087 0.0759189 -0.00159842 0.103751 0.0163592 0.106884 -0.138147 -0.0668684 -0.0665873 0.0719684 -0.240855 -0.172761 0.196847 0.589708 -0.183174 -0.128224 -0.0597557 0.249215 0.0922852 -0.590339 -0.0617193 0.17817 -0.415747 0.12727 0.423174
316 -0.491402 0.38885 0.264759 0.0468551 -0.124851 -0.382293 0.0881762 -0.229499 0.514374 -0.106202 0.0843733 -0.10034 0.55771 -0.430209 -0.421718 -0.252314 0.0112144 0.0597693 0.0344888 -0.178883 0.86694 -0.221822 -0.353246 0.27357 0.250733 -0.364753 -0.172412 -0.122489 -0.544922 -0.483349 0.383515 -0.0851416
568 -0.558567 0.434741 0.257662 0.00477603 -0.28523 -0.43753 0.115606 0.117954 0.141132 -0.0968392 0.147176 -0.425149 0.186136 -0.355814 -0.51555 -0.445968 0.218966 -0.341558 -0.0528011 0.261335 0.655293 0.0777848 -0.106724 0.189816 0.227957 -0.0648585 -0.417129 0.215782 -0.0546235 -0.431822 0.285149 -0.129266
165 -0.507644 0.359591 0.278309 0.0388268 -0.115874 -0.392665 0.10833 -0.215441 0.566891 -0.122487 0.120418 -0.0469068 0.551356 -0.414085 -0.394668 -0.225379 0.00444528 0.0543644 0.0255039 -0.159865 0.86808 -0.227377 -0.36608 0.263581 0.276208 -0.344062 -0.163424 -0.143763 -0.576019 -0.467372 0.341909 -0.0595087
664 -0.135455 -0.0681392 0.117401 -0.024443 0.0770346 -0.137902 0.152793 0.423912 0.339882 -0.318547 0.0207131 0.187654 -0.159717 0.0688385 0.371752 -0.205263 0.256658 -0.25476 -0.226571 0.113 0.412463 -0.139773 0.19544 0.0603155 0.418769 0.325237 0.0681448 0.205094 -0.054799 0.0403256 -0.0167916 0.0718579
203 -0.292543 0.367952 0.322811 0.185246 0.304631 -0.329979 0.0168336 0.173802 0.392082 0.00253936 0.0386378 0.474353 0.385928 -0.0824281 0.168086 0.22585 -0.167091 0.122622 -0.127041 -0.202478 0.684489 -0.483137 -0.322555 -0.0735573 0.251365 -0.123469 -0.356428 -0.417642 -0.217608 -0.416288 0.126948 0.601609
465 0.150855 0.0255927 -0.119868 0.0471827 -0.0929806 0.0368563 -0.0867377 -0.0320594 -0.274342 0.254076 0.120414 -0.202059 -0.172072 -0.240971 0.0571057 0.225115 -0.0170942 0.319521 -0.0243792 0.0657098 -0.18204 -0.0348184 -0.14769 -0.0815103 -0.0605075 0.0952245 -0.13411 -0.256435 0.184423 0.177353 -0.111208 -0.0365845
204 -0.199506 0.157194 0.0264359 0.23514 0.192 -0.239453 0.281269 0.41714 0.00663785 -0.192068 0.0592642 0.0230002 -0.197676 -0.290646 0.222886 -0.0277768 0.215086 -0.230468 0.110872 -0.0538451 0.187771 -0.183674 -0.0372669 0.0186164 0.445875 0.268002 -0.252298 -0.0641085 0.362893 0.14404 0.0208611 0.256959
215 -0.0833079 0.437223 0.0801226 -0.108301 -0.222063 -0.0799401 -0.173055 -0.0984202 -0.217632 0.0461322 -0.248639 -0.477587 0.279726 -0.08648 -0.491179 -0.433033 0.043989 -0.0678837 -0.0881228 -0.00999928 0.357182 0.0467526 0.123773 0.159531 -0.193253 -0.255803 -0.280705 0.330956 0.113495 -0.510125 0.402872 -0.175896
100 0.0738685 0.0364339 -0.073387 0.0455233 -0.0747163 0.00661854 -0.0551415 -0.0451946 -0.202668 0.199577 0.107115 -0.15371 -0.100014 -0.185215 -0.0159945 0.17105 -0.0300916 0.211058 0.0109222 0.0579802 -0.141336 -0.00407216 -0.138124 -0.0642876 -0.0599945 0.0420292 -0.125623 -0.202398 0.129478 0.106626 -0.079237 -0.0157772
96 -0.443313 0.431152 0.335733 0.122818 0.0550381 -0.420652 0.0523823 0.393423 0.0999637 -0.00529504 0.122222 0.0520503 0.119634 -0.0837349 -0.0959349 -0.0615355 0.0516682 -0.283431 -0.165425 0.227594 0.557107 -0.139529 -0.127766 -0.0733612 0.222537 0.0752331 -0.567844 -0.0474924 0.139347 -0.424863 0.105108 0.426
192 0.0632078 0.177756 -0.0477871 0.0921255 0.139713 0.00132288 0.0322069 0.137377 -0.199671 -0.067223 -0.2067 -0.0644609 -0.0089306 -0.0453583 0.0387286 -0.0938151 0.0482679 -0.0768587 0.0806107 -0.187726 0.0137925 -0.106171 0.109319 0.0251884 0.0412696 0.00661149 -0.139824 0.0845924 0.33544 -0.0441171 0.147732 0.131855
86 -0.268912 0.13901 0.0671998 0.20478 0.154766 -0.252119 0.279397 0.340308 0.0652678 -0.195459 0.0851441 0.0412495 -0.123095 -0.226151 0.098258 -0.058281 0.17834 -0.298172 0.134569 -0.0106979 0.176919 -0.100301 -0.0541267 0.0235634 0.384619 0.190935 -0.222774 -0.0260258 0.254107 0.0774052 0.0222018 0.221875
220 -0.386968 0.463106 0.29732 0.139719 0.0468786 -0.414145 0.0388008 0.457292 -0.00580189 0.0251088 0.109871 -0.0290543 0.0350035 -0.149963 -0.0394027 -0.0534312 0.0944136 -0.240759 -0.186137 0.236828 0.53646 -0.169469 -0.105402 -0.0820344 0.24589 0.148672 -0.628756 -0.0553246 0.273293 -0.375479 0.102232 0.428299
438 0.019103 0.016533 -0.0451941 0.0311144 -0.0898083 -0.00806632 -0.0404586 -0.0751683 -0.15064 0.177274 0.126515 -0.132925 -0.0651736 -0.147711 -0.0757554 0.146713 -0.0397849 0.14972 0.029103 0.08639 -0.140342 0.0450768 -0.143042 -0.0556312 -0.0727498 0.00668819 -0.102706 -0.170209 0.0635655 0.0761337 -0.0794265 -0.0328065
336 0.177895 0.00448215 -0.213834 0.0165503 0.0897875 0.191309 0.0871622 -0.417472 0.0783488 -0.21065 -0.350995 -0.0910173 0.295621 -0.189625 -0.134898 -0.224985 -0.0222348 0.181699 0.334531 -0.647933 0.019398 -0.133281 0.0386561 0.294555 -0.00854076 -0.367581 0.367685 0.0867361 -0.171532 0.0428773 0.335687 -0.304439
456 0.13103 0.191468 -0.198529 0.0124871 -0.0721928 0.075048 0.0513957 -0.0692507 -0.281264 -0.135539 -0.305389 -0.473024 0.00147768 -0.286525 -0.18165 -0.387379 0.187457 -0.0149348 0.17762 -0.295373 0.0378889 -0.0195806 0.188033 0.244372 0.0361598 -0.0823423 0.00592927 0.288028 0.312704 0.0159414 0.327049 -0.304826
218 -0.544305 0.437149 0.265401 -0.0129298 -0.286334 -0.425226 0.0923557 0.110243 0.139641 -0.0912303 0.126449 -0.419558 0.20002 -0.325708 -0.516585 -0.45347 0.206984 -0.334079 -0.074468 0.262007 0.662967 0.0742513 -0.0884449 0.187764 0.205185 -0.0738023 -0.413941 0.231631 -0.0610524 -0.457287 0.292863 -0.12733
680 0.0480247 0.160703 -0.0468668 0.100597 0.160498 -0.000802241 0.05802 0.151868 -0.190373 -0.0900225 -0.203483 -0.0363703 -0.0194612 -0.021353 0.0387697 -0.0937863 0.0492464 -0.124637 0.104341 -0.18357 -0.0166885 -0.0866252 0.117408 0.0184857 0.0498537 0.0162513 -0.128748 0.0959636 0.34529 -0.0269584 0.13306 0.147292
69 -0.482311 0.386432 0.262096 0.0331008 -0.134051 -0.368423 0.0957369 -0.236738 0.530855 -0.130354 0.0727039 -0.113089 0.566919 -0.440318 -0.434168 -0.287749 0.0214358 0.0604649 0.0227092 -0.187485 0.888628 -0.228899 -0.332034 0.301737 0.257977 -0.37858 -0.158686 -0.094243 -0.566048 -0.490187 0.397301 -0.110133
331 -0.371535 0.108961 0.319322 0.0641953 -0.0323625 -0.302259 -0.0604721 -0.171327 0.462536 0.247851 0.421208 0.331102 0.341568 -0.130446 -0.109497 0.408755 -0.26062 0.268217 -0.124376 0.163118 0.407999 -0.166007 -0.551917 -0.123548 0.0421545 -0.182139 -0.229658 -0.57421 -0.579223 -0.276314 -0.124201 0.282961
244 -0.505248 0.352733 0.274159 0.025338 -0.133468 -0.379416 0.0968169 -0.24185 0.56092 -0.116359 0.108321 -0.0643683 0.550436 -0.409109 -0.411663 -0.247134 0.00542558 0.0519242 0.0319425 -0.154528 0.847674 -0.201494 -0.349681 0.26484 0.247606 -0.363114 -0.144405 -0.119848 -0.599602 -0.458652 0.346779 -0.104601
62 -0.474818 0.38391 0.254296 0.0380635 -0.101779 -0.36727 0.109544 -0.227777 0.538028 -0.138981 0.0643272 -0.0840953 0.555712 -0.426464 -0.400484 -0.270958 0.0128406 0.0545956 0.0324182 -0.222115 0.886835 -0.238809 -0.334204 0.293122 0.276269 -0.36987 -0.141517 -0.112741 -0.555937 -0.473225 0.391978 -0.0939685
617 -0.514075 0.379838 0.282506 0.0223859 -0.125581 -0.382264 0.0963821 -0.246145 0.541375 -0.114692 0.0925442 -0.0632942 0.562867 -0.382353 -0.445531 -0.254679 -0.00534185 0.0245305 0.0347435 -0.160684 0.843247 -0.198242 -0.347999 0.256193 0.227828 -0.379206 -0.167685 -0.110975 -0.583159 -0.50513 0.366076 -0.0801727
7 0.0764615 0.168082 -0.0535629 0.0916671 0.152713 0.0104261 0.0313797 0.138655 -0.201047 -0.068016 -0.213328 -0.0476915 -0.014133 -0.0338945 0.0561217 -0.0825564 0.041901 -0.0738056 0.0829356 -0.197746 0.000915656 -0.110813 0.113905 0.0199799 0.0383683 0.00915095 -0.130646 0.0809488 0.339409 -0.036644 0.142021 0.142723
672 -0.514556 0.39454 0.284489 0.0417003 -0.113504 -0.391902 0.099722 -0.237527 0.557418 -0.111702 0.0992003 -0.0494373 0.575079 -0.418801 -0.408682 -0.246425 -0.00477913 0.0576359 0.0288578 -0.179508 0.897265 -0.228209 -0.36378 0.275779 0.262798 -0.37568 -0.167593 -0.140691 -0.598713 -0.502471 0.37949 -0.0647844
9 -0.223388 0.00608613 -0.0930797 0.15777 0.0554384 -0.149336 0.390237 -0.195739 0.44686 -0.371697 0.0147621 -0.0593412 0.172711 -0.585351 -0.0342147 -0.217591 0.191731 0.0477628 0.36748 -0.491257 0.377416 -0.22357 -0.211708 0.366777 0.502144 -0.14269 0.263892 -0.0995678 -0.325945 0.2011 0.244927 -0.28206
265 -0.00836201 0.0188906 -0.0321581 0.042247 -0.0688585 -0.0200786 -0.020876 -0.0775789 -0.125183 0.158306 0.126701 -0.105158 -0.0447459 -0.135261 -0.0902603 0.14307 -0.0472844 0.114156 0.0530258 0.0741574 -0.136718 0.048658 -0.147523 -0.0537413 -0.065843 -0.00840058 -0.100126 -0.166542 0.0515353 0.0655926 -0.0758271 -0.013178
607 -0.455296 0.206399 0.306159 0.0404484 -0.189451 -0.377618 -0.0185104 0.0812327 0.181172 0.218358 0.435834 -0.022173 0.0922291 -0.173714 -0.24385 0.160152 -0.0481753 -0.0400864 -0.167894 0.45342 0.347491 0.0416915 -0.366803 -0.118065 0.0751456 0.0253556 -0.432513 -0.276096 -0.201037 -0.269323 -0.1137 0.179355
527 -0.125545 -0.19258 0.00285315 -0.0876549 -0.0156015 -0.0518503 0.244956 -0.0224927 0.665958 -0.479017 -0.0372937 0.120714 0.102017 -0.152822 0.201599 -0.375846 0.258766 -0.0466218 -0.0292831 -0.248436 0.554449 -0.178001 0.0882503 0.33638 0.477539 0.029124 0.489723 0.199513 -0.562659 0.110356 0.162003 -0.358434
113 -0.200623 -0.140217 0.0510347 0.147012 0.0526047 -0.155471 0.165938 -0.141128 0.376433 0.0606374 0.380617 0.271575 0.0503825 -0.298139 0.113786 0.385812 -0.0951396 0.244768 0.129679 -0.0400873 0.0699871 -0.142098 -0.458058 -0.0358359 0.235853 -0.0121828 0.0612871 -0.536056 -0.393932 0.217892 -0.202578 0.0913524
1 -0.255584 -0.0312874 -0.0565395 0.137893 0.0471997 -0.147444 0.377404 -0.203158 0.457617 -0.354369 0.0485487 -0.00685873 0.183775 -0.481548 -0.086655 -0.197177 0.153576 -0.0300381 0.36913 -0.415804 0.309605 -0.145718 -0.207644 0.326202 0.440987 -0.158398 0.264965 -0.0785295 -0.353851 0.172351 0.198008 -0.251257
132 -0.532221 0.424828 0.257269 -0.00962901 -0.279863 -0.414953 0.0966971 0.118468 0.113819 -0.0905711 0.123172 -0.422257 0.184503 -0.312024 -0.519166 -0.452655 0.209581 -0.352816 -0.0615055 0.267537 0.626276 0.0919339 -0.0778831 0.180536 0.19216 -0.0703437 -0.411433 0.242297 -0.0372932 -0.446862 0.284789 -0.123901
194 0.0467873 -0.183726 -0.0346029 -0.249823 -0.345177 0.0839439 -0.0914624 -0.173579 0.17114 -0.0343961 0.0663021 -0.254865 -0.0320146 -0.0147448 -0.0914887 -0.248644 0.132332 0.102756 -0.206634 0.197353 0.142038 0.150085 0.113516 0.152747 -0.0275522 0.0226793 0.285777 0.234034 -0.365117 0.0255567 0.00788169 -0.503246
163 -0.0674752 0.425019 0.0665388 -0.115975 -0.236855 -0.0627278 -0.180997 -0.112197 -0.247428 0.0575512 -0.252587 -0.501022 0.267467 -0.0769785 -0.509258 -0.435716 0.0411934 -0.0704698 -0.0806566 0.000461127 0.317206 0.0716596 0.135228 0.156919 -0.218849 -0.256997 -0.275217 0.345406 0.131817 -0.499979 0.396162 -0.195685
632 -0.513296 0.376376 0.278944 0.0191189 -0.152657 -0.385988 0.0989414 -0.234949 0.555589 -0.112407 0.119128 -0.0954114 0.557185 -0.421815 -0.426144 -0.26261 0.00771591 0.0523025 0.0109251 -0.140976 0.889348 -0.203907 -0.357523 0.27617 0.254953 -0.362517 -0.160229 -0.111795 -0.594187 -0.483135 0.372816 -0.111033
176 -0.49395 0.389327 0.273757 0.0382748 -0.123504 -0.373716 0.0788466 -0.250888 0.542492 -0.112136 0.090015 -0.0720415 0.578368 -0.41573 -0.415082 -0.235294 -0.00192754 0.0682022 0.0203142 -0.179377 0.882188 -0.22619 -0.364254 0.274493 0.240392 -0.379105 -0.168616 -0.131005 -0.580777 -0.504046 0.372434 -0.0775309
300 -0.550796 0.443182 0.268525 0.00283867 -0.275811 -0.434641 0.0946413 0.125915 0.11712 -0.074188 0.139626 -0.408271 0.193469 -0.320666 -0.521508 -0.42525 0.196529 -0.348176 -0.062075 0.275264 0.636499 0.0832471 -0.101357 0.166997 0.194875 -0.0698046 -0.443316 0.212558 -0.0346253 -0.456879 0.276825 -0.0938817
129 -0.493426 0.353526 0.27802 0.0320555 -0.122952 -0.377158 0.0887917 -0.239244 0.56788 -0.118106 0.107721 -0.0431308 0.559991 -0.391477 -0.403688 -0.235203 -0.0112212 0.0529535 0.015036 -0.164354 0.875224 -0.215569 -0.351627 0.257747 0.248556 -0.366348 -0.138298 -0.127057 -0.602159 -0.494511 0.359611 -0.0775741
97 -0.259012 -0.0200805 -0.067053 0.148113 0.0523499 -0.147112 0.3888 -0.213708 0.451893 -0.361285 0.0406875 -0.0184977 0.190419 -0.509331 -0.0932866 -0.204239 0.155489 -0.0216568 0.389125 -0.442116 0.3108 -0.156075 -0.21536 0.337402 0.45049 -0.163743 0.268164 -0.0854169 -0.348007 0.181283 0.214342 -0.259703
193 -0.142263 0.0391497 0.0380653 0.261681 0.386868 -0.156361 0.288885 0.138305 0.358468 -0.24283 0.00316634 0.430861 0.102746 -0.222087 0.342655 0.16988 0.00499651 0.0255688 0.206795 -0.421324 0.267715 -0.391261 -0.207301 0.0484221 0.44056 0.0154471 0.0269924 -0.324791 -0.0778732 0.132336 0.0433456 0.344692
112 0.205799 0.0661213 -0.0974544 0.115884 0.32516 0.126388 0.0238227 -0.0830134 0.0231613 -0.106696 -0.309162 0.248732 0.19116 0.000196977 0.21 0.0761582 -0.112766 0.189282 0.160139 -0.548967 0.0294719 -0.310572 0.0126573 0.0540429 0.0332749 -0.171933 0.120524 -0.124762 0.045779 0.00566225 0.171542 0.189114
116 0.238035 0.0612599 -0.240754 0.0407364 0.111475 0.193461 0.0639238 -0.36129 0.00776092 -0.186459 -0.387791 -0.128587 0.259559 -0.25444 -0.0550511 -0.206821 -0.00056513 0.264284 0.298966 -0.691127 0.0601691 -0.218863 0.0447267 0.292154 0.0238818 -0.322757 0.310091 0.0490894 -0.0719361 0.0579284 0.358416 -0.270788
40 -0.51115 0.358116 0.263551 0.0360683 -0.123648 -0.369196 0.108112 -0.240763 0.527745 -0.114036 0.106305 -0.0723713 0.552753 -0.407736 -0.43483 -0.242324 -0.0043663 0.0313194 0.0504686 -0.165148 0.832981 -0.196604 -0.352392 0.264735 0.23933 -0.369514 -0.16397 -0.115679 -0.563272 -0.466248 0.350402 -0.0852424
