669 32
800 0.298755 -0.0763322 -0.0546478 -0.024447 -0.0186253 0.0319329 -0.184553 0.071512 -0.143735 0.121473 0.0759193 -0.0322388 -0.262027 -0.109423 0.423065 0.257936 0.0273491 0.516687 -0.173553 0.0463035 -0.019429 -0.144673 0.033228 -0.172169 -0.0607808 0.252276 -0.116073 -0.130777 0.226764 0.106386 -0.0736778 0.0268066
566 -0.314625 0.0607519 0.37772 -0.0663977 0.402809 -0.639998 0.0763287 0.225212 0.515289 0.113362 0.13297 0.608424 0.298665 0.668647 0.0201082 0.215202 -0.255731 -0.609368 0.0100364 -0.0461618 0.140642 0.123313 -0.0855414 0.0777222 -0.0206279 -0.362286 -0.306195 -0.120654 -0.0105071 -0.663678 -0.32302 0.610424
452 -0.315351 -0.113115 0.0193247 0.0326106 0.143755 -0.356415 0.135733 -0.0991355 0.267727 -0.0776425 0.234075 -0.156598 -0.144959 -0.396179 0.16742 0.276221 -0.126142 0.0470714 0.179658 0.0970994 -0.0357062 0.0229829 -0.39968 -0.151311 -0.0263677 0.135529 -0.170298 -0.161786 0.00428494 -0.00203016 -0.0820211 0.131838
32 0.0972631 0.0158907 0.110274 -0.0265811 0.0786553 -0.0643134 0.241022 0.43886 -0.383083 -0.109366 -0.24367 0.00250109 -0.155878 0.344128 -0.0419532 0.000184687 0.189914 -0.269594 -0.0294208 -0.00690898 -0.287745 0.032115 0.0511208 0.00525014 -0.27318 0.0721162 -0.140358 0.146295 0.348373 -0.0204363 -0.0645028 0.151014
230 0.152386 -0.198217 0.0460221 -0.0997928 -0.101655 0.0654449 -0.117691 0.056824 0.167246 0.0140736 0.0834186 0.0903203 -0.0868409 0.0654955 0.251413 0.0834259 0.0685704 0.367936 -0.225276 0.151351 0.132235 -0.0616237 0.12408 -0.150502 0.0115589 0.278118 0.0850117 0.0171119 -0.141803 0.0281805 -0.0559014 -0.181305
303 0.141637 -0.0429464 -0.102126 0.0190499 -0.0440229 0.0462042 -0.114388 -0.094544 -0.235439 0.139551 0.123573 -0.141254 -0.219647 -0.214547 0.120732 0.269049 -0.0753152 0.327545 0.0433729 0.0234361 -0.190523 -0.00800567 -0.15683 -0.112573 -0.147526 0.0322605 -0.157062 -0.19506 0.177623 0.109022 -0.0625969 0.0151737
529 0.174092 -0.197528 0.0286457 -0.0976011 -0.0958124 0.0881209 -0.135564 0.044093 0.173012 0.0280471 0.0828019 0.103983 -0.0777576 0.0623521 0.266837 0.0841167 0.0583965 0.377744 -0.226016 0.120725 0.14233 -0.0754058 0.139005 -0.14069 0.0325026 0.262665 0.102893 0.00277924 -0.151589 0.0342882 -0.0526229 -0.180702
513 0.13426 -0.0335518 -0.0970899 0.0203848 -0.0462942 0.0347021 -0.121242 -0.109237 -0.223547 0.145678 0.133078 -0.137196 -0.204515 -0.214944 0.109056 0.26539 -0.0850262 0.322866 0.04391 0.0328273 -0.178679 -0.00440991 -0.160342 -0.113727 -0.143792 0.027558 -0.165864 -0.198595 0.175268 0.0993846 -0.0632501 0.0184211
628 0.204397 0.0521569 0.0420987 -0.0217154 0.0306267 0.0335027 -0.0151061 0.294243 0.0408038 -0.134667 -0.21939 0.0664679 -0.0201018 0.116145 0.350964 -0.222677 0.252101 0.12673 -0.300101 -0.0118513 0.273774 -0.22666 0.353313 -0.00541916 0.1901 0.32709 0.132743 0.229333 0.119971 0.0664254 0.100923 -0.00226617
692 0.176304 -0.218241 0.027687 -0.0998047 -0.091375 0.0879381 -0.111064 0.0673154 0.140401 0.0185032 0.0779046 0.084722 -0.113833 0.0569952 0.272684 0.109811 0.069148 0.388888 -0.215612 0.12284 0.0996552 -0.0712354 0.116607 -0.153482 -0.000563704 0.2813 0.0919537 -0.00209885 -0.128027 0.0544082 -0.0628046 -0.184175
412 0.181668 -0.0529182 -0.118552 0.0191607 -0.0503891 0.051329 -0.146338 -0.10055 -0.238933 0.151169 0.140404 -0.158483 -0.255596 -0.263102 0.194036 0.299804 -0.0719047 0.425517 0.0155018 0.0348941 -0.174746 -0.0392301 -0.153971 -0.144497 -0.139674 0.0887122 -0.167077 -0.215343 0.204988 0.13889 -0.0633857 0.00778374
119 0.17936 -0.209564 0.0334419 -0.10208 -0.111227 0.086507 -0.136733 0.0505723 0.141498 0.0323423 0.0934288 0.0845123 -0.109414 0.0554195 0.270847 0.110879 0.0631801 0.405799 -0.228815 0.14771 0.114718 -0.0666978 0.122067 -0.160919 -0.00145317 0.284488 0.0808837 -0.00329099 -0.132607 0.0435877 -0.0629631 -0.19108
332 0.151953 0.252216 -0.097939 0.110424 0.0875333 0.00897981 0.0105212 0.131608 -0.343555 -0.0372809 -0.2112 -0.169862 -0.0957025 -0.156003 0.158968 -0.115592 0.120533 0.00712027 -0.0193295 -0.143309 -0.0168661 -0.165212 0.0943726 0.0691906 0.0646045 0.0513456 -0.0882411 0.0631304 0.424645 0.13487 0.128131 0.196205
479 0.0487705 -0.0182228 -0.0628521 0.019166 -0.0476155 -0.00124061 -0.0908754 -0.129248 -0.152659 0.118773 0.133513 -0.114747 -0.132038 -0.176446 0.0176087 0.205522 -0.094826 0.208974 0.0657879 0.0538597 -0.145004 0.0350337 -0.164948 -0.0866295 -0.125663 -0.014698 -0.149504 -0.162491 0.106599 0.0485831 -0.0546861 0.0136604
563 0.108253 -0.170038 0.0524871 -0.0897264 -0.091812 0.0434134 -0.102401 0.0397942 0.18665 0.00387538 0.0791487 0.089639 -0.0499656 0.0634105 0.205785 0.051669 0.0579863 0.303626 -0.203004 0.147043 0.145497 -0.0496907 0.113313 -0.129551 0.0267042 0.2474 0.0831028 0.0274671 -0.153114 0.0102748 -0.0445582 -0.167152
643 0.20408 -0.188483 0.0266466 -0.0975523 -0.115612 0.102759 -0.152779 0.0505077 0.123491 0.0396428 0.0773635 0.0890817 -0.0963621 0.0654269 0.26731 0.087561 0.0695083 0.408686 -0.240469 0.1381 0.128389 -0.0755565 0.148636 -0.148496 0.0125587 0.2756 0.0861121 0.00615059 -0.120226 0.0447265 -0.0516207 -0.188355
108 0.120825 -0.188986 0.0529158 -0.09669 -0.0796109 0.0489747 -0.10461 0.0477498 0.180559 0.0233001 0.0868243 0.117167 -0.0565078 0.0988323 0.207952 0.0859935 0.0413419 0.29562 -0.194035 0.124744 0.118221 -0.0410179 0.107408 -0.125644 0.00848553 0.216999 0.0794519 0.00295516 -0.157339 -0.0034264 -0.0679997 -0.154911
305 0.244329 -0.212114 0.0192399 -0.101953 -0.117222 0.0963034 -0.174166 0.0673616 0.107754 0.0484479 0.0963079 0.0687042 -0.157602 0.0249441 0.355631 0.140322 0.0802236 0.510253 -0.270132 0.157435 0.123476 -0.103283 0.140918 -0.191944 -0.00185632 0.345278 0.0622804 -0.015524 -0.08015 0.0709565 -0.0649577 -0.186678
716 0.166876 -0.051106 -0.108832 0.0157887 -0.0445758 0.0569976 -0.129398 -0.0941399 -0.240398 0.151995 0.128708 -0.134013 -0.229604 -0.213272 0.147653 0.287718 -0.0782293 0.363373 0.0319173 0.0179878 -0.191968 -0.0182453 -0.149787 -0.122171 -0.149103 0.042336 -0.157894 -0.20796 0.184911 0.11632 -0.068817 0.0122916
530 0.240617 -0.224826 0.0136183 -0.10322 -0.11568 0.099824 -0.16939 0.062912 0.111015 0.0472804 0.102687 0.0637922 -0.16696 0.0128113 0.357249 0.154081 0.0750712 0.513195 -0.26032 0.153656 0.111616 -0.100214 0.128202 -0.194662 -0.00704497 0.344498 0.0658821 -0.0237785 -0.086569 0.0791076 -0.0684457 -0.192107
99 0.287378 0.0678559 0.0158525 -0.0175931 0.00857651 0.0871729 -0.0579972 0.308831 -0.0254995 -0.118591 -0.24555 0.0466935 -0.0529721 0.0974385 0.410567 -0.231108 0.283364 0.220166 -0.343967 -0.0213957 0.281097 -0.268029 0.406885 -0.0129691 0.200296 0.368381 0.140404 0.236328 0.172964 0.110643 0.12061 -0.0158209
74 0.0859873 -0.0136138 -0.0756381 0.0229057 -0.0229235 0.00541278 -0.103141 -0.107151 -0.165346 0.129638 0.121862 -0.101936 -0.149371 -0.176527 0.0776936 0.224643 -0.0921811 0.237641 0.0532695 0.0187147 -0.142699 0.00530679 -0.147667 -0.0824626 -0.111302 -0.0121574 -0.149373 -0.175691 0.139365 0.056491 -0.0574444 0.0426751
480 0.139966 0.260867 -0.0795378 0.106922 0.081814 -0.00698493 0.011941 0.134623 -0.341393 -0.0360859 -0.210048 -0.161065 -0.0819853 -0.131642 0.134207 -0.125709 0.119141 -0.0173465 -0.0233794 -0.125101 -0.0120807 -0.150766 0.0965064 0.0719727 0.0559338 0.0409805 -0.0996919 0.0734673 0.4214 0.11372 0.12433 0.200386
243 0.0613387 -0.0133697 -0.0565373 0.0193733 -0.0319033 -0.0194184 -0.0891374 -0.101418 -0.161169 0.118044 0.126603 -0.109959 -0.14869 -0.170455 0.0586875 0.220615 -0.085762 0.22641 0.0489542 0.0543032 -0.142712 0.0187615 -0.160193 -0.0950449 -0.1283 0.00540995 -0.166765 -0.164012 0.140411 0.047625 -0.0607759 0.0371287
182 -0.444737 -0.101845 0.441939 -0.11041 -0.0239285 -0.704583 0.0473495 0.00656157 0.321947 0.0596556 0.401543 0.126292 0.0273751 0.269366 -0.192776 0.339859 -0.169463 -0.160284 -0.0227395 0.633645 -0.0300527 0.33112 -0.396544 -0.279613 -0.38853 0.0925459 -0.543269 -0.0684242 -0.014972 -0.50323 -0.325212 0.211462
422 0.0792062 0.241232 -0.0493335 0.0897798 0.0695087 -0.0124142 0.0183346 0.100123 -0.237955 -0.0413622 -0.187547 -0.102162 -0.00226738 -0.0658331 0.0528608 -0.161529 0.0941903 -0.0937273 -0.0147806 -0.107302 0.0279527 -0.11 0.104413 0.0896832 0.0759128 -0.00493983 -0.0588329 0.0883499 0.303877 0.0588569 0.116006 0.164687
8 0.203648 0.282119 -0.108203 0.117041 0.0746619 0.0240167 -0.0300987 0.133539 -0.394176 -0.0138349 -0.219796 -0.180665 -0.110799 -0.16577 0.192923 -0.116772 0.130753 0.0630734 -0.0499757 -0.138418 -0.00478954 -0.187601 0.123601 0.0635433 0.068468 0.0680895 -0.107946 0.0607123 0.476334 0.14714 0.13675 0.205952
432 0.0465526 -0.0206905 -0.0518239 0.0144251 -0.0319415 -0.00910819 -0.0835195 -0.112313 -0.135618 0.118591 0.127021 -0.0863345 -0.117941 -0.13953 0.0171406 0.205211 -0.097386 0.17948 0.0636484 0.0413547 -0.142128 0.0361204 -0.156652 -0.0752495 -0.122734 -0.0341864 -0.145875 -0.159313 0.0995894 0.0271297 -0.0631387 0.0298618
329 0.259216 -0.220915 0.00586888 -0.101625 -0.114066 0.110541 -0.175776 0.0688888 0.102875 0.0490802 0.0936037 0.0652083 -0.169682 0.0107953 0.374386 0.148236 0.0814161 0.527292 -0.269911 0.143723 0.119413 -0.113248 0.142137 -0.19489 0.00244426 0.353087 0.0710524 -0.0233624 -0.0752161 0.0884588 -0.064061 -0.191364
478 -0.288999 -0.101435 0.00391356 0.0409025 0.151735 -0.359099 0.111543 -0.10366 0.25088 -0.0631941 0.239987 -0.171404 -0.168018 -0.436318 0.222282 0.296893 -0.128704 0.101031 0.169401 0.0881098 -0.0249987 -0.00250413 -0.40062 -0.159741 -0.0132868 0.151678 -0.186054 -0.181434 0.0398488 0.0119469 -0.0795221 0.151797
519 0.0860671 -0.0320713 -0.0879761 0.022862 -0.0376556 0.0131356 -0.10474 -0.12518 -0.174157 0.128904 0.139756 -0.131925 -0.176087 -0.220709 0.0826613 0.246092 -0.0949251 0.27569 0.0625654 0.0327864 -0.160015 0.00747991 -0.173984 -0.101343 -0.12456 0.00799106 -0.152784 -0.190025 0.136544 0.0820197 -0.0582415 0.0197063
75 -0.136658 0.0646898 -0.176381 0.125059 0.477848 -0.143298 0.154848 0.0374124 0.345595 -0.102998 -0.0853809 0.0789944 0.0294967 -0.313931 0.439797 0.0503385 -0.109877 -0.21057 0.216101 -0.575466 0.153805 -0.272272 -0.0738774 0.184348 0.419415 -0.146716 0.166988 -0.152769 0.0461186 0.0713432 0.0576411 0.368884
39 -0.407999 -0.337091 0.338371 -0.163761 0.149449 -0.486737 -0.0245844 -0.132003 0.668644 0.234096 0.499875 0.514256 0.175702 0.476684 -0.150222 0.545359 -0.412488 -0.234847 0.119587 0.195248 -0.0556753 0.324287 -0.383882 -0.122016 -0.229786 -0.31344 -0.257718 -0.326081 -0.420114 -0.573355 -0.461242 0.217919
658 0.25771 -0.213055 0.0100962 -0.0987044 -0.109265 0.0978946 -0.170991 0.0794246 0.0971117 0.041915 0.0878552 0.0555144 -0.178084 0.00135368 0.390482 0.145956 0.0912409 0.536932 -0.27677 0.148958 0.123767 -0.122148 0.143949 -0.197719 0.00471714 0.36949 0.0637345 -0.0158298 -0.0571816 0.0921721 -0.0600884 -0.182761
645 0.32675 0.161726 -0.264963 0.10129 0.262884 0.290973 -0.0882223 0.0644977 -0.229584 0.135213 -0.235126 0.140455 0.0102122 0.0132967 0.255745 0.000774286 -0.0548444 -0.0380427 0.0841089 -0.644684 -0.053901 -0.249305 0.20467 0.260745 0.240815 -0.333106 0.17056 -0.153932 0.221385 0.137218 0.0650633 0.248857
104 0.0575206 -0.0284393 -0.0544965 0.0134593 -0.02571 -0.0107217 -0.0848442 -0.100842 -0.136611 0.117988 0.126677 -0.0865876 -0.135261 -0.147016 0.0509992 0.219142 -0.0914655 0.201962 0.0557407 0.0374251 -0.141347 0.0240184 -0.154518 -0.0848901 -0.121442 -0.011602 -0.146546 -0.164096 0.110644 0.0369528 -0.0668886 0.0332503
73 0.165007 -0.195411 0.0417537 -0.0997087 -0.0989615 0.0766992 -0.123045 0.0613454 0.16215 0.0179594 0.0759101 0.0986775 -0.0820268 0.0763733 0.254311 0.0789215 0.0698243 0.364489 -0.229174 0.138372 0.13374 -0.0677152 0.135997 -0.144616 0.0163139 0.273842 0.0917824 0.0167327 -0.139153 0.0309037 -0.0550113 -0.180498
81 0.272987 0.162656 0.187819 -0.0824004 0.0956649 -0.000341443 -0.221263 0.192749 -0.164863 0.350418 -0.0743242 0.597985 0.268323 0.922282 -0.182248 0.0695644 -0.146878 -0.327392 -0.145571 -0.158079 -0.0577511 0.104963 0.290662 0.182054 -0.147534 -0.522042 -0.1763 -0.0824035 0.128003 -0.470147 -0.235187 0.331666
301 0.110098 -0.0119891 -0.0990475 0.0298222 -0.0420224 0.0342549 -0.112903 -0.121753 -0.214984 0.135824 0.120963 -0.141922 -0.181377 -0.222804 0.0852961 0.235123 -0.0854458 0.287538 0.0555415 0.0210084 -0.166017 -0.00226197 -0.1558 -0.0934654 -0.123389 0.00391444 -0.15329 -0.185258 0.163389 0.0950997 -0.0462844 0.0222971
18 0.164567 -0.279786 -0.051159 -0.11081 0.0396011 0.250443 -0.12623 -0.0267575 0.342904 0.108908 0.0734137 0.352547 0.0753423 0.236276 0.188 0.121176 -0.0911166 0.16481 -0.0823801 -0.228462 0.105057 -0.0611493 0.167902 0.036751 0.151298 -0.0951539 0.317321 -0.121398 -0.408148 -0.0208881 -0.101615 -0.15923
411 0.0843207 -0.00304586 -0.0818335 0.0292199 -0.0436579 0.0158274 -0.0883286 -0.105376 -0.206397 0.1105 0.105524 -0.146684 -0.164133 -0.207101 0.0572059 0.200891 -0.0697468 0.240642 0.0554536 0.0378015 -0.156004 0.00503839 -0.151043 -0.0888994 -0.122615 0.0142609 -0.15255 -0.155604 0.162956 0.0862732 -0.037999 0.0222855
550 0.212499 0.422604 -0.0556489 0.0860966 0.0908397 0.0662071 -0.418884 -0.213731 -0.0379253 0.357727 -0.0267135 0.332743 0.366871 0.247367 -0.0266037 -0.12847 -0.220314 -0.0763307 -0.0804301 -0.285821 0.277417 -0.0974176 0.28889 0.259445 0.27526 -0.520993 -0.0647669 -0.138601 0.120574 -0.26203 0.0294338 0.31873
318 0.00310237 -0.00826254 -0.0372236 0.0125562 -0.0416892 -0.00202052 -0.0753448 -0.138709 -0.0945214 0.113065 0.121558 -0.0577624 -0.0536179 -0.0957266 -0.0624198 0.155891 -0.108617 0.101272 0.0791633 0.038774 -0.120271 0.064262 -0.142232 -0.0442546 -0.104338 -0.0855498 -0.116668 -0.138288 0.037098 -0.0019177 -0.0536879 0.0114109
321 0.129755 0.265508 -0.0842677 0.110379 0.0990401 -0.0106371 0.0125898 0.128203 -0.314258 -0.0357557 -0.209379 -0.145186 -0.0653233 -0.131268 0.140121 -0.129357 0.108642 -0.0340842 -0.0152944 -0.148059 0.00281403 -0.157452 0.0982166 0.0832138 0.0780841 0.0245839 -0.0885869 0.0662747 0.407367 0.10437 0.125402 0.213166
152 0.160244 -0.426045 -0.0136834 -0.147842 0.089509 0.221006 0.0613507 0.106498 -0.0767557 0.217353 0.112543 0.350194 -0.133785 0.490202 -0.0958147 0.501487 -0.197284 -0.0659419 0.169267 -0.266144 -0.51675 0.180754 -0.147214 0.0034488 -0.351665 -0.349428 0.0519855 -0.311151 -0.203968 -0.0837939 -0.340558 -0.0276391
684 -0.389946 0.223047 0.474788 -0.024464 0.140138 -0.822991 0.173305 0.317195 0.199022 -0.13109 0.0592149 0.108725 0.109167 0.347591 -0.050715 -0.0241105 0.0512002 -0.445214 -0.143594 0.505372 0.174948 0.142862 -0.130005 -0.138679 -0.189826 0.188172 -0.537264 0.197308 0.316363 -0.509377 -0.153311 0.448927
26 0.193062 0.14027 0.206028 -0.0872744 0.0950098 -0.0394976 -0.191126 0.16024 -0.097852 0.325848 -0.0433015 0.587077 0.290596 0.896751 -0.230137 0.0659762 -0.162646 -0.369813 -0.114303 -0.128536 -0.0514422 0.135488 0.242423 0.176991 -0.149037 -0.527466 -0.172877 -0.0791544 0.0661778 -0.486313 -0.237912 0.310339
679 -0.271141 -0.280069 -0.0909365 -6.41211e-05 0.310858 -0.157276 0.0938096 -0.186743 0.53914 0.0413501 0.272198 0.155233 -0.0185194 -0.241035 0.23134 0.402424 -0.30786 -0.0389672 0.297968 -0.315235 -0.0389025 -0.0145297 -0.355694 0.00382573 0.144346 -0.197659 0.0986939 -0.356651 -0.315041 -0.0383688 -0.165958 0.14519
461 0.186059 0.421606 -0.0427295 0.083094 0.102852 0.0443128 -0.412844 -0.218982 0.0190205 0.348947 -0.0190633 0.35737 0.396828 0.259691 -0.0322213 -0.14405 -0.229041 -0.111155 -0.0772072 -0.287785 0.310385 -0.0945626 0.291075 0.267782 0.300348 -0.532243 -0.0511471 -0.13378 0.0837716 -0.285812 0.0276957 0.325195
51 -0.349932 0.0718701 0.384146 -0.0618257 0.441322 -0.715252 0.0732072 0.216173 0.556548 0.118254 0.161771 0.60417 0.298178 0.631593 0.0541489 0.248083 -0.283272 -0.622855 0.0252842 -0.0455372 0.157317 0.113079 -0.127416 0.0591149 0.00174893 -0.344602 -0.349066 -0.142108 0.0161394 -0.693668 -0.3422 0.656059
197 0.245958 0.0558967 0.0236082 -0.0183076 0.0309738 0.0649468 -0.024022 0.309595 -0.00130869 -0.128356 -0.238851 0.0585388 -0.0418085 0.111037 0.379624 -0.219745 0.265944 0.161722 -0.310508 -0.0360732 0.25909 -0.24745 0.373809 -0.00292604 0.190113 0.335377 0.140848 0.227701 0.150122 0.0929322 0.107504 -0.00272322
293 -0.363072 -0.380012 0.330533 -0.178041 0.194301 -0.522371 -0.0743288 -0.133872 0.691262 0.304377 0.571531 0.566348 0.121875 0.480132 -0.0328818 0.691842 -0.47535 -0.139412 0.118454 0.165061 -0.0868023 0.308483 -0.43012 -0.15979 -0.255773 -0.323869 -0.31023 -0.431306 -0.394994 -0.600827 -0.532853 0.275924
102 0.059364 -0.017477 -0.0758203 0.024673 -0.012272 -0.0101038 -0.0972388 -0.125223 -0.132974 0.128204 0.135603 -0.0977875 -0.137231 -0.190379 0.069914 0.230174 -0.109065 0.21311 0.0718474 0.0111919 -0.134572 0.0106955 -0.166659 -0.0786193 -0.0998178 -0.0258649 -0.14689 -0.186421 0.118934 0.0491898 -0.0593976 0.0481537
370 -0.232092 0.378904 0.0298353 0.132423 0.383295 -0.454643 -0.240319 -0.250561 0.596506 0.168981 0.155489 0.3141 0.391808 -0.122604 0.2962 -0.021974 -0.324948 -0.198061 0.035465 -0.263327 0.559289 -0.181642 0.00540735 0.182473 0.521364 -0.347945 -0.12618 -0.201658 0.0177265 -0.370157 0.00293443 0.566245
206 -0.413872 0.175311 0.470774 -0.0391063 0.106347 -0.779163 0.165142 0.261042 0.241305 -0.113956 0.0938882 0.131583 0.136996 0.367586 -0.122505 -0.0150584 0.0176881 -0.450713 -0.118469 0.50866 0.162251 0.182962 -0.142081 -0.13036 -0.195887 0.143171 -0.496091 0.179693 0.217897 -0.513449 -0.164426 0.387652
37 0.238108 0.0269472 0.0737393 -0.0172904 0.0901185 -0.0108041 0.239805 0.546235 -0.573677 -0.102591 -0.317297 -0.0465508 -0.274683 0.34035 0.0710867 0.0422746 0.256568 -0.172417 -0.0683283 -0.0500393 -0.3729 -0.0275873 0.0907512 -0.0124553 -0.326595 0.140504 -0.178064 0.147401 0.525203 0.059026 -0.0614721 0.187774
142 -0.170672 -0.312091 0.0598187 -0.0502584 0.595666 -0.264528 0.528669 0.55202 0.305795 -0.228641 -0.160909 0.32183 -0.15423 0.305032 0.379648 0.31086 -0.0053239 -0.543951 0.228892 -0.535089 -0.258782 -0.093639 -0.160559 0.0928194 -0.00693403 -0.0742921 0.114852 -0.0966323 0.0288341 -0.0758077 -0.228834 0.400928
511 0.0949709 -0.0167191 -0.0702373 0.0190846 -0.0348928 0.0116499 -0.101703 -0.094745 -0.182267 0.125414 0.114602 -0.107153 -0.158307 -0.166876 0.0746937 0.221027 -0.0792107 0.247908 0.0415514 0.0331826 -0.148627 0.00648367 -0.140032 -0.0896755 -0.124019 0.00390657 -0.151753 -0.165413 0.14688 0.0617244 -0.0570185 0.0311145
464 0.209703 -0.0410334 -0.124435 0.021907 -0.0576273 0.0569721 -0.164931 -0.0975627 -0.267701 0.161749 0.138753 -0.169814 -0.272282 -0.275335 0.218567 0.30513 -0.0653314 0.458862 4.79607e-05 0.0400036 -0.172233 -0.0511746 -0.143932 -0.151248 -0.140428 0.100101 -0.178315 -0.215874 0.233278 0.146985 -0.0595326 0.0130888
90 0.0354156 -0.0298075 -0.0575968 0.0156981 -0.0320696 -0.00264556 -0.071038 -0.112753 -0.135378 0.108073 0.124861 -0.099919 -0.128458 -0.157895 0.0173636 0.207017 -0.0926772 0.181662 0.0732365 0.0374281 -0.150729 0.0364944 -0.165767 -0.0767346 -0.122287 -0.0258569 -0.136396 -0.157503 0.0936475 0.0429246 -0.0595683 0.0199978
419 0.00697385 -0.380313 -0.0463774 -0.0318003 0.739158 -0.201082 0.579788 0.724834 0.160589 -0.239943 -0.247509 0.292522 -0.368903 0.220955 0.701087 0.473648 0.0453993 -0.404602 0.240382 -0.753233 -0.388226 -0.24147 -0.159368 0.0787883 -0.00783008 0.0173878 0.132713 -0.176943 0.233066 0.0776096 -0.253138 0.507368
697 0.273986 -0.332338 -0.0960558 -0.119645 0.0481923 0.29867 -0.181071 -0.0109442 0.311322 0.149194 0.0946219 0.35176 -0.0155414 0.187809 0.342916 0.218543 -0.0914106 0.342523 -0.121199 -0.263849 0.086586 -0.120467 0.180259 -0.00882886 0.149981 -0.0259972 0.319732 -0.184606 -0.36347 0.0389101 -0.125986 -0.165021
88 0.0195576 -0.269319 0.0994198 -0.10768 -0.0476147 -0.0132615 0.133342 0.153436 -0.208399 0.0558556 0.0907906 0.0440092 -0.207258 0.281115 -0.162816 0.334288 -0.0311406 -0.0385894 0.0809985 0.126215 -0.439752 0.212375 -0.208465 -0.130101 -0.441152 -0.0216057 -0.16019 -0.102146 0.0211216 -0.0592354 -0.233649 -0.044926
76 0.23965 0.287386 -0.118916 0.120694 0.0798174 0.0342178 -0.0386379 0.155073 -0.436025 -0.00683378 -0.23289 -0.191376 -0.140042 -0.175198 0.231631 -0.102609 0.142626 0.0999888 -0.0624978 -0.151577 -0.0177945 -0.208415 0.13384 0.0577897 0.0627353 0.0865579 -0.118329 0.0553057 0.521291 0.166679 0.13782 0.219466
308 0.170144 -0.0327145 -0.105099 0.0217509 -0.0424316 0.0357805 -0.139352 -0.0929245 -0.25041 0.154984 0.131192 -0.14562 -0.236978 -0.23088 0.163019 0.288637 -0.0762585 0.377565 0.0232686 0.0313595 -0.182006 -0.0261947 -0.153111 -0.1293 -0.148231 0.0557131 -0.181929 -0.208629 0.216564 0.11335 -0.066997 0.0314116
23 0.266344 0.449272 -0.0784089 0.0987341 0.109859 0.0683688 -0.458641 -0.207091 -0.0617916 0.379349 -0.0325737 0.327171 0.341923 0.210132 0.0564678 -0.11241 -0.218104 -0.0138957 -0.103919 -0.312729 0.301193 -0.142478 0.309667 0.25475 0.303234 -0.49998 -0.0799501 -0.158896 0.179046 -0.243511 0.0362748 0.354559
147 0.0603546 0.0145975 0.116801 -0.0279984 0.054116 -0.058912 0.247819 0.402864 -0.347405 -0.121958 -0.23439 -0.00247365 -0.11956 0.340725 -0.0979291 -0.0351015 0.185177 -0.301876 -0.0166078 0.0163882 -0.268151 0.0560849 0.0463629 0.0125835 -0.261922 0.0581867 -0.117553 0.164131 0.290274 -0.0290823 -0.0511147 0.115345
343 0.210925 0.270361 -0.117678 0.119304 0.0937485 0.0235085 -0.0102727 0.157169 -0.404021 -0.0266125 -0.231574 -0.190815 -0.136245 -0.181466 0.222982 -0.102719 0.13986 0.0693797 -0.0434314 -0.160617 -0.0221173 -0.203466 0.115779 0.0599896 0.0672438 0.0858436 -0.104992 0.0559422 0.497666 0.168075 0.135767 0.217644
93 -0.268465 0.0610173 0.391942 -0.0768263 0.4561 -0.706697 0.0586229 0.285564 0.523926 0.12274 0.141069 0.646171 0.259869 0.696514 0.150173 0.27538 -0.252449 -0.555261 -0.02888 -0.0571764 0.165199 0.0744439 -0.0757223 0.0546595 -0.0110716 -0.304811 -0.345795 -0.143464 0.0660168 -0.68946 -0.360192 0.683999
342 0.173871 0.278524 -0.0999078 0.116609 0.0959092 0.0110665 0.00192739 0.149771 -0.374895 -0.0307196 -0.231372 -0.167188 -0.0987224 -0.145835 0.176299 -0.123888 0.128774 0.00785403 -0.0316281 -0.157317 -0.0127392 -0.181418 0.117012 0.0770724 0.0702733 0.0489282 -0.0992409 0.0675401 0.465097 0.135473 0.133494 0.219398
538 0.0461379 0.233682 -0.0414659 0.0888132 0.0600141 -0.0261918 0.0361916 0.0892856 -0.22423 -0.0558248 -0.177424 -0.118918 0.00137693 -0.0799018 0.0228427 -0.167554 0.0933772 -0.112889 -0.000924044 -0.0836317 0.0239984 -0.0920421 0.0809602 0.0840585 0.0665988 -6.54382e-05 -0.061298 0.0964391 0.284206 0.0566355 0.118014 0.150729
347 0.280576 0.137391 -0.235948 0.0885431 0.257055 0.259484 -0.0693488 0.060916 -0.169932 0.118626 -0.214454 0.155235 0.0283637 0.0326793 0.234272 -0.00143357 -0.0586295 -0.0666503 0.084012 -0.60703 -0.0366643 -0.225039 0.190838 0.250801 0.236453 -0.322005 0.174669 -0.13984 0.171516 0.109928 0.0548769 0.232588
539 -0.00313022 -0.00604822 -0.022119 0.0100319 -0.0446841 -0.0200965 -0.0601453 -0.116255 -0.105155 0.0999679 0.113782 -0.0647325 -0.0594989 -0.0824139 -0.0719225 0.146981 -0.0940514 0.0838276 0.0719532 0.0615433 -0.124841 0.0703968 -0.14347 -0.0513307 -0.120945 -0.0666475 -0.132293 -0.120077 0.0541068 -0.00904047 -0.0547769 0.0163654
556 0.213278 -0.220291 0.0129802 -0.0992601 -0.0947795 0.103053 -0.133205 0.0730747 0.127583 0.0258613 0.078793 0.07544 -0.142466 0.0300915 0.328178 0.124786 0.0776695 0.446725 -0.23647 0.117761 0.109123 -0.09676 0.131318 -0.167108 0.00955717 0.314705 0.0941193 -0.0102929 -0.107661 0.0768978 -0.059407 -0.187068
582 0.0552872 -0.0244305 -0.0528668 0.0122431 -0.038978 0.00155482 -0.0884589 -0.114746 -0.146247 0.125743 0.127113 -0.0830355 -0.11745 -0.129493 0.00740569 0.208194 -0.0989695 0.181666 0.0629135 0.0415015 -0.14892 0.0408635 -0.152712 -0.0763988 -0.129131 -0.0379002 -0.144913 -0.162124 0.0962569 0.0285145 -0.0657599 0.023221
381 0.0285861 -0.0226332 -0.0528821 0.0150477 -0.0288578 -0.00705879 -0.079128 -0.124538 -0.107269 0.112611 0.128239 -0.0788302 -0.101076 -0.142214 0.00872816 0.192589 -0.101715 0.164744 0.070292 0.0331784 -0.127342 0.0380962 -0.15412 -0.0665775 -0.105149 -0.0432735 -0.126785 -0.156224 0.0699618 0.0255322 -0.0579032 0.0214765
475 0.136081 0.275908 -0.0811469 0.108328 0.0761586 0.00583074 -0.00718818 0.112307 -0.320168 -0.0256762 -0.209198 -0.140103 -0.0458113 -0.115692 0.113164 -0.150301 0.108264 -0.0330278 -0.0263192 -0.133682 0.015554 -0.149779 0.116143 0.0873994 0.0797794 0.015309 -0.0836984 0.0754598 0.393308 0.0982028 0.131732 0.195382
319 0.145685 0.270518 -0.0811375 0.108436 0.0728397 -0.00346276 -0.00922784 0.120972 -0.339771 -0.0251212 -0.202559 -0.159716 -0.0751241 -0.133928 0.137109 -0.127125 0.115254 0.00318393 -0.0333417 -0.115276 0.00210892 -0.154256 0.104679 0.0681142 0.061972 0.0454102 -0.104948 0.0701758 0.422411 0.109653 0.126685 0.198568
168 0.136135 -0.18802 0.0541522 -0.0982159 -0.0910637 0.0494305 -0.118247 0.0508282 0.182253 0.0203823 0.0878144 0.107719 -0.0665663 0.083226 0.235157 0.0814718 0.0550199 0.335376 -0.217648 0.145203 0.137979 -0.0542704 0.119918 -0.140243 0.0145842 0.256277 0.0779402 0.0112586 -0.146228 0.00825857 -0.0613835 -0.164496
57 0.206854 0.298542 -0.102735 0.12253 0.0827412 0.00188813 -0.0208656 0.158497 -0.420288 -0.0234526 -0.232413 -0.197549 -0.128251 -0.174624 0.210889 -0.11764 0.144891 0.062137 -0.0560396 -0.130434 -0.0103506 -0.197881 0.121616 0.055679 0.0594498 0.0917423 -0.13215 0.0697937 0.522391 0.151381 0.140528 0.228604
177 0.182365 0.135105 -0.179856 0.0744434 0.233376 0.205131 -0.0449798 0.0273923 -0.0849331 0.102696 -0.181444 0.184984 0.1027 0.0907417 0.112139 -0.0402868 -0.0801987 -0.172722 0.100522 -0.536163 -0.0128382 -0.156646 0.163713 0.256582 0.221126 -0.362124 0.167692 -0.110917 0.0805842 0.035962 0.0434252 0.210167
429 0.0245906 -0.0291529 -0.0470291 0.0109606 -0.0303015 -0.00485404 -0.0713812 -0.118622 -0.109515 0.111699 0.125719 -0.0712297 -0.0959769 -0.120701 -0.00929045 0.193059 -0.102767 0.145695 0.0752413 0.0321423 -0.138711 0.0468411 -0.156579 -0.0647494 -0.115432 -0.0517562 -0.125984 -0.154003 0.0652614 0.0204618 -0.0631808 0.0187124
497 0.0327815 0.198051 0.0891817 0.00981165 -0.183221 -0.157574 -0.381605 -0.318752 -0.0947914 0.328896 0.285092 0.0295424 0.103773 0.020553 -0.166273 0.143363 -0.217627 0.232579 -0.08177 0.324132 0.0731435 0.136469 -0.0883882 -0.0980165 -0.134301 -0.157045 -0.373076 -0.173423 0.110908 -0.247898 -0.0967238 0.0973275
425 -0.202199 0.395996 0.0317256 0.135511 0.417371 -0.474876 -0.269604 -0.233695 0.587704 0.20152 0.159342 0.349936 0.388242 -0.0956207 0.351312 0.0126413 -0.338136 -0.182287 0.0198413 -0.294953 0.565529 -0.20511 0.0197552 0.184924 0.529273 -0.362427 -0.155004 -0.227495 0.0665639 -0.393348 -0.017356 0.626018
531 0.136511 -0.0955676 0.0877295 -0.121843 -0.0897474 0.0851602 -0.416929 -0.237932 0.445787 0.313615 0.255456 0.485231 0.290049 0.377815 0.0480382 0.0910289 -0.227008 0.241157 -0.224259 0.0422834 0.335348 0.0290044 0.216182 0.00283164 0.156792 -0.208494 0.10413 -0.157715 -0.430505 -0.300592 -0.148682 -0.0896145
507 0.101508 0.236632 -0.0674217 0.0955407 0.0723341 0.00207817 0.0330716 0.120937 -0.286821 -0.0509373 -0.203565 -0.135881 -0.0445185 -0.0971534 0.0794544 -0.147903 0.112112 -0.0696469 -0.00924827 -0.119096 -0.00471568 -0.124042 0.0964064 0.0824247 0.0601581 0.01987 -0.0637885 0.0869192 0.345444 0.0950479 0.121907 0.166706
145 0.155034 -0.012766 -0.0953421 0.0214214 -0.055098 0.0370235 -0.158919 -0.124157 -0.233993 0.174386 0.142014 -0.12147 -0.193277 -0.199388 0.111804 0.268698 -0.0971915 0.344577 0.0268089 0.0390523 -0.163839 -0.00482493 -0.144298 -0.111072 -0.14075 0.00723135 -0.181858 -0.207478 0.184491 0.0795688 -0.0669215 0.0300561
144 0.151768 -0.0339703 -0.0978301 0.0180109 -0.0610596 0.0463969 -0.137819 -0.110817 -0.24112 0.153898 0.133974 -0.140005 -0.211368 -0.211866 0.111645 0.266685 -0.0805415 0.349953 0.0313026 0.0438638 -0.179857 -0.00511446 -0.150965 -0.120669 -0.150871 0.0357803 -0.169087 -0.197797 0.182724 0.104804 -0.0627103 0.00806645
141 -0.214148 -0.324523 0.0556903 -0.0513183 0.551702 -0.239651 0.539098 0.500035 0.334724 -0.249847 -0.146976 0.28878 -0.130752 0.267212 0.311286 0.272915 -0.00346656 -0.556781 0.246885 -0.498449 -0.248233 -0.0651045 -0.176591 0.0922837 -0.00132177 -0.0718338 0.148643 -0.0749272 -0.0476114 -0.0607706 -0.206351 0.330408
572 0.063639 -0.386691 0.0206807 -0.134632 0.0973366 0.135344 0.0828959 0.0855357 0.0135766 0.173432 0.123426 0.328882 -0.084801 0.446851 -0.113244 0.441785 -0.190788 -0.126432 0.170249 -0.213206 -0.435644 0.185151 -0.162258 0.00417556 -0.303343 -0.320455 0.041153 -0.266956 -0.2268 -0.117632 -0.313715 -0.00769415
196 -0.263594 0.0857685 0.364404 -0.0600412 0.434373 -0.674537 0.0613632 0.26381 0.491648 0.110671 0.127288 0.590297 0.256286 0.637416 0.126536 0.233807 -0.234029 -0.556249 -0.021026 -0.0604143 0.163741 0.0633725 -0.0718503 0.0608136 0.00483377 -0.2972 -0.341605 -0.128108 0.0799284 -0.65315 -0.321466 0.662536
143 0.121645 -0.159836 0.224497 -0.144872 -0.000440334 -0.0153318 0.191389 0.52456 0.0451546 -0.207819 -0.236656 0.219723 -0.0353172 0.551671 0.118232 -0.155526 0.303556 -0.140479 -0.29544 0.120905 0.0548636 -0.0299355 0.311811 -0.0492192 -0.0929609 0.318707 0.119239 0.315551 -0.0150388 -0.0788951 -0.0542548 -0.0830262
474 -0.221764 0.380465 0.0358715 0.127702 0.390258 -0.456713 -0.235849 -0.227886 0.571298 0.174973 0.150775 0.324703 0.382321 -0.0962749 0.297491 -0.00972283 -0.320337 -0.206413 0.031037 -0.267662 0.539404 -0.178742 0.0100364 0.181187 0.50084 -0.350178 -0.139894 -0.202708 0.040977 -0.376836 -0.00763426 0.577654
11 -0.320734 0.0567356 0.390589 -0.0745282 0.405073 -0.654759 0.0638991 0.210793 0.536232 0.123377 0.153866 0.610975 0.301351 0.67929 0.023865 0.230214 -0.253719 -0.594628 0.0049443 -0.0296616 0.151779 0.120878 -0.0903105 0.0725025 -0.0250026 -0.354783 -0.3098 -0.126735 -0.0136422 -0.679891 -0.332649 0.606118
133 0.232236 0.0506161 0.0291851 -0.0246128 0.00207295 0.0823951 -0.0305821 0.282821 0.00800669 -0.124517 -0.228008 0.0608709 -0.0176798 0.124443 0.326771 -0.237272 0.259641 0.150202 -0.307122 -0.0126666 0.262099 -0.223117 0.375476 -0.00120628 0.183192 0.3202 0.152955 0.236187 0.108151 0.0836679 0.109943 -0.0376127
606 0.146985 0.268353 -0.0874737 0.110825 0.0796849 0.000483901 -0.00351244 0.120387 -0.33984 -0.0268355 -0.205865 -0.160331 -0.0759825 -0.140198 0.140084 -0.126097 0.113769 -0.00158044 -0.0258916 -0.129168 -0.00293899 -0.157388 0.100559 0.0719343 0.0649155 0.0388786 -0.0998724 0.0657613 0.422272 0.115416 0.128221 0.201096
304 0.089829 -0.0138978 -0.0692422 0.0213137 -0.00628929 -0.00708178 -0.0934793 -0.0833691 -0.17309 0.129806 0.113643 -0.0891983 -0.155336 -0.155162 0.0874816 0.235829 -0.0906896 0.224911 0.0533812 0.0084175 -0.153288 0.00394464 -0.149485 -0.080306 -0.119675 -0.0176813 -0.16032 -0.179093 0.157574 0.0477858 -0.0680875 0.0635862
352 0.126912 -0.0285735 -0.0889069 0.020471 -0.0401054 0.0215256 -0.111654 -0.0951012 -0.222001 0.135609 0.124852 -0.136074 -0.201162 -0.204905 0.107165 0.256464 -0.0784995 0.303297 0.042346 0.0355277 -0.175923 -0.00373937 -0.158337 -0.111945 -0.14407 0.0307851 -0.169761 -0.18828 0.183325 0.0930688 -0.0622877 0.0281111
117 0.175544 -0.0561577 -0.122652 0.017937 -0.0448028 0.0743734 -0.132188 -0.0998653 -0.23479 0.147438 0.124009 -0.140605 -0.23493 -0.234769 0.16154 0.281663 -0.0747012 0.377423 0.0324966 0.0039954 -0.184352 -0.0294187 -0.143786 -0.118164 -0.132187 0.0475446 -0.137961 -0.208109 0.175818 0.134417 -0.0599514 0.00151767
687 -0.226138 0.382849 0.0467227 0.126588 0.410025 -0.487953 -0.240941 -0.215217 0.604726 0.173975 0.154587 0.34639 0.389373 -0.0809233 0.333428 -0.00584036 -0.322274 -0.204688 0.0150795 -0.266848 0.56672 -0.191941 0.0156045 0.175805 0.516545 -0.341164 -0.146282 -0.205498 0.0427654 -0.396372 -0.0162868 0.600164
708 -0.0678814 -0.0455539 0.302798 -0.121235 -0.200036 -0.24759 -0.121063 -0.0175501 -0.100035 0.213711 0.2466 0.161696 0.0424202 0.473181 -0.368062 0.229198 -0.121504 -0.0484222 -0.0876514 0.488046 -0.177986 0.332441 -0.14337 -0.168272 -0.454877 -0.0941386 -0.409069 -0.0560535 0.0173455 -0.383486 -0.266244 0.0315496
335 0.263016 -0.153591 -0.0453732 -0.059857 0.258733 0.226753 0.187583 0.405569 -0.235526 0.0394475 -0.260794 0.329575 -0.0785246 0.543944 0.0642245 0.153579 0.0245158 -0.323284 0.0829548 -0.506549 -0.364295 -0.033927 0.139473 0.179326 -0.129933 -0.290177 0.14449 -0.0702522 0.0988173 -0.0111554 -0.154373 0.17219
302 0.143794 0.275283 -0.0831239 0.111097 0.0707971 -0.00419558 -0.00865489 0.116445 -0.349763 -0.0240884 -0.202905 -0.166942 -0.074596 -0.139965 0.128864 -0.128722 0.114313 -0.00279031 -0.0279631 -0.113176 -0.0031601 -0.150661 0.0987933 0.0693541 0.0579505 0.0393541 -0.110077 0.0701175 0.426935 0.110299 0.128238 0.199913
704 -0.233675 0.379914 0.0363543 0.131431 0.399307 -0.465004 -0.228023 -0.222043 0.585229 0.16405 0.143243 0.323613 0.388438 -0.0982045 0.30372 -0.0193945 -0.31737 -0.216692 0.0317943 -0.270961 0.550913 -0.184444 0.00984886 0.183609 0.513971 -0.344494 -0.131827 -0.195928 0.0380963 -0.374121 -0.00351723 0.582934
535 -0.237803 -0.29037 0.0794289 -0.0577359 0.464659 -0.224374 0.486812 0.416991 0.336353 -0.222229 -0.114856 0.285287 -0.0576063 0.291607 0.176521 0.211713 -0.0218024 -0.562481 0.234051 -0.409686 -0.21366 -0.00879545 -0.164207 0.0960304 -0.0132472 -0.114302 0.137412 -0.0535053 -0.108303 -0.100576 -0.187905 0.271092
35 -0.288014 -0.246816 -0.0734955 0.0029647 0.28978 -0.171276 0.0729058 -0.213704 0.541794 0.0553923 0.280729 0.160805 0.0190654 -0.221926 0.180719 0.375871 -0.31735 -0.0637673 0.292462 -0.283318 -0.0180599 0.00730129 -0.349504 0.013278 0.143807 -0.224248 0.0790995 -0.344437 -0.321892 -0.0698065 -0.15996 0.147082
693 0.184675 -0.191535 0.0263103 -0.0924159 -0.0948411 0.075071 -0.133821 0.0566415 0.135344 0.0270264 0.0820716 0.0754667 -0.111766 0.035454 0.289539 0.102956 0.067873 0.410074 -0.229139 0.134473 0.124058 -0.0832354 0.124094 -0.156716 0.013651 0.290473 0.0740694 -0.00198312 -0.104951 0.0495911 -0.0540867 -0.168275
16 0.194155 0.0350378 0.0853223 -0.0160956 0.0761858 -0.0267942 0.244151 0.512391 -0.531417 -0.112508 -0.302816 -0.0496362 -0.238156 0.329198 0.0237547 0.0107422 0.246163 -0.206152 -0.0576318 -0.0243711 -0.345212 -0.00796471 0.0802677 -0.00731711 -0.311665 0.127383 -0.170376 0.160592 0.482293 0.0415167 -0.0516361 0.171743
698 0.193808 0.415395 -0.0227326 0.0719405 0.0776889 0.0370731 -0.430617 -0.218712 0.0125219 0.362666 -0.00358884 0.365035 0.397387 0.289852 -0.0480499 -0.134932 -0.22858 -0.0911153 -0.100951 -0.240202 0.311313 -0.0758906 0.294354 0.249112 0.27266 -0.517597 -0.0750213 -0.128555 0.0824728 -0.305486 0.0148945 0.311718
20 0.107941 0.248841 -0.055378 0.0960509 0.0853276 -0.0274582 0.0200697 0.127385 -0.285853 -0.0368036 -0.194107 -0.123179 -0.0458345 -0.0858049 0.100001 -0.129331 0.103167 -0.0614793 -0.0190463 -0.112594 0.00223923 -0.128066 0.0923653 0.0756102 0.0563064 0.0197607 -0.0944482 0.0757328 0.371783 0.0726697 0.108734 0.199482
297 0.0250961 0.275745 0.320944 -0.0436584 -0.0932513 -0.277788 -0.0626473 0.226562 -0.273363 0.0957378 -0.0769648 0.173201 0.157346 0.603922 -0.313691 -0.127151 0.0638739 -0.306365 -0.205319 0.352531 -0.00613453 0.177958 0.146636 -0.00490875 -0.282203 -0.0840882 -0.39288 0.182435 0.311623 -0.395903 -0.10256 0.227164
690 -0.259561 -0.252569 -0.106014 0.0120406 0.299958 -0.146274 0.090087 -0.193974 0.502699 0.0361183 0.258646 0.120776 -0.0257589 -0.275243 0.229491 0.381485 -0.296132 -0.0296472 0.299187 -0.312202 -0.0382928 -0.0226687 -0.3513 0.00675066 0.150513 -0.186865 0.0945511 -0.346055 -0.287258 -0.0158074 -0.144329 0.140901
502 -0.352588 -0.0882498 0.259698 -0.0268742 0.268538 -0.52498 0.533703 0.514185 0.0996536 -0.372079 -0.133684 -0.0546933 -0.164004 0.142432 0.0831491 0.0445104 0.186819 -0.495814 0.0732525 0.133295 -0.153127 0.0532786 -0.215438 -0.0947021 -0.202615 0.293877 -0.19812 0.200566 0.235541 -0.116893 -0.100165 0.272947
222 0.0328188 -0.0499905 -0.0505808 0.00755923 -0.041431 -0.00694822 -0.0672609 -0.113811 -0.124115 0.106615 0.138511 -0.0975181 -0.13261 -0.151187 0.0112718 0.219634 -0.09494 0.190947 0.0718428 0.0563061 -0.158066 0.0468006 -0.175989 -0.0903982 -0.137554 -0.0138416 -0.137537 -0.16081 0.0755461 0.0403105 -0.068811 0.00407398
19 0.210613 0.149358 0.191427 -0.0850522 0.0610669 0.00705337 -0.205281 0.142574 -0.115445 0.322535 -0.0547121 0.56976 0.298279 0.883788 -0.245774 0.0269802 -0.148624 -0.348425 -0.128224 -0.118911 -0.0365363 0.131238 0.271055 0.179686 -0.131865 -0.516811 -0.141352 -0.0594651 0.0455628 -0.462398 -0.213779 0.268504
83 0.041537 -0.208759 0.202762 -0.169087 -0.050474 -0.01764 -0.253934 -0.141536 0.140461 0.438334 0.326092 0.557578 0.197185 0.733653 -0.332402 0.419991 -0.36018 -0.100186 0.0126481 0.0673543 -0.207082 0.319732 -0.0817592 -0.00544419 -0.322068 -0.520007 -0.179616 -0.312817 -0.299696 -0.475571 -0.401325 0.0701095
395 -0.432608 0.187651 0.472199 -0.0328046 0.0931869 -0.790074 0.194971 0.271125 0.217809 -0.150181 0.0783017 0.076839 0.122121 0.321322 -0.134871 -0.0452221 0.04696 -0.458936 -0.114626 0.542858 0.157136 0.184222 -0.156232 -0.143793 -0.207056 0.186807 -0.502345 0.210388 0.239267 -0.489634 -0.142449 0.373436
718 0.172508 0.269625 -0.0985098 0.111562 0.094397 0.0139484 -0.0128106 0.134259 -0.340267 -0.0222259 -0.21782 -0.145745 -0.0792052 -0.135866 0.174634 -0.124391 0.115876 0.0106834 -0.0347056 -0.159325 0.00741426 -0.178298 0.120687 0.0790583 0.0848769 0.0396947 -0.086548 0.0610675 0.43194 0.122945 0.129717 0.211921
715 0.0295644 -0.00831998 -0.0492519 0.0153741 -0.049952 -4.95787e-05 -0.102346 -0.148 -0.111603 0.128029 0.137668 -0.0776648 -0.084217 -0.13596 -0.0172847 0.182284 -0.108319 0.173839 0.0620638 0.0529611 -0.116947 0.0475443 -0.148315 -0.0660192 -0.106711 -0.0549297 -0.134938 -0.155361 0.0651557 0.0163781 -0.0548794 0.01182
334 0.0286764 -0.0436531 -0.0598536 0.0111285 -0.0358628 0.0107668 -0.0647403 -0.122791 -0.124157 0.108771 0.128821 -0.0892909 -0.117056 -0.144249 -0.00847224 0.206143 -0.100994 0.166842 0.0844931 0.0298077 -0.16085 0.0479059 -0.169208 -0.0719477 -0.126559 -0.0414736 -0.120828 -0.162193 0.0644389 0.0423639 -0.0629444 0.00371443
400 -0.236833 -0.289425 0.0935124 -0.059584 0.492607 -0.261455 0.476003 0.433856 0.345558 -0.199078 -0.0955281 0.313748 -0.0683087 0.318548 0.209071 0.257671 -0.0410838 -0.56274 0.231146 -0.414185 -0.221075 -0.00890136 -0.178628 0.0882026 -0.0262364 -0.123168 0.104968 -0.0793357 -0.0812334 -0.129163 -0.216265 0.319599
406 0.184925 -0.0318702 -0.111098 0.023142 -0.0515647 0.0340087 -0.158676 -0.103704 -0.249748 0.160949 0.143859 -0.158975 -0.250398 -0.258969 0.19188 0.297437 -0.0758038 0.418627 0.0102877 0.0451398 -0.167075 -0.038148 -0.152451 -0.144232 -0.141476 0.0821191 -0.189556 -0.21529 0.226313 0.123333 -0.0640581 0.0274496
358 -0.254662 -0.30049 0.0988032 -0.0606408 0.506506 -0.277869 0.50164 0.452044 0.380223 -0.233742 -0.105392 0.304953 -0.0722639 0.297638 0.235047 0.240841 -0.0258769 -0.57437 0.223778 -0.410941 -0.19901 -0.0239934 -0.1771 0.0826161 -0.00572102 -0.08498 0.119276 -0.0572341 -0.087836 -0.122885 -0.209757 0.314524
713 0.0449301 -0.00974996 -0.0541698 0.0160378 -0.0484818 0.0087695 -0.0913653 -0.131959 -0.134928 0.121208 0.122682 -0.0845995 -0.0945347 -0.132241 -0.0163549 0.179213 -0.0980923 0.167992 0.0640605 0.0432526 -0.131976 0.043763 -0.142202 -0.0642541 -0.114381 -0.0499105 -0.131753 -0.150068 0.0801653 0.0280925 -0.0517146 0.0111081
528 0.100609 0.526432 0.0862283 0.104565 -0.0541699 -0.194393 -0.322693 -0.0954088 -0.20627 0.185351 -0.0430184 0.0173261 0.222554 0.0685986 -0.0497325 -0.237037 -0.021825 -0.00370651 -0.197122 0.162169 0.304849 -0.0596945 0.206555 0.0726263 0.112745 -0.113383 -0.321717 0.0732161 0.393977 -0.230042 0.0978957 0.300823
149 -0.20329 0.0142119 -0.117327 0.0939498 0.486385 -0.195356 0.186943 0.049137 0.427428 -0.0986147 -0.0461418 0.156477 0.0699264 -0.20095 0.370828 0.0837975 -0.143179 -0.297438 0.231102 -0.540024 0.135504 -0.208989 -0.105197 0.179112 0.37411 -0.191299 0.156384 -0.158552 -0.0348473 -0.0114552 0.00328274 0.370459
146 0.0343385 -0.0184937 -0.054068 0.0178193 -0.0363051 -0.00844117 -0.0703436 -0.113002 -0.14027 0.104003 0.119967 -0.104844 -0.119773 -0.155702 0.00579778 0.191463 -0.0885 0.170946 0.0700525 0.0462355 -0.144321 0.0376851 -0.160784 -0.0752384 -0.121772 -0.023347 -0.141201 -0.148348 0.0987056 0.0395377 -0.052976 0.0202774
249 -0.349544 0.0606058 0.386989 -0.0700807 0.396535 -0.676822 0.0869358 0.211325 0.514529 0.114887 0.162836 0.587181 0.294135 0.657663 -0.00635487 0.234623 -0.264723 -0.613338 0.033789 -0.0131315 0.11809 0.143147 -0.139054 0.0568174 -0.0438537 -0.347535 -0.33722 -0.133201 -0.0047618 -0.67797 -0.344413 0.610088
110 0.0829602 -0.0294992 -0.081298 0.020245 -0.0221312 0.0167956 -0.0866746 -0.100176 -0.170734 0.120738 0.116061 -0.106529 -0.160377 -0.178165 0.0718143 0.229669 -0.0882916 0.22984 0.0650174 0.00789524 -0.161673 0.0081338 -0.155468 -0.0822504 -0.11917 -0.00984015 -0.138268 -0.176895 0.133614 0.0716899 -0.0585738 0.0303294
509 -0.206755 0.0621838 0.359329 -0.0612562 0.50596 -0.685458 0.051964 0.327151 0.505269 0.129709 0.105729 0.653258 0.215381 0.673814 0.261051 0.297054 -0.236941 -0.519054 -0.0456796 -0.132131 0.16215 0.0166721 -0.0474555 0.0607749 0.020967 -0.290682 -0.334184 -0.160147 0.123193 -0.655795 -0.362713 0.718652
610 0.274511 0.168035 0.190106 -0.083202 0.0814157 0.000408292 -0.229532 0.182415 -0.175899 0.354429 -0.0664359 0.590218 0.267901 0.92014 -0.19476 0.0672569 -0.147704 -0.317168 -0.150307 -0.141049 -0.0600982 0.111664 0.287266 0.175293 -0.157517 -0.519054 -0.185753 -0.0816105 0.125703 -0.473402 -0.23626 0.323245
581 0.110022 0.258136 -0.0712676 0.103357 0.0717986 -0.00563404 0.0189251 0.119412 -0.307272 -0.0472944 -0.206931 -0.152651 -0.0510621 -0.119696 0.0944838 -0.15211 0.116761 -0.0468423 -0.0183767 -0.112866 0.00460982 -0.135965 0.0991267 0.0779927 0.0656784 0.032333 -0.0809603 0.0871414 0.376954 0.100609 0.129801 0.178741
640 0.214357 0.311312 0.176077 -0.0186934 -0.111984 -0.100978 -0.331332 0.0942164 0.0914124 0.0729467 -0.091516 0.202087 0.233762 0.288288 0.187067 -0.336261 0.143428 0.170932 -0.469456 0.243124 0.540832 -0.153684 0.473965 -0.000155004 0.228355 0.190541 -0.0706004 0.238702 0.135601 -0.217399 0.0927636 0.0768505
312 -0.0155925 0.214128 0.0966082 0.0172706 -0.17464 -0.183108 -0.376196 -0.346223 -0.0437079 0.318849 0.2944 0.0321633 0.137385 0.00411984 -0.186121 0.121636 -0.228952 0.204248 -0.0696169 0.329378 0.105944 0.142797 -0.0973649 -0.0870376 -0.105569 -0.170892 -0.365944 -0.166158 0.0794459 -0.263637 -0.0864938 0.100593
135 -0.332565 -0.39271 0.210238 -0.107529 0.153025 -0.429592 0.365742 0.232945 0.207255 -0.142772 0.215051 -0.00225873 -0.276327 0.0655297 0.0563438 0.465653 -0.0509966 -0.150555 0.166839 0.219358 -0.343342 0.195088 -0.469585 -0.247602 -0.386005 0.202465 -0.240355 -0.114016 -0.0292524 -0.12387 -0.297341 0.101951
161 0.0243623 -0.0241332 -0.0517438 0.0166382 -0.0490919 -0.0149784 -0.0678389 -0.123073 -0.1304 0.095277 0.130469 -0.122032 -0.124803 -0.179111 0.00344935 0.188569 -0.0849355 0.185253 0.0680232 0.071159 -0.137198 0.0428444 -0.170986 -0.0881307 -0.124208 -0.00196955 -0.142311 -0.142893 0.0887065 0.046208 -0.0489658 0.00380874
184 0.0900404 -0.0252841 -0.0812867 0.0215188 -0.0259624 0.0119321 -0.0974606 -0.103305 -0.178776 0.126928 0.122461 -0.114855 -0.169119 -0.189824 0.0849701 0.236873 -0.0874071 0.25822 0.0539747 0.0214382 -0.157495 0.00313192 -0.156806 -0.0908239 -0.12183 -0.000116528 -0.150064 -0.180344 0.145912 0.0734035 -0.0592176 0.0314549
372 0.0953697 0.25478 -0.0683101 0.0992422 0.0583851 0.00471111 0.0138834 0.0892809 -0.29186 -0.0355859 -0.193066 -0.13798 -0.0231502 -0.100406 0.0457589 -0.157729 0.0970172 -0.07281 -0.00336278 -0.109498 0.00169899 -0.111437 0.0921737 0.0892161 0.0622588 -0.00740203 -0.0720806 0.0810662 0.337368 0.0845475 0.126186 0.162365
417 0.218009 0.1355 0.212145 -0.0966129 0.0623846 -0.0120166 -0.198493 0.170882 -0.129793 0.328208 -0.0515602 0.587934 0.287544 0.92747 -0.252411 0.0509078 -0.146707 -0.357773 -0.134636 -0.103649 -0.0588565 0.144882 0.26682 0.169195 -0.167013 -0.513653 -0.168226 -0.0607181 0.0635229 -0.483885 -0.238555 0.284139
486 0.121074 0.268772 -0.072256 0.104999 0.0847764 -0.0109321 -0.000920538 0.111241 -0.303147 -0.022983 -0.197785 -0.129187 -0.0421665 -0.105876 0.111052 -0.135333 0.0973589 -0.0428224 -0.0204704 -0.129906 0.0114903 -0.142106 0.102229 0.0830959 0.0734822 0.00905471 -0.0916386 0.0662326 0.385031 0.0842628 0.119854 0.202982
392 0.152383 -0.15096 -0.187776 -0.00524152 0.117441 0.218824 -0.154616 -0.200944 0.0308539 0.264327 0.149952 0.189547 -0.0265282 -0.00718962 0.0890632 0.342736 -0.272106 0.143091 0.175312 -0.373404 -0.18126 -0.0124614 -0.103941 0.0724318 0.0211629 -0.363895 0.0880782 -0.367303 -0.140155 0.0228295 -0.138659 0.0501011
592 0.235745 0.45891 -0.0524564 0.0953195 0.0927502 0.040764 -0.454205 -0.212641 -0.0534091 0.373987 -0.0249377 0.327169 0.361891 0.23183 0.0127753 -0.130083 -0.216584 -0.0416822 -0.108065 -0.269833 0.31004 -0.118866 0.303939 0.251121 0.288235 -0.502381 -0.0976856 -0.139231 0.170943 -0.270758 0.0341661 0.351797
382 0.076035 0.507008 0.100503 0.0965755 -0.0699571 -0.1935 -0.286942 -0.0814529 -0.21613 0.159612 -0.0524927 0.00352646 0.220568 0.0878779 -0.0983373 -0.250497 -0.0057656 -0.0426824 -0.185801 0.184774 0.277131 -0.0341228 0.196652 0.0699853 0.0831942 -0.105181 -0.311838 0.0979942 0.372029 -0.226091 0.0985741 0.26987
357 0.0270121 -0.0175641 -0.0497392 0.0160736 -0.0340021 -0.0125963 -0.0806441 -0.125325 -0.117421 0.114248 0.131179 -0.0860164 -0.104554 -0.144865 0.004182 0.194297 -0.101 0.16956 0.0690691 0.042508 -0.131758 0.0401925 -0.158236 -0.0718335 -0.113238 -0.0375853 -0.137852 -0.156339 0.0824291 0.0261103 -0.058469 0.0224854
223 -0.17462 -0.323358 0.0530188 -0.0499137 0.595037 -0.254139 0.524173 0.538719 0.309461 -0.219963 -0.14895 0.321003 -0.161404 0.29435 0.38062 0.331451 -0.0159272 -0.536071 0.24154 -0.542239 -0.273389 -0.0892422 -0.175402 0.0940402 -0.0113827 -0.086478 0.118978 -0.111256 0.0169649 -0.0706682 -0.234873 0.397676
534 0.0339397 -0.0174299 -0.047427 0.0151994 -0.0376399 -0.0155914 -0.0849551 -0.123128 -0.135118 0.122446 0.134819 -0.088351 -0.112829 -0.138153 0.00254652 0.208445 -0.103147 0.176501 0.0695522 0.051161 -0.144856 0.0460138 -0.165463 -0.077963 -0.129929 -0.03889 -0.154291 -0.162331 0.0956197 0.0218846 -0.0663037 0.0282914
68 -0.0112615 -0.00933401 -0.0367586 0.0144606 -0.0459857 -0.00567987 -0.0664265 -0.141838 -0.0860461 0.100051 0.120767 -0.0713925 -0.0538165 -0.113399 -0.0688852 0.144091 -0.101533 0.0980543 0.0815377 0.0490496 -0.114337 0.0661623 -0.14771 -0.0461651 -0.0999159 -0.0731664 -0.111337 -0.12746 0.0291822 0.00479206 -0.0456588 0.00232906
618 -0.384962 0.0679518 0.388735 -0.0541712 0.433007 -0.732825 0.0915903 0.207743 0.568929 0.0917061 0.17106 0.585821 0.299308 0.619347 0.0552888 0.232617 -0.268236 -0.628694 0.0305133 -0.0217476 0.165328 0.114712 -0.14588 0.0624808 -0.00925591 -0.329127 -0.341623 -0.120657 0.0120044 -0.68892 -0.332252 0.653807
666 0.305412 -0.0428954 -0.0917352 -0.0363699 0.173164 0.267728 -0.0919866 0.196048 0.215302 0.00587934 -0.213108 0.352316 0.114491 0.263967 0.388951 -0.140979 0.0789474 0.0528412 -0.196144 -0.428191 0.27114 -0.273875 0.434671 0.168116 0.360774 -0.0311006 0.381808 0.046278 -0.134441 0.0434181 0.0475942 0.0155825
621 -0.258831 0.0492224 0.37855 -0.0702674 0.46688 -0.68483 0.0781899 0.300342 0.506958 0.108639 0.112908 0.637114 0.244824 0.68733 0.153396 0.263572 -0.231728 -0.57537 -0.0187742 -0.0859885 0.140431 0.0652833 -0.0706641 0.062976 -0.0153626 -0.304115 -0.329301 -0.137472 0.0689698 -0.664656 -0.354543 0.67309
364 0.246898 0.437332 -0.0663856 0.0911813 0.10542 0.0679624 -0.446747 -0.209602 -0.04822 0.379294 -0.0276854 0.344975 0.360684 0.243507 0.0150733 -0.115185 -0.22716 -0.0504013 -0.0928954 -0.307665 0.290334 -0.12039 0.303705 0.261108 0.291062 -0.525346 -0.0742433 -0.155861 0.148242 -0.262678 0.0265936 0.34599
348 -0.413698 0.234421 0.492037 -0.0218903 0.136832 -0.864113 0.178266 0.319075 0.191012 -0.13293 0.0707161 0.0909638 0.101159 0.33712 -0.0609886 -0.0154532 0.0505408 -0.450816 -0.143352 0.542887 0.169365 0.154911 -0.152213 -0.154164 -0.212103 0.209505 -0.579553 0.201956 0.349589 -0.523 -0.156848 0.469675
211 0.186863 0.276755 -0.11523 0.121308 0.0914584 0.0168562 -0.015987 0.129301 -0.386452 -0.0175802 -0.216199 -0.18364 -0.113361 -0.1806 0.191019 -0.104632 0.118942 0.0462934 -0.027572 -0.158322 -0.0179292 -0.186289 0.10269 0.0686123 0.0697868 0.0525414 -0.106776 0.047934 0.473149 0.149154 0.1335 0.218167
631 -0.343211 0.0321896 0.400267 -0.0749615 0.402561 -0.69449 0.0869417 0.219466 0.570463 0.100166 0.176313 0.607566 0.285784 0.675286 0.0321314 0.243662 -0.264267 -0.591763 0.00262794 -0.00272639 0.156741 0.136735 -0.12586 0.0498623 -0.0293317 -0.325357 -0.325124 -0.124471 -0.0284026 -0.695662 -0.350787 0.611836
526 -0.24529 0.179303 -0.00859064 0.13335 0.287466 -0.385491 0.260966 0.174131 0.102744 -0.274201 -0.122483 -0.243532 -0.108044 -0.42093 0.327689 -0.084745 0.110502 -0.171775 0.0886084 -0.0816106 0.133934 -0.193289 -0.140592 -0.00234756 0.19324 0.248824 -0.109999 0.0931964 0.333807 0.0901097 0.124009 0.322518
3 -0.402986 0.198183 0.475203 -0.0368729 0.108864 -0.781436 0.176492 0.291614 0.21851 -0.134928 0.0629419 0.12001 0.13572 0.369814 -0.110959 -0.05027 0.0471922 -0.461634 -0.138519 0.51437 0.177486 0.167905 -0.118309 -0.127879 -0.189801 0.166188 -0.498268 0.209895 0.250946 -0.506029 -0.14612 0.39653
89 0.0225568 -0.000863157 -0.0394772 0.0172195 -0.0316389 -0.0143644 -0.0856508 -0.122319 -0.116388 0.120422 0.119377 -0.0643217 -0.0765317 -0.105994 -0.021125 0.175857 -0.10286 0.133956 0.0657412 0.0392444 -0.122688 0.047024 -0.142418 -0.0558558 -0.109196 -0.0644533 -0.140195 -0.146474 0.0812452 0.00412539 -0.0580138 0.0357398
638 -0.335572 0.067669 0.349044 -0.0577344 0.403782 -0.639226 0.0807095 0.182945 0.528169 0.105356 0.147255 0.563945 0.302759 0.603275 0.0126468 0.207497 -0.260702 -0.61635 0.0455758 -0.0589165 0.140386 0.112505 -0.120994 0.0833528 0.00686657 -0.357817 -0.293239 -0.130319 -0.0189887 -0.63786 -0.306195 0.593545
379 -0.398324 -0.37712 0.34193 -0.180125 0.134604 -0.466393 -0.0473764 -0.155787 0.675501 0.271953 0.535744 0.544253 0.175673 0.514571 -0.17597 0.590372 -0.443104 -0.221415 0.128625 0.198305 -0.087173 0.351923 -0.402494 -0.127404 -0.260118 -0.348669 -0.257418 -0.359357 -0.461246 -0.58877 -0.492411 0.197998
127 0.269705 0.140929 0.181725 -0.0873222 0.0862587 0.0156784 -0.218045 0.180771 -0.166407 0.353709 -0.0641204 0.596067 0.262267 0.920339 -0.194675 0.0799107 -0.151206 -0.321961 -0.135751 -0.159991 -0.0776202 0.114803 0.279526 0.176976 -0.159855 -0.524037 -0.165507 -0.0911558 0.106035 -0.46085 -0.242089 0.310042
173 0.247884 -0.166073 -0.0262821 -0.0720224 0.255417 0.225617 0.191846 0.40606 -0.206019 0.0441866 -0.253771 0.367182 -0.0493381 0.600207 0.0263095 0.148069 0.0141347 -0.362173 0.0828479 -0.5018 -0.362676 -0.012185 0.147996 0.188356 -0.137482 -0.317795 0.155755 -0.0656442 0.0576388 -0.0421787 -0.168579 0.162607
424 0.268855 0.147712 0.190614 -0.0876872 0.0944675 -0.00324946 -0.209032 0.202289 -0.165175 0.340572 -0.0711693 0.591413 0.253876 0.920768 -0.179306 0.0786313 -0.1399 -0.322576 -0.146086 -0.149583 -0.0714271 0.106622 0.279992 0.171489 -0.160398 -0.504493 -0.174828 -0.0809948 0.124219 -0.46437 -0.240163 0.322046
580 0.129247 0.285954 -0.0752212 0.110718 0.0699789 -0.0131882 -0.020521 0.0956122 -0.313783 -0.0172685 -0.192886 -0.146158 -0.0423497 -0.128417 0.109721 -0.145762 0.0995079 -0.0222754 -0.0288714 -0.112401 0.0253736 -0.144914 0.106497 0.0794398 0.0781361 0.0169856 -0.102858 0.0702914 0.398388 0.0884209 0.129931 0.200561
671 0.136917 0.0780333 0.39599 -0.156891 -0.14617 -0.185841 -0.0913573 0.388852 0.0545872 -0.0157302 -0.117442 0.352169 0.179982 0.776058 -0.0457438 -0.244183 0.22268 -0.105497 -0.484775 0.422765 0.279158 0.0592517 0.420349 -0.0750752 -0.120527 0.227939 -0.126482 0.341818 0.0455496 -0.374869 -0.0889391 0.00676538
801 0.356675 -0.0691094 -0.0867327 -0.0286762 -0.118078 0.167961 -0.219793 0.0225107 -0.249467 0.140988 0.0481081 -0.0683516 -0.243468 -0.0908117 0.301392 0.190071 0.0501871 0.54272 -0.180468 0.0658351 -0.0567794 -0.112058 0.0825775 -0.152046 -0.0894769 0.219555 -0.0663747 -0.0992579 0.186937 0.154284 -0.0359725 -0.0851839
373 0.31767 -0.0797189 -0.0834051 -0.0529012 0.174477 0.287357 -0.0722557 0.232151 0.221971 -0.00608005 -0.227203 0.378009 0.103092 0.310165 0.399875 -0.135063 0.0952532 0.0485441 -0.20516 -0.439863 0.255018 -0.271191 0.451227 0.166353 0.348448 -0.0179705 0.41043 0.0570201 -0.159736 0.0471757 0.0365284 -0.00702897
138 0.132563 0.138145 0.126767 -0.0881104 -0.376377 0.40517 -0.211867 -0.167961 -0.305938 0.271472 -0.083951 0.33087 0.464052 0.822189 -0.93035 -0.334569 -0.0751662 -0.420658 -0.0518613 0.10412 -0.115528 0.368265 0.313989 0.245369 -0.228103 -0.619688 0.0874151 0.134379 -0.325831 -0.303457 -0.0181994 -0.263652
201 0.156305 -0.270669 -0.140519 -0.0793552 -0.094994 0.619157 0.28731 0.157176 -0.353952 -0.085081 -0.294801 0.0752853 -0.00203428 0.415207 -0.504063 -0.126278 0.106681 -0.397184 0.214008 -0.357653 -0.505839 0.172599 0.117565 0.220341 -0.215391 -0.328576 0.42872 0.0984582 -0.298902 0.209439 0.0125397 -0.370213
285 0.0527599 0.21559 -0.165741 0.112102 -0.182106 0.265393 0.0732783 -0.0599245 -0.404708 -0.164211 -0.249846 -0.403289 -0.0252832 -0.32844 -0.223554 -0.387367 0.210729 -0.0246381 0.0464659 0.00356418 -0.0381774 -0.0479653 0.103329 0.0910891 0.0588068 0.0905911 0.119616 0.229008 0.155135 0.314524 0.298267 -0.201201
506 0.0735976 -0.246635 -0.0288721 -0.0981451 -0.336192 0.300411 -0.0759659 -0.132639 0.112378 -0.0773976 0.0713639 -0.115099 -0.0388412 -0.104112 -0.0727257 -0.118802 0.128363 0.373844 -0.155697 0.269074 0.0948295 0.0414378 0.109693 -0.139517 -0.00239182 0.301954 0.26337 0.130343 -0.383345 0.193448 0.0805841 -0.532433
616 0.0183459 -0.0263081 -0.0373381 0.00802484 -0.0457525 -0.00405463 -0.0783977 -0.123675 -0.115446 0.116794 0.130516 -0.0711928 -0.0907195 -0.108739 -0.0312834 0.186792 -0.10101 0.145637 0.069163 0.0535185 -0.139487 0.0595866 -0.152975 -0.0673277 -0.126939 -0.0527015 -0.131709 -0.147624 0.0588024 0.0124259 -0.064818 0.00872106
120 0.0258793 -0.0122658 -0.0592935 0.0214613 -0.0331385 -0.0120106 -0.0830466 -0.134477 -0.124765 0.115253 0.133286 -0.100655 -0.109517 -0.167879 0.00553366 0.197347 -0.104293 0.177634 0.0759202 0.0408397 -0.134065 0.0368697 -0.167303 -0.0735151 -0.111005 -0.0386105 -0.142221 -0.162073 0.0895069 0.0340551 -0.0536573 0.0241889
689 0.0723037 -0.0172524 -0.0671625 0.0231405 -0.0193285 -0.0257536 -0.0968028 -0.10161 -0.157183 0.121903 0.1325 -0.114532 -0.163173 -0.194645 0.0949159 0.238741 -0.0907261 0.247726 0.0508001 0.0411409 -0.139793 0.00432613 -0.166492 -0.100068 -0.118559 0.0135458 -0.170582 -0.177142 0.154571 0.0545085 -0.0628009 0.0523512
512 0.144002 -0.182998 0.0294261 -0.0893006 -0.0961771 0.0765705 -0.118292 0.0339417 0.150299 0.0236341 0.0829025 0.0827152 -0.0754504 0.05012 0.224152 0.0804283 0.0512421 0.340733 -0.197957 0.126308 0.117947 -0.0562793 0.11049 -0.133607 0.015045 0.240566 0.0843454 0.00140707 -0.140096 0.0319638 -0.0498353 -0.172709
236 0.106365 0.12111 0.138563 -0.108472 -0.378147 0.385198 -0.214917 -0.185132 -0.259816 0.269065 -0.0580517 0.332064 0.468508 0.823504 -0.937346 -0.318037 -0.083169 -0.416567 -0.0562097 0.140284 -0.112032 0.384638 0.290168 0.232215 -0.229582 -0.605679 0.0765338 0.128164 -0.353507 -0.323998 -0.040496 -0.274968
200 0.117566 0.112244 0.127324 -0.104979 -0.393481 0.411416 -0.209413 -0.197501 -0.282265 0.273141 -0.0531026 0.317424 0.451583 0.786263 -0.938382 -0.310301 -0.0955407 -0.406196 -0.0308826 0.120903 -0.136548 0.390083 0.278167 0.232648 -0.243252 -0.623261 0.0888793 0.12209 -0.346932 -0.302263 -0.0350389 -0.301721
295 0.256357 -0.168448 -0.0489916 -0.0623632 0.266996 0.242921 0.227985 0.431971 -0.259715 0.0209795 -0.283826 0.328245 -0.0861138 0.567996 0.0336115 0.150063 0.0332847 -0.373759 0.107692 -0.529879 -0.406761 -0.020293 0.133028 0.193778 -0.150739 -0.307863 0.16306 -0.0602506 0.0902731 -0.000644762 -0.155952 0.163374
454 -0.0671742 -0.305346 0.13167 -0.188679 -0.428296 0.334055 -0.244841 -0.447959 0.0482823 0.376953 0.353788 0.311402 0.28829 0.586221 -0.875508 0.177375 -0.309149 -0.0808946 0.102022 0.278225 -0.295465 0.522339 -0.107644 0.00945084 -0.403073 -0.551913 0.0381675 -0.174631 -0.671634 -0.292888 -0.248876 -0.440871
612 0.157069 0.145801 0.108731 -0.0970319 -0.390977 0.455595 -0.227356 -0.193064 -0.345685 0.290942 -0.0817719 0.317042 0.469215 0.812424 -0.964205 -0.344008 -0.0878024 -0.403875 -0.039465 0.100477 -0.146828 0.377927 0.32037 0.253692 -0.232862 -0.645206 0.0962216 0.122054 -0.326655 -0.291326 -0.00855583 -0.294556
508 0.0601346 -0.0253445 -0.0644101 0.0172066 -0.0304432 -0.00681733 -0.09801 -0.122781 -0.147905 0.133533 0.141505 -0.0960257 -0.140503 -0.165644 0.0449915 0.235652 -0.106153 0.22196 0.064379 0.0372258 -0.151555 0.0274747 -0.168914 -0.0883748 -0.127526 -0.0243002 -0.157953 -0.183614 0.116551 0.0420648 -0.0701211 0.0332508
180 0.231572 0.123005 0.0749956 -0.101044 -0.395573 0.507978 -0.257024 -0.179823 -0.360603 0.298509 -0.103126 0.331884 0.428132 0.807765 -0.881324 -0.311613 -0.0758975 -0.323606 -0.0703184 0.0561781 -0.151892 0.341138 0.353452 0.245964 -0.219119 -0.616558 0.125273 0.107542 -0.314772 -0.252219 -0.0197939 -0.312597
282 0.318508 -0.163156 -0.0503471 -0.063011 0.296278 0.232638 0.200534 0.478281 -0.293295 0.0469642 -0.293654 0.350967 -0.12728 0.588088 0.133094 0.195824 0.042926 -0.310092 0.0698882 -0.554545 -0.408102 -0.0614672 0.159066 0.179542 -0.153418 -0.280267 0.13287 -0.0813364 0.167505 0.000148767 -0.175533 0.215317
279 0.115539 0.119254 0.107552 -0.0908099 -0.37979 0.411531 -0.217642 -0.214085 -0.26442 0.264765 -0.0627022 0.318146 0.458445 0.775281 -0.932445 -0.322835 -0.0951659 -0.403938 -0.0204551 0.105518 -0.120901 0.372408 0.284821 0.237842 -0.219228 -0.62549 0.10034 0.121967 -0.364801 -0.290913 -0.0184312 -0.286127
270 0.30169 0.175638 0.173697 -0.0817018 0.0558931 0.0509233 -0.252822 0.163488 -0.206861 0.370933 -0.0785599 0.588252 0.279225 0.926625 -0.220502 0.0459795 -0.144475 -0.303353 -0.156079 -0.148136 -0.0628826 0.111994 0.314017 0.187139 -0.154343 -0.539154 -0.164572 -0.0781842 0.115304 -0.459505 -0.223426 0.293778
677 0.104958 0.120734 0.119832 -0.0943496 -0.377108 0.396337 -0.218374 -0.215816 -0.262164 0.266717 -0.0528054 0.307398 0.461734 0.762301 -0.924946 -0.304068 -0.105538 -0.40013 -0.0215453 0.122055 -0.118763 0.379289 0.276506 0.23535 -0.22395 -0.613175 0.0815676 0.109557 -0.350033 -0.304558 -0.0257187 -0.274625
170 0.00932978 -0.0287855 -0.0424538 0.0113664 -0.0422885 -0.016014 -0.0715333 -0.133328 -0.0921884 0.104081 0.137197 -0.0851138 -0.094031 -0.143173 -0.0159586 0.185646 -0.101172 0.155128 0.0727656 0.0589515 -0.124084 0.0522003 -0.164405 -0.0735394 -0.112508 -0.0353674 -0.129137 -0.147155 0.0526759 0.0193651 -0.0573129 0.0070962
340 0.240105 0.139145 0.205351 -0.0950049 0.0495837 0.0184194 -0.199873 0.176775 -0.15403 0.327064 -0.0716231 0.586349 0.291205 0.944625 -0.268126 0.0286739 -0.133863 -0.359846 -0.14332 -0.110002 -0.0655836 0.143758 0.288932 0.177072 -0.172029 -0.516591 -0.153253 -0.0494778 0.0628373 -0.470465 -0.226796 0.26379
240 0.145452 0.119509 0.121753 -0.104794 -0.412243 0.445189 -0.212405 -0.190317 -0.346619 0.27173 -0.0775833 0.31179 0.449845 0.820897 -0.966733 -0.335737 -0.0666289 -0.401591 -0.0477373 0.135145 -0.147659 0.385971 0.303375 0.23205 -0.260611 -0.623829 0.0855114 0.143713 -0.333299 -0.28602 -0.0236829 -0.308329
238 0.251307 -0.118719 -0.034513 -0.0496319 0.276282 0.194522 0.210327 0.435834 -0.262239 0.0230128 -0.287275 0.319568 -0.0763434 0.55388 0.0586173 0.131337 0.0398214 -0.367394 0.0839469 -0.507748 -0.365599 -0.0387128 0.145183 0.189102 -0.132724 -0.287805 0.12325 -0.0488725 0.145481 -0.0213182 -0.146168 0.20772
46 0.0994274 0.112611 0.133595 -0.0997735 -0.337768 0.352911 -0.20779 -0.163856 -0.226285 0.250785 -0.0557392 0.336069 0.450661 0.787559 -0.862714 -0.293459 -0.0958615 -0.40947 -0.0499016 0.102608 -0.0942541 0.354764 0.284175 0.218209 -0.203336 -0.592799 0.0739091 0.109295 -0.336734 -0.321172 -0.0352083 -0.242548
166 0.0517789 0.232003 -0.0462603 0.0892033 0.072638 -0.0222269 0.0351538 0.0925937 -0.212411 -0.0557342 -0.18238 -0.105807 0.00459525 -0.0763706 0.0380892 -0.166986 0.0904368 -0.116396 -0.00051279 -0.105131 0.0297354 -0.101489 0.0897601 0.0916291 0.0800497 -0.00628606 -0.0492321 0.0921442 0.280017 0.0569746 0.117496 0.157421
518 0.111361 -0.0293193 -0.0845772 0.0181921 -0.0418067 0.0246116 -0.11859 -0.113038 -0.186209 0.139007 0.131435 -0.115851 -0.172177 -0.191393 0.0889325 0.242723 -0.0897687 0.282523 0.0439965 0.0319977 -0.154515 0.00308078 -0.150342 -0.100448 -0.125774 0.00912089 -0.15291 -0.184946 0.145353 0.0758264 -0.0606955 0.0211606
167 0.142456 -0.08995 0.088751 -0.122222 -0.0883996 0.090654 -0.41731 -0.228346 0.449281 0.308672 0.242703 0.491197 0.297002 0.387325 0.0512091 0.0741621 -0.217608 0.233578 -0.231779 0.0340847 0.346396 0.0217832 0.234014 0.00961009 0.168461 -0.20419 0.115584 -0.147231 -0.431108 -0.298594 -0.142956 -0.0908978
64 0.133903 0.0699818 -0.308469 0.0799758 -0.0489059 0.555272 -0.00118409 -0.201268 -0.188999 0.00144367 -0.218769 -0.0647924 0.146791 -0.12278 -0.265632 -0.286013 -0.00541165 -0.143466 0.191966 -0.450037 -0.0770164 -0.0506064 0.170385 0.289646 0.217009 -0.354534 0.419801 0.0159868 -0.209546 0.273196 0.220573 -0.229691
118 0.414485 0.149798 0.0176137 -0.102241 -0.454045 0.67748 -0.344823 -0.166798 -0.560803 0.37567 -0.160313 0.336758 0.399425 0.87452 -0.897736 -0.325177 -0.0456547 -0.229119 -0.1132 0.00362544 -0.210912 0.315671 0.45854 0.269124 -0.258948 -0.660855 0.144833 0.105219 -0.243043 -0.193635 -0.000591098 -0.355179
548 -0.0350382 -0.0598447 0.0645573 -0.0462714 -0.243229 0.230474 0.333494 0.229501 -0.440534 -0.247899 -0.278689 -0.217723 -0.0489404 0.246646 -0.559151 -0.302872 0.280905 -0.365556 0.0565591 0.180092 -0.350245 0.219156 0.0521101 0.0357434 -0.330172 0.0702089 0.0979583 0.341303 -0.0125343 0.138685 0.0977927 -0.324128
436 -0.192179 -0.109472 0.280801 -0.147657 -0.551648 0.0124884 -0.13847 -0.308553 -0.135385 0.175378 0.306149 -0.0200066 0.167988 0.387974 -0.885549 0.00470049 -0.0975859 -0.0545944 -0.0272726 0.736286 -0.215799 0.540102 -0.168249 -0.166652 -0.53212 -0.133819 -0.249714 0.0702034 -0.339602 -0.285646 -0.149419 -0.411755
53 0.113986 0.0903559 0.128568 -0.105961 -0.390731 0.413357 -0.204328 -0.186583 -0.28534 0.25273 -0.0527492 0.310951 0.446596 0.78757 -0.940635 -0.312253 -0.0815648 -0.395232 -0.0392241 0.141049 -0.137062 0.385673 0.289582 0.217114 -0.235772 -0.601854 0.0924747 0.133438 -0.352516 -0.296715 -0.0353581 -0.300463
376 0.0140293 -0.0264505 -0.0473676 0.013721 -0.0284162 -0.00851231 -0.0668772 -0.122447 -0.106582 0.10826 0.125802 -0.0764405 -0.0931965 -0.12868 -0.0178585 0.187346 -0.103267 0.135121 0.0811244 0.0317961 -0.138858 0.0488593 -0.160521 -0.0600182 -0.11239 -0.0565459 -0.125142 -0.151852 0.0620726 0.0182255 -0.0603729 0.0218318
296 0.117494 0.256327 -0.0761434 0.104445 0.103564 -0.0116332 0.018423 0.129187 -0.294897 -0.0343042 -0.207206 -0.122588 -0.0510415 -0.102072 0.125454 -0.127075 0.10079 -0.0539622 -0.0113795 -0.153142 0.000581657 -0.147477 0.0995074 0.0892299 0.0753883 0.00681876 -0.0815195 0.0650301 0.385136 0.0889337 0.116073 0.211882
574 0.193475 -0.198606 0.0290163 -0.0982667 -0.105214 0.0859366 -0.1456 0.0544999 0.136063 0.0356891 0.0868486 0.085702 -0.108089 0.052248 0.287144 0.105502 0.0663376 0.415672 -0.237587 0.139898 0.12582 -0.0787305 0.133035 -0.158728 0.00947321 0.28834 0.0784219 -0.00276792 -0.116629 0.0455835 -0.0586361 -0.180125
421 0.173354 0.0933241 -0.354396 0.100777 -0.045298 0.588797 -0.0381348 -0.233339 -0.219207 0.0173523 -0.224068 -0.100019 0.130154 -0.204986 -0.212621 -0.28623 -0.00779712 -0.0764111 0.193264 -0.488627 -0.0600956 -0.0914465 0.179377 0.295582 0.258687 -0.348491 0.43059 -0.00546261 -0.173451 0.321617 0.248103 -0.223532
641 0.135496 -0.0514284 -0.0927281 0.0147602 -0.0372096 0.0328293 -0.104765 -0.0846952 -0.222693 0.135561 0.126331 -0.131625 -0.216874 -0.199522 0.118221 0.275215 -0.07686 0.311583 0.0454776 0.0266402 -0.193935 -0.00294501 -0.161954 -0.115463 -0.154238 0.0355889 -0.160924 -0.194346 0.175136 0.100623 -0.0709313 0.0192128
153 0.0627463 0.232175 -0.0427047 0.0864496 0.0702494 -0.0201609 0.0297002 0.0989116 -0.231852 -0.0438466 -0.181481 -0.0987798 0.00251784 -0.0557214 0.0290094 -0.158001 0.087197 -0.116509 -0.00142979 -0.102456 0.015379 -0.0943788 0.0895216 0.0906103 0.0629221 -0.0163294 -0.0635616 0.0861911 0.293099 0.0499198 0.108743 0.162793
536 0.456354 0.438286 0.285506 -0.0104381 -0.127915 -0.256873 -0.271574 0.432737 -0.819277 0.250626 -0.169971 0.0597281 -0.133402 0.597736 0.0432477 0.0244293 0.191829 0.126421 -0.433933 0.411543 -0.111689 0.00914142 0.279023 -0.124478 -0.440011 0.137132 -0.686309 0.140739 0.919101 -0.2964 -0.124747 0.416034
237 0.415614 0.14267 0.0291488 -0.104283 -0.444572 0.656665 -0.326124 -0.138325 -0.576432 0.372285 -0.160077 0.338333 0.378049 0.894618 -0.888774 -0.301916 -0.0411241 -0.238116 -0.117416 0.0141986 -0.229944 0.31941 0.44608 0.260261 -0.284315 -0.648441 0.120718 0.102561 -0.216486 -0.202033 -0.0181252 -0.334095
354 0.362015 0.181177 0.160742 -0.0769963 0.114184 0.0372472 -0.267035 0.215862 -0.241657 0.397976 -0.0938566 0.620009 0.237512 0.944589 -0.114084 0.108095 -0.149034 -0.270716 -0.167614 -0.215587 -0.0831607 0.0674993 0.324608 0.187984 -0.152525 -0.537137 -0.192739 -0.116961 0.201219 -0.455855 -0.248954 0.372241
224 0.168671 0.0685041 0.0521816 -0.0178441 0.014402 0.0250045 0.000729922 0.275965 0.0277932 -0.140934 -0.219163 0.0526993 0.00333783 0.1229 0.277307 -0.248132 0.24661 0.0773039 -0.278199 0.00987015 0.259162 -0.194453 0.335163 0.00611058 0.172042 0.295113 0.122795 0.244007 0.108054 0.0506931 0.107663 -0.00992097
547 0.14548 0.115057 0.102546 -0.101941 -0.396117 0.476511 -0.213183 -0.203909 -0.314493 0.267852 -0.0821125 0.31543 0.465785 0.797008 -0.970616 -0.343312 -0.0860366 -0.418247 -0.0226694 0.0825138 -0.146038 0.374781 0.310976 0.26395 -0.218393 -0.646389 0.130613 0.132362 -0.380412 -0.273414 -0.0157177 -0.331619
420 0.113051 0.152023 0.120615 -0.0830328 -0.393783 0.404052 -0.218051 -0.20216 -0.326926 0.267657 -0.0727996 0.282878 0.462651 0.783488 -0.9757 -0.337556 -0.0805111 -0.41737 -0.0401868 0.150649 -0.133396 0.396506 0.289649 0.237399 -0.255066 -0.628803 0.0485371 0.137773 -0.300643 -0.308843 -0.0134601 -0.284801
322 0.161656 0.272724 -0.088378 0.110682 0.0946188 0.00369481 -0.00547125 0.136113 -0.350935 -0.0171706 -0.21543 -0.142096 -0.07812 -0.117667 0.152958 -0.11701 0.111274 -0.00723979 -0.0280684 -0.153235 -0.010143 -0.164513 0.112478 0.0810274 0.0664508 0.0236436 -0.0998736 0.0591223 0.436625 0.11011 0.120286 0.219144
67 0.0513361 0.0193308 0.135029 -0.030588 0.0708812 -0.0905567 0.2563 0.432574 -0.327693 -0.133201 -0.242105 0.0116805 -0.117612 0.36001 -0.0742848 -0.040438 0.196405 -0.311866 -0.0350693 0.0238461 -0.249128 0.0473762 0.0579506 0.00988044 -0.255779 0.0773963 -0.127452 0.178167 0.304863 -0.0454834 -0.0552916 0.1363
532 0.178472 -0.199084 0.0303557 -0.0962221 -0.0967811 0.0779641 -0.123262 0.0666568 0.139147 0.0177953 0.0771806 0.0778667 -0.112372 0.0467194 0.283788 0.0978956 0.074761 0.39867 -0.229209 0.137372 0.120088 -0.0786777 0.125841 -0.157259 0.00892429 0.295324 0.0812476 0.00616147 -0.11219 0.0513283 -0.054737 -0.177096
696 -0.0632361 0.535966 0.046222 0.113784 -0.401342 0.033517 -0.284137 -0.369514 -0.271288 0.0594711 -0.0446626 -0.270545 0.341368 -0.134759 -0.557943 -0.567951 0.0621204 -0.0472008 -0.132975 0.427262 0.311461 0.114008 0.191735 0.0822779 0.0843586 -0.0795452 -0.152082 0.273198 0.0925821 -0.0785367 0.292656 -0.145505
423 0.116152 0.273601 -0.0760488 0.108046 0.0823237 -0.00635608 0.00356336 0.111309 -0.298751 -0.0345306 -0.206834 -0.137828 -0.0387934 -0.115224 0.107854 -0.150481 0.106629 -0.0449753 -0.021209 -0.131391 0.0183227 -0.146445 0.108127 0.0877517 0.0815988 0.0151971 -0.0835538 0.0774536 0.385798 0.0926884 0.129554 0.198713
160 -0.0859096 -0.309877 0.155952 -0.197574 -0.435497 0.302879 -0.252865 -0.454473 0.0744067 0.384681 0.37784 0.330225 0.29873 0.609263 -0.891737 0.188109 -0.322694 -0.0888733 0.0983039 0.313148 -0.28793 0.541671 -0.121036 -0.00179114 -0.416081 -0.550784 0.0186057 -0.17886 -0.690383 -0.323851 -0.265586 -0.436641
485 0.00767901 -0.0332304 -0.0421584 0.0100248 -0.0322853 -0.00763309 -0.0541305 -0.113065 -0.104214 0.0966542 0.119906 -0.0785602 -0.0957267 -0.121992 -0.0209067 0.183822 -0.0943999 0.131081 0.0800098 0.0399243 -0.142096 0.0536528 -0.160326 -0.0644916 -0.118831 -0.0450107 -0.119431 -0.141624 0.0552922 0.0227983 -0.0596439 0.00984113
13 0.135954 0.253907 -0.0837915 0.106937 0.0880118 -0.00386403 0.0157855 0.130908 -0.331135 -0.0357368 -0.206791 -0.155372 -0.0787215 -0.131929 0.132917 -0.119492 0.112689 -0.0218998 -0.0147415 -0.136463 -0.0155787 -0.150886 0.0913337 0.073621 0.0595917 0.0346515 -0.0918904 0.0652048 0.411418 0.116584 0.121482 0.198797
402 0.15801 0.0614073 0.0527169 -0.0228837 0.0178566 0.0379402 0.00414355 0.267333 0.0710537 -0.145637 -0.219659 0.0780596 0.0300597 0.141763 0.268981 -0.264447 0.241208 0.0538143 -0.276449 -0.00541021 0.280661 -0.192418 0.351148 0.0201775 0.195179 0.279702 0.156415 0.249228 0.0607322 0.0416975 0.110855 -0.0257682
583 0.0799603 -0.00979245 -0.0716603 0.0213879 -0.0559344 0.0166776 -0.111641 -0.130026 -0.191154 0.137347 0.130286 -0.118994 -0.144053 -0.174799 0.0264859 0.216069 -0.0940808 0.236149 0.0575878 0.049987 -0.157952 0.0297731 -0.155917 -0.0863072 -0.135732 -0.0211401 -0.160173 -0.170208 0.131956 0.056072 -0.0552524 0.0171552
613 0.149276 0.438545 -0.178871 0.104015 -0.273442 0.438753 -0.476998 -0.572372 -0.114867 0.305095 -0.0277141 0.0792303 0.516258 0.0147943 -0.51506 -0.466582 -0.178101 -0.033839 -0.0122094 -0.132549 0.309933 0.0363838 0.334133 0.316161 0.323101 -0.573455 0.189564 0.00528107 -0.233075 -0.0626409 0.249738 -0.16844
95 0.16181 0.0974299 -0.351292 0.100986 -0.0447343 0.589914 -0.0276417 -0.229654 -0.207667 0.00494923 -0.235141 -0.096916 0.139952 -0.198413 -0.222727 -0.307424 -0.00113255 -0.0973168 0.192131 -0.491583 -0.0526742 -0.0913031 0.189646 0.304465 0.267541 -0.350876 0.445775 0.00820907 -0.186931 0.321144 0.25484 -0.231289
286 0.078604 0.517452 0.0995082 0.0991872 -0.0510697 -0.202844 -0.306972 -0.0941785 -0.194425 0.183287 -0.0402092 0.033425 0.237555 0.101443 -0.0852312 -0.235997 -0.0298531 -0.0419211 -0.184409 0.161775 0.290156 -0.0398353 0.198766 0.0793788 0.0983518 -0.138171 -0.318367 0.0742398 0.37066 -0.248102 0.0874863 0.298295
579 0.0885082 -0.232587 -0.112836 -0.074079 -0.0963632 0.546232 0.250209 0.0922497 -0.257413 -0.0712595 -0.24349 0.0930426 0.064457 0.390083 -0.524164 -0.147592 0.0651768 -0.406544 0.208359 -0.309577 -0.41931 0.182726 0.100021 0.214931 -0.172088 -0.345776 0.402044 0.0901886 -0.343774 0.151222 0.0186406 -0.352096
158 0.148934 0.0859991 -0.339727 0.0949466 -0.0472264 0.574216 -0.0331351 -0.239184 -0.175914 0.00861162 -0.214035 -0.0862744 0.147026 -0.194578 -0.223058 -0.295476 -0.0114548 -0.0909258 0.191205 -0.475453 -0.0404844 -0.0835627 0.178266 0.294648 0.266834 -0.345676 0.439819 0.00247736 -0.208162 0.305494 0.24543 -0.232596
24 -0.0179351 -0.202536 -0.222982 -0.0106414 -0.164163 0.42922 -0.0957817 -0.441143 0.0470811 0.145853 0.161985 -0.0256946 0.0851133 -0.168968 -0.349904 0.0774234 -0.213532 0.0825656 0.255418 -0.17699 -0.181439 0.145933 -0.134901 0.0888039 0.00973949 -0.351112 0.281048 -0.207511 -0.473054 0.154358 0.0140252 -0.352097
183 0.0978744 0.048971 -0.29256 0.074432 -0.0414473 0.529877 0.0241075 -0.197479 -0.151215 -0.0161151 -0.209996 -0.0586105 0.155419 -0.116073 -0.281921 -0.284246 -0.0089898 -0.177994 0.205772 -0.437102 -0.0787208 -0.0342536 0.146931 0.285131 0.211578 -0.352723 0.42345 0.0218915 -0.238908 0.260516 0.213333 -0.233502
328 -0.0443911 -0.0356193 0.0754014 -0.0417829 -0.25393 0.199968 0.31524 0.214866 -0.441277 -0.242738 -0.264239 -0.236009 -0.0461304 0.2198 -0.555225 -0.306931 0.280782 -0.349804 0.0438214 0.21993 -0.326681 0.219339 0.0465251 0.022 -0.328553 0.0904274 0.0662643 0.346815 0.0124759 0.1285 0.103525 -0.310924
231 0.0211877 0.217601 -0.157272 0.107868 -0.195621 0.264199 0.0507538 -0.117222 -0.361665 -0.134899 -0.214751 -0.370717 0.0270473 -0.302014 -0.292451 -0.389802 0.166966 -0.058293 0.0660525 0.0117523 -0.0262717 -0.0121233 0.0902131 0.107053 0.0622811 0.0209599 0.12231 0.210342 0.0908998 0.27162 0.286922 -0.21143
229 0.0453716 0.22331 -0.154215 0.10853 -0.210623 0.2585 0.0460047 -0.0970283 -0.402779 -0.140544 -0.220415 -0.400505 -0.00617768 -0.317893 -0.267953 -0.385015 0.19194 -0.0144741 0.0426933 0.0448887 -0.03459 -0.0203714 0.0927335 0.083317 0.0407501 0.0701984 0.09699 0.221142 0.138882 0.290475 0.2897 -0.214969
80 0.233068 -0.271206 -0.174429 -0.0802466 -0.0990789 0.69675 0.277094 0.191227 -0.42851 -0.0775145 -0.3426 0.0767935 -0.0255588 0.433472 -0.477064 -0.14021 0.134054 -0.367706 0.197873 -0.413918 -0.531641 0.141889 0.169816 0.238421 -0.214404 -0.33156 0.464921 0.104803 -0.269034 0.253818 0.027492 -0.384128
625 -0.0748744 -0.0619636 0.0792027 -0.0434696 -0.249985 0.187549 0.355693 0.228847 -0.429037 -0.274598 -0.265143 -0.26059 -0.0681839 0.197961 -0.553795 -0.30208 0.295633 -0.360204 0.0577761 0.229313 -0.344976 0.223826 0.0202613 0.0112372 -0.340581 0.118407 0.0743561 0.355803 0.00263381 0.146322 0.102948 -0.32397
60 0.0691375 0.257439 -0.17496 0.121905 -0.214185 0.283745 0.0262638 -0.109865 -0.441404 -0.128654 -0.238078 -0.413346 -0.00122475 -0.335565 -0.2707 -0.406942 0.192777 -0.00985265 0.0442722 0.0208784 -0.0285297 -0.0348522 0.111196 0.101189 0.0581181 0.0520786 0.0997095 0.22079 0.165116 0.303905 0.309388 -0.205757
190 -0.0122344 -0.0426404 0.0574103 -0.0390058 -0.269817 0.237631 0.323081 0.229643 -0.515642 -0.242106 -0.281648 -0.268645 -0.087077 0.210403 -0.556944 -0.293957 0.299311 -0.319925 0.0473298 0.215009 -0.376701 0.217959 0.0446228 0.0158496 -0.361985 0.10259 0.0631111 0.344074 0.0460652 0.164826 0.10496 -0.327831
49 0.211995 0.129218 0.0998389 -0.103549 -0.39947 0.473912 -0.269107 -0.186125 -0.338773 0.302031 -0.0853216 0.330641 0.439841 0.812756 -0.883927 -0.318381 -0.0689466 -0.321123 -0.0885263 0.103849 -0.117837 0.340337 0.357254 0.232179 -0.224644 -0.592866 0.0974422 0.122936 -0.309431 -0.276463 -0.0235304 -0.301142
584 0.231921 -0.230537 -0.165008 -0.0740362 -0.114607 0.677796 0.240194 0.166153 -0.424242 -0.062441 -0.333862 0.0756428 -0.00042148 0.427049 -0.484121 -0.163396 0.128337 -0.349591 0.176634 -0.382058 -0.490252 0.140123 0.186153 0.237304 -0.197035 -0.331226 0.443278 0.111746 -0.255568 0.234203 0.0389351 -0.376081
559 -0.0577785 0.181199 -0.112132 0.0884003 -0.188856 0.213641 0.0918711 -0.115462 -0.280529 -0.153735 -0.185596 -0.331341 0.0581669 -0.245044 -0.349351 -0.379844 0.148064 -0.13491 0.0860409 0.0465201 -0.0296115 0.0353992 0.0536897 0.10052 0.0375903 0.00332535 0.121545 0.216235 0.0187872 0.217329 0.255241 -0.219265
50 0.134627 0.261139 -0.225259 0.139925 -0.224601 0.327454 0.0255741 -0.0852947 -0.53178 -0.152157 -0.270804 -0.506468 -0.0888496 -0.451622 -0.174783 -0.400439 0.243825 0.104248 0.0264271 0.00934272 -0.0499178 -0.0923218 0.118376 0.075397 0.0635474 0.144328 0.104365 0.228897 0.251509 0.405043 0.34653 -0.224786
578 0.116736 -0.233 -0.0999985 -0.0800316 -0.104283 0.562 0.260847 0.140097 -0.313138 -0.0734739 -0.273836 0.0988748 0.0491879 0.447701 -0.534113 -0.152966 0.0932061 -0.423337 0.193464 -0.305458 -0.455236 0.190794 0.125795 0.218366 -0.208514 -0.342249 0.391974 0.112183 -0.307382 0.14839 0.00854669 -0.346121
585 0.127854 0.117244 0.122371 -0.0979786 -0.364644 0.390104 -0.240055 -0.205278 -0.257288 0.289227 -0.0407838 0.342902 0.463686 0.806997 -0.906279 -0.297182 -0.110922 -0.388141 -0.0516409 0.113194 -0.111806 0.362479 0.297526 0.236568 -0.224107 -0.631774 0.0675671 0.10807 -0.337468 -0.323036 -0.0457547 -0.265043
111 0.156566 -0.248412 -0.137302 -0.073978 -0.090363 0.60044 0.284427 0.168917 -0.350968 -0.0983113 -0.308316 0.0669282 0.00526113 0.402395 -0.484976 -0.151686 0.120819 -0.396327 0.197917 -0.348499 -0.475876 0.155875 0.134108 0.220154 -0.198854 -0.305335 0.422707 0.117165 -0.273552 0.209973 0.0264676 -0.353893
449 0.168865 -0.259048 -0.133493 -0.0842487 -0.104692 0.61885 0.263817 0.155879 -0.352534 -0.0737341 -0.293917 0.0872061 0.0109373 0.432413 -0.499815 -0.139578 0.110288 -0.380236 0.188304 -0.341528 -0.479441 0.167018 0.141036 0.215786 -0.209906 -0.320591 0.425972 0.105453 -0.298816 0.198129 0.0146523 -0.372423
636 0.125311 0.135664 0.122872 -0.0920687 -0.381158 0.409726 -0.209202 -0.178349 -0.299216 0.267366 -0.0736071 0.318805 0.452783 0.811122 -0.932152 -0.327824 -0.069762 -0.406766 -0.0534623 0.128211 -0.125248 0.378093 0.309378 0.235622 -0.232489 -0.604841 0.0865345 0.14543 -0.324261 -0.306117 -0.0278265 -0.275997
472 0.197858 0.0265245 0.0818041 -0.0202158 0.0776516 -0.00697005 0.242316 0.512361 -0.523262 -0.108756 -0.307963 -0.0307974 -0.228523 0.351415 0.0204938 0.00909182 0.243944 -0.211112 -0.0572224 -0.0425716 -0.34682 -0.00747286 0.0935252 0.001455 -0.30711 0.112769 -0.150034 0.159614 0.461042 0.0400959 -0.0544103 0.162243
157 0.218294 0.140546 0.0943621 -0.102494 -0.425685 0.486445 -0.269926 -0.195336 -0.367218 0.30089 -0.0858603 0.314275 0.439728 0.806394 -0.919449 -0.333755 -0.0626103 -0.321259 -0.085801 0.108395 -0.130541 0.350558 0.3594 0.234183 -0.234274 -0.60658 0.0982246 0.129494 -0.310545 -0.271633 -0.0149661 -0.317141
79 0.258026 -0.145325 -0.0265469 -0.0645535 0.258826 0.209169 0.188214 0.420583 -0.226551 0.0363255 -0.264224 0.344973 -0.0665965 0.575623 0.0612633 0.142666 0.0309919 -0.336538 0.0666875 -0.489823 -0.349467 -0.0300926 0.154872 0.179227 -0.131356 -0.283749 0.137194 -0.0558642 0.0997672 -0.031567 -0.157535 0.17918
66 -0.000670436 0.203088 0.0913713 0.0142428 -0.177153 -0.172536 -0.376055 -0.339862 -0.0487688 0.317826 0.292865 0.0308102 0.125832 0.00160439 -0.173827 0.12817 -0.224304 0.218796 -0.0731689 0.324051 0.0997704 0.13628 -0.0939562 -0.0919374 -0.107693 -0.16123 -0.358796 -0.168874 0.0789929 -0.254277 -0.0880914 0.0941379
259 0.218269 0.11312 0.0918842 -0.103963 -0.396197 0.489178 -0.270403 -0.195484 -0.32987 0.315737 -0.0686849 0.347878 0.447176 0.821719 -0.89811 -0.305 -0.0847841 -0.32306 -0.0754734 0.0831269 -0.125188 0.352184 0.344385 0.235984 -0.225278 -0.629349 0.109644 0.104564 -0.329603 -0.280642 -0.0303678 -0.305039
706 0.0591196 0.406093 -0.130304 0.0910347 -0.251237 0.354128 -0.431797 -0.568855 -0.0329714 0.283039 0.00948939 0.106946 0.53725 0.0513832 -0.551788 -0.44459 -0.201045 -0.110072 0.0115724 -0.0933159 0.311106 0.0776897 0.279409 0.301199 0.297996 -0.581551 0.164315 0.00488002 -0.278635 -0.124042 0.215469 -0.148668
646 0.132989 0.145101 0.116469 -0.0857963 -0.391933 0.429288 -0.248947 -0.246112 -0.311263 0.312415 -0.0469194 0.3251 0.482677 0.808112 -0.97912 -0.309356 -0.120555 -0.398006 -0.0272352 0.115059 -0.135884 0.398279 0.288443 0.255376 -0.233648 -0.664571 0.0678817 0.104258 -0.345638 -0.324779 -0.0329549 -0.271517
397 0.246407 0.129155 0.0799878 -0.0999027 -0.375292 0.504922 -0.247822 -0.152018 -0.400042 0.311249 -0.119286 0.343781 0.420206 0.841223 -0.878925 -0.304772 -0.0696226 -0.352423 -0.065748 0.0347157 -0.171813 0.337117 0.358851 0.251996 -0.2372 -0.640686 0.108351 0.108669 -0.278478 -0.264434 -0.0282211 -0.274328
221 -0.0628591 -0.292869 0.134757 -0.186802 -0.42593 0.329258 -0.254435 -0.450293 0.0499042 0.381002 0.350469 0.320279 0.294642 0.591539 -0.865256 0.171099 -0.307924 -0.0836385 0.0964625 0.275856 -0.282382 0.514988 -0.10298 0.0117642 -0.392098 -0.552073 0.0395206 -0.172786 -0.66616 -0.298198 -0.244049 -0.429056
174 0.149477 0.116871 0.119142 -0.108566 -0.388139 0.445372 -0.219121 -0.181919 -0.304054 0.290445 -0.0793333 0.342465 0.470052 0.847811 -0.958738 -0.321055 -0.0832474 -0.413019 -0.0439936 0.0891206 -0.14245 0.378343 0.316399 0.253074 -0.245364 -0.646557 0.100689 0.126566 -0.352277 -0.30928 -0.0338456 -0.290012
70 0.114821 -0.251398 -0.114278 -0.0829036 -0.0937155 0.568171 0.281406 0.14239 -0.279733 -0.0993782 -0.279884 0.092819 0.0420943 0.416546 -0.510243 -0.161163 0.100887 -0.423189 0.197272 -0.323675 -0.437993 0.173843 0.124985 0.220934 -0.180677 -0.319945 0.42852 0.120398 -0.334828 0.169023 0.0207838 -0.36477
241 -0.0232961 0.217638 -0.123198 0.0988091 -0.197865 0.225629 0.0585305 -0.121808 -0.312185 -0.141023 -0.197964 -0.344807 0.0614075 -0.262797 -0.329246 -0.401821 0.157709 -0.101353 0.0630565 0.0460166 -0.00411552 0.0136306 0.08408 0.105729 0.0587065 0.0124083 0.114533 0.223028 0.0555678 0.22779 0.274848 -0.21097
205 0.0573242 0.422714 -0.143016 0.101422 -0.237806 0.354012 -0.440754 -0.580807 -0.0135097 0.282865 0.00737471 0.103003 0.544855 0.0182948 -0.526236 -0.449968 -0.202337 -0.0993124 0.0112124 -0.11066 0.334688 0.0613666 0.284926 0.30749 0.331085 -0.579387 0.172433 0.00152646 -0.277415 -0.116526 0.228479 -0.13489
122 0.198324 0.138115 0.0973689 -0.0991685 -0.401627 0.472109 -0.236385 -0.165444 -0.366999 0.283287 -0.102358 0.307212 0.427318 0.805487 -0.907758 -0.327112 -0.0615601 -0.347968 -0.0704566 0.0997177 -0.143488 0.350492 0.340795 0.233244 -0.236861 -0.59608 0.0946541 0.133135 -0.293645 -0.268559 -0.018423 -0.300016
462 0.174158 0.137063 0.218984 -0.0886429 0.082985 -0.0614408 -0.171161 0.172098 -0.0866158 0.300641 -0.0394792 0.564456 0.280152 0.880452 -0.231261 0.056158 -0.146476 -0.369859 -0.1213 -0.0905361 -0.0455662 0.141281 0.232486 0.159953 -0.157753 -0.487113 -0.179192 -0.0580226 0.0646648 -0.482699 -0.23149 0.298365
660 0.200716 0.116373 0.183206 -0.0865974 0.0879786 -0.00261902 -0.177285 0.158403 -0.108647 0.318413 -0.0476306 0.573715 0.271621 0.878378 -0.227871 0.0687882 -0.157568 -0.3586 -0.103097 -0.146236 -0.0750043 0.134423 0.238489 0.175243 -0.149751 -0.519552 -0.143141 -0.0809393 0.0452033 -0.45567 -0.234977 0.283082
521 0.0868268 0.0983732 -0.291062 0.0882416 -0.0359385 0.50181 -0.00958194 -0.227789 -0.125906 -0.0046435 -0.202192 -0.0575528 0.185157 -0.143235 -0.265633 -0.310505 -0.0185602 -0.166081 0.190434 -0.432499 -0.0207663 -0.0542698 0.16594 0.29463 0.25523 -0.358056 0.408348 0.0223557 -0.222745 0.241014 0.229559 -0.203752
802 0.268511 -0.0435605 -0.114346 0.00460752 -0.0714904 0.0958677 -0.21295 -0.0475432 -0.117696 0.101482 0.0849644 -0.119991 -0.227352 -0.268872 0.380597 0.174039 0.0251299 0.563215 -0.14832 0.0497479 0.0432401 -0.158648 0.0328498 -0.154701 0.0206997 0.257037 -0.0500397 -0.115073 0.159828 0.177166 0.0049869 -0.0565348
669 -0.194623 -0.269975 -0.176628 0.0281368 0.34208 -0.104456 0.0498777 -0.225852 0.479908 0.0820607 0.280759 0.112974 -0.0820531 -0.366349 0.341705 0.46818 -0.337192 0.0737436 0.325613 -0.409763 -0.0642335 -0.0754135 -0.375278 0.00579688 0.179644 -0.209756 0.101824 -0.43462 -0.250557 0.0365138 -0.153117 0.173918
151 -0.522331 -0.0821167 0.0107711 0.00678725 -0.174547 -0.103233 -0.266906 -0.828095 0.724058 0.211861 0.553435 0.0602018 0.409238 -0.33016 -0.444908 0.0750309 -0.45396 0.0271706 0.240683 0.215333 0.283114 0.264237 -0.349857 0.00405825 0.198461 -0.375167 0.0614593 -0.260692 -0.742487 -0.221315 -0.0311145 -0.214244
644 0.139417 0.0362882 -0.0385817 -0.0173162 -0.253659 0.321692 0.00861018 0.0774753 -0.0429572 -0.229006 -0.256187 -0.153608 0.0662678 -0.0437682 -0.0430421 -0.502265 0.329721 0.118791 -0.243019 0.119696 0.259632 -0.114124 0.384961 0.0296041 0.19272 0.331736 0.344912 0.384627 -0.147169 0.243152 0.276419 -0.403147
427 -0.475164 0.404511 -0.105639 0.18141 -0.0331418 -0.130195 -0.262869 -0.744245 0.62196 0.0439973 0.207228 -0.0740364 0.574696 -0.572033 -0.27938 -0.441741 -0.28207 -0.168522 0.161638 -0.0142502 0.662222 -0.0210541 -0.040432 0.219551 0.625203 -0.342691 0.153561 -0.0154574 -0.431045 -0.12728 0.299244 -0.00419335
208 -0.51397 0.391685 -0.0436984 0.165684 -0.0386617 -0.17303 -0.214578 -0.702212 0.614605 0.0278968 0.21337 -0.0452219 0.597322 -0.458535 -0.360818 -0.429412 -0.273746 -0.252548 0.167345 0.0288334 0.617076 0.0424927 -0.0606798 0.218361 0.554886 -0.368825 0.120538 0.0072121 -0.438742 -0.187903 0.264712 0.0124428
17 -0.32192 -0.11144 0.0211619 0.0320007 0.139371 -0.353051 0.134863 -0.103612 0.280986 -0.0825579 0.232745 -0.155406 -0.13455 -0.396719 0.163245 0.262154 -0.122947 0.044949 0.175044 0.100554 -0.0202676 0.0218727 -0.39204 -0.148297 -0.0149806 0.138281 -0.16025 -0.154584 -0.0104366 -0.00345617 -0.076366 0.123779
626 -0.424273 0.431528 -0.142435 0.194901 -0.0217682 -0.0901489 -0.30984 -0.782267 0.597236 0.0803544 0.208466 -0.0674253 0.583099 -0.595069 -0.252041 -0.428235 -0.310169 -0.123379 0.170462 -0.0681904 0.665654 -0.0482073 -0.0225035 0.242213 0.654816 -0.3882 0.161099 -0.054332 -0.407313 -0.109457 0.307663 0.0134
338 -0.430555 -0.369487 -0.212666 0.0162509 0.0426037 0.116073 0.152026 -0.496505 0.553511 -0.0736085 0.311101 -0.129155 0.0368709 -0.565819 -0.150285 0.194621 -0.279912 -0.0163853 0.445124 -0.196326 -0.0771532 0.112212 -0.447905 0.0176735 0.167013 -0.187396 0.337011 -0.263245 -0.667585 0.189876 0.00643175 -0.289572
36 -0.57389 0.466586 0.155717 0.144102 -0.225508 -0.44759 -0.0682176 -0.453645 0.306881 -0.164433 0.152554 -0.368957 0.377897 -0.502644 -0.425305 -0.517046 -0.0114079 -0.194362 0.00300233 0.57808 0.532349 0.121192 -0.128449 -0.0204275 0.242897 0.114517 -0.21101 0.268607 -0.0812194 -0.165504 0.288716 -0.030574
413 -0.397306 -0.0387059 -0.226587 0.115582 0.167092 0.0833307 0.238657 -0.290143 0.450919 -0.24777 -0.0210806 -0.166953 0.16654 -0.548893 -0.0719013 -0.21904 -0.0861697 -0.290777 0.352085 -0.35868 0.154104 -0.0707046 -0.167097 0.193356 0.420326 -0.148662 0.410654 -0.00344371 -0.416525 0.218868 0.220278 -0.114989
114 -0.368188 0.495707 0.209751 0.138779 0.132369 -0.685291 -0.0937288 -0.108704 0.28321 -0.0451331 0.101005 -0.0844713 0.237805 -0.245918 0.0921446 -0.205283 -0.0583746 -0.178416 -0.0891958 0.312606 0.501158 -0.0633467 -0.0779059 -0.0245725 0.238733 0.0971031 -0.414817 0.0998917 0.313044 -0.32183 0.0939435 0.454198
316 -0.554074 0.405731 -0.0668525 0.186077 -0.0213022 -0.198425 -0.243673 -0.765014 0.692894 0.0334805 0.230434 -0.0590942 0.631545 -0.543751 -0.344701 -0.457383 -0.308228 -0.246454 0.185493 0.020983 0.679708 0.0214909 -0.0809044 0.228732 0.630653 -0.378222 0.139903 -0.0118855 -0.47317 -0.177001 0.288785 0.015095
568 -0.557095 0.461618 0.138963 0.1476 -0.204978 -0.428065 -0.0499322 -0.428535 0.28541 -0.172116 0.126507 -0.361656 0.364726 -0.492673 -0.409014 -0.514816 -0.00589287 -0.209872 0.0120578 0.53064 0.513246 0.107915 -0.117689 -0.00625742 0.244442 0.104828 -0.192154 0.269258 -0.0627333 -0.14777 0.287946 -0.0186388
165 -0.522486 0.389563 -0.0566214 0.158776 -0.0362252 -0.16793 -0.223646 -0.728987 0.656656 0.0272249 0.213535 -0.0325133 0.624989 -0.476724 -0.370273 -0.453659 -0.292397 -0.259591 0.175526 0.0161568 0.639319 0.0302593 -0.0640121 0.231427 0.586962 -0.376159 0.133891 0.00145292 -0.465712 -0.181693 0.264716 0.00419135
664 -0.18083 -0.0122449 0.127582 -0.00786453 0.169465 -0.298886 0.196254 0.267005 0.446571 -0.321869 -0.107812 0.0126016 0.0181534 -0.0962085 0.388607 -0.208109 0.203868 -0.0714278 -0.172582 0.0684814 0.394942 -0.195265 0.119234 -0.0547316 0.281908 0.429405 0.118238 0.245974 -0.0330156 -0.00630309 0.0941194 0.0686347
203 -0.23641 0.401496 0.0268542 0.138756 0.402284 -0.469748 -0.250033 -0.257066 0.592502 0.183853 0.159895 0.325576 0.402449 -0.121391 0.301857 -0.014147 -0.34073 -0.210804 0.0434222 -0.281807 0.56455 -0.186109 0.00156537 0.191994 0.529562 -0.374698 -0.142943 -0.215678 0.0355275 -0.384881 -0.00166513 0.59678
465 0.144927 -0.03357 -0.115065 0.0256536 -0.0560281 0.0528398 -0.130811 -0.122875 -0.241328 0.146896 0.134433 -0.161149 -0.220318 -0.251449 0.121244 0.269375 -0.0832616 0.354444 0.0463082 0.0299127 -0.183956 -0.0120093 -0.16395 -0.117708 -0.140246 0.0356491 -0.161127 -0.20399 0.181045 0.122466 -0.053415 0.00580131
204 -0.230229 0.206431 -0.0166346 0.142402 0.290812 -0.397841 0.218565 0.142222 0.101824 -0.240988 -0.099712 -0.239609 -0.100986 -0.445083 0.350831 -0.0660843 0.0852941 -0.133941 0.0835399 -0.0819853 0.154889 -0.203361 -0.144178 -0.00451644 0.207691 0.232917 -0.135576 0.0647873 0.353994 0.0787665 0.122356 0.347222
215 -0.0187665 0.530378 0.0296317 0.107834 -0.422778 0.0946043 -0.301638 -0.370721 -0.321901 0.0824232 -0.0576269 -0.258837 0.338304 -0.0999085 -0.58172 -0.566314 0.0634215 -0.0310791 -0.136026 0.406541 0.279172 0.120659 0.215123 0.0921523 0.0650272 -0.106868 -0.134092 0.267341 0.0874422 -0.0654985 0.291035 -0.17197
100 0.0758868 0.00811305 -0.0647507 0.025868 -0.035024 -0.00512958 -0.102798 -0.108658 -0.178357 0.125364 0.114637 -0.110585 -0.135991 -0.16842 0.048469 0.201535 -0.084185 0.220468 0.0485796 0.0405403 -0.13701 0.0132871 -0.144354 -0.0801543 -0.1169 -0.0121372 -0.163304 -0.159585 0.151713 0.0490143 -0.049577 0.0432797
96 -0.364957 0.45363 0.233552 0.115741 0.139266 -0.685192 -0.0809196 -0.077078 0.313033 -0.0416792 0.105732 -0.0323064 0.242137 -0.168191 0.0884255 -0.181569 -0.0619146 -0.200627 -0.0973871 0.310256 0.485743 -0.0465203 -0.06949 -0.0285443 0.21617 0.0870677 -0.403151 0.0975512 0.277247 -0.350946 0.0619239 0.448839
192 0.0704354 0.2417 -0.0512741 0.0944353 0.0857492 -0.0250567 0.0375941 0.114216 -0.252629 -0.0483968 -0.193567 -0.111248 -0.0161985 -0.0724911 0.0566945 -0.150647 0.0945586 -0.108195 -0.000769646 -0.119849 0.00689935 -0.111411 0.0878049 0.0909915 0.0659128 -0.00868549 -0.0697634 0.0836528 0.3254 0.0623728 0.112254 0.184858
86 -0.284328 0.178555 0.0414054 0.111351 0.239784 -0.401699 0.231091 0.130983 0.159823 -0.248648 -0.082288 -0.189592 -0.0327297 -0.333322 0.2249 -0.109447 0.0820818 -0.214534 0.0718172 -0.00804296 0.16731 -0.13145 -0.130933 -0.000480742 0.174044 0.202045 -0.119186 0.10752 0.250204 0.0124146 0.105586 0.288649
220 -0.287267 0.503705 0.183467 0.144778 0.146494 -0.656818 -0.119576 -0.0741496 0.205173 -0.0200887 0.0799988 -0.0916947 0.185266 -0.253299 0.170918 -0.166557 -0.0457088 -0.112058 -0.107146 0.2729 0.470898 -0.101848 -0.0567213 -0.0301847 0.227722 0.113139 -0.432548 0.0775278 0.393866 -0.289222 0.0897092 0.482934
438 0.0281996 -0.0226956 -0.0546945 0.0135091 -0.0392883 0.00881754 -0.078952 -0.128253 -0.120777 0.11506 0.124794 -0.0804804 -0.0977293 -0.133446 -0.0148296 0.186798 -0.101576 0.158808 0.0746991 0.0330402 -0.138446 0.0479742 -0.152275 -0.0607835 -0.113058 -0.0570487 -0.120078 -0.152722 0.0620124 0.027901 -0.0553316 0.00890342
336 0.0871461 0.0690876 -0.296435 0.0798811 -0.0587508 0.53907 0.00703632 -0.232118 -0.143273 -0.0110367 -0.204991 -0.0684086 0.178689 -0.134019 -0.307322 -0.309419 -0.0147826 -0.178842 0.207862 -0.429336 -0.0565627 -0.0305012 0.155409 0.29482 0.230644 -0.367774 0.432324 0.027701 -0.257706 0.259414 0.228697 -0.246682
456 0.0458078 0.265946 -0.155504 0.12117 -0.208578 0.246254 0.027555 -0.103738 -0.409601 -0.137888 -0.230149 -0.41007 0.00689276 -0.33778 -0.254092 -0.412634 0.196291 -0.00978219 0.0294809 0.0454555 0.00120076 -0.0386964 0.111692 0.0916524 0.0678335 0.0741928 0.0860771 0.231879 0.166635 0.286395 0.308906 -0.193298
218 -0.561605 0.452338 0.151656 0.139659 -0.237822 -0.431842 -0.0687837 -0.451741 0.292281 -0.166594 0.150956 -0.37842 0.362615 -0.506793 -0.430017 -0.514017 -0.00713726 -0.177775 -0.00170039 0.585542 0.520775 0.125478 -0.129365 -0.0279337 0.227045 0.126001 -0.206936 0.272308 -0.0793033 -0.15547 0.287212 -0.0475001
680 0.0542971 0.212589 -0.0430401 0.0827238 0.0806968 -0.0282049 0.039444 0.0986179 -0.198818 -0.0522641 -0.172354 -0.0924443 -0.00288196 -0.0654678 0.0487836 -0.144624 0.0829581 -0.109141 0.00219809 -0.109772 0.0207673 -0.0988771 0.080305 0.0850859 0.0716016 -0.00747642 -0.0493134 0.0793275 0.269562 0.0509998 0.103142 0.158586
69 -0.524626 0.379139 -0.052781 0.168496 -0.0363997 -0.162129 -0.221789 -0.731199 0.648578 0.0303021 0.219769 -0.0393912 0.618482 -0.486271 -0.38198 -0.444714 -0.296049 -0.257981 0.174265 0.0310559 0.631316 0.0371325 -0.0689874 0.229801 0.577151 -0.388307 0.129521 -0.00108623 -0.475794 -0.181851 0.26726 0.0037271
331 -0.353742 -0.0269033 0.0905587 -0.00124855 0.174471 -0.387492 -0.25585 -0.463416 0.70085 0.292751 0.494083 0.330542 0.286771 -0.0622348 0.0285798 0.345046 -0.488525 -0.0124303 0.149623 7.25219e-05 0.260786 0.10273 -0.304566 -0.00928913 0.178766 -0.3784 -0.165258 -0.394762 -0.349528 -0.404075 -0.217219 0.266032
244 -0.537198 0.362368 -0.0655076 0.159837 -0.0248093 -0.159122 -0.221907 -0.744911 0.657576 0.0464785 0.227409 -0.0341412 0.600203 -0.497127 -0.372345 -0.412183 -0.312095 -0.259051 0.209784 -0.00185281 0.598209 0.0445683 -0.0869188 0.221775 0.565542 -0.404491 0.140935 -0.0237365 -0.494042 -0.16327 0.250217 -0.00829565
62 -0.526914 0.389359 -0.044148 0.158893 -0.0394469 -0.180593 -0.21039 -0.7138 0.623117 0.0303666 0.222493 -0.0662922 0.583865 -0.483753 -0.372821 -0.427531 -0.288916 -0.255332 0.171813 0.0450561 0.615927 0.0466155 -0.0836097 0.214364 0.55482 -0.359703 0.110632 -0.00275012 -0.44455 -0.178575 0.260754 -0.00156658
617 -0.553005 0.402354 -0.061327 0.17131 -0.00502277 -0.214066 -0.213709 -0.745886 0.684594 0.0258822 0.232227 -0.0465629 0.597303 -0.53038 -0.328827 -0.418869 -0.306155 -0.251297 0.193888 0.0096093 0.640425 0.0159227 -0.0990901 0.213259 0.599611 -0.367537 0.113712 -0.0238442 -0.459212 -0.182 0.264626 0.0325399
7 0.0736114 0.215762 -0.0584279 0.0888904 0.101155 -0.021191 0.0464332 0.126704 -0.216511 -0.0627291 -0.193343 -0.104086 -0.0268393 -0.0870533 0.100279 -0.141479 0.0997222 -0.0904766 -0.0038402 -0.137905 0.0215416 -0.129168 0.0914331 0.0856899 0.0873641 0.0170464 -0.042401 0.0810443 0.303757 0.0774643 0.112417 0.173699
672 -0.542084 0.37168 -0.0434618 0.160239 -0.0137233 -0.203031 -0.20956 -0.716965 0.666037 0.0387689 0.23787 -0.0257193 0.594231 -0.47995 -0.341923 -0.408914 -0.306412 -0.260765 0.189588 0.0301799 0.625516 0.0450899 -0.0907412 0.22084 0.572045 -0.373541 0.11233 -0.0205098 -0.464013 -0.195427 0.256091 0.0288975
9 -0.345735 -0.0731889 -0.287956 0.123903 0.195174 0.164903 0.284543 -0.252935 0.391143 -0.271064 -0.0717704 -0.19939 0.108447 -0.59485 -0.02852 -0.206256 -0.0585038 -0.276329 0.38846 -0.458824 0.0896105 -0.108974 -0.16298 0.214422 0.429309 -0.143898 0.475056 -0.0140184 -0.401758 0.307742 0.240751 -0.137966
265 0.0053914 -0.00722184 -0.0341621 0.0128616 -0.0462179 -0.00915838 -0.0683295 -0.127973 -0.113415 0.107766 0.11869 -0.0732137 -0.0674321 -0.102024 -0.0631432 0.158201 -0.0985257 0.112312 0.0749537 0.0553597 -0.13097 0.0655662 -0.148177 -0.0537386 -0.118629 -0.0681 -0.129009 -0.132584 0.0545037 0.00341889 -0.0535725 0.0118097
607 -0.407102 0.0998025 0.196461 0.0196941 -0.000289085 -0.541112 -0.15121 -0.336212 0.421765 0.122402 0.414227 0.00797449 0.154643 -0.192129 -0.0763683 0.178756 -0.270771 0.015324 0.0471197 0.393484 0.232767 0.154039 -0.334889 -0.149308 -0.00291576 -0.0358574 -0.373937 -0.158763 -0.0784903 -0.33973 -0.11965 0.198421
527 -0.232794 -0.202023 -0.116652 -0.0113859 0.0981155 0.168502 0.223225 -0.0481978 0.66618 -0.348366 -0.104851 0.0365969 0.183719 -0.255836 0.142445 -0.3529 0.0985418 -0.135192 0.0440692 -0.26061 0.390347 -0.163951 0.137881 0.128102 0.507613 0.141021 0.627255 0.184946 -0.613345 0.199973 0.217878 -0.313558
113 -0.252686 -0.260941 -0.115972 0.0113763 0.293676 -0.147348 0.0557785 -0.235881 0.511564 0.0705491 0.298988 0.123965 -0.0331617 -0.303758 0.242922 0.424923 -0.329948 0.0218887 0.305794 -0.308185 -0.0401837 -0.0178666 -0.375564 -0.0061812 0.146386 -0.204797 0.0770926 -0.386695 -0.297807 -0.0230341 -0.158845 0.142688
1 -0.383209 -0.0199766 -0.230867 0.119695 0.167818 0.0982114 0.239095 -0.284119 0.426199 -0.242811 -0.0410838 -0.164562 0.174347 -0.537967 -0.0823218 -0.236075 -0.0797893 -0.306241 0.354004 -0.378637 0.152114 -0.0756885 -0.153529 0.211201 0.427897 -0.165736 0.419594 0.00334672 -0.405817 0.222176 0.229909 -0.111181
132 -0.564038 0.438969 0.160521 0.13476 -0.2158 -0.440308 -0.0417008 -0.416441 0.28775 -0.174954 0.137609 -0.362112 0.354921 -0.474089 -0.421907 -0.502938 0.00292238 -0.212249 0.00452869 0.56836 0.500205 0.126501 -0.128614 -0.0226399 0.215002 0.125275 -0.205049 0.275251 -0.0723768 -0.160595 0.273463 -0.0330757
194 -0.015011 -0.210894 0.00250179 -0.0901788 -0.304339 0.240518 -0.0468175 -0.158786 0.171521 -0.0788104 0.0796897 -0.0723505 0.0425236 -0.0540589 -0.171063 -0.149663 0.0845263 0.219678 -0.104801 0.253669 0.108311 0.0846785 0.0805106 -0.0935892 0.0109376 0.19998 0.25045 0.131721 -0.42602 0.117599 0.073556 -0.482702
163 -0.0452448 0.533093 0.0423284 0.110321 -0.410221 0.0474441 -0.300885 -0.379585 -0.281849 0.0796291 -0.0341537 -0.260908 0.341874 -0.124138 -0.566274 -0.553061 0.0499287 -0.0350423 -0.131727 0.425038 0.302128 0.120606 0.190484 0.0816126 0.0750958 -0.0962473 -0.157846 0.258216 0.0919392 -0.0831456 0.284964 -0.148032
632 -0.501663 0.370027 -0.0504312 0.148272 -0.00598467 -0.174315 -0.213535 -0.689497 0.671025 0.0392811 0.217068 -0.00438732 0.597136 -0.447981 -0.304003 -0.410365 -0.299135 -0.253595 0.16315 -0.00824358 0.637173 0.0181781 -0.0568623 0.223006 0.581546 -0.376152 0.138749 -0.0130974 -0.454748 -0.185833 0.251289 0.0285563
176 -0.545052 0.332126 -0.0680729 0.160153 -0.050684 -0.141015 -0.199267 -0.74694 0.649675 0.0166177 0.230745 -0.0603352 0.590341 -0.499738 -0.394802 -0.410675 -0.291353 -0.270151 0.214075 0.0191841 0.583328 0.0660727 -0.110099 0.22445 0.548368 -0.382288 0.156504 -0.0073149 -0.508576 -0.158933 0.253551 -0.0422565
300 -0.530141 0.436492 0.122859 0.14071 -0.193295 -0.394639 -0.0665309 -0.431644 0.316139 -0.157637 0.129809 -0.325098 0.370744 -0.47905 -0.379797 -0.498905 -0.0183864 -0.201335 0.0119741 0.489089 0.5206 0.0964066 -0.101972 0.00433857 0.266559 0.0852402 -0.155586 0.250991 -0.102867 -0.147277 0.28062 -0.0308802
129 -0.51476 0.360193 -0.0547539 0.162933 -0.0251029 -0.180405 -0.220153 -0.711133 0.622618 0.0518534 0.233284 -0.0182087 0.581315 -0.45122 -0.36646 -0.38614 -0.315394 -0.261949 0.194589 0.0080559 0.586316 0.0534516 -0.0897595 0.209074 0.538306 -0.401652 0.110276 -0.0284885 -0.443252 -0.204188 0.237178 0.023198
97 -0.377376 -0.0416838 -0.241403 0.117523 0.177106 0.112718 0.263827 -0.259693 0.414333 -0.256872 -0.0515431 -0.169162 0.154727 -0.53649 -0.0776444 -0.224467 -0.0708227 -0.313269 0.367515 -0.397613 0.117457 -0.0773207 -0.160605 0.209275 0.412621 -0.160138 0.431985 0.000322454 -0.403825 0.242257 0.225759 -0.116867
193 -0.184659 0.0253421 -0.142218 0.105035 0.476688 -0.167841 0.182245 0.0424995 0.397161 -0.110489 -0.0645404 0.115788 0.0504452 -0.255224 0.39435 0.0658854 -0.123139 -0.26153 0.228382 -0.551487 0.138342 -0.231811 -0.0937932 0.179662 0.391419 -0.1641 0.171278 -0.149895 -0.0139906 0.0324865 0.0297495 0.354748
112 0.202775 0.116909 -0.196059 0.0743195 0.22656 0.219649 -0.0397651 0.0366452 -0.100455 0.089414 -0.183285 0.153732 0.0677322 0.0487935 0.146315 -0.0292569 -0.0635195 -0.122251 0.0939683 -0.530102 -0.0208208 -0.172737 0.159308 0.236406 0.217844 -0.314851 0.173991 -0.110901 0.0944909 0.0732639 0.05037 0.190325
116 0.180746 0.0783192 -0.354606 0.0951008 -0.0439512 0.610825 -0.0148886 -0.209165 -0.240205 0.00839099 -0.243765 -0.0936249 0.118175 -0.176202 -0.226927 -0.286861 0.00381144 -0.0973519 0.200748 -0.506445 -0.0931276 -0.0839093 0.184667 0.304248 0.240234 -0.357432 0.446421 0.00329218 -0.178723 0.329864 0.243613 -0.2339
40 -0.527712 0.369869 -0.0716777 0.160542 -0.0369949 -0.15067 -0.201355 -0.724921 0.627472 0.0272907 0.215225 -0.0580902 0.593973 -0.499776 -0.370606 -0.431622 -0.29135 -0.262367 0.194071 0.00828836 0.607184 0.0403645 -0.0828533 0.228311 0.566735 -0.381953 0.133896 -0.00368934 -0.464236 -0.157698 0.262335 -0.00548895
