704 32
805 0.223738 0.487844 -0.326936 0.39155 0.542465 -0.448131 0.460816 -0.321874 0.822232 -0.6419 0.43501 -0.0872582 0.284707 0.418712 0.0750804 0.351633 -0.504161 0.815736 -0.561627 -0.234501 0.271961 -0.247459 -0.745513 -0.125654 -0.870305 -0.0255501 -0.275726 -0.167701 0.216507 -0.213965 -0.276913 0.0394593
566 0.29764 0.114876 0.0341709 -0.0880729 0.176828 0.0907348 0.182323 -0.205881 0.195549 -0.173127 -0.0955467 0.00288673 -0.064781 0.189258 0.0422139 0.126253 0.006918 0.361724 -0.128342 -0.104773 0.192871 -0.207304 -0.0382571 -0.155894 -0.234911 0.0505368 -0.215235 -0.083636 0.00838836 -0.0358357 0.159708 0.246298
452 0.0292394 0.599849 0.19966 0.161196 0.0169581 -0.220863 -0.488927 -0.282827 0.557177 -0.340109 -0.333633 0.354913 0.309818 0.58093 0.216867 0.420964 0.32699 0.435534 -0.176427 -0.00142242 0.511223 -0.541693 -0.0437227 -0.677979 -0.695171 -0.406583 -0.0515688 -0.21479 -0.0191283 -0.0959092 0.0641009 0.21105
32 0.222127 0.420432 0.518737 -0.0558958 0.349207 -0.0807394 0.210502 -0.147528 0.286798 -0.258784 -0.127208 -0.0522331 -0.0304531 0.321668 0.448627 0.252383 -0.194751 0.43726 0.0544096 -0.23454 0.426766 -0.642759 0.159245 -0.3794 -0.260762 0.0004836 0.182061 0.0609951 -0.130008 0.0280374 0.480679 0.0559623
230 0.0950096 0.199925 -0.595439 -0.0726791 0.736953 0.30382 0.426199 -0.328293 0.478775 -0.285665 0.302357 0.128572 -0.187614 0.618359 -0.423485 0.174173 0.0530003 1.25161 -0.416499 -0.115233 0.346931 0.131811 0.00496495 -0.369624 -0.148604 0.356972 -0.0690427 -0.417698 -0.0697262 0.151456 0.26983 0.166881
303 0.492301 0.101191 -0.365891 -0.428818 0.588451 0.296849 0.503106 -0.534869 0.586755 -0.898996 -0.000399776 0.306106 0.27649 0.307318 -0.153264 0.0342376 -0.105028 0.300203 -0.0740581 0.667168 0.433789 -0.20529 0.167437 -0.225754 -0.25405 0.243709 -0.220197 -0.21991 -0.160837 -0.0511286 0.267156 -0.0172903
529 0.243959 -0.0465894 -0.369975 -0.341563 0.197276 0.129435 0.386496 -0.358537 0.603031 -0.732919 -0.310175 0.235755 -0.0212456 0.0998151 -0.576423 0.704375 -0.13484 0.474977 -0.457836 0.355407 0.0828447 -0.279889 -0.060127 -0.279361 -0.101375 -0.237141 -0.893634 0.150008 -0.091113 -0.121725 0.170375 0.680913
513 0.522575 0.0531164 0.225511 -0.145246 0.225632 0.312786 0.322348 -0.567214 0.332441 -0.467561 0.243738 0.174915 0.050921 0.641776 0.383101 -0.311361 -0.05995 0.823523 -0.00192151 0.244912 0.507503 -0.296245 -0.444625 -0.368502 -0.245089 -0.398624 0.137744 -0.116654 0.0381399 0.0835831 0.2751 0.0897714
628 0.459977 0.621074 0.0404871 0.0666924 0.452689 -0.260027 0.191735 -0.346361 0.18477 -0.445913 -0.41598 0.0493501 -0.365695 0.0705411 -0.122481 0.438392 -0.0768971 0.547734 -0.558636 -0.289575 0.305293 -0.25249 -0.140075 -0.313352 0.052361 -0.782117 -0.760561 0.0771597 -0.110421 -0.0394682 0.352739 0.239084
692 0.519471 0.365429 -0.209064 0.000708994 0.429865 0.253773 0.0849807 0.134762 0.884384 -0.449402 -0.326634 0.310579 0.274646 0.386036 -0.261251 0.013882 0.288622 0.532712 -0.0547676 0.118061 0.635505 -0.168322 -0.224388 -0.216691 0.0763276 0.329421 -0.242436 0.121324 -0.294998 0.113704 0.686957 0.274203
412 0.521554 -0.164506 0.10106 -0.0192019 0.302638 0.631778 0.486397 -0.333138 0.0760813 0.0769339 0.148308 0.227506 -0.133998 0.435035 0.0821223 0.086063 -0.0761919 1.12121 -0.271453 -0.0850833 0.252614 -0.327178 -0.00180864 -0.458679 -0.0750274 -0.195057 -0.238541 -0.124937 0.0658513 -0.0339683 0.199469 0.103194
119 0.0194698 0.596048 0.160861 0.268472 0.665772 0.257589 0.186529 -0.070851 0.100495 -0.649205 -0.417273 0.641116 0.110717 0.282188 -0.249148 0.338634 -0.0155824 0.58178 -0.240562 0.0774858 0.338335 -0.20479 -0.194468 -0.384457 -0.798109 -0.0339766 -0.139795 -0.148813 -0.413105 0.0419874 0.369615 0.174306
332 0.234604 -0.0455843 0.117348 -0.321921 0.692578 0.0549916 0.678816 -0.316214 0.384183 -0.669151 -0.0272029 -0.158246 -0.15242 0.349417 -0.338458 -0.101846 -0.464107 0.637482 -0.378416 0.0777538 0.672746 0.238373 -0.107359 -0.268143 -0.262895 -0.0608292 -0.522744 -0.266096 0.341244 0.16231 0.32169 0.288863
479 0.318248 -0.150457 0.00312268 -0.202586 0.759371 0.382036 0.618338 -0.359934 0.54716 -0.386384 0.285903 -0.0274966 0.0439044 0.513437 -0.0901515 -0.371935 -0.158422 0.680066 -0.233406 -0.358186 0.704071 -0.221918 0.0722351 -0.329848 -0.0997393 0.0438994 -0.335266 0.232774 0.638752 -0.00694795 -0.136259 0.345262
563 0.655694 0.136708 0.10398 0.146214 0.635283 -0.61951 -0.0420826 -0.0685682 0.272488 -0.52315 -0.0418729 0.0873542 0.090622 0.484976 -0.0787459 0.0552912 -0.293981 0.168576 -0.210488 -0.350179 1.13197 -0.384722 0.0708438 -0.597834 -0.150782 0.00976017 -0.516033 -0.258056 0.378839 -0.104742 0.0830635 0.0514211
643 0.067169 -0.117205 0.206 0.00388438 0.270462 -0.0706112 0.367134 -0.265723 0.343142 -0.286391 -0.251627 0.36382 -0.575706 0.283623 -0.0142472 0.175207 -0.113261 0.556788 -0.671529 0.186756 -0.00094628 0.113799 -0.130764 -0.312736 -0.416064 0.107046 -0.423128 -0.126642 0.374345 -0.0259537 0.201392 0.860513
108 0.148062 0.256541 -0.0329019 0.320544 0.771061 -0.186214 0.544076 -0.250719 0.0861096 -0.618548 -0.517318 0.212894 -0.0993894 0.577938 -0.135258 0.531383 -0.363687 0.996577 -0.492279 -0.284692 0.390562 -0.0944381 0.0856836 -0.150285 -0.522251 0.0244982 -0.0927865 0.120252 0.181379 0.0509385 0.363978 -0.0907805
800 0.660803 -0.309646 0.459387 0.204175 0.261651 -0.0897884 1.08417 -0.462082 0.2767 -0.516565 0.227661 -0.109881 0.202471 0.060429 -0.65991 0.0555394 0.0838708 0.495113 -0.437716 -0.357413 0.450136 -0.0708887 -0.230989 -0.392734 -0.364201 -0.226929 -0.254403 -0.453816 -0.128278 -0.457832 -0.215452 -0.0598603
305 -0.0343532 0.14603 -0.128148 -0.674545 0.157779 0.145659 0.0569472 -0.269229 0.159765 -0.28284 -0.0559081 0.155999 0.193625 0.690441 0.12661 -0.0165498 0.507703 0.617691 -0.204524 0.0917926 0.688965 0.143615 0.105148 -0.239289 -0.146582 0.373256 -0.560197 -0.406539 0.177979 -0.337378 0.382254 0.0982228
716 0.39084 -0.0619241 0.235541 -0.405784 0.156525 0.0381028 -0.00220231 -0.496381 0.103176 -0.795819 0.25322 0.0915154 0.765478 0.287888 -0.0811107 0.139609 0.124497 0.838276 -0.225718 -0.0163932 0.172265 -0.203562 -0.0496432 -0.178393 -0.122316 -0.356065 0.0418632 -0.0763638 0.136553 -0.14508 0.735484 0.235488
530 -0.153157 -0.345414 0.340411 -0.515663 0.286379 0.617371 0.259307 -0.252286 0.161615 -0.534821 -0.120527 -0.12956 -0.260485 0.183788 -0.0751228 -0.017602 -0.0597904 0.841799 0.156414 -0.613733 0.263385 -0.323713 -0.0637429 -0.533065 -0.108902 0.114928 -0.0285535 0.190068 0.153644 -0.170238 0.441564 0.364328
99 -0.0436915 -0.0877844 0.277516 -0.135445 0.0889795 0.491065 0.177548 -0.306983 0.716953 -0.584789 -0.177311 0.14982 -0.686662 0.504403 -0.207279 -0.13483 0.290655 0.344036 -0.205712 -0.362583 0.129228 -0.0948276 -0.183336 -0.402477 0.106644 0.116936 -0.253884 -0.0343413 -0.367073 -0.35407 0.763251 0.47373
74 0.291576 -0.219884 0.202265 0.0148678 -0.216278 -0.0084784 0.237006 -0.229837 0.0967023 -0.203404 -0.0752949 -0.131894 0.012188 0.34641 0.247242 -0.372338 -0.0402011 0.591088 -0.191582 0.17699 0.636196 0.228239 -0.0955098 -0.704842 -0.128707 0.298981 -0.402045 -0.0708817 0.309855 -0.549313 0.462515 0.597369
480 0.0439888 0.181336 0.199316 -0.22052 0.188787 0.490262 0.237344 -0.0801366 0.146041 -0.234954 -0.166751 0.272702 -0.131883 0.198987 0.00832259 -0.0719606 0.273717 0.620396 -0.370557 -0.00655616 0.266228 -0.331028 -0.148482 -0.413659 -0.201578 0.102601 -0.362824 -0.181059 0.317477 0.10794 0.323847 0.540032
243 0.506691 0.130868 0.0541153 -0.164011 0.565609 -0.0216476 0.288723 -0.0812397 0.437523 -0.817019 0.242663 -0.0317181 -0.00254727 -0.241588 -0.272722 -0.162574 -0.188645 0.175444 -0.343367 0.217397 0.485773 -0.0278867 0.532896 -0.257199 -0.231585 0.0853351 -0.407646 -0.149357 0.235496 -0.141419 0.0908344 0.567648
182 0.229667 0.0157291 0.0661323 -0.175663 0.36856 0.213384 0.152497 -0.298955 0.286289 -0.372442 -0.264465 -0.0319577 -0.0241501 0.211959 -0.0976069 -0.0672164 0.0419121 0.411031 -0.318707 0.20328 0.471951 -0.150313 0.101035 -0.495989 -0.170945 -0.137847 -0.474808 -0.178503 0.277027 -0.2578 -0.0252154 0.414302
422 0.561871 0.28601 0.235853 -0.211736 0.388111 0.238883 0.379801 -0.24413 0.312477 -0.429168 0.158756 -0.174553 0.174077 0.080634 -0.158142 -0.12062 -0.155275 0.44321 -0.256662 0.0608491 0.649908 0.161411 0.0616554 -0.397784 0.150192 -0.130485 -0.358953 0.161563 0.0189631 -0.356016 0.391994 0.367208
8 0.436067 -0.163069 0.609303 -0.170275 0.647749 0.431463 0.413614 -0.143116 0.423306 -0.361397 -0.364697 -0.127828 0.318785 -0.148968 0.0965364 -0.165133 0.0679152 0.498783 -0.161955 -0.268114 0.17354 -0.220317 -0.164049 -0.4341 0.108162 0.284026 -0.809556 -0.15147 0.444342 0.199481 0.212503 0.467443
432 0.698604 0.222585 -0.104337 -0.272738 0.977551 0.279965 0.490735 -0.42939 0.323982 -0.290226 -0.0494444 0.124059 0.304579 -0.367783 -0.13792 -0.35668 -0.189944 0.508613 -0.506478 0.171407 0.34 0.278322 0.342908 -0.188382 -0.269703 -0.14912 -0.516154 -0.0386218 0.19932 -0.254703 0.193378 0.419728
329 0.299832 -0.0799663 0.181789 -0.0915544 0.523149 0.0621782 -0.0985083 -0.052405 -0.210611 -0.433289 0.0421016 -0.0365353 -0.146117 0.18627 0.421993 0.689859 -0.459039 0.537399 0.109374 0.204222 0.431877 -0.338551 0.194009 -0.318936 -0.585556 -0.215853 -0.315993 -0.216864 0.0710653 -0.69936 0.355978 0.315635
478 0.198679 0.169928 0.102602 -0.0519479 0.504548 0.126692 0.296797 -0.603268 0.727102 -0.702167 0.00870958 0.212082 0.0630447 0.346984 -0.384127 -0.304746 -0.130346 -0.0343349 -0.293544 -0.112226 0.433405 -0.221829 0.0944421 -0.562486 -0.212083 0.0132314 -0.465253 -0.0782369 0.540832 0.0502341 0.0136115 0.536178
519 0.41199 0.0226376 0.194436 -0.195257 0.358055 0.167594 0.140252 -0.145583 0.0643785 -0.72084 -0.147396 -0.532988 -0.0965434 0.0268614 -0.181858 0.115414 0.184833 0.592662 -0.407105 -0.0470338 0.307673 -0.275668 0.259115 -0.352637 0.32635 -0.190759 -0.52354 0.110623 0.252075 -0.416624 0.297204 0.233619
75 0.377136 -0.024439 0.228113 -0.162675 0.413879 0.359611 0.243846 -0.217973 0.358868 -0.364469 0.0722932 0.176357 -0.0461209 0.133806 0.0111463 -0.019775 0.0829689 0.423874 -0.209713 -0.0425133 0.48522 -0.107058 0.0857435 -0.431527 -0.152871 -0.00835698 -0.527463 -0.140063 0.0709142 -0.234804 0.257579 0.359785
39 0.316955 0.115521 0.158782 -0.155127 0.267202 0.158113 0.196295 -0.299003 0.370309 -0.301639 0.00114196 0.00872484 0.0188965 0.320703 -0.0195408 -0.032147 0.0459124 0.441629 -0.17716 -0.0260072 0.401206 -0.136521 0.0181739 -0.37771 -0.183513 0.0421421 -0.214066 -0.216155 0.0738599 -0.298962 0.142019 0.305885
658 0.252562 -0.197425 0.843908 -0.0704089 0.763933 0.476343 -0.27807 -0.354487 0.421234 -0.249062 0.141011 -0.179094 0.45244 0.294939 0.11267 0.45961 0.547243 0.621421 0.161261 -0.4836 0.406702 -0.0269951 0.261948 -0.273748 -0.0946477 -0.173725 -0.0685064 0.10584 -0.38415 -0.389353 -0.0678081 0.399643
645 0.293438 -0.0922606 0.102031 -0.233892 0.524828 0.596637 0.575512 -0.166143 0.261739 -0.659439 0.0446498 0.129336 0.154456 0.22206 0.0938994 -0.0810313 0.149744 0.85474 -0.222805 -0.315663 0.399129 -0.142973 -0.329307 -0.128384 -0.226477 0.22726 -0.686448 0.329199 0.438442 0.156298 0.332678 0.187961
104 0.617479 -0.190235 0.138732 0.231206 0.422744 0.34859 0.272023 -0.159565 -0.055221 -0.288146 -0.379014 -0.230329 0.0563665 -0.107878 -0.0292549 -0.337934 0.119576 0.590732 -0.469972 0.354154 0.137691 -0.288659 -0.191394 -0.603607 -0.353379 -0.463556 -0.618355 -0.604895 -0.0157966 -0.238362 0.580494 0.27433
73 0.340577 0.35187 -0.205259 -0.304772 0.679965 0.207263 0.21354 -0.346803 0.451145 -0.76355 -0.0688156 -0.056632 -0.0191618 0.91584 -0.096646 -0.0994268 0.415477 0.541196 -0.0737331 -0.136991 0.649972 -0.370653 -0.302947 -0.154043 -0.0461349 0.0118126 -0.302861 -0.320477 0.200553 0.299917 0.254317 -0.349994
81 0.444568 0.0963037 0.259327 -0.12642 0.344647 0.310877 0.205225 -0.20046 0.335618 -0.148665 0.122171 -0.134754 -0.162863 0.264143 -0.0653556 -0.129066 0.0403915 0.356737 -0.12644 -0.0163493 0.441602 -0.331931 0.0536159 -0.449964 -0.0645506 0.0243175 -0.277914 -0.246837 -0.0849949 -0.285788 0.302464 0.327843
301 0.301895 0.0110347 -0.0634234 -0.311383 0.29523 0.159066 0.0972007 -0.378532 0.214986 -0.344834 -0.137232 0.162631 -0.128455 0.240552 0.291128 -0.263896 0.225104 0.557237 -0.412452 0.142825 0.472808 -0.348267 -0.0969569 -0.359433 -0.251179 -0.0147389 -0.554004 -0.133838 0.449228 -0.190331 -0.0397263 0.285387
18 0.14945 -0.219407 0.0787806 -0.225461 0.1403 0.271864 0.257839 -0.0913393 0.54231 -0.730524 0.0788372 0.447157 -0.32173 0.0548806 -0.0528199 0.228895 -0.14558 0.396788 -0.103821 0.00412732 0.329491 -0.1563 0.227608 -0.254125 -0.257388 0.416326 -0.454806 -0.226335 0.0756217 -0.413 0.363095 0.45628
411 0.241889 0.337004 0.304559 -0.338981 0.299474 0.425601 -0.0564579 -0.434413 0.569573 -0.0152058 0.0509742 0.0189565 -0.198228 0.481014 0.117984 -0.426453 0.262637 0.124551 -0.354763 -0.027789 0.371985 -0.149789 0.122871 -0.562676 0.0153228 0.0186839 -0.071286 -0.336562 0.29504 -0.353216 -0.220268 0.52718
550 0.413296 0.100342 0.0812299 -0.0731656 0.38329 0.0959806 0.230867 -0.0964188 0.0474121 -0.400733 0.152303 -0.0756405 0.030755 0.192592 -0.0871702 -0.137333 -0.128432 0.596465 -0.138931 -0.107347 0.512449 -0.242353 0.173849 -0.42798 -0.201507 0.0105721 -0.221944 0.0337582 0.0355211 -0.165552 0.307834 0.308195
318 0.458316 0.0327066 0.161494 -0.131601 0.345643 0.360802 0.124454 -0.127976 0.0530372 -0.476862 0.0937926 0.0197938 0.0986689 0.0327307 -0.242559 0.091158 0.0378362 0.582054 -0.195156 0.545458 0.264888 -0.202491 0.345517 -0.426266 -0.234317 -0.125731 -0.00998761 -0.191608 -0.283577 -0.381754 0.240819 0.455391
321 0.555303 0.0584291 0.295153 -0.239239 0.171077 0.295701 0.461722 -0.0569049 0.461427 0.0337029 0.262814 0.0752657 -0.279319 0.031709 0.140279 0.0232157 -0.347758 0.679898 -0.194237 -0.184593 0.315109 -0.194323 0.388818 -0.341318 0.15538 0.0389549 -0.393777 -0.114159 0.145472 -0.234653 0.579914 0.236704
152 0.537561 0.266035 -0.0511501 0.164995 0.275779 0.234121 0.35962 -0.0418162 0.236068 -0.446026 0.191862 -0.194194 -0.237688 0.0151782 -0.202406 -0.118888 -0.0115079 0.781749 -0.416898 -0.25952 0.27312 -0.407893 0.219237 -0.618588 -0.125303 -0.528149 -0.0173347 -0.140915 -0.0962999 -0.0362169 0.472766 0.175559
684 0.31959 0.221467 0.248583 -0.0949717 0.20873 0.240807 0.133687 -0.221262 0.311878 -0.288335 -0.0749037 -0.011096 0.0441548 0.201803 0.0512328 -0.0461484 0.0451919 0.36602 -0.190406 0.059786 0.407514 -0.324391 0.114679 -0.385036 -0.119677 0.0536962 -0.224053 -0.233914 0.0534203 -0.293633 0.21313 0.374863
26 0.419531 0.0397994 0.046879 -0.201288 0.32412 0.14924 0.258261 -0.234529 0.30999 -0.297122 -0.0384949 0.0392628 -0.0471144 0.0788308 -0.0863217 0.060253 -0.0349427 0.510585 -0.20027 -0.0610998 0.335036 -0.0715553 0.128279 -0.314661 -0.152935 0.111382 -0.381694 -0.131459 0.142893 -0.193151 0.310043 0.299361
679 0.230604 0.0671775 0.400436 0.0415517 0.00104709 0.30446 0.0396419 -0.233937 0.303422 -0.322388 0.00144918 0.037403 -0.00490268 0.333038 -0.0173583 -0.127309 0.200985 0.546392 -0.386219 0.0714632 0.231045 -0.33223 0.0619349 -0.585984 0.0865639 -0.0722838 -0.150923 -0.297082 0.0240716 -0.314299 0.188491 0.537132
461 0.361149 0.141902 0.402735 -0.110877 0.245075 0.284134 0.136968 -0.149831 0.196338 -0.302088 0.0351484 -0.267843 -0.169676 0.236173 0.174447 -0.0350021 0.148382 0.440741 -0.125552 -0.146393 0.359295 -0.429362 0.285885 -0.369031 -0.103516 0.166838 -0.259991 -0.147681 0.126933 -0.183162 0.147363 0.290887
51 0.369963 0.106646 0.119958 -0.0823446 0.220811 0.0998133 0.210308 -0.244252 0.333799 -0.221401 0.0121938 0.000568549 -0.0419583 0.167275 -0.0264571 0.0141549 0.0308777 0.33239 -0.178737 -0.0390373 0.268904 -0.211541 -0.00136173 -0.268483 -0.172346 0.0597503 -0.230296 -0.100866 0.0369917 -0.179345 0.173786 0.232289
197 0.636167 0.598757 0.397614 0.0222141 0.439693 0.0307421 0.467995 -0.239477 0.392719 -0.449333 -0.651509 -0.014677 0.0431226 -0.143606 -0.0121129 -0.266523 -0.199463 0.304283 -0.426038 -0.138358 0.224218 -0.595673 -0.0914925 -0.329946 0.0617667 -0.215056 0.182169 0.119183 -0.0921992 0.111447 0.635382 0.334479
293 0.442203 -0.0323031 -0.139641 -0.148418 0.506524 0.178282 0.309362 -0.259696 0.51001 -0.535248 0.152073 0.11819 0.0742625 0.194549 -0.237615 -0.0575925 0.0437277 0.50338 -0.279168 -0.0328057 0.466936 -0.08362 -0.0621741 -0.322202 -0.172226 0.0382604 -0.44505 -0.122975 0.159044 -0.190853 0.236082 0.168244
801 0.603052 0.128399 -0.217116 0.0624344 -0.498844 0.0664333 0.0366943 -0.423618 0.104101 0.125925 -0.316376 -0.535022 -0.0377186 0.370873 -0.198812 0.205783 0.0127867 0.274226 -0.143523 -0.0352761 0.306282 -0.282737 -0.0986401 -0.512883 -0.268769 0.0348873 0.168901 -0.140359 0.11434 -0.542687 0.30516 0.539968
102 0.308373 0.396031 0.506588 -0.346777 0.514939 0.547261 0.293492 -0.498099 0.167064 -0.351366 -0.233814 -0.351941 0.00473427 -0.234213 0.0701969 0.280631 -0.411532 0.372558 -0.280724 0.299837 0.390301 0.203798 0.371829 -0.401259 -0.140969 -0.3929 0.0518232 0.241798 -0.00168196 -0.486477 0.168753 0.392874
370 0.326933 0.279311 0.323309 -0.00788871 0.0210744 0.16537 0.0500826 -0.26694 0.2594 -0.19529 -0.110323 0.0310211 -0.135106 0.260276 0.168797 0.0522063 0.191509 0.327374 -0.198579 -0.0774468 0.299108 -0.30749 0.0655064 -0.390425 -0.173952 0.22254 -0.0434672 -0.160878 -0.0155453 -0.37196 0.241591 0.421322
206 0.313491 0.246026 0.191112 -0.0751262 0.272883 0.0526882 0.0744166 -0.201862 0.172635 -0.330449 -0.137778 -0.00593941 -0.104695 0.0409403 0.064218 0.0153715 -0.0103242 0.394147 -0.233876 -0.0589072 0.363375 -0.213901 0.217814 -0.396868 -0.223687 0.049192 -0.187758 -0.104251 0.140907 -0.179745 0.213512 0.352047
37 0.179452 0.30585 0.675897 -0.42986 0.106742 -0.0543905 0.498664 -0.269007 0.259993 -0.208029 0.656341 0.177672 -0.113664 0.0904337 0.112661 0.229613 -0.143974 0.578469 -0.14088 -0.389144 0.418879 0.303157 0.329242 -0.274477 0.0750153 -0.226104 -0.0975473 0.111812 -0.169038 -0.67371 0.52005 0.720326
142 0.270098 0.189248 0.269739 0.0637407 0.0523218 0.211137 -0.00308048 -0.194439 0.12297 -0.295374 -0.163958 -0.0387498 -0.242118 0.0531032 0.0683705 0.150045 0.186568 0.590983 -0.25887 -0.0432998 0.0926596 -0.492283 0.255684 -0.47742 -0.225038 0.0495092 -0.0119849 -0.29339 -0.106848 -0.215484 0.256581 0.503297
511 0.371218 0.278276 0.19244 -0.440575 0.158883 0.439027 0.430529 -0.621462 0.06992 -0.249377 -0.197911 0.0782985 0.122627 0.413579 0.282855 0.475394 -0.0702018 0.371208 0.0592321 0.698154 0.264754 -0.63539 -0.04106 -0.290312 -0.0690204 -0.187717 -0.112666 -0.25092 -0.0423105 -0.268581 0.0125035 0.177783
464 0.0968808 -0.0554726 0.14367 -0.338406 0.00260484 0.0684875 -0.268221 -0.428967 -0.0115334 -0.570375 -0.198684 -0.33591 -0.243949 0.140132 0.358079 0.528056 0.524649 0.773697 -0.303778 -0.0868041 0.345515 -0.701369 0.357876 -0.17812 -0.0697413 0.0260272 0.0459073 -0.254368 0.341048 -0.0925501 -0.340098 0.405172
90 0.50247 0.347326 0.339491 -0.264254 0.0784316 0.220689 0.12378 -0.105504 0.371228 -0.419506 -0.0724226 -0.0970301 -0.42445 0.167688 0.539582 0.324105 0.209328 0.00820296 0.149446 0.342658 0.41988 -0.885681 0.309111 -0.30585 -0.22081 0.415532 0.0151965 -0.455749 0.117097 -0.181499 0.0936432 0.257666
419 0.0528412 0.393296 0.584299 0.0410868 0.0121956 -0.0238213 -0.008488 -0.396152 0.358648 -0.489668 0.199324 0.129301 -0.214408 0.26554 0.148491 -0.0100067 0.0796123 0.351827 0.0122573 -0.149634 0.422296 -0.334519 0.124656 -0.621879 -0.339975 -0.0463511 0.473695 0.162556 -0.259424 -0.121607 0.309611 0.641034
697 0.023462 0.113301 0.415747 -0.216397 0.0477574 0.0522284 -0.105327 -0.162148 0.676937 -0.72822 -0.196171 0.106625 0.00393135 -0.0706452 0.0176573 -0.112983 -0.213828 0.567368 -0.20732 -0.492716 0.344284 -0.190424 0.198153 -0.528402 -0.157555 0.447982 -0.29898 0.311804 0.655092 0.228095 0.603426 0.156802
88 0.0892476 0.626152 0.48045 -0.10435 -0.182299 0.10763 -0.0136345 -0.158542 0.111521 0.107356 -0.207615 -0.0490797 0.0357466 0.486725 0.399337 0.125649 0.352836 0.541698 -0.234528 0.0794198 0.378683 -0.640852 0.183369 -0.62933 -0.282647 0.0478231 0.0569002 -0.474034 0.191244 -0.10776 0.0257022 0.511044
76 0.511374 0.535837 0.573007 -0.132732 0.240406 0.505909 -0.247566 -0.129252 0.0193767 -0.562374 0.0174573 -0.108458 -0.0102092 0.171686 0.535388 -0.214124 0.513044 0.373503 -0.13619 -0.0914403 0.518851 -0.479844 0.298986 -0.228945 -0.131779 0.170966 0.304719 0.0210971 -0.291411 -0.345197 0.162318 0.199458
308 0.101237 0.778798 0.335159 -0.00254738 -0.0711268 0.348128 0.300522 -0.297567 -0.401858 -0.623184 0.503499 0.0164968 0.286308 0.272561 -0.113452 -0.146838 0.309936 0.478134 -0.340048 -0.172263 0.327819 -0.182871 0.104876 -0.580221 -0.366891 0.151439 0.203811 -0.124989 0.113813 -0.179863 0.149163 0.628906
23 0.439331 0.283834 0.0741897 -0.0700504 0.534374 0.0821761 0.373283 -0.0186846 0.302955 -0.457198 -0.0652262 -0.0809421 0.017987 0.51373 -0.0191181 -0.0521129 -0.0419785 0.316305 -0.351367 -0.00821247 0.684823 -0.238976 -0.209159 -0.287327 -0.279245 -0.00360999 -0.383289 -0.293451 0.144998 0.0187546 0.303816 0.304679
147 0.371495 0.129094 0.134529 -0.0629807 0.583193 0.196678 0.31723 -0.160453 0.414664 -0.270676 -0.0855504 -0.155193 -0.217155 0.043028 -0.0690945 -0.104796 -0.0866991 0.379259 -0.258002 -0.14327 0.51491 -0.144726 0.243654 -0.430522 -0.197285 0.0650262 -0.293565 -0.166964 0.293365 -0.0755684 0.153154 0.344048
343 0.155698 0.493393 0.628934 -0.0225897 -0.02107 0.367093 0.222761 -0.307397 0.427036 -0.485879 -0.0084307 -0.194837 -0.164798 0.132 0.411695 -0.0373179 -0.0532596 0.636684 -0.00195613 -0.292046 0.282971 -0.971516 0.212867 -0.401439 -0.103099 0.186664 0.22248 0.247166 0.0352175 0.0365561 -0.00404592 0.170346
93 0.365238 0.281634 0.2872 -0.0418457 0.0972874 0.129527 0.0474492 -0.200042 0.272096 -0.177446 -0.0471875 -0.0856044 -0.152947 0.160916 0.0869476 -0.00652835 0.120441 0.42539 -0.167917 -0.0575457 0.350968 -0.335746 0.204545 -0.402232 -0.121013 0.104942 -0.0355314 -0.15039 0.0103457 -0.245343 0.246654 0.409374
342 0.190513 0.259078 0.536371 -0.0710321 -0.061128 0.347506 0.283787 -0.123835 0.0850421 -0.282965 0.0872357 0.0126932 -0.171412 0.461498 0.671388 -0.198602 0.0441546 0.104731 0.0523502 -0.129611 0.506331 -0.611945 0.0482005 -0.347962 -0.222885 0.603507 -0.148427 -0.279724 0.250351 -0.14695 -0.0425221 0.916993
538 0.49639 -0.00888033 0.091391 -0.0167066 0.526103 0.210548 0.381714 -0.10912 0.586803 -0.123132 -0.266058 0.154984 -0.031076 -0.143868 0.373671 0.141984 -0.0630525 0.44212 -0.268193 -0.0362927 0.264838 -0.324237 0.291089 -0.259106 -0.186636 0.017257 -0.640922 -0.0923679 0.201103 -0.123601 0.418119 0.239638
347 0.289684 0.370691 0.501745 -0.132682 0.0526806 0.300297 -0.0103868 -0.300927 0.445166 -0.127538 -0.0797869 -0.0446183 -0.363979 0.276361 0.381702 -0.0290049 0.158257 0.138643 -0.189941 -0.210267 0.316664 -0.293641 0.257954 -0.24189 0.126159 0.337453 -0.146057 -0.210975 -0.0207661 -0.259848 0.330836 0.454742
539 0.162471 0.347154 0.466164 -0.0471782 -0.0406479 0.410635 0.0121662 -0.355976 0.365171 -0.201747 -0.0533191 0.00662677 0.0694699 0.287955 0.285615 -0.0393886 0.219263 0.407391 -0.0818651 0.089402 0.255049 -0.489862 0.0621226 -0.527134 -0.203789 0.111237 -0.037631 -0.127731 -0.0365114 -0.348229 0.1134 0.337974
556 0.059838 0.235851 0.214615 -0.236796 0.498102 -0.111039 0.190987 0.115771 -0.267289 -0.963819 0.0151019 0.0264731 -0.246897 0.537564 0.200856 0.40185 -0.231354 0.49132 -0.180276 -0.0575898 0.436733 -0.0836617 0.189168 -0.448163 -0.822835 0.34944 0.0370789 -0.112094 0.210197 0.400045 0.298355 0.420047
582 0.0853545 0.163439 0.13931 0.0164534 -0.0462439 0.374866 0.200756 -0.39679 0.259171 -0.177309 -0.00469054 0.321168 -0.155777 0.0148267 0.0291368 -0.232898 0.179616 0.732968 -0.313238 -0.125402 0.215446 -0.174169 0.0712001 -0.820154 -0.321835 -0.0759245 0.0390947 -0.23266 0.191605 -0.0268361 0.0122003 0.774632
381 0.441139 0.516948 0.488527 -0.110877 0.130885 0.157148 0.157742 -0.451049 0.267154 0.128199 -0.253982 0.0417407 0.404022 0.26486 0.587136 0.15776 0.369172 0.61432 -0.0163608 0.0710131 0.183352 -0.293179 0.129049 -0.305694 -0.113222 -0.0171169 0.175884 -0.143501 -0.291417 -0.672758 0.295792 -0.116308
475 0.356925 0.184946 0.109911 -0.262079 0.289057 0.405717 0.24043 -0.103802 -0.0217075 0.23942 -0.344534 -0.177082 -0.196852 -0.00576598 0.40372 0.374415 0.218704 0.717375 -0.429517 0.146958 0.207478 -0.349321 0.351601 -0.111763 0.0360749 0.0602006 -0.565573 -0.458653 0.0621322 -0.270844 0.20349 0.324231
319 0.294736 0.201777 0.290184 -0.414736 0.295522 0.353367 0.21019 -0.0949681 -0.470688 -0.313667 0.503242 -0.0945363 -0.240463 0.150678 0.150412 0.24186 0.373598 0.403059 -0.315871 0.143605 0.549451 0.0464378 0.254133 -0.17907 -0.306305 -0.397318 -0.346192 -0.546433 -0.119637 -0.434511 0.184702 0.9069
168 0.153603 0.61723 -0.36027 -0.0549103 -0.126172 -0.295199 -0.320937 -0.0172058 0.155182 0.0113489 -0.0541882 0.532109 -0.184315 0.531355 0.430165 0.711553 0.103366 0.6015 -0.34641 -0.537632 1.04122 -0.100026 -0.183799 -0.499647 -0.641737 -0.0573869 -0.20777 -0.602189 -0.104453 -0.0789693 0.479979 -0.0438704
57 0.435505 0.412093 0.373313 0.0657901 -0.0574104 0.240774 -0.112615 -0.0988138 0.578186 -0.391975 -0.144207 -0.257166 -0.282778 0.337623 0.282034 -0.27676 0.250882 0.270823 -0.0657495 -0.00148399 0.268503 -0.901505 0.214444 -0.507297 -0.149534 0.1868 0.242817 -0.142735 -0.233509 -0.0756717 0.225163 0.432306
177 0.428552 0.250126 0.357808 0.0702089 0.00185653 0.225264 0.0765132 -0.0554835 0.145898 -0.211624 -0.0970822 -0.155618 -0.38005 0.262427 0.203435 -0.0263307 0.242478 0.431929 -0.268172 0.0243253 0.210631 -0.727151 0.218543 -0.30203 -0.127644 0.261089 -0.211808 -0.408387 0.0616598 -0.214396 0.236369 0.441643
429 0.513711 0.0284233 0.342149 -0.0974255 0.749382 0.38136 0.0944299 -0.119811 0.424619 -0.327527 -0.285271 0.16659 0.738744 -0.096885 0.12415 0.0158045 0.318669 0.222518 0.0814034 0.209143 0.509349 -0.283197 0.23693 -0.385787 -0.155314 0.171363 -0.409663 0.0209582 -0.0733986 -0.397858 0.0758251 0.230801
497 0.104374 0.128308 0.343172 -0.365422 0.0047582 0.0280593 -0.0104925 -0.217916 0.546821 -0.395995 0.0602181 -0.153341 -0.289487 0.713345 -0.127311 -0.0170015 -0.111318 0.477257 -0.450582 0.256154 0.557547 0.326394 0.22103 -0.363575 0.0822887 0.250777 -0.0462992 -0.503058 0.224727 -0.264171 0.258248 0.577995
425 0.311899 0.17281 0.30523 -0.0165878 0.0373935 0.273974 0.161548 -0.28527 0.324384 -0.298002 0.0212502 0.0417418 -0.202267 0.348143 0.134379 -0.112077 0.0782842 0.36608 -0.201839 0.0259893 0.314088 -0.221941 0.0860759 -0.438574 -0.10103 0.153745 -0.0607533 -0.226187 0.0408709 -0.236061 0.107166 0.537486
531 0.0492278 0.36314 0.0535185 -0.0591606 0.416906 0.137353 0.0489083 -0.196799 0.299528 -0.528933 -0.277198 0.19243 -0.169504 0.738687 -0.27133 0.0862939 0.418189 0.86992 -0.360714 -0.491027 0.371786 0.0610681 -0.398679 -0.35622 -0.19875 0.0616038 0.124092 0.124049 -0.0970314 0.00262495 0.426801 0.0987644
507 0.4409 0.535202 0.209386 -0.132853 0.079964 0.52445 0.106996 -0.16097 0.094238 -0.0581296 -0.393524 -0.213684 -0.137299 0.333504 0.608192 0.0487611 0.347052 0.386337 -0.323875 -0.00771078 0.230749 -0.631536 0.386465 -0.182335 0.204705 0.0613263 -0.193103 -0.181343 -0.173774 -0.474738 0.106413 0.350694
145 0.2306 0.777027 -0.58859 -0.373231 0.431261 0.160282 0.188039 -0.180037 0.135558 -0.89511 0.175127 0.219636 -0.245916 -0.109348 -0.257087 0.00508143 0.532696 0.333412 -0.57336 -0.0158101 0.426493 -0.184588 0.48553 -0.608535 -0.256433 -0.169987 0.132793 0.0749995 -0.223202 -0.0205451 -0.126899 0.395978
144 0.0853705 0.177353 0.370891 -0.138359 0.180248 0.323237 0.0376829 -0.175668 0.457193 -0.309157 0.0487078 -0.077248 0.0757405 0.111092 -0.556557 -0.312249 0.21724 0.819733 -0.26206 0.0720099 0.420184 0.0672674 0.0812667 -0.632044 -0.165434 -0.124526 -0.32508 0.0737204 0.360735 -0.047493 0.232691 0.510202
141 0.2549 0.268941 0.316388 -0.0497337 0.0069291 0.115462 0.0250167 -0.221913 0.37183 -0.297523 0.00408669 0.0182933 -0.108 0.246701 0.178182 0.0519955 0.147804 0.324305 -0.145301 -0.0539002 0.371861 -0.360185 0.181574 -0.420431 -0.168672 0.123145 -0.0985219 -0.141121 -0.0723718 -0.27308 0.26966 0.461871
572 0.253495 0.337182 0.787571 -0.226465 0.230006 0.395611 0.0588032 -0.301348 0.278703 0.000960713 -0.150811 -0.329361 -0.246878 -0.0442277 0.412085 0.130837 0.0789036 0.502458 -0.111318 -0.475792 0.218037 -0.216023 0.385135 -0.455486 0.217461 0.0198641 0.0171154 0.0726378 -0.337325 -0.493138 0.577403 0.215608
196 0.309381 0.270758 0.180956 -0.0296755 0.0686405 0.0645281 0.0862501 -0.16507 0.265775 -0.19195 -0.0900581 -0.024433 -0.0789611 0.116836 0.0817381 0.0788819 0.0955373 0.267218 -0.158951 -0.0138723 0.315141 -0.234159 0.127544 -0.298497 -0.184285 0.11186 -0.157948 -0.127886 0.0303428 -0.154775 0.167169 0.302118
143 0.336509 0.438544 0.285535 -0.0237511 0.220292 -0.00733634 0.044426 -0.0994467 0.0322014 -0.163595 -0.263711 -0.197265 -0.170733 0.105557 0.299186 0.427313 0.0914583 0.411783 -0.329169 -0.114727 0.423399 -0.285356 0.372892 -0.388749 -0.0768521 -0.227181 -0.325632 -0.196222 -0.124801 -0.391542 0.393181 0.301038
474 0.395148 0.280303 0.284293 -0.108198 0.172147 0.0687461 0.222673 -0.356888 0.330855 -0.233847 -0.250825 0.122729 0.182578 0.0301661 0.197416 0.105802 0.172284 0.374205 -0.227245 -0.0171129 0.176002 -0.246761 -0.0524436 -0.332777 -0.137176 -0.106378 -0.355444 -0.0537013 0.020208 -0.101202 0.366054 0.392262
11 0.26961 0.272334 0.186283 -0.0643493 0.0783959 0.0571935 0.0332129 -0.208342 0.201042 -0.126524 -0.0820966 -0.02859 -0.0323376 0.145903 0.115794 0.0816121 0.133511 0.285497 -0.117816 -0.0490834 0.273348 -0.201972 0.117334 -0.262919 -0.125991 0.0523804 -0.106847 -0.0782001 -0.0145734 -0.241838 0.172823 0.315538
133 0.313652 0.490616 -0.212967 0.261025 0.577654 0.0795555 0.0399664 0.056809 0.116372 -0.312406 -0.53337 0.0771731 -0.418894 0.339413 0.0393118 0.0632887 -0.372374 0.267458 -0.362457 0.461363 0.577503 -0.457716 0.439117 -0.580134 -0.403699 0.309396 0.181033 -0.403989 0.0144362 0.169353 0.0837009 0.609919
606 0.467757 0.287289 0.45367 -0.0621721 0.372497 -0.106495 0.473796 -0.320226 0.119482 -0.284784 -0.000493694 0.347667 -0.27176 -0.0174237 0.670647 0.126137 -0.289524 0.392318 -0.431645 -0.330173 0.465776 0.30755 0.363193 -0.0215196 -0.102653 0.0962444 -0.393817 0.130569 0.207769 -0.447054 0.58477 0.313247
304 0.270059 0.438338 -0.000755879 -0.354011 0.14879 0.507051 0.325516 -0.409845 0.57848 -0.342563 0.135496 0.00631568 0.239547 0.491528 0.138936 0.23601 0.235252 0.571254 -0.216309 -0.143488 0.399352 -0.378648 -0.133316 -0.0991686 0.253387 -0.209145 -0.507333 0.328397 0.145219 0.167997 -0.00256325 0.408023
352 0.355506 -0.0018617 0.430938 -0.0393356 0.284069 0.30801 0.109058 -0.150861 -0.289559 -0.213889 -0.169714 -0.180391 -0.0491125 0.345625 0.431577 -0.229184 0.24948 0.966584 -0.0790115 0.271327 0.342849 -0.263569 0.191111 -0.535594 -0.213792 -0.169157 0.0938963 0.109455 0.231982 -0.40506 0.138126 0.269014
117 0.336143 -0.197559 0.078956 -0.0048941 0.342272 0.523832 -0.0442984 -0.201968 0.231888 -0.332375 -0.0736807 0.110495 0.251736 0.319124 0.272161 -0.25971 0.269037 0.740386 -0.268783 0.18196 0.231637 -0.24205 -0.200766 -0.680576 -0.262255 -0.0287839 -0.608893 -0.354839 0.381442 0.0105697 0.155944 0.306948
687 0.355385 0.198324 0.337699 0.051002 0.126256 0.106566 0.126043 -0.257689 0.294157 -0.298292 -0.0267837 0.0151301 -0.135537 0.174735 0.144967 0.012094 0.0704793 0.44996 -0.294762 0.100998 0.374299 -0.346783 0.108558 -0.400588 -0.198854 -0.0153149 -0.062626 -0.183418 -0.0336317 -0.22961 0.238823 0.466089
708 0.413825 0.269434 -0.300942 -0.0254331 0.311438 0.0468882 0.103908 -0.160334 0.502109 -0.588579 0.0164851 0.00211201 0.0222564 0.130648 -0.36206 -0.353084 0.166452 0.627059 -0.411101 -0.0647668 0.423508 -0.400751 0.142716 -0.57868 -0.0516875 -0.0724685 -0.254701 -0.162415 0.223541 0.0762542 0.168776 0.201134
335 0.247774 0.320827 0.312034 0.0663488 0.0163453 0.229856 0.101238 -0.126338 0.40272 -0.207595 0.0210344 -0.043392 -0.253407 0.198355 0.394531 0.0845081 0.0916518 0.47085 -0.2165 -0.169152 0.252665 -0.592154 0.288637 -0.523219 -0.0743285 0.0755517 -0.122401 -0.196444 -0.147634 -0.210973 0.343031 0.403717
302 0.417134 -0.120692 0.165202 -0.120091 0.0413848 0.400752 0.313969 -0.198712 0.182659 -0.230773 0.061429 -0.24891 -0.32572 -0.0512803 0.304508 0.239722 -0.0276248 0.468983 -0.0684249 -0.0897625 0.550291 -0.498728 0.319632 -0.178615 -0.0361479 0.374459 -0.845887 0.161307 0.457331 -0.132262 -0.0624975 0.467767
704 0.296779 0.430931 0.196038 -0.205989 0.185511 0.100122 0.282165 -0.376525 0.211891 -0.463416 -0.228471 0.0393532 0.0458338 0.186737 0.0132844 0.106629 0.085989 0.322803 -0.207158 -0.0651432 0.252661 -0.144361 -0.0430202 -0.32458 -0.2191 0.0976014 -0.236234 -0.0920869 0.12557 -0.138871 0.293053 0.38498
535 0.390273 0.354487 0.205687 -0.143091 0.154793 0.119628 -0.0549543 -0.279954 0.198668 -0.195173 -0.257222 -0.094849 -0.209478 0.128631 0.0942387 0.162256 0.205787 0.388129 -0.185221 -0.140254 0.238466 -0.212128 0.296541 -0.29924 -0.13558 0.0850826 -0.11688 -0.166768 -0.0151321 -0.314567 0.250318 0.29145
35 0.23505 0.137865 0.155277 0.0571685 0.0626922 0.314138 0.0449629 -0.181596 0.220234 -0.362936 -0.138856 0.0890878 -0.198866 0.222567 0.0506466 0.0587729 0.306371 0.531397 -0.433298 0.0615257 0.115795 -0.388853 0.252745 -0.457059 -0.11845 0.0262706 -0.234684 -0.325359 0.101424 -0.173569 0.109377 0.588158
693 0.362172 0.0670334 0.591003 -0.504382 0.234003 0.281358 0.172498 -0.199851 0.667186 -0.232199 -0.248353 0.0856496 -0.0319631 -0.200081 0.358225 0.330509 -0.00931367 0.391245 -0.163864 -0.399777 0.484005 -0.116088 -0.255495 -0.31604 0.270266 0.192309 -0.575661 -0.392702 0.245946 0.0996139 0.411791 0.233529
16 0.218867 0.275158 0.199982 -0.00889747 0.395332 0.063532 0.113215 -0.206729 0.24931 -0.264693 0.0349044 -0.249677 -0.541873 0.0946382 0.0603335 0.0969109 -0.163347 0.44417 -0.534199 -0.0304237 0.196388 -0.284191 0.627731 -0.463078 -0.0850547 -0.266582 -0.0593838 -0.241429 -0.0362123 -0.390857 0.218001 0.540695
698 0.368319 0.188563 0.17626 -0.185436 0.209933 0.110168 0.286834 -0.254829 0.348195 -0.300467 -0.0927844 -0.0492163 -0.0172381 0.0472061 0.0229299 0.107696 -0.0817714 0.402295 -0.275413 0.125901 0.391759 -0.0751116 0.172108 -0.305335 -0.150178 0.0630362 -0.466622 -0.186118 0.227269 -0.193171 0.289652 0.410419
20 0.271111 -0.118815 0.143277 0.204926 0.281749 -0.203816 -0.0615585 -0.0347497 -0.0332775 -0.952816 0.255365 0.397689 0.153652 0.094182 -0.020853 0.168994 0.01586 0.355883 -0.19708 -0.38419 0.743528 -0.349607 0.117274 -0.397643 -0.532394 0.104633 -0.259834 -0.157305 0.0512687 -0.156086 0.385417 0.3864
297 0.392595 0.34802 0.176343 -0.0937061 0.227515 0.301761 0.166543 -0.133463 0.222477 -0.28094 -0.0199578 -0.0647282 -0.00203902 0.199139 0.14547 -0.0681313 0.109633 0.363596 -0.139493 0.113407 0.578741 -0.330619 0.167809 -0.405838 -0.175982 0.118677 -0.159062 -0.217406 0.0388788 -0.227722 0.1821 0.250857
690 0.152146 0.148211 0.117476 -0.115762 0.146697 0.1472 -0.0806378 -0.222791 0.0836851 -0.340993 0.0413107 0.0593011 -0.185481 0.253426 -0.179088 -0.0350991 0.160435 0.990796 -0.277755 -0.157195 0.247847 -0.0820535 0.000209894 -0.634963 -0.290679 -0.218828 0.140466 0.024255 0.232048 0.0709186 0.276487 0.513861
502 0.279872 0.227095 0.171153 -0.031314 0.230006 0.166036 0.0893975 -0.186544 0.201413 -0.301634 -0.127796 -0.003396 -0.139521 0.183545 0.0605942 0.0251694 0.0820656 0.553516 -0.305447 0.000787613 0.312465 -0.316622 0.215615 -0.432356 -0.199199 0.0140177 -0.164888 -0.209612 0.0797916 -0.152708 0.217291 0.394406
222 0.258853 -0.086679 -0.22092 -0.340413 0.342263 0.46785 -0.201824 0.064368 0.18172 0.00555152 0.130173 0.358194 0.0080694 -0.423573 -0.0842476 0.156743 0.531212 0.747468 -0.231363 0.0886106 0.743644 0.16579 0.356898 -0.616314 -0.447445 -0.170705 -0.604072 -0.364624 0.0731772 -0.193712 0.0396529 0.58973
19 0.460812 0.239068 0.119353 -0.153963 0.166524 0.116922 0.186283 -0.212346 0.357006 -0.218553 -0.00492405 0.0329239 -0.0564563 0.0467194 0.0522098 0.0516309 -0.0285061 0.379521 -0.123571 0.0102459 0.341958 -0.103846 0.156543 -0.366978 -0.138498 0.200661 -0.330572 -0.124005 0.24966 -0.239917 0.348363 0.412958
83 0.320409 0.347995 0.326345 -0.0105546 0.180688 0.300073 0.0515938 -0.288848 0.393205 -0.131112 -0.022247 -0.254159 0.132009 0.381243 0.17995 0.113048 0.349423 0.245347 0.0296156 0.135291 0.263257 -0.487391 0.171223 -0.420691 0.0447117 0.149711 0.042273 -0.17711 -0.177097 -0.325013 0.316673 0.165599
395 0.3878 0.212288 0.249159 -0.0702379 0.11698 0.104343 0.096573 -0.223924 0.375951 -0.278048 -0.0698473 -0.0920193 -0.0794814 0.0577851 0.041618 0.102231 0.110796 0.375103 -0.228799 -0.0215421 0.408631 -0.183427 0.202797 -0.360035 -0.0775215 -0.0286681 -0.205247 -0.102184 -0.0524895 -0.300867 0.324511 0.320764
718 0.528145 -0.0182233 0.361171 -0.114328 0.211409 0.296176 0.30016 -0.13187 0.307419 -0.104785 0.684633 0.0262154 -0.0168956 -0.0844753 0.150862 0.159028 -0.18241 0.503146 -0.019341 0.275169 0.317592 -0.199991 0.570396 -0.23476 -0.0939587 0.0308288 -0.350892 -0.403476 -0.10393 -0.437131 0.46355 0.494342
802 0.203498 -0.276493 0.338154 -0.422741 0.707193 0.197102 0.464003 -0.707451 0.464775 -0.148722 0.232378 0.0657473 -0.375093 0.374583 0.132367 -0.176206 0.23319 -0.0395578 -0.448674 0.227649 0.275077 0.174322 -0.155292 0.142037 -1.34087 0.0555635 0.431478 0.0874664 -0.0761244 0.0749952 0.053079 0.775632
715 0.00939911 0.255773 0.492295 0.0363774 0.0599589 -0.245292 0.198906 -0.523779 -0.497222 -0.766392 -0.137209 0.130446 -0.181415 0.204864 0.278696 -0.203706 0.00172902 0.271946 -0.438071 -0.280307 0.198855 -0.165373 0.359934 -0.62808 -0.199844 -0.0394411 -0.0238232 -0.0465359 0.269698 -0.377795 0.263067 1.0864
334 0.494142 0.409966 0.38058 -0.00611479 0.3046 0.423737 0.195379 -0.179357 0.424311 0.0804625 0.139201 0.164492 0.381184 0.433427 0.431317 -0.279815 0.168335 0.255803 -0.133714 0.387658 0.551116 -0.481435 0.0554485 -0.342455 -0.272112 -0.0253416 0.169103 -0.206548 0.0152949 -0.153639 0.0195134 0.584494
400 0.188193 0.0852384 0.204049 -0.127209 0.23219 0.319218 0.176084 -0.393768 0.132431 -0.316695 -0.0540608 0.0738519 -0.262135 0.129921 0.0128198 0.0459353 0.0912172 0.575249 -0.192817 -0.00595133 0.0454912 -0.18778 0.141834 -0.437725 -0.342974 0.0715213 -0.0149427 -0.221916 -0.00594431 -0.139798 0.0870142 0.523982
406 0.161949 0.178864 0.0429696 -0.445355 -0.235632 0.395979 0.284986 -0.257318 -0.081541 -0.299539 -0.209235 0.113179 -0.0389629 0.218489 0.63118 0.352111 0.282131 0.937672 0.0370689 0.319839 0.703776 0.0509186 0.133014 -0.415176 -0.358736 0.103413 -0.262608 0.217393 0.200431 0.220389 0.0923156 0.461942
358 0.27629 0.157222 0.160166 -0.206927 0.328462 0.328155 0.298395 -0.358816 0.326699 -0.30725 0.0787567 0.106918 -0.139973 0.163678 0.0291731 -0.00793954 0.0894961 0.342797 -0.171203 -0.0112495 0.372818 0.0239144 0.080195 -0.27497 -0.205146 0.13519 -0.229071 -0.0983593 0.169729 -0.105586 0.0829304 0.433583
713 0.195236 0.233088 0.243944 -0.406963 0.00179834 0.533121 0.113021 -0.45291 0.310708 -0.349602 -0.143098 0.465146 -0.279653 0.24744 0.457886 -0.0376229 0.0207426 0.278931 -0.388854 0.070324 0.104197 -0.00778929 0.227165 -0.122964 -0.161873 0.484288 -0.0123269 -0.411921 0.0862492 -0.360872 0.184193 0.747143
528 0.236105 0.157032 0.485188 -0.143495 -0.0352727 0.313432 0.239149 -0.176517 0.496026 -0.323602 0.248058 -0.123505 -0.119135 0.239755 0.118725 -0.0415626 0.0339581 0.446875 -0.175654 0.0856669 0.484988 -0.091518 0.140303 -0.500951 0.17289 -0.000415321 -0.0988481 -0.185718 -0.0507952 -0.227693 0.36021 0.612405
149 0.230747 0.0876226 0.0417758 -0.376062 0.357532 0.290742 0.414976 -0.455523 -0.0416735 -0.484659 0.0603088 0.0447092 -0.0449997 0.373859 0.0142612 -0.112726 -0.0449823 0.589169 -0.138829 0.181096 0.41971 0.132018 -0.0524734 -0.306068 -0.300593 0.0857008 -0.136742 -0.124944 0.196388 -0.132481 0.124329 0.43919
146 0.0699247 0.590006 0.457374 -0.200942 0.44481 0.241911 0.172556 -0.372067 0.078098 -0.447844 -0.116801 -0.250609 0.0734176 0.24217 0.0112711 -0.315772 0.214301 0.191285 -0.095354 -0.188403 0.486687 -0.356296 0.215209 -0.612822 -0.0899626 0.116686 0.0146649 0.116194 0.651085 0.224773 -0.242781 0.547743
249 0.240712 0.225758 0.209017 -0.143436 0.211447 0.215376 0.167328 -0.310338 0.187123 -0.254938 -0.021757 -0.0202543 -0.136454 0.182485 0.0467663 0.0149819 0.0601468 0.377696 -0.105115 -0.0438445 0.236223 -0.148917 0.127213 -0.278764 -0.198236 0.101883 0.00118487 -0.0979193 0.0105216 -0.134678 0.110398 0.375131
110 0.528702 -0.398767 0.173092 -0.0802573 0.899269 0.489921 0.545041 -0.200173 0.418355 -0.666947 0.734366 -0.194251 -0.155684 0.285673 0.0106179 -0.496197 -0.199593 0.587148 -0.177768 -0.0274029 0.954426 0.0648612 0.429932 -0.282701 -0.334211 0.401648 -0.39483 0.0613256 0.358273 -0.267322 0.0267674 0.0467862
509 0.266924 0.329178 0.232257 -0.117252 0.230367 0.204162 0.175954 -0.257466 0.229073 -0.332401 -0.00317719 -0.0333081 -0.126853 0.188533 0.05047 -0.0426579 0.0356708 0.417052 -0.233382 0.00701574 0.382891 -0.128056 0.120874 -0.382206 -0.187108 0.0574612 -0.0475201 -0.170326 0.093554 -0.152043 0.179003 0.456069
610 0.285399 0.212675 0.196561 -0.180316 0.242944 0.191141 0.314288 -0.35055 0.222813 -0.231175 0.0775017 0.0931827 -0.0616866 0.222604 0.0917756 0.0959095 -0.0172933 0.43049 -0.142954 -0.0118785 0.318342 -0.0869304 0.0983995 -0.298405 -0.215655 0.111703 -0.121749 -0.110493 0.0643072 -0.201286 0.201505 0.461791
581 0.255943 0.249719 0.301792 0.168062 -0.116168 0.385058 0.165756 -0.150544 0.244605 -0.474417 0.260009 0.293103 0.0415949 0.181478 0.434241 0.11186 -0.161635 0.496841 0.15242 -0.145737 0.429414 -0.558842 0.219062 -0.47552 -0.423517 0.107406 0.026318 0.172698 -0.164746 -0.087167 0.0496628 0.5624
640 0.306955 -0.332377 -0.0642078 -0.0352604 0.742088 0.397278 0.278515 -0.208675 0.256845 -0.663461 -0.21429 0.0168177 -0.452383 0.61467 -0.169878 0.22743 -0.214089 0.609769 -0.329854 0.0145475 0.239892 -0.743611 0.103738 -0.102511 -0.135329 0.122147 -0.617335 -0.174553 0.0676257 -0.0430175 -0.179116 0.501383
312 0.287362 0.335012 -0.0172293 -0.234327 0.392026 0.352547 0.191386 -0.4557 -0.0198628 -0.741407 -0.359834 0.162617 0.134524 0.260971 -0.0638401 -0.121005 0.314984 0.0107216 -0.0810688 0.713628 0.41539 0.0885628 0.375422 -0.466031 -0.38251 0.0750793 -0.265741 -0.208672 0.171883 -0.448067 -0.216916 0.620373
135 0.196791 0.372784 0.102099 -0.138329 0.243008 0.345537 0.0551223 -0.201271 0.176423 -0.250527 0.211388 0.176969 -0.19771 -0.0170947 0.0761657 0.147007 0.0131842 0.246538 -0.0983226 0.319493 0.574817 -0.239526 0.494277 -0.629977 -0.309091 -0.0566978 0.0570439 -0.379319 0.266184 -0.204478 -0.0218094 0.648319
161 0.202669 0.104688 0.358028 -0.243289 0.66244 0.590407 -0.113632 -0.320278 0.336038 -0.175403 -0.2396 0.120632 -0.104812 0.0301851 0.235966 -0.104109 -0.0306056 0.340077 -0.054943 -0.0640317 0.531205 0.10682 0.470108 -0.523623 -0.267825 0.203342 0.00946894 0.108819 -0.0544604 -0.582298 0.137465 0.125714
184 0.407689 0.475564 -0.39076 -0.556944 0.862821 0.559412 0.34564 -0.292336 0.114494 -0.577627 -0.186528 -0.173856 0.0524488 0.344882 -0.152223 -0.461642 0.685853 0.166869 -0.586623 0.151125 0.560661 0.0479619 0.407199 -0.182875 0.128517 0.197653 -0.168297 -0.436237 0.166748 -0.186411 -0.0468373 0.342694
372 0.26661 -0.126114 0.378968 -0.0872539 0.47227 0.382761 0.379195 -0.443304 0.31136 -0.580282 -0.040632 0.193892 0.0084623 0.0559972 0.211077 -0.156256 -0.0672765 0.444514 -0.250343 -0.0153628 0.103505 -0.213472 0.174164 -0.284266 -0.223353 0.0892273 -0.318861 -0.0199578 0.492925 -0.138068 0.0862752 0.616912
417 0.28257 0.303654 0.324766 -0.134802 0.229454 0.270853 0.22771 -0.29687 0.160628 -0.18589 0.0696471 0.00807523 -0.191356 0.264751 0.229744 -0.00906905 0.0330881 0.364077 -0.129887 -0.007399 0.380735 -0.163616 0.166271 -0.363852 -0.232382 0.130961 -0.00334714 -0.220138 0.0296514 -0.216064 0.105821 0.474019
486 0.0543464 0.594078 0.416818 -0.327948 0.590035 0.168985 0.477005 -0.603226 -0.0784914 -0.445357 0.0736843 0.545142 0.250086 0.171739 0.415012 0.0680242 -0.0741289 0.0556668 -0.122479 -0.208209 0.396473 0.0940524 0.152751 -0.410065 -0.521057 -0.0618563 -0.138888 -0.0268756 0.346816 -0.323321 0.092588 0.53941
392 0.25805 0.131542 0.114005 -0.071828 0.212761 0.413646 -0.162217 -0.279538 0.122834 -0.170579 -0.159838 0.0287229 -0.204401 0.305319 0.119446 -0.174605 0.293364 0.353002 -0.259133 0.0847727 0.579622 0.159211 0.321438 -0.612356 -0.384094 -0.0520346 -0.214566 -0.629599 0.199037 -0.258887 -0.0875936 0.485003
592 0.305576 0.0875947 0.26987 -0.171396 0.180184 0.214261 0.310116 -0.215705 0.405905 -0.219223 0.0697347 0.159602 -0.23215 0.192836 0.165819 -0.102717 -0.17464 0.37379 -0.295236 0.0706868 0.383802 -0.0973288 -0.0334437 -0.21429 -0.197584 0.42032 -0.132374 -0.293835 0.298198 -0.185298 0.161411 0.587245
803 0.488603 0.609767 0.793888 -0.647146 0.409442 -0.705342 -0.456233 -0.576692 -0.206465 -0.118296 0.0441895 -0.0872774 0.0961551 0.177072 -0.365865 -0.0627195 0.120409 0.893578 -0.151664 0.12051 0.0558278 -0.381086 0.548642 -0.63657 -0.0087548 0.127671 0.0119268 0.437015 -0.41625 0.735478 0.630078 0.0349521
382 0.355188 0.546767 0.324482 -0.0452873 -0.169323 0.0155668 0.0946305 -0.117672 0.31383 -0.331874 -0.279651 0.137605 -0.0411309 0.279202 0.226477 0.336102 0.119183 0.477542 -0.048197 0.0576438 0.385512 -0.554339 0.0657758 -0.346693 -0.210591 0.031972 -0.00277229 0.174554 -0.255297 0.135123 0.259714 0.410782
357 -0.122362 0.213847 0.849832 -0.367599 0.255714 0.515887 -0.00779415 -0.289144 0.290404 -0.403955 -0.0178368 -0.172599 -0.489508 0.101324 0.292057 0.31365 -0.0646876 0.477121 0.0931832 -0.224719 -0.0744668 -0.568821 0.427744 -0.546233 -0.292922 0.212692 0.325298 -0.264246 -0.214243 -0.116021 0.325194 0.466842
223 0.248691 0.215254 0.129014 -0.131828 0.270949 0.241107 0.162466 -0.263431 0.192945 -0.347458 0.00330704 0.103168 -0.160268 0.0281712 -0.0913759 0.11208 0.122441 0.509468 -0.213445 -0.135451 0.224909 -0.0862715 0.22556 -0.428513 -0.284297 0.010637 -0.133308 -0.0188436 0.161263 -0.0934245 0.10798 0.449736
534 0.337295 -0.0270334 0.622866 0.0101874 0.370523 0.324531 -0.0626085 -0.217242 0.64866 -0.612849 0.06761 -0.656204 0.0845243 0.28647 -0.159791 -0.319607 0.181691 0.387221 0.0473237 0.0335959 0.47161 -0.491053 0.302393 -0.658651 -0.0290543 -0.394642 0.118727 -0.00337531 0.0443554 -0.239376 0.162445 0.268426
68 0.235108 0.138834 0.726872 -0.437187 0.30715 0.0244817 -0.00219017 -0.60706 0.234525 -0.306606 -0.415164 -0.106755 0.0350286 -0.118583 0.229973 0.490149 0.0611117 0.627766 0.0158174 -0.528302 0.0252167 0.0355402 0.332175 -0.316172 0.00036662 -0.139154 -0.257163 0.298248 -0.223859 -0.369504 0.649431 0.182268
618 0.257053 0.246492 0.274413 -0.146691 0.145188 0.0374095 0.0709198 -0.240395 0.192405 -0.24295 -0.126124 -0.111411 -0.143612 0.063088 0.0433717 0.129143 0.102935 0.386288 -0.0691484 -0.122818 0.231969 -0.203603 0.158816 -0.343765 -0.1747 0.00365518 -0.0430155 0.0312863 -0.009655 -0.157456 0.215205 0.253385
666 0.345742 0.662997 0.134237 0.381938 -0.356352 -0.177913 0.0208056 -0.0167813 0.576731 -0.499857 -0.27401 0.168506 -0.314154 0.195533 0.171832 0.154315 0.00664155 0.201687 -0.101432 -0.0823556 0.588021 -0.650141 0.230809 -0.575048 -0.216276 0.0996741 0.104012 0.0431227 -0.350509 0.176413 0.390233 0.587544
621 0.288326 0.356122 0.421281 -0.134825 0.0872632 0.0307892 0.0165185 -0.263457 0.221102 -0.252943 -0.13931 -0.0934513 -0.12782 0.0830585 0.0814361 0.153618 0.126788 0.445292 -0.135461 -0.15842 0.276262 -0.200395 0.128426 -0.365006 -0.200898 -0.0240698 0.018296 -0.0219438 -0.0568828 -0.20034 0.259671 0.271444
364 0.228794 0.304706 0.385024 -0.0791786 0.183386 0.215335 0.17868 -0.233679 0.185087 -0.278479 -0.0732824 -0.0137997 -0.201455 0.230257 0.271005 0.0288288 0.170155 0.523354 -0.0925912 -0.0581584 0.226146 -0.234774 0.148948 -0.355783 -0.168254 0.0296769 -0.0699545 -0.100364 -0.0590279 -0.0354021 0.172156 0.434989
348 0.289676 0.237881 0.493856 -0.246655 0.172076 0.00364121 0.0247256 -0.362839 0.318579 -0.445299 -0.0656677 -0.203501 -0.206828 0.0505036 -0.13632 0.270319 0.13972 0.443021 -0.0839539 -0.161427 0.260754 -0.0682953 0.218522 -0.307411 -0.0902799 -0.126114 -0.0331919 0.151641 -0.0974768 -0.198089 0.408728 0.275954
211 0.160213 0.265835 0.0692028 0.0828645 0.255537 -0.00620188 0.0661675 -0.181703 0.1041 -0.610024 -0.34014 0.308814 0.19326 -0.313846 -0.171498 0.0234338 -0.0666091 0.664731 -0.38061 -0.108196 0.152618 -0.619921 0.346198 -0.774509 -0.457288 -0.242036 -0.0157645 0.0119884 0.165541 0.0199207 0.392886 0.350295
631 0.257655 0.238962 0.223339 -0.109956 0.0996493 0.0649975 0.0367098 -0.235303 0.191649 -0.253367 -0.114134 -0.0919832 -0.106087 0.127999 0.0276189 0.103236 0.136038 0.398363 -0.0697059 -0.129133 0.20006 -0.270458 0.120646 -0.317534 -0.207721 0.0550701 -0.010855 -0.0409104 -0.0379148 -0.12981 0.191091 0.238663
526 0.156899 0.113496 0.379696 -0.397325 0.0590747 0.148096 -0.231814 -0.385156 -0.135641 -0.489652 -0.0380966 0.0195085 -0.355902 0.41316 0.311212 0.310354 0.481259 0.883455 -0.119512 -0.240532 0.105758 -0.287809 0.271647 0.0453385 -0.16974 0.150442 0.168135 0.0390507 -0.160032 -0.269194 0.545496 0.17038
3 0.235197 0.313235 0.244701 -0.159635 0.23068 0.0792083 0.0656848 -0.316944 0.309577 -0.426957 -0.117148 -0.0392768 -0.116583 0.125181 -0.0156028 0.0178834 0.103082 0.429216 -0.123007 -0.141387 0.309482 -0.216143 0.160808 -0.461081 -0.248317 -0.0736835 0.0928591 0.0614891 0.0274181 -0.113617 0.132596 0.350519
89 0.230745 0.659914 0.256574 -0.267599 -0.53302 -0.227777 -0.100659 -0.27733 0.449858 -0.715308 0.000889585 0.114972 0.258134 0.204228 -0.0699637 0.346905 0.359661 0.271716 -0.155222 0.0358715 0.629094 -0.000452014 -0.136007 -0.5622 -0.184659 -0.16796 -0.228214 0.214884 -0.156895 -0.250249 0.417904 0.525349
638 0.220053 0.267225 0.237107 -0.145989 0.124357 0.0196262 0.0687102 -0.252133 0.192896 -0.281719 -0.057431 -0.0579698 -0.0873596 0.0946842 0.0354763 0.132012 0.159805 0.439077 -0.103413 -0.105891 0.284026 -0.202818 0.150584 -0.303349 -0.254436 -0.0198565 -0.00201532 0.00818814 0.0168978 -0.136392 0.15424 0.25363
379 0.0942293 0.335295 0.575704 -0.34058 0.196396 0.219684 0.0452338 -0.318027 0.215882 -0.303282 -0.217779 -0.155827 -0.126016 0.0587308 0.127256 0.277031 0.0791566 0.41327 0.0227549 -0.256502 0.114211 -0.194608 0.195113 -0.459344 -0.185031 0.0755741 0.054754 0.0516615 -0.107384 -0.286366 0.291069 0.277798
804 0.358078 0.650732 0.566825 -0.42165 -0.0405484 -0.357023 0.380057 -0.0407958 -0.765541 0.125179 0.338671 -0.38692 -0.344777 0.553895 0.20919 0.308719 0.106013 0.399232 -0.132863 -0.140876 0.723356 -0.110953 -0.582295 0.146318 -0.567699 0.00624039 -0.340507 0.381353 0.192301 -0.324344 0.272745 1.34004
127 0.298981 0.454214 0.286472 -0.0934401 0.00481147 0.132395 0.226265 -0.156964 -0.0300965 -0.22099 0.0425482 -0.0706485 -0.201764 0.233641 0.282355 0.152439 0.0954933 0.443868 -0.126096 -0.101935 0.49861 -0.249756 0.211694 -0.285368 -0.232396 0.0538861 -0.119087 -0.0959828 -0.00116313 -0.115434 0.284248 0.540474
173 0.19725 0.257253 0.353104 -0.359763 -0.0332338 -0.0638428 0.166141 -0.167382 -0.166998 -0.284128 0.288147 0.176101 0.0666319 0.0315277 0.172326 0.396763 0.155145 0.45011 -0.101983 -0.15239 0.627504 0.0491055 0.214757 -0.19668 -0.354394 0.0881559 -0.442958 -0.235664 0.155184 -0.233128 0.35529 0.5397
424 0.307362 0.450119 0.232432 -0.0972811 0.0378304 0.196878 0.213456 0.00189745 -0.0718454 -0.237774 0.175425 -0.14844 -0.0710922 0.414344 0.300112 0.0593591 0.212406 0.505104 -0.136132 0.0753943 0.704627 -0.242214 0.133907 -0.279235 -0.166425 0.0805793 -0.260589 -0.145808 -0.0104621 -0.126864 0.170952 0.461977
580 0.222629 0.378001 0.105041 0.0171399 -0.271909 0.165815 0.33314 -0.0250423 -0.209632 0.0389524 -0.139984 0.0859189 -0.00376273 0.200945 0.31858 0.390864 0.268807 0.709789 -0.189596 -0.193536 0.486715 -0.0823623 0.0459748 -0.539596 -0.125436 -0.329735 -0.393872 -0.114187 -0.282653 -0.0106139 0.478369 0.881896
671 0.227713 0.653446 0.186249 -0.0721792 -0.152078 -0.0704053 0.204187 -0.00353166 0.00461973 -0.38364 -0.178477 0.272826 0.0348223 0.364105 0.348218 0.593339 0.0358236 0.362948 -0.0428648 0.0819951 0.679057 -0.333967 0.0375195 -0.293223 -0.547765 0.165613 -0.229545 -0.167757 -0.120021 -0.0632407 0.237485 0.469952
811 0.520165 0.151081 -0.299441 -0.356651 0.766032 -0.261054 -0.263986 -0.0745266 0.52374 -0.369757 0.324816 0.289818 0.279301 0.453441 -0.313371 -0.029592 0.254873 1.48207 -0.532775 -0.448837 -0.0421135 -0.346924 -0.357238 0.594109 -0.389634 0.340091 0.452246 0.0181677 0.147583 -0.490121 0.0259802 0.491682
373 0.517386 0.417267 0.110355 0.0486252 0.55933 0.384006 0.13379 -0.202519 0.20909 -0.424141 -0.232338 -0.0432238 0.268297 0.500291 0.0256061 -0.0944351 0.646556 0.593846 -0.262733 -0.412733 0.219035 -0.321662 0.0392147 -0.0881969 0.0862944 0.21023 -0.0515177 0.202633 -0.194982 -0.294927 0.283338 0.0163146
138 0.253182 0.254567 0.0214384 -0.128861 0.205151 0.13931 0.161116 -0.261176 0.173803 -0.301885 -0.0183155 0.010478 -0.0209559 0.238199 -0.0507476 -0.0128392 0.155279 0.384535 -0.109173 -0.104229 0.222178 -0.11809 0.0434547 -0.227296 -0.202058 0.137808 -0.0531716 -0.0213994 0.0393056 -0.0950068 0.119539 0.257204
201 0.30506 0.342521 0.137389 -0.182697 0.381299 0.215588 0.368642 -0.259471 0.0758657 -0.372445 0.146445 0.181037 0.00431413 0.12544 0.0460995 0.00989697 0.0740605 0.672813 -0.141821 -0.222072 0.416667 -0.064193 0.00664355 -0.313273 -0.299225 0.0415431 -0.183268 0.181734 0.0911666 0.0163518 0.210118 0.300882
285 0.370372 0.547718 -0.00371304 -0.0950765 0.568215 0.525316 0.295626 -0.223725 -0.0635981 -0.492881 -0.278092 0.127338 0.273183 0.352539 0.0159118 -0.0452641 0.360406 0.83753 -0.404014 0.17252 0.0596499 -0.450722 -0.101988 -0.193104 -0.189292 -0.132855 0.0254208 -0.285064 -0.0748754 0.170285 0.385001 0.305329
506 0.373333 0.311201 -0.382485 -0.084738 0.681287 0.537669 0.275406 -0.378033 0.229304 -0.640078 -0.00503961 0.613318 0.220099 -0.102377 -0.0477554 -0.204023 0.605019 0.549311 -0.578555 -0.225569 -0.0218406 -0.294906 0.44674 -0.306162 -0.0980517 0.171333 -0.227273 0.145027 -0.0560273 -0.124581 0.272186 0.355435
806 0.524025 -0.231157 0.347467 -0.345271 -0.221376 -0.153752 0.735769 -0.372501 0.471224 -0.0618113 -0.237235 -0.0937372 -0.0916351 -0.395147 0.137032 0.0708156 -0.464053 0.945963 -0.437597 -0.142124 0.711094 0.202992 0.100481 0.242196 -0.282355 0.365448 -0.351476 -0.0930574 0.0383324 -0.672499 -0.300911 0.17015
616 0.361581 0.167282 0.576006 -0.287461 0.0370682 0.106152 0.16349 -0.0726888 0.140042 -0.579678 -0.0437833 -0.100126 -0.178792 -0.236281 0.137702 0.487704 0.33919 0.624057 -0.105893 -0.0493695 0.0850258 -0.0775347 0.424924 -0.22963 -0.118478 -0.136622 -0.436984 0.198895 0.0701299 0.0189718 0.314023 0.467821
120 0.155813 0.235295 0.530245 -0.741823 0.741727 0.28737 0.247859 -0.366014 0.462215 -0.412285 -0.751867 -0.0317853 0.0908244 -0.438978 0.124272 0.30604 -0.223743 0.743039 -0.0696706 -0.396529 -0.0250617 0.104171 0.289677 -0.332814 -0.122821 0.0633334 -0.167663 0.240593 0.20803 -0.317039 0.422279 -0.0531413
689 0.371451 0.512578 0.130865 -0.669184 0.303239 0.314887 0.374743 -0.479176 0.183645 -0.113364 0.151619 0.345685 0.23623 0.0565913 0.503214 0.447601 0.285819 0.187974 0.002729 0.290032 0.702437 0.130342 0.348444 -0.242888 -0.298187 -0.0044307 -0.362516 -0.0565267 0.380038 -0.374383 -0.0900969 0.271114
512 0.273896 0.283213 0.362447 -0.00777919 -0.390654 0.0883736 -0.187521 -0.0755288 0.561881 -0.464408 -0.472528 0.135345 0.567363 0.454893 0.123106 0.147869 0.280488 0.580391 -0.0361145 0.230668 0.676556 -0.0257868 -0.346616 -0.504822 -0.0668185 0.25763 -0.548671 0.428921 -0.0202545 -0.334118 0.487372 0.207999
236 0.30563 0.157879 0.132245 -0.209715 0.165995 0.10746 0.244752 -0.222708 0.223686 -0.212369 -0.0217451 0.0452139 -0.0406586 0.084 0.088356 0.095404 -0.0359615 0.410352 -0.131413 -0.0205648 0.311699 -0.0558725 0.106141 -0.267057 -0.228204 0.171112 -0.262093 -0.121728 0.105412 -0.184179 0.217004 0.332471
200 0.358248 0.128786 0.0970114 -0.251597 0.234011 0.159539 0.27974 -0.24798 0.250653 -0.217284 -0.0398803 0.0256094 -0.0470942 0.0107077 0.0441692 0.104775 -0.0586269 0.4738 -0.144595 0.0105654 0.325717 -0.0688723 0.14961 -0.303001 -0.225374 0.13187 -0.336357 -0.0794165 0.170779 -0.217575 0.207849 0.361014
295 0.329214 0.103838 0.226098 -0.0326367 0.092676 0.198248 0.115072 -0.0991297 0.408747 -0.237256 0.13695 0.0524662 -0.146291 0.154529 0.13823 -0.0231421 -0.0661777 0.53452 -0.285421 -0.0346607 0.354134 -0.337196 0.19369 -0.478387 -0.0974647 0.115838 -0.225323 -0.227524 0.185249 -0.278148 0.338403 0.540865
454 0.384499 0.281066 0.17942 -0.183315 0.0582849 0.152909 0.17954 -0.306408 0.336234 -0.121566 -0.0799527 -0.0554416 0.123164 0.211844 0.0471132 0.00878311 0.0988339 0.360991 -0.17057 0.0693016 0.397151 -0.0566299 0.146328 -0.362278 -0.147341 0.0735698 -0.329596 -0.116047 0.234927 -0.267447 0.106825 0.348567
612 0.340323 0.0846026 0.121153 -0.25502 0.14251 0.115251 0.249867 -0.275847 0.284053 -0.213828 -0.0275288 0.0185648 -0.0633343 0.0595931 0.0285689 0.0870164 -0.0616866 0.450823 -0.137334 -0.0648463 0.347102 -0.0132371 0.134667 -0.296506 -0.22183 0.191444 -0.310818 -0.102099 0.192076 -0.191282 0.256213 0.389654
508 0.525254 0.0351139 0.325166 -0.179043 0.48226 0.255571 0.339657 -0.13113 0.503322 -0.049492 -0.0154802 0.0988849 0.204565 0.281354 0.241032 -0.277677 -0.21849 0.259585 -0.197164 0.509951 0.429107 -0.251129 0.303219 -0.248567 -0.379499 -0.163739 -0.374515 -0.399173 0.141786 -0.466853 0.273787 0.485584
180 0.484096 0.0899058 -0.0169337 -0.174807 0.254622 0.118527 0.314538 -0.15339 0.215832 -0.259857 0.126349 0.0286365 0.0601841 0.0539329 0.0459556 0.0621463 -0.0616705 0.588249 -0.140511 0.0724706 0.477053 -0.0849079 0.19753 -0.303942 -0.299023 0.0606982 -0.409178 -0.0585625 0.151115 -0.2088 0.303282 0.380537
282 0.496348 0.21621 -0.169891 -0.0671739 0.490068 0.113795 0.615443 -0.15469 0.313842 -0.459502 0.39624 0.408662 0.303636 0.530183 0.12874 0.0234543 -0.306565 0.609838 -0.235817 0.149719 0.630907 -0.0576398 -0.268909 -0.0898851 -0.43923 0.0844273 -0.385199 0.0503994 0.0892137 0.112328 0.224539 0.39593
279 0.351432 0.0712746 0.123922 -0.195583 0.208813 0.136871 0.29319 -0.19272 0.256006 -0.246196 -0.0191277 0.0679068 -0.0519335 -0.0182189 0.040821 0.140795 -0.0822018 0.522566 -0.167546 0.0214423 0.375773 -0.0787844 0.252996 -0.314276 -0.206356 0.140542 -0.362893 -0.123511 0.22587 -0.213869 0.276586 0.410931
270 0.508587 0.0608472 0.0909087 -0.148753 0.256539 0.201866 0.260809 -0.152019 0.465317 -0.248605 0.0111654 -0.0208633 -0.123672 -0.0138055 -0.0883901 0.0494771 -0.124845 0.456715 -0.326678 -0.0295747 0.531921 -0.0697874 0.196963 -0.350468 -0.0401733 0.119448 -0.534822 -0.258269 0.217528 -0.332642 0.346758 0.340558
677 0.367284 0.0957257 0.0948103 -0.181041 0.198598 0.0759486 0.200439 -0.200456 0.272702 -0.236007 -0.0544187 0.0229799 -0.0420749 0.0348811 0.0353781 0.0491523 -0.015847 0.439608 -0.159588 -0.0249733 0.328841 -0.154379 0.182461 -0.264613 -0.224491 0.112775 -0.332661 -0.109886 0.167506 -0.201666 0.235927 0.306334
170 0.201629 -0.239185 0.219479 -0.307552 0.557405 0.404427 0.14716 -0.196138 0.387251 -0.414381 -0.203168 0.182442 0.705303 -0.140281 -0.167729 0.225458 0.212433 0.571076 -0.118919 -0.00674633 0.272859 -0.204807 0.118142 -0.78701 -0.295033 0.0211859 -0.7025 -0.326188 0.283259 -0.321381 0.18291 0.0499187
340 0.243629 0.181718 0.189252 -0.194367 0.0511688 0.0259762 0.238752 -0.186973 0.0813587 -0.282975 -0.00427973 0.0870021 -0.00336814 0.197078 0.116212 0.233159 0.0134198 0.413886 -0.105811 -0.0423412 0.39814 -0.0595969 0.1273 -0.278308 -0.226031 0.14742 -0.295765 -0.148748 0.0977722 -0.177247 0.2885 0.427846
240 0.360161 0.141646 0.129193 -0.17532 0.164141 0.115345 0.230893 -0.245801 0.285865 -0.223834 -0.0481825 -0.00637349 -0.121513 0.00604378 0.0239297 0.13887 -0.0147308 0.431169 -0.110471 -0.0604353 0.31695 -0.0962862 0.204524 -0.318994 -0.231266 0.156667 -0.27326 -0.0715574 0.171914 -0.192418 0.251692 0.341098
238 0.364571 0.374421 0.285061 -0.264875 0.125512 0.164698 0.277061 -0.185239 -0.0916231 -0.110117 -0.115524 0.0736652 -0.162467 -0.0739115 0.308141 0.178999 0.123603 0.664809 -0.239173 -0.216154 0.308005 -0.00300245 0.301715 -0.228967 -0.081813 -0.00330355 -0.206075 0.0347804 -0.0680801 -0.320015 0.451341 0.428953
46 0.335738 0.170421 0.193113 -0.186301 0.179205 0.124681 0.194924 -0.200677 0.244184 -0.159569 -0.0623535 0.00508523 0.0173892 0.0706154 0.124 0.154812 0.0139049 0.374322 -0.099905 -0.0355589 0.292069 -0.115994 0.168102 -0.2819 -0.187215 0.0913368 -0.232674 -0.0493142 0.0910726 -0.213945 0.280676 0.295897
807 0.617795 0.249943 -0.151387 -0.0228844 0.0978136 0.761195 0.0649429 -0.605189 0.286473 -0.0653772 0.0558494 -0.887601 -0.0254686 -0.130161 0.0870175 0.559835 0.142439 0.12761 -0.0284324 -0.375652 0.340677 -0.38545 -0.172638 -0.134784 -0.277222 0.327964 0.174016 -0.367912 0.0666663 0.328097 0.416465 0.357974
166 0.397436 0.198945 0.303327 -0.0130403 0.24348 0.322147 0.199671 -0.14845 0.430961 -0.130089 -0.038733 -0.0812788 -0.0618487 0.249662 0.282523 -0.103393 0.203533 0.366861 -0.0214181 0.0151125 0.25542 -0.595574 0.198947 -0.505329 -0.122654 0.114164 -0.24139 -0.198571 0.0421397 -0.232543 0.116017 0.346019
518 0.0864798 0.533884 0.683076 -0.477081 -0.215879 0.230387 0.527752 -0.135296 -0.252391 -0.70329 0.162528 0.104101 -0.118804 0.129652 0.534188 0.149976 0.278616 0.593056 -0.0299557 -0.108733 0.0772778 -0.634968 0.0842767 -0.204079 -0.286 0.0502762 -0.0300496 -0.044405 0.226853 0.0557533 0.212754 0.67688
167 0.427822 0.366381 0.358418 0.230198 -0.0041548 0.0756108 0.0953373 -0.118068 0.482405 -0.0906986 -0.487356 0.112317 -0.0871024 0.42184 0.406716 0.0195984 0.0637581 0.254192 -0.384709 0.0429612 0.364373 -0.505294 0.0485248 -0.380691 -0.15578 0.119213 -0.054253 -0.29573 0.0856172 0.011876 0.324252 0.488164
64 0.32864 0.158991 0.307777 0.0174026 0.191844 0.147952 0.0851586 -0.149144 0.21406 -0.343044 0.00133445 -0.280588 -0.0829327 0.23039 0.283313 -0.0523262 0.0949832 0.414827 -0.0816507 -0.0667794 0.400338 -0.633881 0.322286 -0.329184 -0.0817798 0.164843 -0.246312 -0.119429 0.147757 -0.0914983 0.0922176 0.388872
118 0.35841 0.266698 0.253862 -0.12571 0.181521 0.261938 0.1696 -0.201495 0.231266 -0.236772 -0.0597671 -0.187138 -0.176709 0.199979 0.18989 0.0674673 0.144011 0.422744 -0.10114 -0.0627769 0.343875 -0.380517 0.208126 -0.321809 -0.159365 0.0878821 -0.158497 -0.171056 0.0237281 -0.166085 0.190583 0.277607
548 0.226722 0.22937 0.275205 -0.103485 0.129501 0.300953 0.0937743 -0.142735 0.386616 -0.249226 -0.0181769 0.101853 -0.0847503 0.27569 0.329682 0.1774 0.280677 0.404499 -0.0985538 -0.182918 0.434689 -0.520624 0.199579 -0.333171 -0.189524 0.269778 -0.152111 -0.159317 0.0922851 -0.157379 0.220462 0.271762
436 0.312781 0.261603 0.429994 -0.198144 0.0921239 0.144595 0.120031 -0.290984 0.338236 -0.205273 -0.0203706 -0.280943 -0.0944888 0.234528 0.0967448 0.0986266 0.203935 0.417314 -0.114694 -0.0330129 0.413619 -0.161038 0.182879 -0.387376 -0.0975972 0.0078659 -0.169299 -0.148992 0.00624121 -0.313578 0.22952 0.321844
53 0.287333 0.2145 0.135532 -0.0799043 0.175636 0.157945 0.0946024 -0.181965 0.140944 -0.125723 -0.097225 -0.112261 -0.126894 0.193214 0.164349 0.0978029 0.16658 0.321539 -0.097526 -0.058244 0.222887 -0.238256 0.164707 -0.261994 -0.180977 0.0933767 -0.159388 -0.121358 0.0153911 -0.155464 0.181329 0.266829
376 0.152165 0.334282 0.264389 -0.341421 0.409876 -0.0384556 -0.351774 -0.253559 0.356086 -0.504985 -0.456756 -0.251597 -0.436689 0.446092 -0.0745787 0.493379 0.0954598 0.11292 -0.197525 0.0948814 0.490428 0.0331327 0.501235 -0.230023 0.0943812 0.415828 0.0135088 -0.43818 -0.00386214 -0.454297 0.36842 0.149889
296 0.304879 0.0667066 0.233547 -0.16789 0.418369 0.191366 -0.164379 0.0385221 0.00919233 -0.25845 -0.487474 -0.147675 0.195478 -0.283296 0.0696577 0.181257 0.0195283 0.665018 -0.15266 -0.0611524 0.508545 -0.0212715 0.509685 -0.468449 -0.28521 -0.0528134 -0.46064 -0.216285 0.11273 -0.444538 0.226456 0.0459718
574 0.211438 0.65688 0.321065 -0.085133 -0.289674 -0.230166 0.515255 -0.329674 -0.0604885 -0.466841 -0.107088 0.247498 0.239879 0.608423 0.477022 0.735928 0.0296552 0.366093 -0.0885177 0.188309 0.596214 -0.508435 0.108929 -0.11817 -0.281167 0.0855872 -0.42981 -0.00996957 0.061609 0.126686 -0.0538075 0.45514
421 0.51938 0.23711 0.428868 -0.144877 0.155392 0.384411 0.0563033 -0.282984 0.409743 -0.149198 -0.191674 0.0234212 -0.117145 0.0764277 0.541943 0.18075 0.478908 0.324108 -0.196767 -0.249703 0.0692845 -0.389454 0.235421 -0.146657 0.0392721 -0.0862477 -0.287937 -0.0757883 -0.210497 -0.520055 0.393402 0.36192
641 0.125833 -0.117091 0.4266 -0.658962 0.337363 0.10598 0.0295973 -0.273315 0.5468 -0.698841 0.0712996 -0.455351 -0.182144 -0.286757 0.140486 0.164354 0.0050459 0.158427 -0.263069 -0.301258 0.410192 -0.218667 0.481841 -0.431643 0.300635 0.225042 -0.284521 -0.213957 0.1327 -0.299743 0.270238 0.307909
153 0.317327 0.284183 0.418686 -0.302342 0.250485 0.520142 0.265367 -0.290153 0.414444 -0.154913 0.134594 0.048067 -0.24185 0.336395 0.4977 -0.0524187 0.037276 0.296296 -0.026855 0.0320839 0.24038 -0.412402 0.176829 -0.242032 -0.11407 0.278834 -0.0380986 -0.209522 0.0410809 -0.351592 0.0973557 0.398586
536 0.724118 0.917766 0.410581 0.254863 -0.25661 -0.0967917 0.50994 0.0935599 0.597564 -0.130078 -0.0241246 -0.655281 -0.261839 0.03275 -0.124187 0.250833 0.0613803 0.621812 0.167659 0.056509 0.752194 -0.147203 0.369673 -0.570938 -0.147648 -0.325699 -0.0940559 0.136864 -0.501745 -0.0246633 0.397906 0.0491126
237 0.39647 0.196419 0.147769 -0.103509 0.210148 0.259636 0.18605 -0.154858 0.244963 -0.159636 -0.0614056 -0.229501 -0.2495 0.285214 0.156583 0.0820947 0.189818 0.475697 -0.156341 -0.0836872 0.346718 -0.351288 0.203102 -0.280168 -0.101507 0.128895 -0.21794 -0.17889 0.0107121 -0.180699 0.148508 0.298203
354 0.465531 0.35546 0.283745 -0.000669456 0.116692 0.234676 0.183606 -0.120372 0.370932 -0.111537 -0.0520585 -0.211913 -0.194059 0.214075 0.268544 -0.00320857 0.149166 0.368364 -0.229376 -0.0400677 0.523518 -0.373432 0.243718 -0.380236 -0.0232744 0.0674762 -0.171874 -0.218566 0.0276973 -0.258366 0.254106 0.308332
224 0.347455 0.0636726 0.563055 -0.0228022 0.369669 0.0125638 0.446535 -0.125101 0.438004 -0.150058 -0.149237 -0.27361 0.0206567 -0.196379 0.0112644 0.278824 -0.072101 0.714618 -0.309726 -0.348455 -0.0494631 0.0462965 0.405049 -0.422278 0.0114762 -0.109966 -0.63242 0.334461 0.0692054 -0.324011 0.505682 0.386999
547 0.30207 0.260297 0.201903 -0.0789875 0.161825 0.148186 0.162786 -0.16682 0.162971 -0.157541 -0.054596 -0.0923192 -0.160752 0.171923 0.152952 0.122405 0.109543 0.345192 -0.0780098 -0.082632 0.318924 -0.226249 0.125491 -0.286019 -0.182238 0.0827996 -0.140872 -0.135098 -0.00643003 -0.14214 0.183535 0.330366
420 0.271345 0.183795 0.161502 -0.0857519 0.162837 0.0798309 0.145694 -0.182715 0.226575 -0.20225 -0.053035 -0.0292183 -0.0722362 0.170914 0.0799143 0.125569 0.0936653 0.359392 -0.100965 -0.096622 0.263092 -0.198115 0.0916125 -0.238966 -0.188887 0.0902232 -0.12441 -0.075632 0.02386 -0.127357 0.228498 0.221627
322 0.531588 0.643679 0.310539 -0.00465398 0.235543 0.363111 0.222804 0.175645 0.0924125 -0.109781 0.0702827 0.149321 0.114424 0.239606 0.651687 -0.204485 -0.00192429 0.436293 -0.077362 0.11456 0.721071 -0.565274 0.389047 -0.482949 -0.243963 0.224731 0.379943 -0.161329 -0.315753 -0.261286 0.528023 0.170876
67 0.361336 0.432907 0.362751 -0.135439 0.286082 0.316832 0.00506182 -0.178505 0.277847 -0.191188 -0.227165 -0.0672715 -0.0852056 0.254932 0.309274 0.0951436 0.181724 0.371914 -0.274763 0.0116758 0.364197 -0.444224 0.341676 -0.337815 -0.0657062 0.170408 -0.0606249 -0.234364 0.00742124 -0.29109 0.211838 0.320709
532 0.616482 0.0439912 0.15493 -0.173395 0.301568 0.0269234 -0.0838916 0.00839746 0.491128 -0.50283 0.186483 0.124407 -0.262969 -0.342118 0.118344 0.772053 0.39424 0.569081 -0.158137 -0.153318 0.285459 -0.615339 0.596716 -0.24658 0.218022 -0.0527826 -0.506775 0.0701124 0.401281 0.0867304 0.175664 0.0648462
696 0.312837 0.219213 0.459486 -0.178398 0.15326 0.125118 0.141142 -0.183054 0.308473 -0.398628 -0.000887139 -0.366439 -0.0543159 0.164323 0.0284889 0.106074 0.0699169 0.497197 -0.0297335 -0.0595992 0.450564 -0.337162 0.242792 -0.417086 -0.079844 0.0586721 -0.268773 0.0362633 0.0994499 -0.149504 0.284504 0.233857
423 0.555868 0.284583 0.224146 0.060388 0.232461 0.42063 0.29111 -0.11308 0.330661 -0.0294006 -0.0992424 -0.254431 -0.0243904 -0.00948997 0.505408 0.0516361 -0.0805685 0.529843 -0.130715 -0.300872 0.425262 -0.526296 0.331015 -0.353113 0.147341 0.250111 -0.247219 0.0449922 0.278225 -0.240824 0.186175 0.271147
160 0.300559 0.190228 0.114367 -0.216511 0.161812 0.104891 0.143143 -0.253311 0.174136 -0.333905 -0.0357135 -0.00952357 -0.171881 0.168218 0.0873571 0.245781 0.08224 0.362418 -0.0442987 0.0663488 0.368183 -0.19935 0.134194 -0.329925 -0.184672 0.116867 -0.234537 -0.21667 0.107289 -0.108168 0.138253 0.333203
485 0.047551 0.37315 0.920683 -0.224476 -0.0763869 0.476754 -0.00566483 -0.0844883 0.174796 -0.126171 -0.100299 -0.0113249 -0.142114 0.317257 0.616744 0.102257 0.137906 0.245286 0.159041 -0.221741 0.202143 -0.558686 0.298479 -0.38224 -0.0540013 0.434391 0.0310867 -0.169891 -0.0788245 -0.480973 0.476672 0.548459
13 0.347289 0.492284 0.0327918 -0.0782846 0.082645 0.42897 -0.132936 -0.189492 0.0295191 -0.0902763 -0.442569 0.0370512 0.0854663 0.0555842 0.337913 0.223446 0.299998 0.148638 -0.0345834 0.278826 0.371395 -0.585309 0.00987016 -0.377973 -0.264512 0.00711868 -0.715449 -0.442731 0.109241 -0.216678 0.206326 0.539954
402 0.229789 0.111692 0.356616 0.00960977 0.158672 0.273892 0.375424 -0.155885 -0.0549865 -0.801797 -0.476093 -0.0873574 -0.307779 0.349172 0.195862 -0.114533 -0.00187645 0.44863 -0.309133 0.226203 0.0196189 -0.673271 0.244977 -0.167456 -0.226381 0.320091 -0.342186 -0.241588 0.219355 0.350254 0.0290062 0.703724
583 0.545444 0.125272 0.151966 -0.225521 0.358969 -0.0510661 0.411839 -0.158156 0.290907 -0.227314 -0.2713 0.0346691 0.0140122 0.568173 -0.0659438 -0.420445 -0.275068 0.37805 -0.403665 0.222867 0.756982 0.127821 -0.447288 -0.478346 -0.237497 -0.0171075 -0.528112 -0.254165 0.54401 0.0420332 0.320738 0.52362
613 0.469989 0.284622 0.309923 -0.210667 0.155331 0.245304 0.154335 -0.136425 0.161379 -0.285904 -0.0210117 -0.103622 -0.0604273 0.13785 0.242683 0.0457951 0.160294 0.417144 -0.0889302 0.145752 0.481182 -0.267459 0.231691 -0.255066 -0.211895 0.0323379 -0.200387 -0.124838 -0.143786 -0.264993 0.266789 0.370306
95 0.245761 0.145339 0.185015 -0.142703 0.252586 0.380653 0.181696 -0.277601 0.282874 -0.399718 0.180481 0.0211629 -0.205943 0.496251 0.0817683 -0.220303 0.228709 0.542615 -0.195011 -0.231704 0.176382 -0.412102 0.0204138 -0.255473 -0.0678472 0.264489 0.035668 -0.0363102 -0.0429372 -0.125132 0.309869 0.472228
286 0.384709 0.108363 0.368751 -0.128406 0.251663 0.53224 0.347701 -0.240934 0.286707 -0.0662694 0.0937399 0.0303432 -0.229811 0.295299 0.575885 -0.114938 0.133823 0.495986 -0.126021 -0.0437984 0.275911 -0.301851 -0.0325531 -0.221381 -0.128165 0.0680063 -0.188656 -0.229069 0.04772 -0.121301 0.114304 0.565014
579 0.327319 0.27956 0.279998 -0.143523 0.15171 0.190897 0.135751 -0.204 0.208633 -0.254579 -0.0180233 -0.137342 -0.136849 0.229709 0.177456 0.05188 0.170602 0.394818 -0.0408011 -0.0981446 0.307196 -0.398177 0.206472 -0.333653 -0.172034 0.169129 -0.125079 -0.121137 -0.00159142 -0.130994 0.228942 0.322806
158 0.224501 0.404425 0.14134 0.0542012 -0.190504 0.190869 0.124417 0.0410854 0.245743 -0.437246 0.0113195 0.0448781 -0.328793 0.305713 0.2095 0.245724 0.131709 0.438255 -0.183643 0.0128248 0.525542 -0.447829 0.201228 -0.325486 -0.314762 0.12746 -0.0959991 -0.168379 -0.195476 -0.0548571 0.176385 0.525395
24 0.248394 0.330639 0.277406 -0.0866902 0.0704224 0.300267 0.102049 -0.27455 0.494277 -0.278152 0.0872204 -0.0297866 -0.0512236 0.350216 0.217327 -0.0790835 0.228934 0.273289 -0.1584 -0.0083653 0.47649 -0.327679 0.190538 -0.410942 -0.0213553 0.139693 -0.112599 -0.115798 0.131409 -0.25698 0.157591 0.349955
183 0.222176 0.291846 0.145317 -0.132127 0.201109 0.184018 0.189392 -0.250497 0.218597 -0.25584 -0.0642084 -0.0520316 -0.161454 0.274937 0.213507 0.0696488 0.0928857 0.422187 -0.223644 -0.0849364 0.334562 -0.278892 0.116269 -0.324495 -0.163075 0.197493 -0.181571 -0.188867 0.0390276 -0.106261 0.249113 0.320125
328 0.343786 0.0787543 0.0234333 -0.0967365 0.456569 0.231681 0.177602 -0.175959 0.414645 -0.289816 -0.191864 0.00695146 -0.184645 0.114769 -0.0617992 -0.121666 0.0662629 0.402636 -0.304115 -0.0226397 0.403842 -0.177208 0.171234 -0.394925 -0.26102 0.0573636 -0.279907 -0.196497 0.209142 -0.172373 0.042987 0.358619
231 0.323198 0.120515 0.409447 0.125341 -0.0116737 0.507134 0.0436473 -0.0929987 0.233862 -0.149703 -0.1571 0.0609348 -0.418955 0.116215 0.48843 -0.0509124 0.197684 0.492244 -0.20299 0.152089 -0.019938 -0.796607 0.418033 -0.394056 -0.389086 0.103069 0.171308 -0.472276 -0.195446 -0.184384 0.241197 0.646306
229 0.467613 0.150408 0.118189 -0.183448 0.355081 0.420215 0.136476 -0.0195725 -0.135092 -0.34933 -0.3137 -0.17402 -0.0977377 -0.081727 0.278026 0.350565 0.424737 0.594698 -0.467913 0.342992 0.15793 -0.301674 0.510798 -0.0946464 0.088025 -0.252292 -0.566302 -0.111579 -0.217899 -0.340804 0.236845 0.467892
80 0.493515 0.300013 0.284331 -0.10702 0.358402 0.48087 0.132452 -0.0401673 0.208122 -0.173611 0.0150266 -0.175611 -0.172451 0.199791 0.385724 -0.0755457 0.318069 0.487741 -0.241216 -0.0815488 0.498248 -0.202162 0.382912 -0.209353 0.0303865 -0.0167125 -0.13684 -0.0314654 -0.212228 -0.326224 0.25934 0.232889
625 0.322001 0.177335 0.204289 -0.193836 0.191076 0.34347 0.159711 -0.193613 0.170285 -0.185904 -0.0731175 -0.135853 -0.0757237 0.394487 0.38128 0.0306716 0.147593 0.645932 -0.0943725 0.0292931 0.369552 -0.443053 0.131223 -0.302473 -0.154734 0.232084 -0.0232524 -0.260066 0.0102606 -0.174993 0.189497 0.280107
60 0.502048 0.101717 0.275798 -0.00843459 0.16716 0.512507 0.219651 -0.0533212 0.564569 -0.200267 0.10156 -0.0197009 -0.05522 0.474016 0.295344 -0.207422 0.277591 0.328554 -0.143647 0.175001 0.398129 -0.463947 0.157525 -0.345664 -0.0450254 0.353926 -0.13868 -0.260456 -0.178345 -0.295424 0.183599 0.277005
808 0.383686 0.0930714 -0.21528 0.523101 0.572955 -0.248389 0.592278 -0.324683 0.144975 -0.0893905 0.00462161 -0.489853 0.594549 -0.22522 0.0869889 0.021707 0.765391 0.26229 -0.0124324 0.378647 0.918676 -0.0411851 0.125259 -0.141199 -0.470595 0.285556 0.178581 0.251322 0.0406379 -0.639328 0.143152 0.652197
190 0.40641 0.301222 0.185606 -0.0372422 0.303572 0.0501296 0.152738 -0.0835578 0.191648 -0.330155 0.00284136 -0.118517 -0.12251 0.186091 0.182752 -0.0500626 -0.0305846 0.40838 -0.155933 0.105449 0.48801 -0.333538 0.290923 -0.433592 -0.30635 0.00340254 -0.0230799 -0.168255 -0.0278795 -0.11054 0.203927 0.372596
49 0.391822 0.234448 0.14157 -0.119349 0.240854 0.124856 0.208162 -0.214859 0.21784 -0.255009 0.0350553 -0.000385226 0.0428129 0.111548 0.0345225 0.115054 0.0139791 0.435708 -0.102213 0.0580205 0.449037 -0.0539471 0.182173 -0.279258 -0.312447 0.0853185 -0.242478 -0.0887884 0.105576 -0.201724 0.255923 0.355901
584 0.547261 0.39913 -0.0859583 -0.084907 0.283174 0.166166 0.31023 -0.0544636 0.141177 -0.242042 0.0331163 0.111749 0.159619 -0.0057133 0.0359167 0.143953 -0.138197 0.501885 -0.0459125 0.23162 0.760277 0.121567 0.264024 -0.380207 -0.327816 0.0556476 -0.349303 0.0748374 0.043025 -0.193549 0.30638 0.372747
559 0.389709 0.220746 0.181553 -0.109126 0.14606 0.37752 0.0872665 -0.251793 0.274446 -0.237101 -0.0206219 0.0751075 -0.031241 0.367631 0.378549 -0.0222512 0.226014 0.272363 -0.0736711 0.219298 0.311503 -0.418532 0.183597 -0.245451 -0.1676 0.166303 -0.313625 -0.105496 -0.0704542 -0.371414 0.187597 0.563819
50 0.633319 0.401016 0.243696 -0.490244 0.48929 0.543867 0.254795 -0.149671 -0.19568 -0.313588 0.270386 0.0782015 0.00203299 -0.389805 0.505842 0.463604 0.463464 0.317527 0.0580897 -0.268319 0.387898 -0.181384 0.591439 0.128387 -0.251851 0.208693 -0.681544 0.348199 0.0435241 -0.297259 0.220533 0.118204
578 0.439392 0.365448 0.134062 -0.0238274 0.213665 0.134195 0.0888054 -0.177673 0.213669 -0.252861 0.103827 0.0536244 0.080513 0.196723 0.135764 0.00502085 0.111644 0.468784 -0.075024 0.124423 0.44999 -0.188314 0.181444 -0.315774 -0.396459 0.0625931 -0.0821104 -0.055366 -0.105658 -0.242238 0.248409 0.315081
585 0.351585 0.264947 0.153799 -0.0581235 0.217776 0.0852556 0.0955923 -0.165561 0.149883 -0.233904 -0.00533346 -0.0495727 0.0373359 0.111416 0.0536103 0.0304542 0.130061 0.382442 -0.0851068 0.0157249 0.356454 -0.13614 0.164506 -0.337159 -0.23577 -0.00571074 -0.0950087 -0.0671809 -0.00690127 -0.201805 0.174983 0.250995
111 0.413525 0.238836 0.0360884 -0.16346 0.375829 0.273641 0.197744 -0.199033 0.161856 -0.336636 0.0552646 -0.0742086 0.00828062 0.294794 0.0766297 -0.0370972 0.14307 0.485253 -0.135159 0.0815831 0.542113 -0.00941844 0.207399 -0.373036 -0.19847 -0.0106079 -0.237029 -0.0691904 0.0601831 -0.232574 0.163449 0.282042
449 0.485053 0.445317 0.236676 -0.106215 0.335203 0.29631 0.0602054 -0.231877 0.0987436 -0.205257 0.0400361 -0.0520541 0.114471 0.149884 0.187535 0.0908274 0.244203 0.498123 -0.125968 0.02119 0.451197 -0.0799375 0.302448 -0.3009 -0.10065 -0.0128204 -0.136329 -0.046195 -0.210177 -0.45328 0.328779 0.276937
636 0.329412 0.235323 0.16661 -0.0782022 0.180855 0.132787 0.103679 -0.21356 0.152069 -0.189868 -0.00978432 -0.00594514 0.0117315 0.127839 0.0797522 0.0302954 0.126189 0.340411 -0.104972 0.042791 0.297403 -0.158509 0.152142 -0.28696 -0.231826 0.0257714 -0.0969695 -0.0706893 -0.0393329 -0.194217 0.195684 0.295744
472 0.62421 0.280756 -0.17608 -0.25887 0.58168 0.361913 0.516751 -0.131499 0.586302 -0.232179 0.171096 0.25624 0.0505761 0.167021 0.207721 0.356738 -0.159495 0.584909 -0.132459 0.339272 0.743249 -0.247708 0.184063 -0.0166738 -0.40438 0.166142 -0.71882 -0.0218462 0.205906 -0.107267 -0.105758 -0.0169692
157 0.41564 0.29239 0.15546 -0.102202 0.227014 0.139021 0.124831 -0.187722 0.135285 -0.209658 0.0250391 -0.0716566 0.0331752 0.145571 0.0800145 -0.0336311 0.109348 0.362368 -0.0906956 0.108932 0.459008 -0.119376 0.18406 -0.318202 -0.241339 0.0222861 -0.0868078 -0.0532566 -0.0840626 -0.232257 0.220605 0.297644
79 0.417654 0.099505 0.238538 -0.0433877 0.289048 0.324043 0.261319 -0.077239 0.325933 -0.32285 0.309298 -0.0866701 -0.120759 0.241855 0.139752 -0.211284 -0.0240565 0.475402 -0.125476 -0.022629 0.583043 -0.296699 0.132061 -0.374627 -0.116657 -0.0104967 -0.181965 -0.194165 -0.0339853 -0.222919 0.32554 0.351076
66 0.397784 0.213425 0.327962 -0.159793 0.207237 0.329314 0.162687 -0.279819 0.0561974 -0.994842 -0.162054 -0.297128 0.501584 0.271284 -0.00868633 0.105973 0.144297 0.202081 0.0624179 0.566757 0.596192 -0.472346 0.194025 -0.420585 -0.0952624 0.277444 -0.0506325 -0.0285156 0.062672 -0.123204 0.0783376 0.266739
259 0.421952 0.336857 0.179281 -0.0710511 0.208325 0.111432 0.194509 -0.198344 0.155584 -0.194833 -0.0363844 -0.0742735 0.0129147 0.0873164 0.11171 -0.0154876 0.061433 0.441193 -0.137262 -0.0301553 0.322219 -0.136504 0.168669 -0.339281 -0.262172 -0.0308751 0.0053641 -0.0209626 -0.078602 -0.22657 0.213048 0.277279
706 0.412771 0.26527 0.308498 -0.112104 0.0932884 0.192616 0.0586115 -0.255284 0.304999 -0.285734 -0.0869038 -0.0356244 -0.0809801 0.186638 0.161355 0.0325817 0.17607 0.355088 -0.107225 -0.0133842 0.28341 -0.328568 0.16798 -0.282019 -0.183663 0.189179 -0.161266 -0.124203 -0.0122079 -0.280076 0.240771 0.382635
646 0.348305 0.231932 0.0795683 -0.0870423 0.189831 0.0886928 0.154816 -0.15777 0.196893 -0.211274 -0.0321007 -0.020347 0.025999 0.114382 0.035656 0.0296699 0.0803095 0.360968 -0.125729 0.0167211 0.306484 -0.120518 0.0845163 -0.23994 -0.252752 0.0190368 -0.159615 -0.0887237 0.00775184 -0.161527 0.164236 0.217156
809 0.100672 0.793323 -0.406984 -0.245941 0.418858 -0.347808 -0.196919 -0.599167 0.00285045 0.361658 0.159401 0.034337 0.601943 -0.0863305 0.362536 -0.130567 -0.448072 0.874319 -0.114183 -0.692434 0.272883 -0.319449 0.0353383 -0.455338 -0.137437 0.248264 -0.407866 0.118302 -0.604536 -0.176896 -0.175641 0.832314
397 0.32698 0.434503 0.117722 -0.0804156 -0.0138411 0.0701763 0.20533 -0.210748 0.153351 -0.194614 -0.0552352 0.054163 -0.0803374 0.0988033 0.133839 0.193902 0.143212 0.434006 -0.0610109 -0.0478737 0.374779 -0.187075 0.101752 -0.348414 -0.287526 -0.0290905 -0.189963 -0.0312014 -0.0630333 -0.137612 0.243571 0.351882
221 0.317872 0.358327 0.131138 -0.157697 0.160702 0.107909 0.144598 -0.22845 0.087335 -0.317077 -0.0574315 0.0393892 -0.197808 0.0610897 0.218983 0.232013 0.0762892 0.390947 -0.0998691 0.0358878 0.353009 -0.246212 0.327025 -0.343139 -0.220027 0.0192578 -0.0226888 -0.0856618 0.018871 -0.154359 0.19206 0.368278
174 0.293637 0.295629 0.209187 -0.104633 0.147684 0.125875 0.185333 -0.262282 0.108638 -0.197651 -0.0553868 -0.0291834 -0.0383573 0.0817116 0.155216 0.0973575 0.0568037 0.447754 -0.116623 -0.107851 0.260712 -0.154168 0.105806 -0.283832 -0.249609 -0.0128994 -0.0696706 0.0199167 -0.0308063 -0.153665 0.200861 0.308717
70 0.294662 0.312484 0.194785 -0.107189 0.216142 0.226957 0.199987 -0.220304 0.1572 -0.208242 0.0436715 0.0481271 -0.106754 0.114601 0.212205 0.118787 0.0537877 0.454796 -0.080319 -0.150678 0.385466 -0.176298 0.184811 -0.343161 -0.220346 0.0052439 -0.0947813 -0.0219838 0.00497368 -0.189682 0.256266 0.277183
241 0.286718 0.565786 0.511833 -0.389726 0.0765552 0.17288 0.129726 -0.551808 0.0700672 -0.427345 -0.320414 -0.0167603 -0.123692 -0.00644002 0.183185 0.236348 0.280788 0.465756 -0.205663 -0.26547 0.0126183 0.0174841 0.212486 -0.208644 0.0624109 -0.116545 -0.194642 0.155778 -0.26983 -0.308362 0.584453 0.485292
205 0.27277 0.350867 0.212087 -0.0657754 0.198241 0.0494085 0.0647314 -0.220624 0.0642008 -0.216079 -0.100745 0.0308567 0.006557 0.063186 0.230975 0.27572 0.0971924 0.583315 -0.112615 -0.203875 0.33665 -0.207551 0.2332 -0.449856 -0.320729 -0.147487 -0.13378 -0.0993262 -0.15016 -0.307246 0.406621 0.214326
122 0.285019 0.426836 0.250288 -0.0205184 0.0383509 0.149421 0.237174 -0.188802 0.127556 -0.192453 -0.0616304 0.0124022 -0.0440358 0.110674 0.247875 0.15012 0.0823472 0.475519 -0.114036 -0.153229 0.256792 -0.296868 0.148176 -0.360992 -0.212191 -0.0270039 -0.02537 0.0201002 -0.0780126 -0.172156 0.297299 0.297512
462 0.277544 0.359705 0.237638 0.0450988 0.0701923 0.135481 0.123867 -0.22304 0.159275 -0.206102 -0.114187 -0.0127506 -0.147247 0.185788 0.228497 0.101734 0.0748558 0.470246 -0.160508 -0.0595918 0.281144 -0.34978 0.167024 -0.360438 -0.217375 0.00636775 0.0263955 -0.119978 -0.0613547 -0.215841 0.212859 0.357309
660 0.332896 0.471078 0.274779 0.00895207 0.0793788 0.0694926 0.119415 -0.194445 0.193375 -0.16375 -0.0495547 -0.0996339 -0.066893 0.172102 0.199108 0.0538805 0.0572119 0.398217 -0.0883866 -0.0830619 0.399842 -0.323689 0.19944 -0.399742 -0.246507 0.00682152 0.0642222 -0.0539719 -0.0561554 -0.2575 0.272017 0.340026
810 0.0915105 1.02235 -0.287545 0.0422797 -0.811303 -0.0966836 -0.0101171 -0.176757 0.733626 0.15519 -0.07864 -0.119461 0.0372422 0.266057 -0.199257 0.950502 0.198832 0.563986 0.104813 0.121589 0.831309 -0.288791 -0.0688233 -0.42806 -0.681944 -0.129871 -0.466639 0.473402 0.177031 -0.108598 0.203801 0.508685
521 0.277115 0.324335 0.340715 -0.0180615 -0.0405321 0.185884 0.115175 -0.163815 0.303866 -0.334032 -0.00987464 0.0767831 -0.119856 0.188098 0.255676 0.103137 0.156282 0.259069 -0.0696393 -0.00511994 0.357428 -0.393639 0.222596 -0.428696 -0.136064 0.0818864 -0.130047 -0.0729763 -0.168189 -0.148252 0.347233 0.493143
817 0.399154 -0.0572362 0.112719 -0.158788 0.151113 -0.519757 -0.131984 0.0794221 0.218334 -0.447991 -0.0513026 0.0186794 -0.437008 0.0468659 0.227165 0.100308 0.436363 0.845534 -0.492199 -0.131101 0.407023 0.0984959 -0.926166 -0.673677 -0.596206 0.41108 -0.517923 0.199259 -0.505358 0.0313609 -0.141736 0.453296
669 0.197402 -0.0820327 0.196365 -0.472756 0.194677 0.0608847 -0.240386 -0.141253 -0.135364 -0.576116 0.0987131 0.328908 0.481946 0.153519 -0.0620854 0.276244 0.427881 0.654715 0.012804 -0.30841 0.62692 0.148773 -0.20965 -0.599162 -0.681612 -0.183601 -0.73383 -0.154436 0.337889 -0.249828 0.178603 0.240711
151 0.311951 0.13818 0.19034 -0.165226 0.0251554 0.0370121 -0.0351802 -0.279698 0.239704 -0.260177 -0.132051 -0.0166001 -0.000510717 0.290721 0.0431116 0.00754583 0.218168 0.491805 -0.145091 -0.0154629 0.3654 -0.151522 -0.0476312 -0.4411 -0.356217 0.0783075 -0.0855847 -0.182957 0.151672 -0.211034 0.0950025 0.298814
644 -0.0306666 0.214039 -0.318039 0.0507019 0.159699 0.37491 0.163135 -0.15723 0.568091 -0.617726 -0.402472 0.417187 0.0245817 0.314041 -0.248709 0.593674 0.484245 0.67055 -0.116083 -0.35445 0.401215 -0.258001 -0.000399502 -0.444126 -0.314115 0.227725 -0.910015 0.449711 0.085359 0.103306 -0.0525068 0.320269
812 0.672104 1.07717 0.532492 -0.477856 0.106423 0.160038 0.239023 0.114185 0.317972 -0.850056 -0.0716128 -0.191594 0.401204 -0.142956 -0.507811 -0.223438 0.0586198 0.796412 0.0494912 0.203139 -0.31715 -0.000390876 -0.504797 0.151035 -0.579507 0.231486 -0.35503 -0.369727 0.437212 -0.175788 0.0745851 0.138649
427 0.298499 0.216291 0.260153 -0.219957 0.303221 0.116839 0.227913 -0.379632 0.213094 -0.398934 -0.260776 0.0412041 0.136207 0.0672176 0.0592579 0.210452 0.180154 0.450099 -0.154383 -0.0877703 0.176501 -0.219798 -0.00118391 -0.30624 -0.291136 0.102017 -0.296718 -0.0149118 0.0667834 -0.141108 0.300989 0.255158
208 0.249528 0.29682 0.156876 -0.192314 0.14823 0.0857485 0.145979 -0.294551 0.104938 -0.323565 -0.178083 0.0228346 0.0328578 0.0409195 0.0492113 0.106194 0.0923178 0.287095 -0.107024 -0.014638 0.207584 -0.194581 0.0857787 -0.273652 -0.209248 0.0611065 -0.233656 -0.0447332 0.0585819 -0.119825 0.188072 0.359339
17 0.128569 0.134738 0.292941 -0.137582 -0.111542 0.228105 0.225379 -0.422027 0.527874 -0.883862 -0.11865 0.152608 -0.185831 0.00140751 -0.389275 0.104069 -0.0618016 0.236565 -0.274016 0.321059 0.216833 -0.268406 0.151461 -0.49302 -0.00208371 -0.0489491 -0.306313 -0.1884 0.00455783 -0.309082 0.34999 0.566876
626 0.277818 0.357264 0.154316 -0.188632 0.159415 0.147122 0.22381 -0.309592 0.151197 -0.36043 -0.158547 0.00459659 0.0748758 0.113057 0.0330321 0.0868235 0.0910815 0.290165 -0.10323 -0.0374245 0.283844 -0.160074 0.0829884 -0.346913 -0.179681 0.0450202 -0.197662 -0.00778127 0.0599721 -0.121944 0.275382 0.352628
338 0.271737 0.363932 0.226588 -0.224033 0.333123 0.287393 0.217351 -0.514544 0.388555 -0.270781 -0.239128 0.164903 0.296866 0.332113 0.0549791 0.0508142 0.433001 0.3097 -0.263475 0.00312338 0.295562 0.0399408 -0.169021 -0.327655 -0.18745 0.00824884 -0.525062 -0.0235048 0.310824 -0.0679158 0.0479117 0.29395
36 0.27708 0.225164 0.13068 -0.247696 0.209696 0.173312 0.239428 -0.312027 0.202442 -0.374083 -0.184955 0.011958 0.0359853 0.131485 0.018325 0.0793032 0.0836688 0.304062 -0.162396 -0.0723492 0.216444 -0.102934 -0.00539508 -0.20988 -0.194472 0.122718 -0.24417 -0.0458535 0.126568 -0.162335 0.193964 0.27944
413 0.360632 0.304617 0.147242 -0.204707 0.242781 0.133582 0.0920657 -0.341809 0.179626 -0.273161 -0.29409 -0.00729864 -0.0383734 0.0947234 0.0902278 0.196978 0.261461 0.377244 -0.204214 -0.215562 0.228871 -0.136198 0.166462 -0.231751 -0.161354 0.051365 -0.30099 -0.0255339 0.0498242 -0.275651 0.257417 0.272449
114 0.211873 0.156547 0.0883602 -0.378939 0.50717 0.262218 0.394552 -0.494683 0.152835 -0.561384 -0.133919 0.0871623 -0.00847957 0.100053 -0.153387 -0.200702 -0.0835238 0.366711 -0.372713 0.0233053 0.392475 0.175898 0.00619106 -0.421859 -0.252266 -0.0385512 -0.220971 -0.106367 0.263178 -0.207973 0.0630194 0.650258
316 0.284232 0.230311 0.140999 -0.179134 0.183137 0.139562 0.189747 -0.309033 0.176678 -0.330878 -0.151989 0.0156689 0.0116106 0.112124 0.0388377 0.0666814 0.128391 0.334253 -0.152675 -0.0512588 0.263673 -0.144302 -0.00275578 -0.255351 -0.217797 0.0764713 -0.222606 -0.0767368 0.0719191 -0.117249 0.200342 0.316228
568 0.282561 0.265906 0.0633447 -0.292529 0.308086 0.139048 0.264666 -0.364442 0.296454 -0.443567 -0.258006 0.0590053 0.0404707 0.0601767 -0.106076 -0.033612 0.0695271 0.314174 -0.201603 -0.032243 0.219616 -0.104884 -0.00263477 -0.354061 -0.231991 0.0637757 -0.366739 -0.0515029 0.244044 -0.151954 0.209945 0.409427
165 0.246761 0.226613 0.150319 -0.214876 0.170125 0.192118 0.165407 -0.315424 0.167203 -0.360423 -0.184515 0.0146721 0.00994446 0.120086 0.0253994 0.0675566 0.151917 0.280657 -0.162238 -0.00787494 0.188623 -0.0751172 0.0667163 -0.292177 -0.155757 0.106492 -0.223914 -0.0287343 0.0957905 -0.139341 0.203087 0.285199
664 0.143596 0.440886 0.234122 -0.0966817 0.249845 0.25723 0.146233 -0.39168 0.377782 -0.527064 -0.329935 0.00663505 0.279482 0.382056 -0.258898 0.157814 0.552973 0.657038 -0.180732 -0.356754 0.315329 -0.0629166 -0.254452 -0.452046 0.0574005 -0.0982249 -0.169254 0.195089 -0.134557 0.0332633 0.36114 0.154453
813 0.871502 -0.0339081 0.184638 -0.121245 -0.125048 -0.00349378 0.171697 -0.283544 0.0988798 -0.306514 -0.290829 0.0454148 -0.517634 0.236386 0.165559 -0.124289 0.308918 0.245518 0.389827 0.104945 -0.15783 -0.0886987 0.0330527 -0.193478 -0.430875 0.25895 0.0262263 -0.0712161 0.0841397 -0.180306 0.349746 0.651229
203 0.40538 0.205465 0.262391 -0.0866269 0.192879 0.205914 0.0894071 -0.290755 0.409115 -0.232075 -0.0546334 -0.0366691 -0.117344 0.196774 -0.0178916 -0.105671 0.144521 0.448561 -0.272857 -0.0305757 0.379768 -0.257914 0.0233641 -0.356124 -0.0721397 0.110686 -0.248651 -0.215707 -0.0136908 -0.280081 0.23119 0.426927
465 -0.0834195 0.592381 0.708379 -0.177893 -0.097323 0.504579 0.0567122 -0.250958 0.503753 0.0746787 -0.396284 -0.0103006 -0.113576 0.252945 0.470676 -0.0785409 -0.204772 0.324663 -0.00342842 -0.370272 0.331779 -0.371945 0.164398 -0.660365 -0.442068 0.216894 0.217394 -0.219024 0.0569323 -0.434389 0.248084 -0.00208634
204 0.1555 0.457433 0.410752 -0.208549 0.186956 0.419326 0.137183 -0.402504 0.129282 -0.441368 0.028754 0.0828204 -0.285476 0.122585 0.120144 0.0414735 0.0808385 0.557771 -0.0319474 0.0563565 0.0382089 -0.472348 0.356865 -0.476603 -0.195303 -0.0160573 0.409295 -0.00306434 -0.0599985 -0.102161 0.133941 0.595941
215 0.287106 0.163437 0.308807 -0.027581 0.282107 0.223112 -0.241334 0.0186307 0.0226903 -0.1595 -0.258005 -0.0903665 -0.182327 -0.069864 0.323965 0.427599 0.372063 0.294666 -0.182605 -0.077628 0.416475 -0.350138 0.46789 -0.380591 -0.271354 -0.0951235 -0.596557 -0.517137 -0.0682457 -0.37373 0.350443 0.188763
100 0.47234 -0.278867 0.142699 -0.041611 0.123473 0.205687 0.127195 -0.310218 0.894454 -0.0907848 -0.292924 0.569003 0.417307 -0.364691 0.142419 -0.0991601 0.22483 0.58798 -0.516165 0.125103 -0.00758419 -0.199214 -0.0166413 -0.735551 -0.252215 -0.165594 -0.647392 -0.585351 0.287332 -0.221813 0.525957 0.390462
96 0.351993 0.168384 0.253625 -0.0456686 0.282147 0.244177 0.103342 -0.291358 0.380517 -0.270258 -0.274245 -0.064758 -0.10265 0.12931 0.0752366 -0.0898475 0.132493 0.33125 -0.229776 0.0163312 0.294946 -0.384266 0.16838 -0.421505 -0.204302 0.156965 -0.173571 -0.238352 0.0789811 -0.27612 0.134031 0.381861
192 0.184339 0.237722 0.24143 -0.180248 0.277764 0.476783 0.372371 -0.325018 0.39707 -0.159552 -0.0618964 0.4245 0.0806047 0.327403 0.578293 0.166847 -0.0116775 0.328312 -0.157805 0.178429 0.224799 -0.257777 0.117849 -0.255176 -0.286152 0.19664 -0.298822 -0.111792 0.133299 -0.143028 0.260911 0.587931
86 0.272875 0.363697 0.487872 -0.257783 0.0249188 0.279267 -0.0366382 -0.252385 0.304707 -0.419539 -0.240896 -0.0210797 -0.151096 0.153599 0.258922 0.0576281 0.289703 0.478398 0.0364221 -0.220368 0.150128 -0.638654 0.199629 -0.293614 -0.11319 0.18949 0.0928052 -0.0231132 -0.118065 -0.0999822 0.271568 0.282644
220 0.325477 0.267618 0.438251 -0.0803522 0.272265 -0.100465 0.118612 -0.221167 0.0892221 -0.353266 0.0370615 0.0019329 -0.300026 0.235353 0.327138 0.0334329 -0.192932 0.17235 -0.132904 0.041555 0.478846 -0.145848 0.180962 -0.364221 -0.301834 0.158767 0.0200024 -0.267752 0.0580104 -0.308455 0.217409 0.610396
438 0.282081 0.135075 0.275677 -0.0915017 0.220359 0.0762147 0.234794 -0.270415 0.175496 -0.381544 -0.13607 0.461592 -0.229185 0.445382 0.694267 0.283994 -0.243441 0.391472 0.126556 0.137778 0.307013 -0.171714 -0.0275965 -0.315056 -0.418009 -0.0299851 -0.145157 0.0757368 0.0879877 -0.309724 0.524983 0.487394
336 0.376724 0.366064 0.342928 -0.245428 0.0979252 0.219927 0.00356151 -0.335961 0.0363562 -0.160192 -0.238963 -0.0488099 -0.143067 0.0389987 0.268833 0.206981 0.341836 0.580441 -0.22738 -0.277229 0.181664 -0.178154 0.287857 -0.238279 -0.00746501 -0.00916876 -0.0420399 0.0347816 -0.237125 -0.401233 0.43527 0.332487
456 0.278381 0.491094 0.372593 0.0689252 0.00773501 -0.0869894 0.182768 0.105399 0.376141 -0.40769 -0.0926559 0.167327 -0.222717 0.363685 0.555464 0.301926 -0.119851 0.145613 -0.00155614 -0.0394235 0.520281 -0.470424 0.29188 -0.262936 -0.213225 0.204521 -0.122621 -0.220006 -0.155178 -0.131631 0.234422 0.425616
218 0.286661 0.289586 0.289502 -0.176354 0.136407 0.29134 0.083797 -0.249503 0.243269 -0.298457 -0.150332 0.0176526 -0.0218538 0.229408 0.238265 0.108731 0.203622 0.383381 -0.0764688 -0.0690875 0.248516 -0.409892 0.16646 -0.309472 -0.151863 0.161617 -0.106114 -0.162413 0.0365922 -0.171401 0.183229 0.31944
680 0.544874 0.700109 0.153111 0.123651 -0.46534 0.03913 -0.0869304 -0.15286 0.503657 -0.180568 -0.145211 -0.198386 -0.136325 0.0189965 0.112171 0.407124 0.433129 0.251944 -0.13781 -0.0644872 0.595976 -0.217475 0.270182 -0.283841 0.053925 -0.17563 -0.397215 0.159058 -0.307339 -0.385393 0.378199 0.438327
69 0.323009 0.237233 0.183799 -0.083621 0.133453 0.146082 0.11868 -0.254292 0.163649 -0.202217 -0.117104 0.00533838 -0.0812846 0.165574 0.147718 0.0232594 0.162418 0.319557 -0.133845 -0.025632 0.231199 -0.212533 0.0990079 -0.230276 -0.250944 0.120106 -0.144165 -0.123603 0.0421663 -0.208738 0.152889 0.312671
331 0.355515 0.367924 0.346358 -0.00882349 0.0143057 0.145457 -0.00843153 -0.280266 0.361164 -0.175008 -0.138298 -0.0599665 -0.0138706 0.308801 0.233221 -0.0498979 0.195987 0.232273 -0.176915 0.0533366 0.440948 -0.346792 0.153213 -0.427611 -0.147942 0.114854 -0.0805965 -0.216044 0.106481 -0.265486 0.139312 0.389147
244 0.275288 0.205624 0.174066 -0.0998501 0.0899109 0.143229 0.124874 -0.188265 0.213609 -0.182944 -0.0469067 -0.0841737 -0.105617 0.134477 0.0943862 0.0727218 0.128841 0.274295 -0.046157 -0.0154524 0.217397 -0.236096 0.146302 -0.239151 -0.129503 0.132077 -0.139187 -0.096934 -0.00828089 -0.193005 0.186976 0.276771
62 0.312471 0.162203 0.179588 -0.105041 0.0650476 0.0416951 0.0494472 -0.232965 0.237999 -0.243698 -0.124454 0.00231665 -0.085085 0.107272 0.0850429 0.0615723 0.121579 0.283427 -0.125612 -0.0386148 0.211207 -0.289153 0.120634 -0.27707 -0.223958 0.157638 -0.107585 -0.126443 0.0408543 -0.201007 0.172715 0.32561
617 0.310428 0.198967 0.261974 -0.157604 0.0901271 0.246343 0.0662943 -0.25318 0.262187 -0.306929 -0.0600444 0.0175477 -0.167829 0.222121 0.130102 0.067281 0.124049 0.379458 -0.129952 0.04858 0.25642 -0.321176 0.141232 -0.261356 -0.188986 0.270569 -0.185577 -0.144453 0.00602419 -0.199454 0.191589 0.406128
7 0.535508 0.14411 0.465206 -0.207492 0.209531 0.250976 0.10401 -0.266678 0.438958 -0.164263 0.0786104 -0.241731 -0.0485746 0.0808968 -0.0123526 0.0580089 0.227945 0.414497 -0.201526 0.138025 0.420458 -0.0984735 0.280245 -0.384544 0.212564 -0.211535 -0.387997 0.0292352 -0.351701 -0.592221 0.566301 0.2844
672 0.318344 0.219108 0.219109 -0.0790071 0.0702387 0.133061 0.0920783 -0.221386 0.256971 -0.150369 -0.0999034 -0.0348811 -0.145135 0.122285 0.132338 0.0468814 0.121748 0.265143 -0.113288 -0.0846047 0.169902 -0.262922 0.105749 -0.258215 -0.185803 0.145237 -0.082092 -0.104445 -0.0283988 -0.179189 0.171996 0.323861
9 0.309294 0.300235 0.222932 -0.169764 0.153508 0.193266 0.213141 -0.302638 0.266053 -0.429103 -0.214189 0.0968833 0.00712165 0.190066 0.0969755 -0.0037803 0.147288 0.343931 -0.181231 -0.0206596 0.211789 -0.246226 0.0176263 -0.271838 -0.20608 0.13065 -0.246413 -0.116567 0.100287 -0.149788 0.192925 0.396856
265 0.592677 0.490396 -0.0712284 0.00714279 0.193445 0.301282 -0.0170884 -0.0996962 0.15518 -0.229175 0.00127281 -0.0733116 0.0204486 0.185241 0.222749 0.26615 0.260355 0.391237 -0.154972 0.671405 0.54959 -0.372633 0.421886 -0.302853 -0.226154 0.0190597 -0.220465 -0.110229 -0.209004 -0.317447 0.0125972 0.337733
607 0.149628 0.138834 0.322037 -0.136775 0.316638 0.267186 0.000196609 -0.402565 0.312375 -0.381666 -0.213981 0.0365057 -0.0990732 0.331541 0.0397951 -0.121729 0.141544 0.31866 -0.259967 0.0844943 0.298131 -0.210999 0.19928 -0.449744 -0.208212 0.130107 -0.0751396 -0.28735 0.20379 -0.211628 -0.0082874 0.503983
527 0.142094 0.0251546 0.170969 -0.124333 0.133131 0.284989 0.208379 -0.252872 0.489154 -0.431866 -0.140838 0.23733 -0.236226 0.239278 -0.0458016 0.115259 0.098687 0.539491 -0.21073 -0.138176 0.150768 -0.174007 0.110851 -0.285682 -0.176808 0.362785 -0.23079 -0.113105 0.00789522 -0.177154 0.194294 0.374163
113 0.254302 0.388696 0.285538 0.0296927 -0.00721448 -0.0136283 -0.280477 -0.23148 0.447412 -0.222474 -0.0624552 0.302898 0.175999 0.201013 0.329208 0.244513 0.329415 0.0611962 -0.178172 0.101422 0.479687 -0.352304 0.112178 -0.582738 -0.310108 -0.0373883 -0.271399 -0.388551 0.0578079 -0.428102 0.183322 0.339883
814 0.246528 -0.206371 0.169178 -0.796781 -0.0284167 0.198927 0.374951 0.022754 -0.223693 -0.501644 -0.22968 -0.176107 -0.162908 -0.157884 -0.744781 -0.166701 -0.0701654 0.457756 0.303464 -0.437615 0.740047 -1.01961 0.43377 -0.461504 -0.670023 0.487503 -0.343661 0.6345 -0.0126471 -0.170433 0.28069 -0.0506001
1 0.293648 0.109421 0.203663 -0.0683101 0.139268 0.116591 0.124972 -0.220774 0.109658 -0.394828 -0.11056 -0.0116697 -0.0722438 0.0237218 -0.00419891 0.138459 0.108447 0.59476 -0.1829 -0.0331655 0.174331 -0.342722 0.227038 -0.400686 -0.367684 0.00687649 -0.190596 -0.127382 0.124722 -0.0871954 0.160076 0.452979
132 0.289419 0.122963 0.25875 -0.015736 0.172734 0.0736026 0.0226105 -0.137391 0.238274 -0.434816 -0.157278 -0.0864207 -0.0314433 0.0359164 0.0696382 0.0240939 0.0874992 0.345739 -0.0917053 -0.147789 0.313058 -0.453483 0.321189 -0.45501 -0.199984 0.093577 -0.178909 -0.0896989 0.135988 -0.107173 0.136834 0.244459
194 0.074472 -0.0018155 0.148899 -0.258326 0.271392 0.347424 -0.0094825 -0.277006 0.269164 -0.857414 -0.189713 0.0801874 -0.206063 0.209984 -0.419467 0.332615 0.107956 0.661313 -0.265744 -0.121074 0.134558 -0.130951 0.313068 -0.187677 -0.0386519 0.218044 -0.468402 0.190471 0.230288 -0.193962 0.161931 0.395556
163 0.256896 0.204159 0.445115 -0.110254 0.18978 0.308158 0.133934 -0.118212 0.227739 -0.351407 -0.0806836 -0.0997697 -0.131059 0.1842 0.325664 -0.00434487 0.137377 0.412499 -0.105735 -0.0535388 0.288077 -0.725894 0.270568 -0.277638 -0.221427 0.297037 -0.0481856 -0.125441 0.0873211 -0.0426722 0.0592193 0.345215
632 0.310261 0.0724177 0.24723 -0.0281733 0.269472 0.0917069 0.0529768 -0.223398 0.155083 -0.396158 -0.0586838 -0.116929 0.0239949 0.160191 0.107898 0.0372147 0.0880592 0.411797 -0.0308603 -0.229462 0.297966 -0.393528 0.176986 -0.285485 -0.209137 0.193274 -0.230512 0.0463572 0.185943 -0.129648 0.141196 0.285371
176 0.265769 0.100821 0.175928 -0.0601306 0.132537 0.0898009 0.109129 -0.230659 0.171335 -0.306703 -0.0693857 -0.0625544 0.0226223 0.0819397 0.0681342 0.033122 0.0610494 0.430082 -0.0979198 -0.119905 0.180912 -0.317302 0.149986 -0.270485 -0.178973 0.142899 -0.187382 -0.0072404 0.125892 -0.109737 0.145445 0.244033
