704 32
805 -0.621374 0.299023 0.153417 0.0207148 -0.0189727 -0.520243 0.632495 -0.702435 0.89831 -0.624811 0.52687 0.0425138 -0.192433 0.886 0.124814 0.172821 0.19745 0.790195 -0.589891 0.060145 0.427936 -0.0832743 -0.415773 -0.129309 -0.477395 0.65208 -0.253568 -0.277354 0.00265479 -0.237591 0.118134 -0.00406317
566 0.100766 0.0212585 0.118248 -0.216317 0.0104415 -0.0328448 0.118748 -0.252598 0.169637 -0.145158 -0.0470515 0.14787 -0.181029 0.292821 0.0520278 0.159536 0.158219 0.316481 -0.169392 -0.0603936 0.324226 -0.266248 -0.151908 -0.248121 -0.19465 0.197892 -0.180783 -0.0486265 -0.147945 -0.0715393 0.289638 0.218074
452 -0.151102 0.0918708 0.258632 -0.504896 -0.0329114 0.0750725 -0.131589 -0.384142 0.364687 -0.364334 -0.0305886 0.0374787 0.129518 0.219362 0.305296 0.138964 0.222982 0.0557544 -0.282969 -0.0243991 0.373507 -0.329931 -0.332811 -0.642753 -0.620834 0.0807909 -0.0529245 -0.151783 0.0060357 -0.0937809 0.429893 0.423027
32 0.0519719 0.11186 0.50258 -0.439109 0.163928 -0.17855 0.39544 -0.442639 0.235632 -0.288948 0.282561 0.183255 -0.0708705 0.287582 0.0726799 0.0667444 -0.111641 0.242429 -0.00773806 -0.316443 0.682882 -0.562518 0.0581413 -0.333682 -0.435037 -0.304173 0.13022 -0.149564 -0.0123223 0.108886 0.466296 0.238617
230 0.0729432 -0.46211 -0.0740887 -0.140467 0.0515262 0.256083 0.23927 -0.197986 0.328464 -0.226965 -0.338358 0.477311 -0.457993 0.75808 -0.0398741 0.094589 0.391009 1.31082 -0.461995 -0.319602 0.304443 0.0157918 -0.266875 -0.579556 0.0643946 0.371294 -0.327739 -0.0453997 0.0350926 -0.0883459 0.314191 0.364435
303 0.365587 -0.310601 -0.00792954 -0.4397 -0.200878 0.226418 0.45606 -0.992464 0.357689 -0.534592 0.00797236 0.490744 0.232721 0.413328 0.141615 -0.229874 -0.229994 0.797597 -0.291741 0.38213 0.651215 -0.0787303 -0.0293231 -0.309148 -0.0230922 0.398908 -0.566662 0.219646 -0.0113638 -0.272752 0.513345 -0.00101641
529 -0.0384506 -0.31437 -0.18808 -0.271509 0.225124 -0.0813173 0.0315182 -0.353386 0.823249 -0.216692 -0.353718 0.287648 -0.265749 0.469075 -0.456476 0.80666 0.334029 0.237572 -0.455532 0.0838804 0.815386 -0.501275 0.221284 -0.528994 0.101245 0.195654 -0.847166 0.00897359 -0.246721 0.0567823 0.442718 -0.199395
513 0.0482966 0.0695842 0.0913929 -0.276866 0.00662384 0.276262 0.407238 -0.633548 0.149104 -0.21465 -0.0013974 -0.30152 -0.366967 0.341398 0.0395755 -0.0118754 -0.378525 0.610513 -0.29394 -0.100615 0.603473 -0.0219514 -0.541737 -0.522695 -0.329107 0.380756 -0.00720319 0.466418 0.0697089 0.0963314 0.790291 0.264598
628 -0.0440962 0.789533 0.18422 -0.275996 0.417593 -0.353654 0.244931 -0.541602 0.327927 -0.268702 -0.302345 -0.0798147 -0.448096 0.433794 0.00710763 0.163784 0.800807 -0.0258731 -0.492151 -0.204476 0.697142 -0.44098 -0.319804 -0.482862 0.145891 0.0117312 -0.0968049 -0.109954 -0.137183 0.395594 0.681827 0.111804
692 0.297498 -0.03724 -0.014827 0.185622 0.0140845 0.0865651 0.0349591 -0.50222 0.462028 -0.0506513 0.146933 0.533456 0.116202 0.14125 0.108116 -0.144446 0.0931555 0.84461 -0.323654 -0.255611 0.541483 -0.652157 -0.205341 -0.511047 -0.231903 -0.0534626 -0.331739 -0.135601 -0.408575 0.163569 0.251527 0.135828
412 0.38568 -0.177278 -0.187944 -0.210335 0.20763 0.26536 0.312935 -0.108487 -0.0085817 -0.0509599 0.276519 -0.0276943 -0.297964 0.190158 0.489541 0.00662836 0.310595 1.04926 -0.28179 -0.1598 0.581591 -0.51455 -0.486619 -0.344725 0.399091 0.128641 -0.15411 -0.0823153 0.2537 -0.256157 0.497992 0.343932
119 0.0476293 0.15289 0.485423 -0.222203 0.295666 -0.00351766 -0.28751 -0.135081 -0.0832408 -0.352676 -0.08032 0.30952 -0.0564383 0.603303 0.157224 0.616547 0.241393 0.383579 -0.59371 -0.0823082 0.309356 -0.535256 -0.206512 -0.56796 -0.543656 0.287677 -0.146246 0.100403 -0.14921 0.0116966 0.234138 0.232773
332 0.457582 -0.250274 0.200551 -0.311169 0.494028 -0.110112 0.436459 -0.335372 0.232888 -0.394632 -0.199602 0.0422823 -0.348965 0.695914 -0.257898 -0.166856 0.359639 0.370124 -0.682959 -0.0588712 0.912992 0.0247265 0.162939 -0.0865125 0.0293498 0.243682 -0.559221 0.050714 0.219205 -0.0248185 0.244581 0.399623
479 -0.077101 -0.455551 0.0416528 -0.128469 0.267157 0.0836092 0.550371 -0.410026 0.436028 -0.315851 -0.0189382 0.0474392 -0.132928 0.575949 0.0765905 -0.42741 -0.183137 0.424167 -0.379588 -0.520605 0.874081 -0.273207 -0.150839 -0.418284 -0.12358 0.633292 -0.190603 -0.0829111 0.545144 -0.193392 0.312737 0.587528
563 0.509331 0.50279 0.116262 -0.117988 0.0384888 -0.10413 0.383027 -0.403031 0.0975136 -0.63932 0.143112 0.234664 0.084755 0.246127 0.0155869 -0.286221 0.438582 0.253927 -0.136469 -0.105946 1.11173 -0.329578 -0.155887 -0.604325 -0.0642637 0.194823 -0.304078 -0.278911 -0.0343866 -0.0782754 -0.11135 0.519168
643 0.0814718 -0.351468 0.523731 -0.106281 0.304573 -0.288993 -0.0529453 0.10886 0.165395 -0.244386 -0.307988 0.522047 -0.38889 0.695863 0.170532 0.335303 0.191026 0.551685 -0.520658 0.0123059 0.426263 -0.13876 -0.0765412 -0.441691 -0.134563 0.528969 -0.528061 -0.322555 0.100289 0.301667 0.501295 0.69761
108 -0.0614107 -0.267745 0.0448879 -0.104558 0.443669 -0.113828 0.330572 -0.111758 0.389616 -0.430674 -0.34626 0.725331 -0.149914 0.426021 0.378362 0.425936 0.318876 0.664465 -0.567958 -0.74688 0.715812 -0.210123 -0.176448 -0.288247 -0.36671 0.192515 -0.331069 -0.095659 0.0374307 -0.10232 0.373422 0.0395625
800 0.488687 -0.371846 0.0549229 -0.207452 0.224679 0.307217 0.832172 -0.865341 0.328448 -0.0777271 0.20661 -0.30679 -0.0687527 0.243775 -0.281753 0.0985881 -0.0371755 0.344118 -0.638259 -0.123475 0.750018 -0.141422 -0.417766 -0.0650058 0.0805799 0.790089 0.269093 -0.269054 -0.292701 -0.515041 0.0197141 -0.0167614
305 0.346548 0.235557 -0.145661 -0.394176 -0.115005 0.346719 0.0798663 -0.250575 0.110182 -0.142694 0.117752 0.170843 -0.532794 0.726646 0.14795 -0.40196 0.567554 0.645011 -0.211127 -0.128878 0.254542 0.221819 -0.00664348 -0.394351 0.301646 0.313733 -0.521318 -0.127107 -0.494673 -0.0920627 0.574632 0.307145
716 -0.00426875 -0.0049862 -0.111301 -0.530484 0.0861861 0.306407 0.347702 -0.519148 0.123959 -0.272253 0.444354 0.116132 0.201492 0.0712254 -0.130981 -0.0149427 0.232761 0.440151 -0.573034 0.0858318 0.498604 -0.253056 -0.438106 -0.669597 -0.029875 0.109028 -0.0738986 0.0411626 0.0347687 -0.215225 0.95614 0.00537184
530 0.300243 -0.570873 0.261672 -0.41138 0.679009 0.807822 0.448096 -0.475442 -0.0653274 -0.236445 0.0381142 -0.363721 -0.33223 0.50279 -0.169667 0.100752 -0.0670873 0.657815 -0.152268 -0.407261 0.221892 -0.294182 -0.0342441 -0.297714 -0.144121 0.0134518 -0.598793 0.202009 0.114812 -0.0405888 0.314139 0.31726
99 0.199172 -0.274813 0.590113 -0.532809 0.201079 0.31479 -0.180546 -0.136984 -0.0052671 0.12105 0.137254 -0.402256 -0.576867 0.701203 -0.0194025 -0.285019 0.258191 0.422077 -0.756784 -0.18367 0.306276 0.0440047 -0.0897426 -0.388879 -0.033658 0.418155 -0.188236 -0.0528289 -0.128385 0.134736 0.448189 0.269235
74 0.543183 -0.182831 -0.140502 -0.470007 -0.140941 0.296723 0.33354 0.0510993 -0.18036 0.113763 0.507119 -0.111068 -0.181272 1.02806 0.0202101 -0.0730077 -0.0989888 0.28049 -0.361078 -0.0228585 0.896286 0.138835 -0.224299 -0.0922327 -0.166823 0.171833 -0.597868 -0.173572 -0.0971973 -0.251835 0.375819 0.612547
480 0.0898848 0.0402279 0.169824 -0.36487 0.164806 0.245332 0.201076 -0.548085 0.196367 -0.00357994 0.227325 0.150693 -0.243509 0.420667 0.146989 -0.0273196 -0.218566 0.499028 -0.0322193 0.0283016 0.508749 -0.338193 -0.0229378 -0.605331 0.175009 -0.0392587 -0.219606 -0.333802 0.0698379 -0.126529 0.406872 0.3419
243 0.657783 -0.390762 0.485041 -0.293351 0.418407 -0.098481 0.165778 -0.0182561 0.222498 -0.581033 -0.191754 -0.0823841 -0.360841 -0.0881291 -0.270433 0.119142 0.223232 0.421895 -0.301284 0.0897081 0.779048 -0.452313 0.0514543 -0.441886 0.126081 0.155326 -0.450659 -0.0730823 0.0663311 -0.306824 -0.0736386 0.422197
182 0.247619 -0.0612282 -0.0695815 -0.368792 0.292845 0.309596 0.128851 -0.602776 0.232138 -0.139438 -0.500942 -0.120974 -0.318515 0.361655 0.111371 -0.0815492 0.460465 0.140891 -0.24656 0.141287 0.608598 -0.435033 -0.0642033 -0.119864 0.044803 0.371228 -0.435108 -0.0350324 0.0102671 -0.236219 0.203211 0.500582
422 0.6865 0.0373088 0.0459873 -0.255618 0.432324 -0.0490873 0.230446 -0.297338 0.259183 -0.242793 0.270322 -0.177696 -0.0318197 0.229336 -0.577566 -0.303603 0.239986 0.427679 -0.465261 0.171669 1.07635 -0.263491 -0.0946562 -0.355488 0.0158079 0.23828 -0.480563 0.29608 -0.31277 -0.194803 0.176112 0.344365
8 0.156155 -0.0395864 0.523751 -0.238731 0.19409 0.356098 0.461163 -0.136267 0.313856 -0.155827 0.0861236 -0.0722572 -0.177358 0.00542614 0.143473 -0.357773 0.16224 0.283467 -0.335994 -0.0981119 0.54386 -0.458914 -0.366397 -0.402357 0.0299464 0.194137 -0.694569 -0.195125 0.0340879 0.0680122 -0.0280037 0.751447
432 0.983477 0.0455068 0.047392 -0.217552 0.532561 0.0201389 0.344442 -0.289273 0.455161 -0.227087 -0.154703 0.170842 -0.286878 0.103906 0.0978315 0.167564 0.109309 0.578627 -0.483 -0.200774 0.7006 -0.238371 -0.229919 0.00592368 -0.00613816 0.431051 -0.673176 0.453314 0.170735 -0.122363 0.312589 0.438591
329 0.207131 -0.0953949 0.358478 -0.723155 0.405447 0.146386 -0.0381993 -0.512476 0.0465088 -0.3632 0.175741 -0.0225362 -0.0691591 0.580724 -0.0711957 0.271322 0.365103 0.205067 -0.125695 -0.197239 0.883596 -0.235072 -0.197387 -0.0764541 -0.473697 -0.210255 -0.1261 -0.170263 0.375737 -0.435845 0.244295 0.0351255
478 0.209317 -0.357138 -0.114993 0.0978341 0.0477701 -0.104908 -0.000171692 -0.574422 0.552086 -0.410543 -0.0804204 -0.24807 -0.134365 0.382239 0.155221 -0.170928 0.0926511 0.348938 -0.595756 -0.0466004 0.832255 -0.460058 -0.284731 -0.554413 -0.0778003 0.664902 -0.365718 -0.0522431 0.152241 -0.00254866 0.0944251 0.552575
519 0.218974 -0.12911 0.0648168 -0.350872 0.603954 0.0402187 0.346368 -0.25594 0.13444 -0.344245 -0.261936 -0.259396 -0.681356 0.325214 -0.363794 -0.112632 0.615824 0.51943 -0.438136 0.178391 0.523385 -0.0632851 0.272253 -0.522079 0.0846841 -0.119666 -0.504216 -0.0346309 0.117555 -0.366777 0.192418 0.277315
75 0.539617 -0.197808 0.130414 -0.171211 0.345166 0.216743 0.181667 -0.554835 0.374649 -0.259272 -0.00634101 0.139292 -0.184219 0.309022 -0.0323504 -0.299974 0.119852 0.414648 -0.420744 -0.110488 0.74529 -0.325596 -0.247313 -0.247972 -0.0750759 0.312516 -0.473222 -0.0425717 0.035252 -0.117469 0.197042 0.395076
39 0.212448 0.0652468 0.146355 -0.332992 -0.0233687 0.128277 0.101047 -0.380941 0.124335 0.00937149 0.0992395 -0.133942 -0.140454 0.316207 0.171519 -0.0867172 0.216555 0.18427 -0.201602 0.0349954 0.414525 -0.298079 -0.233808 -0.297572 -0.185706 0.177457 -0.187735 -0.00352155 -0.1322 -0.162658 0.280239 0.41958
658 -0.200849 0.0788128 0.519479 -0.51093 0.259442 0.480666 0.137159 -0.271134 0.275853 0.0203251 0.536146 -0.0940605 0.271701 0.0849698 0.191978 -0.0608402 0.786996 0.405434 -0.0247503 -0.0154437 0.703363 -0.0347738 -0.303634 -0.258402 -0.210798 0.0310771 -0.0398466 0.433394 -0.326323 -0.198014 0.0717598 0.457261
645 0.0935727 -0.263431 0.176142 -0.191109 0.221949 0.176285 0.40781 -0.10304 0.597662 -0.109364 0.249507 0.0912427 -0.222893 0.287255 0.211553 -0.0110873 -0.133031 0.327957 -0.341824 -0.604394 0.667859 -0.606687 -0.262043 -0.172654 0.201492 0.381939 -0.509435 0.168999 0.0844922 -0.154344 0.619879 0.219928
104 0.434949 0.000887748 -0.0893973 -0.376331 0.256034 -0.314695 -0.16994 -0.37215 0.0127464 -0.27202 -0.483649 0.202149 -0.142053 0.261295 -0.000906105 0.310276 0.323274 0.592271 -0.81564 0.500899 0.477337 -0.627808 -0.462355 -0.612162 -0.21179 0.0114419 -0.281421 -0.283855 0.20698 -0.31937 -0.00968308 0.013409
73 -0.143541 0.351649 -0.0975403 -0.114218 -0.0791234 0.19581 0.588282 -0.79728 0.68112 -0.480111 -0.350377 0.188824 -0.154375 0.476366 0.0557439 -0.472814 0.514855 0.219406 -0.386939 -0.316414 0.634375 -0.184073 -0.254608 -0.567352 -0.0872331 0.133339 -0.319324 0.250059 -0.107042 0.132577 0.577451 0.038236
81 0.206912 0.0318847 0.176239 -0.284942 0.0579891 0.0739693 0.197936 -0.279193 0.189144 0.00935632 0.15028 -0.121868 -0.283345 0.345246 0.155924 -0.104122 0.219067 0.32 -0.180654 0.0900501 0.601386 -0.460788 -0.0630535 -0.278252 -0.10123 0.0411392 -0.152968 -0.119977 -0.0887378 -0.0640069 0.253435 0.310863
301 0.268756 -0.0869675 -0.16371 -0.125018 0.272932 0.171013 0.141316 -0.676375 0.184183 0.0876967 -0.315505 -0.143353 -0.51038 0.404648 0.488395 -0.174552 0.197618 0.356685 -0.131408 -0.0562168 0.592536 -0.69897 -0.419229 -0.335158 0.160718 0.230186 -0.472061 0.0104828 0.131183 0.0170985 0.13485 0.314174
18 0.344109 -0.322338 0.469476 -0.423097 0.0411363 0.183093 0.101624 -0.37574 0.332975 -0.194156 -0.0901449 0.112607 -0.374931 0.230449 -0.0270307 0.073894 -0.121247 0.441632 -0.251461 0.0687229 0.481867 -0.222771 0.147961 -0.177447 -0.0632525 0.262971 -0.501241 -0.429781 0.190576 -0.107897 0.425798 0.198193
411 0.441521 -0.190593 0.237079 -0.19938 0.0260166 0.209842 -0.040589 -0.492953 0.303502 -0.184063 0.0429498 -0.284939 -0.363097 0.322078 0.183881 -0.57363 0.480228 -0.101155 -0.35881 0.0828939 0.472059 -0.217716 0.255348 -0.177515 -0.175604 0.594716 -0.184192 -0.437748 0.180041 -0.292613 0.0877548 0.62213
550 0.232384 0.104387 0.110433 -0.291082 0.131151 -0.054209 0.371301 -0.149875 0.00174378 -0.243239 0.255853 -0.124424 -0.133951 0.37654 0.140246 0.166927 -0.0306641 0.363923 -0.148015 -0.20469 0.643624 -0.573992 -0.0757578 -0.398363 -0.166879 -0.0543069 -0.00893496 0.193849 -0.226802 -0.143525 0.330133 0.32776
318 0.310134 0.162716 -0.145224 -0.432955 -0.0631001 0.138031 -0.154338 -0.59365 -0.0644454 -0.0229229 -0.173971 0.0324828 0.0539608 0.130464 0.300302 0.332172 0.535993 0.484792 0.294404 0.669936 0.757076 -0.477328 -0.184981 -0.172218 -0.0041478 0.0354326 -0.281192 -0.0218925 -0.341418 -0.519074 0.350861 0.0950039
321 0.380759 -0.0417422 0.31579 -0.348168 0.175074 0.23979 0.271439 -0.478892 0.453108 -0.0976137 0.195485 0.103142 -0.266854 0.223155 0.358836 -0.0123576 -0.212353 0.461897 -0.26903 -0.160033 0.228766 -0.44963 -0.110046 -0.441267 0.0578592 -0.0741586 -0.259299 0.0634327 -0.0816284 -0.286936 0.303514 0.255429
152 0.267375 -0.0710375 0.123539 -0.386778 0.411366 0.122151 0.166342 -0.328839 0.264982 -0.276387 -0.0428871 -0.0376685 -0.385903 0.11049 -0.0275045 0.249962 0.0811976 0.621058 -0.257448 -0.101582 0.459151 -0.514367 0.0335011 -0.590794 -0.140099 -0.120564 0.018194 0.0271541 0.0115606 -0.110931 0.267018 0.196045
684 0.248215 0.081743 0.204945 -0.305261 0.0658919 0.124233 0.058619 -0.405974 0.180541 -0.0951128 0.00236657 -0.0892608 -0.16204 0.383755 0.102207 -0.140371 0.156448 0.425818 -0.251599 0.148074 0.492749 -0.38945 -0.160306 -0.350254 -0.101369 0.183945 -0.199306 -0.124302 -0.0185993 -0.145013 0.224844 0.385039
26 0.280562 -0.108746 0.192139 -0.366559 0.161858 0.0790511 0.216326 -0.231586 0.209797 -0.0968675 0.0840805 0.0375477 -0.202738 0.227481 -0.0386344 0.0436971 0.179153 0.36372 -0.188246 -0.0587625 0.441119 -0.273891 -0.0983705 -0.276922 -0.129575 0.118894 -0.293782 -0.0514284 -0.0947368 -0.183686 0.261299 0.273563
679 -0.0331787 -0.198774 0.136279 -0.400287 -0.055257 0.174783 -0.117003 -0.307877 0.061651 -0.0948428 -0.126146 -0.187527 -0.0393586 0.386452 0.000246327 -0.0994821 0.296768 0.199831 -0.443325 0.429189 0.430388 -0.324373 -0.195579 -0.604722 -0.105019 0.387449 -0.342421 -0.151043 0.0364367 -0.188635 0.272328 0.585122
461 0.141623 -0.0539538 0.354662 -0.378409 0.0402328 0.175136 0.198867 -0.328157 0.173319 -0.0572375 0.0610833 -0.150132 -0.286105 0.267956 0.134223 -0.0300412 0.203533 0.35904 -0.0148452 0.0315034 0.496576 -0.513387 0.0204094 -0.345348 -0.103589 0.0330047 -0.107475 -0.145637 -0.141985 -0.182808 0.256424 0.3998
51 0.245869 -0.0549869 0.168777 -0.270859 0.0989039 0.0527321 0.174803 -0.3128 0.186821 -0.0373912 0.0452086 -0.0224586 -0.180098 0.196809 -0.044164 -0.0618055 0.228101 0.305986 -0.196742 -0.0293313 0.401781 -0.283157 -0.12316 -0.255092 -0.128946 0.130404 -0.194977 -0.0179548 -0.12939 -0.157799 0.167904 0.242203
197 0.182757 0.558988 0.779572 -0.0381202 0.150863 0.0239486 0.344551 -0.611563 0.273794 -0.139153 -0.300772 -0.0314545 -0.244417 0.334631 -0.0468875 -0.237542 0.129822 0.262737 -0.324238 -0.00127787 0.237939 -0.75246 -0.35118 -0.43978 -0.270998 -0.33321 0.0983991 0.27891 -0.210788 0.374087 0.503117 0.225735
293 0.387058 -0.208817 -0.0524817 -0.246403 0.183871 0.0608281 0.187559 -0.335572 0.399289 -0.170133 -0.0170273 0.081017 -0.323094 0.249499 -0.034271 -0.0607074 0.197986 0.519752 -0.457985 -0.191584 0.559697 -0.292582 -0.153969 -0.30671 -0.0350984 0.297025 -0.395427 -0.0587737 0.0179426 -0.197433 0.271457 0.202804
801 -0.0185942 -0.282809 0.202796 -0.127319 -0.499417 -0.395234 0.289106 -0.360874 -0.127249 0.507143 -0.151913 -0.0943829 -0.360724 0.0262342 -0.28964 0.154251 0.24926 0.308413 -0.328543 -0.00382936 0.466658 -0.301585 0.0424708 -0.196562 -0.342773 -0.00153879 -0.183459 -0.176727 -0.151774 -0.340577 0.234393 0.635899
102 0.444226 -0.26996 0.354572 -0.634888 0.604134 0.161255 0.209741 -0.450611 0.046133 0.0279478 0.123133 -0.241724 -0.119832 0.0943921 0.102767 0.385122 0.139507 0.39418 0.0545267 0.181637 0.522954 -0.416457 -0.278489 -0.0731878 -0.228955 -0.189642 -0.133469 0.502279 -0.106496 -0.302352 0.463408 0.130851
370 0.275033 -0.0370633 0.311216 -0.257723 -0.0889022 -0.00963622 0.124982 -0.308186 0.23105 -0.0345019 0.0224788 -0.0984592 -0.140007 0.247023 0.0982042 -0.0257837 0.222425 0.34103 -0.107229 0.0773196 0.407188 -0.481618 -0.0986808 -0.358466 -0.233771 0.114445 -0.134778 -0.109141 -0.208155 -0.0992332 0.248219 0.374173
206 0.271504 0.0118399 0.206119 -0.231674 0.0199068 -0.0751496 0.135293 -0.349341 0.215611 -0.113468 -0.158051 0.0121773 -0.273624 0.251857 0.0755025 -0.11908 0.24723 0.288621 -0.207296 -0.0039882 0.459358 -0.373248 0.00446936 -0.282434 -0.194908 0.246789 -0.182272 -0.156268 0.016195 -0.143231 0.15032 0.389827
37 0.256554 -0.0385223 0.630617 -0.73477 0.209902 0.0328122 0.293511 0.131713 -0.126959 -0.272936 0.633579 -0.279731 -0.369482 0.335526 0.0100243 0.270991 0.334978 0.245816 -0.150777 -0.186715 0.552046 0.0785181 0.468314 -0.133403 -0.190786 -0.279451 0.0264495 0.0497722 -0.288839 -0.246094 0.677482 0.587643
142 0.0728536 0.00726753 0.355513 -0.363276 -0.145551 -0.0289098 -0.0248962 -0.256627 0.0793633 0.03794 -0.0338168 -0.149339 -0.168273 0.228747 0.167652 0.0380589 0.30426 0.301247 -0.118183 0.19804 0.244677 -0.492594 -0.0754316 -0.522175 -0.200878 0.0560782 -0.00108065 -0.200104 -0.179735 -0.15184 0.255137 0.451477
511 0.142133 -0.101336 -0.168239 -0.761742 -0.252711 0.108086 0.395475 -0.80524 -0.108468 0.0125258 -0.265553 -0.181209 0.0187876 0.168761 0.548588 0.0578244 0.0334791 0.42352 0.0317639 0.529636 0.670189 -0.37988 -0.503691 -0.0751176 0.014949 0.135796 -0.181173 0.394864 -0.0411708 -0.521725 0.759353 0.0733511
464 -0.390606 -0.0552508 0.149392 -0.657579 -0.0449463 0.475059 0.127431 -0.404725 0.176078 -0.152236 -0.510604 -0.756515 -0.513885 0.0907881 0.0694668 0.296662 0.631337 -0.0726321 0.47916 0.557664 0.255307 -0.452147 0.0337377 -0.688977 -0.417989 0.21427 -0.303178 -0.260327 -0.132572 -0.257391 0.401781 0.20605
90 0.116397 -0.0164359 0.537359 -0.436787 -0.392903 0.176209 0.0633046 -0.625976 0.322241 0.0799363 0.199472 -0.194542 -0.312453 0.117434 0.514094 -0.0281952 0.203343 0.116041 0.216207 0.431316 0.643175 -0.606573 0.425812 -0.40938 -0.137106 -0.128916 0.105865 -0.482297 -0.218453 -0.097018 0.323375 0.332789
419 0.0202142 -0.131538 0.650905 -0.297629 0.0304964 -0.0915299 -0.117696 -0.369107 0.0701034 -0.0481947 0.1945 -0.599544 -0.0503611 0.240394 0.0868502 -0.0470127 0.209953 0.51746 0.010202 0.31892 0.659134 -0.277532 0.042554 -0.547771 -0.542211 0.0247111 0.323912 0.0498109 -0.222492 0.0442588 0.229968 0.558273
697 0.0663092 -0.0603131 0.418908 -0.256222 0.0978735 0.425256 0.300503 -0.230897 0.488653 -0.405631 -0.29721 -0.0674735 -0.119221 0.178507 -0.0151559 -0.189318 -0.152946 0.0194021 0.0899265 -0.0065672 0.486718 -0.380507 -0.168007 -0.725093 -0.429117 -0.01743 -0.50335 -0.0980763 -0.166244 0.203911 0.567454 0.444602
88 -0.298413 0.26089 0.275802 -0.547208 -0.525092 0.0315037 0.111166 -0.102681 -0.275634 -0.122847 0.06691 -0.0599935 -0.148964 0.632147 0.336829 0.118769 0.212199 0.28619 -0.0038224 0.562416 0.302109 -0.406384 0.053509 -0.730935 -0.259922 0.139308 -0.0881475 -0.322848 -0.205738 -0.0946921 0.297336 0.812123
76 0.0700321 0.0261023 0.570015 -0.322854 0.142439 0.249341 0.0777711 -0.351801 -0.0922009 -0.358836 0.0481875 -0.341178 -0.242338 0.0382881 0.194367 -0.0844888 0.148376 0.455367 0.237208 -0.130918 0.271211 -0.557566 0.106777 -0.391769 -0.315558 -0.224333 0.438922 0.0991353 -0.407068 -0.208185 0.335165 0.655959
308 -0.0319991 0.2417 0.204394 -0.279223 -0.300759 0.0420138 0.172149 -0.354308 -0.228572 -0.491917 0.0745086 -0.303182 -0.0437355 0.292227 0.189873 0.0119401 -0.142283 0.332095 -0.124564 -0.0260741 0.390425 -0.249294 -0.0373497 -0.590646 0.142182 0.236642 0.142589 0.0489292 -0.36373 -0.562078 0.534141 0.99223
23 0.152996 0.270784 0.110001 0.0465771 0.0185867 0.00206492 0.313841 -0.331797 0.184278 -0.148109 0.0809139 0.0902378 -0.19913 0.579193 -0.0238563 -0.324864 0.0564845 0.481537 -0.37011 -0.00264599 0.87327 -0.504957 -0.216781 -0.513763 0.0522921 0.0170571 -0.12615 0.052344 -0.0262578 0.0275655 0.419706 0.340111
147 0.386233 -0.000830479 0.308602 -0.22311 0.432059 0.0713898 0.180874 -0.331728 0.248829 -0.148339 -0.0905725 0.00695978 -0.225299 0.31203 -0.100084 -0.139867 0.232827 0.374832 -0.209403 -0.115936 0.607881 -0.35433 0.160644 -0.412269 -0.2088 0.308462 -0.29606 0.0161587 0.0698593 0.0134316 -0.0557297 0.430597
343 -0.201256 -0.302539 0.728933 -0.234233 -0.177154 0.0742643 0.248039 -0.312426 0.518721 -0.101663 0.0878241 -0.272886 -0.260871 0.00233881 0.411755 -0.192358 -0.320663 0.331559 -0.0318673 -0.284915 0.265285 -0.996324 -0.0253929 -0.746524 -0.383436 -0.170577 0.439956 -0.079809 -0.0116325 -0.0864558 0.183327 0.595735
93 0.243252 0.100543 0.375442 -0.33124 -0.0934312 0.0312005 0.0732024 -0.295345 0.117271 0.03182 0.110571 -0.108471 -0.207942 0.227179 0.103201 -0.0627049 0.265989 0.313486 -0.130159 0.0961159 0.42282 -0.471918 -0.0510082 -0.397547 -0.165117 0.0916757 -0.0998196 -0.12736 -0.163321 -0.110344 0.273486 0.346014
342 -0.091678 -0.337717 0.41613 -0.168242 -0.226775 0.217416 0.285241 -0.174226 -0.00580792 -0.0769525 0.213963 -0.244938 -0.370588 0.562633 0.412008 -0.0857619 -0.135118 0.614025 0.164461 -0.0287073 0.777311 -0.323691 0.0648839 -0.10036 -0.0964405 0.058589 0.00152432 -0.212741 -0.0467706 0.0397642 0.262822 0.923021
538 0.559486 -0.0609233 0.562771 -0.431252 0.160722 -0.150465 0.213396 -0.13552 0.299917 -0.118905 0.0738189 0.117879 -0.174215 0.348951 0.0418139 -0.0426979 0.0784967 0.271762 -0.228985 -0.0672155 0.570284 -0.340504 0.118993 -0.249696 -0.145788 0.249912 -0.494602 -0.345448 0.160111 -0.000170138 0.141364 0.442224
347 0.216514 -0.0862243 0.637248 -0.153966 -0.251284 0.205289 -0.00992419 -0.261758 0.0458071 0.0684933 0.0957177 -0.383916 -0.389406 0.394527 0.470658 -0.222936 0.35593 0.204998 -0.14383 0.100454 0.409027 -0.435202 0.00525011 -0.211691 -0.101183 0.218158 0.0149148 -0.258395 -0.128585 -0.068026 0.256196 0.629995
539 0.113802 0.0314052 0.386243 -0.515008 -0.303853 0.0700195 -0.0433076 -0.451104 0.120308 0.103326 0.0536829 -0.0592954 -0.174812 0.392658 0.689527 -0.019492 -0.00349071 0.118425 -0.193956 0.0784463 0.13969 -0.601477 -0.108405 -0.52841 -0.309243 0.0480464 0.075342 -0.22889 -0.151594 -0.151675 0.490223 0.540298
556 -0.138311 0.312423 0.465367 0.214145 -0.11206 0.0438505 0.348114 -0.168325 -0.0962464 -0.823255 -0.146217 0.369566 -0.297947 0.6 0.0615393 0.152124 0.0606565 0.642779 0.0366431 0.250262 0.952905 -0.0542204 0.103994 -0.415138 -0.691107 0.0307728 -0.237622 -0.380886 -0.0254964 -0.0682602 0.113458 0.359932
582 0.331523 -0.0661456 -0.177677 -0.410742 0.0860669 0.0855788 -0.0147859 -0.223683 -0.207424 0.124994 0.0613896 -0.205646 -0.289247 0.372341 0.63636 0.0964421 -0.0958532 0.404668 -0.376644 -0.0585362 0.257389 -0.20502 -0.171732 -0.744116 -0.575755 0.343075 -0.0988307 0.175352 0.185123 -0.150385 0.170592 0.972249
381 0.119805 0.0782714 0.414003 -0.625246 -0.330261 0.408221 0.184769 -0.64266 -0.0171077 0.334361 0.0364362 -0.110125 0.174801 0.181965 0.685158 -0.260142 0.225235 -0.0474922 -0.129149 0.298679 0.166224 -0.37438 -0.287762 -0.311276 -0.358804 0.0735805 0.240002 0.162429 -0.570294 -0.244092 0.548977 0.392071
475 0.341323 0.232204 0.268605 -0.684978 0.0686235 0.156564 0.211427 -0.201886 0.131891 0.0782688 -0.259917 0.0298744 -0.453573 0.0230162 0.441667 0.361824 0.410625 0.580665 -0.0802752 0.223547 0.243918 -0.608922 -0.109702 -0.227015 0.069465 -0.110387 -0.338763 -0.268884 -0.0157711 -0.277785 0.211249 0.222326
319 0.138492 0.0800733 0.448648 -0.368272 0.198447 0.0540048 -0.0900626 0.0440851 -0.410811 -0.17504 0.0328881 0.124639 -0.34154 0.320347 -0.0369406 0.162216 0.558678 0.45255 0.0164377 0.254263 0.932446 -0.344119 0.254236 0.0308687 -0.0383099 -0.0309495 0.318812 0.0108146 -0.257878 -0.355961 0.407085 0.757111
168 -0.280309 0.594944 -0.241814 -0.593277 -0.316173 -0.195836 -0.0828452 -0.133225 0.238463 -0.201368 0.491597 0.46176 -0.0187629 0.511688 0.242454 0.211358 0.233151 0.180683 -0.36108 -0.592535 0.945184 -0.0312092 -0.107243 -0.812215 -0.623926 0.394055 0.1561 -0.761841 -0.16284 0.108582 0.286181 0.408888
57 0.187876 -0.0935046 0.578278 -0.192173 -0.249774 0.112962 0.0543107 -0.554738 0.351332 0.049621 0.0589806 -0.231979 -0.333459 0.174529 0.34218 -0.0694626 0.0293931 0.334303 0.0952598 0.28423 0.20175 -0.669726 -0.098844 -0.640509 -0.355592 -0.18283 0.0962664 -0.267368 -0.208296 -0.0886425 0.272998 0.307782
177 0.136141 -0.098347 0.262326 -0.321347 -0.0456662 0.0942341 0.0620614 -0.242126 0.127114 -0.142078 0.0631591 -0.136424 -0.248796 0.209851 0.204562 -0.0925313 0.231582 0.404613 -0.111561 0.152657 0.415901 -0.472912 -0.00830698 -0.515604 -0.123324 0.0185271 -0.0630028 -0.114649 -0.136203 -0.244692 0.2218 0.505306
429 0.379187 0.140134 0.322005 -0.0339962 0.195211 0.198089 0.212534 -0.596456 0.1967 -0.0843526 -0.115615 0.253379 0.359486 0.163993 0.405048 -0.404729 0.337908 0.43095 -0.246468 0.195084 0.546309 -0.472781 -0.400714 -0.100956 -0.20306 -0.0543099 -0.248008 0.3946 -0.174969 -0.424716 0.0910378 0.413078
497 0.30258 -0.200781 0.523886 -0.135892 -0.195942 0.0809004 -0.0524726 0.055366 0.279395 -0.176888 0.263841 -0.176804 -0.236861 0.604193 -0.0481717 -0.230623 0.505503 0.435735 -0.523524 0.304088 0.663018 0.103397 0.145317 -0.451779 0.0087022 0.308136 -0.178656 -0.309897 -0.167326 0.0103982 0.358203 0.535851
425 0.288429 -0.159656 0.432583 -0.233518 -0.0704287 0.0325373 0.000549446 -0.342879 0.130741 -0.182084 0.00776321 -0.136692 -0.214269 0.270034 0.307412 -0.0204738 0.160744 0.437463 -0.159962 0.150564 0.463887 -0.397353 -0.0682724 -0.342106 -0.302009 0.0755393 0.0155425 -0.243139 -0.115105 -0.0666634 0.257001 0.488951
531 -0.130708 -0.0145159 0.237867 -0.058282 0.0614719 0.137796 0.0909022 -0.0164776 0.146802 -0.391279 0.0041424 0.189152 -0.106251 0.873168 -0.102838 -0.0770618 0.551862 0.818361 -0.500657 -0.114669 0.315149 0.218049 -0.401552 -0.709358 -0.102079 0.275292 0.158417 -0.0264363 -0.414392 -0.221329 0.441096 0.150609
507 0.145927 0.200806 0.23699 -0.469482 -0.105829 0.204946 0.076943 -0.479686 -0.0999031 0.101963 -0.16221 -0.301707 -0.356092 0.33785 0.648109 0.0998675 0.359527 0.349005 0.0814328 0.309792 0.257583 -0.613548 -0.0318773 -0.26749 -0.229889 -0.0761732 0.265784 -0.166588 -0.243767 -0.150708 0.277331 0.200159
145 0.0476327 0.186041 -0.259192 -0.43983 -0.231184 -0.019635 -0.196734 -0.410022 -0.167522 -0.675208 -0.296069 -0.0887842 -0.283994 0.198839 0.180193 0.178288 0.176759 0.613687 0.15297 0.287167 0.447814 -0.367435 0.535239 -0.577804 -0.389852 0.353962 0.0978837 0.106651 -0.381197 -0.242849 0.332812 0.427667
144 0.338377 -0.127474 0.304595 -0.442635 0.405174 0.313506 0.153651 -0.170038 0.129887 -0.192244 0.239494 -0.153679 -0.288874 0.195247 -0.244281 -0.331341 -0.142855 0.669592 -0.201981 -0.139345 0.399372 -0.0412068 -0.0622792 -0.67443 -0.079089 0.133492 -0.405548 -0.0168397 0.0690735 -0.235 0.19848 0.672392
141 0.153585 -0.00726892 0.31856 -0.440599 -0.242409 0.0406545 0.017295 -0.228017 0.190904 0.031254 0.23278 -0.135236 -0.148891 0.299079 0.191329 0.0556442 0.312906 0.217611 -0.128988 0.0795491 0.35655 -0.52459 0.0068633 -0.395367 -0.177211 0.21121 -0.199115 -0.170991 -0.245018 -0.0977566 0.306384 0.376223
572 0.262472 0.246328 0.495966 -0.482634 0.0155582 0.222871 0.200524 -0.433965 -0.00300135 0.170692 0.155406 -0.229152 -0.271589 0.261689 0.348829 0.00784361 0.46475 0.141791 -0.0917753 -0.0810747 0.164224 -0.555437 0.0296239 -0.456382 -0.182948 -0.0797419 0.0768223 0.0150533 -0.292675 -0.137171 0.400943 0.345709
196 0.207658 0.0181045 0.336711 -0.321478 -0.0819097 -0.0356147 0.0664071 -0.207986 0.113608 -0.00746826 0.126298 -0.0999862 -0.237947 0.231725 0.104124 0.0246525 0.20384 0.326061 -0.0840896 0.101769 0.359917 -0.372205 -0.0229745 -0.300351 -0.290112 0.0813679 0.0161316 -0.0801102 -0.183136 -0.153542 0.230412 0.352594
143 0.198408 0.431444 0.292224 -0.460504 0.237776 -0.0377577 0.170148 -0.287156 -0.16168 0.0703829 0.0481739 -0.0674521 -0.442193 0.549458 0.327522 0.384847 0.517644 0.265024 -0.0525368 -0.0566016 0.502371 -0.491136 0.257329 -0.133017 -0.316225 -0.258941 0.0501969 -0.231469 -0.220361 -0.0686168 0.368584 0.133078
474 0.258501 0.0988077 0.346224 -0.33721 -0.0306502 -0.00729478 0.109579 -0.278086 0.17008 -0.0825706 0.0177945 -0.0181758 -0.122838 0.231986 0.151967 0.0647132 0.272421 0.21001 -0.181062 0.0691483 0.388223 -0.400401 -0.0841495 -0.290158 -0.133278 0.167772 -0.30427 -0.0455831 -0.218871 -0.10326 0.338091 0.357722
11 0.20042 0.0657096 0.259998 -0.272206 -0.0581487 0.0532337 0.0770218 -0.223438 0.146556 0.00237265 0.0564791 -0.0578801 -0.177716 0.249195 0.171763 -0.0265913 0.225024 0.279855 -0.099782 0.0565707 0.405946 -0.35695 -0.0500211 -0.371567 -0.150299 0.0476485 -0.029556 -0.105055 -0.13641 -0.136043 0.190171 0.335208
133 0.277639 0.0721729 0.148156 0.383781 -0.0282754 0.229016 -0.0459488 -0.303021 0.340002 -0.415589 -0.754631 0.434364 -0.253983 0.388479 -0.115311 0.0773228 0.0876825 1.13491 0.20421 0.364409 0.871716 -0.571241 0.0180328 -0.273247 -0.386338 -0.140754 0.256442 -0.606725 0.0677284 0.115862 -0.166291 0.825178
606 0.627394 -0.157016 0.837452 -0.467367 0.235211 -0.13513 0.0916346 0.00902051 0.0953925 -0.341058 0.279543 0.0458594 -0.418856 0.0129004 0.488727 0.160807 0.130268 0.0389335 -0.100236 -0.463674 0.54643 -0.419031 0.172684 0.102092 -0.342045 0.16536 -0.117719 -0.147873 0.0605335 0.0471726 0.555123 0.387049
304 -0.537759 -0.00933037 0.116406 -0.529786 0.215415 0.342595 0.206345 -0.118108 0.334396 0.0222704 -0.0224919 -0.108821 -0.078406 0.30867 0.0948474 0.178659 0.586903 0.412599 -0.295627 -0.128905 0.406217 -0.355091 -0.376947 -0.13634 0.23797 0.281436 -0.32134 0.210171 -0.323367 0.0102543 0.733856 0.424744
352 0.00573994 -0.0747909 -0.0449237 -0.611958 0.010155 0.114023 -0.0419408 -0.0213629 -0.250437 0.184599 -0.207586 -0.203999 -0.315855 0.455194 0.743631 0.257862 0.131003 0.626339 -0.079279 0.0501671 0.370419 -0.625182 -0.552163 -0.407786 -0.395333 -0.0724416 0.0227096 0.132952 0.0603385 -0.346123 0.473709 0.189021
117 0.623676 -0.0533806 -0.20479 -0.715287 0.168971 0.257926 -0.0332471 -0.402289 -0.160388 -0.189922 -0.0118854 -0.00523368 -0.267825 0.226965 0.277423 0.0791423 -0.0559568 0.751189 -0.166436 0.146818 0.416435 -0.289529 -0.426809 -0.349388 -0.113171 0.174308 -0.409683 -0.205268 0.343891 -0.322141 -0.038348 0.631419
687 0.326606 -0.149662 0.484758 -0.317447 -0.0299192 0.152751 -0.00432346 -0.357801 0.118091 -0.0881383 0.00190035 -0.181176 -0.1303 0.258984 0.187196 -0.0795144 0.252383 0.304321 -0.0981528 0.186952 0.391006 -0.400451 -0.115668 -0.293663 -0.226118 0.163048 -0.143841 -0.0756997 -0.172093 -0.107436 0.232707 0.486639
708 0.042406 -0.0588549 0.0999357 -0.299172 0.266621 -0.0147889 0.160004 -0.286086 0.336628 -0.302538 -0.112266 -0.035495 -0.32934 0.361478 0.00326872 -0.0573301 0.152846 0.570374 -0.381889 -0.163236 0.417934 -0.246321 -0.134245 -0.623145 -0.243402 0.0784203 -0.0259415 0.0922979 -0.0562847 -0.161771 0.317141 0.203362
335 -0.0163413 -0.113031 0.348958 -0.326169 -0.0796229 -0.0904971 -0.0352395 -0.218704 0.0881586 -0.0522676 0.045008 -0.107288 -0.210362 0.411256 0.236663 0.203282 0.163845 0.45208 -0.0600235 0.285502 0.560483 -0.447308 0.109766 -0.484291 -0.311835 -0.0217033 0.0556825 -0.24213 -0.118678 -0.139354 0.235596 0.46318
302 0.178835 -0.222208 0.0438733 -0.204844 0.278944 0.291174 0.349083 -0.143507 0.482882 -0.136787 -0.248987 -0.0164057 -0.482224 0.0379716 0.475659 -0.0236731 0.509434 0.259058 0.138062 -0.157061 0.758951 -0.612806 0.12515 -0.248196 0.20531 0.143761 -0.507908 -0.441431 0.0380297 -0.182337 0.173097 0.446234
704 0.153762 0.0226642 0.219426 -0.308467 0.0133805 0.0893268 0.18229 -0.264443 0.223959 -0.245374 -0.2162 -0.0229281 -0.213728 0.297731 0.0292535 -0.0291043 0.164081 0.291301 -0.324402 0.0591999 0.297309 -0.36635 -0.145091 -0.370861 -0.0230749 0.272043 -0.334398 -0.0427972 -0.145779 -0.1595 0.370784 0.306273
535 0.270956 0.149484 0.401314 -0.392683 -0.0294432 0.0274817 0.10773 -0.269089 0.0953818 -0.0335567 0.0557244 -0.112187 -0.284324 0.263254 0.194609 0.053763 0.394753 0.230774 -0.161006 -0.0117877 0.226478 -0.408895 0.0348332 -0.327424 -0.248589 0.0369003 0.00776979 -0.099221 -0.311954 -0.192046 0.344801 0.320067
35 0.112744 -0.102682 0.282672 -0.315395 -0.174755 0.0835036 -0.0695571 -0.247735 0.0891122 0.0246534 -0.035481 -0.209416 -0.190649 0.274575 0.326201 0.0542512 0.378903 0.230507 -0.254912 0.23724 0.220079 -0.396438 -0.198961 -0.647311 -0.0881854 0.162821 -0.120124 -0.240475 -0.140632 -0.211533 0.237825 0.497208
693 0.180916 0.336218 0.284687 -0.440901 0.0535742 0.638664 0.586975 -0.401418 0.507531 -0.0876314 0.211508 -0.0507016 -0.358988 0.0766096 0.688406 -0.167375 0.622311 0.0302523 0.168259 -0.131867 0.398568 -0.231762 -0.364512 -0.410983 0.106645 -0.0719747 -0.504928 -0.462211 -0.146471 0.0497537 0.352716 0.274179
16 0.28481 -0.109125 0.262997 -0.626858 0.284804 -0.280414 -0.0778634 -0.0326779 0.178343 0.214963 0.0760115 -0.438484 -0.534789 0.41865 -0.0938063 0.162552 0.535762 0.243732 -0.32094 0.130766 0.585443 -0.468748 0.424137 -0.309033 -0.261292 -0.0982268 0.420116 -0.00571874 0.0590299 -0.183294 0.162044 0.46977
698 0.330114 0.0630212 0.283817 -0.423547 0.0361164 -0.00602947 0.25314 -0.180183 0.294266 -0.208209 -0.00569335 -0.0286212 -0.223031 0.255897 0.113204 -0.0303062 0.0267163 0.338979 -0.232618 0.0683237 0.39508 -0.391305 -0.0462275 -0.331909 -0.112143 0.160273 -0.32759 -0.0884832 -0.0746857 -0.115502 0.343791 0.438346
20 -0.0281884 -0.0306564 0.451182 -0.681616 0.133678 -0.161068 -0.302114 -0.224512 0.0741891 -0.47492 0.305336 0.0103603 0.148994 -0.134749 0.0890879 0.0770039 0.342686 0.095268 -0.0125299 -0.162772 0.492954 -0.657248 0.203974 -0.414209 -0.38039 0.0628793 -0.231898 -0.470128 -0.0835705 -0.366653 0.202422 0.393201
297 0.334612 0.130535 0.148226 -0.259383 -0.0447867 0.0098122 0.110293 -0.276466 0.104829 -0.123686 0.171 -0.0398705 -0.180194 0.277885 0.137668 -0.0351025 0.223551 0.476872 -0.0692286 0.102255 0.497629 -0.485806 -0.00428662 -0.37265 -0.211691 0.00815874 -0.0635185 0.0288053 -0.21519 -0.238602 0.187167 0.405988
690 -0.148624 -0.103822 0.0461467 -0.403002 0.119001 0.140827 0.0856888 0.0136118 0.116691 -0.191751 -0.105239 -0.139023 -0.17828 0.434996 -0.0141858 0.186765 0.26874 0.567 -0.300133 0.162711 0.548427 -0.20265 -0.214092 -0.829863 -0.349476 0.211679 0.0360897 -0.12451 -0.120327 -0.180436 0.257184 0.453438
502 0.155975 -0.0616562 0.333005 -0.273103 0.023753 -0.160093 0.0224498 -0.252243 0.0255612 -0.055329 -0.0414528 -0.08744 -0.350188 0.210084 0.0626724 -0.0567749 0.352858 0.494985 -0.155317 0.112675 0.353602 -0.440586 0.0299506 -0.400081 -0.273703 0.105715 -0.0378819 -0.206468 -0.100308 -0.142878 0.170509 0.499935
222 0.415087 0.125674 -0.0392509 -0.726362 0.253429 0.205872 -0.0800139 0.0302584 -0.153916 -0.0743668 0.188694 0.15296 -0.209229 -0.250428 0.123239 0.349037 0.689864 0.445432 0.0502635 0.0668912 0.707424 -0.112656 0.374588 -0.528575 -0.201589 0.497914 -0.378512 -0.294657 0.111335 -0.501133 -0.0725026 0.52823
19 0.278224 0.0137314 0.219852 -0.39235 0.0404425 0.0371222 0.195282 -0.190597 0.165878 -0.236618 0.070318 0.0684784 -0.244512 0.301121 0.0984701 0.0737282 0.149238 0.405563 -0.176489 -0.0164423 0.447416 -0.26748 -0.0777058 -0.350495 -0.191773 0.147963 -0.269675 -0.13847 -0.104943 -0.192644 0.286205 0.38943
83 0.210887 -0.0151401 0.32329 -0.265302 -0.103552 0.205707 0.121445 -0.461863 0.204475 0.0387789 0.126004 -0.170495 0.0559172 0.294689 0.15977 -0.143755 0.377839 0.372436 -0.130847 0.214216 0.476106 -0.383505 -0.143399 -0.402044 -0.117748 -0.0165699 0.0672426 0.0774443 -0.282 -0.184296 0.288432 0.286697
395 0.242734 0.0765983 0.380685 -0.349396 -0.00531959 0.0148705 0.0534165 -0.198341 0.194883 -0.0328818 0.105259 -0.0811721 -0.21238 0.18347 0.0686576 0.0350713 0.388805 0.24178 -0.189556 0.0819591 0.36787 -0.392048 0.0239181 -0.315412 -0.128999 -0.0335739 -0.150005 -0.0145704 -0.266766 -0.101178 0.283569 0.264955
718 0.522367 -0.258895 0.568825 -0.629554 0.0941804 0.0613524 -0.265462 -0.263582 0.317538 0.175344 0.546956 0.0610424 0.0462804 -0.147918 -0.0631592 0.373407 0.246031 0.443006 -0.313058 0.461728 0.708987 -0.21477 0.101668 -0.0835295 0.0162083 0.146946 -0.534017 0.031026 0.133038 -0.420938 0.273281 0.475216
802 0.389949 -0.845177 0.100838 -0.0616339 0.53409 0.338981 0.519138 0.153662 0.340868 -0.0259296 0.139501 0.079501 -0.383706 0.0539733 0.030124 0.16542 0.217802 0.509537 -0.212418 0.657692 0.530726 -0.0289247 -0.0408954 0.0641198 -0.730915 0.832344 0.480541 0.0585581 0.046741 0.116837 0.75094 1.00147
715 0.0176914 -0.0874112 0.618624 -0.460774 -0.0239011 -0.127924 0.280923 0.128924 -0.537915 -0.55398 -0.271185 -0.141854 -0.351243 0.28991 0.291014 0.156313 0.0879417 0.150274 -0.210366 0.00927895 0.277439 -0.745107 -0.000978219 -0.134504 -0.121782 0.10196 -0.352366 0.0134342 -0.132867 -0.111556 0.506282 0.694105
334 0.277597 0.0899045 0.112086 -0.297575 -0.347288 0.384581 -0.0539929 -0.526384 0.214838 0.277913 0.118802 -0.343023 0.148518 0.439252 0.566952 -0.115988 0.151186 0.246767 -0.0777076 0.480049 0.504987 -0.410446 -0.346646 -0.415708 -0.243112 0.250219 -0.0567917 -0.0245244 -0.136559 -0.36726 0.180434 0.689504
400 0.0971696 -0.107468 0.27279 -0.367811 0.0714485 0.0604213 0.0579937 -0.200161 -0.0300719 -0.197579 -0.103279 0.0449207 -0.290821 0.268032 0.0755605 0.2602 0.197052 0.475559 -0.0644966 0.0544053 0.237793 -0.263512 -0.0829658 -0.241627 -0.290734 0.144821 -0.0856053 -0.0888731 -0.107657 -0.190087 0.253241 0.376994
406 0.183278 0.303173 -0.0398456 -0.580008 0.0599511 0.397179 0.382449 0.0374965 -0.09436 -0.13394 -0.210199 -0.174341 -0.393184 0.397387 0.479208 0.452518 -0.0104265 0.426736 0.0746216 -0.115675 0.616741 -0.00343563 -0.141522 -0.556943 -0.15942 0.361414 -0.464329 0.141037 0.0587469 -0.208412 0.237295 0.329197
358 0.238091 -0.0847029 0.124335 -0.315702 0.18282 0.138691 0.100725 -0.333347 0.147616 -0.114446 -0.127444 -0.0640439 -0.281544 0.16902 0.0845174 0.00378388 0.270283 0.307954 -0.00328041 -0.0467103 0.441151 -0.284737 -0.00444473 -0.201048 -0.207273 0.23492 -0.14762 0.0222788 -0.0620587 -0.131834 0.25154 0.49186
713 0.268189 0.0210185 0.439015 -0.318183 -0.0575894 0.391946 -0.0758378 -0.163415 0.155319 -0.494941 -0.363255 0.11301 -0.4857 0.305337 0.172412 0.0141536 0.288062 0.410109 -0.159962 -0.0527427 0.173158 -0.0461206 0.307608 0.0457862 -0.16995 0.268948 -0.204893 -0.285558 -0.208146 -0.222036 0.643076 0.638268
528 0.21861 -0.135332 0.575384 -0.432571 0.125956 0.214505 0.109192 0.202325 0.156828 0.168345 0.577506 -0.438136 -0.224441 0.354543 -0.0366234 -0.10645 0.306868 0.416192 -0.255498 0.19815 0.518307 -0.190248 -0.135201 -0.574936 -0.0617158 -0.12284 -0.262607 0.0758378 -0.312206 0.0184066 0.245965 0.474635
149 0.180176 -0.11547 0.176176 -0.376619 0.168144 0.128527 0.271037 -0.288362 -0.0364899 -0.33702 -0.0522178 -0.0140136 -0.394204 0.485287 0.0418032 -0.084925 0.0453077 0.482344 -0.269021 -0.0920473 0.428819 -0.201811 -0.242691 -0.192884 -0.239418 0.328686 -0.27957 0.0459412 0.112193 -0.1829 0.324536 0.481304
146 -0.241591 0.0150183 0.408574 -0.301509 0.40299 0.181824 0.488479 -0.418904 0.318812 -0.470341 -0.570863 -0.133841 -0.21557 0.336791 -0.10871 -0.322706 -0.0357935 0.224641 -0.0583189 0.225898 0.544584 -0.281456 -0.117748 -0.466878 -0.340463 0.255664 -0.214132 0.341763 -0.0542692 0.189832 0.0505597 0.851878
249 0.161726 -0.0395875 0.190249 -0.208194 0.0154409 0.0338498 0.096189 -0.195561 0.0926367 -0.0803067 -0.0268452 0.00939166 -0.192442 0.195013 0.0641661 0.0418447 0.145007 0.275983 -0.0764728 -0.0119754 0.298452 -0.216556 -0.0572163 -0.165096 -0.184258 0.145919 -0.0843245 -0.0434317 -0.119774 -0.132756 0.209584 0.307687
110 0.599231 -0.579322 -0.0306567 -0.442499 0.496699 0.185682 0.364952 -0.26029 0.314125 -0.468959 0.266673 -0.152443 -0.265368 0.0920542 0.0786014 -0.00540147 -0.0229381 0.686667 0.0437685 -0.248566 0.956376 -0.306236 -0.0132203 0.0454627 -0.20012 0.22879 -0.545706 -0.0658706 0.387243 -0.423068 -0.0204259 0.44326
509 0.16409 -0.0474865 0.261868 -0.253861 -0.0179772 0.0593707 0.131057 -0.292872 0.100637 -0.165966 0.0192071 -0.159851 -0.169763 0.277412 0.11469 -0.0716822 0.110143 0.418658 -0.15057 0.0732473 0.462119 -0.330731 -0.146752 -0.361122 -0.17576 0.218554 -0.0617015 -0.0257352 -0.0590955 -0.113968 0.211615 0.473955
610 0.225692 -0.139935 0.296964 -0.285432 0.150626 0.119906 0.184644 -0.161741 0.106438 -0.193185 0.0851179 -0.0483826 -0.284553 0.339012 0.0577314 0.125434 0.0929296 0.527486 -0.0685675 -0.0346662 0.527478 -0.251895 -0.0436932 -0.250485 -0.189557 0.0925122 -0.167101 -0.0587946 -0.0461031 -0.163142 0.27839 0.473864
581 0.00538118 -0.13471 0.216746 -0.139754 -0.153391 0.212499 -0.0817778 -0.256364 0.395242 -0.176645 0.182835 -0.0866654 -0.0654646 0.475817 0.411725 0.439439 -0.107405 0.298801 0.105545 -0.181368 0.622313 -0.644248 0.0678811 -0.582207 -0.27512 0.197626 -0.00221816 0.134246 -0.284929 0.0201386 0.172106 0.454262
640 -0.191046 -0.593355 0.228868 0.0602242 0.363722 0.416335 0.0629719 -0.616927 0.392545 -0.163013 -0.299025 -0.01433 -0.409683 0.44026 -0.145008 0.202811 0.255186 0.60354 -0.329875 -0.009501 1.01638 -0.528638 -0.147139 -0.0790052 -0.013754 0.400934 -0.260359 -0.28162 0.188187 0.283531 0.150315 0.383934
312 0.385082 0.075104 -0.0214053 -0.287977 0.0131831 0.122107 -0.110127 -0.522057 -0.0379224 -0.450752 -0.493302 -0.297674 -0.0492029 0.319356 0.180547 0.0344218 0.313011 0.190387 0.0281863 0.715288 0.686338 -0.393547 0.0240511 -0.242211 -0.146626 0.372734 -0.441152 -0.0526298 0.00687847 -0.17355 0.264263 0.5899
135 0.181648 0.223966 0.217064 -0.368278 0.0292125 0.261967 0.0656817 -0.332625 0.0367373 -0.509762 -0.18416 0.0226373 -0.381643 0.0941775 0.293335 0.289464 0.262027 0.404574 0.436198 0.237399 0.415308 -0.323561 0.296059 -0.416773 -0.424435 0.26958 -0.37514 -0.240739 0.0385065 -0.0899223 0.0864781 0.461582
161 0.677999 0.0776906 0.318524 -0.319613 0.642553 0.61329 0.00306707 -0.544647 0.140172 0.0140444 -0.166693 -0.160128 -0.142072 0.405718 0.0593056 -0.0206949 0.244876 0.385599 0.101689 -0.211036 0.639892 -0.398841 0.0638185 -0.302911 -0.32094 0.159482 -0.117574 0.0698662 -0.09691 -0.141227 0.0732148 0.197466
184 0.639917 0.066247 -0.380492 -0.0553251 0.223531 0.53114 0.00669353 -0.674239 0.233666 -0.526884 -0.573787 -0.170475 -0.3616 0.227664 0.222551 -0.308413 0.215188 0.596285 -0.430669 0.0273811 0.333334 -0.524134 0.0429421 -0.0471676 0.139875 0.341924 -0.0371676 0.276435 -0.259603 -0.385706 0.328345 0.620489
372 0.705038 -0.437832 0.515935 -0.358141 0.21367 0.104684 0.180378 -0.309728 0.44872 -0.131823 -0.0195042 0.0548529 -0.190211 -0.0184915 0.219837 0.0203902 -0.0987224 0.361782 -0.122058 -0.125507 0.595855 -0.343329 -0.0109873 -0.0721883 -0.175585 0.140749 -0.381733 -0.0805889 0.163124 -0.148253 0.26697 0.556729
417 0.217589 -0.0371766 0.383461 -0.335088 0.0189203 0.157591 0.200783 -0.346757 0.10305 -0.0143872 0.033744 -0.164998 -0.256279 0.31477 0.200378 -0.0248023 0.227093 0.329807 -0.00118268 0.0809714 0.488746 -0.405129 5.89624e-05 -0.230917 -0.152075 0.187248 -0.0475529 -0.0124865 -0.0616391 -0.107421 0.299515 0.472847
486 0.178083 0.0932192 0.319021 -0.471607 0.178709 -0.130368 0.219112 -0.29859 0.119018 -0.383315 0.19368 0.386071 -0.0969504 0.402556 0.396241 0.393683 -0.0212001 0.115607 -0.0765256 -0.445894 0.76121 -0.212718 0.303058 0.0344844 -0.302389 0.283643 -0.229211 0.0975499 -0.0854902 -0.0184934 0.330267 0.737574
392 0.384839 -0.13751 0.144895 -0.503977 0.245851 0.290146 -0.103045 -0.144166 -0.355588 0.0242152 -0.264746 -0.235309 -0.48574 0.267327 0.400197 0.305797 0.684896 0.0926671 -0.356226 0.0909851 0.325871 -0.118213 -0.206671 -0.239193 -0.419902 0.321975 -0.250355 -0.263571 0.113989 -0.317105 0.0431317 0.668753
592 0.383168 -0.144139 0.478086 -0.169921 -0.0813141 0.0114889 0.024886 -0.226183 0.0400999 -0.0886763 -0.00853462 -0.0457225 -0.342762 0.322928 0.170661 -0.105568 0.148831 0.497489 -0.105052 0.199817 0.490774 -0.161393 -0.0859945 -0.110368 -0.213113 0.207141 -0.125387 -0.260361 -0.0543269 -0.0800534 0.241329 0.636535
803 -0.0340231 0.308185 0.0420179 -0.860269 0.555247 -0.610195 0.303004 -0.598494 0.37101 -0.00447258 -0.1759 0.0643154 -0.193297 0.836142 -0.507732 -0.431352 -0.0640507 0.298296 0.503038 0.252602 -0.0473888 -0.627307 -0.288089 -0.368247 -0.463027 -0.435062 0.0232506 0.104329 -0.676494 0.650366 0.418349 0.255967
382 0.0572867 0.197057 0.482565 -0.463082 0.0333925 0.234897 0.13765 -0.30007 0.154581 -0.0595022 0.0726426 -0.116645 -0.157482 0.173394 0.496569 0.251002 0.13389 0.251844 -0.0322505 -0.00018255 0.26993 -0.55466 -0.194634 -0.48475 -0.372273 -0.217561 -0.0589998 0.264796 -0.351019 -0.0863813 0.412214 0.194902
357 0.0999908 -0.465117 0.879765 -0.62616 0.22927 0.480466 -0.00547045 -0.507228 -0.00973595 0.152461 -0.0499409 -0.101086 -0.140094 0.134778 0.159439 0.0949917 0.0663403 0.465919 0.414537 0.374532 0.0854432 -0.543494 -0.0823983 -0.512961 -0.33548 -0.172993 0.127195 0.0223243 -0.175242 -0.215807 0.108448 0.324589
223 0.0249897 -0.0127529 0.213358 -0.428916 0.219681 0.00307261 0.177729 -0.135446 0.15736 -0.315929 -0.168647 0.00952532 -0.301044 0.137477 -0.195334 0.273315 0.244867 0.477088 -0.0421531 0.0168222 0.345089 -0.322819 0.0470382 -0.501676 -0.382885 0.0339089 -0.119622 0.0534087 -0.0843124 -0.155815 0.229444 0.373271
534 0.284211 -0.14622 0.286471 -0.260181 0.152689 0.098432 -0.0131505 -0.42651 0.243608 -0.171276 0.151995 -0.395861 -0.115136 0.132106 -0.0573383 -0.353272 0.276453 0.321099 -0.163458 0.301864 0.57251 -0.689393 -0.046062 -0.638352 -0.2244 -0.205141 -0.165239 0.203624 -0.164504 -0.243971 -0.0431593 0.204902
68 0.24812 0.274919 0.708149 -0.779099 0.399239 0.126938 0.207206 -0.347577 0.205693 0.23014 0.193555 -0.172898 -0.253294 0.151273 0.253631 0.35981 0.501107 0.00572933 -0.322422 -0.326106 -0.0251397 -0.601112 -0.129607 -0.525632 -0.344798 -0.410142 -0.0270837 0.532875 -0.536768 -0.105655 0.662106 -0.0723584
618 0.0110693 0.0502502 0.371644 -0.414168 0.0643687 0.0858919 0.217856 -0.224675 0.124989 -0.120612 -0.0135767 -0.0828433 -0.222824 0.141903 -0.0322804 0.101269 0.215757 0.273301 0.0839291 -0.039904 0.266866 -0.368906 0.0315897 -0.478957 -0.311498 -0.0891285 0.0442289 0.10517 -0.25048 -0.129451 0.289306 0.313394
666 -0.171486 0.145752 0.448813 -0.0623698 -0.164821 0.0111214 0.0635097 -0.198548 0.489239 -0.0953446 -0.0717198 -0.122663 -0.142167 0.324587 -0.0907449 0.211538 0.290335 0.344123 0.166097 0.0979682 0.491409 -0.685478 -0.0509077 -0.735173 -0.411866 -0.209578 -0.0175515 0.119257 -0.482566 0.321623 0.233478 0.0508469
621 0.0968157 0.122337 0.286848 -0.220904 -0.023097 -0.0728078 0.213924 -0.211973 0.0428864 -0.0641118 0.107056 -0.135634 -0.290352 0.253021 -0.0250838 0.0270614 0.266612 0.386103 -0.0886171 -0.0179686 0.404294 -0.2791 -0.0860191 -0.46062 -0.32977 -0.0203005 0.0518629 0.0398956 -0.202799 -0.0948453 0.285609 0.381446
364 0.206628 -0.0313823 0.501354 -0.280182 0.13998 0.185321 0.124145 -0.273451 0.217303 -0.126604 0.0545307 -0.230036 -0.399749 0.290194 0.236068 -0.0178335 0.159593 0.4494 -0.11159 0.0212801 0.447275 -0.425454 -0.0231499 -0.383302 -0.0975936 -0.0314794 0.0461597 0.0148688 -0.111162 -0.0437413 0.32479 0.437048
348 0.00286442 0.05243 0.348597 -0.532551 0.0444162 0.00581165 0.204366 -0.114234 0.22026 -0.133937 0.14187 -0.101264 -0.218844 0.15193 -0.200625 0.193064 0.351869 0.283132 -0.09479 0.0946981 0.267827 -0.358371 0.0126542 -0.489927 -0.347661 -0.166286 0.0528176 0.281731 -0.362445 -0.168723 0.383352 0.193559
211 0.338524 -0.0472652 0.162081 -0.481728 0.110363 -0.322687 -0.0348921 -0.372984 0.436061 -0.477259 -0.322136 0.0312787 -0.0571595 -0.145076 0.172007 0.376655 0.0147818 0.290248 -0.548739 -0.146914 0.097912 -0.41345 -0.148624 -0.738271 -0.327094 -0.0131491 -0.225598 -0.0382286 0.198342 -0.61465 0.228236 0.476583
631 0.0326293 0.00652436 0.244964 -0.33178 0.053434 0.0527316 0.182166 -0.23819 0.124243 -0.0707539 0.0287427 -0.0707013 -0.206671 0.181783 -0.060634 0.0524513 0.192335 0.20409 -0.00630369 -0.00733438 0.240852 -0.338259 -0.0937239 -0.326674 -0.314988 -0.0352224 -0.00103874 0.0571329 -0.186538 -0.126283 0.247724 0.219106
526 -0.252237 -0.0160009 0.378907 -0.711629 0.0541475 0.207662 0.0186194 -0.290936 -0.0735162 -0.543111 0.224613 0.103764 -0.206479 0.211185 0.173101 0.165039 0.415183 0.201798 0.0499469 -0.186293 0.177166 -0.206041 0.0391034 -0.432865 -0.464106 -0.204882 0.1217 0.0799881 -0.28377 -0.419581 0.64474 0.201756
3 0.127645 -0.0366186 0.299978 -0.386912 0.16319 0.0192223 0.190866 -0.269161 0.137195 -0.199703 -0.0413176 -0.0254672 -0.263604 0.229969 -0.0625184 0.0225575 0.262235 0.284119 -0.118213 -0.0261985 0.426622 -0.37699 0.0242119 -0.408517 -0.305641 0.0254215 -0.0907096 0.0857966 -0.108265 -0.168008 0.202533 0.36089
89 -0.0651436 0.194473 0.320686 -0.522374 -0.216505 -0.0826075 -0.179082 -0.0528696 0.29837 -0.491384 0.17561 -0.231754 0.114564 0.269434 -0.269796 0.0240288 0.429206 -0.0640746 -0.00961353 0.19221 0.490188 -0.266485 0.169806 -0.805228 -0.35096 0.195363 -0.239465 0.29562 -0.52811 -0.163376 0.405054 0.516998
638 0.0440917 0.0696983 0.329144 -0.390288 -0.00277795 -0.0106194 0.205346 -0.234793 0.16849 -0.0962121 0.054283 -0.0941721 -0.224651 0.18007 0.0246841 0.125782 0.231532 0.288905 -0.0199873 0.0181349 0.336501 -0.437306 -0.0704009 -0.36201 -0.365108 -0.0882073 0.017964 0.0487604 -0.259151 -0.130109 0.312205 0.315104
379 0.0727639 -0.0169383 0.550541 -0.505587 0.182979 0.287186 0.203299 -0.331327 0.143483 0.0172708 0.0315706 -0.109344 -0.169553 0.119453 0.0547169 0.124349 0.296526 0.141124 0.0892034 -0.0857205 0.145255 -0.38591 -0.00885141 -0.443716 -0.390132 -0.146577 0.0185772 0.230854 -0.29078 -0.122129 0.355211 0.206877
804 0.116471 -0.075933 0.124259 -0.603682 -0.702208 -0.176444 0.433943 0.633416 -0.523907 -0.744064 0.838202 0.310444 -0.664154 0.995785 0.0161001 0.275663 0.543459 0.161625 0.375954 0.214557 0.0447194 -0.596334 -0.32888 0.250283 -0.324883 -0.0802909 -0.273636 0.0496483 -0.114604 -0.102102 0.333169 1.09605
127 0.165766 0.16921 0.329274 -0.373758 -0.136543 -0.000377707 0.264671 -0.0655549 -0.0729403 -0.0346377 0.232029 -0.07416 -0.36192 0.533432 0.324601 0.174755 0.124119 0.285543 0.0211319 -0.0546268 0.455944 -0.511442 0.0479738 -0.273108 -0.257572 -0.164245 0.0607515 0.0104192 -0.314073 -0.0509653 0.373702 0.476704
173 0.204053 0.138328 0.228931 -0.606762 -0.192151 -0.098563 0.286768 0.256793 -0.193306 -0.398826 0.438716 0.355012 -0.169887 0.290096 0.0585658 0.356859 0.123739 0.275866 0.161879 -0.130809 0.609116 -0.132159 0.161185 -0.115371 -0.226963 0.0818731 -0.386362 -0.131542 -0.235889 -0.269858 0.548362 0.696288
424 0.168546 0.122186 0.204242 -0.186403 -0.0702395 0.032536 0.168205 -0.0972087 -0.0348959 -0.0856845 0.147674 0.0458674 -0.239477 0.450269 0.118003 0.0923412 0.133258 0.48757 -0.0138707 0.0995883 0.564153 -0.357444 -0.011805 -0.214156 -0.261931 0.017569 0.00128377 -0.0138556 -0.293544 -0.153591 0.263352 0.474231
580 0.155193 0.33897 0.218092 -0.381959 -0.0418799 -0.0592972 0.265276 0.33878 -0.181221 0.205699 0.190915 -0.0575973 -0.579813 0.459854 0.465971 0.723293 0.268041 0.334364 -0.277477 -0.115439 0.215385 -0.723581 -0.0865814 -0.299153 -0.108271 -0.275208 -0.176997 0.0261724 -0.471514 0.06106 0.364724 0.355487
671 -0.111165 0.431259 0.0905011 -0.404944 -0.397853 0.0340002 0.14015 -0.078393 -0.0653853 -0.364131 0.236364 0.205698 -0.152016 0.833715 0.150059 0.722849 0.174426 0.217124 0.272029 0.0220948 0.55689 -0.460077 0.202449 -0.317594 -0.512792 -0.197624 -0.236292 -0.0268989 -0.544392 0.0422833 0.278165 0.387977
811 -0.368956 -0.00993621 -0.146437 -0.683317 0.200215 0.0287062 0.374815 -0.317557 0.987031 -0.572963 0.18052 0.135846 -0.511857 1.1148 -0.282724 -0.0988256 0.0502383 0.528337 -0.46701 -0.0553383 0.155144 -0.105707 -0.447038 -0.106875 0.117176 0.593508 0.584193 0.341622 0.0134141 -0.739843 0.180641 0.495438
373 0.0456446 0.00141861 0.255583 -0.350922 0.277376 0.224855 0.114589 -0.31828 0.236629 -0.0451954 0.0550417 0.10885 0.106685 0.383761 0.276253 0.0867315 0.469267 0.512687 -0.301537 -0.150716 0.330429 -0.452506 -0.383997 -0.414499 0.138481 0.100783 -0.152463 0.591291 -0.489189 -0.512164 0.479834 -0.0109035
138 0.0300459 -0.122082 0.0862269 -0.236896 0.071752 0.0995189 0.196282 -0.287216 0.22545 -0.241886 -0.0460458 0.129927 -0.246149 0.340747 0.0250671 -0.0508695 0.0908248 0.492438 -0.191956 -0.183847 0.220817 -0.216885 -0.155992 -0.231081 -0.152537 0.315269 0.0209541 0.0521876 -0.11663 -0.270789 0.34349 0.276004
201 0.275377 -0.0273844 0.0312084 -0.215657 0.336735 0.151476 0.257913 -0.263443 0.272477 -0.245785 0.0291817 0.100776 -0.38641 0.38093 0.132443 0.0507483 0.123497 0.523196 -0.319618 -0.421095 0.349457 -0.287804 -0.113098 -0.411157 -0.114221 0.253931 0.000148123 0.230349 -0.126612 -0.263905 0.355441 0.285748
285 0.00535738 0.0831597 0.161761 -0.305102 0.137931 0.14606 0.0930775 -0.307869 0.062926 -0.165192 -0.117181 0.12588 -0.129888 0.443471 0.196591 0.115838 -0.0238497 0.738807 -0.126696 0.238355 0.265425 -0.569225 -0.13713 -0.518678 0.0573381 -0.0549635 -0.0121582 0.193124 -0.192833 -0.393984 0.432519 0.429491
506 0.407337 0.00221664 0.29421 -0.362686 0.300947 0.186145 -0.102705 -0.643737 0.330911 -0.250731 -0.43472 0.523983 -0.0301683 0.355656 0.520382 0.0144358 0.289223 0.192629 -0.535311 -0.556135 -0.169577 -0.523563 0.207155 -0.441795 -0.0666987 0.234914 -0.238699 0.416146 -0.186188 -0.205984 0.339696 0.291239
806 0.993872 -0.384504 0.352597 -0.681005 -0.178891 -0.000613928 0.549641 0.0497774 0.332094 -0.609771 0.338847 -0.0772177 -0.412487 -0.145848 0.0452137 0.381543 0.282595 0.49789 -0.253807 -0.316301 0.492914 0.209451 -0.226669 -0.0171413 -0.202478 0.487952 -0.41954 -0.216004 -0.338597 -0.120922 -0.0527644 0.0175302
616 0.338147 0.309696 0.625396 -0.458936 0.247533 0.143299 0.275086 0.0177243 0.438657 -0.235096 -0.126212 -0.0830621 -0.511456 -0.171605 0.12257 0.327254 0.507113 0.169458 -0.0240771 0.0406972 0.259862 -0.561115 0.181667 -0.546337 -0.119654 -0.126387 -0.572674 0.00462314 -0.112116 -0.0114412 0.379365 0.0424162
120 0.591316 0.308823 0.710134 -0.736763 0.506655 0.243814 0.457606 -0.447431 0.373331 -0.215871 -0.388365 0.184305 -0.253145 -0.0311775 -0.139223 0.32659 0.133911 0.058291 -0.190633 -0.191567 -0.0742456 -0.379659 0.00717212 -0.439874 -0.268168 -0.197252 -0.651367 0.456233 -0.143293 0.0015393 0.392303 0.213269
689 0.472749 0.409856 0.292815 -0.560724 0.138646 0.17265 0.235315 -0.228339 0.0765458 -0.391477 -0.0549371 0.227344 0.0225406 -0.000609221 0.712747 0.2455 0.316136 -0.0818318 0.20826 -0.0691976 0.580997 -0.385296 0.223701 -0.0316997 -0.133383 0.255245 -0.38999 0.166488 -0.279051 -0.261767 0.597969 0.400548
512 0.291218 0.0921422 0.227047 -0.284885 -0.172822 0.351025 -0.172998 0.21352 0.322088 -0.0155693 0.280979 0.228338 0.105185 0.624896 0.0984785 0.206843 0.106369 0.451248 -0.192604 0.110283 0.379298 -0.485585 -0.292388 -0.574173 0.0121059 -0.0788458 -0.765736 0.240707 -0.618079 -0.419844 0.512231 4.94865e-05
236 0.26008 -0.0132369 0.216938 -0.327956 0.0797381 0.0720267 0.17913 -0.197251 0.180252 -0.0768413 0.00544464 0.0564133 -0.272029 0.148033 0.0588583 0.0610551 0.166832 0.293772 -0.0951489 -0.0450498 0.275472 -0.244222 -0.0255388 -0.167282 -0.153774 0.132309 -0.199443 -0.125797 -0.129308 -0.19823 0.209811 0.296968
200 0.24436 -0.00570516 0.206163 -0.283735 0.0618984 0.0192088 0.15801 -0.173011 0.135403 -0.0748249 0.0168566 0.0497428 -0.185567 0.127439 -0.0436342 0.0511725 0.167886 0.300769 -0.111449 -0.0228782 0.31622 -0.261817 0.00751786 -0.21248 -0.160156 0.0648897 -0.229971 -0.126976 -0.106434 -0.127438 0.20518 0.272968
295 0.385521 -0.0623843 0.399784 -0.464676 0.013326 -0.129236 0.0450378 0.019288 0.157975 -0.209426 0.0241016 0.0383447 -0.29547 0.14043 -0.00615913 0.225175 0.084388 0.54598 -0.213616 0.181456 0.434629 -0.317364 0.149488 -0.364973 -0.171131 0.0878308 -0.245615 -0.314856 0.0111878 -0.23228 0.29309 0.478349
454 0.137039 0.00451873 0.0142207 -0.36002 -0.101514 0.0799304 0.176261 -0.139919 0.195692 -0.0530268 0.0387539 -0.129907 -0.113177 0.421222 0.138748 0.0328012 0.27883 0.124537 -0.215709 0.105702 0.430183 -0.170328 -0.152232 -0.352505 -0.288596 0.345094 -0.383593 -0.114196 -0.163485 -0.199862 0.314774 0.53062
612 0.27921 -0.0932981 0.244281 -0.397061 0.0868596 0.0875838 0.274909 -0.150646 0.205636 -0.143932 0.0838188 0.0787875 -0.244822 0.123246 -0.0301421 0.069424 0.0714728 0.349261 -0.0928718 -0.145049 0.374418 -0.29808 -0.0070655 -0.295299 -0.145086 0.0658598 -0.303065 -0.0588431 -0.124899 -0.175038 0.246024 0.346394
508 0.888068 -0.0217174 0.306036 -0.234307 0.10221 0.0295877 0.0824353 -0.295022 0.144451 0.278719 0.345684 -0.26153 0.00989125 0.415658 0.387098 -0.155583 0.139098 0.110408 -0.350629 0.106442 0.80919 -0.356696 -0.0175261 -0.257637 -0.12795 0.293792 -0.563964 -0.0647013 0.20582 -0.22673 0.0341998 0.670274
180 0.422579 0.00820131 0.127355 -0.242566 0.0945331 0.0435423 0.166188 -0.260973 0.109359 -0.151009 0.0739933 0.0424119 -0.112207 0.236491 -0.0218147 -0.0232699 0.129122 0.454333 -0.14732 0.0482516 0.549966 -0.309191 -0.0887007 -0.260064 -0.162486 0.0934008 -0.230194 0.00752962 -0.15716 -0.249813 0.179762 0.332979
282 0.440386 -0.138288 0.270235 -0.293042 0.232968 -0.0698115 0.289294 -0.213379 0.216559 -0.428477 0.119949 0.311862 -0.1476 0.39507 0.0902743 0.119143 -0.149824 0.692056 -0.287213 -0.235848 0.672788 -0.0511331 -0.0716707 -0.182696 -0.128829 0.21749 -0.289251 0.0427117 0.0262017 -0.126853 0.40602 0.498058
279 0.29685 -0.10108 0.27549 -0.402868 0.132055 0.00953625 0.180558 -0.160254 0.210501 -0.168645 0.0138264 0.203608 -0.238562 0.181111 -0.000312366 0.144673 0.0898953 0.398703 -0.117876 -0.0756819 0.353382 -0.250585 0.064218 -0.273159 -0.195304 0.11675 -0.327683 -0.131651 -0.0675007 -0.211536 0.230488 0.318801
270 0.285571 0.00153115 0.228222 -0.307717 0.0335038 0.0666083 0.169647 -0.15194 0.162402 -0.0911692 0.100951 -0.0215662 -0.250517 0.29935 0.044957 0.00904678 0.194664 0.324621 -0.184676 -0.0163119 0.48094 -0.271281 -0.0404776 -0.304083 -0.155875 0.116073 -0.301505 -0.126665 -0.0952513 -0.182177 0.295934 0.358718
677 0.28302 -0.0491625 0.140244 -0.288757 0.032588 0.00463873 0.218685 -0.19533 0.221171 -0.152408 0.0282137 0.146894 -0.195489 0.25218 -0.00888464 0.0624563 0.0613046 0.381239 -0.110834 -0.0111607 0.347782 -0.290807 -0.00841575 -0.180387 -0.176833 0.16769 -0.244865 -0.0673297 -0.066017 -0.22779 0.263743 0.349418
170 0.43156 0.0794478 0.0468172 -0.567802 0.512822 0.271667 0.198598 -0.822901 0.270344 -0.40541 -0.236959 0.261139 0.412334 0.056843 -0.197944 0.00248574 0.326941 0.247371 -0.608443 0.0805873 0.650936 -0.267155 -0.237378 -0.431086 -0.437834 0.338818 -1.06451 -0.0728673 -0.0935501 -0.387015 -0.0455195 0.247733
340 0.114432 0.0735075 0.214317 -0.440737 -0.133524 -0.0261218 0.334885 -0.0135191 -0.029349 -0.272129 0.0598496 0.204659 -0.283006 0.445892 -0.0033524 0.188765 0.0529885 0.367693 0.00496394 -0.0246293 0.449724 -0.154129 0.122077 -0.143809 -0.160181 0.0769717 -0.329311 -0.0937698 -0.136381 -0.120461 0.43997 0.584294
240 0.260016 -0.0165494 0.192098 -0.285021 0.0649157 0.0174955 0.240445 -0.168524 0.163423 -0.1222 0.0183867 0.091093 -0.250848 0.233045 -0.0131288 0.0697304 0.124719 0.290203 -0.0806321 -0.0977062 0.342363 -0.251425 -0.0463382 -0.202834 -0.207947 0.105745 -0.23248 -0.0815822 -0.12093 -0.162033 0.261669 0.276236
238 0.258343 0.134831 0.441202 -0.573254 0.0968306 0.0837623 0.235614 0.0886416 0.00150681 -0.188559 0.00751288 0.139916 -0.446132 0.398777 0.180111 0.387296 0.228931 0.29615 -0.181831 -0.218741 0.201489 -0.300704 0.198408 -0.284597 -0.0967858 -0.0277015 -0.270711 -0.0670425 -0.214635 -0.154052 0.475608 0.4973
46 0.286422 -0.0186618 0.18316 -0.25708 0.00970112 -0.0129473 0.198299 -0.19606 0.156204 -0.118069 0.049728 0.0761738 -0.180555 0.182977 -0.0118804 0.0587725 0.137695 0.265542 -0.107287 -0.050143 0.394546 -0.219721 -0.0398648 -0.191499 -0.205173 0.114905 -0.236067 -0.115671 -0.0880036 -0.172863 0.219055 0.330855
807 -0.0299713 0.106921 0.0445807 0.348928 -0.1079 0.572245 0.550814 -0.935604 0.0360013 0.431532 0.308333 0.15035 -0.69329 0.293259 -0.0201336 0.320238 0.293547 0.208551 -0.235199 0.18438 0.117389 -0.65398 -0.0977763 0.188658 -0.287276 -0.263356 0.0869771 -0.120892 -0.234432 0.0187244 0.172127 0.694022
166 0.139879 -0.0317717 0.541534 -0.2482 -0.0951683 0.110562 0.158137 -0.2649 0.400799 0.186034 0.0933781 -0.0481171 -0.243368 0.289028 0.488501 0.0305029 0.210627 0.314967 -0.0915794 0.0260838 0.388424 -0.618821 -0.170702 -0.234513 -0.0684995 0.113809 -0.120824 -0.159177 -0.121603 0.00740649 0.376543 0.352459
518 -0.158897 0.00722338 0.275824 -0.777367 -0.29626 0.0260114 0.234005 -0.169805 0.0530218 -0.469268 0.202824 0.0654831 -0.0474878 0.0626387 0.210974 0.691527 -0.0258955 0.131633 0.321948 0.29526 0.111183 -0.50761 0.227068 -0.371021 -0.0404804 -0.124233 -0.190233 -0.0090842 -0.342828 -0.375121 0.841538 0.518692
167 0.0170355 0.116393 0.400676 -0.120666 -0.127606 0.0778565 0.0982791 -0.257952 0.190701 -0.0512349 -0.06494 0.0519313 -0.122383 0.304393 0.234103 0.000716408 0.177898 0.169477 -0.24347 0.150507 0.483652 -0.478019 -0.277641 -0.319049 -0.249882 0.00492228 -0.173189 -0.242386 -0.282821 0.198876 0.424285 0.43413
64 -0.0714045 -0.294667 0.280052 -0.320772 -0.0179032 0.212255 0.120204 -0.334232 0.305451 -0.104496 0.0630134 -0.154187 -0.242819 0.312222 0.319043 -0.00781066 0.110839 0.306141 -0.00468877 -0.029311 0.483457 -0.629512 0.0489412 -0.405038 -0.0377891 0.173889 -0.0574971 -0.238792 -0.0615867 -0.188738 0.199306 0.440258
118 0.222234 -0.0572293 0.307972 -0.361333 0.0160696 0.159683 0.216419 -0.286134 0.152219 0.0337553 0.0287989 -0.0870454 -0.355088 0.350315 0.213152 -0.0107045 0.244132 0.375766 -0.07157 0.0191652 0.386758 -0.456844 -0.0316205 -0.280522 -0.179832 0.039169 -0.0707927 -0.107437 -0.142542 -0.137325 0.269156 0.389617
548 0.0948147 -0.0362057 0.387115 -0.481916 0.0200326 0.235273 0.182227 -0.436999 0.23649 -0.121963 0.0807606 0.0166943 -0.160636 0.339354 0.266024 0.0140955 0.0913882 0.33183 -0.00102112 -0.0299195 0.324415 -0.424383 -0.0223586 -0.301591 -0.17314 0.0778141 0.00793058 -0.0941775 -0.21168 -0.185109 0.298067 0.42883
436 0.0387612 -0.0431938 0.288967 -0.489573 -0.0360524 0.105195 0.13249 -0.157762 0.226304 -0.0301159 0.0479589 -0.206032 -0.182225 0.372497 0.0526075 -0.0354342 0.318315 0.165292 -0.214774 0.149987 0.405636 -0.37767 -0.0315761 -0.46352 -0.119915 0.122114 -0.168799 0.0560441 -0.195154 -0.185256 0.288681 0.413046
53 0.137876 0.0128728 0.255335 -0.244935 -0.0535883 0.097459 0.139666 -0.254076 0.102059 0.0357939 0.0593636 -0.0557194 -0.193683 0.279531 0.142328 -0.0218585 0.189154 0.196453 -0.0747724 0.00617706 0.291306 -0.333242 -0.0271819 -0.266397 -0.188655 0.0780157 -0.0603644 -0.0445757 -0.141627 -0.0980115 0.212019 0.305334
376 0.339529 0.339853 0.5688 -0.289945 -0.244045 -0.171184 -0.0786116 -0.204371 0.0826237 -0.40099 0.0456911 -0.0700695 -0.428966 0.412862 -0.0377417 0.147486 0.689006 0.299751 -0.214676 0.202105 0.315507 -0.309415 0.464736 -0.33616 -0.330959 -0.128982 0.0660033 -0.729181 -0.41081 -0.136973 0.488309 0.0712378
296 0.423803 0.274557 0.343095 -0.626671 0.560046 0.236721 0.112642 -0.195662 0.207974 -0.291959 -0.0610747 -0.260137 -0.228744 0.0726002 -0.124962 0.172277 0.256566 0.318428 -0.287331 -0.154826 0.452154 -0.416009 0.15671 -0.464002 -0.533229 -0.206375 -0.114461 0.00964841 0.0889455 -0.333206 -0.182615 0.439171
574 -0.0444212 0.368532 0.0803188 -0.340565 -0.30921 -0.0104882 0.27714 -0.138886 0.308405 -0.351148 -0.244466 0.146235 -0.114578 0.722296 0.424162 0.788783 0.0339022 0.0656615 0.224658 0.0735694 0.733543 -0.916837 0.225052 -0.201152 -0.227971 -0.0352553 -0.297335 -0.301858 -0.355007 0.24634 0.357664 0.178716
421 0.286529 -0.000862867 0.703745 -0.340846 -0.0404991 0.268311 -0.0618532 -0.275332 0.286601 0.186151 0.00729315 -0.13515 -0.26301 0.211424 0.523732 0.0922705 0.393394 0.0378457 -0.113261 0.0106853 0.118428 -0.705928 -0.0964479 -0.221851 -0.109012 0.0225232 -0.148518 -0.17479 -0.164268 -0.121508 0.457778 0.309083
641 0.564358 0.00639876 0.444727 -0.332108 0.245977 0.319599 0.229576 -0.424272 0.656137 -0.285093 0.149912 -0.0577165 -0.410722 0.0589584 -0.0157908 -0.409707 0.0589067 0.12543 -0.0752793 0.200363 0.247604 -0.634924 0.540641 -0.605142 0.0213647 0.0358496 -0.395176 -0.0964223 -0.196774 -0.246134 0.249789 -0.0168664
153 0.00669158 -0.135423 0.440608 -0.43982 -0.0867277 0.384629 -0.112761 -0.465288 0.195427 -0.118637 0.118964 -0.0596749 -0.200846 0.278296 0.378819 -0.0299163 0.13415 0.328373 0.078209 0.161185 0.328152 -0.432885 0.0895646 -0.278577 -0.172644 0.0963353 0.108372 -0.0671323 -0.000634266 -0.257127 0.339613 0.71506
536 0.731388 0.321243 0.300103 -0.351729 0.155964 -0.506565 0.360874 0.246965 0.177958 0.494061 0.612508 -0.392623 -0.180911 0.503648 -0.326225 -0.0406096 0.111614 0.498635 -0.0521044 0.175453 0.913837 -0.621358 0.22283 -1.07005 -0.391303 -0.374652 0.524236 0.434469 -0.81638 -0.0849887 0.0376263 0.0427411
237 0.139984 -0.00962513 0.274991 -0.290285 -0.0455615 0.0790569 0.179839 -0.305265 0.140015 0.0470729 0.0276745 -0.126021 -0.323635 0.308008 0.126134 -0.0105741 0.206692 0.323927 -0.0326916 0.0712831 0.438722 -0.462256 0.0210782 -0.313048 -0.201898 0.0411908 -0.0234379 -0.105929 -0.151105 -0.099193 0.254874 0.40419
354 0.240829 0.0389458 0.370611 -0.296331 -0.0357306 0.0844069 0.122168 -0.265805 0.19165 0.0290225 -0.0307185 -0.16695 -0.368191 0.304045 0.151478 -0.126111 0.222192 0.309977 -0.11886 0.0730369 0.471341 -0.540589 0.0134155 -0.427089 -0.126956 0.0694061 -0.0609777 -0.15148 -0.0729395 -0.0560188 0.262525 0.476515
224 0.173719 -0.316341 0.834622 -0.497644 0.288238 0.0355024 0.163826 0.199471 0.482838 -0.0924118 0.0286648 0.0168344 -0.37021 0.28912 -0.00524043 0.371908 0.271569 0.414414 -0.776911 -0.422312 0.28286 -0.605514 0.251753 -0.400313 -0.0995987 -0.0149412 -0.164214 0.0843424 -0.0888367 -0.118308 0.293634 0.110218
547 0.101881 0.01165 0.216712 -0.275105 -0.00193108 0.0850288 0.171385 -0.262424 0.147338 -0.0818199 -0.0107773 -0.0311003 -0.261216 0.320157 0.129057 -0.0055372 0.160834 0.291478 -0.0423658 0.0341337 0.37625 -0.369586 -0.0430277 -0.277181 -0.147604 0.127119 -0.0838684 -0.0744092 -0.117943 -0.103527 0.268287 0.372945
420 0.109663 0.00468277 0.276917 -0.281555 -0.0199065 0.0907622 0.173498 -0.251447 0.0748911 0.00792517 0.0537512 -0.0268943 -0.245225 0.302631 0.170176 0.0235477 0.200236 0.287422 -0.0441279 0.0764933 0.335692 -0.401731 -0.0347021 -0.265382 -0.202616 0.0213603 -0.0162874 -0.0725878 -0.152177 -0.145694 0.262743 0.397817
322 0.39805 0.19263 0.462644 -0.318079 -0.251176 0.0407589 0.104557 -0.431219 0.134763 0.14182 0.473162 -0.0425097 -0.21572 0.430257 0.537103 -0.0720411 -0.182625 0.521595 -0.0730619 -0.0637859 0.209084 -0.867193 0.0306892 -0.398703 -0.230462 -0.165275 0.534865 0.195977 -0.33768 -0.216594 0.32699 0.314535
67 0.214716 0.164155 0.429867 -0.425892 -0.00870309 0.356233 0.0709551 -0.452384 0.219387 0.0962674 -0.0515309 -0.130965 -0.385988 0.264857 0.367418 -0.19605 0.344472 0.284445 -0.110952 0.0519985 0.10499 -0.50112 0.188091 -0.301293 -0.153613 -0.0837791 0.00787774 -0.14448 -0.198393 -0.224426 0.301837 0.464201
532 0.200695 0.26665 -0.228183 -0.870409 0.0608885 0.199892 0.426427 -0.221639 0.664253 -0.290201 -0.0237059 0.136395 -0.416319 -0.317011 0.143019 0.255846 0.738773 0.120063 0.173259 -0.241343 0.454778 -0.288429 0.0875151 -0.67133 0.334772 0.0259099 -0.153509 -0.2707 0.138742 -0.473188 0.624138 0.143888
696 0.106693 -0.0997635 0.41156 -0.454805 -0.0087936 0.0904745 0.148801 -0.225957 0.309871 -0.0149008 0.243275 -0.233976 -0.236687 0.0870589 -0.13327 -0.00879927 0.311296 0.265558 0.0340289 0.0627294 0.468167 -0.573454 0.151852 -0.516639 -0.110651 -0.0934055 -0.10979 0.0229234 -0.239187 -0.200349 0.220806 0.292904
423 0.372259 0.12862 0.303183 -0.351566 0.358927 0.307135 0.4725 -0.245462 0.303708 -0.228432 0.00170377 -0.0985416 -0.360889 0.166816 0.38077 -0.133513 -0.00686805 0.375632 -0.255173 -0.274332 0.306393 -0.684834 0.100066 -0.402167 -0.00473063 -0.0737644 -0.0230321 -0.0418356 0.0124069 -0.155669 0.357164 0.523344
160 0.104394 0.0434222 0.212685 -0.383466 -0.110883 0.0228718 0.211779 -0.313713 0.162416 -0.0952424 0.0233868 -0.0874751 -0.296287 0.224427 0.14319 0.070121 0.153401 0.224984 0.136102 0.21095 0.440109 -0.430445 0.0838022 -0.314288 -0.258602 0.052724 -0.178717 -0.154956 -0.133748 -0.0913997 0.237515 0.310881
485 0.0591078 -0.00979495 0.63166 -0.436013 -0.226089 0.571783 0.301569 -0.236427 0.0318622 0.208064 0.145221 -0.028409 -0.381653 0.485112 0.333105 0.0730695 0.00458194 0.207856 0.307816 0.181267 0.240452 -0.511985 0.0751524 -0.154105 -0.122912 -0.120914 -0.144436 -0.220564 -0.289698 -0.0114778 0.334921 0.582124
13 0.321407 0.172651 0.0976124 -0.467466 -0.127759 0.0828668 -0.241074 -0.391207 0.184437 -0.114914 -0.255943 0.0903687 -0.201048 0.361366 0.235635 0.236752 0.148663 0.191051 0.0161892 0.323655 0.321877 -0.535145 0.176467 -0.136866 -0.230087 0.158645 -0.520115 -0.586826 -0.0287338 -0.208252 0.238803 0.418676
402 -0.197852 -0.264749 0.32789 -0.0407008 0.0234026 0.284505 0.0389802 -0.139685 -0.00666306 -0.580744 -0.773487 0.028333 -0.288829 0.18855 -0.0662214 0.427876 0.243536 0.600297 0.127628 0.34965 0.717145 -0.65812 -0.0684676 -0.190576 0.011834 0.134492 -0.227174 -0.285368 -0.0417086 -0.066144 0.320682 0.588618
583 0.482738 -0.0185025 0.0589457 -0.0809006 0.166096 0.232115 0.271715 -0.103277 0.168153 -0.267883 -0.0397549 -0.143114 -0.139727 0.40148 -0.0515066 -0.389732 0.0761757 0.326195 -0.393099 0.171377 0.533592 -0.368451 -0.355051 -0.680787 0.166707 0.335798 -0.499099 -0.108852 -0.0848164 0.125148 0.315069 0.496697
613 0.223712 0.0404796 0.335028 -0.36234 -0.100418 0.112045 0.0611554 -0.208092 0.0775136 -0.0539731 0.12787 -0.0351999 -0.249924 0.310348 0.243513 0.00937515 0.131898 0.35936 -0.0414721 0.133359 0.366571 -0.524893 0.0246887 -0.464209 -0.210623 -0.0778529 -0.0256202 -0.0215674 -0.220045 -0.198458 0.352037 0.466916
95 0.046192 -0.232683 0.279952 -0.302152 0.119368 0.276888 0.135078 -0.406144 0.302409 -0.0421624 0.0684217 -0.0785955 -0.307048 0.313663 0.408794 -0.132204 0.0136068 0.501954 -0.195967 -0.0799745 0.295215 -0.413037 -0.0735269 -0.356689 -0.0192269 0.0466684 0.0864936 0.0196068 -0.107766 -0.227346 0.446865 0.345083
286 0.0718153 -0.109732 0.170549 -0.47912 0.158602 0.635839 0.192576 -0.436333 0.177263 0.0914518 0.108303 -0.197377 -0.156335 0.269778 0.625486 -0.0885718 0.154482 0.560479 -0.0987854 0.054553 0.343586 -0.363864 -0.386698 -0.401723 -0.0300796 -0.05104 -0.271297 0.0438699 -0.0462588 -0.00826675 0.315843 0.452514
579 0.123131 -0.0364154 0.301348 -0.399926 -0.0987674 0.0918655 0.113502 -0.291182 0.16544 0.0748917 0.0890085 -0.0332186 -0.222889 0.2894 0.260222 -0.0156223 0.198385 0.284383 -0.041283 -0.0102053 0.331643 -0.474215 0.0260513 -0.342044 -0.194055 0.0188536 -0.00519152 -0.133867 -0.156745 -0.0976289 0.341789 0.410641
158 0.0817921 -0.0598696 0.375285 -0.422677 -0.328271 0.00659739 -0.235199 -0.231528 0.269207 -0.0599784 0.051789 0.0156882 -0.184722 0.255164 0.314318 0.362164 0.0866563 0.405628 0.0856714 0.195374 0.309014 -0.645106 0.168078 -0.538752 -0.215024 -0.0468356 -0.0506819 -0.32281 -0.228917 -0.189621 0.299 0.369731
24 0.0255675 -0.163534 0.43227 -0.469069 -0.179592 0.140078 0.0661785 -0.274991 0.228431 -0.00846864 0.166195 -0.223453 -0.168541 0.381616 0.372405 -0.154953 0.151496 0.0442317 -0.0534402 0.212648 0.319162 -0.449589 -0.0894275 -0.425771 -0.269353 0.194482 -0.125581 -0.0284359 -0.233237 -0.0750368 0.314027 0.578234
183 0.166901 0.0393998 0.308357 -0.360498 -0.0786635 0.104615 0.184905 -0.364315 0.260358 -0.186647 -0.060901 -0.0273388 -0.215191 0.253072 0.0877407 -0.0762683 0.12912 0.252789 -0.14127 0.0242463 0.32059 -0.438288 -0.0279454 -0.297506 -0.0457785 0.243468 -0.270189 -0.0542995 -0.153441 -0.109247 0.412951 0.389809
328 0.338614 -0.0397077 0.341811 -0.254448 0.267765 0.1495 0.274285 -0.378797 0.264479 -0.19478 -0.110594 0.0226281 -0.375567 0.288716 0.125284 -0.0392223 0.251382 0.302085 -0.0964122 -0.0997593 0.527873 -0.479095 0.123281 -0.154576 -0.127789 0.121294 -0.235158 -0.0695297 -0.0473994 -0.00288757 0.141774 0.402602
231 0.12867 -0.252418 0.286834 -0.383561 0.0134588 0.377821 0.0954068 -0.456861 0.25327 0.0305393 -0.0818023 -0.079089 -0.300533 0.351011 0.437695 0.0926931 0.137308 0.45414 -0.0921518 0.190275 0.231885 -0.579607 0.0823664 -0.48385 -0.107411 0.0210366 0.0477513 -0.178942 -0.119154 -0.297217 0.161452 0.353426
229 0.229834 0.347834 0.140571 -0.453902 0.121077 0.179309 0.0701633 -0.135246 -0.326962 -0.034633 -0.343594 0.0213074 -0.312501 0.277762 0.414967 0.54856 0.597888 0.412915 -0.253308 0.340627 0.205908 -0.586741 -0.207092 -0.226201 0.0512598 -0.0573789 -0.183753 0.143921 -0.364418 -0.259565 0.58628 0.452061
80 0.411497 0.248031 0.110116 -0.200755 -0.0149698 0.304479 0.0499095 -0.357937 0.155899 -0.109608 0.111689 -0.0745028 -0.170233 0.446401 0.345554 -0.047316 0.291517 0.389131 -0.0714734 0.0860351 0.458428 -0.403811 0.131992 -0.276392 -0.125158 0.0458203 0.0717275 0.053969 -0.156555 -0.372063 0.263991 0.399639
625 0.146309 -0.133857 0.0641296 -0.377881 0.0982661 0.286295 0.283805 -0.380351 0.09312 -0.120977 -0.0275626 0.0186281 -0.400298 0.487062 0.210043 -0.100355 0.131227 0.53059 -0.179755 -0.115744 0.294331 -0.187998 -0.127703 -0.287843 -0.165087 -0.000696262 -0.0743238 -0.0578937 0.0351349 -0.283894 0.243119 0.309916
60 0.355933 0.0150719 0.313252 -0.295268 -0.358567 0.207165 0.0666703 -0.572606 0.246327 0.180348 0.397788 0.0262676 -0.120523 0.322134 0.685728 -0.330032 -0.302708 0.502965 0.0343157 0.269407 0.403262 -0.815922 -0.145953 -0.27889 -0.129162 -0.20039 0.0972749 -0.117471 -0.165869 -0.295477 0.296973 0.600548
808 1.00818 -0.314574 -0.52672 0.150387 0.228573 -0.284081 0.650487 -0.514283 0.525775 -0.366723 0.025656 -0.280569 -0.0231234 0.0821829 0.193043 0.226426 0.290545 0.375105 0.296843 0.289526 0.499817 -0.147526 -0.507868 0.0417869 -0.552151 -0.667992 -0.125606 0.288994 -0.651325 -0.509019 0.267601 0.720508
190 0.399068 -0.0238103 0.166591 -0.131015 0.0832803 0.090147 0.138489 -0.384613 0.352818 -0.183855 -0.0749213 -0.0291782 -0.213924 0.371271 0.104001 -0.238999 0.13479 0.413242 -0.180183 -0.0103122 0.594 -0.467026 0.0579024 -0.369304 -0.181303 0.0824676 -0.106045 0.108272 0.0530636 -0.223547 0.127095 0.400991
49 0.293111 0.0113111 0.179403 -0.276005 0.0230519 0.0250741 0.15667 -0.163859 0.088602 -0.0574048 0.168517 0.0233097 -0.187298 0.202723 0.0214465 0.0222424 0.207511 0.378467 -0.0474628 0.0193601 0.427273 -0.259923 -0.0470297 -0.198434 -0.205404 0.100083 -0.092233 -0.008018 -0.212605 -0.233956 0.18244 0.327261
584 0.547941 0.299745 -0.194297 -0.108645 0.100812 0.0839938 0.206954 -0.103432 0.228551 -0.190088 0.127836 0.0723776 -0.181965 0.231027 -0.197861 0.219779 0.23187 0.39452 0.085528 -0.0882839 0.811246 -0.444905 0.164018 -0.397858 -0.182914 0.17238 -0.442892 0.273053 -0.294948 -0.10823 0.0857414 0.418768
559 0.299912 -0.057718 0.0560759 -0.375284 -0.0593153 0.220575 -0.0945266 -0.392435 0.034338 -0.0155342 -0.0780324 0.00899233 -0.195691 0.233385 0.500301 0.135994 0.376254 0.447208 0.128981 0.23166 0.517098 -0.541616 -0.0291674 -0.0566192 -0.0058456 0.170966 -0.166016 -0.11263 -0.159038 -0.392633 0.303083 0.339334
50 0.458695 0.123047 0.0226763 -0.511115 0.35918 0.12221 0.373912 -0.0405934 0.0339689 -0.556658 0.038584 0.190782 -0.0939183 -0.0175739 0.740882 0.263095 0.168132 0.0386768 0.0640684 -0.438529 0.557526 -0.697954 0.0955302 -0.0113709 0.0272816 0.210342 -0.396971 0.0652062 -0.353823 -0.553603 0.675731 0.430127
578 0.370677 0.049652 0.13051 -0.263349 0.0260163 0.0409026 0.0929481 -0.229057 0.0316331 -0.17008 0.213415 -0.0436677 -0.0845234 0.295586 0.132445 0.0435729 0.116662 0.527416 -0.00587642 0.0915087 0.668289 -0.412536 -0.00466562 -0.244969 -0.175945 0.110709 -0.144075 0.0591609 -0.18465 -0.256064 0.263545 0.421476
585 0.295845 0.0453676 0.099525 -0.228556 0.0473124 0.00638221 0.21173 -0.262073 0.0564791 -0.0760434 0.166332 -0.0359782 -0.166999 0.301524 0.0619241 0.0260811 0.231575 0.360162 -0.0146819 0.0787287 0.542057 -0.422886 -0.0597897 -0.253078 -0.236953 0.100999 -0.12854 0.0615205 -0.231325 -0.246073 0.194507 0.349469
111 0.486045 0.0186662 -0.0335621 -0.267855 0.228073 0.119085 0.292696 -0.29314 0.0265491 -0.187548 0.144458 0.0478852 -0.19804 0.323258 0.0294447 -0.0690091 0.170823 0.503746 -0.131212 -0.0821618 0.699464 -0.225178 -0.136589 -0.270578 -0.173859 0.14394 -0.293412 0.192867 -0.107729 -0.305046 0.225191 0.359993
449 0.292328 0.0442541 0.114089 -0.268015 0.102063 0.184365 0.172009 -0.187145 0.0114615 -0.173245 0.0549342 -0.0441928 -0.184553 0.373654 0.084709 0.0901271 0.237703 0.469652 -0.150752 0.00332651 0.391035 -0.331485 -0.083979 -0.269249 -0.108527 0.0491829 -0.0393094 0.129668 -0.257172 -0.334484 0.214074 0.316414
636 0.245814 0.0882844 0.187579 -0.296031 0.0619376 0.0708576 0.109128 -0.232892 0.0695332 -0.0951338 0.0943581 -0.00707227 -0.0994426 0.268544 0.0923646 -0.0287592 0.201336 0.352482 -0.0964715 0.0632945 0.460554 -0.354202 -0.0804907 -0.241525 -0.170928 0.0571005 -0.129371 0.050806 -0.207368 -0.234132 0.23949 0.326498
472 0.518273 0.233087 -0.29291 -0.369696 0.178606 0.18585 0.276926 -0.283717 0.345746 -0.229677 0.052401 0.396779 -0.0534663 0.352801 0.286558 0.173935 0.101326 0.605898 0.0238188 0.059421 0.838321 -0.332029 0.0552335 -0.0923008 -0.0274879 0.360674 -0.492951 -0.0993345 0.247628 -0.268289 0.285053 0.486582
157 0.293425 0.0809416 0.0113132 -0.266247 -0.0414013 -0.000275827 0.121168 -0.193885 0.107099 -0.0978272 0.113462 -0.00575587 -0.108822 0.252658 0.068128 0.0502281 0.205857 0.413077 -0.05892 0.115397 0.514436 -0.379645 -0.0732589 -0.269606 -0.192525 0.0920371 -0.110535 0.0744052 -0.238472 -0.309321 0.199476 0.303572
79 0.436925 -0.0411227 0.184054 -0.218513 0.0591684 0.164931 0.212009 -0.395389 0.192343 0.0599219 0.289883 -0.160693 -0.0960687 0.230304 0.0604279 -0.200204 0.112316 0.427087 -0.054445 0.205066 0.81459 -0.507582 -0.0960193 -0.29316 -0.0986241 -0.0291361 -0.0457001 0.184651 -0.142277 -0.260266 0.145522 0.306733
66 0.159115 0.0893613 -0.0161833 -0.509552 -0.0469435 0.437305 0.237624 -0.687511 0.129306 -0.293883 -0.134243 -0.207051 0.29074 0.0372157 0.0845508 -0.123161 0.382484 0.412984 0.296013 0.556953 0.508854 -0.582295 -0.145703 -0.389415 0.0113295 0.0260659 -0.42356 0.288691 -0.354409 -0.33556 0.222034 0.200242
259 0.255856 0.0943591 0.231621 -0.345495 0.0422426 0.0130579 0.171859 -0.235465 0.0894221 -0.110596 0.151791 -0.0137636 -0.174919 0.323356 0.188417 0.15713 0.127178 0.428869 -0.128112 -0.0448213 0.426879 -0.422298 -0.0126989 -0.370474 -0.20976 -0.00456106 -0.01756 0.0636762 -0.244267 -0.206296 0.284149 0.305256
706 0.331799 0.0430016 0.27615 -0.320847 -0.0384613 0.113994 0.0777519 -0.264554 0.0980556 -0.153693 0.0514811 -0.082269 -0.104711 0.275558 0.158166 -8.89292e-05 0.224767 0.343817 -0.12983 0.115565 0.419953 -0.389388 -0.0780478 -0.337982 -0.157421 0.0854645 -0.17368 -0.00172822 -0.187303 -0.217606 0.280424 0.383758
646 0.247574 0.0740095 0.159937 -0.292627 0.0402344 0.0535837 0.13647 -0.215399 0.0429889 -0.0923006 0.107229 0.0215967 -0.126937 0.263952 0.0575226 0.0149539 0.207085 0.382267 -0.0366453 0.023178 0.400831 -0.342938 -0.0313734 -0.240742 -0.209564 0.0631114 -0.0498856 0.069392 -0.21438 -0.219123 0.2047 0.31215
809 -0.248159 0.329384 0.171789 -0.666335 0.523429 -0.841602 -0.114583 -0.520905 0.235173 0.14101 0.786906 -0.0127338 -0.927512 0.402185 0.613812 -0.0547552 -0.172911 0.272651 -0.0897983 -0.376316 0.166918 -0.383821 0.234469 0.252877 -0.632013 -0.251248 -0.0415742 0.591205 -0.567685 -0.34348 0.156363 0.388715
397 0.17097 0.157697 0.138837 -0.404821 -0.0769539 -0.0601311 0.127879 -0.170373 0.04088 -0.0693507 0.217228 0.0109344 -0.249467 0.25481 0.176785 0.345748 0.129351 0.299537 -0.00555506 -0.152343 0.292757 -0.488718 0.00360576 -0.416111 -0.33514 -0.0394763 0.00687418 0.0685539 -0.274248 -0.146972 0.326487 0.34301
221 0.235506 0.150681 0.133801 -0.459637 -0.0243302 -0.0873674 0.318828 -0.217472 -0.0684088 -0.14326 0.0877366 -0.0077526 -0.318092 0.302834 0.197398 0.359546 0.136823 0.206878 0.0675086 -0.0505878 0.346912 -0.493495 0.0595138 -0.261743 -0.470784 0.0274047 -0.062229 -0.00209451 -0.239906 -0.119268 0.393395 0.230534
174 0.192714 0.106507 0.291981 -0.39345 -0.0302173 -0.0400597 0.1794 -0.216431 0.0899739 -0.0235399 0.169335 -0.0543171 -0.216917 0.261681 0.227175 0.167608 0.108109 0.262713 -0.0993681 -0.178273 0.299414 -0.443656 -0.0297647 -0.309211 -0.334271 -0.0317991 0.135593 0.0577368 -0.226596 -0.171134 0.342823 0.366588
70 0.21886 0.0315249 0.175421 -0.347008 0.119562 0.0360047 0.229052 -0.0911367 0.118379 -0.13767 0.117915 -0.0421652 -0.247496 0.27131 0.163494 0.135384 0.190066 0.274385 -0.131996 -0.207648 0.422328 -0.360073 -0.0732044 -0.400329 -0.286517 0.116239 -0.0849069 0.0496017 -0.175832 -0.120736 0.310499 0.296126
241 0.313298 0.22572 0.430475 -0.446837 0.132465 0.189507 0.150242 -0.277553 0.0836269 -0.238966 -0.0582876 -0.0995954 -0.221151 0.300192 0.120333 0.0395933 0.548983 0.0675778 -0.327033 0.0201275 0.162974 -0.355676 0.0423175 -0.322748 0.106295 0.0405797 -0.261582 0.119583 -0.472659 -0.231339 0.496791 0.253056
205 0.246791 0.0789907 0.18675 -0.392938 0.0237013 -0.0485352 -0.016404 -0.194593 -0.000183283 -0.0330933 0.102118 0.0262895 -0.190876 0.277897 0.174725 0.254258 0.195262 0.207756 -0.128981 -0.038098 0.358316 -0.389998 -0.0727439 -0.3425 -0.458865 0.0905939 -0.0541113 -0.109187 -0.149525 -0.202086 0.172978 0.326116
122 0.127284 0.0871231 0.260831 -0.292805 -0.0381771 -0.0126086 0.16414 -0.152524 0.0807016 -0.0840814 0.0620217 -0.00898632 -0.200331 0.266264 0.154289 0.165566 0.131498 0.215292 -0.0772982 -0.072523 0.207301 -0.356834 -0.0472573 -0.245088 -0.240011 0.0368535 0.0297047 0.0123088 -0.231972 -0.112129 0.334758 0.277532
462 0.24736 0.0300452 0.230359 -0.342121 -0.0794992 -0.0744425 0.224064 -0.212255 0.0935811 -0.050735 0.149357 -0.0409321 -0.187301 0.286662 0.143028 0.121783 0.128409 0.352593 -0.102509 -0.0525226 0.346289 -0.45797 -0.0902819 -0.357284 -0.248417 0.056057 0.0223522 -0.0105301 -0.253767 -0.163261 0.258245 0.304216
660 0.171681 0.05491 0.294619 -0.33914 -0.0521507 0.0042121 0.160598 -0.216498 0.0833359 -0.0696177 0.092547 -0.0650418 -0.245795 0.308593 0.187299 0.0947607 0.192524 0.315755 -0.115781 -0.0153436 0.356619 -0.513415 -0.0707423 -0.39295 -0.307839 0.0465977 0.021822 -0.0778501 -0.238184 -0.130862 0.313769 0.360557
810 0.185732 0.124275 -0.2899 0.296874 -0.540419 -0.584662 -0.407191 -0.0649903 0.650532 -0.433803 0.414249 -0.0982601 -0.258225 1.03581 -0.134051 0.817899 0.484301 0.20711 0.206319 -0.301195 0.340335 -1.24514 0.169073 -0.749613 -0.903309 0.130443 -0.674955 0.382979 -0.3384 0.199765 0.0200868 -0.176011
521 0.22641 -0.0176166 0.280385 -0.297446 -0.218933 0.0851346 0.0182791 -0.292279 0.228077 -0.0470048 0.147031 -0.120003 -0.206115 0.366585 0.245439 0.127262 0.151714 0.1812 -0.0833454 0.0850214 0.389665 -0.549759 0.0228573 -0.428588 -0.166567 0.0652248 -0.161123 -0.128241 -0.2971 -0.0591331 0.337947 0.392656
817 0.0405429 -0.255661 0.252887 -0.0552966 0.881978 0.197554 0.575206 0.278689 0.352981 -0.150907 0.244652 0.0385244 -0.505014 0.888849 0.257914 0.248062 -0.294227 -0.0478569 -0.022531 0.232878 0.303019 -0.310752 -0.845974 -0.397377 -0.367438 0.528984 -0.0304238 -0.407859 -0.656082 -0.456072 0.107938 0.14653
669 0.0331294 -0.0295433 -0.199065 -0.607343 0.404956 0.138494 0.0597008 -0.104329 -0.0437149 -0.464705 0.191619 -0.059374 0.0769683 0.306008 -0.198082 0.00683407 0.26319 -0.14288 -0.363041 -0.263225 0.782721 -0.168395 -0.36496 -0.487656 -0.410512 0.547911 -0.797889 -0.083847 0.101635 -0.309318 0.294629 0.483505
151 0.0881723 -0.00528372 0.124315 -0.315395 -0.0415521 0.0700749 0.142538 -0.183285 0.106127 -0.0370716 0.0662496 0.00843587 -0.224694 0.328089 0.0889978 0.10473 0.210573 0.218522 -0.136706 0.00692764 0.277171 -0.278594 -0.166876 -0.294456 -0.19077 0.168869 -0.22416 -0.0991267 -0.168803 -0.169837 0.31259 0.259141
644 -0.281388 -0.10262 -0.109407 -0.0470922 0.16702 0.380751 -0.0827446 -0.145466 0.474286 -0.142627 -0.266921 0.376127 -0.165745 0.864945 -0.0277005 0.780135 0.521206 0.540766 -0.0366456 -0.350109 0.620294 -0.590422 0.0664491 -0.727523 -0.034868 0.318734 -0.514191 0.255352 -0.516024 -0.000396186 0.118504 -0.103023
812 0.0480895 0.526073 0.380166 -0.589485 0.188915 0.224851 0.358385 -0.231827 0.473424 -0.43901 -0.207564 -0.259248 0.000164167 0.496835 -0.567108 0.247323 0.276515 0.411746 -0.105605 0.0741181 0.0790018 -0.814181 -0.693587 0.232365 -0.21581 0.937605 -0.477582 0.235772 0.252716 -0.199657 0.159377 0.0248256
427 0.185356 0.0629158 0.296992 -0.41823 0.0557494 0.0793413 0.1307 -0.316638 0.205906 -0.0716323 -0.0719257 0.0928287 -0.0769266 0.269575 0.12531 0.197264 0.358749 0.130984 -0.260283 -0.0429069 0.249262 -0.391956 -0.221165 -0.259494 -0.0375444 0.213832 -0.457141 0.0728589 -0.242755 -0.13212 0.451477 0.185338
208 0.162457 0.0283973 0.170036 -0.302038 0.00397279 0.0163027 0.252 -0.222148 0.121795 -0.162755 -0.0438264 0.0689997 -0.230155 0.228352 -0.0178529 0.0562333 0.162856 0.214045 -0.121987 0.0279058 0.324372 -0.317558 -0.143279 -0.199429 -0.167683 0.225005 -0.275642 -0.0118908 -0.267403 -0.132266 0.273822 0.346878
17 0.281025 -0.154213 0.357176 -0.567263 -0.0934132 -0.102897 -0.0676371 -0.201529 0.406023 -0.417538 -0.00174424 -0.215577 -0.0695535 -0.05863 -0.452925 0.255095 0.334221 0.130445 -0.266107 0.66895 0.61735 -0.465798 0.24936 -0.598647 -0.0164231 0.139665 -0.588694 -0.198749 -0.224502 -0.18151 0.386702 0.141179
626 0.17137 0.0794933 0.177055 -0.306824 0.0667137 0.0806322 0.281711 -0.323922 0.149329 -0.219991 -0.134861 0.00224363 -0.251769 0.30748 -0.0348252 -0.0276974 0.170131 0.253154 -0.225908 0.0144145 0.340663 -0.336868 -0.113263 -0.268628 -0.108179 0.225815 -0.305353 0.00967895 -0.205411 -0.108962 0.308899 0.277591
338 0.283724 0.0716731 0.120507 -0.364563 0.253097 0.0441447 0.253237 -0.295457 0.234611 -0.130895 -0.0859678 0.0912208 -0.14244 0.230609 0.226642 0.0628431 0.0895915 0.0861678 -0.418 -0.107611 0.375214 -0.36615 -0.196458 -0.285756 -0.133073 0.429284 -0.633111 0.178202 -0.078458 0.023006 0.322732 0.417377
36 0.204203 0.0812019 0.232542 -0.35597 -0.0127354 0.128362 0.172358 -0.346564 0.212946 -0.221628 -0.103482 0.0575524 -0.230921 0.262626 0.128005 0.0507021 0.161159 0.288603 -0.121959 0.021559 0.311017 -0.41764 -0.0525279 -0.298837 -0.0972723 0.0984789 -0.236654 -0.0184864 -0.13053 -0.137308 0.323788 0.365082
413 0.190387 0.0810931 0.335331 -0.454446 0.0780516 0.124671 0.15473 -0.261235 0.138582 -0.129415 -0.0891355 -0.0653193 -0.309318 0.251143 0.095898 0.0802498 0.317387 0.146692 -0.213468 -0.0460473 0.242013 -0.392211 0.0264031 -0.28398 -0.125513 0.129211 -0.19966 -0.0314855 -0.216577 -0.142382 0.377563 0.312312
114 0.324564 -0.0642676 0.134742 -0.232358 0.247791 0.122801 0.227629 -0.394579 0.253502 -0.315992 -0.186986 -0.00695528 -0.243882 0.496115 -0.0944037 -0.116594 0.157067 0.380594 -0.475099 -0.047794 0.577332 -0.151784 -0.170127 -0.130671 -0.123257 0.385116 -0.325394 0.0794736 0.0269108 -0.135426 0.274106 0.49668
316 0.133249 0.0598501 0.229687 -0.283282 0.0434059 0.0703439 0.172354 -0.249604 0.134346 -0.170552 -0.0513394 0.001755 -0.185376 0.204807 0.00747805 0.0556334 0.184289 0.200698 -0.114062 -0.0261074 0.274426 -0.302299 -0.0799872 -0.264595 -0.117391 0.125899 -0.194498 0.0292088 -0.185894 -0.122238 0.290364 0.265536
568 0.23282 -0.0338485 0.24842 -0.284332 0.135668 0.0306408 0.0711556 -0.309112 0.187309 -0.253123 -0.247342 0.0298606 -0.245603 0.338278 -0.0259132 0.0115591 0.192603 0.287334 -0.234293 0.0124137 0.372588 -0.338308 0.00468341 -0.236456 -0.186409 0.238016 -0.354007 -0.0204672 -0.0704468 -0.0871053 0.218441 0.466461
165 0.132535 0.101346 0.267671 -0.336748 -0.0113045 0.131619 0.227669 -0.298499 0.145541 -0.214096 -0.164225 0.0270402 -0.268409 0.233425 0.118857 0.0569554 0.175686 0.160548 -0.152749 0.0668927 0.194121 -0.405486 -0.0673144 -0.273482 -0.149721 0.163699 -0.287729 0.0262804 -0.27164 -0.141373 0.372904 0.392623
664 0.0347775 0.411194 0.320485 -0.392352 0.221732 0.211265 0.238635 -0.254251 0.192812 0.00737155 0.0448181 -0.0548266 -0.123258 0.404581 -0.0408243 -0.0893112 0.596494 0.42825 -0.637789 -0.247964 0.176693 -0.0711212 -0.379238 -0.721413 -0.0157144 0.0985837 -0.198873 0.30312 -0.536736 0.00425588 0.360542 0.11735
813 0.201901 -0.205321 0.303028 -0.113891 -0.353005 0.155057 -0.104037 -0.316699 0.164657 0.0824636 -0.265969 0.513874 -0.357928 -0.0189623 -0.109085 0.0128845 0.128744 0.185242 0.203069 0.0165304 0.084639 -0.478319 -0.599132 -0.209084 -0.303087 0.0894051 -0.0910222 -0.0523581 -0.268017 -0.341862 0.308348 0.389319
203 0.27835 -0.0982111 0.283538 -0.328485 -0.00418311 0.0727154 0.124462 -0.355235 0.117009 -0.0258866 0.126601 -0.073315 -0.201554 0.285374 0.151688 -0.0755909 0.239366 0.321329 -0.207404 0.0905654 0.426574 -0.475305 -0.154646 -0.311404 -0.162218 0.155353 -0.200265 -0.158051 -0.174816 -0.142152 0.29114 0.345044
465 0.204729 -0.00532352 0.316457 -0.592174 -0.0918766 0.392911 0.323896 -0.735149 0.262089 0.368238 0.311045 -0.239625 0.109913 0.564785 0.5105 -0.129983 -0.029881 -0.101407 0.0635617 0.148169 0.116506 -0.392289 -0.252497 -0.940024 -0.349333 0.173046 0.0203467 -0.218023 -0.259824 -0.0168411 0.337409 0.32854
204 -0.144604 -0.295533 0.481403 -0.385291 0.0376396 0.159184 -0.285402 -0.429766 0.0468277 -0.398586 -0.0759384 -0.0108227 -0.126262 0.330884 0.338016 0.405619 0.108202 0.727027 -0.0164448 0.254734 0.113455 -0.332894 -0.130797 -0.505605 -0.311852 0.131638 0.297736 0.121514 -0.12598 -0.294386 0.354581 0.52071
215 0.181587 -0.0317911 0.133942 -0.443407 -0.0109076 0.184563 -0.0851505 -0.297953 0.0867537 -0.0146367 -0.172793 -0.00857831 -0.237156 0.25477 0.298609 0.164913 0.383798 0.202438 0.00301829 0.222026 0.377329 -0.524086 -0.0118969 -0.284862 -0.129163 0.115084 -0.255965 -0.203076 -0.0656332 -0.217189 0.251053 0.405486
100 0.52918 -0.168778 0.109518 -0.557104 -0.100287 -0.0385202 -0.302313 -0.204275 0.433534 0.18033 -0.261634 -0.00215984 0.05263 0.112474 0.462453 -0.0122121 0.185409 0.381042 -0.505214 0.132932 0.124166 -0.159685 -0.175734 -0.64595 -0.414507 0.370479 -0.69574 -0.496946 0.187003 -0.287796 -0.152379 0.702148
96 0.406972 -0.11248 0.287494 -0.153797 0.145537 0.0226121 0.0636495 -0.339055 0.224717 -0.164816 -0.139965 -0.0766397 -0.288869 0.313364 -7.04193e-06 -0.222228 0.168192 0.373062 -0.353413 0.0253523 0.521468 -0.396136 0.0163902 -0.42033 -0.178899 0.13923 -0.226281 -0.123331 0.052418 -0.167724 0.092166 0.414611
192 0.352372 -0.105961 0.542439 -0.428865 -0.0336647 0.283025 -0.0800543 -0.364641 0.194762 0.0316596 0.0176221 0.0699162 -0.0914103 0.0318045 0.659026 0.145123 -0.0163669 0.297544 -0.0717723 0.114868 0.295071 -0.382757 -0.207691 -0.0781764 -0.210107 0.134799 -0.447597 -0.111341 -0.0149126 -0.1566 0.387513 0.610235
86 0.0189539 0.0593944 0.450305 -0.473334 -0.0919055 0.212368 0.0239835 -0.352463 0.284011 -0.260848 -0.0152123 -0.110477 -0.120934 0.107286 0.154123 0.03881 0.214898 0.348484 0.0671445 0.182261 0.206385 -0.487194 0.0278498 -0.57921 -0.404843 -0.298206 0.00935021 -0.0500392 -0.340395 -0.248345 0.337352 0.407509
220 0.377751 -0.115541 0.779644 -0.367099 0.0237107 -0.0632252 -0.066992 -0.279184 -0.0458732 -0.214028 0.0670862 -0.123824 -0.103174 0.237593 0.375722 -0.0136923 0.160275 0.433413 -0.129495 0.186835 0.556329 -0.246407 -0.0104195 -0.134899 -0.40927 0.0366406 0.0179725 -0.449463 -0.0794339 -0.053707 0.318329 0.473695
438 0.603754 0.0976128 0.563798 -0.486024 0.173923 -0.275062 0.106249 -0.132898 0.013948 -0.215298 0.173233 -0.042183 -0.199385 0.31252 0.621515 0.687522 -0.335405 0.205395 0.0709396 -0.160682 0.757963 -0.439621 -0.130828 -0.0279725 -0.618939 -0.138958 -0.119466 -0.328454 0.0676017 0.0905838 0.714719 0.198503
336 0.201237 0.062804 0.462233 -0.447649 -0.0720813 0.08515 0.109766 -0.282647 0.00498814 -0.0948944 0.0820605 -0.0551585 -0.313437 0.242981 0.388848 0.140322 0.246571 0.171851 -0.0655345 -0.128387 0.112119 -0.514222 0.0626428 -0.34929 -0.254452 -0.0683349 0.0717497 -0.119123 -0.302606 -0.0865254 0.433218 0.3302
456 0.274496 0.129023 0.399227 -0.194861 -0.302351 -0.161185 -0.0544919 -0.352714 0.449566 -0.369172 0.317407 0.144455 -0.11627 0.398976 0.288068 0.253815 -0.0417852 0.198906 0.334622 -0.128575 0.716992 -0.75438 0.350639 -0.331395 -0.521532 -0.216322 0.000531876 -0.489807 -0.267183 0.07184 0.1498 0.233021
218 0.146914 -0.0308769 0.260696 -0.369782 -0.0606759 0.151014 0.087861 -0.323346 0.190319 -0.111574 0.0369 -0.0131079 -0.20021 0.209425 0.153731 0.0213165 0.216271 0.268469 -0.0746393 0.0595922 0.213378 -0.368336 -0.0172938 -0.270197 -0.192676 0.0481206 -0.0919861 -0.0849391 -0.222463 -0.22067 0.261052 0.336206
680 0.262738 0.376743 0.341845 -0.271456 -0.177757 -0.0459067 -0.0609049 -0.181325 0.146637 0.0494676 0.228122 -0.285556 -0.248289 0.464328 0.0925843 0.313588 0.459794 0.177079 -0.188009 0.109194 0.405277 -0.628634 0.135116 -0.752126 -0.212323 -0.339156 -0.122599 0.167652 -0.671652 0.113701 0.340041 0.217483
69 0.199472 -0.0598416 0.316255 -0.308371 -0.0428592 0.0798572 0.062176 -0.302715 0.127194 -0.0493847 0.0116424 -0.0310376 -0.225851 0.187732 0.140612 0.01802 0.188748 0.268088 -0.0808493 0.0450748 0.28939 -0.39036 -0.0454662 -0.251115 -0.173719 0.0679272 -0.0943484 -0.0941969 -0.166827 -0.173834 0.264474 0.393673
331 0.101119 -0.0937447 0.279133 -0.278811 -0.221674 0.108416 0.0809016 -0.246053 0.165672 -0.114394 0.0861609 -0.193701 -0.116012 0.420258 0.182771 -0.250764 0.294315 0.142077 -0.248283 0.143889 0.433403 -0.433556 -0.211351 -0.43881 -0.0791723 0.213419 -0.199747 -0.181276 -0.0933184 -0.170096 0.194427 0.52516
244 0.16142 -0.0569702 0.307547 -0.279158 -0.0602156 0.0947519 0.0717593 -0.252851 0.130231 -0.0236491 0.0276474 0.0310359 -0.224383 0.287454 0.155753 0.0399575 0.2279 0.239179 -0.0437346 0.0272805 0.22857 -0.36192 -0.0776254 -0.248366 -0.209927 0.0962552 -0.120084 -0.10955 -0.201867 -0.163025 0.302606 0.364244
62 0.209411 -0.0406446 0.349232 -0.313664 -0.0324107 0.10134 0.0486057 -0.288939 0.154296 0.0144661 -0.0217329 -0.0496931 -0.206636 0.255321 0.159671 0.0499682 0.309974 0.273141 -0.0771184 0.100678 0.244551 -0.39826 -0.0518858 -0.249851 -0.147537 0.0585894 -0.110318 -0.0803536 -0.255287 -0.167022 0.253489 0.325522
617 0.184759 -0.0614079 0.247245 -0.270428 -0.0551945 0.0905841 0.0979772 -0.244999 0.140545 -0.0631764 0.0237524 -0.0337958 -0.175152 0.204352 0.135143 -0.00142773 0.152144 0.246582 -0.114904 0.0452326 0.264897 -0.293071 -0.0884616 -0.211515 -0.164721 0.101771 -0.115239 -0.0834493 -0.119276 -0.133094 0.237838 0.292339
7 0.579052 0.0202946 0.496503 -0.429493 0.139396 0.216443 0.00963877 -0.303604 0.256366 0.106653 0.212827 -0.488838 0.00720501 0.0303071 -0.184836 -0.290661 0.562421 0.278821 -0.465928 0.500212 0.599043 -0.564907 0.00383345 -0.366597 0.0510234 -0.251729 -0.159476 0.208212 -0.499644 -0.308433 0.202002 0.0818523
672 0.178979 -0.0375077 0.342058 -0.328907 -0.104092 0.0856269 0.0421596 -0.273245 0.115397 -0.0210267 0.00291906 -0.0649244 -0.248193 0.234915 0.245588 0.00882589 0.225871 0.24326 -0.0849377 0.09221 0.253732 -0.489657 -0.0764181 -0.301303 -0.252178 0.0271392 -0.144149 -0.122005 -0.224666 -0.128322 0.314529 0.39733
9 0.200391 -0.0427588 0.406758 -0.417313 -0.154693 0.0765556 0.0700726 -0.354813 0.35449 -0.238309 -0.0351745 -0.00188866 -0.145594 0.181448 0.248664 0.0855587 0.11164 0.185711 -0.10144 0.0367573 0.308092 -0.60789 0.00696379 -0.366384 -0.121585 0.185346 -0.373004 -0.0676885 -0.227231 -0.169429 0.476897 0.360755
265 0.383623 0.120978 -0.0651523 -0.360897 -0.256665 0.346892 -0.0620816 -0.309502 0.218635 -0.129647 -0.144786 -0.137803 -0.085428 0.215477 0.529974 0.146626 0.356063 0.411885 0.251095 0.53241 0.612372 -0.542867 0.0766255 -0.255247 -0.185532 0.0289326 -0.159733 -0.241345 -0.239357 -0.37797 0.241334 0.256955
607 0.344382 -0.256981 0.28947 -0.286049 0.0628777 0.101409 -0.103663 -0.397296 0.130595 -0.219331 -0.129683 -0.0801641 -0.193841 0.353949 0.243482 -0.212755 0.191663 0.166244 -0.293605 0.14422 0.489873 -0.243417 -0.0156498 -0.338469 -0.291499 0.268246 -0.271119 -0.068413 0.0653728 -0.188705 0.0885951 0.705385
527 0.11181 -0.215069 0.352436 -0.243372 0.0625643 0.108663 -0.0267766 -0.320097 0.281153 -0.136807 -0.0644455 0.12776 -0.284602 0.320358 0.208086 0.198284 0.181575 0.406644 -0.355073 -0.0920336 0.28235 -0.353264 0.0104601 -0.298817 -0.108057 0.202286 -0.213288 -0.147534 -0.122429 -0.102104 0.356945 0.303843
113 0.354644 0.0734158 0.141609 -0.467623 -0.245146 -0.0580665 -0.334381 -0.377285 0.131282 0.139102 0.0197422 -0.101585 0.0678137 0.25651 0.439809 -0.0776811 0.305925 -0.108613 -0.376052 0.154861 0.530329 -0.386457 -0.083473 -0.555812 -0.544152 0.303578 -0.338351 -0.410061 -0.0235091 -0.189323 0.0463617 0.578808
814 -0.340376 -0.78465 -0.129919 -0.925804 -0.287374 0.508602 0.348512 -0.172144 0.104548 -0.450568 -0.207896 0.296087 -0.230841 -0.255328 -0.205988 -0.340424 0.394291 0.440922 -0.194695 -0.471855 0.744908 -0.760756 -0.320696 0.0182409 -0.388807 -0.0102211 -0.152238 -0.220927 -0.389233 0.120257 -0.254623 0.171662
1 -0.028014 -0.234412 0.143036 -0.398069 0.0980545 0.12086 0.112878 -0.151069 0.144099 -0.269559 -0.0965176 0.00154617 -0.244177 0.13151 0.0566565 0.269629 0.104273 0.442249 -0.0603823 0.0568858 0.437338 -0.484836 -0.0977762 -0.356906 -0.256023 0.151571 -0.323976 -0.119193 -0.072356 -0.292421 0.213484 0.444932
132 0.104536 -0.189655 0.333462 -0.335099 0.214002 0.140237 0.215438 -0.329626 0.300544 -0.252325 -0.0782612 -0.129781 -0.260772 0.0516027 0.0959126 0.00953658 0.19211 0.311117 -0.0398504 -0.177294 0.437746 -0.54019 0.0601847 -0.326296 -0.142625 0.0745052 -0.230379 -0.0848038 -0.0805739 -0.198975 0.14028 0.351434
194 -0.372363 -0.637453 0.314841 -0.162717 0.446954 0.351467 -0.173306 -0.243537 0.46663 -0.307334 -0.251402 0.111578 -0.376577 0.488254 -0.131789 0.257864 0.538029 0.80959 -0.203553 -0.203941 0.317501 -0.337031 0.174063 -0.537759 0.228347 0.386729 -0.167073 -0.103746 -0.197497 -0.376655 0.401385 0.0415185
163 0.0705288 -0.0281772 0.385552 -0.322671 -0.0647648 0.300431 0.244611 -0.377506 0.217807 -0.0838494 0.0694817 -0.169283 -0.246081 0.126793 0.336118 -0.0814138 0.154619 0.301471 0.118573 0.0306549 0.393614 -0.735932 -0.0120595 -0.294882 -0.0495625 -0.122863 -0.0539021 -0.149491 -0.142983 -0.186968 0.24776 0.416901
