704 32
805 -0.0105269 -0.189471 0.259152 -0.0328973 0.351972 0.165118 0.294175 0.0332961 -0.0204999 -0.110862 0.27087 0.0319548 0.343459 0.371281 0.0953747 0.192704 0.0292858 0.324709 0.36378 -0.0572143 -0.179953 0.0282254 -0.837306 0.0371846 0.0749032 -0.0150249 -0.35355 -0.313926 0.0326686 0.144134 -0.00951818 0.197538
566 0.0705842 -0.149306 0.182997 0.268986 0.090202 0.0147649 0.487097 0.151931 -0.0400957 0.167024 -0.211687 0.163624 0.19947 -0.634813 0.358378 0.0419089 -0.251175 -0.121971 0.397939 0.0829902 -0.670926 0.0326869 -0.703462 0.0175914 0.0472402 -0.254741 -0.383338 -0.373859 -0.17824 -0.497086 -0.156859 0.594071
452 -0.426972 -0.113093 0.317328 -0.098201 0.133981 -0.0751642 -0.356806 0.0732409 0.171496 0.264022 0.131196 0.216816 0.481994 0.0349382 0.276042 -0.406701 0.032377 0.101962 0.433425 0.444382 -0.0641121 -0.0951648 -0.719046 -0.0429813 -0.508453 -0.113325 -0.405194 -0.0366363 0.386801 0.158764 -0.107125 -0.100202
32 -0.231271 -0.388039 0.409845 -0.00604718 0.251021 -0.269759 -0.174744 -0.211287 -0.273809 0.159581 0.13502 -0.213172 0.249189 -0.195484 0.0745285 0.0627612 -0.523257 0.276874 0.216087 -0.0950884 -0.384959 -0.216122 -0.844353 -0.0144883 -0.152113 -0.13882 -0.143772 -0.00762649 -0.27763 0.350442 -0.542471 -0.359498
230 0.130286 -0.41813 0.253578 0.2432 -0.0780791 0.273711 0.406654 0.285368 0.283219 0.0533208 -0.319708 0.102034 -0.054235 0.527893 0.142762 0.00566346 0.683898 0.0458229 0.189671 -0.334581 -0.390349 0.189957 -0.643544 -0.415327 0.346243 -0.284385 0.0958404 0.0384507 -0.114216 0.276546 -0.11161 0.247083
303 0.0528242 -0.0997213 0.00337884 -0.149323 0.0250587 0.155015 0.14683 -0.640155 0.105107 -0.00315274 -0.110371 0.0365163 0.517863 0.745634 0.106264 0.0625519 0.0411646 0.187581 0.736371 -0.28688 -0.0965341 0.240682 -0.101106 -0.0676123 0.10132 -0.0201282 -0.0686575 -0.559864 0.187187 -0.0827667 -0.192805 -0.085102
529 0.137552 -0.463674 0.0426841 0.211706 -0.0232977 0.266977 0.403451 0.612701 0.0827328 -0.0854337 0.0261591 -0.313209 -0.15465 0.128537 0.204081 0.585408 -0.0291421 0.0514412 0.801677 0.0377941 -0.167093 0.284148 -0.126968 -0.150475 0.0616533 -0.333984 -0.434742 -0.601027 0.192516 0.235859 0.544034 -0.267855
513 -0.185927 -0.367015 -0.0149156 -0.209649 0.370361 0.238952 0.168807 -0.00176133 0.162881 -0.0678742 0.120953 -0.0597759 0.0130038 0.500206 0.238848 -0.241309 -0.268697 0.36175 0.259183 0.0372036 -0.0970162 -0.240383 -0.168007 -0.102042 0.194013 0.394343 -0.232627 -0.229849 0.287661 0.46661 -0.684096 0.251043
628 0.284986 0.0431308 0.000313878 -0.0405292 0.942567 0.331478 0.12193 0.156118 -0.109598 -0.139319 0.0547322 -0.0287971 -0.0896156 -0.0426447 -0.310044 0.286861 -0.183238 0.437171 0.143851 0.247455 -0.404279 -0.149168 -0.209604 0.521963 0.253936 -0.545702 -0.671468 -0.145745 0.159438 0.0429136 0.123595 -0.140228
692 -0.0946474 -0.265072 0.231486 -0.0230904 0.0488846 -0.438938 0.335999 0.128011 0.00392533 -0.0565179 0.333213 0.024938 0.10765 0.90003 0.370251 -0.0935796 0.196049 0.320233 -0.200527 -0.425666 0.280034 0.1077 -0.234926 -0.154183 0.485664 -0.161381 -0.58545 -0.4631 -0.098927 -0.0910297 0.0664002 -0.0596986
412 0.190035 -0.240558 0.285289 -0.160226 0.171456 0.241258 0.207367 0.0992267 0.0995176 -0.0382156 0.317704 -0.355402 -0.187018 0.711223 0.0543536 0.164074 -0.123171 -0.00423553 0.289078 -0.388177 0.30925 0.116294 -0.414468 -0.00909309 0.0571536 0.00489597 -0.0815031 0.00531332 -0.135835 0.0405321 -0.522312 0.367034
119 -0.37446 -0.0924063 0.0994908 0.424064 0.768066 0.524786 0.141271 0.188601 0.256646 0.228363 0.032996 0.428065 0.184826 0.627279 0.0134602 -0.0567634 -0.0313726 0.577439 -0.0670339 -0.152635 -0.109563 0.11262 -0.374495 -0.114125 -0.159731 0.0286188 0.258295 -0.161564 -0.0905755 0.231245 0.309899 -0.229111
332 0.238977 -0.023359 -0.067871 0.285018 -0.134024 0.457165 0.338514 -0.402494 -0.301551 -0.01354 0.120376 0.120321 0.45762 0.0134115 0.543882 0.388817 0.15646 0.0711216 0.268631 -0.21808 -0.180222 0.408966 -0.299455 0.228446 -0.0525575 -0.046731 -0.387743 -0.138181 0.0791804 0.204012 0.106133 0.337556
479 -0.344873 -0.174339 0.532359 -0.279473 -0.141796 0.354401 0.229171 -0.432524 -0.099378 -0.0795068 0.181858 0.014791 0.210105 0.208741 0.182333 0.156709 0.319873 0.0057545 0.273589 -0.378412 0.117662 0.150598 -0.56961 0.183764 0.0106755 0.0128728 -0.286077 0.208445 0.313115 -0.129379 -0.155225 0.250791
563 -0.296833 0.250835 0.420757 -0.10222 0.461623 -0.0832383 -0.0415164 -0.48019 -0.191008 -0.180316 0.567085 -0.026096 0.509623 0.0569226 0.080641 0.382563 0.293094 -0.379235 0.269403 -0.326113 -0.197909 -0.370573 -0.396146 0.0413065 0.20392 0.18459 -0.32465 0.0682056 0.052724 0.132923 0.131408 -0.0905921
643 -0.00860716 0.0281993 0.350379 0.130616 -0.0585843 0.317498 0.312751 0.246485 -0.175161 0.0274516 0.167577 0.59333 -0.111419 0.228598 -0.0673328 0.0189203 0.173148 0.308249 0.449447 -0.0558131 0.0217903 0.232608 -0.558555 -0.154993 0.0403733 0.41841 0.043979 -0.126617 0.0579555 0.553319 0.527333 0.0735261
108 0.0915248 -0.166102 0.705113 0.275288 0.172589 0.518007 1.23628 0.0122325 0.263724 -0.0659962 0.172075 -0.127389 0.29472 -0.083877 -0.601928 0.119275 0.501876 0.00328246 0.0390811 -0.205535 0.0241081 0.281155 -0.235178 0.016057 0.0289012 -0.148758 -0.399468 0.0513183 -0.674522 0.0312485 0.0539325 0.0294041
800 0.0498538 0.0610055 0.189188 0.0898776 0.25108 0.343924 0.0494989 -0.0511365 0.0315617 -0.396606 0.371373 -0.0623179 0.111985 0.453627 -0.0110481 0.391958 0.400722 0.128132 0.241798 -0.190022 0.10737 0.114161 0.0247633 0.1595 0.0315907 0.0475829 -0.371932 -0.355188 0.285648 0.252479 -0.249116 0.0680802
305 0.479639 0.402826 -0.00572974 -0.283637 0.253584 0.0228795 0.233813 -0.174725 -0.0935284 0.0459811 -0.313703 -0.075369 0.0225726 0.955188 -0.140799 0.014044 0.456432 -0.0726334 -0.276296 -0.488608 0.120434 -0.200287 -0.376019 -0.160691 -0.110667 -0.106192 -0.0212218 -0.11481 0.514267 0.485164 -0.116643 0.265713
716 0.382323 -0.318581 0.267761 -0.0240314 0.227479 -0.0673339 0.185467 0.17299 0.554775 -0.424619 0.117816 -0.183198 0.20613 0.456697 -0.069688 0.170595 -0.0477155 0.298573 0.00752399 -0.000841726 -0.248732 0.420811 -0.186522 0.0417249 -0.270817 0.171437 -0.412117 -0.154379 0.314184 0.33395 -0.656761 -0.037123
530 -0.332444 0.0946774 -0.012248 0.198274 0.0688776 0.417282 -0.137 0.0602232 0.249669 -0.00400721 0.124414 0.180481 -0.222615 0.472502 -0.0665148 0.409505 0.210379 0.130544 0.0354493 -0.342893 -0.00632372 0.53149 -0.310362 0.233871 0.167567 -0.158605 0.125874 0.0432652 -0.117147 0.657143 -0.601682 -0.226389
99 -0.148191 -0.195806 -0.176287 0.360997 -0.0127481 0.175802 -0.351568 0.235164 -0.120901 -0.299838 0.112237 0.152051 -0.190042 0.710249 0.261704 0.484552 0.114069 0.375516 -0.283138 -0.169878 -0.538971 0.165308 -0.0739971 0.0869035 0.533493 0.148552 0.0606864 0.0177333 0.451307 0.424747 0.112327 0.0945161
74 -0.0266485 0.180146 0.568344 -0.213146 -0.143216 0.166944 0.209141 0.126915 -0.141395 0.263849 -0.13115 0.0372385 0.421516 0.534188 0.182601 0.361703 0.500649 -0.00797802 -0.189756 0.206646 0.271043 -0.0499027 0.38329 -0.27881 0.527305 0.11406 -0.330278 0.114922 0.525573 0.283747 -0.493355 0.034396
480 -0.127089 0.25043 0.057325 0.484841 -0.130634 -0.0898489 -0.130564 0.331452 -0.379997 -0.441796 0.0805412 0.401704 0.156706 0.458152 -0.236599 0.22531 -0.197531 -0.278367 -0.00251065 -0.272812 0.448079 -0.125954 -0.0844676 0.248997 -0.121861 0.463542 -0.0959599 -0.514422 -0.187327 0.401457 -0.260831 -0.0788673
243 0.289324 -0.172821 -0.0044048 0.215659 -0.104468 0.282435 0.17762 -0.313455 0.0219121 -0.510238 0.512145 0.0283936 0.161698 0.204482 0.298306 0.565193 0.150948 -0.115842 0.286444 -0.685829 0.0359423 -0.231611 0.25285 -0.364652 0.0542363 -0.142551 0.123537 -0.0817345 0.0728652 0.221376 0.236308 -0.237151
182 -0.366376 0.288476 -0.0236155 -0.0332414 0.0774559 0.329703 0.227348 0.221495 0.0699248 -0.234992 -0.119378 -0.0366147 0.0149896 -0.241525 -0.338994 0.513947 0.569292 -0.0759785 0.269431 0.252598 -0.033388 -0.23688 0.133868 0.110311 0.397946 -0.113824 -0.74128 0.200048 0.731874 -0.504849 0.263215 0.273857
422 0.250633 0.281812 -0.117144 0.530815 -0.0654022 0.0609985 0.241023 -0.369565 0.0542029 -0.152533 0.210812 0.211115 0.432045 0.410313 0.134777 0.637369 -0.353857 -0.141346 -0.227105 -0.276546 0.0367006 -0.216698 0.51978 0.341775 -0.0324438 0.144826 -0.23395 -0.489819 0.243175 -0.115841 0.227944 0.20176
8 0.296417 -0.0705689 -0.0518016 -0.401613 -0.174104 0.31558 -0.0128171 -0.115822 -0.226731 -0.0434833 0.677607 0.441972 -0.120151 0.403063 -0.0894965 0.161364 0.305062 -0.269989 -0.301774 -0.24823 0.0583405 0.243638 0.121966 0.192258 0.3258 0.17723 -0.396734 -0.288249 -0.22675 0.0904773 0.0508893 -0.313591
432 0.36622 0.249967 -0.0148741 0.00541636 0.254431 0.399303 0.415417 -0.157214 0.0272861 0.0494983 0.294268 0.192795 0.0614643 0.196596 0.415334 0.022988 0.292798 0.246629 0.436213 -0.625055 -0.0438574 0.362644 0.614444 -0.0600756 0.135483 -0.127998 -0.179799 -0.348037 -0.115584 -0.133859 0.324702 0.190888
329 -0.160134 -0.128375 -0.10647 0.310272 0.557242 0.466534 0.189188 -0.0195824 0.0225368 -0.116076 0.566522 -0.296574 0.322672 0.299056 0.00297332 0.294483 -0.14686 0.0144398 -0.0212111 0.0773548 0.196425 0.373815 0.0349576 -0.556919 -0.0311357 -0.286366 0.100493 0.363771 0.414038 0.509452 -0.356926 -0.373204
478 -0.336468 0.183936 0.178966 -0.33478 -0.0446749 0.166619 0.129035 -0.111295 -0.141148 -0.299175 0.256318 0.142349 0.104034 0.146857 0.310472 0.165662 0.244322 0.151868 0.670695 -0.439072 -0.239386 -0.0213952 -0.25267 0.366392 0.0201505 -0.016789 -0.398589 0.0234795 0.396738 0.0563292 0.264502 0.0215608
519 0.422148 -0.112986 -0.268583 0.0354138 -0.0524028 0.386119 -0.128427 -0.11286 0.152213 -0.340816 -0.0431056 -0.115724 0.326319 0.178387 -0.0939831 0.495981 0.238699 -0.038818 -0.02658 -0.286713 0.489134 0.155722 -0.246241 0.44093 -0.157842 -0.490067 -0.237802 -0.00631074 0.0875033 0.335841 0.0980719 -0.352704
75 -0.413031 0.708497 0.250021 0.395108 -0.230052 0.196644 0.128754 -0.422499 -0.0616391 -0.639755 0.198598 -0.11757 -0.0604853 0.360392 0.209973 -0.0339748 0.0550045 -0.256435 0.0140921 -0.0147302 0.271842 0.231596 0.346155 0.370445 -0.0497011 -0.135418 0.0504086 -0.398441 0.049497 -0.229504 0.0992719 0.270432
39 -0.223213 0.493087 0.374952 0.238984 -0.163424 0.145923 0.310171 0.10049 0.189832 -0.447751 0.021949 -0.00654729 -0.117228 -0.421979 0.061153 -0.00269056 0.613426 -0.112585 0.150588 0.195089 -0.201223 -0.339574 0.251249 0.158802 -0.261777 0.255669 -0.505167 -0.209857 0.587695 -0.171204 -0.199835 0.422033
658 -0.00923998 -0.0338267 0.116921 0.0295896 0.469795 -0.541534 0.1198 -0.567179 0.634102 -0.206612 0.496827 0.0952324 -0.0940747 0.427206 0.172638 0.204933 0.52329 0.0315231 -0.302972 0.0379354 0.0628327 0.537206 -0.194383 -0.180216 -0.0713428 0.338338 -0.153101 0.235782 0.443226 0.156285 -0.136656 -0.226738
645 -0.0830134 -0.0997107 0.297631 -0.0590314 -0.134385 0.222968 0.343334 0.295955 -0.206829 -0.322217 0.637179 0.0189366 -0.168074 0.158821 -0.0297798 -0.189834 -0.241039 -0.232913 -0.275227 -0.768046 0.198334 0.466616 -0.126256 0.23066 -0.114684 0.219264 -0.0737003 -0.499112 0.202791 -0.0306394 -0.302882 0.0725189
104 0.283734 -0.344458 -0.265562 0.421644 0.147659 0.467776 -0.0150902 0.462498 -0.106187 -0.12294 0.118978 -0.143084 0.456794 0.662473 0.0220387 -0.0935851 0.420933 0.13106 0.371738 -0.195862 0.11112 -0.0683312 0.624133 -0.0885176 -0.202321 -0.0666882 -0.314876 0.128728 -0.0581951 0.0595848 -0.0194299 -0.167459
73 -0.344696 -0.152539 0.0851566 -0.0135058 0.448394 -0.0295729 0.065313 -0.255673 -0.0388412 -0.295352 -0.305443 -0.0557635 0.394727 0.498214 0.152485 -0.302089 0.372577 -0.153548 0.285361 -0.412172 -0.0524188 -0.0226678 -0.45497 0.571831 -0.132952 -0.0663432 -0.578509 -0.130808 0.256232 0.339689 0.0177669 -0.174082
81 0.00661451 -0.12896 0.17806 0.369149 -0.30106 -0.0195381 -0.11305 -0.178245 -0.509727 -0.415131 0.383769 -0.0557699 -0.192549 0.20982 -0.28682 0.178703 0.35861 -0.0188117 -0.244041 -0.00246932 -0.00164705 -0.615229 0.20346 0.135528 0.11829 -0.123907 -0.252661 -0.337192 0.302292 -0.250649 -0.261167 0.310498
301 -0.139572 0.214968 -0.305222 -0.39843 -0.00997842 0.331448 0.101535 0.240497 -0.197254 -0.297224 0.197603 -0.251018 0.105704 0.456519 0.028685 -0.081283 0.208814 -0.0153893 0.317505 -0.371556 0.29225 0.175636 -0.0797238 0.227534 0.215036 0.265988 -0.260463 0.275995 0.334932 0.313041 -0.00952489 -0.0310869
18 -0.263166 0.0780441 0.68698 0.173967 -0.323235 0.313156 -0.0287262 0.0812653 -0.0646619 -0.0409049 0.109941 -0.363951 -0.19675 0.175504 -0.0541546 0.0285685 0.250894 -0.0943551 0.426959 0.248909 -0.00153046 0.326879 0.224433 -0.333885 0.264446 -0.307586 0.309763 -0.875973 0.597522 0.253428 -0.0172558 -0.252816
411 -0.332859 0.483152 0.13089 0.0860437 0.132657 0.0484677 -0.4184 -0.523349 -0.300166 -0.288096 0.0326643 0.166942 -0.0246242 0.334843 0.176632 0.157985 0.523264 0.401572 0.0712704 -0.0449888 0.283734 0.014246 -0.177887 0.0004501 0.0784757 0.352326 -0.159275 0.133029 0.135341 0.232208 0.313694 -0.0917799
550 -0.310268 0.101479 0.260929 0.0219842 0.223174 0.275787 0.228762 -0.0597107 0.371458 -0.00566471 0.580023 -0.75518 0.063549 -0.336783 -0.332798 0.52801 0.198105 -0.0264931 -0.200922 -0.427403 -0.30539 -0.222428 0.59022 0.000853042 -0.0181081 -0.00338396 -0.127005 -0.221275 -0.0833862 -0.331164 -0.675287 0.3165
318 0.183051 0.0962482 -0.105869 0.278759 0.178115 -0.100034 0.174442 -0.0948801 0.386153 -0.535743 0.132412 -0.262733 0.0999269 0.484906 -0.496178 0.535002 0.163503 -0.112895 0.464843 0.385295 0.296745 -0.476705 0.263568 -0.326786 0.102363 -0.0277383 0.324568 -0.401207 0.296197 -0.452923 -0.233742 -0.0310806
321 -0.126056 0.300227 0.6658 0.0958216 -0.198825 0.132278 -0.127936 -0.526293 -0.395667 0.126525 0.32609 -0.306648 -0.206218 0.380821 -0.305566 0.0551947 -0.0381942 0.114115 -0.0561066 -0.188657 0.439217 0.160411 -0.009748 0.131536 -0.275066 0.0928775 -0.208979 -0.4658 -0.159393 0.147321 -0.185847 -0.106789
152 -0.121882 -0.326628 0.244352 0.472477 0.0719599 0.0597786 0.0137085 0.082748 0.245679 -0.681627 -0.0477039 -0.331115 -0.465998 0.0260412 -0.18578 0.0701822 0.283334 0.350748 0.156934 -0.275124 -0.00831482 -0.485795 0.166211 0.159138 -0.467188 -0.605404 -0.280675 -0.156607 -0.306424 0.174307 -0.606865 0.114042
684 0.0462958 0.0971085 0.0676196 0.0867471 -0.252471 -0.061193 -0.324331 -0.255899 -0.163766 0.0820789 0.215253 0.133594 0.146241 0.288712 -0.382692 0.101217 0.331242 -0.249845 0.0517151 0.179877 -0.030482 -0.403555 0.310776 0.379872 -0.0425008 0.0305607 -0.259156 -0.650083 0.0109763 0.105243 -0.30607 0.0593425
26 0.449344 0.388915 0.699547 0.227983 -0.303506 0.318292 0.318566 -0.000982639 0.059891 0.0237871 0.260914 0.0160549 -0.0638589 -0.375916 0.0224556 0.140559 0.436877 -0.18054 0.0213048 0.0401334 -0.099919 0.104718 0.38301 0.0231016 -0.115571 -0.48753 -0.168456 -0.723356 0.252159 -0.201162 -0.304464 0.338749
679 -0.097587 0.268674 0.43916 0.340551 -0.154673 -0.0679073 0.150885 0.231312 0.184427 -0.582414 0.0770347 0.199773 -0.13211 0.295658 -0.19309 0.172075 0.490379 -0.148349 0.317759 0.39566 0.269379 -0.665267 0.357273 0.183493 -0.304034 0.26638 -0.0267156 0.0309671 0.322507 0.0824395 -0.0200621 0.107896
461 -0.273752 -0.187571 -0.0666395 0.0858326 -0.283286 0.132443 0.00983084 0.0561311 -0.194536 -0.582183 0.75185 -0.460228 -0.219092 -0.489181 -0.139685 0.195732 0.698747 -0.395234 -0.284054 -0.426439 -0.220513 -0.063491 -0.0499435 0.119265 -0.114767 -0.103661 -0.160608 -0.236374 0.116152 -0.251243 -0.535081 0.302432
51 -0.121968 0.370978 0.258214 0.490646 -0.156656 0.241345 0.149304 0.0793807 0.00639257 -0.445376 0.0869197 -0.100055 -0.0947736 -0.353473 0.095246 0.20434 0.403557 -0.254836 0.0810681 0.0136556 -0.324873 -0.113577 0.591941 0.294833 -0.0378378 -0.227621 -0.23585 -0.565987 0.166702 -0.330623 -0.447734 0.490098
197 -0.0123135 -0.0677558 -0.275861 0.0402088 0.218778 -0.000249037 -0.0537259 0.0909144 -0.313484 -0.375796 0.351329 0.0915901 0.0165421 0.203327 -0.284058 -0.031806 0.164508 1.06467 -0.272815 0.0310241 0.016636 -0.109686 0.270456 0.434311 0.236002 -0.273987 -0.42138 -0.144322 -0.014578 0.313414 -0.0489028 -0.422872
293 0.0900694 0.222131 0.116576 0.333661 -0.317747 0.0863294 0.142465 0.0883921 0.201994 -0.537202 -0.0721928 -0.45588 -0.217359 -0.00984759 0.173744 -0.118969 0.460846 -0.0428161 0.315794 -0.378572 -0.412621 -0.136387 0.485129 0.116326 -0.102254 -0.563449 -0.369452 -0.423177 0.183007 -0.261781 -0.240512 0.365739
801 0.157892 -0.106962 0.126856 -0.205676 0.152852 0.0935215 0.0246749 -0.0942841 0.0337156 -0.149924 0.268362 0.169961 0.0969631 0.55668 -0.193131 0.285279 0.0100816 0.280738 -0.00985251 -0.0328839 0.203429 -0.245595 -0.135849 -0.0287598 0.125747 0.0328767 -0.116146 0.041571 0.184013 0.237538 0.0449146 -0.213625
102 0.483942 -0.0577434 -0.0851274 0.173574 0.456538 0.0766057 0.310342 -0.0235809 0.475201 0.456354 0.589812 0.0680728 -0.130956 0.263464 -0.146153 0.513653 -0.210304 0.200705 0.373478 0.0470279 0.263655 -0.168353 0.322598 0.264854 -0.274004 -0.262797 0.0916307 -0.0668606 0.278396 0.451667 -0.151371 0.0829588
370 0.0331875 0.213113 0.0978702 -0.125243 -0.315364 -0.0229591 -0.0359585 -0.127063 0.0720712 -0.033496 0.0871232 0.0666278 0.0158817 0.504465 -0.156797 -0.127171 -0.152303 -0.0748685 -0.140931 0.27245 0.116796 -0.436418 0.517245 0.249296 0.211884 -0.200638 0.334351 0.151708 0.259852 -0.133716 0.284184 -0.0222085
206 -0.057749 -0.150051 0.0555217 -0.0277154 -0.0981911 0.192597 0.0178716 -0.141326 0.0233168 0.120578 -0.238793 0.554331 0.21617 -0.00700816 -0.220248 0.339529 0.0749686 -0.000201572 0.00391934 0.150037 -0.263181 -0.331687 0.398724 0.134741 0.759445 -0.338073 -0.399364 0.33107 -0.0549407 -0.411865 0.40552 -0.198159
37 0.153942 0.0773632 0.69127 -0.0124572 0.225183 -0.00716963 0.0590253 -0.353522 0.032077 -0.11076 0.033627 -0.0139989 -0.127876 0.112897 0.10675 0.609189 0.0241983 0.598228 -0.241222 0.268651 -0.104989 0.253358 0.286861 -0.0116797 -0.41079 -0.612302 0.0378139 -0.0231288 0.592926 0.404024 -0.161135 0.119595
142 0.32635 -0.150932 0.23674 0.354322 -0.14736 -0.0285089 0.182172 0.28974 0.26107 -0.253222 -0.232647 0.599436 -0.122042 0.1865 -0.307627 0.382459 -0.072445 -0.288266 0.131571 0.319222 0.188078 -0.628532 0.237064 0.110837 -0.0458863 -0.159105 0.251374 0.119731 -0.29132 -0.216117 0.0533421 -0.0585999
511 0.264043 -0.0405912 -0.267272 -0.137011 0.337286 0.180001 0.335634 0.0481693 0.113466 -0.1669 0.0171097 -0.379149 0.057967 0.400619 -0.34138 0.225051 0.0209728 0.281329 0.711782 0.269173 0.14286 -0.164966 0.0455804 -0.0852445 -0.195368 0.656094 0.0472628 -0.0431568 0.18045 0.133527 -0.427885 -0.0876111
464 -0.134117 -0.294239 -0.160604 -0.331855 0.196521 -0.0408668 -0.326106 0.0562583 0.256449 -0.423875 -0.0707901 -0.0594273 -0.0835274 -0.190099 -0.317508 0.114785 0.155658 -0.0274806 0.0577775 0.171225 0.661101 -0.333441 -0.65907 -0.230043 -0.0960287 0.0467455 0.0615212 0.0826048 0.369069 0.281445 -0.0435689 -0.458141
90 -0.271936 -0.470837 -0.145467 -0.119464 -0.205274 -0.193909 -0.348471 -0.323473 -0.374444 -0.0164689 -0.011077 -0.117486 0.0162242 0.367215 -0.219296 -0.284055 -0.101581 -0.144038 0.186053 0.127874 0.316872 -0.232073 -0.104906 -0.369168 0.194637 0.219729 -0.0167224 -0.322496 0.170151 0.296476 -0.0230155 -0.348516
419 -0.269913 -0.0203485 0.280924 -0.357748 0.158426 -0.154565 -0.177884 -0.247614 0.284979 0.134116 0.0420936 0.318521 0.0680016 0.155456 0.4589 -0.0588112 -0.242466 0.233374 0.357893 0.402794 -0.00280636 -0.204003 -0.0120355 0.237731 0.153981 -0.493793 0.520671 0.240654 0.255125 0.275385 -0.030519 0.109435
697 -0.183023 0.460407 0.0525082 -0.191013 -0.438448 -0.259814 0.463419 0.19778 0.220635 -0.285426 0.455032 0.290199 0.0494581 0.178707 0.0178588 -0.2502 -0.0454736 0.174192 0.143609 -0.407127 0.516896 0.0613135 -0.11106 0.294024 0.104339 -0.487277 -0.320694 -0.0710429 0.639405 0.376374 -0.156384 -0.301322
88 -0.0492798 -0.319649 0.0672144 -0.0844427 -0.187522 -0.279166 0.105553 0.102211 -0.350398 -0.0406637 -0.295886 0.516891 -0.111242 0.103436 -0.264514 0.311547 0.477479 -0.179737 0.0919358 0.0864691 0.332128 -0.647179 -0.265026 -0.178836 -0.685739 0.397128 -0.182518 0.166922 -0.0266288 0.225934 -0.179396 -0.0961088
76 -0.2056 -0.132641 -0.00892482 -0.331499 0.489899 -0.0370993 -0.511738 -0.336312 0.250643 0.211633 0.35094 -0.36287 0.0363405 0.024582 -0.0426771 0.167435 0.123927 0.565124 -0.20329 -0.186989 0.158935 -0.137422 -0.145136 -0.0330364 -0.0522836 -0.0420695 0.344027 0.157122 -0.0434 0.32819 -0.304267 -0.070446
308 -0.394247 -0.405996 0.0379585 -0.479056 0.431279 -0.25663 -0.0564289 0.0649523 0.166175 -0.0585179 0.0533148 0.283189 0.0948178 0.294367 -0.283571 0.401751 -0.0247288 0.226241 0.0902746 -0.425874 -0.0189609 -0.204485 0.106317 0.0095957 -0.629675 0.249218 0.248586 0.240183 0.229906 0.408609 -0.371812 0.0723376
23 0.241249 -0.222264 -0.0726254 0.338433 0.226374 -0.142982 -0.000872323 0.0770398 -0.453583 0.141341 0.301517 0.108809 0.513943 0.0483655 0.0112473 0.396013 0.0120162 0.195126 0.128475 -0.292714 -0.355784 -0.455823 -0.0762276 0.0248062 0.0384842 0.104757 -0.400201 -0.750988 0.228896 -0.149218 -0.280093 0.41592
147 -0.38573 -0.0463441 -0.00406073 0.161137 -0.217996 0.135315 0.00979204 -0.553726 -0.367486 -0.262887 -0.0952452 0.476486 0.066412 0.201648 -0.0950181 0.238196 0.00730942 -0.1077 -0.231983 -0.261623 0.221803 -0.0709784 -0.127739 -0.0191221 0.481345 -0.0902523 -0.479994 0.179263 -0.315014 -0.376131 0.439479 -0.110551
343 -0.472774 -0.41841 0.187048 -0.435728 0.00132513 -0.0604298 -0.363057 -0.222913 0.0675657 0.102685 0.388154 -0.312425 -0.0328453 0.0933427 -0.452442 -0.0428884 -0.0946439 0.174883 -0.207789 -0.0228766 0.151146 -0.213513 -0.180526 0.316159 -0.123077 -0.0934753 -0.050349 0.0853854 -0.0647286 0.338577 -0.354127 -0.370486
93 0.256694 0.0684137 0.184689 -0.0767826 -0.325444 -0.0550111 0.0797833 -0.0942635 0.0310608 0.124801 -0.112653 0.440118 -0.0246975 0.117284 -0.250736 0.208431 -0.247686 -0.0987326 -0.120311 0.271859 -0.143138 -0.667056 0.296492 0.249793 0.28708 -0.294543 -0.00332415 -0.010274 0.131069 -0.38562 0.146172 0.016042
342 -0.267587 -0.241392 -0.0153627 -0.687136 -0.164939 -0.166669 -0.127553 -0.161491 -0.475658 0.182431 0.332708 0.0466454 -0.0974635 0.226164 0.0221974 0.233875 0.423862 -0.0781263 0.0307655 -0.202952 0.127477 -0.0876981 -0.193967 0.00228652 -0.259237 0.0260844 0.40062 0.261049 0.185277 0.298249 -0.149628 -0.0808332
538 0.26107 -0.607902 0.527905 -0.0941669 -0.0823575 0.111972 0.0974506 0.00742328 -0.455272 0.37063 0.268206 0.138828 -0.0409287 0.0715197 -0.126922 -0.16802 0.126943 0.147441 -0.0265977 0.00639665 0.263349 0.301866 0.0828222 -0.203892 0.446143 -0.0712336 -0.403989 0.0708756 0.0479023 -0.119693 0.333675 -0.418403
347 0.0425622 0.154244 -0.103723 0.0233439 0.128398 -0.165631 -0.484662 -0.24818 -0.376705 -0.094232 -0.00403568 -0.139847 -0.22317 0.37508 0.282854 -0.0770825 0.256046 0.497396 -0.0143793 0.05423 0.0789747 0.0207065 -0.264116 -0.17531 0.0706583 -0.0521166 0.469878 0.276756 0.253615 0.185201 0.17471 0.0909662
539 -0.34979 0.167574 0.414844 -0.276839 -0.0684443 -0.111825 -0.122898 -0.140388 0.00673306 0.311744 -0.128696 -0.178395 -0.0737896 0.380217 -0.4417 -0.121625 -0.207256 0.230269 0.177785 0.263024 0.0237603 -0.408488 0.0521141 0.229096 -0.162785 0.479714 -0.274376 0.25955 0.226983 0.350632 -0.0293504 -0.307821
556 -0.23861 -0.279323 -0.0473739 -0.0894522 0.140389 0.11845 0.721414 -0.14531 -0.385639 -0.287617 0.315066 0.415431 0.861485 0.242398 -0.0992339 0.201763 -0.0182988 0.173332 0.0406444 -0.0919493 0.216676 0.213277 -0.3002 -0.486832 0.10696 -0.316564 0.257912 -0.0548907 -0.144635 0.613911 -0.142305 -0.0769624
582 -0.290547 0.191755 0.314798 -0.19843 0.119784 0.13488 -0.0587257 -0.28759 0.229722 -0.0323196 -0.145531 0.535483 -0.311057 0.66997 -0.0267199 0.399099 0.0277825 0.10393 0.283195 0.273056 0.122382 -0.209433 -0.00386751 0.0242655 0.199321 0.469857 -0.229948 0.571132 -0.50749 0.239514 0.13313 -0.174673
381 0.111764 0.043909 0.13823 -0.140665 0.095894 -0.220812 -0.0421867 -0.213527 -0.097067 -0.115243 0.0777745 -0.382093 -0.299855 0.367272 -0.41714 -0.220931 0.103111 0.625784 0.00953646 0.410755 -0.00518974 0.109095 -0.251472 0.0239872 -0.273131 0.707805 -0.245184 0.17525 0.11666 0.0285063 -0.10459 -0.52019
475 0.908336 -0.242968 -0.0187361 -0.0414597 0.190691 0.0153797 0.00309975 0.299894 -0.0978084 0.168084 0.0877937 0.0581598 -0.306624 0.0707264 -0.438159 0.11082 0.108096 0.0246461 -0.0838955 0.141242 0.618198 0.125184 -0.462706 -0.183503 -0.207409 -0.0748675 0.0757153 -0.0651465 -0.165561 -0.0345071 0.176697 -0.202886
319 0.184295 0.116267 -0.0264916 0.134843 0.501664 -0.237524 -0.100167 0.0492177 -0.292833 -0.359764 -0.0171476 -0.109297 -0.0615483 0.384723 -0.130816 0.801817 0.469217 0.251159 -0.0145715 -0.0248311 0.250539 0.00199903 0.168983 -0.468851 -0.297774 -0.215745 0.449077 0.12047 0.380062 -0.00507761 -0.101062 0.51121
168 -0.398932 0.113854 0.245717 -0.0236675 0.104288 -0.275674 0.199968 0.157586 -0.117663 0.0706775 0.267026 -0.207603 0.327317 0.429485 -0.744959 -0.155539 -0.106691 0.0314161 -0.0767063 0.151741 -0.359631 -0.251988 -0.54992 -0.568277 -0.373099 0.0164845 -0.856265 0.0902145 -0.232435 0.611141 0.107379 0.384978
57 -0.298782 -0.435869 0.0728203 -0.1607 -0.0344876 -0.373046 -0.582501 -0.254937 -0.104153 0.104265 0.136494 0.0520976 0.185487 0.305613 -0.0529134 -0.269585 -0.0250653 0.0418316 -0.091699 0.225746 0.340397 -0.228343 -0.258678 0.234496 -0.0361449 -0.165513 0.0688704 -0.0956665 0.116301 0.421311 -0.11981 -0.278649
177 0.0566423 -0.361517 -0.0186218 0.408497 -0.205513 -0.236075 -0.171948 0.123161 -0.211134 -0.399844 0.110516 0.140728 -0.229681 0.393635 -0.254042 0.0804864 0.217926 -0.160195 0.0243454 0.0627833 0.395853 -0.508731 0.0209965 -0.0706346 -0.187052 0.00563483 0.29932 0.117921 -0.230884 0.0712634 0.0256545 0.0208185
429 -0.0559878 -0.0758019 -0.124935 -0.313474 0.170053 0.0464162 0.120126 -0.483436 0.357746 -0.0204535 0.530966 0.0646153 0.336156 0.33503 -0.296044 0.089565 0.223065 -0.0370217 0.0358771 -0.026138 0.145737 0.393683 0.167197 0.0645639 0.304141 0.482934 -0.103523 -0.00379074 -0.41494 -0.430235 0.18546 -0.465784
497 0.429251 -0.00664482 0.124597 -0.050732 -0.553254 0.0976723 0.348664 -0.539956 0.157796 0.235701 0.407816 0.16271 -0.130892 0.198458 -0.0705794 -0.113277 0.406154 0.217183 -0.218116 0.067838 -0.0275001 -0.407835 -0.224722 -0.335226 -0.314094 0.116662 0.112262 0.245586 0.526977 0.485346 0.548789 0.466924
425 0.00948496 0.30983 -0.00100327 -0.263553 -0.096821 0.011956 -0.000297647 -0.307519 0.0720953 0.0516991 0.255529 0.205156 -0.161403 0.474089 0.235961 -0.0532652 0.061164 0.103814 0.191239 0.228665 -0.152016 -0.362183 0.32621 0.101795 0.180839 -0.239758 0.671735 0.325794 0.192348 0.0153807 0.261213 0.373515
531 -0.222282 -0.0695346 0.232156 0.0904487 -0.0153257 -0.0574871 0.547867 0.0933768 0.71993 -0.00971829 -0.209527 0.391857 0.176219 0.335496 -0.348256 -0.441384 -0.146184 0.00665357 -0.677881 -0.225128 -0.153751 -0.513849 -0.229994 0.0181194 0.184769 -0.387554 0.234985 -0.136785 0.361208 0.20854 -0.0807633 0.114334
507 0.168423 0.107375 -0.278382 -0.125433 0.17329 -0.0222996 -0.375028 -0.125259 -0.281665 0.179976 -0.0950563 -0.48914 -0.263049 0.34595 -0.655827 0.212854 -0.171262 0.436497 -0.2889 0.0335268 0.214225 -0.283129 -0.380722 0.0575541 -0.00653754 -0.0851973 -0.0596274 0.122478 0.062519 -0.00519135 -0.037174 -0.125823
145 -0.327032 0.0187152 -0.389463 -0.302346 0.341276 -0.0457897 -0.0258976 -0.301834 0.512806 -0.24855 -0.418367 0.0584788 -0.0347341 0.522296 -0.284329 0.192875 -0.202313 0.548931 0.215822 -0.466686 0.0814014 -0.110783 -0.177263 -0.493374 -0.326813 -0.0567557 -0.0910233 -0.0440449 -0.0088903 0.528342 0.427974 0.00955432
144 -0.0770705 -0.261282 0.151847 -0.0432262 0.0656113 0.140023 -0.0772552 -0.0935715 0.465295 -0.206815 0.45244 0.581479 0.126768 0.390089 0.218703 0.46458 0.114936 -0.100326 -0.20631 -0.299314 0.206962 -0.128761 -0.100699 0.0664728 0.0579493 0.296599 -0.126962 0.00261435 0.202827 0.373883 -0.108854 0.121293
141 -0.0713206 -0.113386 0.566273 -0.0290387 -0.17712 -0.280263 -0.170518 0.0877075 -0.210824 0.211418 -0.273118 0.0970406 0.119393 0.350513 -0.00676894 0.0825145 -0.496964 -0.108724 0.184761 0.328299 0.152828 -0.168025 0.150802 0.240059 0.321532 -0.0915503 0.0534861 0.0223551 0.331367 -0.186899 0.105404 -0.239689
572 0.0250032 0.162656 -0.191575 0.528072 0.0462516 -0.152906 -0.0206782 -0.310321 -0.245881 0.195975 -0.022129 -0.186514 -0.632315 0.112285 -0.508063 0.143373 -0.0838895 0.485458 -0.343204 -0.188951 -0.0379984 -0.207409 -0.198241 -0.151222 0.00335794 -0.213957 -0.316243 0.266935 0.00344814 0.0108851 -0.3721 -0.286518
196 0.253891 0.0747118 0.188983 -0.0209171 -0.318218 -0.0544233 0.137951 -0.0855067 0.0370134 0.150553 -0.118326 0.417364 0.0347364 0.0750187 -0.281983 0.13798 -0.274809 -0.180507 -0.142827 0.276937 -0.0991189 -0.613868 0.324173 0.190026 0.291705 -0.262871 -0.0712287 -0.0126406 0.130052 -0.397941 0.124041 0.0438515
143 -0.0631201 0.0846243 -0.414219 0.20064 0.438659 0.417125 0.243056 -0.197851 -0.516566 0.0680076 0.0226099 -0.422776 -0.319861 0.310612 -0.440743 0.327638 -0.231132 0.391744 -0.650275 0.33727 0.117256 -0.321689 -0.349363 -0.0102489 -0.0464987 -0.169501 0.0575174 0.100154 0.142856 -0.39556 -0.00300407 -0.085753
474 0.593554 -0.121288 -0.289178 -0.234839 0.07896 0.104055 0.499304 0.494964 -0.129699 0.0861995 0.152172 0.526342 -0.0526186 0.182065 -0.0977942 -0.24591 -0.508255 0.0146598 0.0270074 0.0837512 -0.299556 -0.0948641 0.499968 0.467825 0.0681539 0.106818 -0.130453 -0.253795 0.0962094 -0.125526 0.321859 -0.262364
11 0.253199 0.0752773 0.169776 -0.0843771 -0.313935 -0.0224828 0.111581 -0.0655048 0.0460695 0.141884 -0.1168 0.48637 0.00677098 0.147837 -0.335886 0.166678 -0.287297 -0.143903 -0.163906 0.245548 -0.123776 -0.715737 0.345821 0.240038 0.285136 -0.268565 -0.00249055 0.00455697 0.137997 -0.413844 0.147708 0.0288535
133 0.00666789 -0.370851 -0.461201 0.0837626 0.170176 -0.349101 0.255496 0.0752486 -0.101449 0.0527457 0.39632 0.152176 0.512163 0.44322 -0.51797 0.41796 0.386162 0.337761 0.256452 0.0434479 0.4412 -0.403759 -0.0049558 -0.37623 0.476249 -0.195625 0.186799 0.545744 -0.486234 0.0482137 0.331583 0.46704
606 0.377318 0.60445 0.650175 -0.101154 0.214053 0.224429 0.21746 -0.366542 -0.20277 -0.00950588 0.285774 -0.140247 -0.341621 0.362776 0.296521 -0.0413758 -0.449206 0.540513 0.0435196 -0.0812628 0.0780917 0.318354 -0.1316 -0.0995442 0.016011 -0.0573775 0.47864 0.336045 -0.152653 0.141706 0.282275 -0.433144
304 0.278279 -0.372282 -0.261792 -0.404175 0.167814 0.00728671 0.0696377 -0.0714801 0.00953551 -0.0871474 0.279971 0.233781 -0.316007 0.323642 0.259688 0.289937 -0.315213 0.0223234 -0.11573 -0.217882 -0.0732188 0.179782 -1.01549 0.131606 -0.0611501 0.400449 -0.271519 0.255546 0.260712 -0.0617159 0.235459 0.0995137
352 -0.0168582 -0.0372916 -0.0289592 -0.273645 0.498022 0.191619 -0.0118629 0.35267 0.383078 -0.0367694 0.114428 -0.460094 0.0938043 0.0868688 -0.068873 0.0182404 -0.000767077 0.315581 0.0345785 0.143097 0.553789 -0.0334379 -0.329035 -0.0199353 0.0161479 0.329672 0.194834 0.545571 0.12407 0.467475 -0.425171 0.0484173
117 0.263598 0.106121 -0.076936 -0.228096 0.0837766 0.466354 -0.0293719 0.381335 0.118594 -0.0491796 0.341562 0.0503965 0.177031 0.662264 0.119227 0.110112 0.343452 -0.134531 0.222217 -0.267322 0.394233 0.109162 -0.0418402 -0.231999 0.0298077 0.129235 -0.28255 0.231205 0.117986 0.122599 -0.118959 -0.0241333
687 0.030199 0.344407 -0.0199728 -0.265416 -0.109359 0.0111056 -0.00303523 -0.280848 0.0877244 0.0193376 0.262002 0.216617 -0.149724 0.490388 0.264642 -0.00362534 0.0507803 0.151513 0.188632 0.258031 -0.20402 -0.347742 0.337958 0.122202 0.132838 -0.217939 0.682207 0.289762 0.210806 0.0584606 0.316064 0.376891
708 -0.363926 -0.594436 0.051084 -0.13708 -0.0244275 0.0433372 -0.0702102 -0.210029 0.482061 -0.19134 -0.363241 0.360565 0.0873851 0.344042 -0.0104034 -0.112334 -0.0220688 0.228372 0.0643899 -0.405221 -0.298184 -0.330744 0.172133 0.264113 0.339636 -0.886252 -0.301169 0.172146 0.145351 -0.23701 0.11584 -0.143109
335 -0.0230968 -0.584171 0.285021 0.401853 -0.160917 -0.365049 -0.223208 0.269795 -0.350211 -0.247011 -0.074278 0.124049 -0.116932 0.31065 -0.192249 0.168716 -0.0689742 -0.231795 0.218745 0.0992146 0.374563 -0.307178 -0.207037 -0.0909618 -0.0980759 0.112124 0.0968024 0.0895943 -0.200245 0.0709792 -0.100208 -0.147398
302 0.172862 0.20144 0.187409 -0.393896 -0.355159 0.125963 0.0844682 -0.312666 -0.0920234 -0.0329231 0.544389 -0.132097 -0.0870768 0.182925 -0.383087 0.311032 -0.0186797 -0.403232 -0.271546 -0.235308 0.627104 0.0838009 -0.459994 0.0641897 0.073525 -0.37206 0.13368 0.00650593 0.211929 -0.361781 0.226624 -0.0277542
704 0.457216 0.224437 -0.373249 -0.123277 -0.164939 0.049424 0.209316 0.30153 -0.0397139 0.0861131 -0.137848 0.709541 0.245226 0.11517 -0.264504 0.210864 -0.550166 -0.125749 -0.00256577 -0.0864994 -0.426728 -0.522884 0.438639 0.539265 0.0992896 -0.0677958 -0.0338585 -0.352169 0.280677 -0.0724559 0.109696 -0.134844
535 0.54375 0.377654 -0.0315945 0.246753 0.0706566 0.0218681 -0.255235 -0.0956658 -0.0255994 -0.121969 -0.479236 0.223305 -0.109029 0.0621313 -0.0984986 0.174448 -0.00422655 0.368509 -0.568241 0.233383 -0.0491708 -0.238491 -0.00690331 -0.0215698 0.204881 -0.298777 0.0930859 0.0358298 0.166709 -0.282564 0.182988 -0.203386
35 -0.0211279 0.114393 0.279502 0.137823 -0.162315 -0.152597 0.156347 0.263894 0.302242 -0.364819 -0.17664 0.333811 -0.0876703 0.265893 -0.176538 0.0164542 0.246762 -0.181141 0.314762 0.402058 0.315284 -0.63031 0.146532 0.0402508 -0.281851 0.286901 0.145836 0.398342 0.137507 0.124389 0.231649 -0.0350815
693 0.355397 0.164691 -0.192239 -0.128127 0.252592 0.0559493 -0.0192851 -0.288689 -0.249079 -0.197172 0.56923 0.07888 -0.557964 0.362744 -0.209443 -0.104531 0.14018 -0.4533 -0.122884 -0.137572 0.184174 0.28008 -0.208178 -0.127087 0.283135 -0.125267 -0.387815 -0.449993 0.113903 0.483165 -0.199251 -0.490509
16 -0.0386713 -0.462887 0.000206646 0.262438 0.217413 0.167029 0.031992 -0.0445004 -0.0718147 0.00970421 -0.0510357 -0.0998366 -0.222908 0.30297 -0.149511 0.847603 -0.255411 0.287321 0.303408 0.136623 0.0549994 -0.288736 -0.113414 -0.00313415 0.205624 -0.0200151 -0.0220681 0.805251 -0.00457865 0.0417381 0.408251 0.0940893
698 0.891656 0.270674 0.104022 -0.240461 -0.324636 0.147287 0.355207 0.257608 -0.0168914 0.499188 0.0306972 0.729656 0.247671 0.00453756 -0.236037 0.154896 -0.383283 -0.101762 0.00829262 -0.128418 -0.237232 -0.21457 0.255461 0.270153 -0.0262022 -0.357468 -0.0370156 -0.611731 0.323196 -0.0250763 0.061704 -0.179586
20 -0.465392 -0.239006 0.400324 -0.266984 -0.0631504 -0.153074 -0.234378 0.114101 0.00352337 -0.333421 0.444017 -0.069077 0.353019 0.612847 -0.174572 -0.0696691 -0.529566 -0.32432 -0.0757995 -0.400617 -0.442221 0.177877 -0.0773352 -0.25477 -0.270154 -0.334961 0.390724 0.521462 0.418444 -0.208305 -0.0591518 -0.320979
297 0.204093 -0.236595 -0.163579 -0.0877374 0.113461 -0.322794 -0.25481 -0.311174 0.177559 0.654341 0.00994193 0.176209 0.579586 0.290371 -0.252575 0.109536 -0.0576256 -0.229941 -0.0994949 -0.0632531 0.15429 -0.453145 0.309831 -0.1217 0.158685 0.237772 -0.00311605 -0.326797 -0.157757 -0.0906939 -0.118279 0.106266
690 -0.36214 0.468552 0.462365 0.276987 -0.023856 0.00882398 0.276129 0.181365 0.598983 -0.708466 -0.177616 0.740981 0.048937 -0.018326 0.00427065 0.0511433 -0.272388 -0.197717 -0.127134 0.262373 0.623884 -0.390183 -0.255964 0.145209 -0.0488772 0.0656028 -0.0937654 0.101677 -0.0178105 0.23344 -0.0937772 0.0198082
502 0.0300012 -0.404785 0.0930682 0.379942 -0.021655 0.151059 0.0676643 0.198104 0.160993 -0.177485 -0.39901 0.729824 0.134171 0.0390495 -0.336886 0.537554 0.188819 -0.15518 0.252241 0.181887 0.00396215 -0.417616 0.295502 -0.00496557 0.393253 -0.230213 -0.13371 0.408108 -0.414456 -0.203097 0.288243 -0.230273
222 0.225763 -0.130426 0.113293 0.102234 0.29533 0.163959 -0.320042 -0.0611462 0.0766365 -0.201952 -0.169651 0.37539 0.0823767 0.534073 -0.186359 0.451747 -0.128443 -0.162423 -0.160333 0.104551 0.440553 0.340089 -0.205454 -1.10385 0.324911 -0.288813 -0.305644 0.0556045 -0.0235457 -0.326961 0.141271 -0.212223
19 0.715832 0.162622 0.729488 -0.190082 -0.430554 0.0975013 0.288108 -0.0851695 0.141933 0.455788 0.0577431 0.438527 0.0139782 -0.0359824 -0.237076 0.162925 -0.111101 -0.141286 -0.130101 0.138992 0.120408 -0.26161 0.181709 -0.0414014 0.165579 -0.543301 0.0297326 -0.288623 0.244374 -0.287937 0.108413 0.00171707
83 0.263185 -0.270412 -0.21048 0.0719256 -0.407981 -0.360796 0.0264411 -0.533497 -0.218166 -0.262971 0.213452 0.031559 -0.0344314 0.310299 -0.461955 0.148359 0.235835 0.105798 -0.0977857 0.201539 -0.259639 -0.272456 -0.270945 -0.0613067 -0.0821149 0.129089 -0.044436 -0.0623796 0.0313188 -0.658202 -0.199239 -0.187513
395 0.347453 -0.284509 0.0260113 0.26034 -0.421552 -0.0208586 0.213742 -0.243538 0.201582 -0.0131538 0.0575068 0.169569 0.0245984 0.142021 0.0254651 0.388012 -0.380878 -0.167186 -0.349994 0.314149 -0.160493 -0.420521 0.269368 0.28463 0.142908 -0.154087 -0.114048 0.208972 0.361362 -0.163163 0.397518 0.0676698
718 0.37598 -0.488539 0.392446 0.220288 0.254318 -0.279061 -0.0362071 -0.117607 -0.0381212 -0.0491286 0.545333 -0.0281778 0.0622016 0.439247 0.103765 0.235451 0.217462 0.0204413 0.157027 0.110145 0.309814 0.39744 0.428364 -0.261572 -0.350091 0.216489 0.210651 -0.074613 0.181881 0.4373 0.151364 0.320244
802 0.0590822 0.00777971 -0.0198382 -0.329159 0.290731 0.28166 0.100422 -0.197844 0.0589081 -0.0859625 0.282384 0.20603 -0.0407975 0.405292 0.194183 0.312575 0.153415 0.363994 0.355949 -0.188762 0.033711 0.0975958 -0.222805 -0.157574 0.037863 0.0919811 0.17066 0.187789 0.102252 0.437177 -0.0308714 0.247858
715 -0.0245145 0.324258 -0.0144805 -0.292166 0.259065 0.243989 0.205734 0.196937 -0.203397 -0.309472 -0.0464812 0.297431 -0.0441192 -0.069896 -0.0293631 0.752855 0.256709 0.428171 0.145662 -0.299232 -0.409376 -0.385548 -0.00717238 -0.0359604 -0.24026 0.115342 0.245963 0.757334 0.03665 0.345225 0.0272369 -0.599787
334 0.063798 -0.276142 0.0069687 -0.261934 0.318761 -0.201131 0.0329432 -0.0871072 -0.0466772 0.362395 0.385466 0.0182572 -0.0196551 0.190368 0.20895 -0.273702 0.23618 0.262722 0.274574 0.0180704 0.179776 -0.184853 0.0343266 -0.317915 -0.0869779 0.736276 0.0212009 0.262441 0.0934136 0.181945 0.110097 0.225556
400 0.149498 0.13929 -0.119376 0.21323 0.153945 0.132957 0.318444 0.20952 0.381509 -0.262508 -0.106234 0.466213 -0.301452 -0.20559 0.386642 0.26988 0.277187 -0.143131 0.660192 0.134594 -0.170374 -0.102188 0.0569149 -0.154489 -0.299509 -0.133708 0.755395 0.339379 -0.560753 0.0400088 -0.0414475 0.601393
406 0.0896162 0.199448 -0.160358 -0.62708 0.237337 0.270632 0.271826 0.177893 0.319814 -0.041636 -0.042317 -0.128954 -0.118331 0.267012 0.179592 0.374784 -0.0653506 0.12526 -0.116876 0.0518343 0.569885 0.00422163 -0.326014 -0.341688 -0.100588 0.138073 -0.0741245 -0.0169508 -0.0624192 0.552589 -0.357594 -0.223047
358 -0.220323 0.739028 -0.100805 -0.0968005 -0.0119671 0.255149 0.371069 -0.603265 0.155353 -0.219047 0.0220158 0.385939 -0.264691 -0.0271024 0.621271 0.0650806 -0.173943 -0.163624 0.273665 -0.20528 -0.0364207 0.284626 -0.126458 0.0361242 -0.0792288 -0.0897373 0.457466 0.180093 -0.402498 -0.297742 0.247819 0.657134
713 0.604108 0.473233 -0.258464 -0.218505 -0.10382 0.0886036 -0.130198 -0.173658 -0.0778041 0.564576 -0.0898571 0.271811 0.155463 0.241111 -0.158838 -0.286344 0.11474 0.430163 0.0242427 -0.144673 -0.23783 0.289396 -0.294163 -0.0967377 -0.293556 -0.0409292 0.51855 -0.380596 0.128692 0.805049 0.331556 0.00202382
528 0.309478 -0.345081 -0.278162 0.0156704 -0.301959 -0.0963498 -0.137288 -0.403819 -0.0194726 -0.0887121 0.452595 0.110844 -0.418021 0.643026 0.466062 0.236362 0.171512 -0.045596 -0.287503 0.274571 -0.284734 -0.281853 -0.0993787 -0.18695 0.234374 0.0426269 0.123731 0.427087 0.153256 0.1982 0.152018 0.430271
149 0.353894 0.391481 -0.820599 -0.246161 -0.00496236 0.461916 0.442701 0.130721 0.0014151 0.148369 -0.338325 0.192008 0.475637 -0.0313423 0.445256 -0.10009 -0.0991408 -0.0809963 0.487215 -0.0996992 -0.657583 0.246159 0.135811 0.426918 -0.0889112 -0.0152215 0.459141 0.143857 -0.0119411 0.347336 -0.272006 0.423637
146 -0.404864 0.0950891 -0.338006 -0.552849 0.0932942 0.201186 -0.109643 -0.385519 0.206159 -0.163899 0.284561 0.712379 0.215757 -0.214907 0.046126 0.1939 0.246155 0.0359917 0.014366 -0.320713 -0.0180507 -0.183876 -0.316473 0.352695 -0.0875339 0.18921 -0.187555 0.160443 -0.0111133 0.289261 0.194176 -0.201908
249 0.0376306 0.383494 -0.289228 -0.242116 0.0840821 0.199075 0.247062 -0.173628 0.202466 0.140611 0.0379167 0.28348 -0.253021 -0.388147 0.592431 -0.00145139 0.190109 0.00709794 0.392647 -0.00926356 -0.495663 0.0196467 0.152611 -0.114637 -0.021937 -0.156572 0.614042 0.261067 -0.155099 -0.0679126 0.038142 0.801957
110 -0.115859 0.0407166 0.196504 -0.114603 -0.0699434 0.34634 0.0513978 -0.418561 -0.0198247 -0.0159616 0.235291 -0.48412 0.306728 0.190078 0.341222 0.153029 0.610755 -0.0065991 0.308031 -0.62626 0.279433 0.439725 0.0903147 -0.132651 0.160971 -0.216788 -0.0619211 0.0529796 -0.0415961 0.0141094 -0.166126 0.224729
509 0.245068 0.241251 -0.00782816 -0.326784 -0.0591098 0.0704892 0.155097 -0.313644 0.0860415 0.11911 0.139759 0.497303 -0.201 0.226322 0.237855 0.179644 -0.0146931 0.130939 0.221864 0.198616 -0.278241 -0.548965 0.248835 0.147196 0.234979 -0.241265 0.588137 0.328682 0.0792063 -0.179552 0.19555 0.488324
610 0.5661 0.417688 0.33076 -0.32154 -0.148649 0.298143 0.375081 -0.182212 0.266209 0.460811 0.244155 0.354418 -0.18711 -0.386355 0.489278 0.02773 0.248576 0.00542027 0.331685 -0.0417092 -0.23289 0.195942 0.00353428 -0.303234 -0.0570622 -0.486348 0.556417 -0.0720687 0.0305816 -0.0346205 -0.00632956 0.64519
581 -0.653634 0.234071 -0.151355 -0.739089 0.0118858 -0.0528495 -0.0542931 -0.137889 0.3528 0.367238 0.468282 -0.588169 -0.173257 0.158548 0.110774 0.140475 0.0100113 0.0943481 0.207628 -0.110108 -0.247816 0.121549 -0.0356431 0.0754536 -0.305582 0.08741 0.239092 0.116866 -0.429526 0.419744 -0.0409413 -0.0362967
640 -0.506799 -0.135204 -0.0101361 -0.0714842 0.0753366 0.257384 -0.125968 0.167249 -0.259516 -0.0738722 0.525671 -0.314877 -0.0927844 -0.0791557 0.0181263 0.621322 0.641918 0.0755282 0.467166 -0.0965079 -0.377103 0.210544 -0.583965 0.00768108 0.363125 -0.263503 0.100713 0.029669 0.367517 -0.119464 0.138292 0.342886
312 -0.103647 0.22379 -0.686076 -0.375331 0.43744 0.254524 0.219029 0.0334568 0.239357 0.103694 -0.0966064 0.203041 0.259486 -0.0109753 0.0754854 0.240005 0.0653641 0.141569 0.589475 -0.0844358 -0.131783 -0.369472 0.247531 -0.413651 0.435668 0.280283 0.0407001 0.0993671 0.635263 -0.00921255 0.445466 0.104064
135 -0.123198 0.128136 -0.174878 0.0178838 0.0115111 0.184695 0.0917925 -0.58152 0.194392 -0.318193 -0.152047 0.703179 -0.187927 0.303592 0.0585115 0.147472 -0.133338 -0.278802 0.547097 0.0822568 0.394013 -0.243498 -0.133452 -0.306773 -0.100846 0.131073 0.381137 -0.191514 -0.561223 0.160236 0.220519 -0.0335391
161 -0.221232 0.592667 -0.358885 0.213467 0.424044 -0.112333 -0.214463 -0.202246 0.0462894 0.386518 -0.0253174 0.142305 0.150406 0.467292 0.0166924 0.338195 -0.167236 0.169346 0.0709405 -0.21934 0.494524 0.263468 -0.240717 -0.287122 0.64627 0.0526809 0.108963 0.292636 0.181967 0.219346 0.0407748 0.00992041
184 -0.0793854 0.239374 -0.522567 -0.0470731 0.358133 0.0922968 -0.221304 -0.225644 -0.0149819 -0.211722 -0.138461 0.0040258 0.0458322 0.500789 0.0839529 0.23078 0.278707 0.353858 0.226822 -0.807558 0.0663148 -0.107865 -0.145866 -0.0150166 -0.0840633 0.152807 -0.134368 0.0362139 0.376457 -0.11753 0.256747 0.227368
372 -0.0507578 -0.201725 0.355474 -0.61442 0.0947551 0.330307 0.17884 0.0326816 0.0769565 0.339363 0.645248 0.0133789 -0.0369822 -0.134174 0.278619 -0.152204 0.383152 0.00827044 0.295347 -0.0748752 0.0277375 0.67717 0.189331 -0.0634898 0.344498 -0.1297 0.240235 0.34674 0.0393855 0.0353256 0.356339 -0.192727
417 -0.02543 -0.11616 -0.434114 -0.00909744 -0.0578995 0.0625057 0.0291438 -0.310646 -0.368532 -0.121178 0.306587 0.0597566 -0.398779 -0.298214 0.410559 -0.0732214 0.341712 0.0807528 0.124185 -0.271903 -0.287821 -0.139102 -0.273855 -0.341688 -0.127087 0.0421028 0.342513 0.262214 -0.199491 -0.0558364 -0.118492 0.827902
486 -0.311838 0.109809 -0.00834604 -0.487311 0.404551 0.136388 0.359007 -0.138607 -0.461441 0.14685 -0.201054 0.45977 -0.0780254 0.304768 -0.0191163 0.256415 -0.306615 0.291602 0.278391 -0.260148 -0.270154 0.759496 0.349716 0.0555919 -0.206493 0.22221 -0.15413 0.205558 -0.282186 0.235043 0.255536 -0.2021
392 0.0310608 0.521235 -0.0928536 0.254491 -0.0200493 0.434951 -0.14005 -0.145414 0.0415847 -0.413388 -0.197557 0.108796 0.116387 0.523527 0.242792 -0.0660902 0.386986 0.09569 0.0717582 0.156964 0.479312 0.00564578 -0.451422 -0.228403 -0.549569 0.0852859 0.139456 0.713056 -0.0874282 0.0681615 0.129946 0.0223112
592 0.431447 0.381734 0.445785 -0.346159 -0.231267 0.117041 0.110764 -0.289921 0.124939 0.402897 0.389699 0.269185 -0.105043 0.332477 0.23302 -0.0390508 0.153673 0.0867196 0.217682 0.191147 0.0647178 -0.111 0.259809 -0.0876126 0.0595232 -0.444475 0.633744 -0.0229176 0.305443 0.0597271 0.229186 0.307749
803 -0.167787 -0.284649 0.0453128 -0.177624 0.45091 0.0871594 0.0231578 -0.134329 0.444756 -0.269172 0.224605 0.245101 0.166775 0.0880445 0.109788 0.0319437 -0.0849743 0.375521 -0.0788245 -0.00578149 0.277731 -0.0246002 -0.24754 0.147802 -0.0828024 -0.379962 -0.176077 -0.0506077 0.160583 0.525119 -0.28145 -0.132068
382 -0.269114 -0.174376 -0.203303 -0.479643 0.223403 -0.213072 0.0661681 0.108583 0.518698 0.24715 0.329985 -0.164446 -0.0225494 0.102696 0.383373 -0.511587 -0.103553 0.0147258 -0.0330209 0.370836 0.133567 0.245893 0.0861927 0.239779 -0.319692 -0.173793 -0.0631021 -0.335158 -0.418177 0.44427 0.167469 -0.265534
357 -0.36877 -0.265839 -0.210076 0.223289 0.254462 -0.399787 -0.283022 -0.203905 0.174706 0.149864 0.244755 0.285889 -0.190729 0.190688 0.224317 -0.0869277 0.21396 -0.0415767 0.542066 0.0873442 0.322216 0.0428859 -0.324619 0.00524473 -0.328509 -0.170655 0.454594 0.239355 -0.145349 0.637104 -0.319555 -0.0547666
223 -0.27001 0.151886 0.197055 0.374879 0.137569 0.0539513 0.289844 -0.2087 0.66784 -0.605577 -0.28159 0.660074 0.0130977 -0.187318 0.268229 0.118721 -0.313718 -0.391516 0.112138 0.125399 0.574583 0.0416259 -0.255759 0.270744 -0.341239 -0.470221 0.156108 -0.101775 -0.650491 -0.0733456 -0.0296525 0.021535
534 -0.400218 -0.56272 0.154397 -0.0130021 0.0370334 -0.0784533 -0.324655 -0.283904 0.272895 -0.0537012 0.499437 -0.116055 0.478435 -0.0944212 -0.00919637 0.362362 0.432839 0.037006 -0.186162 -0.0285285 0.215649 -0.287919 0.0900782 0.117003 0.0967719 0.252691 -0.416498 0.122468 0.486193 0.362325 0.0132181 -0.121458
68 0.0736381 -0.133782 -0.0667405 0.432922 0.349072 0.0559437 0.287654 -0.223093 0.40771 0.0889223 0.236826 -0.320967 -0.554528 -0.0215502 0.130327 -0.169994 -0.296593 0.527442 -0.28972 0.259189 -0.0230563 0.363177 0.0475559 0.188207 -0.167404 -0.344348 -0.208461 0.383748 0.189321 0.375545 -0.0689117 -0.320104
618 -0.186694 -0.0945067 0.0153635 -0.0716329 0.17953 -0.00586585 0.123949 -0.0628823 0.695127 -0.0572075 -0.140556 0.332692 0.123421 -0.68535 0.315023 -0.234419 -0.14764 -0.0736856 -0.169669 0.238254 -0.143971 -0.13903 0.0514216 0.296592 -0.0792609 -0.673816 0.0479795 -0.142002 -0.0272811 -0.0248033 -0.365464 0.113966
666 -0.476909 0.0125118 0.0236216 -0.272055 -0.263577 -0.636388 0.0950509 0.163737 0.219552 -0.178204 0.252123 -0.089279 0.313204 0.486979 0.25327 -0.123786 -0.231821 0.408687 -0.0770795 0.513726 0.331374 -0.155226 0.0204706 0.245512 0.188041 -0.693485 0.045768 -0.115217 0.0692954 0.210677 0.169377 -0.293108
621 -0.00777691 -0.121698 0.229082 -0.161487 0.0122853 -0.0669871 0.0634436 -0.208249 0.532948 -0.0333359 -0.0210406 0.505337 0.153286 -0.123179 -0.010048 -0.00395669 -0.329071 0.00312567 -0.239522 0.405011 0.0814399 -0.604373 0.143981 0.395421 0.185723 -0.697692 0.00196209 -0.0756836 0.194827 -0.14469 -0.124299 -0.0272659
364 -0.2836 -0.122077 -0.268009 -0.192085 0.107698 -0.0825185 -0.22959 -0.421972 0.0865387 -0.202427 0.384462 0.0603432 -0.199363 -0.0865939 0.528579 -0.316816 0.302055 0.22787 -0.0187408 0.0418868 0.0260652 -0.19026 -0.248591 -0.00644218 -0.132621 -0.428554 0.51436 0.141206 0.0788383 0.342802 -0.12681 0.492393
348 -0.00438839 -0.43054 -0.0328409 0.267252 -0.0703805 0.0162451 0.19593 -0.23913 0.713309 -0.0942809 0.0507861 0.132519 0.142563 -0.486678 0.443735 0.117794 -0.321157 -0.105507 -0.319217 0.280749 -0.212284 -0.0709601 0.0294192 0.358526 -0.194139 -0.539355 -0.123926 0.0119391 0.260392 0.138825 0.0361309 0.191892
211 -0.0149911 -0.529001 0.335879 -0.305049 0.227506 0.42871 -0.0962049 0.314102 0.334043 0.215793 0.361459 0.441538 0.0782316 0.405963 -0.390175 -0.0333686 -0.253389 0.168538 0.144617 -0.229244 0.0624694 0.0360114 0.129362 0.281775 -0.392092 -0.276333 -0.116426 0.0836681 -0.133113 0.0537864 -0.000712637 -0.601258
631 -0.216924 -0.100619 0.00480757 -0.016776 0.103204 0.0318644 0.116439 -0.100396 0.698373 -0.115713 -0.144593 0.337062 0.113607 -0.677075 0.331819 -0.262983 -0.185416 -0.0868489 -0.147391 0.233023 -0.0923104 -0.130562 0.0171851 0.244213 -0.0846437 -0.681244 0.0586813 -0.117712 -0.0314273 -0.011621 -0.314931 0.113802
526 -0.154528 0.0421145 -0.0442844 -0.154009 0.257614 -0.209433 -0.431403 -0.139757 0.173898 -0.10743 -0.553138 -0.294495 0.677615 0.158337 0.0822149 -0.324899 -0.0308411 0.0971446 -0.0966171 0.401331 0.118444 0.962918 -0.137596 0.0842509 -0.155103 -0.334189 0.159112 0.109232 0.0908385 0.681329 -0.321569 -0.184633
3 -0.450482 -0.296615 -0.0059925 0.0367359 0.272844 0.256465 0.0174171 -0.165079 0.524712 0.00330859 -0.291423 0.58974 0.388836 -0.633863 0.248349 0.0406484 0.132277 0.0899227 -0.0351953 0.106377 -0.275864 0.0100279 0.19402 0.206872 0.492337 -0.677792 -0.413995 0.139613 -0.172321 -0.0540886 0.0450535 -0.148251
89 -0.323662 0.0537746 -0.0750429 -0.325603 -0.0564526 -0.496844 0.0535759 0.151289 0.466859 -0.112959 -0.0297146 0.111527 0.452274 0.237636 0.182753 0.227772 -0.421102 0.0474013 -0.0209092 0.351914 -0.202404 0.105267 0.22645 0.241813 -0.419306 0.0422605 -0.365103 -0.0820169 0.589652 0.70513 0.391165 -0.200262
638 -0.197086 -0.134479 0.030369 -0.0183563 0.141264 0.0164565 0.107817 -0.118629 0.695989 -0.087059 -0.128901 0.366082 0.130551 -0.699007 0.355872 -0.233867 -0.12652 -0.0741352 -0.164977 0.192192 -0.126176 -0.115747 0.0234188 0.309074 -0.12926 -0.72161 0.0700064 -0.171269 -0.074367 -0.0506202 -0.318402 0.158538
379 -0.345411 0.00826856 -0.205913 0.256569 0.114053 -0.180725 0.290514 -0.200763 0.658809 0.20429 0.0361441 0.381747 -0.147558 -0.509695 0.189318 -0.219062 -0.114081 -0.176341 0.0761003 0.126627 -0.0278809 0.0818011 -0.0184698 0.20906 -0.0547361 -0.718472 -0.15657 0.000778926 0.154827 0.113676 -0.472034 -0.0389785
804 -0.16611 -0.167705 0.0326614 -0.519265 0.204519 0.0284791 0.494241 0.0112358 -0.502677 0.0173933 -0.286191 0.166837 -0.0368767 0.307971 0.197077 0.600323 0.219062 0.0944252 -0.278789 -0.00457402 0.18079 0.0631823 0.0988849 -0.301819 -0.430479 -0.172597 0.00518038 0.0313019 0.174392 0.303983 -0.293995 -0.130155
127 -0.247434 -0.26715 0.055334 -0.00442549 -0.10738 0.0368981 0.378189 -0.107839 -0.646598 0.0618415 -0.19966 -0.301142 -0.511946 -0.127193 -0.240454 0.340295 -0.0522998 0.257917 -0.329707 -0.305157 -0.220788 -0.269675 -0.0172391 -0.211602 -0.406109 -0.0948492 -0.280736 0.107767 -0.217444 -0.107471 -0.536083 0.137855
173 0.292865 0.0709274 0.513193 -0.371622 -0.169989 -0.0983601 0.508615 -0.00174916 -0.151372 0.247095 -0.20773 0.28906 0.0807371 -0.219236 -0.0604819 0.251855 0.0687427 -0.320332 -0.204249 0.00513119 -0.15986 0.619214 0.234203 -0.503382 -0.396145 -0.621365 -0.0375589 -0.248178 0.255858 -0.0692176 -0.133159 0.271165
424 -0.0131137 -0.490238 -0.199023 0.0826613 0.0834366 -0.271968 0.24914 -0.128606 -0.512012 0.256316 -0.0989661 -0.155409 0.171602 -0.10986 0.25551 0.357341 0.281293 -0.0229054 -0.418253 -0.452898 0.226054 -0.263203 0.128986 -0.647188 -0.230974 0.0731285 -0.0309882 -0.107302 0.0037204 -0.357355 -0.45543 0.461924
580 0.310698 -0.228547 -0.026687 -0.058623 0.132093 -0.10716 0.244758 0.280599 -0.167368 -0.0805575 -0.121966 -0.107968 -0.796793 0.510698 0.0489313 0.480362 0.107964 0.360042 -0.445977 0.273384 -0.0170559 -0.120701 -0.103399 -0.321368 -0.291666 0.0137177 -0.314487 0.147738 -0.735014 0.140855 -0.174108 -0.28066
671 -0.567924 -0.00821717 -0.546181 -0.309346 0.0256469 0.0102197 0.410432 -0.127186 -0.354308 0.494463 -0.000408091 0.0325307 0.165239 0.253477 0.22758 0.195839 0.18507 -0.351842 -0.325965 0.359127 -0.0780453 -0.017522 -0.0769395 0.00923518 -0.573162 -0.081143 -0.0134679 -0.499845 -0.355751 0.196842 -0.000132353 -0.159437
811 -0.14938 -0.438698 0.1457 -0.0991463 0.225624 0.276091 0.123091 0.0288805 0.429851 -0.185918 -0.0983902 0.204903 -0.00106484 0.789829 -0.0901949 -0.0374293 -0.0164738 0.202826 -0.100269 -0.670905 -0.106519 0.144168 -0.395259 0.138023 -0.0430822 0.0872308 0.0479521 -0.0835694 0.264227 -0.00617058 -0.141586 0.139372
373 0.189543 -0.44388 0.029463 -0.135335 0.627837 -0.0121373 0.298712 0.136552 0.464775 0.0440681 0.116081 -0.254745 -0.0171455 0.110191 -0.0546678 -0.110212 0.124362 0.142494 -0.670192 -0.58181 -0.0220064 0.0714783 -0.0612121 -0.101213 0.132865 0.0472115 0.269001 0.0935311 0.150572 -0.536972 0.0366838 -0.242661
138 -0.266218 -0.454879 -0.0692638 0.0627711 -0.0455061 0.121932 0.27589 0.0330221 0.399007 -0.0614346 -0.348815 0.231617 -0.201258 0.0439062 0.0111812 -0.286047 -0.40028 -0.28262 -0.133901 -0.486529 -0.450858 0.0195095 -0.0655173 0.249206 -0.143326 -0.0985465 0.292325 -0.00927888 0.0668686 -0.679749 -0.199423 0.481225
201 -0.511876 0.183788 0.302413 0.116641 -0.0298785 0.3523 0.467151 -0.478877 0.280958 -0.117944 -0.332392 -0.0107587 -0.423083 0.342651 -0.222114 0.0297738 -0.776715 -0.043614 -0.182226 -0.556933 -0.172638 0.0889976 -0.120458 0.274544 -0.279831 -0.0511561 -0.0964836 0.0769968 -0.363929 -0.579181 -0.12752 0.233732
285 0.242479 -0.856071 -0.49319 0.20216 0.425355 -0.143357 0.123396 0.373442 0.013029 0.112872 0.117236 0.296525 0.038288 0.342896 -0.173551 -0.161196 -0.171934 -0.0703072 0.112824 -0.641064 0.0181334 -0.0619782 0.0821078 -0.00130868 -0.448083 0.593151 0.18616 -0.272044 -0.431244 -0.0385734 -0.174057 0.143691
506 -0.0312166 -0.185172 0.0784595 0.188976 0.514859 0.0694622 0.194239 0.171318 0.107074 -0.146859 -0.536778 0.0799071 -0.18761 0.649311 -0.124865 -0.103335 -0.132531 0.347218 0.151777 -0.645441 0.11112 0.261353 0.0783926 0.334558 -0.171054 0.159941 -0.128146 0.0839703 -0.383113 0.0355272 0.374745 -0.70189
806 0.40827 -0.00199099 0.39876 -0.173956 0.017012 0.38856 0.205711 -0.0582314 0.111541 0.1185 0.346083 0.134796 0.0899285 0.262523 -0.0615692 0.280166 0.164941 0.177692 0.0889078 -0.298742 0.318266 0.299408 -0.191628 -0.271977 -0.00470885 -0.119069 -0.181377 -0.226894 0.176131 0.373149 -0.00428906 -0.0800631
616 0.299092 -0.397769 0.100226 0.131334 0.0563694 0.313057 0.209485 -0.294061 0.359719 -0.678005 0.340523 0.0484378 -0.347415 -0.335198 0.156188 0.0134039 0.00861391 -0.0761471 -0.316473 0.0114278 0.712793 0.360967 -0.367789 -0.261449 -0.241133 -0.204787 0.0852744 -0.151366 -0.0901852 0.200872 0.238841 -0.409278
120 0.417864 -0.0570487 -0.347708 -0.033955 0.432307 0.163172 0.122385 0.0208929 0.218174 0.60888 0.0617087 0.675135 0.0552566 -0.365528 -0.0190051 -0.136483 0.0826103 0.299926 0.0272219 -0.117634 -0.0821519 0.602356 0.0110196 0.180016 0.0698421 -0.396908 -0.365021 -0.203236 -0.0468727 0.431787 -0.0024101 -0.714286
689 0.22072 0.276355 0.00214957 -0.39363 0.490377 0.0583987 0.0842013 -0.209355 -0.0949647 0.0443181 0.0171052 -0.0350754 -0.174272 0.229305 -0.278123 0.0742894 -0.324049 0.402259 0.152431 -0.133122 0.357172 0.392053 -0.0604332 -0.538546 -0.0754129 0.3324 -0.0569203 -0.106576 0.370621 0.2081 0.253263 -0.0543556
512 0.183523 -0.0157178 0.149011 -0.260301 0.0669448 -0.263278 0.434329 0.529209 0.539897 0.418226 0.450342 -0.222903 0.395426 0.163865 0.182233 0.0898841 0.02541 -0.210479 -0.380713 -0.218273 0.251891 -0.000817453 0.084109 -0.0144662 -0.073995 0.606143 -0.246216 -0.240191 0.444539 0.487784 0.273901 -0.359899
236 0.678214 0.260441 0.56733 -0.061846 -0.365126 0.247514 0.358314 0.0315292 0.266367 0.522679 0.0595598 0.249099 -0.0200864 -0.616341 0.109558 -0.0226214 0.0648916 -0.334904 -0.0434277 -0.073225 0.0448233 0.2943 0.0628049 -0.193539 -0.108887 -0.485984 0.0326619 -0.465482 0.00705454 -0.280546 -0.0802291 0.249207
200 0.703403 0.264726 0.515157 -0.102351 -0.412404 0.247253 0.403623 0.0349423 0.233256 0.536142 0.044536 0.190152 -0.0445873 -0.573453 0.0637466 -0.0326422 0.0689556 -0.31149 -0.0580628 -0.0934205 0.00259958 0.322809 0.0871669 -0.229835 -0.0773609 -0.516451 0.0482461 -0.473649 0.0383223 -0.288134 -0.0579603 0.227436
295 0.524594 -0.150528 0.934071 0.154943 -0.273999 -0.144492 0.0669801 0.282266 0.0874409 0.228364 -0.150789 0.363676 0.054526 0.20481 -0.179254 0.246149 -0.163058 -0.256252 0.352879 0.275106 0.512499 -0.0784291 0.00761583 -0.0918281 -0.0717281 -0.291637 0.245952 -0.161931 -0.059923 0.0328736 0.011712 -0.23841
454 0.464858 0.469043 0.692991 -0.268036 -0.418382 0.131523 0.519337 0.082588 0.387982 0.386001 -0.104359 0.303864 0.0064171 -0.664795 -0.00404275 -0.0849613 0.30267 -0.185512 0.0883078 0.111114 0.0797524 -0.0826499 -0.118015 -0.288868 -0.253121 0.0363225 -0.372194 -0.0589515 0.511564 -0.0896025 0.0865143 0.162964
612 0.712421 0.228888 0.548429 -0.0841524 -0.394799 0.204089 0.38083 0.00435779 0.213345 0.550033 0.0546007 0.160129 -0.0555357 -0.594078 0.0915546 -0.0373799 0.113772 -0.290666 -0.0647831 -0.0547761 0.0183648 0.307318 0.0566793 -0.231151 -0.0996532 -0.485136 0.0436813 -0.477678 0.00961031 -0.279448 -0.119607 0.246243
508 0.0520786 -0.135391 0.3933 -0.188344 0.215374 0.0606779 -0.0489807 -0.238132 -0.167146 0.340379 0.569699 0.0453112 0.0962713 0.2669 0.136764 -0.0497307 0.591349 0.32877 0.249489 0.0279133 0.284972 -0.0373254 0.340036 -0.26221 0.145955 0.439298 -0.155521 0.0101608 0.267529 0.210238 0.210661 0.117132
180 0.62007 0.0616902 0.387427 0.0702059 0.0434781 0.0737056 0.345476 -0.100288 0.442303 0.75714 0.0635926 -0.0137724 0.387269 -0.431992 0.114059 0.150831 0.0118332 -0.141312 -0.0921678 -0.281366 0.169863 0.113503 0.341964 -0.565842 0.0662888 -0.228425 0.0965263 -0.505785 0.0466123 -0.396019 -0.184009 0.406546
282 0.267787 -0.0846311 0.548499 -0.0350929 0.324819 -0.128519 0.190222 -0.130015 0.0290008 0.735258 0.214598 -0.0500904 0.313255 -0.142909 0.615251 0.123152 -0.00350525 0.189029 0.591122 -0.0726186 -0.133507 0.273181 -0.343332 -0.47813 0.0581423 -0.166477 0.221669 -0.35769 0.12863 -0.124245 -0.117758 0.615692
279 0.697505 0.257152 0.543311 -0.0823826 -0.382983 0.252042 0.393191 0.00217325 0.285219 0.543648 0.0269349 0.2011 -0.0419072 -0.612568 0.0977559 -0.0441439 0.0418886 -0.30031 -0.0535589 -0.0858232 0.0046619 0.293201 0.110562 -0.222239 -0.0955546 -0.493726 0.0131057 -0.450253 -0.017855 -0.236837 -0.061469 0.245448
270 0.530378 0.283802 0.746687 0.130176 -0.37935 0.195683 0.224295 -0.106554 -0.0294448 0.0811611 0.323797 0.165867 -0.0360124 0.0636808 -0.231789 0.237244 0.283727 -0.1163 -0.0881133 0.193423 0.0276103 -0.314072 0.416921 0.124101 0.094864 -0.553649 -0.134854 -0.617128 0.417904 -0.249223 -0.202963 0.210763
677 0.682198 0.27512 0.531426 -0.076757 -0.361722 0.231709 0.381381 0.00242219 0.234591 0.526622 0.0579092 0.189899 -0.0305243 -0.638976 0.0753409 -0.02393 0.0437376 -0.24868 -0.098069 -0.101131 -0.00857008 0.250911 0.103782 -0.210734 -0.0885105 -0.490282 0.0377794 -0.470753 0.0557701 -0.267437 -0.0980137 0.218131
170 0.0904423 0.467515 -0.152093 -0.153632 -0.286905 0.456597 -0.0159753 -0.226058 0.203074 -0.0140967 0.55477 0.501586 0.561244 0.142292 -0.392248 0.2911 0.423572 -0.215321 0.0753775 -0.200757 -0.289565 0.408026 -0.0231798 0.113841 -0.363755 -0.0696678 -0.438459 -0.439495 -0.113687 -0.441836 -0.0714243 -0.582129
340 0.419081 0.0757871 0.508416 -0.295134 -0.361511 0.171877 0.650343 0.0305633 -0.207257 0.518975 -0.253649 0.294621 -0.0634532 -0.383315 0.149305 0.263455 0.205667 -0.220088 -0.202668 -0.0823562 0.0934843 0.218591 0.143151 -0.298376 -0.351619 -0.576166 0.0357023 -0.342503 0.161675 -0.195684 -0.223132 0.0682705
240 0.741681 0.302461 0.575636 -0.122899 -0.391992 0.232276 0.347925 0.0207709 0.246247 0.589302 0.0209478 0.183557 -0.0306429 -0.576932 0.0953051 -0.0286141 0.0869091 -0.335142 -0.0465843 -0.0685951 -0.0151994 0.292021 0.0747201 -0.236366 -0.0534311 -0.490624 0.00816858 -0.467975 0.0559646 -0.264733 -0.0585355 0.208606
238 0.46072 0.41012 0.467449 -0.0709379 0.0105281 0.308605 0.383718 -0.0961701 -0.214773 0.41553 -0.453258 -0.161771 -0.44022 -0.247517 -0.13982 0.40905 0.0481351 0.543442 -0.525173 -0.0913925 -0.0899976 0.176884 -0.0335735 -0.298973 -0.410722 -0.522594 -0.0848896 -0.133128 0.036052 -0.0717064 -0.374054 -0.190836
46 0.668213 0.239597 0.540915 -0.0802299 -0.382141 0.23714 0.361969 -0.000427597 0.212707 0.522799 0.0732474 0.193196 -0.0331323 -0.584468 0.126682 -0.0650207 0.0613685 -0.2548 -0.0610259 -0.104472 -0.00342295 0.289532 0.0825924 -0.216996 -0.121299 -0.472681 0.0506535 -0.486087 0.0171683 -0.25271 -0.0822103 0.265458
807 0.0295382 -0.291969 -0.0758191 -0.0595192 0.147053 0.0908684 -0.0190731 -0.0797686 -0.244777 -0.209933 0.353325 -0.0365801 -0.0173577 0.335614 -0.102739 0.184663 0.16903 0.281095 -0.027183 -0.283255 0.282933 -0.0355182 -0.359653 -0.195838 -0.042405 0.131202 -0.17028 0.041652 0.0771187 0.314937 -0.0975737 0.00751379
166 0.116456 -0.65141 0.101378 -0.138974 -0.0102365 -0.251119 -0.0955355 0.0581523 -0.499591 0.242583 0.216902 -0.0538629 -0.14383 0.301377 -0.192247 -0.466453 -0.15661 -0.0181979 0.0187949 0.129009 0.253991 0.0765233 -0.076712 0.027702 0.0104085 0.400984 -0.227685 -0.0128761 -0.141069 0.129589 0.0796118 -0.293081
518 -0.253298 -0.662396 -0.0690977 -0.467112 0.299749 -0.00648977 0.176133 0.23385 -0.133805 -0.353991 0.0698873 0.117253 -0.180279 -0.090181 -0.380923 0.0914131 -0.189098 0.0362995 0.139235 -0.101628 0.0594635 0.257854 0.149464 -0.152112 -0.490548 0.0433325 0.0372227 -0.180745 -0.0314478 0.566106 -0.352483 -0.478441
167 0.0118098 -0.182222 -0.111238 -0.170535 -0.279399 -0.387717 0.505405 0.272187 -0.350503 -0.478925 0.498768 0.0868854 -0.126799 0.256321 -0.0262481 -0.586778 0.22796 0.565268 -0.142578 0.312622 0.330981 -0.325957 -0.000901015 -0.0284064 0.127206 0.216235 -0.266756 0.409242 0.412925 -0.0788035 0.289309 0.0490256
64 -0.47292 -0.532817 0.0253078 -0.226555 -0.321369 -0.147616 -0.208653 0.15597 -0.336904 -0.145884 0.345456 -0.52344 -0.0293703 -0.434464 -0.035379 -0.0108239 0.108413 -0.401042 -0.0961815 -0.423967 0.0531324 0.32287 -0.466428 -0.0614525 -0.02616 0.139609 0.0128099 0.132996 0.0380277 -0.0711192 -0.359708 -0.121922
118 -0.0600436 -0.387635 -0.352377 0.348461 -0.267842 -0.114661 -0.0606965 -0.0667531 -0.547486 -0.189499 0.145172 -0.182921 -0.309923 -0.478881 0.0350197 -0.102299 0.265554 -0.188094 -0.299638 -0.404501 -0.0534871 -0.169484 -0.346841 -0.311801 -0.129069 0.199628 -0.148682 -0.0437819 -0.230205 -0.326276 -0.261502 0.446648
548 -0.236595 -0.473169 -0.125277 -0.0246849 -0.193213 -0.397634 -0.459301 -0.102351 -0.513292 0.293365 -0.0884716 -0.148897 0.106596 0.0487604 -0.0631696 -0.222074 -0.0235246 -0.280775 0.102114 -0.148855 0.169666 0.155052 -0.424824 -0.0961582 -0.124273 0.327489 -0.130803 -0.192835 -0.185405 0.275348 -0.235433 -0.108723
436 -0.0378448 -0.378661 -0.156578 0.333074 -0.417445 -0.119395 0.254866 -0.157671 -0.0403487 -0.258619 0.0456588 -0.157278 -0.16419 -0.407118 0.187486 0.0352577 0.152214 -0.140263 -0.320376 -0.0121179 -0.0861395 -0.329865 -0.386201 -0.238389 -0.37077 0.517299 -0.601281 0.374399 0.484861 0.0752374 0.168387 0.355704
53 -0.0677479 -0.426825 -0.3933 0.359749 -0.281783 -0.117216 -0.0757799 -0.0334587 -0.577712 -0.251179 0.136001 -0.168287 -0.318795 -0.48212 0.0295974 -0.0874145 0.237001 -0.191885 -0.298752 -0.40898 -0.0266782 -0.160135 -0.337076 -0.331294 -0.114474 0.194536 -0.163213 -0.00618831 -0.217383 -0.350031 -0.251694 0.450253
376 0.424495 -0.212066 -0.288247 0.293686 -0.374916 -0.00932553 -0.0897447 -0.629317 -0.166109 -0.212667 0.0339025 -0.120589 0.105858 0.194354 -0.233873 -0.0824893 -0.141424 0.195169 -0.409818 -0.129277 -0.199486 -0.405718 -0.451488 -0.623012 -0.0726884 0.0334648 0.22894 -0.0643468 0.178022 0.690993 0.313917 -0.431086
296 0.0886789 -0.244404 -0.124399 -0.0899196 0.323957 0.323982 -0.622185 -0.127584 0.332525 0.414323 0.41986 0.14781 0.550989 -0.359726 -0.0652366 0.0960372 0.59037 0.222869 -0.527361 -0.318918 0.169392 0.160194 -0.272294 -0.5134 -0.118892 -0.447374 -0.262397 -0.0620413 -0.103468 -0.10188 -0.185645 -0.338904
574 -0.463144 -0.353422 -0.306082 -0.685211 0.290636 0.23761 0.569517 0.15515 -0.470998 0.147895 0.304458 -0.326348 -0.189308 0.10264 -0.0526603 0.197001 -0.236027 0.0920882 0.214507 0.157317 0.0249142 -0.195088 -0.50894 -0.0597353 -0.40081 0.285292 -0.43346 -0.331899 0.309674 0.155122 0.03427 -0.385072
421 0.111229 -0.239106 -0.024924 0.180033 0.220004 -0.14778 -0.184834 0.165491 -0.484249 -0.204 0.0404299 -0.50312 -0.375308 0.14886 0.251748 -0.521846 0.0913144 0.383058 -0.227608 0.080323 0.232852 0.582044 -0.209628 -0.192853 -0.0394505 0.200045 0.0681217 0.0825642 0.0563922 0.0477795 0.125338 -0.249907
641 0.043434 -0.0926817 -0.264925 0.250269 -0.237426 0.1502 -0.0845 -0.492822 -0.131712 -0.150799 0.20118 -0.0736939 -0.110796 0.161466 -0.065783 0.240421 0.149274 -0.0106913 0.087541 -0.578331 0.264277 0.300395 -0.0504775 -0.105963 0.0562522 -0.233082 -0.510012 -0.301767 0.37798 0.425468 0.149196 -0.609709
153 -0.257239 -0.151212 -0.246013 -0.197559 -0.0463835 -0.30381 -0.421971 -0.282055 -0.351224 0.229235 0.253836 -0.108769 -0.0544662 0.325233 0.309663 -0.272065 0.214459 0.0135527 0.356177 -0.041959 0.00905312 0.112026 -0.202122 -0.107406 -0.125111 0.257982 0.44883 0.0761406 -0.0674664 0.44224 0.00652692 0.246497
536 -0.248286 -0.412071 -0.0584959 0.151594 0.12261 -0.261876 0.0171056 -0.327915 0.515196 0.22085 0.310144 -0.533636 0.105615 0.112484 0.125903 0.494296 -0.283425 0.400766 -0.53703 0.00607225 0.028356 -0.564942 0.153365 -0.107317 -0.192011 -0.220495 -0.374208 -0.0799788 -0.18335 0.233743 -0.0754837 0.14689
237 -0.106861 -0.445184 -0.358352 0.368761 -0.288681 -0.124907 -0.059075 -0.0832437 -0.552195 -0.245141 0.167288 -0.237676 -0.306582 -0.474436 0.0309704 -0.167426 0.246954 -0.176136 -0.336657 -0.35569 -0.0246214 -0.168539 -0.356171 -0.355951 -0.134173 0.15434 -0.203064 0.0127319 -0.200771 -0.343546 -0.245849 0.443798
354 0.128972 -0.403963 -0.0854754 0.0987618 -0.351196 -0.134242 -0.106953 -0.142083 -0.438618 -0.102883 0.153441 0.117642 -0.192833 0.0561374 -0.245427 0.0480507 0.0522014 -0.0562311 -0.355076 -0.0924463 0.0710913 -0.623783 -0.119433 -0.0896609 0.101598 -0.0165803 -0.159223 0.020907 0.0522429 -0.302804 -0.0459519 0.165316
224 0.149974 -0.497497 0.34642 0.120919 -0.114784 0.546961 0.0420511 0.0877474 -0.0582323 0.101031 0.410039 -0.388823 -0.453015 -0.164606 -0.354049 0.519926 0.309164 0.480758 -0.388193 -0.0258748 -0.255325 0.455257 -0.0801209 -0.0480692 0.268151 -0.100658 -0.221744 0.185264 0.0410934 0.140873 0.399585 -0.443568
547 -0.0490485 -0.455989 -0.372581 0.318728 -0.287272 -0.105612 -0.0619137 -0.0969375 -0.545296 -0.243205 0.167104 -0.214995 -0.307097 -0.422017 0.0410822 -0.187354 0.269582 -0.199086 -0.316461 -0.361991 -0.0602817 -0.144484 -0.320608 -0.335828 -0.0876857 0.155419 -0.170731 0.000740759 -0.163679 -0.328099 -0.223068 0.451874
420 -0.0700077 -0.454682 -0.406783 0.317742 -0.281201 -0.0981223 -0.0504634 -0.0686175 -0.545798 -0.230782 0.120847 -0.203365 -0.340545 -0.468835 -0.0260075 -0.191794 0.251652 -0.19702 -0.330779 -0.388113 -0.0598624 -0.161031 -0.317953 -0.337385 -0.111455 0.138784 -0.209352 -0.0321464 -0.204453 -0.333864 -0.29684 0.45719
322 -0.192985 -0.2625 0.195514 0.0577021 0.194484 -0.265753 -0.357472 -0.279736 -0.217521 0.503027 0.125458 -0.467147 0.140624 0.528314 -0.384548 0.0809141 -0.204561 0.321884 -0.036941 -0.115206 0.222166 -0.342798 0.198307 -0.112527 0.0177383 0.351633 -0.0708641 -0.0609519 -0.0896886 0.1679 -0.246292 -0.0295797
67 0.33384 -0.0710249 -0.369124 0.126913 -0.0139859 -0.159953 -0.57538 -0.303857 -0.380607 0.075237 -0.197247 0.0719625 -0.0426182 0.0940774 -0.308666 -0.00894872 0.227196 0.243724 -0.526039 -0.0591335 0.0681396 -0.202075 -0.433969 -0.120202 -0.0896685 0.0828037 -0.115332 -0.139725 -0.155656 0.103836 -0.0448452 -0.241541
532 0.313499 -0.336445 0.194526 -0.181165 0.383436 0.064374 -0.00594722 -0.266756 0.168148 -0.635288 0.144911 -0.38096 -0.415439 0.229366 -0.397773 0.0781398 -0.212941 -0.139179 0.00707505 -0.066971 0.422348 0.323525 -0.201711 -0.0924875 -0.26776 -0.497066 -0.297738 -0.0411292 0.0710923 0.432143 0.265057 -0.321876
696 -0.0562194 -0.703194 -0.368506 0.0688191 -0.481718 0.0363063 0.169214 -0.137377 0.0141316 -0.320286 0.58886 -0.431034 -0.119675 -0.588319 0.0411194 0.277987 0.190264 -0.482947 -0.559392 -0.418445 -0.216282 0.0697227 -0.33802 -0.0164754 -0.213541 0.0479846 -0.174494 0.250098 0.099334 -0.0514463 -0.0300595 0.167164
423 0.142197 0.291296 0.263201 -0.218667 -0.115166 0.217256 -0.229474 -0.503552 -0.151496 0.0782749 0.319415 -0.242142 -0.238223 0.0812279 -0.474977 0.160887 0.0533532 0.198267 -0.535007 -0.361807 0.398283 0.169098 -0.34624 0.0657289 -0.180435 -0.0372675 -0.0915313 -0.12572 -0.264083 0.0667192 -0.0362939 -0.338048
160 -0.205445 -0.505364 -0.433352 0.164877 -0.230363 0.114144 0.140245 -0.248906 -0.36035 -0.474645 -0.0422965 -0.174195 -0.380031 -0.426575 0.0135047 -0.230561 0.0208093 -0.220158 -0.0471706 -0.229278 -0.0114833 -0.261989 -0.288457 -0.762691 0.112548 0.0640413 -0.205851 -0.353329 -0.012216 -0.19845 -0.206384 0.118033
485 -0.320457 -0.255902 -0.057226 -0.026008 -0.232102 -0.500845 -0.101366 -0.215263 -0.675385 0.554385 0.0143514 0.148392 -0.188272 0.536156 -0.158942 0.0777984 0.170003 -0.0969057 0.111149 -0.0699627 0.322225 -0.0595787 -0.0889055 -0.0610975 -0.234015 -0.101062 -0.0496251 0.0968229 0.304747 0.411354 -0.349394 -0.378997
13 0.16034 -0.0222747 -0.517894 -0.156765 -0.0569117 0.0288019 -0.510414 0.405339 -0.432584 0.304784 0.206321 0.103338 0.32251 0.657748 -0.380841 -0.00165288 -0.296733 -0.101854 0.144352 -0.0487514 0.103608 -0.235198 -0.263283 0.0823381 -0.299709 -0.0540302 -0.0625952 -0.028231 0.464815 -0.0169323 0.143022 -0.320138
402 0.161699 -0.0470437 -0.883086 -0.2918 -0.050812 -0.188121 0.33417 0.61796 -0.165568 -0.593971 0.654364 0.210477 -0.0281994 0.0479679 -0.123868 0.290961 0.224772 0.15374 0.203332 -0.209127 0.151465 -0.204225 -0.261403 0.199762 -0.0339347 -0.296159 0.572059 0.275124 0.066237 0.00926295 0.0705213 0.238977
583 -0.0958626 0.320539 0.333885 0.248158 0.0840952 0.111595 0.108068 0.0161989 -0.269115 -0.00913972 0.317221 0.35101 0.408509 0.0748643 0.136416 0.253295 0.104146 0.215935 0.0811066 -0.296406 0.151925 -0.133151 -0.190291 -0.0903862 0.261541 0.402984 -0.550925 -0.452574 0.403471 0.096931 0.0282972 0.259224
613 -0.102032 -0.235961 -0.284961 0.313166 0.0852725 -0.273584 -0.202721 -0.184873 -0.139534 0.0738624 0.298893 -0.468368 0.207537 0.103544 0.132563 -0.128641 0.183057 0.0300903 -0.214678 -0.356447 0.273617 -0.192884 0.193219 -0.454453 0.0378206 0.263062 0.201716 -0.11509 0.0352417 -0.159019 -0.138731 0.488695
95 -0.487048 -0.640772 0.0876752 0.0420769 -0.199818 -0.239461 -0.27182 -0.0712784 -0.301646 -0.170894 0.00367232 -0.257656 -0.13497 0.577294 0.0517953 -0.435168 -0.225671 -0.0898186 -0.0775944 -0.409835 0.0669877 0.0669422 -0.255642 0.0168978 -0.129164 0.0927865 0.324904 0.0386553 0.29507 -0.180097 -0.065614 0.136427
286 0.270397 -0.343354 -0.404638 -0.429102 0.0641882 -0.0660131 -0.0963296 -0.138741 -0.142606 0.159253 0.525481 0.124972 -0.539909 0.489222 0.393144 -0.420746 0.3655 -0.0709774 -0.0251866 0.194712 -0.226525 0.193029 -0.14889 -0.237287 0.125847 0.350047 0.143761 0.2015 -0.353797 0.217368 -0.0904636 0.271167
579 -0.328897 -0.524991 0.20267 0.228106 -0.197236 -0.290656 -0.293157 0.0308451 -0.617845 0.003162 -0.080579 -0.39528 -0.127574 -0.0997095 0.135832 -0.171579 -0.0894388 -0.139198 0.0915862 -0.163984 0.218083 0.126445 -0.397516 -0.218018 0.0524036 0.186451 -0.101162 0.0238869 0.0541975 -0.122138 -0.214226 0.100547
158 -0.361669 -0.240781 -0.0561662 0.226607 -0.135559 -0.49297 -0.123381 0.348364 -0.0518567 -0.163922 0.0144016 -0.363379 -0.0639427 0.34463 0.284904 0.106815 0.112795 -0.212378 0.211824 0.0931405 0.389138 -0.00384753 -0.192337 -0.230136 -0.434054 0.128124 0.117991 -0.105438 -0.567082 0.335744 0.126789 -0.0883641
24 -0.450641 -0.0899278 0.18608 -0.0455625 -0.226929 -0.300595 -0.12066 0.0339105 -0.310838 -0.138859 0.0215133 -0.301256 -0.0891606 0.0534002 0.143605 -0.363247 0.250061 -0.000567214 0.13703 0.0587063 0.250351 -0.139175 -0.293472 -0.161003 -0.228096 0.505785 -0.149668 0.255622 0.518137 0.139914 0.0843404 0.0535065
183 -0.000341496 -0.276708 -0.448933 0.143046 -0.143881 -0.235445 -0.162158 0.410226 -0.753883 0.0319227 -0.136405 0.0427495 0.178598 -0.0572807 0.00653566 -0.0700218 -0.394551 -0.100204 0.182366 -0.472158 -0.195998 0.122304 -0.151297 0.179294 -0.173245 0.328793 -0.104816 -0.343606 0.203801 0.213427 -0.130769 -0.184209
328 -0.495674 -0.136908 -0.193309 0.349048 -0.179747 0.22464 0.0218814 -0.525033 -0.495506 -0.299751 -0.111059 0.260163 -0.0591015 -0.143574 0.0636566 0.115366 0.146441 -0.162553 -0.219949 -0.528745 0.173004 0.233533 -0.269679 -0.193415 0.361553 0.0660335 -0.522808 0.155434 -0.545093 -0.402679 0.355627 0.0678375
231 -0.132295 -0.483407 -0.0155412 0.285715 -0.0808183 -0.389693 -0.393941 0.150863 -0.308486 -0.075336 -0.0356484 -0.0221064 0.00813657 0.349208 -0.135454 -0.0978717 0.160292 -0.301258 0.304589 0.0576498 0.411136 -0.000464648 -0.235391 -0.0636665 -0.3597 0.319514 0.270292 -0.0268338 -0.383535 0.401762 -0.0755404 -0.157394
229 0.674324 -0.158642 -0.663263 0.258218 0.632588 -0.0395611 0.0211944 0.614356 -0.100404 -0.110292 0.0704333 -0.152567 -0.0637836 0.147711 -0.0715119 0.196619 -0.046024 0.184258 0.0412209 -0.172905 0.319222 0.0426962 -0.0516311 -0.15966 -0.152151 0.265525 0.291827 -0.0428154 -0.0180933 -0.0563589 0.134448 0.0526101
80 0.0937402 -0.160347 -0.113525 0.43094 0.397574 -0.341706 -0.491895 -0.0560092 -0.298874 0.14701 -0.249458 -0.555683 0.231053 -0.115571 0.273919 0.0540429 0.100523 0.345677 -0.330106 -0.32367 0.237056 0.260451 -0.262757 -0.567964 0.0622754 0.234957 0.0701834 -0.118205 0.0739005 -0.121861 -0.237092 0.0703573
625 0.0543737 -0.422387 -0.550157 -0.0421337 -0.362196 0.0676238 -0.143043 -0.272419 -0.402239 0.215286 -0.257252 -0.392411 0.404639 -0.0270286 -0.0990295 -0.368923 0.291849 -0.378049 -0.0719094 -0.0781289 0.133087 0.176144 -0.455155 0.0787998 -0.177234 0.208105 -0.206276 0.00963795 -0.397389 0.309961 -0.545125 0.160125
60 -0.188183 -0.402671 -0.103748 0.110319 0.117934 -0.461568 -0.514969 -0.176606 -0.265799 0.424071 0.20828 -0.433746 0.388386 0.325013 0.0757397 -0.17087 0.108998 -0.0703809 0.0554112 -0.224087 0.337253 0.0293688 0.0368496 -0.316712 -0.0110367 0.387744 0.14222 -0.209608 -0.0391536 0.192834 -0.205238 0.131453
808 0.13675 -0.125703 -0.0133024 -0.0623991 0.517826 0.0915727 0.098752 -0.103855 0.297202 0.0339263 0.253323 -0.138432 0.447312 0.391079 0.044062 0.369002 0.0116898 0.242174 0.0534904 -0.385688 0.354877 -2.7935e-05 0.0729699 -0.369209 0.0756486 0.260765 -0.101306 -0.125892 0.133246 0.0788726 -0.155002 0.121297
190 -0.404597 -0.586492 -0.0331578 0.302283 0.234442 -0.223891 -0.32642 -0.0991479 -0.325083 0.296906 -0.120418 -0.225448 0.470531 -0.0275856 0.144068 0.189063 0.158488 0.0997965 0.038269 -0.38119 0.102433 0.137523 0.136865 -0.471953 0.559018 0.199219 -0.291574 0.137504 -0.066519 -0.189279 0.038986 0.0645498
49 0.607856 0.0570584 0.345813 0.0536723 0.0466809 0.0682478 0.296665 -0.0818529 0.415125 0.76095 0.112638 -0.0124159 0.420381 -0.415781 0.154848 0.196489 -0.0027478 -0.154468 -0.111828 -0.249706 0.178496 0.0916202 0.322147 -0.49928 0.0683915 -0.257766 0.104349 -0.523287 0.0213251 -0.403868 -0.203849 0.398961
584 0.0427145 0.595626 0.260396 -0.0673793 -0.11796 -0.0462729 0.391891 -0.352135 0.534076 0.482763 0.111935 -0.145176 0.282644 0.0781165 0.430395 0.268068 -0.137351 -0.219225 -0.184903 -0.287394 0.416831 0.297608 0.0899402 -0.441325 -0.204257 -0.205996 -0.103378 -0.683305 -0.490469 -0.286654 0.208684 0.26195
559 -0.126026 0.0310091 -0.0306891 -0.0181117 0.309353 -0.26688 -0.151927 0.17766 0.100199 0.407539 -0.00863658 -0.643463 0.40259 0.370064 0.0404489 0.121531 -0.315356 -0.161581 0.283341 0.0857838 0.441414 0.0504686 0.0890465 -0.163114 0.289252 -0.0883565 0.391046 0.0313216 0.528636 -0.307301 0.111312 0.277048
50 0.277487 0.241094 0.0492221 -0.305191 0.448489 0.0662216 0.0861955 0.086637 -0.120496 0.0211688 0.291863 -0.335858 -0.0327724 0.0869362 -0.395905 0.230949 -0.455562 0.198866 -0.244088 -0.462006 0.295353 0.758645 -0.0298688 -0.178787 -0.127052 0.0806407 0.0104228 -0.0845369 0.168213 -0.0152077 0.103972 -0.0643242
578 -0.21429 -0.187497 0.309308 0.213294 0.303044 -0.299557 -0.0592052 0.168461 0.116276 0.436595 -0.214496 -0.421052 0.537796 -0.0743694 0.370028 0.0683628 -0.350332 -0.0787571 0.24583 -0.147255 0.225398 0.183014 0.29232 -0.327045 0.196792 0.22883 0.166326 -0.172293 0.120121 -0.290899 -0.217054 0.199042
585 0.113382 -0.0112782 -0.130673 0.247284 0.292186 -0.0452885 0.18618 -0.0502889 0.378141 0.426836 -0.0721792 -0.222084 0.447182 -0.360429 0.268921 0.126426 -0.0730046 -0.125361 -0.0745256 -0.284971 -0.0642157 -0.0842345 0.500427 -0.402614 0.144015 0.100746 0.131477 -0.244467 -0.147509 -0.536157 -0.256731 0.521648
111 0.0268858 0.339945 -0.113911 0.191249 0.0917861 0.235596 0.432613 -0.558433 0.299075 0.01563 -0.410424 -0.30022 0.767013 0.140875 0.403807 -0.0714164 -0.260192 -0.435709 -0.083088 -0.257292 0.460628 0.347853 0.101775 -0.0786455 0.0777906 0.0970537 0.00150081 0.00763674 -0.45894 -0.355118 -0.244352 0.442155
449 0.434194 0.275803 -0.304203 0.470943 0.586155 -0.042771 -0.146938 -0.050657 0.345985 0.116234 -0.42907 -0.291073 0.270746 -0.416596 0.331804 0.199152 0.138792 0.336626 -0.501683 -0.201678 0.0330402 0.148317 0.110134 -0.535451 0.083614 0.0465151 0.116039 -0.178003 -0.0426757 -0.426221 -0.178701 0.215392
636 0.0932116 -0.0136809 -0.149558 0.214019 0.301063 -0.0358183 0.20981 -0.0471743 0.388879 0.395887 -0.0509895 -0.181282 0.476645 -0.389681 0.25089 0.137772 -0.0889252 -0.153982 -0.0853571 -0.260753 -0.0209339 -0.116737 0.487375 -0.360671 0.113325 0.0937518 0.120478 -0.220752 -0.142522 -0.575073 -0.244512 0.540758
472 0.222608 0.0368062 0.446498 -0.145069 0.20027 -0.161012 0.00840152 -0.309326 -0.115267 0.67391 0.0122013 0.0658583 0.457131 0.287171 -0.0748844 0.381007 -0.469301 -0.168837 0.354181 -0.0793492 0.533018 0.116758 -0.669229 -0.0999179 0.135062 -0.0968347 -0.149953 -0.452171 0.0477715 -0.301052 0.106478 0.160044
157 0.134302 -0.0248602 -0.140642 0.244347 0.305528 -0.0534296 0.152736 -0.0574609 0.386739 0.41421 -0.0374012 -0.185629 0.448029 -0.379717 0.245305 0.133619 -0.106926 -0.163249 -0.109275 -0.275305 -0.0343253 -0.125375 0.51161 -0.401865 0.130684 0.0578316 0.124654 -0.289014 -0.137327 -0.557379 -0.277517 0.565821
79 -0.245814 -0.234679 0.236686 0.47878 0.164294 -0.298529 -0.230539 -0.0100311 -0.387877 -0.0429938 0.257644 -0.586931 0.240346 0.113056 0.157225 0.136563 0.258276 -0.0154667 0.0260647 -0.258461 0.214706 -0.0211197 0.261211 -0.246433 0.0473188 0.187166 -0.117546 -0.46436 0.265457 -0.164412 -0.475278 0.397389
66 0.0841011 -0.201292 -0.680215 -0.349264 -0.0638094 -0.0985489 -0.0625535 -0.239551 0.12104 -0.1106 0.43754 -0.0619057 0.380238 0.151498 -0.473322 0.186528 0.137663 -0.0838999 0.078499 -0.205104 -0.163701 -0.2147 0.0675966 -0.20456 0.0154817 0.417664 0.110215 -0.616244 0.192686 -0.0573451 -0.326683 -0.406427
259 -0.0723623 0.085055 0.122839 0.205987 0.402043 0.156008 0.345059 -0.124067 0.425705 0.462765 -0.127373 -0.472538 0.0860325 -0.229056 -0.181856 0.322691 -0.435877 0.20284 -0.0757365 -0.265695 -0.229422 -0.292335 0.576354 -0.280433 -0.0220329 0.140841 -0.127446 -0.0291863 -0.318032 -0.410802 -0.450113 0.376938
706 -0.083814 0.148701 -0.112548 0.178368 0.222355 -0.117645 -0.0141991 -0.0421187 0.39623 0.238593 0.12627 -0.432324 0.43575 0.132834 0.183206 -0.150917 -0.0243433 -0.0268991 -0.0862401 -0.134002 0.233297 -0.08164 0.722837 -0.217468 0.10658 0.0646086 0.456394 -0.0931352 0.101521 -0.218318 0.0462437 0.364327
646 0.112966 -0.00258454 -0.157091 0.266355 0.341844 -0.0642425 0.146784 -0.0648732 0.361258 0.418928 -0.0727523 -0.208336 0.458605 -0.351366 0.282126 0.134533 -0.0886842 -0.16898 -0.103761 -0.273464 -0.00687752 -0.11884 0.527679 -0.400095 0.173663 0.110522 0.115173 -0.228468 -0.132677 -0.535471 -0.25284 0.571901
809 -0.0839162 0.0120888 0.187965 -0.131242 0.346623 0.347602 0.189978 -0.118609 0.107272 0.0144105 0.154572 -0.236096 -0.179694 0.311624 -0.314731 0.326793 -0.268879 0.472239 0.00718843 -0.156907 -0.0289659 -0.0289413 -0.0601472 -0.058799 -0.157054 0.0727653 -0.242338 0.116823 -0.132709 0.375079 -0.26766 -0.121834
397 -0.41875 0.393695 -0.0289925 -0.0665562 -0.045409 0.0137935 0.483183 0.139111 0.379454 0.198399 -0.0977692 -0.531798 -0.356008 -0.101013 0.00722832 0.302697 -0.416713 0.169622 -0.130773 0.0347338 -0.447795 -0.207299 0.201278 -0.0235006 -0.281227 -0.171746 -0.351424 -0.175404 -0.625713 -0.0521613 -0.0857488 0.0659257
221 -0.307841 0.0830831 0.0182889 0.0415894 -0.0144649 0.530966 0.508173 -0.262512 0.258588 -0.0975577 -0.320137 -0.333846 -0.502383 -0.381449 -0.339468 0.0437239 -0.578022 0.0575953 0.172342 0.0267028 -0.395303 -0.316554 0.295902 -0.44206 0.0777136 -0.0824512 -0.229485 -0.250532 -0.163522 -0.163471 -0.328334 -0.114932
174 -0.203236 0.214972 0.169043 0.0918829 0.0447819 0.348356 0.334889 -0.0640936 0.190088 0.186038 -0.198945 -0.348342 -0.416611 -0.319082 -0.338182 0.111052 -0.517645 0.188974 -0.0907439 -0.000354523 -0.523303 -0.199583 0.32507 0.138728 -0.192483 -0.0571874 -0.192758 0.105487 -0.451424 -0.255931 -0.381339 0.164334
70 -0.371221 0.624602 0.313802 0.178458 -0.0777232 0.394687 0.555533 -0.484311 0.153323 -0.111854 -0.280567 -0.0728057 -0.370854 -0.0542653 -0.170462 0.172191 -0.731029 -0.0373113 -0.123376 -0.267875 -0.0124535 0.108348 0.0469322 0.203973 -0.179545 -0.0113053 -0.286832 0.0539757 -0.63112 -0.397554 -0.104164 0.137193
241 0.361225 0.297395 -0.461071 0.357208 0.0417482 0.231259 0.0678159 0.0515047 0.0305466 -0.0586724 -0.170564 -0.302869 -0.122343 0.115268 -0.0671085 0.244362 -0.562513 0.541535 -0.39756 -0.0861236 -0.513157 0.0240568 0.296302 0.390937 -0.311501 0.0697087 -0.0733837 -0.0170736 0.253515 0.371123 0.159542 -0.219383
205 -0.198156 0.310126 0.164271 0.216971 0.0234681 0.637927 0.0845106 0.189562 0.224328 0.254744 0.0595442 -0.194736 -0.172753 -0.0109144 -0.31822 -0.0361527 -0.461964 0.121716 -0.0471615 0.0431149 -0.502842 -0.223636 0.231913 -0.197771 -0.507291 -0.369659 -0.350904 0.287359 -0.243877 -0.457222 -0.326398 0.0596544
122 -0.191303 0.241664 0.194348 0.0970272 0.0439206 0.37598 0.369532 -0.011985 0.181088 0.207339 -0.218291 -0.33207 -0.429142 -0.334575 -0.312492 0.131569 -0.518914 0.14321 -0.0807902 -0.0433648 -0.534744 -0.167455 0.33048 0.117884 -0.172614 -0.0851611 -0.193683 0.0793058 -0.394559 -0.258266 -0.383605 0.186708
462 0.0119983 0.14955 0.33559 -0.0625431 -0.122748 0.201941 0.286432 -0.180499 0.108996 0.197705 -0.110033 0.00301052 -0.297703 0.18091 -0.557206 0.323649 -0.556028 0.239701 -0.186534 0.163521 -0.254669 -0.707473 0.418902 0.263636 0.115282 -0.207198 -0.191979 0.199791 -0.12169 -0.297659 -0.147663 0.000305694
660 0.0262869 0.159921 0.356454 -0.0688481 -0.102133 0.227703 0.291043 -0.144987 0.111838 0.220791 -0.116679 -0.0119838 -0.324728 0.138889 -0.551566 0.298724 -0.558854 0.283526 -0.168197 0.164603 -0.291741 -0.646379 0.394625 0.278338 0.100585 -0.179166 -0.183438 0.175283 -0.125398 -0.291553 -0.173948 -0.0302718
810 -0.314792 0.121928 -0.13853 -0.352584 -0.000189209 -0.240233 0.285373 0.328876 0.259453 0.0378837 0.185858 -0.380813 0.0261812 0.442728 0.346908 0.433131 -0.00855437 0.157735 -0.130166 0.0796534 0.097698 -0.0931194 -0.169202 -0.331798 -0.241041 -0.148727 -0.355823 -0.347348 -0.337854 0.338712 0.378841 -0.187423
521 -0.514541 0.244956 0.0760412 -0.199722 -0.231993 -0.389495 -0.0590348 0.237782 0.081965 0.139262 -0.0222465 -0.581174 0.127729 0.398674 0.485671 -0.0915149 -0.191492 -0.12139 0.134426 0.250649 0.0961141 0.21948 0.14362 -0.00986546 -0.0938924 -0.0999295 0.130153 -0.208626 -0.0603675 0.223093 0.28863 -0.123727
817 -0.163264 0.183419 0.118194 0.0405353 0.138436 0.314177 0.228804 0.502659 0.21306 -0.17654 0.218921 0.211081 0.138925 0.491591 -0.0363504 0.0279297 -0.0717507 0.136121 -0.263434 -0.265282 0.213934 0.0967125 -0.384755 -0.217035 0.400396 0.173943 -0.164973 -0.0636783 0.14531 0.618152 -0.301394 0.202216
669 -0.479148 0.770405 -0.00283855 0.00716469 -0.112472 0.278797 0.176434 0.484074 0.116901 -0.676191 0.421685 0.332862 0.381134 -0.0364057 -0.243162 0.0226237 -0.00508395 -0.407678 -0.227274 -0.363551 -0.242122 0.429133 0.0948648 -0.136049 -0.444891 0.173712 -0.433105 -0.134705 0.482181 -0.0342339 -0.162543 0.134298
151 -0.341326 0.550783 0.118663 0.0955 -0.161513 0.120386 0.453686 0.61225 0.332334 -0.190271 -0.161045 0.147076 0.0274798 -0.483586 0.0966275 -0.347633 -0.0386402 -0.203924 -0.207445 0.0445993 -0.09413 -0.227643 -0.142621 -0.252954 0.18776 0.436723 -0.319196 0.1683 0.436566 0.113159 -0.230459 0.447217
644 -0.720533 0.568098 0.195696 -0.140805 -0.0362211 -0.0593938 0.345666 0.625004 0.401229 -0.0897528 -0.0341841 -0.525137 0.0178574 0.226251 -0.0199341 0.419163 -0.0872648 -0.536748 -0.203011 -0.285543 0.272387 0.482689 -0.598523 0.0382219 0.33333 -0.0689132 0.199184 -0.174215 0.11407 -0.0732518 0.346114 -0.296375
812 0.214984 0.012849 -0.272058 -0.168162 0.272913 0.29903 0.19869 0.216885 -0.00722079 -0.225101 0.21976 0.242933 0.200415 0.398396 -0.00217567 0.291516 -0.132606 0.259884 0.1796 -0.456518 -0.0103541 0.109528 -0.0888871 0.119379 -0.0780213 0.178608 -0.20758 -0.244093 0.282542 0.415096 -0.0260416 -0.187716
427 0.525039 -0.0481077 -0.525844 -0.11125 0.212533 0.230048 0.61871 0.668815 -0.0500683 0.0465856 0.113659 0.309681 -0.0891102 -0.254388 0.156096 -0.396369 -0.454877 -0.109363 0.147862 -0.117688 -0.463694 0.316675 0.427102 0.35816 -0.105889 0.27238 -0.165193 -0.285223 -0.0615252 -0.134669 0.150408 -0.0745957
208 0.383465 0.308792 -0.717403 -0.0204421 -0.0164482 0.158372 0.310823 0.475281 0.00890168 0.0805568 -0.237074 0.496209 0.265831 -0.398692 0.109212 0.056869 -0.388292 -0.28459 0.101161 -0.357086 -0.649655 0.0275267 0.31709 0.44902 -0.172121 0.0451143 -0.0221106 -0.459514 0.0775362 -0.0934959 -0.0587513 0.0564578
17 0.122679 -0.353395 0.00816449 0.516634 -0.143031 0.0574877 0.0919156 0.181097 -0.0346224 -0.557031 0.00491258 0.0911937 0.0760571 0.315814 -0.0257109 0.35576 -0.264878 -0.189479 0.361225 0.238957 0.1168 -0.357337 0.455567 0.121265 -0.0887328 0.107999 0.0122454 -0.489946 0.500543 0.434698 0.118627 -0.299202
626 0.381076 0.270447 -0.714403 0.0118677 -0.060627 0.146041 0.325214 0.484355 -0.0465048 0.0696869 -0.241156 0.479575 0.215497 -0.419779 0.0796956 0.0342173 -0.455007 -0.244301 0.106734 -0.349295 -0.705289 0.0564286 0.310244 0.459737 -0.150938 0.0723975 -0.101353 -0.471688 0.0934829 -0.0631437 -0.0417862 0.0554029
338 0.156501 0.517602 -0.214788 -0.211655 0.101915 0.232031 0.814792 0.157614 0.0562176 -0.277757 -0.0618139 0.516445 -0.0907831 -0.136265 0.21797 -0.413292 -0.422555 -0.174557 0.152206 -0.139688 0.0145298 0.235447 0.0363948 0.317179 -0.342346 0.647172 -0.492074 -0.0250423 0.0185561 -0.180135 0.406122 -0.0918886
36 0.271179 0.120525 -0.765587 -0.206911 -0.0596735 -0.029704 -0.0800449 0.202836 -0.057725 0.444012 -0.190793 0.573065 0.405334 -0.191393 -0.204566 -0.0933969 -0.239366 -0.338816 0.161878 -0.262883 -0.451022 0.0199789 0.0891008 0.453962 -0.347036 0.286946 -0.155848 -0.62319 -0.239549 0.318596 -0.112843 -0.129439
413 0.635918 0.569998 -0.785275 0.228391 0.224633 0.15561 -0.00585383 0.412296 -0.035244 -0.102392 -0.552996 0.277843 0.108893 -0.465386 0.113376 0.119002 -0.161379 0.281127 -0.323596 -0.278136 -0.514728 0.239654 -0.065273 0.219485 -0.200525 -0.0388405 0.0327145 -0.347735 0.123043 0.0169368 -0.0418159 -0.228501
114 -0.104451 0.376646 -0.469149 0.0488929 0.186377 0.437058 0.160914 0.0388949 -0.122874 -0.12366 0.152733 0.534146 0.154103 -0.0819687 0.269936 0.387251 0.410606 0.145517 0.424575 -0.230406 -0.778534 -0.0460987 0.619054 0.294754 0.281871 -0.125244 -0.0300314 -0.138319 0.1698 0.0770188 0.119938 0.319343
316 0.358122 0.326386 -0.730331 0.0551966 -0.0375954 0.163023 0.349645 0.500329 -0.0227251 0.088391 -0.257957 0.506118 0.230885 -0.424014 0.0706018 0.0370459 -0.41947 -0.244945 0.158595 -0.31435 -0.674095 0.0565169 0.289368 0.491226 -0.150862 0.0220815 -0.0525378 -0.445606 0.1002 -0.0454008 -0.0202058 0.049751
568 -0.00348928 0.00236855 -0.617909 0.0607936 0.0925559 0.326684 0.233495 0.351951 -0.0998877 0.14158 -0.404132 0.70689 0.486379 -0.391016 -0.077074 0.265819 -0.113689 -0.0773253 0.212261 -0.372326 -0.715525 0.0908843 0.42971 0.306881 0.41103 -0.0573944 -0.444162 -0.122611 -0.0559377 -0.0861993 0.3085 -0.238581
165 0.334427 0.299883 -0.73511 0.0138385 -0.0223313 0.157751 0.331792 0.494975 -0.0186201 0.104695 -0.226646 0.510425 0.251418 -0.429509 0.0850182 0.0376174 -0.418932 -0.232408 0.148735 -0.349984 -0.700525 0.0108075 0.328618 0.447805 -0.125972 0.0533212 -0.0608198 -0.465741 0.0860398 -0.0855197 -0.0246453 0.0342749
664 0.549707 0.142496 -0.264782 -0.119844 0.455606 -0.150573 0.0708951 0.255624 0.570935 0.019933 -0.430594 0.69225 0.116567 0.277087 0.19932 0.0997701 0.0315856 0.111255 -0.705084 0.111312 -0.478932 -0.256419 -0.154639 0.294082 0.357714 -0.386477 -0.0391475 -0.261977 0.232567 0.0811149 -0.121668 -0.618864
813 -0.057999 0.026703 -0.0456347 -0.121088 0.154632 0.105171 -0.0632475 -0.00935651 0.0990991 -0.193472 0.344963 -0.129046 0.0734992 0.555178 -0.0764587 0.0238512 0.165036 0.225549 0.0603207 -0.0929486 0.27549 0.066746 -0.0439611 -0.0233997 -0.0159034 0.0645583 0.0900816 0.033807 0.20792 0.425083 0.160361 -0.182317
203 -0.0701836 0.305575 0.309409 0.222269 -0.255208 0.0383545 -0.0496571 -0.0775251 -0.0947494 -0.353169 0.312548 -0.129338 -0.0170634 0.491646 -0.131375 0.0343954 0.256489 -0.0776688 -0.0477951 0.299181 -0.0148015 -0.410043 0.621327 0.346478 0.115783 -0.254505 0.0767854 -0.295575 0.410791 -0.100323 -0.0500879 0.176723
465 -0.474857 0.0464999 0.129748 0.094317 -0.0886916 -0.378067 -0.0548571 -0.250022 -0.203453 0.408801 0.129089 -0.193092 -0.338045 0.340004 -0.460752 -0.117554 -0.0681699 0.185743 0.220026 0.0346023 0.165635 -0.273267 -0.139879 0.0552789 -0.174011 0.398356 -0.40373 0.375186 0.278513 0.445944 -0.257588 -0.294125
204 -0.222727 -0.173445 0.0380079 -0.118195 0.296102 -0.215522 -0.327825 -0.0355119 0.385928 0.0106113 0.0245054 0.336831 0.0651771 0.199802 0.342455 -0.0904009 0.12448 0.000284993 0.555453 0.327761 0.227497 -0.0716897 -0.105347 0.179646 -0.318824 -0.158058 0.690654 0.101896 -0.255028 0.592555 -0.0943802 0.0325986
215 -0.0949003 -0.0125776 -0.445473 0.0626596 -0.141256 0.149654 -0.314585 0.22409 -0.297282 -0.0272874 0.366903 -0.392921 -0.0554318 0.358828 -0.179013 -0.137982 -0.0222424 -0.177883 -0.0772008 0.0277968 0.197791 -0.163247 -0.413248 -0.392418 -0.276108 -0.40182 0.00118447 0.269494 0.409337 -0.455981 0.122382 0.224359
100 0.372634 -0.314 0.374364 -0.196582 -0.153584 0.182241 -0.129989 0.323765 0.174849 0.14761 0.0818081 0.384315 -0.117519 0.708059 0.076918 -0.245299 0.436365 -0.0832179 0.342046 0.231414 0.170197 -0.0177196 0.0882256 -0.360582 -0.0504718 -0.0601201 -0.594083 0.325136 -0.0507284 0.0924861 0.203755 -0.470899
96 -0.271787 -0.0721027 -0.00846646 -0.0128954 -0.14724 0.132217 -0.104258 -0.18239 0.00141582 0.0500271 -0.0996778 0.272227 0.221407 0.362988 -0.145502 0.0672749 0.141972 0.0269913 0.0173656 0.196523 -0.101144 -0.211141 0.516793 0.132522 0.691278 -0.256383 -0.0943621 0.350496 0.0856742 -0.149784 0.507357 -0.250911
192 0.365289 -0.00919872 0.307737 -0.47547 0.0725889 0.0235695 0.0723076 -0.0583188 -0.0701191 0.595924 0.45145 0.031066 -0.155539 0.240148 0.367053 -0.505438 0.114678 0.0528909 0.434374 0.146816 0.193864 0.523988 0.0554955 -0.0910564 -0.151922 0.0843922 0.454816 -0.0990061 0.0142966 0.36689 0.207169 0.0366821
86 -0.425522 -0.196976 0.110186 -0.209916 0.0744704 -0.340587 -0.514873 -0.167711 0.211202 0.237494 -0.0494339 0.0148765 0.350225 0.182818 0.134639 -0.397598 -0.18306 -0.0814772 0.149602 0.326234 0.258036 0.0998451 -0.102733 0.33586 -0.101964 -0.183686 0.178283 -0.232508 0.0867169 0.500525 -0.151311 -0.243311
220 0.119961 0.395233 0.134816 -0.179815 -0.0806403 -0.102269 0.114466 -0.265708 -0.105666 -0.117867 0.352474 0.0587134 0.122344 0.449597 0.397705 0.0289112 -0.166182 0.023476 0.283949 0.086183 -0.439028 -0.42257 0.083793 -0.121233 0.179958 -0.244929 0.79105 0.510217 0.155174 0.0644416 0.151858 -0.0356574
438 -0.223097 0.248012 0.219682 -0.0837438 0.247077 0.236613 0.502434 0.266007 -0.0636631 -0.320465 0.336332 -0.398631 -0.358823 0.160075 0.29487 -0.38271 -0.625845 0.300109 0.284416 0.0341304 -0.263916 -0.00646451 0.164109 -0.556844 0.4233 0.300982 0.448056 0.258673 0.093422 0.446195 -0.235393 -0.173832
336 -0.0273281 0.618928 -0.0404929 0.208883 0.176754 0.202084 -0.12807 -0.124803 0.109804 -0.0831913 -0.28647 -0.601282 -0.374975 0.104451 -0.213191 -0.0329394 -0.125896 0.618827 -0.388936 0.0614623 -0.158096 0.0573089 0.233876 0.0620113 -0.127947 -0.146639 0.147865 0.219252 -0.0606654 0.0382796 -0.068308 -0.178811
456 -0.337556 0.0560198 -0.115737 -0.135309 -0.252429 -0.597962 -0.290823 -0.087032 -0.354102 0.0997983 0.29566 -0.566183 0.232898 0.375422 0.30706 -0.00126724 -0.150678 -0.19073 0.0638456 -0.17478 -0.13213 -0.0750727 -0.391508 -0.288815 -0.204147 0.200213 0.154821 -0.0635548 -0.364361 0.499111 0.0466654 -0.505349
218 -0.131108 0.128965 -0.355656 -0.193347 -0.157466 -0.14416 -0.405109 -0.211196 0.0990024 0.332264 0.0519129 0.0267616 0.206453 0.196771 -0.160592 -0.453119 0.19423 -0.3573 0.0825802 0.132953 0.097347 0.101153 0.1713 0.212091 -0.186411 0.225706 0.219461 -0.258848 -0.26102 0.308816 0.0098029 -0.0538558
680 0.140017 0.241386 -0.286514 0.206178 -0.229164 -0.210362 -0.107508 -0.112242 0.277501 -0.0691436 -0.0427642 -0.390874 -0.0274742 0.397189 0.325559 0.351049 -0.144201 0.286507 -0.614574 0.328233 -0.0214214 -0.0834946 0.0295579 0.000916442 -0.15232 -0.237522 -0.0783052 -0.0396927 0.0749331 0.242879 0.589472 -0.234992
69 -0.198302 0.359451 -0.177818 0.0526171 -0.257375 -0.0061852 -0.0676131 -0.00415602 0.180211 -0.132972 0.127136 -0.285609 -0.0895207 0.136961 0.130937 -0.48137 0.0940507 -0.240094 -0.0641932 0.117135 0.116765 0.0277562 0.553559 0.182634 -0.0562723 -0.0610072 0.560359 0.0234907 0.166484 -0.0368586 0.200548 0.174747
331 -0.128916 0.33386 0.249666 -0.203095 -0.313434 -0.101803 0.103728 -0.0344836 0.193887 -0.143889 -0.0280059 0.104706 -0.00487186 0.246352 -0.128224 -0.245878 0.110345 -0.0164918 0.012543 0.374646 0.122919 -0.608051 0.216584 0.0825999 -0.0188103 0.269215 -0.0645692 0.32101 0.60641 -0.00977921 0.299928 -0.0035807
244 -0.203917 0.347698 -0.206204 0.0634759 -0.241177 0.00422414 -0.0584364 -0.0207978 0.170318 -0.15471 0.119501 -0.292198 -0.0921445 0.110767 0.144957 -0.455044 0.14129 -0.19412 -0.104492 0.131691 0.0478727 0.0938307 0.599401 0.139044 -0.0185383 -0.0780904 0.526633 0.0562187 0.144297 -0.029067 0.211334 0.17085
62 -0.175532 0.377565 -0.193648 0.0413619 -0.219987 -0.00472202 -0.0835181 -0.0201193 0.17713 -0.134716 0.110855 -0.291642 -0.0274279 0.131265 0.168281 -0.462313 0.0676566 -0.219393 -0.0923699 0.135282 0.0326743 0.0697263 0.557544 0.161874 0.011865 -0.0887619 0.523782 0.0582028 0.15139 -0.0112505 0.163732 0.127078
617 -0.131522 0.354012 -0.164018 0.0197811 -0.250626 -0.0358566 -0.0387652 -0.0118591 0.163116 -0.137298 0.107193 -0.228027 -0.0657338 0.11399 0.195432 -0.432352 0.0864563 -0.299335 -0.0825199 0.119106 0.0576811 0.100386 0.514175 0.143649 -0.0427154 -0.112781 0.509661 0.0345484 0.119544 -0.0334194 0.169203 0.172518
7 0.346344 0.0593281 0.0156797 0.681321 0.1381 -0.0624186 -0.228567 -0.279508 0.0907173 -0.171188 0.187432 -0.408101 0.20713 0.315929 0.209123 0.445443 0.21449 0.359288 -0.476358 0.0785577 0.0767464 -0.224049 0.407281 -0.0616617 0.0489928 -0.0621546 0.0305877 -0.202833 0.508044 0.0127191 0.059353 0.230083
672 -0.186138 0.364149 -0.166907 0.0253676 -0.266418 -0.0621664 -0.0442804 0.010405 0.187984 -0.160539 0.130492 -0.319803 -0.036867 0.0985085 0.18983 -0.456888 0.0835057 -0.201361 -0.0863716 0.111904 0.0930775 0.0951611 0.555426 0.169918 -0.0619826 -0.0786357 0.525344 0.031668 0.165241 -0.0509935 0.208775 0.153259
9 -0.0259889 0.182284 -0.25138 -0.0602042 -0.0903442 -0.165032 -0.119348 0.438134 -0.31306 0.142199 -0.154898 0.037964 0.376576 0.292979 0.141287 -0.22311 -0.507779 -0.153394 0.367983 -0.109186 -0.178934 0.233136 0.329447 0.49862 -0.0863398 0.149697 0.265141 -0.311334 0.425846 0.346927 0.107905 -0.283506
265 -0.0474497 -0.239891 -0.217112 -0.23132 0.191276 -0.180218 -0.248585 -0.141318 -0.016569 0.359867 -0.0791175 -0.27815 0.33229 0.446661 -0.299626 0.0780453 -0.33683 -0.218934 0.333768 0.128468 0.477229 -0.305502 0.0199609 -0.4162 0.384307 0.067489 0.192987 -0.313405 0.426112 0.00700472 0.045119 -0.145121
607 -0.456879 0.30778 -0.0917654 -0.284949 0.056989 0.209332 0.140046 -0.164885 0.201122 -0.0189017 -0.0586544 0.311974 0.0315658 -0.0575465 0.342382 -0.0135147 0.594233 0.215264 0.372727 0.157102 -0.355904 -0.119062 0.218297 -0.143755 0.278008 0.169013 -0.0503671 0.697195 0.298708 0.0740248 0.539377 0.216939
527 -0.563461 0.00827313 0.366221 0.14046 -0.288417 0.00315885 -0.263445 0.370515 -0.00868336 0.134619 -0.124948 -0.396912 -0.101715 0.303535 0.0661964 -0.0654972 -0.00957919 -0.0669009 0.354409 0.296682 -0.227989 0.482526 -0.0214501 0.151327 0.259807 -0.0835038 0.558672 -0.193132 0.357827 0.264549 0.297948 -0.170746
113 -0.274337 0.16819 0.408845 -0.0821149 -0.252502 0.0184447 -0.194563 0.212376 0.0161838 0.0753618 0.0485189 0.0609125 0.212352 0.520004 -0.01599 -0.312838 -0.0441072 -0.0372855 0.188831 0.398779 0.07509 -0.344258 -0.0254538 -0.179153 -0.305663 0.0966915 -0.221979 0.373002 0.655531 -0.157668 0.223059 -0.246839
814 -0.0633278 -0.135012 0.0322507 -0.437764 0.126833 0.307052 0.0592641 0.0635247 0.291339 -0.287673 0.542178 -0.108026 0.13786 0.10829 -0.181062 0.402156 0.174618 -0.00461281 -0.0382566 -0.446978 0.163913 0.21327 -0.258834 0.0519603 0.0394637 0.0584271 0.0270775 0.0971749 0.113348 0.226623 -0.122667 -0.324192
1 -0.0571648 -0.233599 -0.0846175 0.0176774 -0.153961 0.178526 0.298287 0.553576 0.546753 -0.504631 0.202411 0.112496 -0.107772 -0.70958 -0.192448 0.393026 0.322451 -0.71568 0.0892383 -0.247998 -0.0105969 0.0481223 -0.066419 0.0582658 -0.320656 -0.115056 0.357676 0.234954 -0.519196 -0.191534 -0.273217 -0.0022953
132 -0.408157 -0.226437 -0.196573 -0.299773 -0.0859587 0.399444 0.148507 0.0843964 0.291001 -0.0736215 0.130501 0.091534 0.202266 -0.753948 -0.168123 0.293146 0.403343 -0.346641 -0.0970757 -0.387502 -0.440822 0.27069 0.166772 0.0287595 0.470675 -0.259111 -0.263645 0.43364 -0.180402 -0.371485 0.107427 -0.213103
194 -0.276477 -0.11595 -0.146583 -0.0131002 -0.545885 0.362968 0.30341 -0.243334 0.421436 -0.173052 0.240198 -0.217355 -0.19112 0.430289 -0.4578 0.319824 -0.265221 -0.342832 -0.301127 -0.380938 -0.0736866 0.245452 -0.605909 0.192155 -0.0371008 -0.259312 0.489703 0.159004 0.334371 -0.0530269 0.655519 0.298183
