704 32
805 -0.416003 -0.192504 0.153657 0.186102 0.515884 -0.110081 0.120894 -0.0439969 0.273828 -0.236973 0.215279 0.195418 0.288486 0.368164 0.0615795 0.13562 -0.0418843 0.280161 0.345833 0.017108 -0.149103 -0.0374974 -0.730503 -0.0165232 0.0749068 0.0904523 -0.245605 -0.270932 0.0215814 -0.0280242 0.0246623 0.282579
566 -0.378392 0.0364922 0.0346673 0.437254 0.0776137 -0.44762 0.268207 0.0607976 0.218761 0.0595264 -0.347236 0.16654 0.329793 -0.434399 0.155088 -0.114814 -0.362332 -0.2573 0.56538 0.292483 -0.464754 -0.308385 -0.472805 0.00141193 0.00595787 -0.209643 -0.224631 -0.268315 -0.0013724 -0.436395 -0.211496 0.620552
452 -0.667327 -0.224933 0.0192735 0.0630871 0.299986 -0.224659 -0.272556 0.412547 0.495175 0.17385 0.107431 -0.126174 0.41806 0.341393 0.196515 -0.447797 0.0238964 -0.092236 0.313425 0.374584 -0.0664851 0.158886 -0.410167 -0.262611 -0.432488 -0.00459319 -0.235806 0.0617036 0.348395 0.227148 -0.0982081 -0.225524
32 -0.517318 -0.268911 0.0865588 0.25152 0.487989 -0.626174 -0.102184 -0.346894 0.116551 0.35365 0.304771 -0.133106 0.0788067 0.0297774 0.0881172 0.0647548 -0.446074 -0.142513 0.0647568 -0.0859843 0.0430295 -0.274534 -0.801146 -0.0665684 -0.166233 0.0553156 -0.0642361 0.00224076 0.0328866 0.313211 -0.350657 -0.334451
230 0.0181051 -0.341651 0.299486 0.242213 -0.117719 -0.101423 0.191007 0.167306 0.413826 -0.0359688 -0.232546 0.475726 -0.130443 0.61186 -0.0832951 0.330843 0.30618 -0.0142346 0.493575 -0.34983 -0.351591 0.00454364 -0.580651 -0.266319 0.661119 -0.281546 0.106336 -0.0452181 0.0185283 -0.0928176 0.0731043 0.0785496
303 0.168935 -0.113108 -0.213323 0.204806 0.186977 0.00595247 0.186459 -0.638022 0.301111 -0.262112 0.0323308 -0.0312852 0.479609 0.465683 -0.0487438 0.0689785 0.00563521 0.402545 0.80653 -0.0936712 -0.149999 0.303793 -0.166949 -0.0303061 0.0468191 0.0262438 -0.0280352 -0.437549 0.129564 0.0556391 -0.0989624 -0.166729
529 -0.00446311 -0.40279 0.013978 0.295861 0.0996722 0.235612 0.0717629 0.418206 0.0485823 -0.425176 -0.0897417 0.0040489 0.00303486 -0.0451787 0.15423 0.886075 -0.415808 0.485197 0.61719 0.366623 -0.426831 -0.179196 -0.173791 -0.130323 0.276438 -0.172815 -0.385312 -0.432569 0.476253 0.376218 0.284612 0.0458414
513 -0.028188 -0.469555 -0.0673379 0.140055 0.435577 0.0869653 0.338166 -0.190323 0.425306 -0.0345849 -0.0339175 -0.00924353 0.0293792 0.572767 0.207019 -0.289333 -0.250816 0.201959 0.0997939 -0.0132319 0.0918931 -0.12312 -0.296686 -0.155193 0.305381 0.729643 -0.134428 -0.0126233 0.0843045 0.21686 -0.40968 0.0462562
628 -0.118242 -0.237321 0.352833 0.177874 1.01624 0.226801 0.132037 0.085271 -0.107911 -0.457171 -0.140372 -0.0611769 0.143012 -0.121978 -0.193171 -0.00734704 -0.317976 0.451146 -0.146288 -0.00713033 -0.347443 -0.339064 -0.232545 0.671193 -0.14683 -0.297627 -0.359896 -0.22364 0.236309 0.0254233 -0.172711 0.0285809
692 -0.103425 -0.160589 0.119685 0.0753601 0.0521501 -0.437628 0.0213174 0.0938633 -0.0701184 -0.460243 0.247621 0.269889 0.0950377 0.778497 0.496296 0.134013 -0.0330944 0.716014 0.0391595 -0.336497 0.0373297 0.124677 -0.059521 -0.314593 0.407545 -0.0742586 -0.430676 -0.444853 -0.33384 -0.195739 0.00272523 -0.10464
412 0.3723 -0.279734 0.123062 -0.148021 0.270225 -0.0627357 -0.109797 -0.0324865 0.310826 -0.167635 0.274279 0.0234236 -0.32887 0.560118 0.178413 0.318691 -0.0329725 0.184134 0.383357 -0.327974 0.154349 -0.0991865 -0.479465 -0.0686397 0.132814 0.273745 -0.147453 -0.165133 -0.118728 -0.0500274 -0.422624 0.450848
119 -0.543582 -0.289962 -0.0191455 0.315261 0.607738 0.511574 0.0105846 0.172686 0.406953 0.130557 -0.0649408 0.532311 0.030122 0.563964 0.0150017 0.173441 -0.183843 0.436244 -0.0223591 -0.364181 -0.344153 0.227124 -0.171964 0.00324184 -0.192007 0.0953505 0.459623 -0.0728788 -0.138953 -0.0539929 0.226343 -0.0790999
332 0.0338668 0.224662 -0.00283046 0.498505 0.0760013 0.237633 0.205149 -0.498451 0.118923 -0.103735 0.0745067 0.327454 0.341871 0.0189882 0.367315 0.160757 0.104437 -0.192194 0.450844 -0.0214529 -0.152688 0.234878 -0.554534 0.149462 0.0742541 -0.272265 -0.501455 -0.120115 0.0901244 0.152008 0.362094 0.53062
479 -0.406953 -0.158274 0.269984 -0.186327 0.0567832 -0.0415668 -0.0520175 -0.445928 0.262581 -0.129369 0.249173 0.0396016 0.0875936 0.177362 0.239188 0.0681119 0.438165 -0.10411 0.601714 -0.310959 -0.0232846 0.20833 -0.484031 -0.0823788 0.0751679 -0.0262429 -0.372504 0.0377792 0.138531 -0.0621128 -0.236364 0.264561
563 -0.502338 0.0317035 0.529181 -0.234084 0.600967 -0.091988 0.0988587 -0.313006 -0.103209 -0.395087 0.737506 -0.136746 0.501223 0.12076 0.104472 0.0652886 0.15285 -0.356299 0.425576 -0.114781 -0.0922873 0.0759947 0.0147995 0.00376866 -0.00477171 0.116812 -0.234027 -0.165988 -0.143171 0.0574663 0.0554077 -0.14479
643 -0.314203 0.0288307 0.395546 0.00788801 0.0486365 0.212822 0.102379 0.224563 -0.00910177 -0.118541 0.0305667 0.697572 0.0571989 0.119457 -0.058385 0.234907 0.0799783 0.415626 0.417726 0.0993952 -0.43764 0.28358 -0.496993 -0.212105 0.0359123 0.499097 0.0220487 0.133824 0.080209 0.344381 0.304844 0.0548997
108 -0.210279 -0.181802 0.42439 0.268757 0.315517 0.1359 0.55029 0.115217 0.171058 0.0018372 0.0376285 0.234472 -0.11501 -0.355899 -0.403677 0.699778 0.524239 0.106028 0.315462 -0.465754 -0.277145 -0.0512722 -0.397661 -0.39612 -0.0369614 -0.327995 -0.2812 -0.262828 -0.825367 0.162444 -0.131452 0.669101
800 0.0745036 -0.190466 0.223931 0.295238 0.380286 0.362989 -0.0206815 -0.229324 0.179951 -0.520739 0.297688 0.104656 0.132228 0.318791 0.127794 0.298108 0.322955 0.146467 0.149504 -0.0288704 0.11333 0.195569 -0.023756 0.0910253 0.0224115 0.194002 -0.300763 -0.334551 0.129839 0.193744 -0.172096 0.172824
305 0.355977 0.070807 0.294533 -0.314051 -0.0279834 0.0880906 0.474378 -0.0126025 -0.152712 -0.268352 0.0314453 0.122253 0.0707871 1.11549 -0.121584 -0.00824067 0.34119 -0.00911445 -0.0471815 -0.575167 -0.0129245 0.282347 -0.384743 0.113097 -0.153497 0.0711247 0.0714336 -0.478744 0.38275 0.05025 -0.0320964 0.0638424
716 0.324333 -0.433254 -0.0266914 0.20634 0.264067 -0.143852 0.222801 0.0237509 0.775339 -0.339825 0.0154302 -0.211767 0.27127 0.317082 0.0442168 0.424282 0.084187 0.293006 -0.263099 -0.113979 -0.0359578 0.276544 -0.428642 -0.0594769 -0.0644847 0.2386 -0.447262 -0.0482925 0.0371382 0.105043 -0.344728 0.0264016
530 -0.039349 0.0285935 0.133601 0.192456 0.271869 0.429521 -0.276548 -0.102848 0.462145 -0.0625525 0.0357342 0.484188 -0.295354 0.407831 -0.0924605 0.502068 -0.0165052 -0.0482735 0.0463946 -0.28691 0.139962 0.452368 -0.370572 0.380853 0.384112 -0.0290978 -0.0592386 0.121032 -0.0739607 0.350148 -0.419014 -0.290665
99 -0.0111064 -0.157353 0.147985 0.396421 0.0371049 0.308946 -0.215339 -0.218981 0.0315632 -0.309147 0.171339 0.326602 0.0762278 0.661576 0.142136 0.284665 -0.0605901 0.10044 -0.417623 -0.0424361 -0.273847 0.17787 -0.107821 0.447751 0.803938 0.317844 0.0191572 0.246206 0.412408 -0.100078 0.320381 -0.178256
74 0.18534 -0.2298 0.838787 -0.0487969 -0.132823 0.405699 0.430829 0.012637 -0.125043 -0.0733395 0.0428912 -0.0114823 0.588637 0.649158 0.221997 0.10596 0.284361 0.110666 0.0794004 0.0587658 0.379787 0.167281 0.178633 -0.186312 0.435928 0.00637083 -0.346352 0.118847 0.069401 -0.161238 -0.42106 -0.157874
480 -0.0131552 0.193164 -0.0046601 0.412352 -0.148901 0.064419 -0.174937 0.093217 -0.212458 -0.607453 0.197242 0.590435 0.228169 0.275179 -0.20547 0.274792 -0.0933195 -0.219935 -0.182043 -0.0655194 0.303602 0.102849 -0.0304776 0.0540173 -0.123044 0.77955 0.014471 -0.308224 -0.090335 0.358717 -0.156672 -0.0833383
243 0.252103 0.0118883 -0.0153386 0.221308 0.00595142 0.209695 0.206774 -0.540261 0.1581 -0.467882 0.764943 0.258021 -0.0245955 0.0831561 0.225269 0.525545 0.0639399 -0.00622954 0.293012 -0.298236 0.00452208 -0.221402 0.211588 -0.316073 0.100288 -0.130337 0.104801 -0.168843 0.244889 0.237015 0.474342 -0.0360223
182 -0.507558 -0.105928 0.484546 -0.0597667 -0.0113192 0.54588 0.189528 0.211332 -0.250425 -0.771738 -0.0191928 -0.405651 0.219249 -0.187291 -0.205079 -0.00959994 0.239099 0.017593 0.415149 0.0346943 -0.124444 -0.00245157 0.505763 0.171906 0.119292 -0.0983072 -0.47949 0.104501 0.457857 -0.461603 -0.250877 0.221592
422 0.201555 0.309678 -0.0174719 0.476711 -0.193336 0.239448 0.289004 -0.448927 0.0308564 -0.401685 0.519481 0.215792 0.362652 0.0837462 0.079736 0.138307 -0.302562 -0.0711539 -0.222317 -0.205036 -0.114559 0.114081 0.493895 0.352024 -0.164406 0.248488 -0.237768 -0.47852 -0.00517452 -0.118621 0.302951 0.45045
8 0.33957 -0.0428694 -0.0564679 -0.353051 0.217666 0.282749 -0.105453 -0.233422 -0.233828 -0.231321 0.489562 0.694998 0.0258633 0.0389494 0.084502 0.0676138 0.331846 0.111652 -0.127559 0.0288614 -0.148582 0.141954 -0.0235498 0.0984015 0.184206 0.0464398 -0.643953 -0.238695 -0.382973 0.0436982 0.0204366 -0.211804
432 0.461445 0.221372 -0.0529668 0.156324 0.275232 0.31413 0.158955 -0.298397 -0.0669428 -0.241519 0.0188282 0.403257 0.174426 0.0380961 0.570579 0.121926 0.136144 0.574895 0.573305 -0.296979 -0.382499 0.168739 0.450928 -0.0630709 -0.0284577 -0.217157 -0.0141698 -0.284762 -0.107282 0.136774 0.113211 0.393724
329 0.14113 -0.453238 0.115744 0.157611 0.625722 0.708723 0.273094 0.0230139 0.21643 -0.161363 0.567686 -0.206871 -0.0738101 0.272615 0.160626 0.377028 -0.34878 -0.0347392 -0.115865 -0.177561 0.323244 0.481413 -0.17 -0.415999 0.0451174 -0.345918 0.201907 0.349232 0.11528 0.105154 -0.0615251 -0.0679137
478 -0.524648 0.228084 -0.189819 0.113385 0.297715 -0.0890853 0.00302765 -0.314645 0.103186 -0.270033 0.335189 0.14617 0.118032 0.0996472 0.290249 0.0866165 0.578033 0.110107 0.477941 -0.0592014 -0.320138 -0.100393 -0.0424003 0.08435 0.170008 0.0424048 -0.329205 0.000839097 0.578865 0.336117 -0.0855027 0.269287
519 0.181769 -0.10608 0.0272086 -0.0159761 -0.00423738 0.414513 -0.147092 -0.117504 0.267564 -0.582359 0.188314 0.0534698 0.0494908 0.0726411 -0.182429 0.304317 0.155119 -0.0127825 -0.0108764 -0.396823 0.421846 0.106878 -0.271105 0.334172 -0.210054 -0.499202 -0.454474 -0.225 0.216368 0.313906 0.358197 -0.0981323
75 -0.0752577 0.493167 0.155519 0.27928 -0.36331 0.273439 -0.349207 -0.431056 -0.0163546 -0.798857 0.14694 -0.233276 -0.136362 0.101484 0.368958 0.0213805 0.134476 -0.118315 0.0355047 0.079673 -0.284494 0.422448 0.221406 0.0993098 -0.184703 0.0849684 0.169082 -0.387575 -0.399016 0.0925641 -0.192577 0.375306
39 -0.296515 0.0053511 0.440774 0.346143 -0.29494 0.269203 0.301727 0.161566 0.111098 -0.463392 0.00603351 -0.302323 0.163428 -0.235012 0.231674 -0.188086 0.57056 -0.262152 0.156644 0.293844 -0.241528 -0.0145823 0.415845 -0.018925 -0.263762 0.387063 -0.276943 -0.140763 0.232533 0.00458399 -0.484632 0.39532
658 0.0141326 0.106673 0.0214061 0.0135351 0.541026 -0.286887 0.384527 -0.100669 0.692523 -0.07604 0.429856 -0.195314 -0.326282 0.462773 0.169879 0.2778 0.471193 0.0315944 -0.34896 0.0727714 0.0406929 0.807106 0.136667 -0.146736 0.0156149 0.140987 -0.293601 0.056969 -0.0733968 -0.19327 0.202779 -0.211365
645 0.0919365 -0.289115 -0.170035 -0.12326 -0.104106 0.0206099 -0.235069 -0.00143818 -0.145875 -0.437848 0.306163 0.461349 -0.000952497 -0.293172 0.50732 0.273887 -0.00310075 0.0662212 -0.16832 -0.447262 -0.0662913 0.492347 -0.344082 -0.167172 0.0418018 0.484775 -0.157342 -0.44276 -0.140075 0.104062 -0.462162 0.229781
104 0.514425 -0.634924 -0.279186 0.556069 0.158597 0.517962 -0.0884333 0.256185 -0.134403 -0.351983 0.0858327 0.0924829 0.373406 0.432039 0.0476784 0.244894 0.256128 0.132433 0.322911 -0.355895 0.129455 -0.200435 0.282461 -0.158197 -0.0896368 -0.0791751 -0.117701 0.166469 -0.151094 0.198874 0.148962 0.0908869
73 -0.511222 -0.286469 -0.0446181 0.147865 0.44691 -0.232816 0.0387637 -0.116249 0.149185 -0.559609 -0.277218 -0.109284 0.274752 0.485437 0.144417 -0.103148 0.371601 -0.289759 0.264874 -0.513147 -0.146972 0.221206 -0.28383 0.189435 -0.0473298 0.0123571 -0.323243 -0.341485 0.116207 0.49882 0.0497057 -0.167391
81 0.0884619 -0.407891 0.338151 0.483857 -0.284811 -0.105635 -0.157247 -0.31857 -0.451271 -0.469093 0.49418 0.0960582 -0.201699 0.163568 -0.103606 -0.175845 0.314638 -0.16343 -0.211426 0.132624 0.103905 -0.218845 0.189073 0.00524716 -0.045009 0.189644 -0.185039 -0.33136 0.104158 -0.277937 -0.215418 0.234913
301 -0.0167185 -0.077024 -0.211459 -0.290192 0.0804639 0.445744 0.036505 0.088417 -0.213495 -0.567335 0.199086 -0.131253 0.00461634 0.237807 0.188386 0.00168929 0.41801 0.155148 0.269678 -0.406381 0.138348 0.174505 -0.204144 0.0658476 0.295947 0.332922 -0.252141 0.221041 0.209106 0.420255 -0.142286 0.208271
18 0.08724 -0.212487 0.480916 0.267426 -0.180823 0.324126 -0.277636 -0.0100319 0.013885 -0.0361393 0.0985599 -0.16834 -0.0568164 0.00932582 0.182905 0.373477 0.144634 0.234497 0.202098 0.575095 -0.140721 0.389729 0.0302863 -0.412497 0.489385 -0.0441104 0.353579 -0.757783 0.491449 0.357984 -0.330473 -0.183646
411 -0.430929 0.449514 0.334006 0.104201 0.236502 0.283519 -0.263133 -0.464052 -0.196719 -0.21687 0.0486537 -0.0191747 0.0384619 0.470958 0.0799824 -0.0429686 0.521878 0.106276 0.0929834 -0.0544784 0.0934133 0.316353 0.0403987 0.0421311 -0.103346 0.310079 -0.149612 0.208847 0.15922 0.0806516 0.356254 -0.284519
550 -0.0978523 -0.171061 -6.8109e-06 0.286724 0.257611 0.21401 0.0360803 -0.326138 0.222504 0.238637 0.534229 -0.396215 -0.0192914 -0.321398 0.0520518 0.492607 0.120035 -0.154291 -0.140601 -0.254835 0.18834 -0.198874 0.606086 0.024381 0.176091 0.0194299 -0.0302941 -0.453505 -0.237867 -0.179777 -0.78992 0.658018
318 0.319795 -0.174009 0.156147 0.202924 -0.0518665 0.20078 0.325734 0.0238502 0.22828 -0.734666 0.43498 -0.413873 0.0176661 0.247054 -0.573877 0.239398 -0.0990885 0.281738 0.334082 0.413702 0.338435 -0.0563422 0.417113 -0.0732622 -0.0828518 0.185046 0.400754 -0.440772 0.0116584 -0.445629 -0.109438 -0.10013
321 0.0605413 0.212783 0.356026 0.182226 0.0302961 0.0024261 -0.533406 -0.452898 -0.26982 0.177901 0.278371 -0.0712075 -0.222026 0.282726 0.0258907 0.292218 0.120432 0.109031 -0.0491147 -0.095435 0.0757357 0.319412 -0.192589 -0.160634 -0.383626 0.315211 -0.211578 -0.542704 -0.174623 0.319296 -0.393798 0.039144
152 -0.0406463 -0.412661 0.170723 0.75804 -0.0484588 -0.168857 -0.271267 -0.173843 0.403201 -0.471658 -0.0497535 -0.105606 -0.677297 0.173985 -0.161864 0.294945 0.127307 0.0370873 -0.103982 -0.20061 0.126874 -0.576752 0.221817 -0.134023 -0.395877 -0.172184 -0.100528 -0.239052 -0.0245313 0.403978 -0.528284 0.251095
684 0.184247 -0.3116 0.267593 0.132659 -0.275317 0.0381425 -0.156412 -0.13127 -0.232443 -0.201868 0.409512 0.123336 0.278029 0.272249 -0.309522 -0.282337 0.102018 -0.0529716 0.0558976 0.370596 0.0135364 0.0317065 0.369862 0.462825 -0.254195 0.136802 -0.289779 -0.552436 -0.11255 0.145471 -0.33911 -0.103246
26 0.431795 -0.00263717 0.733149 0.348834 -0.365198 0.187385 0.0328431 0.0296922 0.0468933 -0.12224 0.159185 0.132102 0.196817 -0.387154 0.304489 0.0744812 0.253002 0.052763 0.143455 0.309954 -0.172234 0.201908 0.169757 -0.00834197 -0.266129 -0.363311 -0.13058 -0.721175 0.049947 -0.0165614 -0.587347 0.413115
679 -0.132868 -0.0963386 0.60958 0.291433 -0.348143 0.187525 0.183536 0.354328 0.182522 -0.666635 0.266716 -0.113906 -0.07163 0.265182 -0.170415 0.060577 0.530723 -0.0582177 0.135338 0.37574 0.000728954 -0.22577 0.490661 0.0534004 -0.383636 0.429099 0.128357 0.119711 0.0771296 0.132463 -0.0847693 0.0249414
461 -0.16462 -0.413669 -0.165383 0.261517 -0.136573 -0.077304 -0.330651 -0.271949 -0.168782 -0.345905 0.562685 0.0300966 -0.333419 -0.389547 0.194175 0.192001 0.551281 -0.629353 -0.169425 -0.000471432 0.328699 0.0254317 -0.000660588 -0.115801 0.19031 0.0261629 -0.248188 -0.392218 -0.0350972 -0.100653 -0.401373 0.477989
51 0.0794569 -0.0909154 0.297225 0.587296 -0.28337 0.218058 -0.0483741 -0.0922689 0.0112188 -0.489205 -0.0496895 -0.106265 0.103544 -0.378861 0.272161 0.0294377 0.224889 -0.300719 0.0618639 0.26733 -0.142255 -0.0204945 0.511862 0.183437 -0.0108955 -0.0746499 -0.0832565 -0.498768 -0.0356376 -0.108261 -0.606926 0.56242
197 -0.121361 -0.278125 -0.023295 0.472496 0.449347 0.173877 -0.116081 -0.146332 -0.34615 -0.381658 0.143343 0.197834 0.00435698 0.105279 -0.0642125 -0.150882 0.0889511 0.916827 -0.564957 -0.121112 0.191639 -0.119878 -0.0153112 0.365366 -0.00211999 -0.121327 -0.288517 0.14287 -0.0889327 0.361264 -0.0210548 -0.276183
293 0.197245 -0.186082 -0.0501243 0.598119 -0.389527 -0.0757686 -0.140496 -0.0449289 0.0824044 -0.557544 -0.0820704 -0.263908 -0.138348 0.0278593 0.284384 -0.00732129 0.373413 -0.00907276 0.282034 -0.0691928 -0.349751 -0.247211 0.483355 -0.0315143 0.0767356 -0.301312 -0.147727 -0.507898 0.209748 0.199409 -0.524236 0.489904
801 0.0421749 -0.114226 0.204662 -0.133914 0.26135 0.0953254 0.132017 -0.105862 0.115822 -0.222302 0.467512 0.168231 0.0266531 0.428584 -0.209628 0.117466 0.0995843 0.40078 -0.105065 -0.104871 0.0879505 -0.101576 -0.0964305 0.00787381 -0.00954106 0.171895 -0.157207 -0.0111327 0.192195 0.0519085 0.0902676 -0.144027
102 0.483662 -0.199826 0.260255 0.119057 0.382955 0.225939 0.424275 0.282314 0.415454 0.0285186 0.535743 0.146769 -0.29832 0.153561 -0.00645378 0.214866 -0.511779 0.437767 0.220426 0.0134557 0.157617 0.226025 0.273569 0.501906 -0.450552 0.0149596 -0.0393032 -0.0840688 0.199638 0.296959 -0.0287352 0.269968
370 0.217074 -0.0572463 0.245524 -0.208045 -0.450813 0.15095 0.0239504 0.045597 -0.148382 -0.225493 0.420213 -0.1246 -0.0645956 0.183743 -0.16304 -0.364876 0.0507669 0.245833 -0.211741 0.0735687 -0.152098 -0.118338 0.472309 0.260639 0.0317023 -0.0727474 0.265526 0.0674162 0.0172708 -0.0174281 -0.0219274 -0.0845479
206 -0.128331 -0.133097 0.341175 -0.0686639 -0.0372475 0.169061 0.187735 -0.207157 -0.200609 -0.232441 0.0112734 0.284269 0.319819 -0.185926 -0.479789 -0.173385 -0.0490014 0.234519 0.193802 -0.0922047 -0.393327 -0.401044 0.595416 0.211951 0.384934 -0.502691 -0.318814 0.285432 -0.00349515 -0.4098 0.0251229 -0.281188
37 0.12113 -0.00941072 0.69172 0.282686 0.180055 0.00171472 0.19243 -0.45175 0.382227 0.200358 0.0866233 -0.106283 -0.0809576 0.335001 0.203591 0.4706 0.0927565 0.385688 -0.604395 0.280493 -0.0357908 0.196817 -0.000254641 0.150583 -0.38313 -0.428998 0.00978474 0.0748092 0.70418 0.160753 -0.236575 0.233145
142 0.240095 -0.0962284 0.293799 0.136358 -0.388524 -0.0539151 0.206382 0.315465 0.241208 -0.379035 0.105857 0.449474 -0.150084 -0.0485747 -0.58375 0.189961 -0.0602004 -0.0873669 0.0711094 0.174413 -0.0323354 -0.658342 0.396164 0.168101 -0.265791 -0.0554191 0.228829 0.124053 -0.117625 -0.221181 0.0485441 -0.0702093
511 0.268647 -0.209283 -0.254848 0.158104 0.407855 0.330996 0.521557 0.011304 0.181768 -0.123429 0.109791 -0.430484 0.010659 0.271785 -0.357366 0.270483 0.202365 0.315422 0.440246 0.214843 0.294554 -0.126124 -0.129437 0.0450484 -0.185819 0.714163 0.0898562 0.00270389 0.104922 0.137918 -0.172127 0.0395354
464 -0.36222 -0.177547 0.0114455 -0.46265 0.24078 0.104922 -0.0285762 0.206256 0.375227 -0.317294 0.0920083 -0.159026 -0.335895 0.0101952 -0.424544 -0.0395911 0.120667 -0.086548 -0.104537 0.0757167 0.689365 -0.10364 -0.318799 -0.241418 -0.152837 0.164742 -0.0210293 -0.0224794 0.47892 0.0945345 0.195993 -0.480126
90 -0.0391216 -0.355598 -0.211765 -0.0651334 -0.0354252 -0.189964 -0.163034 -0.253083 -0.295986 0.0337401 0.187665 -0.0516568 -0.130136 0.415972 -0.313181 -0.238245 -0.136017 -0.0361756 0.0209309 0.253157 0.271713 0.0269528 -0.0798562 -0.480099 0.222507 0.35364 0.00199693 -0.235657 0.276716 0.29911 0.142907 -0.527548
419 -0.173595 0.0310245 0.24284 -0.140684 0.182226 -0.286772 0.0331457 -0.106673 0.584049 0.19125 0.188362 0.0319303 -0.116752 0.313558 0.249631 -0.423178 -0.0825364 0.257014 0.00801055 0.371174 0.0204527 -0.156798 0.156848 0.254319 0.149668 -0.288958 0.445432 0.246717 0.497998 0.287123 -0.113718 0.00523494
697 -0.228594 0.384403 -0.0864068 0.04505 -0.253068 -0.1003 0.245853 0.318737 0.146639 -0.608774 0.560015 0.223969 -0.21334 0.0311774 0.233158 -0.219328 0.269925 0.461057 -0.144777 -0.349632 0.178801 0.407405 -0.0970546 -0.196271 0.11654 -0.220597 -0.334223 -0.0926672 0.454346 0.58856 -0.516275 -0.0422489
88 -0.223973 -0.347716 0.204187 -0.141733 -0.350379 -0.127476 0.333405 0.131297 -0.26313 -0.183702 -0.0250321 0.452086 -0.126289 0.397892 -0.374167 0.206315 0.331863 -0.368948 0.222002 0.188576 0.347548 -0.225927 -0.0563716 -0.11227 -0.732862 0.397034 -0.248763 0.262693 0.0354884 -0.0278088 0.0900163 -0.343318
76 -0.182121 -0.033963 0.0100051 -0.164484 0.573771 -0.0582719 -0.235744 -0.367091 0.388803 0.565923 0.341523 -0.17924 -0.177968 0.379889 -0.0881482 -0.00244743 0.0509856 0.191457 -0.282716 -0.183751 0.577601 0.0182504 0.0491281 0.173617 0.0104005 -0.0133878 0.186849 -0.0139583 0.0795161 0.183179 0.0590715 -0.064996
308 -0.340385 -0.409734 -0.230582 -0.400289 0.281807 -0.289392 0.210215 -0.223944 0.423867 0.0580153 0.184919 0.309886 -0.00062092 0.447968 -0.116512 0.422992 0.0516549 -0.00390726 -0.118415 -0.171265 0.297012 0.0789864 0.236029 0.146048 -0.3731 0.404045 0.199295 0.365638 0.366351 0.285421 -0.277793 0.105707
23 -0.0296335 -0.285567 -0.0629228 0.738366 0.27366 -0.318063 0.191476 -0.218616 -0.248662 -0.0119056 0.414611 0.391734 0.587544 0.187403 0.058108 0.0032148 -0.199859 -0.0488395 0.114466 0.0927051 0.157445 -0.263213 0.0484718 0.193921 8.86369e-06 0.297352 -0.212074 -0.634075 0.308967 -0.220534 -0.0653063 0.462979
147 -0.420513 0.241025 0.122685 -0.00776119 -0.116341 0.0573751 -0.229542 -0.634892 -0.458526 -0.516411 0.134442 0.403909 -0.155741 0.0312048 -0.275323 -0.0316132 0.00858337 -0.136518 0.0778912 -0.322678 -0.19536 -0.0613236 0.107364 -0.21478 0.118397 -0.13161 -0.460533 0.115576 -0.282931 -0.451673 0.302799 -0.159013
343 -0.368047 -0.414368 -0.0720953 -0.253358 0.255305 -0.214971 -0.365104 -0.212798 0.206106 0.333443 0.470939 -0.174852 -0.290888 0.142209 -0.251554 -0.0249439 0.098357 0.0309388 -0.347289 -0.0875045 0.347842 -0.0852387 -0.0701703 0.129579 0.00155125 0.036347 -0.177647 -0.0377498 0.00747996 0.426565 -0.390568 -0.222929
93 0.140354 0.0414327 0.303257 -0.058558 -0.369373 -0.102224 0.250129 -0.0382257 -0.0567872 -0.0816098 0.344481 0.25666 0.0290065 -0.102451 -0.396168 -0.418203 -0.0971017 0.141897 -0.209665 0.12715 -0.291294 -0.523911 0.475662 0.24501 -0.0521164 -0.13658 -0.0266153 -0.0912602 0.205833 -0.41116 -0.21483 -0.0177237
342 -0.180446 -0.2617 -0.18767 -0.513501 -0.0275931 -0.214252 -0.0585234 -0.312412 -0.223817 0.382811 0.461606 0.269936 -0.226643 0.459203 0.112833 0.210691 0.473725 -0.191252 0.0737054 0.182429 0.442463 0.0932306 -0.133119 0.135087 -0.0320076 -0.0309305 0.0858627 0.188195 0.326062 0.262485 -0.0689015 -0.102506
538 0.236331 -0.500297 0.467423 -0.154951 0.220299 -0.0741193 -0.133449 0.0680417 -0.537901 0.14 0.0682844 0.273057 0.0524203 -0.15559 0.139266 0.0975529 0.109636 0.501931 0.185164 -0.0639404 -0.123127 0.115652 -0.0788037 -0.446781 0.220199 -0.230474 -0.459625 0.0959532 -0.024616 -0.148612 0.171488 -0.310582
347 0.0408399 0.269691 0.0754667 0.182509 0.219478 -0.098703 -0.258592 -0.176051 -0.146486 0.251951 0.0585483 -0.149895 -0.243292 0.584327 0.125717 -0.11512 0.283718 0.151026 -0.206838 0.056615 0.211626 0.0721661 -0.288488 0.0725069 0.140231 0.0109149 0.4476 0.262567 0.455324 -0.022403 0.444589 -0.152355
539 -0.281111 -0.0305027 0.179168 -0.0993397 0.0564714 -0.0399447 0.0453692 0.029695 -0.117932 0.368873 0.132067 -0.453599 -0.00257151 0.374621 -0.309348 -0.0635518 0.201082 0.214083 -0.0689455 0.00137135 -0.139626 -0.12183 0.0667211 0.0759946 -0.234069 0.612311 -0.225106 0.188847 0.22931 0.403638 -0.379405 -0.264983
556 -0.384769 -0.198868 -0.072625 0.0740312 0.258845 0.119865 0.643859 -0.422791 -0.0311935 -0.274283 0.406138 0.634451 0.309583 0.297795 -0.101671 0.19693 -0.159374 0.163465 0.0104795 -0.015685 0.417783 0.271069 -0.546477 -0.544408 0.106704 -0.39792 0.341286 0.11262 -0.190534 0.377183 0.0412355 0.204771
582 -0.214369 0.523138 0.263322 -0.149742 0.33251 0.202322 0.0441567 -0.249171 0.310952 0.0291727 0.0331872 0.274337 -0.28686 0.617707 -0.314406 0.214066 0.267366 0.0591227 0.199528 0.107316 -0.229004 -0.37054 0.138229 0.0621939 0.0835885 0.385745 -0.196907 0.556462 -0.223172 0.024996 0.0604564 -0.280837
381 0.00115281 -0.213687 0.0260762 0.0750715 0.275848 0.0229817 0.0466605 -0.032607 -0.196759 0.107909 0.0377912 -0.632773 -0.186786 0.247577 -0.249067 0.0822925 0.427805 0.535982 -0.215965 0.0780885 -0.0623974 0.175185 -0.375482 0.00989266 -0.381989 0.664875 -0.294586 0.199407 -0.154322 -0.0687391 -0.0272487 -0.546898
475 0.5845 -0.233707 0.308898 -0.358957 0.115161 0.049079 -0.0581727 0.505036 -0.268217 -0.0733846 -0.0187253 0.249344 -0.267287 -0.00395274 -0.297819 0.226752 -0.059876 0.327377 0.106541 -0.0134856 0.321954 0.040305 -0.503988 -0.0462929 -0.559901 -0.0205902 -0.121883 -0.221634 -0.0999395 -0.327037 0.380553 -0.19685
319 0.241705 0.0215481 0.334794 0.094281 0.217473 0.0148498 0.0558329 -0.161937 -0.116144 -0.348379 0.0563093 -0.0161912 -0.0500007 0.665115 -0.0679461 0.629783 0.0753405 0.0962596 -0.0881623 0.146698 0.505855 0.24243 0.192084 0.0681847 -0.28373 -0.0775606 0.517189 0.127562 0.441157 -0.382948 0.170087 0.381199
168 -0.59046 -0.0286769 0.132385 0.00138726 0.287736 -0.273068 0.148509 0.362751 -0.283009 0.108989 0.289329 -0.173947 0.359363 0.834609 -0.720265 0.140389 -0.215242 -0.106791 -0.234521 -0.0427131 -0.401318 -0.0378531 -0.408851 -0.618237 -0.184641 0.21849 -0.450636 0.0909326 -0.202266 0.429125 -0.250523 0.365914
57 -0.207337 -0.406913 0.0903195 -0.120226 0.0384054 -0.37423 -0.384848 -0.089673 0.0747516 0.0669288 0.233901 -0.051545 -0.0302628 0.457028 -0.114535 -0.363334 -0.0907369 -0.00783188 -0.17889 0.149898 0.390567 0.147923 -0.0875223 0.0255585 -0.078665 -0.00259305 -0.0399823 -0.0482483 0.0960567 0.384085 0.013796 -0.449511
177 0.168013 -0.279449 0.151297 0.197384 -0.333494 -0.177056 -0.207367 0.12942 -0.133067 -0.407151 0.330777 0.234381 -0.419324 0.354852 -0.330835 0.145985 0.132628 -0.169655 -0.0541135 0.103171 0.280694 -0.318069 0.0939445 -0.117827 -0.201403 0.181493 0.287104 0.164681 -0.185681 -0.0327344 0.307306 -0.123016
429 -0.000159151 -0.133939 -0.211809 -0.487183 0.272611 0.213259 0.0269982 -0.380472 0.0540222 -0.263233 0.409903 -0.117334 0.187551 -0.125214 -0.131764 0.155508 0.179737 0.402778 0.294376 -0.100717 -0.075075 0.507546 0.299724 -0.00905997 0.029676 0.0963827 -0.224551 -0.0300419 -0.884759 -0.356748 0.133245 -0.303835
497 0.0775325 -0.0344454 0.495879 -0.236032 -0.556869 0.0538171 0.444346 -0.136747 0.100489 0.355904 0.630015 0.0659545 -0.263801 0.397472 -0.139816 -0.40869 0.352411 0.187284 0.0252755 -0.00602094 -0.357365 0.264852 -0.258724 -0.255802 -0.32891 0.104419 -0.131321 0.151545 0.30202 0.18193 0.605584 0.309892
425 0.186165 0.226424 0.145233 -0.244433 -0.20002 0.0728141 0.147533 -0.21703 0.111821 0.0342766 0.409507 -0.00173937 -0.207573 0.456018 0.147174 -0.423532 0.191411 0.29811 0.105215 0.298976 -0.274925 -0.130031 0.32493 0.369779 0.131573 -0.125582 0.643447 0.307427 0.21054 0.0430051 0.149664 0.264164
531 -0.358455 -0.439544 0.352947 -0.170101 -0.481466 -0.156506 0.557176 0.291837 0.488862 -0.25681 0.119994 0.265022 0.0373212 0.260929 -0.313641 -0.484763 -0.232719 0.194256 -0.438165 -0.622132 -0.327955 0.118884 0.031052 -0.024165 0.0745545 -0.168077 0.351844 -0.300475 -0.0264648 -0.0833135 -0.28638 -0.0859304
507 0.0201319 0.00992423 0.0300227 -0.108754 0.180894 0.110276 -0.248033 -0.0864549 -0.388185 0.147775 0.151271 -0.41091 -0.323074 0.406023 -0.582664 0.00134759 -0.1672 0.246666 -0.281415 -0.249565 0.248326 -0.135992 -0.331678 0.308085 -0.204707 0.141461 -0.0998585 -0.0714066 0.211369 -0.250206 -0.0034725 -0.122602
145 -0.382972 0.181793 -0.299767 -0.340637 0.116286 0.0622936 0.115201 -0.335599 0.341314 -0.21973 -0.243135 -0.0647733 -0.0421829 0.794626 -0.569055 0.27477 -0.407124 0.51529 0.0913456 -0.517724 -0.176969 0.0523822 0.0550489 -0.247836 -0.260926 0.0919729 0.0516593 0.0433206 0.323442 0.344145 0.29639 -0.110321
144 -0.0865457 -0.128303 0.260053 -0.219047 0.0931312 0.128071 0.0556135 -0.151761 0.649309 -0.285098 0.518488 0.595155 0.0991423 0.392832 0.188331 0.101513 -0.00868387 -0.0931097 -0.0609955 -0.14198 0.193742 0.190615 0.156722 0.0781317 0.101715 0.399017 -0.293696 0.0632927 -0.002627 0.0238559 0.166384 -0.035708
141 0.0641281 -0.129615 0.23333 0.0380691 -0.0711828 -0.452046 -0.0491206 0.198445 -0.0936695 0.168349 0.121993 -0.0738908 0.254962 0.0535485 -0.147903 0.0217096 -0.0640374 0.15271 -0.133206 0.219743 -0.0141054 -0.339218 0.153315 0.0630896 0.341899 0.053642 0.0737365 0.0111678 0.537755 -0.0235129 -0.206855 -0.181554
572 0.0111503 0.185167 0.068839 0.615074 0.205566 -0.0179462 0.0670876 -0.154966 -0.390853 0.252698 0.147924 -0.110122 -0.690355 0.260253 -0.478139 0.0289493 -0.115858 0.0126125 -0.370805 -0.455132 0.0757423 -0.059273 -0.182354 0.0692977 -0.143735 -0.112428 -0.274415 0.112598 0.191627 -0.302956 -0.231205 -0.302225
196 0.173711 0.0183037 0.315954 -0.10751 -0.389484 -0.131485 0.280665 -0.0199104 -0.0705739 -0.0718513 0.36928 0.262975 0.0553858 -0.109033 -0.467323 -0.373714 -0.0275947 0.149972 -0.181966 0.0942957 -0.296746 -0.57668 0.468157 0.321278 -0.0585901 -0.13171 -0.0337525 -0.0723674 0.20646 -0.406172 -0.188098 -0.0266875
143 -0.244143 -0.196585 -0.113461 0.182155 0.297887 0.623022 0.15418 -0.215746 -0.527993 0.00395107 0.195484 -0.355607 -0.660732 0.289172 -0.31306 -0.0981078 -0.139592 0.143848 -0.534 -0.174676 0.105844 -0.230614 -0.361988 0.243716 -0.224849 -0.219813 0.0509123 -0.1801 0.0927799 -0.76286 -0.0413102 0.248682
474 0.477174 -0.284925 -0.458293 -0.0964876 0.0701938 0.0503299 0.504018 0.348604 -0.318702 -0.210273 0.0779777 0.508047 0.232074 -0.371751 0.106693 -0.238564 -0.202098 0.484572 -0.224876 0.0802662 -0.550922 -0.316835 0.150642 0.365037 -0.123072 0.222166 -0.107595 -0.0669415 0.0185725 0.0622546 -0.0324534 0.000641449
11 0.21362 0.000543646 0.265043 -0.109608 -0.336854 -0.139305 0.284588 -0.00933292 -0.0618766 -0.0563093 0.288232 0.212902 0.0756059 -0.071595 -0.42947 -0.379002 -0.0782227 0.180078 -0.213763 0.089883 -0.281422 -0.537861 0.465371 0.311411 -0.0417763 -0.185964 -0.0409122 -0.0857914 0.185968 -0.419583 -0.151279 -0.0490001
133 -0.144188 -0.112771 0.0637427 -0.0597639 0.262614 -0.191286 0.235734 0.0793315 -0.283486 -0.205389 0.508656 0.317966 0.00511724 0.53282 -0.776897 0.0896056 -0.0711299 0.436184 0.405838 -0.0475278 0.617768 -0.224734 0.158151 -0.0108867 0.255981 -0.24303 0.160027 0.545797 -0.359896 -0.179001 0.615929 0.438102
606 0.3124 0.601064 0.470331 -0.0913095 0.358901 0.177221 -0.0214856 -0.320682 -0.0791153 0.182771 0.289537 -0.180233 -0.334964 0.0528934 0.499925 0.309672 0.0630039 0.628373 -0.0893668 -0.256144 -0.399049 0.015975 -0.512749 -0.0955495 -0.235549 0.00260007 0.465578 0.156239 -0.0317478 0.0488533 0.0207027 -0.229849
304 -0.115743 -0.00796885 -0.397557 -0.450279 0.417992 -0.205811 0.105337 -0.0765384 0.245981 -0.0690402 0.268728 0.280226 -0.22827 0.208813 0.169596 0.0532062 -0.0374813 -0.0340505 -0.0285224 -0.137776 -0.224668 -6.9645e-05 -0.798024 0.28364 0.0420183 0.425522 -0.566049 0.171238 0.368953 -0.402106 0.456503 0.0977688
352 -0.00104582 -0.201829 0.183327 -0.326275 0.435315 0.375677 0.123562 0.374127 0.430692 0.0510137 0.00931009 -0.376784 -0.196081 0.238527 0.0206363 0.0739398 0.000637168 0.209744 -0.0730711 -0.304485 0.735454 0.0306881 -0.342639 0.0337358 0.0168572 0.366099 0.142119 0.353316 -0.0432177 0.154224 -0.110873 0.1097
117 0.363973 0.0112551 -0.106791 -0.22212 0.200435 0.526302 -0.0245692 0.362972 0.148278 -0.327749 0.343141 0.238445 0.146882 0.510234 0.121806 0.173761 0.37621 0.040503 0.34047 -0.261307 0.203109 0.00804075 -0.107068 -0.233833 0.125678 0.120258 -0.263369 0.114702 0.104581 0.0437324 -0.0780764 0.139203
687 0.18413 0.220108 0.124407 -0.21707 -0.170581 0.0631885 0.107969 -0.212619 0.103202 0.0311939 0.453613 -0.0228253 -0.222083 0.459134 0.107984 -0.404814 0.19867 0.264721 0.113674 0.288123 -0.256702 -0.127081 0.318166 0.331472 0.119222 -0.122778 0.610379 0.321431 0.180769 0.0251884 0.143933 0.232254
708 -0.207014 -0.627856 0.170588 -0.0679475 -0.167375 -0.18861 -0.0897609 -0.32525 0.350025 -0.577909 -0.131841 0.114779 0.0380178 0.254535 -0.180412 -0.325769 -0.210521 0.375313 0.191213 -0.55756 -0.42068 -0.294805 0.458472 0.138695 0.165956 -0.74588 -0.202149 0.17769 0.205078 -0.0916696 -0.223503 -0.352115
335 0.0596919 -0.28671 0.120398 0.339222 -0.157167 -0.458641 -0.225556 0.245576 -0.0622264 -0.148927 0.100546 0.260112 -0.233994 0.231131 -0.338168 0.390066 -0.0015289 -0.277765 0.0564784 0.138013 0.307333 -0.381668 -0.0856946 -0.2338 -0.050176 0.277383 0.14256 0.119219 0.109239 0.00339816 0.156364 -0.187959
302 0.0918767 0.295496 0.185157 -0.661945 -0.240895 0.0473927 -0.250213 -0.136855 -0.185896 -0.301753 0.734547 0.0452732 -0.407918 -0.0738823 -0.0842729 0.0871553 0.190915 -0.00456455 0.0239948 -0.192111 0.163514 0.256558 -0.367485 -0.11138 -0.142934 -0.242924 -0.128423 -0.426503 0.0903553 -0.34143 -0.0173474 0.287993
704 0.265994 0.0574716 -0.415597 0.0662797 -0.186944 0.0519323 0.518722 0.119569 -0.134219 -0.142869 0.248268 0.607131 0.458599 -0.239951 -0.317347 -0.277741 -0.184849 0.134517 -0.276551 0.0192571 -0.354942 -0.481595 0.299659 0.599862 -0.0438791 0.0329889 -0.0186496 -0.209453 0.398108 -0.0230865 -0.155182 0.0401402
535 0.23791 0.325201 0.329985 0.170777 -0.109286 0.156974 0.0897168 0.0186332 -0.0785878 -0.0532083 -0.206881 -0.0136249 0.0837781 0.0131818 -0.288401 -0.229481 0.0467116 0.257518 -0.606697 -0.109171 -0.0509148 -0.250674 -0.00204568 0.318144 -0.122818 -0.293534 0.109855 -0.0748615 0.27013 -0.558714 0.231371 -0.37504
35 -0.0814318 0.00237083 0.395041 -0.0546658 -0.408634 0.0861038 0.317378 0.491641 0.255219 -0.454674 0.142175 -0.0390378 -0.155063 0.207486 -0.315963 -0.0221217 0.373669 -0.0309576 0.137242 0.230704 -0.0368344 -0.274865 0.369093 -0.0201613 -0.428051 0.393707 0.225222 0.388168 0.0237151 0.128747 0.129328 -0.173669
693 0.483121 0.168392 -0.0558026 -0.140038 0.639034 0.128356 0.0485813 -0.0645867 -0.244851 -0.268929 0.367838 0.341998 -0.476213 0.225348 -0.0643545 -0.00471623 0.0742884 -0.164008 -0.21844 0.0831257 -0.0767413 0.352688 -0.301423 -0.175217 0.127589 0.0275988 -0.433222 -0.595261 0.00809065 0.357625 -0.109334 -0.482222
16 -0.0798119 -0.134334 0.247277 0.139676 0.352152 0.123288 0.0694579 -0.0827695 0.0583746 -0.00551498 0.254545 -0.128324 -0.444958 0.228202 -0.405324 0.541019 -0.245764 0.0996208 0.165901 -0.0617662 0.00266431 -0.489667 0.0391693 0.263061 0.217385 0.0184266 -0.128211 0.680046 0.370861 -0.224167 0.504789 0.227869
698 0.587558 0.168057 -0.0032486 -0.0997697 -0.334407 0.0979965 0.472051 0.20875 -0.116104 0.164073 0.327717 0.759362 0.56012 -0.324548 -0.175276 -0.121853 -0.110394 0.327606 -0.120448 0.053835 -0.309402 -0.156533 0.0708836 0.340552 -0.241962 -0.274987 -0.150343 -0.611156 0.497787 0.0738883 -0.263679 0.0328545
20 -0.0997928 -0.479146 -0.331919 -0.400148 0.0496338 -0.312587 -0.34573 -0.0767297 0.179424 -0.198917 0.782403 -0.169779 0.356018 0.206946 0.0981906 0.388919 -0.0439967 -0.163649 -0.251348 -0.306859 -0.415976 0.159043 -0.0703202 -0.271572 0.0856306 -0.234161 0.473915 0.462038 0.302974 -0.0942937 -0.400244 -0.203641
297 0.250547 -0.198932 -0.0120643 -0.228884 -0.0434399 -0.147391 0.18094 -0.134652 -0.040534 0.34179 0.277035 0.108274 0.50786 0.35485 -0.397765 -0.313454 -0.392182 0.00811616 0.164698 -0.0450552 0.317296 -0.00767384 0.55292 0.128846 -0.102778 0.170048 -0.0816259 -0.383754 -0.311058 -0.241644 0.0476354 -0.10342
690 -0.549474 0.438564 0.572143 -0.0270231 -0.381799 0.174802 0.201265 0.229918 0.652487 -0.90422 -0.0241645 0.308124 -0.152398 0.0210847 -0.126731 -0.172539 -0.119646 -0.142266 -0.200756 -0.0864344 0.0325269 -0.0861363 0.0806411 -0.214534 -0.378037 0.315888 0.0321281 0.125223 -0.269136 0.0185284 -0.257462 -0.0707941
502 -0.0344929 -0.185381 0.419862 0.127182 -0.062121 0.152582 0.137823 0.115234 0.0435669 -0.467194 -0.0546519 0.533634 0.114542 -0.097418 -0.672629 0.272836 -0.10369 -0.00369765 0.339479 0.0452746 -0.178256 -0.577004 0.616396 0.125911 0.153627 -0.367518 -0.0816593 0.449672 -0.234038 -0.309224 0.20368 -0.32676
222 0.29982 0.333331 0.117678 -0.0870075 0.468997 0.185352 -0.202401 -0.0582272 0.157048 -0.258628 -0.00762426 0.320952 0.0435918 0.445384 -0.4482 0.443138 -0.161674 -0.0175679 -0.102304 -0.0313953 0.136765 -0.0144206 -0.126968 -0.878003 0.161339 -0.349854 -0.0899657 -0.0515599 0.308162 -0.825161 0.255646 -0.215642
19 0.498483 0.0849729 0.7264 -0.273376 -0.451933 -0.0453971 0.258256 0.127741 0.0194922 0.193792 0.364457 0.383594 0.159443 -0.240915 -0.16256 -0.18378 0.0149742 0.34094 0.0406904 0.121569 -0.254071 -0.186119 0.0949763 -0.0113092 -0.222137 -0.422336 -0.142929 -0.476484 0.223194 -0.293119 -0.307427 0.0450473
83 0.118727 -0.276119 -0.253697 0.238551 -0.325449 -0.384986 0.117977 -0.415964 -0.203643 -0.259166 0.501518 -0.157685 -0.0701397 0.087053 -0.543762 -0.0789781 0.289216 0.0446351 -0.0155104 0.244113 -0.0327073 -0.022778 -0.204447 0.0535228 -0.136821 0.105482 -0.170746 -0.0760248 -0.201856 -0.701077 0.00796568 -0.286718
395 0.208411 -0.25902 0.241119 0.0764223 -0.495436 -0.0366611 0.387667 -0.105405 0.153103 -0.0767351 0.478809 -0.0535051 -0.0857299 -0.108912 -0.189752 -0.123091 -0.285465 -0.0233177 -0.28244 0.122694 -0.38162 -0.348909 0.301947 0.2531 0.0515966 -0.15907 -0.344196 0.0625757 0.222675 -0.273273 0.368352 0.129795
718 0.557465 -0.419016 0.363359 0.0869654 0.186419 -0.22263 -0.00717569 -0.0434562 0.163576 0.0358617 0.361378 0.117913 0.0263584 0.413201 0.229014 0.481857 0.0630857 0.209086 -0.0109873 0.359498 0.143264 0.482625 0.250913 -0.278208 -0.268952 0.260485 0.0806045 0.10495 -0.00632668 0.254466 0.43036 0.354784
802 0.0130258 0.0884413 0.0264717 -0.154771 0.431664 0.254478 0.202469 -0.312514 0.328792 0.012206 0.219969 0.320521 -0.127303 0.49943 0.11536 0.114228 0.197341 0.27422 0.288942 -0.0290726 0.0934231 0.0861607 -0.23683 0.0409341 0.0609117 0.121093 0.0990722 0.205918 0.206389 0.181917 0.146813 0.255639
715 -0.296697 0.223307 0.0944671 -0.11556 0.301778 0.399574 0.505653 -0.131327 -0.00959797 -0.0205114 0.279347 0.267473 0.0518276 -0.0300726 -0.0212226 0.659278 0.419191 0.0727574 -0.0570769 -0.240984 -0.0266104 -0.508224 -0.0705789 0.434273 -0.20754 -0.0207416 0.297266 0.69935 0.363797 0.176428 0.0226821 -0.431857
334 0.0395987 -0.26639 0.0600736 -0.290606 0.343934 -0.18779 0.21503 0.0340067 -0.152834 0.415899 0.224128 -0.0636726 -0.0224429 0.435895 0.25677 -0.264725 0.210546 0.280765 0.373954 0.0579527 0.169714 0.130743 0.143888 -0.29942 -0.136202 0.670759 -0.0595847 0.311941 -0.0473431 0.0354737 0.345488 0.0594669
400 0.168693 0.377934 -0.0113604 0.0996043 -0.0471822 0.0617787 0.299634 0.136305 0.61695 -0.0381333 -0.230807 0.45321 -0.416519 -0.000752092 0.0195558 0.18031 0.0970303 -0.240801 0.588319 0.360101 -0.0949782 -0.356166 0.136267 0.122749 -0.219687 -0.185329 0.749929 0.396651 -0.128678 -0.00121506 0.21682 0.459283
406 0.0491809 0.243668 -0.0421448 -0.589629 0.232551 0.513853 0.403956 0.141376 0.36719 -0.040268 -0.0830591 0.0626573 -0.173759 0.465809 0.0995023 0.375792 -0.144551 0.204983 -0.0637684 -0.0432395 0.570686 -0.103932 -0.413389 -0.142575 -0.0535389 0.208576 -0.194783 -0.101266 -0.0267647 0.192585 -0.186054 -0.181466
358 -0.15698 1.07788 -0.120758 -0.185654 -0.152353 0.0953605 0.0571097 -0.570283 0.387033 -0.23981 -0.129854 0.239078 -0.466501 -0.0501629 0.419187 -0.122282 -0.00443039 -0.158164 0.425001 -0.0109305 -0.470582 0.169759 -0.0777591 0.090806 -0.10327 -0.122239 0.465572 0.119465 -0.28385 -0.153025 0.0760001 0.653385
713 0.39287 0.356505 -0.116776 -0.129809 -0.0349143 0.176206 0.148017 0.00703863 -0.0692393 0.71557 -0.0246608 0.428555 0.323257 0.377327 -0.257857 -0.215178 0.098484 0.425214 -0.0535776 -0.0214603 -0.171353 0.491822 -0.549174 0.261725 -0.213261 -0.116542 0.37725 -0.269945 0.367917 0.615473 0.380132 -0.130846
528 0.372071 -0.00979666 0.00598485 0.00246647 -0.179908 -0.109715 0.131555 -0.33977 0.174397 0.077916 0.636225 0.119254 -0.476232 0.734203 0.161382 -0.23142 0.077758 -0.146805 -0.258073 0.345444 -0.21599 -0.199984 -0.0874359 0.118048 0.435449 0.0115437 -0.106541 0.385079 0.135902 -0.266687 0.563574 0.190589
149 0.373242 0.347913 -0.788413 0.133748 -0.0209422 0.401754 0.648619 -0.0390782 0.292765 0.161428 -0.293226 0.187219 0.415579 -0.0225898 0.237345 -0.227751 0.0822687 -0.268098 0.380864 0.0393609 -0.171775 -0.00112596 -0.331498 0.664226 0.172534 -0.21965 0.448353 0.200785 0.098012 0.475689 -0.101748 0.589993
146 -0.690491 0.266125 -0.307722 -0.465376 0.264665 0.203962 0.0845194 -0.4077 0.270088 -0.20664 0.321236 0.513967 0.0705641 -0.049903 -0.104994 -0.29315 0.287991 -0.102857 0.0851531 -0.126042 0.0415981 0.0598834 0.0775508 0.286007 -0.0886166 0.0614407 -0.325359 0.178143 0.0781301 0.29676 0.172529 -0.173849
249 0.11194 0.491728 -0.136111 -0.119964 -0.0452071 0.0632546 0.287686 -0.273632 0.345599 0.337568 -0.124082 0.271737 -0.243936 -0.111906 0.396127 -0.300588 0.121299 -0.120494 0.493565 0.259725 -0.315709 -0.0709011 0.123442 0.241663 0.0786039 -0.247916 0.629257 0.343456 0.107843 -0.076077 0.0307765 0.667576
110 0.107156 0.0972196 0.0413752 0.0504259 0.135127 0.122343 -0.221681 -0.535222 0.0930279 0.0241415 0.180335 -0.113086 0.0682113 0.225494 0.329277 0.312642 0.527803 -0.0597028 0.565614 -0.421312 0.31898 0.290846 0.028074 -0.319455 0.354868 -0.397188 -0.136174 -0.214105 -0.0538314 0.217949 -0.024035 0.363455
509 0.182799 0.289845 0.165646 -0.165999 -0.0924189 -0.0216654 0.3078 -0.2474 0.200576 0.123028 0.299451 0.242694 -0.178015 0.21972 0.040084 -0.380567 0.143297 0.182573 0.224748 0.288785 -0.336473 -0.365518 0.289236 0.393722 0.0664538 -0.233902 0.495811 0.299101 0.292237 -0.219787 0.0351887 0.368203
610 0.452638 0.49947 0.408118 -0.273333 -0.19904 0.0797223 0.303655 -0.0555516 0.378049 0.519183 0.0674842 0.417758 -0.104518 -0.179682 0.427274 -0.174317 0.185156 0.188866 0.53903 0.304063 -0.296023 0.120909 -0.0907656 0.0357405 -0.13705 -0.586255 0.361788 -0.136896 0.269743 -0.0491193 -0.0811104 0.532792
581 -0.416317 0.27376 -0.508874 -0.54502 0.213411 -0.00241591 -0.150959 -0.0977636 0.240645 0.684741 0.372971 -0.381697 -0.26547 0.396224 0.170951 0.353789 0.0258994 0.127367 0.164 0.121421 0.00933282 -0.033348 0.0357623 0.27272 0.147068 0.0112719 0.100961 0.0724565 -0.22154 0.676369 -0.277323 0.121516
640 -0.611814 -0.241143 0.119083 0.00674143 0.335511 0.0911208 -0.390124 -0.0982906 -0.0852629 -0.18742 0.440651 -0.0452395 -0.174461 0.0652518 0.124299 0.412828 0.274836 -0.0324371 0.562123 0.345806 -0.0443955 0.184887 -0.293446 0.246926 0.646961 -0.196963 0.0708537 0.0318113 0.41559 -0.125704 0.0362886 0.453661
312 -0.22927 0.226913 -0.283581 -0.314588 0.365862 0.534436 0.63093 -0.0192605 -0.0165311 -0.168995 0.0328706 -0.0717241 0.349264 0.113827 -0.129015 -0.218279 -0.145481 0.291118 0.540132 -0.0307215 0.0132906 -0.0465878 0.467907 0.00124405 0.389521 0.229709 0.227575 0.185358 0.61889 -0.118418 0.354484 0.0159433
135 -0.0339975 0.560144 -0.16833 -0.166899 -0.0405168 0.14384 0.110146 -0.428445 0.365225 -0.351787 0.0240843 0.552989 -0.392365 0.292437 -0.415439 -0.0256744 -0.173439 -0.154559 0.532363 0.304239 -0.0675343 -0.138708 0.0724128 -0.210756 -0.281615 0.219016 0.387301 -0.114331 -0.215401 0.154365 0.312306 -0.172496
161 -0.10246 0.606015 0.22656 -0.0734449 0.40999 0.335213 0.0216007 0.010751 -0.164845 -0.09591 0.099955 0.0138036 0.0199886 0.557395 -0.113316 -0.0381684 -0.46977 0.22128 0.273735 -0.433868 0.338151 0.65146 0.0909531 0.106375 0.353917 0.103798 0.121679 0.24426 0.141519 -0.252193 0.133849 -0.18303
184 -0.187218 0.143495 -0.189216 -0.0446411 0.186261 0.247385 -0.0949522 -0.334759 -0.118026 -0.491367 -0.0687224 -0.0686876 0.099093 0.597975 0.0598205 -0.00128903 0.14855 0.246949 0.358081 -0.673377 0.0384006 0.187078 0.114945 0.245213 -0.173961 0.267387 -0.0371925 -0.0143006 0.413369 -0.207459 0.364978 0.0391191
372 0.0920118 -0.136233 0.175294 -0.602386 0.410571 0.176038 -0.0870691 0.0696883 0.0519046 0.336221 0.187481 0.127874 -0.0960011 -0.279915 0.566534 0.148228 0.414515 0.433567 0.430678 0.0947173 -0.169798 0.32585 0.0309977 -0.154986 0.394277 -0.383859 0.0242792 0.310513 -0.0690674 0.225701 0.112333 0.0247438
417 0.0161378 0.0863775 -0.211165 0.123041 6.7008e-05 -0.223075 -0.0272574 -0.43207 -0.0864602 0.232636 0.0845025 0.286514 -0.569684 0.118331 0.273284 -0.285742 0.218739 -0.37751 0.307445 0.105538 0.0697766 -0.144941 -0.276882 -0.154544 0.103799 0.0572502 0.319964 0.315365 0.132355 -0.193656 0.235587 0.586849
486 -0.121489 0.220249 -0.362373 -0.267799 0.552027 0.145294 0.174041 -0.482924 -0.312869 0.119699 -0.454096 0.461116 0.114639 0.104324 0.125089 0.612814 -0.011146 0.3302 0.0523354 -0.0421574 -0.437509 0.288001 0.0300575 0.0783544 -0.207288 0.0985927 -0.0771265 0.5042 -0.0269135 0.333061 -0.156098 0.0185808
392 -0.0612334 0.549886 0.0502945 0.174271 -0.0656206 0.544876 -0.164838 0.0775646 0.292235 -0.274198 0.0198387 -0.117796 -0.174205 0.628971 -0.0866491 -0.00885021 0.620009 -0.270059 0.139297 -0.208204 0.159837 -0.0350877 -0.454949 -0.243387 -0.528928 -0.00252064 0.18477 0.482719 -0.0597237 -0.0937712 0.355527 0.0330074
592 0.489609 0.293288 0.548381 -0.340978 -0.265213 0.104453 0.13694 -0.0668306 0.151357 0.268509 0.523842 0.175404 -0.0767431 0.276144 0.253508 -0.284254 0.234328 0.453548 0.240464 0.301457 -0.237991 0.126494 0.113706 0.0818653 -0.10874 -0.390475 0.43545 -0.0741264 0.256356 0.048681 -0.0161916 0.219591
803 -0.301281 -0.276432 0.140039 -0.0609603 0.421637 0.0373175 0.0924484 -0.134969 0.686394 -0.3174 0.0955925 0.200735 -0.0782064 0.249289 0.0880009 -0.130835 -0.226213 0.262942 -0.237342 -0.166672 0.310602 0.0906638 -0.164426 -0.022152 -0.170209 -0.195353 -0.170604 0.0242802 0.0949636 0.367182 -0.110394 -0.107978
382 -0.165081 -0.318177 -0.211309 -0.529428 0.0215808 0.00617593 -0.0584971 0.370531 0.283218 -0.0626719 -0.172946 -0.249662 -0.0562273 0.249674 0.446957 -0.212753 -0.466899 0.413141 0.0221337 0.289313 -0.128088 0.25512 0.0621198 0.108753 -0.280021 -0.193486 -0.156838 -0.0947911 -0.706037 0.597196 0.0114098 -0.322418
357 -0.172089 -0.0697084 -0.0828426 0.130153 0.282209 -0.326369 -0.138548 0.125214 0.432779 0.120943 0.154397 0.258972 -0.558703 0.525386 -0.00309772 -0.0867738 -0.132451 -0.257532 0.416822 0.240051 0.425596 0.416828 -0.0352315 0.0655355 -0.20964 -0.00866545 0.292612 0.344334 -0.0398839 0.56594 0.119203 -0.284235
223 -0.318177 0.518498 0.120461 0.0718332 -0.212546 -0.0251307 -0.0862893 -0.0609991 0.926325 -0.791524 -0.337412 0.422518 -0.397706 -0.247024 -0.0641204 0.0902478 -0.341068 -0.339473 0.0944613 -0.010506 -0.019421 -0.0316311 0.00249656 -0.0896981 -0.595647 -0.289547 0.241994 -0.103634 -0.616656 0.0542137 0.0124471 0.0830736
534 -0.464935 -0.598546 0.363866 -0.0452524 0.166887 0.0496775 -0.0610325 -0.218336 0.279109 -0.0498635 0.586685 -0.186156 0.255109 0.148492 0.0110863 -0.0360711 0.168915 -0.0882358 -0.102048 -0.0561221 0.489074 0.203232 0.476961 -0.0453118 0.131235 0.149591 -0.576442 0.0765738 0.131922 0.192374 0.315985 -0.175394
68 0.121476 -0.19517 0.166815 0.34886 0.319948 0.204855 0.205535 0.133381 0.353162 0.117953 -0.050735 -0.43188 -0.68054 -0.0562318 0.245947 0.0173261 -0.466865 0.370151 -0.420305 -0.220506 -0.225903 0.332024 -0.111967 0.149474 -0.255907 -0.237034 -0.254031 0.357137 -0.10963 0.197867 0.0589214 -0.210783
618 -0.313117 -0.10819 0.151628 -0.0675585 -0.113114 -0.137352 0.0948622 0.032243 0.747361 -0.182635 -0.29119 0.0239957 -0.027814 -0.460796 0.209215 -0.521545 -0.362731 -0.160989 -0.132543 0.0838682 -0.0270538 -0.0316443 0.190207 0.119113 -0.236617 -0.596297 0.030955 -0.103242 -0.139196 0.0668641 -0.320215 0.041031
666 -0.434065 0.0903014 -0.0179228 0.0136452 -0.247777 -0.356173 -0.0253187 0.262627 0.181949 -0.321379 0.349238 -0.25548 -0.008749 0.50171 0.15776 -0.183022 -0.255763 0.70283 -0.359276 0.317617 0.269323 -0.0957868 0.028937 0.0731767 0.18794 -0.501312 0.0501171 0.0638572 -0.0431595 0.397464 -0.0661485 -0.20622
621 -0.151954 -0.154311 0.334863 -0.144902 -0.19488 -0.140133 0.2007 -0.0495488 0.535605 -0.235765 0.213323 0.150255 0.0413596 -0.0666385 -0.170293 -0.637578 -0.326431 0.132549 -0.290398 0.154024 -0.0409903 -0.35505 0.36596 0.285686 -0.159161 -0.492971 -0.0294892 -0.0871359 0.124286 -0.115539 -0.312347 -0.148032
364 -0.246598 -0.0209213 -0.0633506 -0.0728928 0.0399516 -0.174259 -0.20296 -0.327964 0.378286 -0.0224943 0.185472 0.0541792 -0.515229 0.438189 0.403234 -0.583292 0.0177605 -0.109988 0.0160913 0.190469 0.235889 0.126681 -0.0914926 0.0268325 -0.0553081 -0.236734 0.433948 0.26503 0.0775832 0.271173 0.183594 0.234077
348 -0.186348 -0.285897 0.157383 0.123119 -0.315563 -0.0882547 0.244011 -0.0800104 0.843468 -0.167613 0.00530595 -0.103373 -0.0745669 -0.316455 0.249564 -0.315579 -0.551281 -0.218195 -0.298748 0.161003 -0.159963 -0.0103914 0.1124 0.211229 -0.133095 -0.502617 -0.313024 0.0109637 0.0528381 0.114984 0.195072 0.208751
211 0.075163 -0.707775 -0.134071 -0.307064 0.415347 0.204477 -0.309644 0.245425 0.387671 0.0700342 0.316515 0.515003 0.175844 0.000680181 -0.111772 0.250445 -0.135049 0.435581 0.0203787 -0.353022 -0.203834 -0.123754 0.0850866 0.147357 -0.395256 -0.188249 -0.123007 0.141503 -0.0360975 0.20826 -0.275536 -0.350388
631 -0.284968 -0.0718962 0.102052 -0.0461365 -0.0938106 -0.126535 0.0900506 0.0137418 0.763039 -0.186028 -0.315633 0.0817389 -0.0658426 -0.431697 0.204205 -0.546098 -0.359453 -0.164563 -0.15466 0.101556 -0.00867021 -0.0552965 0.191638 0.112539 -0.173597 -0.600601 0.0662112 -0.0926945 -0.131757 0.0830054 -0.33184 0.0551669
526 0.0892314 -0.0724552 -0.124848 -0.0680388 0.268811 -0.0634414 -0.193091 -0.0351475 0.420811 0.0363748 -0.636565 -0.525006 0.495708 0.33953 -0.0341889 -0.0207147 -0.0147642 -0.097488 -0.362846 0.0394764 0.415878 0.763895 -0.478068 -0.0135926 0.0549318 -0.464571 0.177005 0.234249 0.0138603 0.583751 -0.0568033 -0.243628
3 -0.529376 -0.252803 0.299809 -0.0288349 0.185671 0.165678 0.0897292 -0.187323 0.437342 -0.292581 -0.413436 0.178307 0.263749 -0.398929 -0.0195888 -0.361293 -0.358535 0.0532462 0.150953 -0.0622534 -0.155244 -0.0873531 0.447576 0.0971621 0.252527 -0.868369 -0.311575 0.27763 -0.208422 -0.04728 -0.0846244 -0.239214
89 -0.409372 0.0315126 -0.279103 -0.211794 -0.0941485 -0.119305 0.363675 0.258517 0.428898 -0.196799 0.143042 -0.322901 0.524858 0.330879 0.105064 0.1665 -0.272739 0.16875 -0.517908 0.328585 -0.2347 0.230911 0.256491 0.17287 -0.105046 0.0530943 -0.322135 0.212481 0.493516 0.71234 0.140606 -0.0838436
638 -0.306223 -0.0847686 0.076408 -0.0414695 -0.101651 -0.148744 0.0895465 0.00183129 0.749501 -0.12441 -0.288982 0.0641646 -0.0689815 -0.439539 0.190436 -0.544202 -0.40654 -0.164448 -0.148411 0.0626055 0.0032318 -0.0847829 0.135229 0.125697 -0.21005 -0.649717 0.0147551 -0.112853 -0.131432 0.0990694 -0.355055 0.0834255
379 -0.215632 0.0218258 0.0212141 0.193959 0.0268706 -0.131822 0.291813 0.158022 0.568761 -0.144596 -0.0904464 0.116866 -0.367928 -0.28855 0.120081 -0.442629 -0.53439 -0.257448 0.154673 -0.0198361 0.00196303 0.386777 0.199332 0.109783 -0.162769 -0.621899 -0.12286 0.0298584 -0.0545193 0.104768 -0.485582 -0.144344
804 -0.15247 -0.276007 0.0738914 -0.347382 -0.0297032 0.191546 0.582629 -0.367397 -0.229485 -0.0625928 -0.217741 0.320549 -0.044819 0.537537 0.308121 0.638001 0.0169812 -2.09427e-05 -0.15784 0.143263 0.338078 0.0266216 -0.141299 -0.0235973 -0.31991 -0.184277 -0.0360915 0.156365 0.244057 -0.0107614 -0.268726 -0.0752866
127 -0.208204 -0.245535 -0.0472447 0.235537 -0.158137 -0.106908 0.189747 -0.512024 -0.548106 0.318314 -0.148347 0.0666285 -0.564671 0.108045 -0.0583271 0.433445 -0.0997132 -0.242392 -0.209437 -0.224596 0.0746018 -0.390854 -0.203137 -0.175143 -0.297284 0.0224065 -0.270237 0.0984101 0.0189948 -0.224337 -0.530704 0.25354
173 0.336247 -0.00331953 0.355764 -0.351363 -0.318003 -0.19452 0.398311 -0.0819348 -0.0859432 0.122032 -0.241287 0.334893 0.257143 -0.147329 0.163733 0.463517 -0.0384597 -0.0242169 -0.052644 0.291009 -0.266596 0.462601 -0.0544712 -0.434967 -0.356197 -0.672662 -0.0222319 -0.177492 0.257079 -0.15469 -0.508085 0.287731
424 -0.0367146 -0.363967 -0.0937125 0.0692632 -0.203851 -0.257826 0.342335 -0.448007 -0.444192 0.151872 -0.0717073 0.161327 0.0577285 0.288355 0.329653 0.20926 -0.208752 -0.355741 0.0675708 -0.21661 0.670145 -0.0255511 0.187728 -0.377908 -0.19236 0.0133239 -0.0826259 -0.110632 -0.120966 -0.603414 0.0272852 0.300778
580 0.212407 -0.0201142 0.080588 -0.0128742 0.0932965 0.0711554 0.197177 0.0940714 -0.167413 0.0591939 -0.243579 0.183684 -0.560509 0.58794 -0.00771686 0.724343 -0.0944755 0.217539 -0.393275 0.158222 -0.0251112 -0.609581 -0.290404 0.00277558 -0.256291 0.0153925 -0.379705 0.140674 -0.468035 -0.258202 -0.0236167 -0.33706
671 -0.482767 -0.302991 -0.454023 -0.283865 -0.227393 0.391457 0.371749 -0.0762265 -0.431886 0.166969 -0.105878 0.130221 0.0285333 0.565087 0.188211 0.083555 -0.287377 -0.287178 0.0931759 0.42569 0.00863429 0.277962 -0.0464876 0.191172 -0.437494 -0.382617 -0.131649 -0.353901 -0.560092 0.0606218 -0.0518707 -0.092426
811 -0.105384 -0.550087 -0.0463234 -0.195441 0.043853 -0.0126425 -0.0513188 -0.17193 0.536342 -0.310379 -0.0192652 0.286623 0.0447418 0.513581 0.0669119 0.214854 -0.00963133 0.213352 0.100126 -0.70987 -0.294155 0.206934 -0.308387 0.163134 0.0929582 0.301163 0.0718214 -0.0915596 0.136504 -0.198388 -0.149736 -0.0291138
373 0.0643527 -0.594774 -0.110525 -0.409161 0.395657 -0.097665 0.215453 0.184571 0.231715 0.072923 0.0681654 -0.0433404 -0.091984 -0.155468 0.196779 0.207415 0.157172 0.263561 -0.315902 -0.799892 0.0180728 0.0377334 0.133818 0.0221496 0.105803 -0.107629 0.174979 -0.2511 -0.212033 -0.712941 0.240173 -0.0988801
138 -0.0348296 -0.460117 -0.237007 -0.205121 -0.434322 -0.228656 -0.0426013 -0.130238 0.309366 -0.199219 -0.32793 0.158674 -0.023763 -0.182527 0.101492 -0.15775 -0.366731 -0.230251 0.242133 -0.51265 -0.570434 0.0676077 0.103102 0.305691 -0.0483905 -0.0217254 0.271635 0.000316705 -0.148297 -0.52549 -0.344092 0.239848
201 -0.307791 0.284782 -0.119135 -0.0256097 -0.240051 0.0184478 -0.127801 -0.643692 0.232751 -0.1966 -0.216921 -0.0810825 -0.464582 0.0110574 -0.101918 0.289915 -0.389482 -0.113714 0.00900725 -0.742255 -0.766352 -0.0801931 -0.105586 0.122356 -0.371429 0.206726 0.041697 -0.1148 -0.448331 -0.43201 -0.569772 0.330354
285 0.31834 -0.713219 -0.646157 -0.00367369 0.166136 -0.222605 0.099385 0.158399 -0.0275775 -0.124966 -0.138495 0.643042 0.112969 0.132792 -0.00164452 0.183269 -0.47579 -0.0618853 0.307688 -0.387995 0.130286 0.0801718 0.0914742 0.0671403 -0.384666 0.699887 0.13112 -0.0680868 -0.509498 -0.0548891 0.29912 0.0247445
506 -0.0774877 -0.0428864 -0.372119 0.181627 0.456087 -0.00340168 -0.0297409 0.0527169 0.0321559 -0.233052 -0.548603 0.204166 -0.201224 0.228914 -0.0443274 0.600355 0.147563 0.366739 -0.00294352 -0.88023 -0.349188 -0.0906163 0.0604113 0.133007 -0.193688 0.191323 0.0495399 -0.0584556 -0.14414 0.185693 0.24586 -0.416445
806 0.270462 0.0125217 0.390014 -0.151016 0.172642 0.281585 0.105277 -0.0670028 0.230702 -0.00353733 0.336466 0.386905 0.0908279 0.183505 0.0806693 0.360784 0.105096 0.388783 0.174376 -0.197019 0.0780562 0.255159 -0.338209 -0.291672 -0.0616206 -0.0948566 -0.279163 -0.299287 0.188629 0.18034 -0.019927 0.0481666
616 0.133401 -0.0752677 0.10624 -0.118013 0.0551937 0.218224 -0.0694739 -0.149889 0.573171 -0.439405 0.101563 0.203792 -0.674334 -0.444925 0.211512 0.27877 -0.0544669 -0.00389948 -0.260176 -0.00602347 0.212479 0.171441 -0.405958 -0.635833 -0.321178 -0.194293 -0.163659 -0.288687 -0.214622 0.118929 0.590142 -0.1786
120 0.191888 -0.0299947 -0.0244083 -0.0364126 0.543545 0.295258 0.260933 0.267404 0.06535 0.159476 -0.321624 0.595856 0.215993 -0.347249 0.0782803 -0.168412 -0.378731 0.448278 0.0864855 -0.184475 -0.129871 0.611959 -0.101499 0.27999 -0.272718 -0.577938 -0.489022 -0.0711673 -0.0728899 0.315943 0.0470442 -0.700315
689 0.213465 0.368067 -0.12162 -0.370406 0.586051 0.147295 0.206703 -0.213627 -0.0964329 0.122224 -0.0209364 -0.104261 -0.126477 0.219771 -0.10389 0.228485 -0.0819486 0.520787 -0.12193 -0.0952511 0.0413761 0.337569 -0.208305 -0.405766 -0.248247 0.46529 0.0643481 -0.11532 0.49219 0.0360046 0.15517 0.110351
512 -0.0128685 -0.160949 0.020369 -0.445827 -0.0291014 0.0743053 0.615221 0.704262 0.161388 0.262445 0.475341 -0.0825483 0.394873 0.103526 0.427932 0.298592 -0.0246704 0.219371 -0.310984 -0.269994 0.115388 0.322259 0.182121 -0.0862303 0.144077 0.434572 -0.422245 -0.411351 -0.0404538 0.315551 0.244811 -0.0974715
236 0.523477 0.257297 0.483755 -0.159656 -0.438571 0.0474414 0.172334 0.136092 0.176906 0.383682 -0.0661279 0.287159 0.189065 -0.620355 0.268 -0.00352744 -0.00358869 0.0369346 0.30201 0.0923464 -0.212526 0.163124 -0.0860283 -0.206934 -0.230515 -0.621955 -0.130007 -0.533684 -0.00386543 -0.194056 -0.326876 0.278398
200 0.524704 0.261772 0.497723 -0.185141 -0.421449 0.0694915 0.185174 0.192073 0.182545 0.314087 -0.0759274 0.355559 0.165217 -0.625726 0.22268 -0.00095194 -0.055344 0.0438437 0.271095 0.130658 -0.206142 0.201129 -0.0889492 -0.211813 -0.219973 -0.561945 -0.0870184 -0.58833 0.000607578 -0.204768 -0.296052 0.252911
295 0.458787 -0.0054255 0.670864 0.0428302 -0.252197 -0.364965 -0.0388789 0.467569 0.239737 0.118395 0.148192 0.391839 0.0848921 -0.0179687 -0.252786 0.431591 -0.00127642 0.116672 0.210137 0.266404 0.11557 -0.228839 -0.0542431 -0.202789 -0.208846 -0.132374 0.120082 -0.220845 0.217016 0.0675913 -0.0907886 -0.18511
454 0.0165931 0.303976 0.712468 -0.325882 -0.446657 0.131301 0.524568 0.429091 0.223802 0.270533 -0.0910479 0.020219 0.260578 -0.514555 0.167892 -0.178368 0.401691 -0.0110633 0.355009 0.0966589 -0.244853 0.121065 -0.0826897 -0.418458 -0.471382 -0.109787 -0.439115 -0.223724 0.331252 -0.181559 -0.295212 0.174904
612 0.542324 0.218365 0.475303 -0.19438 -0.431438 0.0426931 0.148045 0.169035 0.138025 0.3638 -0.0875935 0.325019 0.19003 -0.634644 0.2124 0.0235744 -0.0426773 0.0610122 0.284904 0.0752236 -0.236819 0.179848 -0.115733 -0.226113 -0.214763 -0.584158 -0.106838 -0.549329 0.0368173 -0.201157 -0.367719 0.225415
508 0.0737262 -0.285478 0.573972 -0.14852 0.345185 0.1661 0.041543 -0.0835967 -0.215574 0.220784 0.287973 0.0208061 0.197468 0.357449 0.333308 -0.0815459 0.358767 0.47913 0.467714 0.0875709 0.101417 0.334499 0.350526 -0.244693 -0.0771619 0.334972 -0.224757 0.0945873 -0.00650297 0.0915256 0.215816 -0.0310849
180 0.519931 0.115342 0.439788 -0.0694004 -0.208192 -0.0192597 0.316647 0.0536125 0.274763 0.524652 0.0187076 0.126731 0.458511 -0.310305 0.251926 0.056771 -0.323915 0.0924545 0.376516 -0.176806 0.180238 0.188202 0.311848 -0.38561 -0.137476 -0.348856 0.0483589 -0.646556 -0.139282 -0.489763 -0.131894 0.426167
282 0.0479913 0.163728 0.33534 0.154132 0.383768 -0.45445 0.191162 -0.0520725 0.346558 0.732562 0.0519134 0.152491 0.361505 0.123808 0.556631 0.0734538 -0.214389 0.173982 0.694951 0.243734 0.0387428 0.186111 -0.258035 -0.293868 0.11866 -0.223133 0.222937 -0.380352 0.302843 -0.228186 -0.0296458 0.562698
279 0.520454 0.280327 0.454272 -0.159298 -0.408775 0.0608286 0.191791 0.180127 0.191168 0.354933 -0.0873075 0.297667 0.188603 -0.654818 0.285981 -0.0262784 -0.0137012 0.0609208 0.277861 0.0982407 -0.218862 0.168354 -0.0701796 -0.200824 -0.233468 -0.630474 -0.0941908 -0.557815 0.00885701 -0.156367 -0.323063 0.266715
270 0.458594 -0.0961943 0.846644 0.199182 -0.387362 0.130257 0.115614 -0.032716 -0.101268 -0.181122 0.483688 0.156392 0.18391 -0.0998051 -0.00567763 -0.0740002 0.22937 0.260129 0.0049115 0.296902 -0.187487 -0.0503482 0.272415 0.102683 -0.216099 -0.293126 -0.121934 -0.680711 0.226653 -0.173728 -0.516278 0.209006
677 0.497115 0.227486 0.519299 -0.17709 -0.431701 0.0251295 0.165774 0.152201 0.165306 0.396577 -0.0809726 0.33641 0.177117 -0.616724 0.242206 -0.0137559 0.0116562 0.0443722 0.296648 0.0434593 -0.211632 0.174856 -0.0760404 -0.228131 -0.261774 -0.5865 -0.126786 -0.525673 -0.023474 -0.181723 -0.315101 0.278354
170 0.0141885 0.211369 -0.407954 0.0146557 0.0790992 0.483842 -0.160196 -0.13531 0.0972302 -0.257405 0.577776 0.371608 0.749668 -0.242333 -0.294836 0.29968 0.453899 0.0716671 0.219963 0.0638653 -0.327937 0.448496 0.0139952 0.122085 -0.398374 -0.355071 -0.45545 -0.445793 -0.252792 -0.19389 -0.31572 -0.31823
340 0.240462 -0.0257139 0.446549 -0.283934 -0.506295 0.0858249 0.470704 -0.0566282 -0.16602 0.272324 -0.21804 0.460345 0.100938 -0.269136 0.342324 0.287299 0.0114943 -0.00865299 0.19629 0.150713 -0.0510046 0.131088 -0.0932178 -0.169422 -0.437174 -0.654542 -0.148803 -0.360712 0.125184 -0.218736 -0.464581 0.161517
240 0.550758 0.246164 0.481743 -0.18229 -0.417532 0.0354463 0.199922 0.185021 0.167279 0.351138 -0.0512379 0.290405 0.159471 -0.620193 0.288927 -0.00807747 -0.00861187 0.0428945 0.247073 0.0943651 -0.231077 0.179406 -0.068473 -0.205535 -0.24269 -0.587379 -0.0705987 -0.604238 0.00744237 -0.1909 -0.305557 0.298996
238 0.233548 0.258071 0.557774 0.115121 -0.0731276 0.291837 0.276061 -0.209466 -0.189319 0.582952 -0.407211 0.0578293 -0.17923 -0.120779 0.0578742 0.548987 0.021843 0.298692 -0.378447 -0.234888 -0.0449769 -0.101968 -0.407285 -0.0388643 -0.544236 -0.559472 -0.151767 -0.313501 0.265616 -0.344685 -0.488789 -0.0888916
46 0.49282 0.271989 0.493118 -0.214749 -0.486011 0.0523141 0.199582 0.193827 0.184979 0.347957 -0.0469694 0.321893 0.156394 -0.626839 0.227568 -0.0251387 -0.0182792 0.0312884 0.300967 0.115196 -0.23604 0.137914 -0.0873411 -0.200905 -0.2294 -0.550831 -0.0826621 -0.553525 0.0247374 -0.203747 -0.320131 0.288299
807 -0.0683914 -0.220638 -0.0162555 0.0129209 0.295855 0.0748687 -0.0259015 -0.204839 -0.0569097 -0.16898 0.291203 0.230137 -0.175069 0.404704 -0.036295 0.158448 0.139134 0.113873 -0.0373582 -0.218255 0.354305 0.0698109 -0.366658 -0.204675 -0.04625 0.21706 -0.236914 0.0162059 0.0827283 0.0740554 0.171451 0.0664353
166 0.222966 -0.631203 -0.121421 -0.147434 0.162131 -0.330554 -0.181487 0.130788 -0.511726 0.136087 0.0784308 0.069444 -0.156645 0.134393 0.0757553 -0.0758349 0.00565892 0.179105 0.0031303 0.119665 0.0153845 0.095337 -0.223971 -0.227293 -0.0638415 0.405661 -0.311174 0.0707401 -0.189438 0.173818 0.126195 -0.282656
518 -0.0935998 -0.580779 -0.514043 -0.249164 0.45225 -0.0846444 0.150464 -0.120178 0.152946 -0.0553354 -0.138433 0.347189 -0.279868 -0.118075 -0.13734 0.617178 -0.0680939 0.0337159 -0.343055 0.193683 0.293028 -0.018975 -0.121823 -0.321989 -0.223003 0.202796 0.0320504 0.112215 0.157534 0.65731 -0.328561 -0.183264
167 -0.207172 -0.271923 0.030117 0.0132898 -0.207539 -0.186152 0.309958 0.315235 -0.445865 -0.531256 0.362611 -0.10835 -0.373798 0.0961631 0.247393 -0.482482 0.518882 0.692948 -0.234005 0.112448 0.0836591 -0.0594008 -0.157788 -0.400747 -0.0414978 0.270793 -0.250834 0.598405 -0.0876334 -0.0316224 0.205629 0.119079
64 -0.295416 -0.314102 -0.491567 -0.147208 0.0457767 -0.467681 -0.386453 -0.0482132 -0.0892087 0.201455 0.276376 -0.0318675 -0.241263 -0.397035 0.147014 0.345469 0.318471 -0.589503 -0.132878 -0.0617087 0.40638 0.00846573 -0.349846 -0.35961 0.489865 0.040664 -0.195836 -0.0416356 0.160461 0.0619355 -0.110461 0.140151
118 -0.107213 -0.195558 -0.290946 0.313327 -0.281764 -0.298012 -0.254881 -0.242326 -0.476361 -0.0241803 -0.0158153 0.156315 -0.404197 -0.197641 0.0429278 -0.108769 0.0484778 -0.647577 -0.0148752 -0.151339 0.267597 -0.107506 -0.302627 -0.385859 -0.0174585 0.138427 -0.244956 -0.0681884 -0.165754 -0.376005 0.153753 0.319289
548 -0.115246 -0.287871 -0.349708 0.0138746 -0.00475136 -0.508885 -0.422179 -0.104402 -0.366677 0.346327 -0.126853 0.0796446 0.0586539 0.23441 -0.0431562 -0.0304327 -0.100929 -0.431679 0.182853 0.064454 0.343882 0.280805 -0.363094 -0.230759 0.0412873 0.334389 -0.253677 -0.11476 -0.0264056 0.276913 0.0494302 -0.248438
436 -0.360382 -0.213881 0.0670915 0.196241 -0.484735 -0.103273 0.337185 -0.0290321 -0.0248953 -0.112059 0.172213 -0.249352 -0.244372 -0.127201 0.132659 -0.13554 0.145268 -0.546907 -0.124718 -0.0811293 -0.0887791 -0.0431801 -0.200592 -0.385158 -0.178237 0.437347 -0.696008 0.326801 0.322742 -0.236471 0.484722 0.280854
53 -0.0658925 -0.181989 -0.309971 0.281789 -0.293805 -0.331335 -0.235441 -0.228879 -0.475491 -0.0401836 -0.0345281 0.200076 -0.416941 -0.224456 0.0513911 -0.122667 0.0733594 -0.635665 0.0101092 -0.166445 0.265453 -0.0946941 -0.307911 -0.390133 -0.0687086 0.136023 -0.182 -0.0645548 -0.146684 -0.363496 0.156512 0.299234
376 0.170006 -0.165104 0.0952928 0.097341 -0.330026 0.0988739 0.272576 -0.439768 -0.19875 0.0877734 0.478336 -0.0766009 -0.00134413 0.274494 -0.470504 -0.157166 -0.330514 0.0349598 -0.334281 -0.251338 -0.132989 0.05358 -0.644349 -0.343796 -0.0934929 0.0127282 0.0913442 -0.106754 0.184592 0.256917 0.762415 -0.662275
296 -0.155918 -0.254642 0.105718 -0.161961 0.4372 0.270708 -0.471076 -0.0521619 0.329899 0.388984 0.272101 0.296611 0.419183 -0.00752257 -0.0569201 -0.0430459 0.0242755 -0.0391704 -0.0783187 -0.350863 0.548162 0.235958 0.00931406 -0.371222 -0.210431 -0.746931 -0.383927 -0.235617 -0.113177 -0.279359 0.197091 -0.377019
574 -0.675098 -0.481021 -0.572578 -0.400668 0.446239 0.244925 0.449068 0.0210561 -0.395385 0.0925727 0.238264 -0.127048 -0.288554 0.1715 0.177608 0.240103 -0.0997338 0.175307 0.113903 0.281714 0.0792091 -0.223636 -0.502422 -0.113652 -0.221981 0.30654 -0.463276 -0.268503 0.335871 0.144203 -0.199968 0.053302
421 0.214059 -0.252687 -0.131087 0.177009 0.291179 -0.117007 -0.390971 0.194958 -0.436795 0.0129851 -0.347723 -0.290965 -0.326713 0.107172 0.503293 0.0619856 0.157218 0.18264 -0.309678 -0.0614013 0.135537 0.308435 -0.540623 -0.358718 0.0439597 0.204486 0.101136 0.164053 -0.0918882 0.00108035 0.412331 -0.230279
641 0.0777139 0.0863784 -0.223202 0.28653 0.109738 0.229513 -0.0786436 -0.410422 -0.13738 -0.245711 0.378446 0.200409 -0.235482 0.0500374 -0.0840079 0.267268 0.0517742 -0.00299054 -0.00100724 -0.340797 0.0854925 0.394779 -0.00698023 -0.226394 0.156018 -0.193193 -0.649383 -0.394949 0.497625 0.395004 0.240835 -0.429014
153 -0.026625 0.00984735 -0.270717 -0.124935 0.0970894 -0.278087 -0.302032 -0.192086 -0.140675 0.386806 0.135666 -0.0113243 -0.166431 0.617771 0.180241 -0.172284 0.137643 -0.121099 0.305116 0.256062 0.216437 0.332835 -0.200273 0.012261 0.0944769 0.234318 0.314972 0.200222 0.0847683 0.382347 0.287198 -0.031198
536 -0.307956 -0.227797 0.133764 0.128804 -0.0680497 -0.114136 0.140112 -0.269695 0.383858 0.293226 0.428952 -0.442481 -0.167978 0.484664 -0.0118949 0.14078 -0.687241 0.181668 -0.438853 -0.171352 0.236759 -0.31586 0.341204 0.0102835 -0.182243 -0.128708 -0.453038 -0.147294 -0.29875 0.0205475 0.140125 0.152224
237 -0.0828737 -0.175021 -0.305713 0.284607 -0.300637 -0.34609 -0.205823 -0.26952 -0.470397 -0.0448815 0.000181703 0.182119 -0.394235 -0.200593 0.0776417 -0.0911494 0.0592139 -0.60821 -0.0398511 -0.129872 0.22339 -0.0915396 -0.241019 -0.419895 0.0250666 0.151799 -0.190965 -0.0730759 -0.20067 -0.374058 0.152757 0.276786
354 0.0348128 -0.281411 0.0496941 0.0919197 -0.336071 -0.319626 -0.0670217 -0.260315 -0.418681 -0.118824 0.392036 0.268116 -0.276703 0.082427 -0.266967 -0.284144 0.0620853 -0.18105 -0.193201 -0.0528293 0.0832757 -0.383719 -0.0206141 -0.118828 -0.0448282 0.10041 -0.231469 -0.034658 0.100386 -0.425594 0.117219 0.058049
224 -0.0110955 -0.480074 0.457229 0.0155912 0.242225 0.461366 -0.252835 -0.0823468 -0.107159 0.387817 0.238844 -0.0303454 -0.387187 -0.389082 -0.094653 0.755809 0.174107 0.486429 -0.363406 -0.148455 -0.316292 0.0526548 -0.262905 -0.0123771 0.394138 -0.263111 -0.490006 0.0914038 0.0645748 -0.0971706 0.261948 -0.146363
547 -0.0877453 -0.216238 -0.285399 0.264357 -0.300098 -0.292802 -0.210703 -0.249722 -0.445908 -0.0578533 -0.0199304 0.159196 -0.446945 -0.207619 0.0991782 -0.159296 0.0331533 -0.667823 -0.0418509 -0.150439 0.26435 -0.113708 -0.318202 -0.385103 0.00758965 0.164058 -0.20035 -0.0343102 -0.190229 -0.367075 0.142468 0.339323
420 -0.0905668 -0.157243 -0.313657 0.27392 -0.298209 -0.350383 -0.214584 -0.243245 -0.471528 -0.0612887 -0.00879062 0.163547 -0.451434 -0.185945 0.0931342 -0.140237 0.0587396 -0.671321 -0.0244752 -0.180896 0.260678 -0.115166 -0.267319 -0.410474 -0.0207503 0.154706 -0.206375 -0.0432231 -0.143436 -0.361685 0.131764 0.327332
322 0.0462049 -0.253839 0.0513151 0.170169 0.284027 -0.24149 -0.206719 -0.273521 -0.284633 0.580734 0.319127 -0.314597 0.00879709 0.628259 -0.255226 0.0695449 -0.163256 0.177881 -0.0909578 -0.192749 0.372247 -0.0512456 0.220996 -0.0495511 0.0110343 0.471657 0.0164594 -0.108481 -0.0993756 0.0958285 -0.107087 -0.0360728
67 0.0958207 -0.0474091 -0.0708384 0.0838546 -0.00126438 -0.107685 -0.243395 -0.187498 -0.400232 0.165263 -0.0585902 0.150988 0.0359279 0.316269 -0.443658 -0.232288 0.0549746 -0.0942277 -0.371845 -0.121343 0.302799 0.0549202 -0.385562 0.147729 -0.236082 0.00455934 -0.235056 -0.18259 0.0303241 -0.217493 0.392906 -0.508235
532 0.369625 -0.193182 0.0958874 -0.358432 0.467507 -0.0687824 -0.165542 -0.123135 0.234561 -0.558543 0.122033 -0.24768 -0.639564 0.100563 -0.287811 0.408023 -0.0731333 0.106819 -0.348535 -0.126845 -0.0867097 0.0504478 -0.32923 -0.414991 -0.303128 -0.265394 -0.284294 -0.28209 0.194824 0.42099 0.218424 -0.0146006
696 -0.146418 -0.455586 -0.419028 -0.0646225 -0.323489 -0.172559 -0.0356973 -0.219447 0.128448 0.0442414 0.604051 -0.0536077 -0.416064 -0.492201 0.115025 0.237847 0.138368 -0.69136 -0.306578 -0.161657 0.161369 -0.00131154 -0.223169 -0.182699 0.257811 -0.131748 -0.538684 0.047694 0.00626707 -0.160924 0.371697 0.395827
423 0.0163007 0.356187 0.130677 -0.286866 0.111898 0.112682 -0.383891 -0.454479 -0.0939623 0.289423 0.415522 0.0632198 -0.369461 0.00428105 -0.22578 0.216072 0.286925 0.147486 -0.407646 -0.370452 0.173479 0.174545 -0.395281 -0.0243427 -0.355698 -0.0718479 -0.287597 -0.413634 -0.164287 0.0219727 -0.0698058 -0.103053
160 -0.126303 -0.227694 -0.353157 0.242625 -0.175428 -0.08021 0.0793757 -0.414562 -0.293877 -0.162788 -0.0585139 0.0912816 -0.5157 -0.25113 -0.12677 -0.229303 -0.138584 -0.46474 0.0734724 0.100319 0.157069 -0.282215 -0.290141 -0.830966 0.21832 0.157846 -0.126527 -0.320363 0.151577 -0.182778 0.127626 -0.0321538
485 -0.0513771 -0.344891 -0.00447432 0.00644213 -0.136041 -0.325473 0.0933792 -0.0662574 -0.634572 0.231515 0.227836 0.189073 -0.317904 0.670365 -0.110407 0.108782 -0.0356437 -0.185297 0.206037 0.0622435 0.378525 0.442541 -0.0634099 0.0327724 -0.211024 0.0409826 -0.24426 0.158654 0.283389 0.215976 -0.229056 -0.543636
13 0.0805401 -0.198173 -0.615993 -0.120142 0.124887 0.0569684 -0.340427 0.441207 -0.441468 0.0469725 0.507654 0.123239 0.373867 0.476224 -0.32713 -0.114878 -0.117605 -0.0431803 -0.0468095 -0.0131516 0.20272 -0.0277295 -0.30654 0.196051 -0.209585 0.157774 -0.0200352 -0.085121 0.678684 0.0270759 0.0685536 -0.161752
402 -0.0228357 0.109298 -0.70199 -0.112593 0.0113513 -0.110604 0.139722 0.338106 -0.0362629 -0.570371 0.666051 0.445196 -0.410593 0.00929933 -0.135474 0.113253 0.259613 0.229563 -0.0324492 0.10957 0.477685 -0.256042 -0.308185 0.399631 0.145169 -0.179169 0.452586 0.303633 0.244889 0.104185 0.244036 0.497627
583 -0.34024 0.149214 0.46616 0.316643 0.152241 0.152765 0.139146 -0.103236 -0.192835 -0.309054 0.285445 0.379827 0.604055 0.142721 0.215421 -0.0652864 -0.0880239 0.167211 0.186762 -0.142652 0.0382607 0.275135 0.00143556 -0.177958 0.0231056 0.465545 -0.437898 -0.339223 0.155966 -0.149182 -0.0366952 0.186842
613 0.0848415 -0.268588 -0.080363 0.153855 -0.142472 -0.137199 -0.125214 -0.218317 -0.20654 0.0873527 0.204969 -0.300026 -0.0214472 0.352065 0.19266 -0.144206 -0.134394 -0.144788 0.0682448 -0.260554 0.536164 0.252182 0.327983 -0.390507 0.105361 0.237909 0.265025 -0.125471 -0.289313 -0.269771 0.333205 0.329739
95 -0.12582 -0.594584 -0.243114 -0.0316993 -0.237158 -0.530431 -0.464958 -0.18387 -0.143307 -0.0865143 0.00509306 -0.174257 -0.172472 0.429694 0.265237 0.00151251 -0.118407 -0.16652 0.0460065 -0.345168 -0.0304555 0.29508 -0.239107 -0.104761 0.153573 0.364021 0.242594 0.145587 0.13651 -0.0897373 0.0218417 -0.109085
286 0.48104 -0.140693 -0.344854 -0.419349 0.240304 -0.150636 -0.0404476 -0.055392 -0.08119 0.232379 0.150431 0.279673 -0.502899 0.597226 0.300737 -0.329595 0.201503 0.0403081 0.132855 0.410445 -0.152442 0.0926702 -0.275527 -0.0547726 0.231481 0.281277 -0.052352 0.280588 -0.444427 0.0354793 0.264132 -0.0409277
579 -0.2162 -0.191671 -0.214652 0.310134 -0.00919779 -0.544843 -0.366085 -0.0721161 -0.370126 0.18195 -0.116454 -0.0308 -0.204458 -0.0304844 0.21305 0.144677 0.00019129 -0.439569 0.00750941 -0.0020921 0.30155 -0.0327031 -0.31025 -0.449116 0.270841 0.289866 -0.100031 0.0462932 0.22647 0.0308107 0.0540063 0.0709659
158 -0.189224 0.0135976 -0.168681 0.136298 -0.238423 -0.261411 -0.331595 0.367747 -0.0542806 -0.158463 -0.0388339 -0.163713 -0.234207 0.580344 0.1371 0.58483 -0.161409 -0.232713 0.145458 0.257002 0.351935 -0.0992316 -0.0725273 -0.238317 -0.060798 0.183299 0.129218 -0.00251568 -0.393195 0.417353 0.307487 -0.12745
24 -0.407006 -0.130297 0.0622434 -0.0120562 -0.182927 -0.260966 -0.148938 0.14898 -0.248975 -0.00253297 0.0520135 -0.418894 -0.146885 0.264082 0.21292 -0.129783 0.413794 -0.214388 0.0418647 0.0271247 0.160325 0.184586 -0.183718 -0.462294 0.0222343 0.576322 -0.112319 0.278499 0.366114 0.170087 0.113006 -0.042115
183 -0.0337582 -0.0738361 -0.837068 0.378828 0.0773294 -0.299908 -0.0548874 0.0698229 -0.507912 0.145899 -0.0719553 0.397736 0.216435 -0.0921762 0.112903 0.111093 -0.103332 -0.37978 -0.134178 -0.0625943 0.13261 -0.0423454 -0.304004 0.0642669 0.201671 0.402255 -0.101684 -0.153534 0.529893 0.304123 0.0162492 0.0405323
328 -0.504683 0.347417 -0.0387514 0.0746412 -0.0578128 0.0963333 -0.341661 -0.687291 -0.430563 -0.511702 -0.204951 0.355445 -0.185126 -0.161175 -0.0918103 0.0480083 -0.0647361 -0.385793 0.26812 -0.431721 -0.17708 0.116207 -0.0351625 -0.390326 0.199564 -0.152849 -0.49119 0.166892 -0.42614 -0.394806 0.348981 0.0199482
231 0.0443848 -0.320939 -0.126455 0.13669 -0.0627201 -0.380665 -0.421924 0.225139 -0.066853 -0.0482599 -0.0429763 0.1305 -0.156182 0.401948 -0.174433 0.276477 0.00189938 -0.369557 0.213223 0.198713 0.466335 0.116734 -0.161745 -0.176068 -0.166432 0.38846 0.203101 0.110499 -0.200451 0.384068 0.306929 -0.279145
229 0.494666 -0.139123 -0.368407 0.0897513 0.418067 0.162899 0.0897718 0.470253 -0.206457 -0.282058 -0.135399 0.147565 -0.0375141 0.0545807 0.0216309 0.329953 -0.311159 0.191342 -0.0223159 -0.215498 0.459295 0.00523176 -0.160271 0.161255 -0.228569 0.347091 0.308364 -0.0323183 -0.0462545 -0.254859 0.589392 0.148603
80 0.0404837 0.0099123 -0.0436611 0.452637 0.336375 -0.287193 -0.252066 -0.137255 -0.181693 0.399271 -0.31084 -0.249247 0.171876 0.249635 0.208405 0.19333 -0.147018 -0.17446 -0.219358 -0.31059 0.713279 0.214231 -0.146491 -0.398626 0.189914 0.166635 0.118225 -0.184449 0.140064 -0.417534 0.368603 -0.0618282
625 0.164738 -0.392333 -0.418305 0.0457456 -0.273342 -0.0512081 -0.0945499 -0.204284 -0.279877 0.147711 -0.24878 -0.135835 0.137593 0.210126 -0.198205 -0.25916 0.0590762 -0.683034 0.283786 -0.145778 0.477901 0.223096 -0.685312 -0.0681015 -0.00962809 0.035046 -0.350625 -0.0514881 -0.478522 0.28748 -0.00118866 0.0190985
60 0.0604121 -0.284964 -0.155081 0.049356 0.148564 -0.348252 -0.327831 -0.11773 -0.264072 0.386529 0.1332 -0.191868 0.231515 0.564314 0.0731808 -0.0382764 -0.187469 -0.177668 0.176952 -0.0702908 0.549756 0.404247 0.1601 -0.245235 0.15231 0.396312 0.0794311 -0.173559 -0.140356 0.0954563 0.273445 -0.0890911
808 0.109723 -0.084958 -0.00259565 -0.0650184 0.471176 0.188313 0.257605 -0.186935 0.306582 -0.0356643 0.259864 0.0203568 0.301283 0.404544 0.0667917 0.261146 -0.135333 0.285631 0.13161 -0.347773 0.455022 0.135052 0.159841 -0.262248 -0.000604647 0.264374 -0.055307 -0.226176 -0.0210264 -0.15528 0.12657 0.21929
190 -0.270487 -0.364762 0.0475287 0.288547 0.398206 -0.188729 -0.177547 -0.279232 -0.37838 0.228589 -0.147398 -0.0209959 0.371067 0.148363 0.0777045 0.184517 -0.219074 -0.165798 0.317497 -0.315688 0.403947 0.105815 0.406089 -0.449594 0.587642 -0.00289663 -0.204032 0.183965 -0.0223131 -0.322372 0.310332 -0.0658712
49 0.522145 0.0717062 0.369237 -0.0625513 -0.173968 -0.0266081 0.338194 0.0465864 0.236672 0.511332 0.00993334 0.142682 0.453538 -0.296216 0.238234 0.0690841 -0.34508 0.0993284 0.341654 -0.167607 0.194282 0.191896 0.306631 -0.377101 -0.107711 -0.365276 0.0498728 -0.623623 -0.123135 -0.45169 -0.146418 0.414453
584 0.0174521 0.738519 0.15922 -0.294197 -0.352006 0.115862 0.117744 -0.140834 0.215492 0.160592 0.0392739 -0.0361055 0.286152 0.181443 0.420589 0.342478 -0.45662 0.184072 0.318835 -0.167119 -0.0275146 0.335669 0.245359 -0.370862 -0.29063 -0.335858 -0.10761 -0.808863 -0.6583 -0.251125 0.00581483 0.31155
559 0.123383 -0.0970379 -0.00821795 -0.169037 0.146157 -0.129631 -0.0924681 0.291272 -0.107971 0.0617834 0.144125 -0.65582 0.18914 0.281189 0.118178 0.0769769 -0.410552 0.130114 0.299489 -0.0915757 0.424533 0.235436 0.189291 0.00949305 0.33331 0.0539858 0.455444 -0.128493 0.38464 -0.275769 0.0676693 0.327423
50 0.302756 0.214801 -0.290235 -0.347684 0.581644 0.066313 -0.124285 -0.0706425 -0.203692 0.121354 0.121975 -0.101844 -0.0544581 -0.155202 0.0526533 0.614728 -0.0904794 0.359419 -0.416949 -0.365755 0.138401 0.464344 -0.30846 -0.202624 -0.0923921 0.138255 0.00275066 -0.175109 0.217399 -0.0690687 -0.0476827 0.408442
578 0.0715949 -0.106604 -0.0500505 0.230555 0.223788 -0.376495 0.0106863 0.124682 0.137985 0.454897 -0.199413 -0.321705 0.532639 -0.0254031 0.325164 0.227075 -0.360489 -0.0713563 0.234445 -0.06913 0.416524 0.11377 0.382172 -0.290507 0.397712 0.137868 0.244602 -0.191583 0.113184 -0.18718 -0.0799531 0.209215
585 0.165869 0.040265 -0.0601091 0.144354 -0.0206141 -0.0462785 0.301116 -0.0990583 0.216318 0.270363 -0.14379 -0.0762493 0.427497 -0.191358 0.212807 -0.0661562 -0.435975 -0.184762 0.288693 -0.219035 0.260347 -0.000272675 0.657581 -0.171033 0.0535494 -0.0594294 0.171415 -0.275466 -0.352362 -0.574507 -0.0307269 0.500144
111 0.148241 0.610505 -0.197809 0.0390839 -0.202981 0.286993 0.240731 -0.532617 0.336413 -0.185908 -0.396624 -0.354571 0.325913 0.0295822 0.218039 0.0108289 -0.188845 -0.490937 0.440613 -0.522738 0.217077 0.376931 -0.102019 -0.253215 -0.0535968 -0.133854 0.0885238 -0.291281 -0.858234 -0.273312 0.0221961 0.612547
449 0.251183 0.343807 0.064248 0.385199 0.247447 0.176719 0.119994 -0.0517746 0.184939 0.240856 -0.546699 -0.231291 0.394717 -0.0558478 0.186214 0.0515246 -0.323056 0.00421622 -0.248946 -0.385288 0.430466 0.166688 0.194645 -0.0518163 -0.0330632 -0.225141 0.283777 -0.256958 -0.118303 -0.809097 0.357564 0.0513298
636 0.201808 0.0261222 -0.0589838 0.120516 -0.0064216 -0.0551131 0.301053 -0.133656 0.219187 0.275124 -0.138251 -0.1426 0.410259 -0.196426 0.224175 -0.0940363 -0.465846 -0.175367 0.295583 -0.233492 0.288911 0.0267051 0.652722 -0.186467 0.0797762 -0.0825876 0.195735 -0.31458 -0.350674 -0.557508 -0.0678248 0.52129
472 -0.0683851 0.329264 0.356025 -0.261053 0.220252 -0.364599 -0.086177 -0.0840031 -0.0492817 0.129243 0.272425 0.11599 0.32751 0.214068 -0.106288 0.0906856 -0.415077 0.16985 0.559628 -0.0304245 0.195308 0.254872 -0.398011 -0.0871826 -0.204238 -0.0366559 -0.24255 -0.669733 0.174604 -0.462428 0.0215652 0.203844
157 0.243913 0.0648102 -0.0592551 0.127373 -0.0419757 -0.0238549 0.304517 -0.142896 0.168277 0.295543 -0.12257 -0.110049 0.42238 -0.161729 0.168391 -0.0800721 -0.473006 -0.173562 0.27018 -0.170281 0.256205 0.0337208 0.639687 -0.17204 0.0633436 -0.0648952 0.193725 -0.335462 -0.320657 -0.557682 -0.027835 0.491555
79 0.0138544 -0.361763 0.143494 0.622902 0.130489 -0.283407 -0.291228 -0.197033 -0.249898 0.00306356 0.181752 -0.273102 0.168444 0.253334 0.35122 0.227927 0.0403178 -0.287916 0.045794 0.00466918 0.591565 0.187284 0.34667 -0.345503 0.267294 0.375187 0.0273093 -0.423542 0.102744 -0.163652 -0.123222 0.331727
66 0.136159 -0.277046 -0.792337 -0.116297 0.151403 0.0035178 0.251368 -0.329993 -0.00303023 -0.0244607 0.617544 0.0423616 0.30873 0.0483192 -0.486628 0.0214301 0.0765198 0.0321745 0.0233258 0.166443 0.394932 0.18553 0.118695 -0.0222507 0.10975 0.404059 -0.0285419 -0.513622 -0.0478646 0.0209201 0.0149002 -0.390398
259 0.0708072 0.0770871 0.0492034 0.26484 0.230544 0.0791418 0.357373 -0.270804 0.216864 0.56794 -0.110066 -0.388437 0.0596336 -0.122189 -0.13087 0.245313 -0.51541 0.0824192 0.0374707 -0.397394 0.0156423 -0.347113 0.528804 -0.0676228 -0.0585999 0.102714 0.0529452 -0.203397 -0.362256 -0.431159 -0.52755 0.529957
706 0.233652 -0.0450735 0.0410664 -0.0124405 -0.149759 0.119667 0.0418162 -0.0532894 0.119203 0.049338 0.0945391 -0.407575 0.297619 0.151259 0.238855 -0.142874 -0.31748 0.100764 0.136346 -0.177318 0.270609 0.280327 0.709793 -0.0749127 0.159587 0.0259117 0.528288 -0.170616 -0.35303 -0.159294 0.142929 0.31776
646 0.215729 0.101664 -0.0628102 0.131388 0.000421439 -0.0618584 0.271242 -0.120517 0.230752 0.290855 -0.100837 -0.108147 0.41159 -0.214872 0.251614 -0.0662352 -0.446141 -0.169107 0.234537 -0.222959 0.264707 0.0310258 0.629275 -0.152256 0.0806663 -0.0910245 0.193185 -0.286769 -0.339491 -0.55821 -0.0664662 0.52239
809 -0.078288 -0.0443756 0.0955273 0.0274249 0.478888 0.299806 0.111583 -0.26142 0.194547 0.175139 0.140257 -0.0941685 -0.212565 0.294876 -0.202905 0.393525 -0.11208 0.3262 -0.176257 -0.316849 -0.0208431 -0.147931 -0.18981 -0.0175428 -0.175094 0.206951 -0.185269 0.0623236 -0.0391534 0.215276 -0.343801 0.0896899
397 -0.38338 0.34881 -0.191446 0.0277806 -0.140032 0.134441 0.173793 0.054233 0.0833058 0.38909 -0.133824 -0.528008 -0.231756 0.0760536 -0.000766488 0.453064 -0.48352 0.163549 -0.140051 -0.0265196 -0.418532 -0.538001 0.190426 0.143124 -0.124711 -0.184191 -0.220379 -0.17247 -0.400021 0.0775511 -0.550779 0.298029
221 -0.10281 0.0750261 -0.156768 0.194327 0.0608634 0.337939 0.374782 -0.40357 0.121625 0.211412 -0.286865 -0.339063 -0.437504 -0.388587 -0.404069 0.130147 -0.381159 0.0230296 -0.0417357 0.0161516 -0.430152 -0.62236 0.10363 -0.445058 0.10245 0.0488625 0.0244771 -0.285795 0.0734008 -0.00215044 -0.611572 0.104303
174 -0.0949117 0.14742 -0.0301569 0.237549 0.0453858 0.171572 0.134962 -0.211549 0.0679195 0.423783 -0.231565 -0.284454 -0.321878 -0.363668 -0.184913 0.148152 -0.295081 -0.0583968 -0.154887 -0.195767 -0.445427 -0.460443 0.124849 0.158252 -0.155397 -0.0419378 -0.0815192 0.00418391 -0.264048 -0.0854164 -0.733207 0.372706
70 -0.261906 0.8138 -0.0424062 0.130857 -0.0617307 0.191645 -0.0223983 -0.553609 0.128645 -0.104119 -0.210021 -0.109128 -0.488106 -0.319641 -0.0758094 0.282684 -0.248382 -0.116638 -0.0623507 -0.437138 -0.590092 -0.21966 -0.062679 -0.0362485 -0.348903 0.106822 -0.103467 -0.120716 -0.570662 -0.201259 -0.577615 0.480233
241 0.220351 0.168822 -0.354108 0.581265 0.0874086 0.396481 0.185674 -0.104638 -0.0145007 0.201386 -0.030369 -0.255541 0.031807 -0.0298618 -0.0308721 0.27666 -0.286144 0.219279 -0.77262 -0.274411 -0.367469 -0.121771 -0.138977 0.602694 -0.0927084 0.109682 -0.0519699 0.0490629 0.326155 0.256198 0.216174 0.0519635
205 -0.0557142 0.0805513 -0.242288 0.383694 0.114754 0.351588 -0.172019 0.0877563 0.163877 0.448363 0.122532 -0.224087 -0.0568333 -0.0697597 -0.224424 0.144897 -0.206824 -0.0846125 -0.0903291 -0.215712 -0.623739 -0.527969 0.0665654 -0.196773 -0.396245 -0.212735 -0.0543151 0.154452 -0.0514562 -0.234608 -0.750775 0.345993
122 -0.0586082 0.197576 -0.0324622 0.196064 0.0567808 0.10595 0.145934 -0.249524 0.0522626 0.455066 -0.24746 -0.31995 -0.323222 -0.338948 -0.187867 0.217541 -0.248514 -0.0601196 -0.168909 -0.207502 -0.477279 -0.477315 0.158061 0.170973 -0.188159 0.0231779 -0.0505341 0.00792671 -0.267377 -0.0944785 -0.739789 0.387624
462 0.0390445 0.0322622 0.258291 0.0895504 -0.0501217 0.0365865 0.283617 -0.246874 -0.0950969 0.228315 0.275677 -0.138516 -0.250711 -0.0716478 -0.508018 -0.0022783 -0.174096 0.305397 -0.308004 -0.146977 -0.455983 -0.739765 0.362659 0.276793 -0.123805 -0.0225459 -0.109612 -0.00165474 0.0452259 -0.265572 -0.613174 0.14936
660 0.0475734 0.0597651 0.264548 0.102967 -0.0633368 0.04686 0.24285 -0.215257 -0.0663984 0.26362 0.239006 -0.122885 -0.247929 -0.0580884 -0.502978 0.0262242 -0.165398 0.306559 -0.337069 -0.11673 -0.419364 -0.753606 0.341326 0.305466 -0.120946 -0.00498467 -0.119936 0.0244341 0.0312541 -0.202472 -0.623917 0.172676
810 -0.445684 0.165878 -0.218594 -0.29966 -0.0723848 0.126615 0.198981 0.275936 0.0153655 -0.0504129 0.146525 -0.171153 0.0339613 0.687142 0.265355 0.598693 -0.304632 0.336757 -0.0784284 0.126174 0.0373243 -0.243593 -0.0699185 -0.14451 -0.0154674 -0.17364 -0.317497 -0.294705 -0.240826 0.252786 0.135209 -0.0440609
521 -0.249069 0.175881 -0.205913 -0.11788 -0.23248 -0.114368 -0.208539 0.324416 -0.0806703 0.103021 -0.0361469 -0.550313 0.137094 0.443514 0.46261 0.303809 -0.2336 0.0752465 0.0319994 0.27273 -0.0341408 0.128341 0.129463 -0.0386612 0.258445 -0.117733 0.150542 -0.0812238 -0.0651374 0.450286 -0.0154986 -0.140422
817 -0.14633 -0.00603688 0.262692 -0.0533171 0.106389 0.396439 0.174573 0.269032 0.243467 -0.335507 0.160411 0.437101 0.159528 0.48365 0.0620432 0.0856713 -0.175056 0.172015 -0.229919 -0.396867 0.143083 0.238965 -0.414813 -0.21539 0.437224 0.38487 -0.0731849 0.0251791 -0.0555528 0.141287 -0.323534 0.133675
669 -0.372231 0.437672 -0.380747 0.0229666 -0.0906354 0.425579 0.00519752 0.24737 0.144268 -0.635408 0.397633 0.225245 0.512198 -0.201122 0.111898 0.274616 0.362946 -0.375419 -0.506444 -0.102421 -0.353415 0.438377 0.0616089 -0.381857 -0.100918 0.23396 -0.118235 0.00286428 0.244691 0.132493 -0.643788 0.447002
151 -0.443658 0.225555 0.367775 -0.0471701 -0.455271 0.311018 0.538936 0.598064 0.0857646 -0.325815 -0.206401 -0.054511 0.249379 -0.29731 0.171242 -0.352388 -0.0520209 -0.251915 -0.153296 -0.151271 -0.161232 0.0890123 -0.0216295 -0.368674 0.208647 0.579971 -0.0727749 0.267771 0.0154399 -0.166892 -0.482811 0.211943
644 -0.703773 0.481979 -0.0858711 -0.459978 -0.169178 0.150237 -0.0335856 0.646582 0.119339 -0.313207 0.171032 -0.296898 -0.180925 -0.00384608 0.167687 0.783778 -0.0187296 -0.109272 -0.124268 -0.311472 -0.059243 0.351023 -0.253796 -0.0290181 0.657306 -0.0393669 0.244246 -0.508675 0.0203541 -0.119566 -0.21649 0.143098
812 0.0757131 -0.0132665 -0.332455 0.0448518 0.400275 0.321227 0.269209 -0.0489887 0.150614 -0.339404 0.226934 0.453391 0.265458 0.219309 0.0611176 0.246508 0.0238795 0.303566 -0.0539041 -0.300179 0.023169 0.081304 -0.20688 0.145222 -0.00337104 0.262132 -0.20745 -0.151479 0.310674 0.328123 0.0476462 0.073535
427 0.422875 -0.167554 -0.759131 -0.0166877 0.180148 0.164659 0.491696 0.420534 -0.192736 -0.143366 -0.290591 0.442402 0.179554 -0.697572 0.404067 -0.0953515 -0.211598 0.227675 -0.0285736 0.0162142 -0.56342 -0.0579952 -0.00234198 0.242001 -0.0978562 0.196111 -0.123415 -0.0395298 -0.207605 0.177203 -0.0567054 0.25051
208 0.222922 0.272465 -0.799741 0.195879 -0.0903223 0.153714 0.442958 0.191365 -0.0418974 -0.0679414 -0.241513 0.528468 0.48442 -0.579354 0.0767255 -0.135246 -0.227065 -0.2017 -0.0828028 -0.00413049 -0.391376 -0.152147 0.097196 0.615132 -0.0181661 0.04122 0.0498488 -0.252215 0.243416 0.155998 -0.203324 0.279403
17 0.2314 -0.289259 -0.105273 0.63451 -0.122147 0.187847 0.259745 0.048205 0.200218 -0.495545 0.295438 0.131959 0.0506309 0.106785 -0.116357 0.282419 -0.167902 -0.0815212 -0.162882 0.389263 0.00833193 -0.224981 0.287827 0.00545631 0.0498695 0.387668 0.108316 -0.244977 0.513098 0.502316 0.286223 -0.0848721
626 0.182407 0.316524 -0.827229 0.210235 -0.115743 0.156491 0.449844 0.191143 -0.0717466 -0.0920932 -0.252447 0.555838 0.525563 -0.56203 0.028409 -0.103653 -0.226642 -0.201248 -0.084436 -0.0298336 -0.3853 -0.172268 0.147556 0.590911 -0.0199137 0.0251725 0.0691661 -0.273805 0.249347 0.167865 -0.149005 0.225884
338 -0.133382 0.54727 -0.488071 -0.216377 -0.0135592 0.308945 0.521371 0.215022 -0.0687281 -0.506245 -0.32289 0.2501 0.0194022 -0.514837 0.441992 -0.146265 0.131062 0.116035 0.106305 -0.176266 -0.672505 0.15663 -0.153984 -0.0575798 -0.501642 0.568404 -0.307565 0.0381728 -0.222951 0.104729 0.0825439 0.189873
36 0.159932 0.0616646 -0.816529 -0.115396 -0.0264684 0.0407851 0.248325 0.165595 -0.140576 0.238546 -0.215398 0.597942 0.646974 -0.202439 -0.246325 -0.209356 -0.286901 -0.269682 0.158407 0.0515376 -0.119283 0.129132 0.0218588 0.616077 -0.26513 0.183185 -0.191769 -0.407988 -0.0263885 0.464429 -0.130598 -0.132591
413 0.219149 0.519173 -0.604594 0.416245 0.148146 0.324465 0.271479 0.170221 -0.0504619 -0.00711406 -0.574662 0.349661 0.478596 -0.402878 -0.00504629 0.0100564 -0.144374 -0.0445383 -0.477493 -0.224922 -0.0767904 -0.0365234 -0.255028 0.57085 -0.1302 -0.18527 0.10793 -0.260445 0.426017 -0.123143 0.196385 -0.119767
114 -0.047185 0.182398 -0.154899 0.388729 0.290851 0.529421 0.246671 -0.354223 -0.0945551 -0.280592 0.0257375 0.513714 0.421403 -0.0643397 0.209078 -0.0400179 0.200196 0.0874479 0.351283 0.191737 -0.425036 -0.0135058 0.598736 0.654136 0.353431 -0.193481 0.185048 0.163376 0.287325 0.159894 -0.0592826 0.310082
316 0.189615 0.277824 -0.827687 0.190099 -0.132322 0.143386 0.467811 0.213923 -0.0766504 -0.0517229 -0.26642 0.542964 0.51343 -0.560858 0.0426608 -0.125085 -0.233152 -0.227507 -0.0715999 -0.0157361 -0.364275 -0.136212 0.0964028 0.570369 -0.0234968 -0.00517861 -0.0144223 -0.251199 0.210337 0.191044 -0.159487 0.25275
568 -0.140729 0.0383757 -0.517489 0.184433 0.162405 0.355444 0.380891 -0.0538967 -0.281883 -0.164911 -0.37742 0.603446 0.732012 -0.534271 -0.181487 -0.000655704 -0.257635 -0.0286186 0.196176 -0.240699 -0.448802 -0.200203 0.409942 0.479847 0.422389 -0.3164 -0.285862 0.165753 0.160379 0.0546062 0.0394615 -0.0852613
165 0.169356 0.274442 -0.844189 0.226701 -0.100307 0.120398 0.464907 0.18278 -0.0852311 -0.0794524 -0.224239 0.525977 0.5046 -0.576191 0.087848 -0.107444 -0.18719 -0.206547 -0.108274 -0.0301991 -0.367938 -0.141117 0.106902 0.584445 0.0134252 0.0328202 0.0197434 -0.225445 0.252205 0.168777 -0.175404 0.267579
664 0.088529 0.208591 -0.207317 0.101557 0.326073 -0.0625591 0.587729 0.295846 0.616149 0.0155687 -0.0775204 0.491528 0.202301 0.193522 -0.100163 -0.243332 0.146875 0.0299146 -0.859961 -0.0745562 -0.0907876 -0.312524 -0.0311694 0.539493 0.248361 -0.432827 -0.0419479 -0.451287 0.30304 -0.239701 0.013333 -0.524348
813 0.0196175 -0.105675 0.0157687 -0.133462 0.189959 0.266589 -0.0872063 -0.00685011 0.110025 -0.259851 0.373161 -0.077771 -0.0631251 0.455074 0.0477387 0.143547 0.114929 0.346312 -0.0517142 -0.136015 0.125629 0.248455 -0.0973873 -0.0426626 0.0338129 0.177279 0.0671437 0.0315096 0.057162 0.336787 0.189941 -0.104563
203 0.225547 -0.168126 0.45898 0.261216 -0.395369 0.165375 -0.143819 -0.113201 -0.197762 -0.523309 0.50503 -0.249768 0.0429604 0.290127 0.0302912 -0.186031 0.259463 0.160018 -0.194564 0.321507 -0.124064 -0.0555887 0.501037 0.324952 0.00477235 0.0151575 0.162188 -0.28551 0.0667899 0.0698145 -0.310075 0.149029
465 -0.298515 -0.0475151 0.122132 0.179386 0.161041 -0.204518 0.0718284 0.0485639 -0.290274 0.350338 0.321114 -0.308286 -0.440519 0.4925 -0.336254 -0.0610964 0.0672427 -0.0259262 0.113864 -0.130313 0.0572396 0.20776 0.038136 -0.0793207 -0.172353 0.554443 -0.405464 0.316938 0.238428 0.344424 -0.330493 -0.326734
204 -0.115671 -0.0552439 0.0245706 -0.111968 0.187643 -0.196636 -0.188421 0.171042 0.731252 0.032867 -0.0522293 0.183524 -0.156398 0.441077 0.0645953 -0.0901042 -0.0657625 -0.0702458 0.308048 0.413594 0.307886 0.0970761 0.0374623 0.232714 -0.197959 -0.0525265 0.594801 0.267416 -0.0592665 0.629591 0.166009 -0.16817
215 0.0313764 -0.207342 -0.299188 -0.0915925 -0.14225 0.178682 -0.502909 0.344962 -0.364508 -0.277399 0.48495 -0.312098 -0.201536 0.373275 -0.113688 -0.180402 -0.113735 -0.216739 0.0522535 -0.0627988 0.0832158 0.0191724 -0.309079 -0.301581 -0.157686 -0.215246 0.0798163 0.175965 0.342442 -0.448523 0.0456296 0.277263
100 0.400097 -0.301153 0.194183 -0.169413 0.128113 0.152179 -0.0866829 0.516884 0.145357 -0.0638364 0.0940108 0.304089 0.0502483 0.537535 -0.0181831 0.0664002 0.482701 0.286549 0.393849 0.0983448 -0.317212 -0.289 0.0652056 -0.49416 -0.084153 -0.139019 -0.497442 0.293635 0.063292 0.0544148 0.0857273 -0.532495
96 -0.036571 -0.151227 0.354512 -0.121377 -0.136905 0.282274 -0.0385089 -0.179233 -0.29756 -0.300408 0.17539 -0.0490291 0.236854 0.156701 -0.248384 -0.229305 0.0139568 0.302685 0.0855958 -0.0720541 -0.284478 -0.106199 0.596241 0.241268 0.437761 -0.355994 -0.0392339 0.370356 -0.067247 -0.0999509 0.19674 -0.337638
192 0.494764 -0.0687646 0.137659 -0.469993 0.194924 -0.0506633 -0.0434042 0.220558 0.028454 0.51457 0.0497818 0.138011 -0.0597727 0.146743 0.578845 -0.114992 0.0933983 0.449655 0.464335 0.313185 -0.162948 0.507045 -0.214264 -0.10635 -0.146027 0.0130602 0.22899 0.0254875 -0.0705895 0.467378 0.111277 -0.0102889
86 -0.213321 -0.263397 0.00397925 -0.204992 0.0690543 -0.265342 -0.369126 0.0921852 0.355003 0.0768134 -0.114545 -0.196725 0.189862 0.277265 0.0996839 -0.375485 -0.290696 -0.0292597 -0.0261239 0.259939 0.264134 0.408584 -0.0339687 0.14454 -0.0565491 -0.0869966 0.135464 -0.0779398 0.00120983 0.642609 -0.0908942 -0.426917
220 0.20132 0.24518 0.219185 -0.153525 -0.108708 -0.0363186 0.308569 -0.250035 0.0409675 -0.0464793 0.728272 -0.182224 0.00378236 0.399472 0.299856 -0.179994 0.0145533 0.128305 0.191925 0.139987 -0.381866 -0.227052 -0.0223255 0.291631 0.144086 -0.152289 0.863473 0.448942 0.131907 0.0765508 0.060287 -0.145931
438 0.120643 0.103813 0.0860552 0.0839996 0.303124 0.302406 0.400828 -0.0298861 0.0102184 -0.0499381 0.207057 -0.317591 -0.320672 0.0315098 0.510224 0.0571582 -0.365201 0.417698 -0.0556653 -0.011265 -0.348961 -0.208703 -0.259874 -0.525742 0.499712 0.527044 0.747657 0.407885 -0.00742364 0.376547 -0.461257 -0.0871456
336 0.0960333 0.33707 0.0988016 0.303489 0.105742 0.402432 -0.177067 -0.107346 -0.0549362 0.267032 -0.278043 -0.623093 -0.307357 0.100427 -0.0731095 0.173338 -0.00318702 0.293789 -0.576522 -0.316935 -0.13881 -0.0575298 -0.0613213 0.22987 -0.109926 -0.092409 0.265315 0.10424 -0.00326257 -0.0216539 -0.190824 -0.0674221
456 -0.238332 0.011764 -0.250956 -0.170375 -0.165338 -0.372601 -0.237593 -0.0453941 -0.436001 0.0810125 0.459508 -0.384586 0.170116 0.549794 0.331604 0.376657 -0.318506 -0.198371 0.139358 0.0211337 0.121798 0.0930767 -0.373493 -0.144783 0.0600702 0.138825 0.117279 0.00784643 -0.332803 0.470248 0.166893 -0.609634
218 0.12413 -0.0806562 -0.183688 -0.360641 -0.302491 0.0705242 -0.281589 0.0533527 -0.113674 0.117081 0.00397139 -0.0868737 0.213533 0.246134 -0.133777 -0.355043 -0.069073 -0.130928 0.193486 0.170754 0.0274658 0.465328 0.220811 0.271872 -0.17229 0.137316 0.121132 -0.118171 -0.394996 0.489897 0.0409471 -0.275539
680 -0.0126226 0.255149 0.0606609 0.0732605 -0.37763 0.226383 0.0439253 0.0718817 0.0335788 -0.0484211 0.128885 -0.562051 0.0287915 0.496543 0.0787316 0.228733 -0.338096 0.281897 -0.602316 0.035387 -0.121945 -0.0257778 0.00305065 0.3127 -0.0454551 -0.353525 -0.206599 -0.0809061 0.011737 -0.00543886 0.656815 -0.314856
69 0.177984 0.105421 -0.0518349 -0.151856 -0.490498 0.225838 -0.166465 0.103564 -0.00883601 -0.250171 0.020433 -0.376639 -0.131121 0.0125846 0.267981 -0.266157 0.102425 -0.0558826 -0.043897 0.0463974 -0.122124 0.334133 0.410535 0.100951 0.0562736 -0.0573959 0.530078 0.0891816 -0.269986 0.216429 0.0432233 0.122256
331 -0.174705 0.0821317 0.340332 -0.248438 -0.40722 0.0920761 0.262214 0.221019 -0.0268916 -0.243106 0.284169 -0.355647 0.0613017 0.199521 -0.0975423 -0.446195 0.38115 0.160006 -0.0973693 0.102826 -0.22969 -0.133994 0.339627 -0.00362555 -0.148254 0.334549 -0.0157034 0.250241 0.26387 -0.0157977 -0.0227878 -0.109971
244 0.160436 0.0852903 -0.061988 -0.119237 -0.439415 0.222728 -0.178024 0.0658505 -0.0555617 -0.209421 0.0117816 -0.427988 -0.0813411 -0.00921471 0.282309 -0.283123 0.0702049 0.00527288 -0.0372455 0.0127789 -0.13662 0.307628 0.397392 0.12919 0.021251 -0.0670581 0.52364 0.0995737 -0.221181 0.212252 0.00612956 0.142324
62 0.138412 0.101023 -0.0614701 -0.139414 -0.50471 0.247383 -0.194942 0.110391 -0.0452144 -0.263044 0.0130462 -0.425548 -0.0953712 -0.0345914 0.302961 -0.314093 0.102505 -0.0288774 -0.0447805 0.0466899 -0.0789529 0.338435 0.426549 0.0960126 0.0509642 -0.0911639 0.55367 0.110533 -0.213504 0.197718 0.0599526 0.134455
617 0.172747 0.0906013 -0.0492092 -0.1237 -0.464076 0.239292 -0.231841 0.104629 -0.0701499 -0.26598 0.0276315 -0.484425 -0.0681449 0.0408427 0.349934 -0.317761 0.0851936 -0.0197304 -0.0493692 0.0474993 -0.0941716 0.381281 0.419688 0.139126 0.0461045 -0.0382486 0.597235 0.161455 -0.254743 0.251515 0.0933008 0.0916427
7 0.307176 -0.0726435 0.465596 0.618128 -0.0624417 0.282579 0.0376511 -0.241745 0.0690452 -0.141117 0.310039 -0.413983 0.224728 0.400771 0.17021 0.0900989 -0.115173 0.166289 -0.521798 -0.088739 0.245191 0.151332 0.4403 0.22885 -0.0441205 -0.00962791 -0.00529211 -0.288583 0.173935 -0.323032 0.480325 0.10941
672 0.134567 0.0869511 -0.045371 -0.115126 -0.47924 0.243465 -0.219815 0.123868 -0.0480862 -0.234371 0.0273588 -0.465248 -0.112186 -0.0167032 0.298882 -0.301145 0.102989 -0.0168696 -0.0531457 0.0415081 -0.106812 0.345713 0.405464 0.109481 0.0766808 -0.0585718 0.546677 0.0905087 -0.240766 0.246343 0.0573094 0.130197
9 0.114929 0.0703781 -0.619055 0.193285 0.0224542 -0.0596462 -0.0171069 0.226114 -0.164957 0.060894 -0.060462 0.072016 0.439405 0.00184403 0.228073 0.0535972 -0.156315 0.00825873 -0.0830739 0.109274 -0.100899 0.184995 0.0360342 0.400624 0.227892 0.282761 0.290938 -0.0834182 0.513934 0.621181 -0.0931636 -0.0421365
265 0.140543 -0.186843 -0.044206 -0.337602 0.171406 0.00066442 0.0908002 0.0165254 -0.159376 0.0269415 0.243115 -0.342366 0.144119 0.427947 -0.374155 -0.173279 -0.472845 0.187983 0.285514 0.103607 0.433036 0.068052 0.165682 -0.238055 0.259628 0.176358 0.203172 -0.386986 0.376648 -0.111344 0.130939 -0.219794
607 -0.483606 0.211571 0.252955 -0.282231 0.0569349 0.383461 0.274805 -0.0536133 0.0524648 -0.0916827 -0.0820996 -0.143077 0.102174 0.206624 0.208922 -0.307104 0.440021 0.182294 0.528454 0.0962815 -0.42386 0.0939524 0.453798 0.0425823 0.278167 -0.0486019 0.11357 0.796655 0.210971 0.0459204 0.275716 -0.0207435
527 -0.271434 -0.190649 0.131506 0.160405 -0.220686 0.0589299 -0.496218 0.310956 -0.00349676 0.147043 -0.121678 -0.350953 -0.0831229 0.107852 0.177574 0.373467 0.0846535 0.0682227 0.113571 0.432398 -0.315746 0.428866 -0.0839288 0.069164 0.608815 0.0654474 0.502164 -0.0207022 0.349169 0.392728 -0.0843303 -0.0847068
113 -0.249887 -0.0399349 0.080138 0.0524892 -0.0887952 0.101003 -0.152501 0.463918 0.0304706 0.0782244 0.369617 -0.332347 0.245517 0.453356 0.0053499 -0.259373 0.343724 0.0204871 -0.0114877 0.130857 -0.219773 -0.0792624 0.115044 -0.359138 -0.185475 0.230773 -0.00844136 0.329443 0.542422 -0.0261356 -0.0885924 -0.247428
814 -0.0997723 -0.147599 -0.155414 -0.409294 0.364106 0.274843 -0.00426631 -0.0950913 0.398547 -0.17447 0.551788 0.145746 -0.0534058 -0.0567669 -0.0123859 0.447562 0.331822 0.0975288 -0.0536624 -0.297495 0.281248 0.126236 -0.199267 -0.0297658 0.186913 -0.0129306 -0.179053 -0.0878453 0.0412053 0.176262 -0.0478509 0.016229
1 -0.0447803 -0.0834702 -0.270731 -0.179048 -0.180581 0.0315079 0.00925458 0.390663 0.587644 -0.242378 0.160032 0.328143 -0.286835 -0.711191 -0.219987 0.604557 0.276812 -0.62623 0.135396 0.0283533 0.246496 -0.334866 0.132076 0.00923208 0.0330088 -0.235563 0.181371 0.0623438 -0.405276 -0.00636473 -0.145408 0.245603
132 -0.428609 -0.160404 -0.246548 -0.417702 0.151859 0.232889 0.00454849 -0.134466 0.0846015 -0.0557025 0.0789078 0.138114 0.174823 -0.828227 -0.153497 0.248945 0.210581 -0.329238 0.249966 -0.242059 -0.132286 -0.121788 0.334791 0.0668465 0.661384 -0.691613 -0.360306 0.267671 -0.202366 -0.172729 -0.128701 0.0220578
194 -0.26997 -0.150829 -0.0806225 -0.568265 -0.62159 0.222279 -0.164716 -0.149241 0.261574 -0.306653 0.587627 -0.0732562 -0.460105 -0.0209205 -0.390702 0.279924 -0.22894 -0.0440794 0.00665791 -0.422101 -0.540445 0.525989 -0.43335 0.194862 0.214592 -0.103913 0.112703 -0.13707 0.0463083 -0.191299 0.384304 0.432502
