704 32
805 -0.0700787 -0.053177 -0.229747 -0.735564 0.0958852 0.187219 0.120318 0.211622 0.336967 -0.154867 0.251474 -0.188989 -0.199103 0.491945 -0.0269079 0.21608 0.1427 -0.0494557 -0.0873099 0.367143 0.161321 -0.260077 -0.220796 0.158994 -0.102809 -0.129567 -0.0102103 0.171672 0.0533142 -0.350927 0.0117083 0.187212
566 -0.187987 0.247052 -0.0453582 0.124898 -0.054185 -0.339237 0.0490301 0.385961 -0.214502 -0.200864 -0.026383 -0.355156 0.232553 -0.279226 0.102875 0.246163 -0.0227976 -0.850748 -0.258674 0.308298 -0.720604 -0.101035 0.367545 0.4384 -0.331655 -0.526612 0.158662 0.092452 0.30239 -0.106482 0.228409 0.340893
452 -0.408099 0.0847166 0.23243 -0.0704818 0.0596113 -0.275763 -0.38857 0.0562856 0.296468 -0.0549408 0.526439 0.492342 0.314142 -0.401532 0.288916 0.288688 0.777233 -0.301876 0.379401 0.340379 0.327119 0.00841542 0.0100733 0.601834 -0.671784 -0.0901078 0.36816 0.642811 0.150148 -0.345275 0.409136 0.344699
32 -0.802996 0.227968 0.330348 0.0661703 0.298894 -0.122824 0.0581936 0.116193 0.0521973 0.413063 0.545941 -0.227808 0.431395 0.28383 0.473233 0.494146 -0.468589 -0.136504 -0.177353 0.246476 0.370644 -0.279327 0.000771543 0.868888 -0.263074 -0.164054 0.375037 -0.0363393 0.19344 0.183665 0.0304532 0.190918
230 -0.305291 -0.398854 -0.631947 -0.389739 -0.143292 0.575312 -0.140277 0.539507 2.90783e-05 0.629413 0.271722 -0.162959 -0.364026 0.618487 -0.0752754 0.21017 0.260775 -0.568951 0.167108 -0.0123827 -0.0614838 0.0288231 0.560089 -0.286153 0.395458 -0.612262 0.305828 -0.140279 0.2213 0.000806139 -0.0394 -0.410635
303 -0.374591 0.0462357 -0.392234 -0.588785 -0.1278 -0.159543 -0.0093091 -0.489934 0.497367 -0.355943 -0.506891 -0.308778 -0.560206 0.475541 -0.049531 -0.442157 -0.102468 -0.0641557 -0.0196562 0.386983 -0.0172268 0.184886 0.137383 0.447398 -0.0225065 -0.33709 0.386291 -0.0911305 -0.0545546 -0.489515 0.349856 0.0564279
529 0.158604 0.25504 -0.667755 -0.606448 -0.391494 -0.321183 0.0498173 0.188348 0.322184 -0.273408 -0.348714 -0.231557 -0.567871 0.294031 0.335284 0.445298 -0.0428384 -0.127754 0.86265 0.116558 -0.398536 -0.418559 0.214493 0.143018 -0.210179 -0.188254 -0.910634 -0.0333368 0.645235 0.277533 -0.0873649 -0.258387
513 -0.175198 -0.198799 -0.0588747 -0.324391 0.191375 -0.171876 0.426292 -0.256901 0.0203669 0.194896 0.602706 -0.416188 -0.057166 0.448583 0.245956 -0.393574 0.091522 -0.079606 0.0225262 0.639588 0.0251039 -0.288038 0.53758 0.105535 -0.150022 0.286906 0.204512 0.263589 -0.416971 -0.483475 -0.0742617 0.294822
628 0.173317 0.21306 0.139059 -0.197647 0.891583 -0.431933 0.16776 0.305102 -0.37767 -0.645102 0.171939 -0.639256 -0.352604 0.500485 -0.0251392 0.0149141 0.101171 0.148338 -0.327563 -0.219891 -0.68179 -0.0781589 -0.014331 0.340806 -0.255066 -0.0578632 -0.642446 0.796938 0.365365 -0.0837698 -0.169029 0.0913713
692 -0.01531 0.0921723 -0.557259 0.00895709 -0.0338924 -0.192722 0.122285 0.302872 0.433435 0.483578 0.0123568 -0.369055 -0.477645 0.41152 -0.0538832 0.210461 0.58991 0.0653075 -0.180012 -0.0923102 0.130952 -0.276796 -0.00404988 0.190563 0.283025 -0.533798 -0.12842 -0.544315 -0.333026 -0.537708 0.163764 0.554836
412 -0.0399503 -0.0523397 -0.212075 -0.590736 -0.178626 0.140616 0.274592 0.335417 0.0390787 0.474202 0.35281 -0.311483 -0.636342 0.145096 0.0739869 -0.302932 -0.3292 -0.0310166 0.0467155 0.33546 -0.118319 -0.203688 -0.514831 -0.155955 -0.0557677 -0.545153 0.339619 -0.0932573 -0.245932 -0.262952 -0.19966 0.314699
119 -0.190446 0.456064 -0.453964 -0.110849 0.64083 0.403569 -0.193524 0.501875 0.565323 -0.236157 0.420807 0.131676 -0.10017 0.412249 0.192871 0.330333 0.13853 0.330069 -0.153721 -0.121295 -0.325869 0.0469352 0.218079 -0.213854 -0.110742 0.105084 0.325097 0.0691001 0.293505 -0.666426 -0.104017 0.0434735
332 0.0748089 -0.238052 -0.256305 -0.509671 -0.362149 0.126684 0.00559104 0.26307 0.151195 0.0591335 -0.467074 -0.323882 -0.0139922 0.582718 -0.1301 0.121958 -0.389919 -0.868627 -0.187283 0.438633 -0.142115 0.508374 0.0769755 0.794959 0.566208 0.128986 -0.179108 0.33188 0.395927 0.367251 -0.26487 0.0904791
479 -0.112346 -0.816633 0.212626 -0.367174 -0.267362 0.308042 -0.0121485 -0.0144964 0.347969 -0.0516186 -0.308 -0.168258 -0.18534 0.208528 0.149689 -0.0236766 -0.0946681 -0.886652 -0.534717 0.0180111 -0.109047 -0.0453086 -0.126817 0.314135 -0.198835 -0.429355 0.299924 0.175009 0.100147 -0.242924 -0.164667 0.093039
563 0.090765 -0.00690369 0.384482 0.0152178 0.0401765 0.0844669 -0.260087 0.283076 0.642925 -0.706641 0.0968963 -0.319118 0.40217 0.179789 -0.603317 -0.497693 0.0769199 -0.406532 -0.167367 -0.166274 -0.195953 -0.440762 -0.458831 0.823266 -0.28884 -0.368562 0.0597058 -0.129003 -0.463418 -0.323797 0.0675977 0.247743
643 0.439695 -0.242831 -0.156829 -0.0846059 0.0413154 0.605277 -0.218146 0.608165 0.504091 0.0100565 -0.108454 0.3352 -0.391562 0.340354 0.251881 0.153718 0.12596 -0.53752 -0.18944 0.570204 -0.228886 -0.648701 0.277524 -0.1945 0.123382 0.358828 -0.11474 0.0327048 0.317414 -0.177249 0.389235 -0.0734932
108 -0.215014 0.309814 -0.596112 -0.245678 -0.180455 0.235076 -0.0967333 0.69285 0.143369 -0.0581526 0.202129 0.204223 -0.108839 0.51764 -0.195568 -0.0391951 -0.139217 -0.585888 -0.790486 0.128553 -0.623714 -0.261276 -0.385309 0.154148 -0.179638 -0.69035 -0.287681 -0.0820783 -0.119274 0.254989 -0.303394 -0.953338
800 0.058195 -0.266792 -0.14675 -0.607389 0.0672066 0.0487073 0.130475 0.0688467 0.448404 -0.178628 0.130028 -0.171628 -0.439062 0.400081 -0.107275 -0.115615 0.136198 0.124259 0.0522093 0.195085 0.22151 -0.0645484 -0.3787 0.0769129 0.079532 0.174253 -0.102716 0.0537719 -0.14749 -0.208453 -0.384353 -0.0107909
305 -0.228459 -0.402864 0.0870376 -0.728244 0.0362003 0.21519 0.0679269 0.617812 -0.315208 0.0332778 -0.177602 -0.267792 -0.277435 0.387002 -0.228843 -0.457191 0.473128 -0.000168565 -0.0320109 -0.100951 0.382809 0.504825 -0.157225 -0.251532 0.196839 0.261224 0.0287634 -0.475807 -0.227192 -0.584561 0.247092 -0.0349593
716 -0.141148 -0.369476 -0.542899 -0.593331 -0.293486 -0.637553 -0.0688121 0.11983 0.116147 0.0339433 0.372395 -0.0100496 -0.144987 0.107662 -0.195228 0.225272 -0.0177395 0.436334 -0.219983 0.407755 -0.0597666 0.0986141 -0.140142 -0.0830701 -0.266705 -0.0128395 0.0646994 0.530537 -0.48524 -0.397151 -0.138145 -0.155234
530 -0.661971 -0.227039 -0.231528 -0.137321 0.206628 0.496648 0.153031 0.0748648 0.164884 0.108714 0.593414 0.265929 -0.939642 -0.0344252 -0.164601 0.125222 -0.175339 -0.103061 -0.0592367 -0.0803955 0.0806033 0.0467015 -0.0671559 0.220517 0.501509 0.298765 0.0910169 0.159086 0.0159127 -0.105495 -0.660374 -0.196015
99 0.28756 -0.990618 -0.177246 -0.0326632 0.198234 0.350922 -0.20453 -0.142095 0.190271 -0.0620579 0.0965167 -0.385791 -0.536452 0.200507 0.130225 0.471094 0.0269334 0.27972 0.284503 -0.206969 -0.371531 0.239627 0.395509 0.16091 0.743512 0.603158 -0.0484723 -0.139384 0.0201663 -0.30019 -0.121813 0.433586
74 0.0352764 -0.679854 0.127386 0.22362 -0.631168 0.290111 -0.162746 0.0425731 -0.0167699 -0.387552 0.0769642 0.0677336 -0.230816 0.336615 0.393421 -0.589037 0.493137 -0.178251 0.0497019 0.0480069 0.339477 0.293297 0.194791 0.0254456 0.237237 -0.434874 -0.741082 0.030594 -0.942213 -0.580604 0.0616257 0.00606082
480 -0.224181 -0.231684 0.0281283 0.73175 0.0958544 -0.0438041 -0.146692 0.785714 -0.0844487 -0.142286 -0.510691 -0.435216 -0.471044 -0.0589734 0.0951046 0.0589436 -0.0648278 0.228835 0.0934929 0.905916 0.199617 -0.440917 -0.168714 0.230483 0.209071 0.552111 0.227112 -0.530087 0.163757 -0.135249 -0.522444 -0.0482002
243 0.356711 0.103572 -0.255501 -0.248079 -0.741843 0.0689515 -0.268285 0.00850516 0.694677 -0.306847 -0.396807 -0.467162 -0.152819 0.422286 -0.402861 -0.38821 -0.519751 -0.0132696 0.160694 -0.266759 0.173409 -0.262417 0.108086 0.151492 0.361254 0.179173 0.240018 -0.139303 0.152921 0.461024 -0.150669 -0.0780321
182 0.0846809 -0.493165 -0.152148 0.284107 0.285804 0.0179055 -0.0231596 0.0653697 -0.259871 -0.706446 -0.53181 -0.130369 0.172494 -0.00599385 -0.358363 -0.497962 0.273784 -0.951132 0.550711 -0.0810176 -0.58899 0.153783 -0.136868 0.171207 -0.463983 -0.232592 -0.841321 0.456881 0.0370426 -0.0619062 -0.311228 -0.0871234
422 0.0803481 0.00200769 -0.0978919 0.376601 -0.522221 -0.484925 -0.129443 0.330449 0.356481 -0.49663 -0.691513 -0.762806 0.104764 0.271207 -0.769152 -0.188949 -0.477813 0.186588 -0.194862 0.305422 -0.380064 0.425622 0.0615114 0.0382821 0.137662 0.434868 -0.231557 -0.122853 0.0500328 -0.174249 -0.256732 0.47599
8 0.718872 -0.0117816 0.233725 0.0028391 -0.164915 0.00269872 0.361888 0.0696073 0.18299 0.191651 -0.291198 0.273563 -0.440271 0.0304297 -0.540569 -0.184371 0.197262 0.122409 -0.350925 0.0738336 -0.254301 -0.523773 -0.0141355 0.65978 0.651576 -0.188654 -0.100319 -0.204136 -0.164138 -0.28366 -0.387675 -0.0264839
432 0.492588 0.653648 -0.502557 -0.219062 -0.0913825 -0.464223 0.109789 0.240001 0.576023 0.0256649 -0.736246 -0.029847 -0.498913 0.532956 -0.0441232 -0.686752 -0.151293 -0.558928 -0.272006 -0.115158 -0.36712 0.458194 0.307343 -0.00240278 0.371987 -0.00908078 -0.0705971 0.0227904 0.00249158 0.0699891 -0.386072 0.0826375
329 0.0213617 0.147444 -0.145231 -0.331917 0.120262 0.0263499 -0.0728628 -0.255571 0.410239 -0.312507 0.724009 -0.106345 0.251815 0.330542 0.3028 -0.14275 -0.36777 0.224719 0.322923 0.0370101 0.265785 0.0579403 -0.585232 -0.273335 0.621268 -0.0563727 -0.187735 0.322546 0.218854 -0.0881059 -0.459761 -0.381993
478 -0.063573 -0.367167 0.0785319 -0.340717 -0.246302 -0.0945313 -0.270305 -0.102177 0.373902 -0.508484 -0.615152 -0.0148451 -0.454672 0.228685 0.0738429 -0.150914 0.38168 -0.685817 -0.249252 -0.206304 -0.482836 -0.387245 -0.185222 0.29774 -0.307618 0.145887 0.354136 0.226267 0.0975652 0.0257535 0.0298904 0.506705
519 -0.10363 -0.267131 -0.234371 -0.43771 -0.159696 0.104217 -0.100605 0.321332 0.0952649 0.0390615 -0.375652 -0.381657 -0.356674 -0.335283 -0.477685 -0.160527 -0.0393558 0.385864 0.0164495 -0.181069 0.149428 0.0772418 -0.474138 0.492499 0.304104 -0.030478 -0.190691 0.53926 0.31778 0.463252 -0.147414 -0.433628
75 0.0646651 0.100284 -0.331299 0.230754 -0.247266 -0.263466 -0.600232 0.108964 -0.0452609 -0.576985 0.0479966 -0.105019 -0.618314 -0.413522 -0.723564 -0.235934 -0.181369 -0.644353 -0.123836 0.133542 -0.462782 0.0814491 -0.347432 0.478185 0.142711 0.337122 0.0756295 -0.503123 -0.605394 0.239802 0.0423516 0.414027
39 0.111625 -0.397144 0.0955392 0.418907 -0.258865 -0.428139 -0.194943 0.146984 -0.205801 -0.499675 -0.16367 -0.147117 0.225809 -0.112091 -0.285791 -0.48597 0.435227 -1.04397 0.10927 0.463667 -0.572848 0.34836 0.173251 0.190697 -0.73884 0.406005 -0.300592 0.157493 -0.366416 0.0547227 -0.574777 -0.224634
658 0.125275 -0.365761 0.146935 -0.257316 0.323316 -0.380256 0.397019 -0.296593 0.810465 -0.0213168 0.144927 0.0702436 0.230292 0.173807 -0.601781 0.552028 0.353348 -0.113346 -0.129622 0.035002 0.197404 0.160121 -0.503468 -0.482656 0.328468 0.190329 0.220716 -0.103854 -0.725212 0.0683836 -0.290459 0.00945808
645 0.244277 -0.268206 -0.319084 0.0678207 -0.418874 -0.544528 0.481692 0.568217 0.0709796 0.180918 -0.0369542 -0.0605502 -0.482734 -0.309556 0.198729 0.125261 -0.446346 -0.400794 -0.613077 0.102015 -0.15283 -0.300718 -0.0101893 0.171518 0.345478 0.325583 0.175405 -0.415911 0.273228 -0.660456 -0.449364 -0.0287166
104 0.783722 -0.1341 -0.851946 0.278764 -0.22409 -0.215089 -0.228351 0.00802235 -0.110897 0.120973 -0.0378322 -0.351871 -0.123854 0.682253 0.227599 -0.79827 0.414392 0.318978 0.279032 -0.0451583 0.0479733 -0.0769542 -0.126076 0.213362 0.0460287 -0.0900065 0.16662 0.296605 0.163745 0.0272873 -0.330723 -0.303937
73 -0.647676 -0.573953 -0.300375 -0.324489 0.407767 -0.488618 0.074827 0.426267 0.0758449 0.028672 0.00865925 -0.171027 -0.113622 0.418063 -0.214774 -0.132108 0.575388 -0.51385 0.0422023 -0.290691 0.271329 -0.19075 -0.0386788 0.89725 -0.303235 0.132324 0.301517 0.0538138 0.0584837 -0.113288 0.0869532 -0.0323387
81 0.45087 -0.577295 0.293701 0.652387 -0.262617 -0.148169 -0.0411682 -0.102177 -0.306947 -0.143109 -0.0965189 -0.999784 -0.0860026 0.234714 -0.145788 -0.176006 0.217416 -0.146376 -0.435052 0.398145 -0.183127 0.0511242 0.0440141 0.181348 0.0606169 -0.062225 0.0881092 -0.453389 0.261478 0.317572 -0.476198 -0.0257221
301 0.0441435 -0.462542 -0.121742 -0.322376 0.145722 0.0234786 0.192466 0.108785 0.0200345 0.170897 -0.597666 -0.117956 -0.115057 -0.0170734 0.3409 -0.684239 0.316857 -0.351381 0.120972 0.051756 -0.341852 -0.504934 -0.647313 0.068211 0.352912 0.31822 0.0165847 0.189138 -0.0114094 -0.124326 -0.202188 0.0712001
18 0.0642223 -0.0429311 -0.106528 -0.0770716 -0.725588 -0.222843 -0.184031 -0.41555 0.298642 -0.614882 0.518974 -0.016904 -0.879484 -0.391391 0.382405 -0.0611431 -0.00375998 -0.523574 0.346863 0.178653 -0.167618 0.0957539 0.372415 0.196623 -0.0590669 0.0501156 -0.394168 -0.805239 0.110978 -0.068625 0.258752 -0.507623
411 0.246567 -0.440857 0.425657 0.03661 0.747288 0.545285 -0.443531 -0.233187 0.459545 -0.136831 -0.534361 -0.100061 -0.279533 0.0362275 0.0797392 0.0132153 0.347136 -0.349297 -0.124528 0.0161266 0.100426 0.150587 -0.302189 0.446926 -0.0117361 0.386787 0.0682387 -0.153549 -0.380842 0.0713051 0.0548629 0.0999625
550 -0.117779 0.213316 -0.340469 0.361269 -0.522206 -0.231553 0.359141 -0.265084 -0.0188046 -0.484033 0.501623 -0.398327 0.151166 -0.191567 -0.252944 -0.661322 -0.56844 -0.415528 -0.539676 -0.255087 -0.538461 0.336718 -0.285917 0.147618 -0.614575 -0.214344 -0.163749 -0.334835 -0.304312 -0.04394 -1.03756 0.0539044
318 0.282462 0.15114 -0.494139 0.350037 -0.27855 -0.0160871 0.0469646 -0.366874 -0.0886592 -1.10592 0.0325721 -0.806371 -0.198761 -0.03889 -0.484779 -0.443423 -0.137414 0.346541 0.691185 0.546998 -0.163405 -0.0237361 -0.25388 -0.482351 -0.432058 -0.423484 0.109462 -0.191309 -0.34241 0.124412 0.245834 -0.1976
321 -0.135545 0.142898 0.1632 0.160105 -0.143488 -0.00989853 -0.177857 0.00273288 0.0574149 0.313248 0.249611 0.253226 -0.724271 -0.0582885 -0.0273552 -0.0565306 -0.384395 -0.285431 -0.368354 0.441693 0.217176 0.257473 -0.536635 0.830461 -0.232051 0.11356 -0.233429 -0.779707 -0.107474 0.0903516 -0.0576234 0.0568871
152 -0.379422 -0.0312131 -0.539593 0.269804 0.0121181 -0.434976 -0.210806 0.132688 -0.426522 0.306386 0.513958 -0.645256 -0.517066 0.345066 -0.207373 -0.103525 0.00317772 -0.10394 -0.129014 0.0992312 0.232243 -0.0078305 0.108037 0.134424 -0.627479 -0.0572412 0.223247 0.0649255 0.256478 1.13666 -0.868566 -0.258882
684 -0.207227 -0.0912397 0.603233 0.510474 0.0414829 -0.359306 -0.0981931 0.109365 0.0266492 -0.300607 -0.286569 -0.542901 -0.0577221 -0.186224 -0.190036 -0.483507 0.388193 0.488909 -0.101029 0.709486 -0.663681 0.309359 -0.0260442 0.481803 0.0146709 -0.256025 0.018026 -0.429629 -0.0143004 0.0391542 -0.442679 -0.144992
26 0.245179 0.221542 0.118106 0.250863 -0.825506 -0.517229 0.0140278 0.423352 0.112641 -0.400866 0.0488497 -0.0802341 -0.513775 -0.309573 -0.151952 -0.43988 -0.0557716 -0.667213 -0.399399 0.428393 -0.391439 0.85861 0.3076 0.31242 -0.0379335 -0.282506 -0.398043 -0.254687 0.138081 0.103778 -0.357684 -0.536771
679 0.427033 -0.392453 0.0317906 0.594473 -0.470701 0.130501 -0.554193 0.343736 -0.105237 -0.700596 0.160666 -0.105338 -0.321436 0.0335967 -0.411944 -0.364465 0.492547 -0.0510138 0.323911 0.394645 -0.303635 -0.244004 0.0148005 -0.133029 -0.673875 0.204615 0.170779 0.175516 -0.46139 0.494427 0.0706793 -0.162837
461 0.318461 -0.499015 -0.148869 0.339718 -0.504332 -0.160263 0.488186 -0.144977 -0.22837 -0.182778 0.182209 -0.593405 0.212771 -0.484022 -0.225584 -0.122477 0.00209013 -0.756761 -0.414536 -0.0459309 -0.194573 -0.124647 -0.283792 0.508162 0.0910544 0.0028962 0.273471 -0.468696 0.253229 0.430099 -1.0761 -0.21551
51 0.0414292 -0.210032 -0.0999002 0.507206 -0.312101 -0.657404 -0.0570951 0.0847583 -0.164984 -0.555373 -0.0596931 -0.455402 -0.14634 -0.288333 -0.188457 -0.424591 -0.0498856 -0.641567 -0.073054 0.380655 -0.736096 0.473874 0.34222 0.356216 -0.157182 0.0133745 -0.103841 -0.370845 -0.174752 0.336383 -0.659128 -0.0513223
197 0.256888 0.215866 -0.298912 0.357008 0.785351 -0.078166 0.186873 -0.18379 -0.0888399 -0.0357993 0.139698 -0.203906 -0.434586 0.371571 0.0449862 -0.0537305 0.473091 0.721646 -0.701662 -0.0414372 -0.130194 -0.175106 0.0159406 0.784507 0.310831 0.343076 -0.264734 0.466807 0.0544945 0.300313 -0.125282 0.0742546
293 -0.125031 -0.0356013 -0.477738 0.0635843 -0.452664 -0.936402 -0.353128 0.00228739 -0.202973 -0.166543 -0.274171 -0.65274 -0.48313 -0.0193076 -0.148492 -0.462748 0.355089 -0.508478 0.0633777 0.00309726 -0.621842 0.409548 0.020461 0.174184 -0.153907 -0.132859 0.138636 -0.242137 0.0704451 0.459362 -0.539698 -0.174051
801 0.0351739 -0.224982 0.0423679 -0.534952 0.0953079 0.230968 0.0851482 0.0172765 0.460801 -0.0620755 0.0897772 -0.120303 -0.266201 0.388238 -0.0662532 -0.0875327 0.126138 0.415552 -0.0794417 0.150593 0.314412 -0.274957 -0.331404 -0.173298 0.00729602 0.108774 -0.102808 0.11546 -0.0560426 -0.235268 -0.14528 0.0714243
102 0.048229 0.460905 0.10658 0.0879783 -0.141733 -0.199372 0.581008 0.316131 0.474761 -0.131207 0.370714 0.117852 -0.360418 0.399678 -0.284967 -0.462446 -0.253891 0.496864 0.303221 0.443593 -0.239332 0.510138 -0.123847 -0.335793 0.00684626 0.163385 -0.232644 0.429143 0.259594 0.53971 -0.0277932 0.163837
370 0.282524 -0.181648 0.231018 0.507315 -0.519823 0.0846159 -0.401309 -0.272213 -0.231445 -0.284235 0.276873 -0.0864214 -0.18777 -0.243281 -0.280737 -0.428802 0.313926 0.50975 -0.0443812 -0.174025 -0.505831 -0.256947 0.057387 -0.144254 -0.00801248 -0.110368 0.164781 -0.055956 -0.095354 0.0386041 0.844116 0.383389
206 0.0176499 -0.291856 0.295179 0.675912 0.232528 0.112409 -0.307569 -0.175437 0.0466429 -0.353448 -0.651363 -0.224757 0.146299 0.28716 -0.161951 -0.368686 0.114633 0.201496 -0.182333 -0.32827 -0.65685 -0.231953 0.565407 -0.0154551 0.279449 -0.89349 -0.355442 0.355919 0.214199 -0.0710277 -0.0302659 -0.00249785
37 -0.0840497 -0.321377 0.515115 -0.541117 -0.11526 -0.340005 -0.291086 -0.0486812 0.103967 -0.529495 0.135988 0.102052 -0.383269 0.243537 0.469471 0.435245 -0.250747 0.296128 -0.717645 0.0990145 0.123627 1.08388 0.117624 -0.397025 0.0265468 0.0337754 -0.435802 0.0849097 -0.0757133 0.627854 -0.302338 0.157139
142 0.0689391 -0.0590103 0.267686 0.789358 -0.416486 0.190334 -0.401592 0.536906 -0.255872 -0.3447 -0.278533 -0.399859 -0.220283 0.135206 -0.200747 0.0273022 -0.011898 0.621472 0.129435 0.380802 -0.310426 -0.429358 0.29716 -0.739426 -0.340349 -0.550789 0.387805 0.12408 0.111285 0.459494 -0.108631 -0.242657
511 0.0619417 0.0110825 -0.18887 -0.095142 0.213687 0.052976 0.530647 -0.363548 -0.138286 -0.0932296 -0.29723 -0.377879 0.124142 0.605619 0.325076 -0.502407 -0.165302 0.0218318 0.35091 0.860762 -0.0917498 -0.158615 -0.239043 -0.237047 -0.576942 0.257916 0.0859723 0.0355883 -0.192835 0.087997 -0.243691 -0.415085
464 -0.0323415 -0.27185 0.381004 -0.321478 0.38156 0.461374 0.166466 -0.146553 0.147622 -0.242726 0.0996775 -0.298427 0.0278447 -0.779244 -0.0645493 0.133561 0.253755 0.307771 0.330425 -0.0863377 0.799702 -0.792671 -0.344425 -0.232648 -0.557538 0.182769 0.132101 0.372163 0.115474 0.0956272 0.292625 -0.498297
90 -0.026163 -0.238095 0.47267 0.173592 0.0776696 -0.0080319 0.0166337 -0.722171 0.0751373 0.180773 0.0699036 -0.26176 -0.0501485 -0.183997 0.304872 -0.101564 0.169063 0.392826 0.360729 0.379372 0.535615 -0.575408 0.0906913 0.317725 0.0479626 0.00647598 0.194031 -0.754646 0.184913 -0.105818 0.704932 -0.0941694
419 -0.639799 -0.353636 0.874661 -0.0478883 0.29919 -0.243332 -0.0950258 -0.16858 0.632629 -0.234968 -0.140545 -0.34434 -0.133204 -0.0571366 0.912285 0.11949 0.324968 0.0999347 -0.250625 0.047308 -0.0523417 0.130972 0.480678 -0.798766 0.0757288 -0.228996 0.580985 0.384071 0.197509 0.448949 -0.00201994 0.556404
697 -0.721247 -0.00584286 0.0616808 0.217845 -0.74155 -0.45361 -0.00943384 0.108321 0.236434 -0.0428858 -0.108028 0.227877 -0.615612 -0.143242 -0.139732 -0.0927218 0.6102 -0.293906 -0.515319 -0.163224 0.306934 -0.585402 -0.334551 -0.453041 0.398351 0.462456 0.0153972 0.606911 0.279509 -0.207754 0.353325 0.235876
88 0.124783 -0.396146 0.540314 0.375107 -0.131384 0.640091 0.125575 0.554802 -0.536234 0.0564284 -0.459139 0.236391 0.375949 0.260091 -0.231692 -0.0116939 0.465839 0.369953 0.144956 0.543102 0.608946 -0.249159 0.225647 0.0230012 -0.522518 -0.143584 0.196281 -0.117128 -0.070349 0.420046 -0.126939 -0.308668
76 -0.12722 0.0754375 0.303493 -0.0895015 0.45937 0.380597 0.248785 -0.447855 0.498107 0.179704 0.492805 -0.294711 0.0109573 -0.364873 0.278963 -0.158713 -0.0864149 0.372451 -0.616811 -0.34729 0.327642 0.274552 -0.217345 -0.0359417 -0.265222 0.107827 0.40174 -0.0566652 -0.139876 0.149769 -0.0798247 0.280538
308 -0.153203 -0.5692 -0.128805 -0.20029 0.126797 0.159276 0.396712 0.119009 0.140577 -0.325334 0.165399 0.665495 0.141234 0.140857 0.00199397 -0.360049 -0.179234 0.467951 -0.325323 -0.0346358 0.662927 -0.144533 0.249528 -0.288417 -0.609559 0.200564 0.541167 -0.0769216 -0.0235635 0.130858 -0.305219 0.514618
23 0.447055 -0.0876267 -0.228147 0.505433 -0.337781 -0.258112 0.399014 0.18828 -0.0730942 -0.409104 -0.117886 -1.09018 0.112852 0.563085 -0.182164 -0.244582 0.0375164 -0.153073 -0.399483 0.503381 0.0573531 0.163151 0.276772 0.405992 -0.260319 0.0593565 0.134843 -0.140473 0.500082 -0.257841 -0.142754 0.512791
147 0.180969 -0.325743 0.203353 0.66245 0.34456 0.397115 -0.343336 -0.0787438 -0.0309438 0.209561 -0.808544 -0.425245 -0.000695242 0.34818 -0.572144 0.098753 -0.320341 -0.343066 -0.459678 -0.17352 0.0212951 -0.552356 0.0995114 0.133722 0.34139 -0.458142 -0.20008 -0.204873 0.304095 -0.043556 -0.188608 0.144753
343 -0.444716 -0.34755 0.466351 0.149523 0.0738406 0.0385397 0.294146 -0.404696 0.165044 0.34717 0.662029 0.117866 -0.0346486 -0.396417 0.220458 -0.0762425 0.0559089 0.565469 -0.552345 -0.130901 0.209684 -0.561494 -0.339905 0.386354 -0.355137 -0.112402 0.229133 -0.140784 0.159048 0.246979 -0.0743976 0.1931
93 0.0136889 -0.165317 0.680991 0.63165 -0.428047 -0.134912 -0.280923 -0.0690123 -0.254808 -0.105905 -0.397631 -0.586229 0.0966603 -0.0618212 -0.141268 -0.298474 0.171586 0.404756 -0.377306 0.204536 -0.6214 -0.167194 0.263269 -0.506312 -0.0103461 -0.451734 0.124177 0.0953715 0.137144 -0.0926317 0.232293 0.11426
342 0.0401419 -0.476984 0.646169 -0.242207 -0.255513 0.543674 0.437089 -0.207659 0.00106191 -0.111042 -0.16698 0.329729 0.0489661 -0.251888 0.560703 -0.114098 0.292178 0.25413 -0.209065 -0.09533 0.271499 -0.128637 -0.262254 0.121025 0.192019 -0.164031 0.594398 -0.646405 0.0291982 0.383409 0.0361067 0.36726
538 0.695495 -0.211666 0.247472 0.335477 -0.102732 -0.209059 0.143597 0.0615187 0.297452 0.504441 -0.296808 0.0814668 -0.187181 0.359326 0.651679 0.101185 -0.00482578 -0.206387 -0.346481 -0.121789 0.000760798 -0.258239 0.263976 0.0243676 0.308921 -0.702219 -0.534833 -0.0229231 0.352816 -0.182442 0.152718 -0.378082
347 0.381387 -0.343791 0.332589 -0.0378778 0.29223 0.418631 -0.284816 -0.466849 -0.0772916 0.14957 -0.0204941 -0.427118 -0.245907 -0.112013 0.616046 0.333992 0.17011 0.021714 -0.165684 -0.220858 0.1718 0.329923 -0.0876396 -0.267442 0.189526 0.340552 0.542848 -0.205351 0.0238871 0.240248 0.50994 0.27593
539 -0.419958 -0.225264 0.609864 0.270046 0.0226848 0.0912886 -0.277954 -0.309364 -0.0849626 0.196344 0.167648 0.467576 0.0141061 0.0998059 0.243444 -0.261139 0.150413 0.267156 0.00810085 0.207021 -0.241865 -0.178548 -0.204142 0.160082 -0.81164 0.176405 -0.122608 -0.0756122 -0.325112 -0.225949 0.486956 0.192156
556 -0.364044 0.136231 -0.321757 -0.47805 -0.125189 0.397505 -0.104448 0.213612 0.275415 -0.705523 0.0451503 0.12562 0.332245 0.286975 0.228235 -0.173877 -0.0703477 0.0308238 -0.463281 0.379699 0.710646 -0.498673 0.0862008 0.0839148 0.734257 -0.286019 0.125689 -0.0635446 0.154635 -0.0284589 0.133862 0.0048145
582 -0.278147 -0.108266 0.468397 0.150453 0.438088 0.645758 -0.546726 -0.0738662 0.167852 0.217117 -0.241272 0.690575 -0.4054 0.338517 -0.206289 0.0369031 -0.0853624 -0.0220932 0.339029 0.16852 -0.224201 -0.404667 0.10069 -0.0578606 -0.321492 -0.249322 0.104694 0.0476577 -0.74674 0.140432 -0.115625 0.330696
381 0.296401 -0.155433 0.156117 0.174645 0.382837 0.0595387 0.0835225 -0.590139 -0.181699 0.411903 0.0866936 0.121069 0.105512 0.228588 0.176759 0.388199 0.201182 0.340806 -0.315019 0.356445 -0.169934 -0.112929 -0.482188 0.116366 -0.618076 0.377794 0.0531108 -0.0491303 -0.540733 -0.207203 0.381008 -0.34661
475 0.741919 0.393765 0.320827 0.00273041 0.248807 0.329789 0.279867 0.647457 -0.280482 0.458451 -0.228122 -0.261411 -0.206884 -0.235164 -0.00615102 0.197587 -0.102404 0.514439 0.093761 0.430424 0.164779 0.0901212 -0.237517 -0.253861 -0.0226496 -0.468114 -0.116547 0.0632923 0.359933 0.0669503 0.203502 -0.674755
319 0.747301 -0.342737 -0.262686 -0.0859906 0.254295 0.374169 -0.109842 0.10819 -0.462189 -0.815597 0.00400673 -0.36989 -0.106334 0.0980235 -0.0536321 -0.205077 -0.102489 0.21147 0.0863688 0.113498 0.504154 0.653772 -0.296334 -0.609645 -0.0036229 -0.099974 0.146031 -0.394015 -0.180243 0.569486 -0.0780117 0.316293
168 -0.345996 -0.172356 0.244348 -0.0631961 0.395851 -0.0696115 -0.849343 0.192807 -0.232848 0.290123 0.480689 0.197653 0.633909 0.367137 0.108007 0.0632983 0.613156 -0.136414 -0.377033 0.764001 0.125972 -0.412543 -0.480119 -0.0775245 -0.416145 0.0071534 -0.424815 -0.519866 0.446469 -0.446738 -0.0938017 0.369356
57 -0.342074 -0.500847 0.531571 0.302536 0.307559 -0.157955 0.083022 -0.185465 0.353137 0.269397 0.343698 -0.14831 -0.0585761 -0.412255 0.313228 0.0592347 0.535975 0.662239 -0.056874 0.186456 0.605108 -0.31171 0.000923799 0.39041 0.0165906 -0.119041 0.301893 -0.123289 0.195934 0.229097 0.494002 0.263835
177 0.551499 -0.280269 -0.130238 0.612696 -0.319835 0.383844 -0.27342 0.18849 -0.378141 0.0173005 0.283145 -0.241152 -0.158344 0.000181876 -0.331616 -0.0685684 0.110959 0.311734 0.239866 0.205519 0.212609 -0.489113 0.106065 -0.168213 -0.158464 -0.133469 0.465799 -0.188427 0.102482 0.640605 0.333173 -0.0247018
429 0.31088 0.320399 -0.318338 0.27821 0.21812 0.0274064 0.280675 -0.384138 0.686342 -0.182685 -0.433599 0.176856 0.267147 -0.19913 -0.572838 -0.295324 -0.0811897 0.266142 -0.359158 -0.0555289 -0.540546 -0.398843 -0.408866 0.209512 0.179293 -0.672075 0.0699373 -0.139518 -0.62612 -0.438375 0.0574613 -0.024839
497 0.565343 -0.543421 0.469495 -0.408333 -0.737208 0.569503 -0.37558 -0.0256509 0.410918 0.435474 0.0960165 0.160829 0.382237 0.23835 -0.450836 -0.212425 0.295339 -0.215987 -0.266445 0.378084 -0.0823251 0.399052 0.256591 -0.329978 0.124133 0.313207 -0.0763962 -0.00655452 0.394064 0.435469 0.851351 0.00420395
425 0.250622 -0.00462079 0.444433 -0.00271815 -0.290672 0.275324 -0.337601 -0.327971 0.0363518 -0.26141 0.0649279 -0.0664235 -0.121701 -0.0350984 -0.050597 -0.551355 0.275745 0.066942 -0.0225949 -0.00535928 -0.697609 0.122686 0.250864 -0.554947 0.255852 -0.0599195 0.644919 0.0259577 -0.0918704 0.409834 0.561551 0.693574
531 -0.932213 -0.406626 -0.0444925 0.35291 0.0517685 -0.284594 -0.130997 0.587574 0.0629857 -0.0290161 0.330138 -0.509682 0.28587 -0.00037236 -0.28123 -0.0379757 0.424488 0.410787 -0.586005 -0.187435 -0.313558 -0.036149 0.732351 -0.786708 0.21441 -0.102527 0.310305 0.0519773 0.2914 -0.520834 0.268138 -0.132367
507 0.077535 0.0831796 0.240544 0.100003 0.500931 0.582388 0.0318494 -0.281965 -0.72753 0.351609 0.246215 -0.353327 -0.0520458 -0.121086 -0.212503 -0.108568 -0.157043 0.645622 -0.0410485 -0.0643466 -0.0845503 0.188753 -0.59727 0.0870717 -0.238841 0.0570631 -0.126095 -0.0935755 0.21764 -0.00502181 0.454677 0.145396
145 -0.419168 0.0236133 -0.488005 -0.59018 0.693313 0.231714 -0.471637 -0.258916 0.167692 0.0634308 -0.382557 0.0464375 -0.0342671 0.208691 -0.356265 -0.279119 -0.0923028 0.284736 -0.0190799 -0.179332 0.418259 -0.220404 0.269156 -0.4597 -0.48627 0.288261 -0.103718 -0.122243 0.28543 -0.0161968 0.0733206 0.212891
144 -0.0565315 -0.620242 -0.0233422 -0.0496496 -0.209439 0.173148 0.10805 0.450328 0.820441 -0.0308917 -0.0132284 0.06588 -0.160285 -0.116503 -0.445815 -0.0941082 -0.0796379 0.0451215 0.122012 0.16725 0.292163 -0.110142 0.318132 0.111358 0.230347 0.117122 0.0826844 0.239227 -0.187466 -0.195863 -0.384443 0.326165
141 -0.382423 -0.502931 0.681576 0.557472 -0.34368 -0.450145 -0.281476 -0.0903145 -0.015661 -0.169914 -0.501347 -0.302494 -0.139119 -0.0152837 0.9095 0.241077 -0.00449675 0.203963 -0.0060266 0.0112404 -0.259051 -0.195443 0.122666 -0.478362 -0.199097 -0.381667 0.0726078 -0.200619 0.169986 -0.275563 0.31429 0.133135
572 -0.133967 0.148676 0.459421 0.684831 0.174001 0.280703 -0.0248425 -0.610073 -0.676241 0.403792 0.328968 -0.424003 -0.291299 0.571219 -0.380929 0.385954 -0.163459 0.0875141 -0.514287 -0.231293 0.01044 0.283864 -0.320674 -0.396464 0.0269355 0.292081 -0.121811 0.0685914 0.361002 0.0856643 -0.0905805 -0.205833
196 0.0430182 -0.177428 0.761616 0.657329 -0.425701 -0.0303167 -0.239643 -0.0688307 -0.231972 -0.114302 -0.440026 -0.607242 0.147623 0.00379468 -0.116935 -0.317564 0.158931 0.401145 -0.342856 0.123182 -0.637973 -0.151723 0.25855 -0.539589 0.0386996 -0.435651 0.129191 -0.038164 0.177449 -0.059114 0.131513 0.13094
143 0.185717 0.220076 0.220174 0.0425198 0.283342 0.717931 0.277479 -0.399993 -1.02239 -0.113843 0.320267 -0.78351 0.337709 0.348824 -0.0312455 0.324596 -0.232605 0.30446 -0.265956 -0.252529 -0.214586 0.327976 -0.39035 -0.233094 -0.142763 -0.0983903 -0.141818 -0.0523953 0.65097 -0.173513 -0.0794829 0.0294596
474 0.530877 0.252613 0.153221 0.333849 -0.225101 -0.618614 0.377774 0.268656 -0.347385 -0.0480917 -0.601846 -0.133426 0.140284 0.347929 0.0612258 -0.269807 0.178075 0.504441 -0.406021 0.167601 -0.849707 -0.445251 0.561225 -0.318647 0.199659 0.269705 0.123461 0.26671 0.336204 -0.29208 -0.0111932 0.0441043
11 0.0372049 -0.133509 0.631598 0.680899 -0.37259 -0.0888739 -0.217091 -0.0224956 -0.34411 -0.0854386 -0.383191 -0.535558 0.14609 -0.0902845 -0.076333 -0.284566 0.0503953 0.238822 -0.344152 0.15951 -0.566193 -0.120312 0.352368 -0.415766 -0.00556307 -0.416482 0.167242 -0.0201613 0.135786 -0.097575 0.15966 0.183394
133 0.229542 0.176318 -0.420679 0.341775 0.61643 0.858543 0.0550691 0.151455 0.237702 -0.186907 -0.222297 -0.0371556 0.141166 0.26086 -0.234515 -0.623294 0.161763 0.293041 0.309365 0.260878 0.272609 -0.144132 -0.377433 -0.154978 0.358612 -0.812227 0.149267 -0.0560043 0.168959 0.583819 0.452185 0.502356
606 0.301925 0.629993 0.534742 -0.30155 -0.0395773 0.167305 -0.518586 0.0173486 0.246134 0.194633 0.0469242 0.153156 -0.468441 0.359672 0.539883 0.291314 -0.635621 0.0331158 -0.612853 -0.239195 -0.413653 0.0756735 -0.315214 -0.280575 0.131091 0.248503 0.16217 -0.0559927 -0.481599 0.00304029 0.475354 0.112188
304 0.213127 -0.385727 0.380983 -0.691663 0.210185 0.158911 0.481926 0.233682 0.0114522 0.411486 -0.475594 -0.0853581 0.190647 -0.0607819 -0.275637 0.793828 -0.266201 -0.0642102 0.0875424 0.100487 -0.327694 -0.208793 -0.0811958 -0.00121477 0.00917358 0.170284 0.361567 0.335261 0.111084 -0.504371 0.0861109 0.484038
352 -0.0427411 -0.136349 -0.076556 -0.174031 0.45717 0.469298 0.307147 0.217305 0.0843469 0.265298 0.442238 -0.22889 0.19529 -0.358692 0.508118 -0.397222 -0.0257083 0.162483 -0.0453222 0.113961 0.104878 -0.161246 -0.468237 -0.537892 -0.228031 0.169309 0.0773969 0.560256 -0.394595 0.0572955 -0.0914587 -0.176181
117 0.336242 -0.107567 -0.227385 -0.269569 -0.219262 0.151129 -0.0270983 0.307386 0.176297 0.289781 -0.318822 0.0796109 -0.250796 0.0906439 0.123672 -0.566145 0.288801 -0.154443 0.431042 0.157331 0.128248 -0.26289 -0.497096 -0.164688 0.241478 -0.134865 0.133732 0.239417 -0.0816204 -0.417557 -0.490394 0.00197911
687 0.242108 0.00830425 0.434399 0.0509619 -0.245553 0.280046 -0.289762 -0.314172 0.0413924 -0.224132 0.0298724 -0.0845959 -0.103496 -0.0408349 -0.0287642 -0.585997 0.246778 0.0446347 -0.0546617 -0.00215495 -0.731225 0.14019 0.233304 -0.544414 0.261908 -0.0501774 0.651737 0.0366192 -0.0855809 0.43236 0.562957 0.703437
708 -0.612991 -0.432109 -0.114389 0.117723 0.226837 -0.487552 -0.301363 -0.124523 0.0709672 0.0725713 -0.236862 -0.370787 -0.196672 0.173092 -0.351668 -0.268253 0.217428 0.396271 -0.217996 -0.759556 -0.279688 -0.151798 0.833767 -0.0902597 0.00553616 -0.825944 0.243411 0.635607 0.466976 -0.015607 -0.0247333 0.139261
335 0.121393 -0.568722 0.194396 0.73164 -0.152665 0.132339 -0.245605 0.29562 -0.179489 0.117705 -0.216335 -0.418922 -0.22709 0.136413 0.507029 0.483793 -0.13031 0.17628 0.180286 0.316181 0.44496 -0.478243 0.063568 -0.400954 -0.298803 -0.353878 0.395784 -0.327506 0.333044 0.384022 -0.0261568 -0.261769
302 0.445482 -0.120047 0.312117 -0.111994 -0.674506 0.454441 0.163261 0.0900413 -0.115515 0.042427 -0.157648 -0.179365 -0.279806 -0.591568 -0.618122 -0.141548 -0.32335 -0.20682 -0.446364 -0.17969 0.113144 -0.387724 -0.753734 -0.193065 0.206649 -0.384894 -0.0823729 -0.211553 0.475615 -0.104471 0.40619 0.225109
704 0.00372926 0.0708846 0.244084 0.557345 -0.478607 -0.390941 0.141119 0.160002 -0.46188 -0.442915 -0.802076 -0.280743 0.0343868 0.242949 -0.205947 -0.396911 0.140268 0.528431 -0.368837 0.139981 -0.593075 -0.244185 0.537221 -0.188709 0.136663 0.511267 0.213474 0.211761 0.737085 -0.348291 -0.0329358 0.223488
535 0.164099 0.118864 0.517888 0.306129 0.105306 0.198289 -0.491361 -0.188886 -0.537264 -0.145296 -0.445936 -0.774869 -0.0801413 -0.301303 -0.160639 0.319987 0.14297 0.411489 -0.593002 -0.288548 -0.392911 0.413182 0.225726 -0.431008 0.0758409 -0.0169555 0.0336388 0.287036 -0.02352 -0.244826 0.145739 -0.349747
35 0.270804 -0.288996 0.136211 0.506175 -0.468349 0.310436 -0.543769 0.31506 -0.229343 -0.312096 0.00404095 0.153412 0.0227388 -0.0149718 -0.502518 -0.251406 0.412818 0.143944 0.351332 0.237534 -0.176228 -0.496088 0.207873 -0.441922 -0.665333 0.0741705 0.257441 0.38778 -0.355849 0.317172 0.484766 -0.156984
693 0.377211 0.276575 0.728661 -0.245027 0.022546 -0.372229 0.353928 -0.210035 -0.0458113 -0.0232635 0.190075 -0.0963154 -0.786663 0.0043525 -0.473322 0.152316 0.182921 -0.0635918 -0.107664 0.00915496 0.18467 -0.449289 -0.240591 0.22685 0.611711 0.288612 -0.0707036 -0.441804 -0.028971 -0.37337 -0.125587 -0.414444
16 -0.012593 -0.593518 0.127801 0.124235 0.286912 0.566908 -0.13623 -0.022882 0.0974256 0.202464 -0.276109 -0.177403 -0.0152075 0.645489 0.31377 0.238802 -0.712005 0.194893 0.530683 -0.0783317 -0.203313 -0.0550203 -0.171441 -0.368506 -0.195874 -0.416826 -0.350816 0.233677 0.485752 0.696257 -0.103839 0.260875
698 0.230103 0.324223 0.432016 0.314363 -0.988357 -0.267856 0.162765 0.426449 -0.147617 -0.245426 -0.65661 -0.035253 -0.340063 0.0972513 -0.15315 -0.365627 0.0583034 0.265436 -0.63022 0.266291 -0.361875 0.199691 0.597058 -0.1846 0.154663 0.0495876 -0.133408 0.290488 0.791363 -0.420014 0.185846 -0.0833774
20 0.00915695 -0.64293 -0.0495863 -0.0725129 -0.449625 -0.474247 -0.740407 -0.28363 -0.021939 -0.385978 0.347572 0.445596 0.385894 -0.0957376 0.204567 0.144238 -0.40346 0.442022 -0.13975 -0.580333 -0.0505302 -0.380693 -0.329142 -0.207763 0.00226814 -0.326724 0.907674 -0.306163 0.21999 -0.664807 0.11525 0.410231
297 -0.188126 0.352674 0.330844 0.643493 0.0416894 -0.0753364 0.137654 0.0708955 0.229006 0.0386883 -0.361741 -0.451351 0.525957 -0.132505 -0.309846 -0.730493 0.00212202 0.600229 0.0157414 0.397973 -0.081695 0.377802 0.189329 -0.0446329 -0.152089 -0.6181 0.119442 -0.306085 -0.130184 -0.422318 0.103074 0.171076
690 -0.574521 -0.0936146 0.244348 0.620587 -0.0333823 0.0707809 -0.593115 0.857271 0.0665177 -0.21979 -0.22567 -0.299883 0.034886 -0.318551 -0.557745 0.128784 0.087071 -0.254837 -0.192945 0.503683 -0.00678294 -0.666306 0.268919 -0.789404 -0.173671 0.155549 0.0435606 0.664165 -0.301708 0.0366875 -0.242992 0.00317359
502 0.0891066 -0.16263 0.0132208 0.806509 0.130696 0.327995 -0.425726 0.317866 -0.00157261 -0.445913 -0.599797 -0.124738 -0.120525 0.334091 -0.201823 -0.128972 -0.0259454 0.346368 0.225241 -0.152574 -0.392538 -0.455447 0.503156 -0.256756 -0.0390699 -0.855138 -0.0809287 0.37468 0.11076 0.316564 -0.188756 -0.320224
222 0.507357 0.119898 -0.0781184 0.0355073 0.304004 0.162073 -0.584975 -0.242098 -0.126105 -0.0880319 -0.335112 -0.167699 -0.218682 0.00593778 -0.258445 0.417201 -0.437993 -0.090883 0.313224 -0.0699091 0.923356 0.00866486 -0.00281567 -0.658962 0.192494 -0.759472 -0.320133 -0.143371 0.11343 -0.629087 -0.176002 -0.210308
19 0.164426 0.15805 0.79112 0.358313 -0.965559 -0.0635861 -0.117693 0.281129 0.0283156 0.0171297 -0.288813 -0.196115 -0.258761 -0.115962 -0.0912519 -0.316531 0.0221732 0.0740488 -0.643604 0.238776 -0.310327 0.317984 0.421326 -0.434581 -0.0111094 -0.686165 -0.244101 0.142357 0.44379 -0.168652 0.2956 -0.25525
83 0.278233 -0.444801 -0.0198617 0.633228 -0.279337 0.0361996 0.22065 -0.668656 -0.389045 0.21382 -0.393367 -0.639521 0.412492 0.334633 -0.335536 0.391537 0.0728013 0.109648 -0.482301 0.656798 -0.150466 -0.0753666 -0.0679158 -0.207131 0.0007694 -0.321165 0.442836 -0.259348 0.232085 0.0382785 0.00684781 -0.273265
395 0.0899949 -0.405874 0.428828 0.333079 -0.744024 -0.267212 -0.213275 0.0342781 -0.0235885 0.0316698 -0.270552 -0.549727 0.477694 0.0513036 -0.390861 0.182918 -0.146733 0.569903 -0.0632665 0.094183 -0.678591 0.172715 0.351922 -0.326342 0.130285 -0.188287 -0.307059 0.289512 0.222754 0.154766 0.250464 0.176019
718 0.798175 -0.287781 -0.110051 -0.0675932 -0.108541 -0.386915 -0.0296381 0.259892 0.714279 0.0518443 0.142941 0.155203 -0.0429088 0.0835178 0.210853 -0.086004 -0.245064 0.306378 0.223806 0.684338 0.186355 0.413911 -0.0851602 -0.239898 0.135599 -0.201373 0.0217773 -0.490992 -0.122591 0.593018 0.0741769 0.0309685
802 -0.0127652 -0.172758 -0.0702364 -0.730818 0.192011 0.356251 0.143241 0.011727 0.516112 -0.0443666 0.0859631 0.0210158 -0.281015 0.386543 0.0317322 -0.141504 0.0494659 0.12174 0.0339245 0.16114 0.267391 -0.0755356 -0.23435 -0.235833 0.124693 0.202239 0.083142 0.105556 -0.0917975 -0.105783 -0.248109 0.121428
715 0.17469 0.0555999 0.126914 -0.116955 -0.147436 0.885238 -0.253451 0.12348 -0.25292 -0.664617 -0.231687 0.442577 0.0630811 0.50143 0.0757486 -0.107698 -0.187275 0.254538 -0.295199 -0.754545 -0.195233 -0.29336 0.0669564 0.0226646 -0.22948 0.495148 0.238868 0.499304 -0.372641 0.328206 -0.198668 -0.0776196
334 0.470218 -0.120871 0.434599 0.165279 0.436467 0.045663 0.435729 -0.0690262 0.546047 0.610199 -0.282908 -0.110988 0.563681 0.286674 0.565326 -0.345491 0.254981 -0.200319 0.0628962 0.461663 0.117415 0.0573378 0.11364 -0.353343 -0.319332 -0.00801257 0.31191 -0.20619 -0.218539 -0.0984726 0.104048 0.155064
400 -0.0829922 0.361782 -0.253535 0.119054 0.0227605 0.304354 -0.222511 0.492767 -0.118599 -0.182547 -0.30406 0.112977 -0.0452795 -0.0728948 0.0659336 -0.0239826 -0.215663 -0.451689 0.522481 0.361952 -0.36333 0.234319 0.580433 -0.712508 -0.0245961 -0.181505 0.857144 0.142101 -0.0624771 0.99583 -0.329035 0.0128776
406 -0.170988 0.38512 0.0106363 -0.696402 -0.114868 0.513843 0.374374 0.126168 -0.171112 0.175699 0.0127228 -0.0250385 -0.10739 -0.149232 0.159816 -0.126154 0.0411758 0.147598 -0.0215161 0.125798 0.467382 -0.337637 -0.0120631 -0.434301 0.0194644 0.262829 -0.396164 0.190226 -0.544796 -0.164887 -0.351109 0.0552283
358 -0.307263 0.487502 0.150917 -0.120129 0.10809 0.136443 -0.238199 0.153453 0.114699 -0.0205839 -0.700043 0.0988117 0.0164706 -0.193252 -0.416828 -0.0271265 -0.558953 -1.07879 -0.215134 0.0944577 -0.578245 0.269548 0.228929 -0.452265 0.341076 -0.00615285 0.53727 -0.182376 -0.0950366 0.370641 -0.160516 0.655129
713 -0.0906901 0.435389 0.123333 -0.642695 0.0187251 0.206401 -0.191648 0.133776 0.193312 0.0401913 -0.302571 0.611835 -0.366488 -0.348024 0.393022 -0.122036 0.213787 0.15999 -0.290522 0.237871 0.0195806 0.810151 0.329347 0.211031 0.404946 0.735811 0.253153 -0.296827 0.356668 -0.199231 0.787671 -0.264043
528 0.514051 -0.541281 0.375741 -0.177933 -0.417587 0.324447 -0.105641 -0.395932 -0.0800911 0.559741 0.227138 -0.289681 0.228635 0.202591 -0.47841 0.278505 0.0504551 0.134852 0.370605 0.132495 -0.254576 0.15998 0.34662 -0.235172 0.687638 -0.0100798 0.349565 -0.0855458 -0.173082 0.525549 0.2946 0.74764
149 -0.460311 0.173374 -0.309449 -0.371406 -0.285638 -0.0338721 0.290471 0.0552221 -0.650938 -0.036608 -0.574525 0.0327349 0.343551 0.226456 0.325682 -0.695037 -0.137994 -0.538164 -0.00695112 0.303358 -0.632722 0.523195 0.490602 0.0110293 0.612128 0.552947 0.614033 0.575289 0.32604 0.26312 -0.258565 0.0554189
146 -0.23815 -0.217108 0.459617 0.025473 0.396164 0.329921 0.264015 0.0596448 0.498845 0.00567581 -0.723174 0.150411 0.375819 -0.138619 -0.492736 -0.246829 0.262264 -0.311782 -0.523161 -0.0764008 0.0499771 -0.521381 0.243701 0.291206 0.172993 0.277063 0.346268 0.466461 0.371603 0.158021 -0.521299 0.222695
249 -0.121459 0.305516 0.0692505 -0.0953687 0.0621247 0.159084 0.026921 0.0231241 -0.0454043 0.0581199 -0.299155 0.0302891 0.333699 -0.235803 0.169373 -0.325866 -0.137746 -0.807689 0.131591 0.210906 -0.751742 0.578946 0.570888 -0.385021 0.298803 -0.0617827 0.781728 0.0911384 -0.0389858 0.687047 -0.0607519 0.574216
110 -0.0952114 -0.241855 -0.350629 -0.320414 -0.315493 0.0474217 0.0157332 -0.212953 0.527272 0.184107 -0.460022 -0.318124 -0.307032 0.0704784 0.35526 -0.543385 -0.203756 -0.914926 -0.370485 -0.304026 0.290967 0.360714 -0.375537 0.201688 0.298929 -0.501322 0.0999309 -0.298364 -0.000695205 0.191282 -0.502018 -0.119758
509 0.0291746 0.0614763 0.726241 0.075144 -0.129135 0.194646 -0.160253 -0.13876 0.0178369 -0.152938 -0.449306 -0.373194 0.132703 0.18774 0.128263 -0.377718 0.160806 -0.0633254 -0.22631 0.200533 -0.820962 0.241271 0.404825 -0.805895 0.276162 -0.277278 0.632952 0.113029 0.200031 0.368075 -0.00561317 0.540905
610 0.134554 0.601317 0.454866 -0.412938 -0.650025 0.194513 0.131178 0.251144 0.36002 0.151976 -0.207721 0.378191 -0.142663 -0.184629 0.193295 -0.381815 -0.193229 -0.9119 -0.22521 0.213053 -0.344276 0.941706 0.621349 -0.459593 0.344556 -0.359505 0.286976 0.143363 0.333355 0.422348 0.0740402 0.108638
581 -0.667886 0.378521 0.113685 -0.451744 -0.145578 0.284661 0.0817646 -0.534371 0.231925 0.284055 0.258179 0.590638 0.0787627 -0.542936 0.575502 -0.133958 0.130643 0.0307954 -0.0473074 -0.210347 -0.498495 -0.0668516 -0.378779 0.144242 -0.398652 0.123883 0.213461 -0.616981 -0.217198 0.408013 -0.262602 0.699213
640 0.368606 -0.413599 -0.356392 -0.339361 0.120725 0.704492 0.394582 -0.198192 0.137196 -0.569217 0.325375 -0.260766 -0.179903 -0.265012 -0.00915117 -0.067215 0.0746507 -0.893218 0.232671 -0.216808 -0.575695 -0.155443 -0.397781 0.393223 0.0928558 -0.419612 0.0606609 -0.0846126 0.57447 0.406953 -0.0970454 0.450576
312 0.224458 0.260657 -0.427754 -0.128758 0.246732 0.343333 0.238047 -0.462745 0.107403 -0.683617 -0.455847 0.0901797 0.370445 0.168286 -0.245518 -0.910735 -0.0923996 -0.583513 0.789958 -0.2532 -0.0242117 -0.0652543 0.517101 -0.230199 -0.0478221 0.277226 -0.223989 0.394756 0.0516146 -0.187522 0.461685 0.3661
135 -0.37108 0.612121 0.58528 -0.02968 0.338022 0.40971 -0.386709 0.0718864 0.235749 -0.181916 -0.739485 -0.218035 -0.196539 -0.0767421 -0.463692 -0.159133 -0.313289 0.088997 0.325203 0.772223 -0.116757 -0.408906 0.352411 -0.413731 0.0436001 -0.20745 0.683072 -0.331582 -0.0405143 0.371622 -0.157913 -0.120004
161 -0.425082 0.250947 0.205561 0.403918 0.69797 0.447952 -0.0893244 -0.117584 0.401093 -0.256647 -0.232858 -0.120373 -0.323885 -0.103871 0.0624891 -0.261414 -0.155243 -0.0979297 0.366558 -0.152261 0.0297744 0.36678 -0.566809 -0.420579 0.672814 0.0195414 -0.204108 -0.0307884 -0.151271 -0.506499 0.425588 0.454349
184 0.141464 -0.131368 -0.508619 -0.304404 0.675842 0.324505 0.0500132 0.00141409 0.0675329 -0.00273335 -0.646486 -0.282094 -0.194366 0.133744 -0.518727 -0.560416 -0.00847466 -0.268123 0.261293 -0.402966 0.168879 0.523523 -0.182202 0.321996 -0.184909 0.426304 0.297148 0.00980185 0.0857919 -0.210251 0.0671002 0.395327
372 0.451353 0.091173 -0.0401607 -0.364457 -0.243738 -0.0208183 0.243035 -0.175675 0.647472 -0.00699868 -0.00818433 0.829083 -0.241783 -0.357009 0.709352 -0.190082 -0.0570934 -0.548549 -0.164997 -0.511833 -0.493753 -0.10801 0.0682018 -0.0404588 0.438484 -0.508369 0.0305789 0.0997049 -0.108139 0.133992 0.159022 -0.031589
417 0.228529 -0.0270166 0.0194539 -0.029623 0.0993136 0.357919 0.218342 -0.18469 -0.285612 0.546429 -0.132424 -0.267234 0.371103 0.00540271 0.0770969 -0.0679435 -0.162211 -0.910182 -0.0471703 0.264222 -0.0195029 0.293628 0.473973 -0.145945 0.497388 0.0895787 0.699076 -0.197174 0.411391 0.769923 -0.304624 0.464478
486 -0.177684 0.235132 -0.0271974 -0.259406 0.742409 -0.232968 0.11792 0.0742579 -0.185655 -0.171844 -0.776708 1.15955 -0.0205987 0.544604 0.438353 0.0223058 -0.472985 -0.102201 -0.354171 0.0587374 -0.264917 -0.031279 0.15969 0.140278 0.282322 0.0350347 -0.213723 -0.315461 -0.127609 0.0847528 -0.462321 0.377892
392 0.33059 -0.138649 0.0121859 -0.0578604 0.00386284 0.82806 -0.893474 0.0165633 -0.364363 0.241529 -0.116419 -0.189889 0.0776176 0.0327091 -0.162382 0.0413589 0.220866 -0.328286 -0.00597069 0.159589 0.221526 0.116326 -0.469854 -0.27533 -0.0684613 0.269228 0.671552 0.51447 -0.183022 0.18727 -0.110439 -0.221579
592 0.41462 0.207009 0.521678 -0.205067 -0.754412 0.240027 -0.192812 -0.0466094 0.256395 -0.110177 0.0736776 0.181617 -0.458699 -0.100533 0.0127538 -0.518649 0.184512 -0.12687 -0.311203 0.091478 -0.43271 0.517008 0.299868 -0.487643 0.299468 -0.221325 0.363649 0.0344778 0.113512 0.289709 0.689743 0.403928
803 -0.216726 -0.138886 -0.0689372 -0.583794 0.223524 0.0352599 0.163238 0.0770994 0.498415 -0.0702557 0.33047 -0.0335638 -0.201459 0.215675 -0.0735083 -0.00334009 0.129731 0.340723 -0.112371 0.0840219 0.491694 -0.21766 -0.171495 -0.124656 0.0274986 0.156345 -0.117132 0.341719 -0.0196688 -0.0694402 -0.273472 0.0584592
382 -0.213499 0.797037 -0.248223 -0.220809 0.282393 -0.529072 0.270646 0.0875061 0.215763 0.46118 0.464343 0.331993 0.384315 -0.727085 0.0777472 -0.0414733 0.75568 0.462372 0.195835 0.031122 -0.353449 -0.251966 0.351365 0.331416 0.064429 -0.0626659 -0.244432 0.042404 -0.368363 0.428638 0.0983312 0.315266
357 -0.527463 0.0511956 0.188414 0.308453 0.386294 0.138397 0.24848 -0.0126901 0.356142 0.220344 0.528348 0.428667 -0.296248 -0.0845705 0.186165 0.13775 0.196585 -0.162411 0.641842 0.280424 0.630075 0.0392859 -0.00662072 -0.112746 0.247148 0.0866609 0.721453 0.0137769 0.27217 0.932943 0.0664904 0.10024
223 -0.740598 0.517239 -0.136793 0.371733 0.204362 -0.2049 -0.418126 0.90769 0.0676248 -0.225263 -0.196749 -0.0608994 -0.224676 -0.531315 -0.75401 0.441867 -0.407579 -0.338906 -0.0650493 0.144721 0.177378 -0.374162 0.456736 -0.375734 -0.14447 -0.245456 0.316199 0.485626 -0.183337 0.628928 -0.426178 -0.0139728
534 0.0226272 -0.837777 0.102518 0.275252 -0.0844068 -0.0955273 0.145169 -0.208264 0.876667 -0.177913 0.108825 -0.200468 0.472016 -0.256486 -0.113983 -0.236341 0.267416 0.07072 0.035666 -0.127616 0.262207 -0.047939 -0.124271 0.576348 -0.171016 -0.0798054 -0.333498 0.124811 -0.120124 0.167815 -0.0669894 0.1137
68 -0.0903204 0.446345 -0.0781022 0.0305172 0.0991793 -0.483773 0.151498 -0.311083 -0.0960032 0.313083 0.99892 0.240937 -0.0504251 0.139374 -0.322848 0.519329 -0.219344 0.249511 -0.0265601 -0.368531 -0.435487 0.334074 -0.0752725 -0.133274 0.220239 0.447527 -0.425319 0.771222 -0.173642 0.428777 0.303476 -0.0727871
618 -0.887273 0.294032 0.0975536 0.287338 0.088753 -0.794189 0.0926704 0.267484 -0.142098 -0.0927457 0.262614 -0.241299 0.387212 -0.721601 -0.269019 0.16782 0.0681545 -0.285653 -0.234506 -0.0876699 0.0256269 0.0976158 0.820735 -0.0517436 0.0204028 -0.313232 0.110173 0.6967 0.0719104 0.40904 -0.206795 0.227834
666 -0.528982 0.0687667 -0.0629265 0.227728 -0.253606 -0.243855 -0.309077 -0.281035 0.168056 -0.169965 0.159759 -0.219867 -0.103522 -0.368459 0.456813 0.349683 0.871806 0.502013 -0.244383 -0.182443 0.181311 -0.474335 0.0849407 -0.205883 0.0630057 -0.186903 -0.115502 0.0969221 -0.0887585 0.351078 0.552334 0.799588
621 -0.540039 -0.0225033 0.649174 0.417745 -0.0740988 -0.459118 -0.0951654 0.125396 -0.0956777 -0.206119 0.0222216 -0.605877 0.217575 -0.307145 -0.243868 -0.0718487 0.319006 0.337326 -0.499044 0.0114768 -0.166748 -0.111905 0.652693 -0.416406 -0.0194611 -0.482977 0.136199 0.628673 0.193129 0.245948 -0.034402 0.183088
364 0.00453014 -0.0677646 -0.0750648 -0.0984828 0.189936 0.107443 0.157313 -0.203569 0.0509731 0.248908 0.679562 -0.120037 0.162091 -0.363759 -0.0863175 -0.205546 0.271009 -0.523442 -0.0735751 -0.144135 0.289205 0.161393 0.500237 0.00376453 0.397327 0.227929 0.708054 0.259685 0.182269 0.979057 0.208744 0.596478
348 -0.58504 -0.127297 0.0378912 0.00640217 -0.284654 -0.676929 0.0354984 0.204764 0.169655 0.0022694 0.251104 -0.334791 0.578029 -0.392476 -0.441833 0.478207 -0.140158 0.110536 0.098674 -0.1148 -0.21802 0.337345 0.685967 0.0608476 0.166675 -0.105438 -0.283323 0.779002 0.235752 0.597547 -0.0728709 0.117254
211 0.0506274 0.125834 -0.105118 0.0853578 -0.0257596 -0.188394 0.0576089 0.244031 0.376263 0.0718829 0.286466 0.856864 -0.38986 0.00294163 0.200111 -0.116985 -0.0415863 0.790805 -0.209854 -0.299485 -0.0858898 -0.391545 0.188973 0.263544 -0.358012 -0.359977 0.25605 0.539973 0.504468 -0.414935 -0.327114 -0.146627
631 -0.80501 0.289831 0.128553 0.291135 0.0875424 -0.656936 0.0892777 0.230973 -0.14214 -0.055759 0.231616 -0.281203 0.340095 -0.661173 -0.214058 0.144519 0.174914 -0.336537 -0.203669 -0.0911324 -0.0117914 0.0947259 0.785808 -0.0113381 -0.0346479 -0.273487 0.189352 0.603697 -0.00148592 0.408603 -0.138228 0.060992
526 -0.697718 -0.303556 -0.311286 -0.384569 0.603637 -0.536608 -0.449194 -0.264607 -0.311201 -0.0198981 0.378034 0.338858 0.253686 -0.760221 0.437546 0.0504471 0.210474 0.221068 -0.0474548 0.104368 0.43013 0.481389 -0.185087 0.307755 0.317166 -0.0655708 0.0914729 0.168644 -0.3964 0.151346 0.323689 -0.348654
3 -0.614181 0.0426139 -0.15068 0.488275 0.597326 -0.314597 -0.0908148 0.0838887 0.213692 -0.228969 -0.0789665 0.0755791 0.215858 -0.270648 -0.207144 -0.128382 0.17064 -0.368215 -0.111939 -0.570492 -0.112801 -0.0727727 0.993178 0.301974 0.322853 -0.724148 -0.447994 0.872551 0.157651 0.303488 -0.286652 0.0442037
89 -0.267352 -0.551515 -0.0930075 -0.131152 -0.365155 -0.736212 -0.425676 -0.15926 0.18239 -0.319605 -0.150121 0.371084 0.475961 -0.116825 -0.0317504 0.276054 0.451546 0.356529 -0.00203494 0.0651031 0.0478936 -0.211538 0.280172 -0.208827 -0.263799 0.701124 -0.523737 0.203222 0.140892 0.210601 0.245635 0.71864
638 -0.860707 0.366158 0.119339 0.280483 0.158001 -0.691255 0.0784685 0.287383 -0.216802 -0.0809616 0.22908 -0.283821 0.310722 -0.676177 -0.280062 0.053701 0.107024 -0.255352 -0.208428 -0.0997694 -0.0116048 0.15056 0.764663 0.00458197 0.00565659 -0.287928 0.186284 0.64079 0.0310463 0.421738 -0.193639 0.166786
379 -1.00418 0.439701 0.28286 0.624664 0.051956 -0.704852 0.436862 -0.148161 -0.123167 -0.0672253 0.435136 0.0186075 0.0400933 -0.211883 -0.5738 0.133975 0.202123 -0.495317 0.112403 -0.08174 0.0019902 0.190001 0.391465 -0.284029 0.359722 -0.149422 0.0340702 0.754579 0.302701 0.362975 -0.283491 -0.00599725
804 -0.0325871 -0.177443 0.0305763 -0.669282 -0.0184749 0.287722 0.264894 0.198507 -0.00674814 -0.326304 0.0551357 0.202375 -0.0990031 0.442566 0.0942771 -0.0265852 0.0850621 0.353165 -0.0950008 0.0358487 0.565151 -0.106329 -0.133258 -0.0848851 0.0774293 0.0874555 -0.214674 -0.031967 -0.264105 -0.0721409 -0.243838 0.0977101
127 -0.136394 0.0419511 0.0577279 0.265481 -0.207332 0.381803 0.410205 -0.0484907 -1.20693 0.313188 0.155039 0.124623 0.202171 0.603514 0.0868512 0.10948 -0.470902 -0.233533 -0.507421 -0.137556 0.330619 0.2107 0.18477 0.205915 -0.248948 -0.016383 -0.239819 -0.371505 0.165491 0.4428 -0.429222 0.144283
173 0.12343 0.112216 0.0173417 -0.288594 -0.689917 -0.467267 -0.00743535 0.318596 -0.602968 -0.451409 -0.175849 0.84672 0.0483515 -0.0703946 -0.00852089 0.0336415 -0.196221 -0.284532 -0.573629 0.0928156 0.427247 0.741314 0.425805 -0.314428 0.237724 -0.651978 -0.489002 -0.321891 0.164766 0.047634 -0.00659789 -0.0934698
424 0.292977 0.0321786 -0.287324 0.409132 -0.347337 0.249067 0.64166 0.143711 -0.62233 0.0138145 -0.136412 -0.318901 0.657828 0.24107 0.0183784 -0.250922 -0.227259 -0.326982 -0.189277 -0.123389 0.959695 0.561353 0.382514 0.0399286 -0.0489725 -0.364031 -0.0239725 -0.477971 -0.0951977 0.13942 -0.168545 0.333491
580 0.535577 0.33529 0.109374 -0.0438261 0.000780978 0.517668 0.00941966 0.100892 -0.917867 0.520472 0.0801384 -0.183754 -0.134113 0.422427 0.0396604 0.760732 0.179936 0.660237 -0.210285 -0.102916 0.0759577 -0.188549 0.300084 -0.409891 -0.188433 -0.162842 -0.32654 -0.210028 -0.566883 0.347021 -0.583226 -0.0527044
671 -0.56474 0.776135 0.164336 -0.252658 -0.140499 0.394297 0.410431 0.0426379 -0.548831 -0.337819 -0.167001 0.349331 0.827861 -0.112249 0.166324 0.172992 0.621776 0.483537 0.270663 0.133383 -0.0177156 0.476452 0.233744 0.622411 0.150567 -0.311102 -0.187548 -0.671368 0.0523926 0.0394998 -0.435878 0.241686
811 -0.154729 -0.437796 -0.322929 -0.66299 0.1589 0.17069 0.18549 0.17057 0.355993 0.0595851 0.191706 0.00152652 -0.368816 0.351956 -0.188501 -0.0213553 -0.0149238 0.277484 0.00840823 0.00496764 0.17157 -0.0709054 -0.0337377 -0.0756524 -0.0747789 0.0625625 0.192467 0.0460628 -0.027537 -0.510455 -0.151949 0.0821397
373 0.411951 0.0457176 -0.302218 0.0458967 0.0281161 -0.183998 0.605325 0.134882 0.163142 0.0265938 0.0437514 -0.537908 0.33362 -0.162694 -0.179992 0.105102 -0.0632895 0.427991 -0.700844 -0.950091 -0.465576 0.10777 0.0948262 -0.669057 -0.189914 -0.333009 0.440604 -0.0962537 -0.25877 -0.763705 -0.00859424 -0.3009
138 -0.375539 -0.311319 -0.311068 0.275046 -0.013543 -0.398944 0.0979666 0.421018 -0.422913 0.266068 -0.0932091 0.0265701 0.050686 -0.367497 -0.336256 -0.18244 -0.443727 -0.200096 -0.137213 -0.254376 -0.691976 0.143054 0.812045 0.148656 -0.296326 -0.274418 0.884589 -0.144144 0.160187 -0.475312 0.0217282 0.214517
201 -0.81453 0.221362 -0.208448 0.237387 0.140002 -0.0461809 -0.289777 0.164009 -0.522133 0.350851 -0.0937773 0.21834 -0.222472 0.163602 -0.794136 0.0885936 -1.1601 -0.324489 -0.586572 -0.240154 -0.65421 -0.0244257 0.227463 -0.0470568 -0.454582 -0.0768049 0.224024 -0.220404 -0.0721326 -0.458286 -0.276098 0.458
285 0.428495 0.207151 -0.760574 0.3766 0.299353 -0.192182 0.758703 0.613549 -0.0617174 0.51995 -0.0775529 0.0266891 0.262541 0.15196 -0.204422 -0.277043 -0.397477 0.528127 0.310279 0.348877 0.306098 -0.0862531 0.61642 0.227348 -0.200362 0.0120871 0.637342 -0.288671 0.254333 -0.257801 -0.175901 -0.0766612
506 -0.291662 0.355535 -0.691451 -0.0254705 0.652105 -0.154328 -0.10594 0.419991 -0.0185458 0.336872 -0.292537 0.500007 -0.639756 0.437484 -0.0620558 0.256586 -0.252951 0.507106 0.0946809 -0.711782 -0.183119 -0.19802 -0.0410587 0.259853 -0.399271 0.258297 0.268682 -0.140901 -0.217455 -0.143165 0.115164 -0.345162
806 0.0503622 -0.0651114 -0.0771401 -0.692104 -0.108892 0.173171 0.102871 0.144815 0.499287 0.0253094 0.136271 0.0676758 -0.444077 0.318306 -0.0779864 -0.0873486 0.0300624 0.158135 -0.0686069 0.165884 0.406009 -0.106012 -0.296479 -0.0694343 0.146165 0.0341124 -0.225076 0.113671 -0.00935473 -0.303928 -0.183744 -0.0816998
616 0.455717 0.370334 -0.187273 -0.399818 -0.270407 -0.08759 -0.0118072 0.123104 0.310787 0.16008 0.266835 -0.177037 -0.102919 -0.627492 -0.563961 0.621751 -0.474837 -0.110716 -0.181196 -0.0680183 0.367313 -0.394417 0.234145 -0.0378196 0.284901 0.136128 -0.12678 0.301055 -0.0187175 0.479573 0.0945175 -0.619466
120 -0.110323 0.796074 0.124551 0.168868 0.55527 -0.422898 0.577405 0.137266 0.286127 0.0971773 -0.0902131 0.580332 -0.337617 0.120968 -0.197504 0.0966476 0.241734 0.132897 -0.221519 -0.238719 0.0706328 0.397249 0.40848 0.391984 0.694541 0.125695 -0.46535 0.818084 0.399218 -0.208869 -0.0502091 -0.68628
689 0.484891 0.340863 0.0978594 -0.440775 0.370736 8.71366e-05 0.143372 -0.266665 0.0637204 0.0428395 -0.309624 0.236736 -0.0518605 0.107806 -0.0196394 -0.277094 -0.478586 -0.135088 -0.266515 0.316125 0.353465 0.0275615 -0.125104 -0.480049 -0.227248 0.436446 -0.265007 -0.217427 0.0213254 -0.337125 0.329711 0.101432
512 0.0350264 0.0296961 -0.0880608 8.27624e-05 -0.826012 -0.304852 0.499046 0.514685 0.797545 0.228119 -0.11258 0.181849 0.530893 -0.220214 0.155189 -0.071064 0.470815 0.326624 -0.0330924 -0.0583432 -0.135863 -0.186127 -0.145069 -0.216323 -0.07406 0.489889 -0.590777 -0.243036 -0.218521 -0.584458 0.209724 0.0585875
236 0.0566868 0.436219 0.246922 0.11145 -0.791968 -0.253208 0.102172 0.616811 0.00691001 0.192124 -0.0934208 0.325271 -0.203231 -0.563617 -0.0948473 -0.274796 -0.369711 -0.635275 -0.411796 0.133749 -0.263694 0.572727 0.541639 -0.0819363 -0.015011 -0.577504 -0.353468 -0.0599811 0.379876 -0.0752964 0.118609 -0.438372
200 0.098211 0.631362 0.309506 0.113265 -0.858432 -0.182837 0.113903 0.542015 0.0632762 0.158199 -0.0452635 0.277986 -0.166323 -0.499918 -0.0577545 -0.310794 -0.32728 -0.674898 -0.359267 0.181328 -0.230777 0.608093 0.500056 0.0150157 -0.00859482 -0.563542 -0.327674 -0.000849966 0.382535 -0.05454 0.199428 -0.419412
295 0.0173416 -0.070823 0.438515 0.449296 -0.789939 -0.122299 -0.371178 0.65316 0.201468 -0.159565 -0.324045 0.0840202 -0.688266 -0.0764489 0.471704 0.258566 -0.179034 0.210842 0.0317778 0.356158 0.169752 0.00457477 0.225437 -0.628583 -0.341688 -0.697585 0.000771166 -0.0786374 0.256179 0.0644184 0.319914 -0.522838
454 0.202451 0.117028 0.49382 0.0466385 -0.899827 -0.113773 -0.0204922 0.495746 0.0140008 0.13717 -0.260227 0.582732 0.254683 -0.264286 -0.341831 -0.341754 0.194102 -1.13834 -0.165445 0.269071 -0.0220594 0.412901 0.502073 -0.15488 -0.583556 -0.041299 -0.55809 0.501988 0.068304 -0.262479 0.311465 -0.578402
612 0.129943 0.564059 0.299145 0.125447 -0.86937 -0.207185 0.136548 0.516908 0.0202721 0.178786 -0.0959132 0.347615 -0.198813 -0.581441 -0.0315694 -0.351036 -0.365525 -0.685371 -0.408066 0.134349 -0.242829 0.607472 0.453093 0.008201 -0.0215841 -0.514766 -0.375394 0.0482855 0.409719 -0.0766366 0.202724 -0.493195
508 0.739462 -0.205003 0.23277 0.113098 0.153231 0.0948527 0.220652 -0.0616135 0.872698 0.152825 -0.13139 0.161216 -0.0994041 0.305552 0.440991 -0.614627 0.365586 -0.327295 -0.019327 0.278513 0.0970501 0.24816 0.0572204 0.221143 -0.0876305 -0.188353 -0.176812 -0.229762 -0.256823 -0.0378565 0.171145 -0.0136249
180 0.11139 0.721668 -0.278142 0.317457 -0.813362 -0.173826 0.32082 0.308522 0.318636 0.0894947 0.0549219 -0.110951 0.160477 -0.363124 -0.147528 -0.585708 -0.479775 -0.535129 -0.216686 0.0792587 0.28708 0.932976 0.520203 -0.252508 -0.19589 -0.745564 -0.317759 -0.145281 0.0237387 -0.396306 0.146449 -0.132147
282 -0.0376049 0.465774 0.00846943 -0.296527 -0.450478 -0.101829 0.219339 0.161002 0.708818 -0.117467 0.0354829 -0.131491 -0.0918353 0.063379 0.7983 0.0285802 -0.362967 -0.987196 -0.0960841 0.341844 0.199266 0.874661 0.359363 -0.243504 -0.242236 -0.670222 0.218506 -0.168241 0.081068 -0.207282 0.451586 0.546396
279 0.0587899 0.585353 0.189169 0.12879 -0.880516 -0.226579 0.0834336 0.496122 0.0169075 0.170344 -0.0693328 0.269437 -0.13263 -0.563494 -0.0529252 -0.329614 -0.274948 -0.697115 -0.389084 0.1313 -0.248232 0.513067 0.539523 -0.0398765 0.0203802 -0.530996 -0.370062 0.00254016 0.396543 -0.0827028 0.17358 -0.447633
270 0.336918 -0.0147321 0.588039 0.315876 -0.890494 -0.325248 -0.188443 0.234839 0.0701612 -0.436717 -0.128238 -0.481666 -0.565407 -0.0162859 -0.14014 -0.438131 0.163912 -0.104159 -0.580385 0.444192 -0.468031 0.57533 0.193137 -0.0967968 -0.0454102 -0.481687 -0.279452 -0.163505 0.269562 -0.0102497 -0.150894 -0.336984
677 0.104349 0.491554 0.296811 0.217957 -0.860425 -0.234332 0.169739 0.571004 0.0433757 0.145376 -0.140499 0.328724 -0.205673 -0.580068 -0.0994666 -0.312603 -0.287123 -0.644993 -0.43772 0.116937 -0.206251 0.575451 0.502846 -0.010359 -0.00508093 -0.522273 -0.419152 -0.00950075 0.433861 -0.0118462 0.151739 -0.471855
170 -0.00360978 0.394325 -0.211218 0.132702 -0.368129 -0.147412 -0.0793191 -0.100592 0.323596 -0.544711 -0.750433 0.506102 -0.147735 -0.17701 -0.564163 -0.023316 0.133507 -0.0838542 -0.31124 0.30744 -0.292607 0.219568 -0.470282 0.802492 0.197332 -0.203277 0.158699 0.00373627 0.337042 -0.623399 -0.837683 -0.429661
340 0.0123525 0.419951 0.316302 -0.12651 -1.01688 0.00282248 0.27675 0.632239 -0.530381 -0.225894 -0.299743 0.621004 -0.122264 -0.166587 0.15346 -0.0718018 -0.0105898 -0.406404 -0.495492 -0.0432177 0.220145 0.765572 0.52367 -0.0820561 0.125365 -0.578099 -0.45272 -0.167079 0.132725 0.0976649 0.0404374 -0.23207
240 0.12558 0.522706 0.274778 0.149422 -0.958163 -0.241095 0.135258 0.579327 0.022657 0.17052 -0.049759 0.316176 -0.152933 -0.530497 -0.042426 -0.40234 -0.328638 -0.724348 -0.354743 0.0943906 -0.196465 0.577252 0.460524 -0.0213379 -0.0526945 -0.526175 -0.33423 -0.0187675 0.463423 -0.0733596 0.118141 -0.428296
238 -0.0715044 0.702985 0.291548 -0.254959 -0.411946 0.343322 -0.0769129 0.196742 -0.893192 -0.0813349 0.0764652 0.363028 -0.434607 0.118159 0.150461 0.324589 -0.360743 -0.0305319 -0.856662 -0.356131 0.18162 1.05608 0.241961 -0.0121873 -0.237567 -0.114696 -0.62314 0.0799073 -0.177763 -0.0631898 0.00870483 -0.400696
46 0.198808 0.556429 0.325888 0.179682 -0.876067 -0.192743 0.0749176 0.577749 0.110173 0.246107 -0.00411065 0.268453 -0.152188 -0.556586 -0.0417538 -0.304171 -0.326364 -0.592942 -0.314021 0.0796216 -0.25945 0.580725 0.472175 -0.0128985 -0.0656032 -0.535481 -0.349002 -0.0137769 0.393085 -0.0460331 0.156397 -0.467115
807 0.110633 -0.273445 -0.102331 -0.543379 0.185471 0.271409 0.203608 0.0273252 0.379943 0.109073 0.181504 -0.089206 -0.228997 0.343969 -0.0767294 -0.0234712 0.0735252 0.198346 -0.0616795 0.151879 0.505722 -0.257386 -0.342289 -0.0350923 0.0619022 0.180167 -0.0964487 0.019832 0.0288794 -0.144715 -0.212883 0.0241874
166 0.283334 -0.192003 0.53543 0.350575 0.335282 -0.379517 0.38447 0.0108394 -0.00426603 0.736435 -0.289989 -0.132375 0.246935 0.0755929 0.653232 0.153387 0.143856 0.370546 -0.068547 0.45622 -0.0914952 -0.399505 -0.0326327 0.169256 0.119759 -0.285134 0.153794 -0.460272 0.165418 -0.139857 0.0929995 -0.200704
518 0.00600435 0.0605942 -0.257277 -0.32078 0.146366 -0.383932 0.535044 -0.105508 -0.295143 -0.261049 0.351966 0.772333 -0.00782566 -0.110522 0.338583 0.0544192 -0.263684 0.483001 -0.167835 0.112768 0.612513 -0.824259 0.264151 0.0792807 -0.164254 0.231055 0.0715614 -0.256051 0.0404943 0.454063 -0.325565 -0.257055
167 0.849044 -0.215408 -0.17542 0.40008 -0.0652907 0.0170182 0.137627 -0.10949 -0.331239 0.425693 0.0507344 -0.00162872 0.352041 0.245633 -0.0892287 -0.00351069 0.791728 -0.156187 -0.393309 0.170772 0.00203269 -0.763762 -0.0633483 -0.19703 0.154586 0.161667 0.0701948 0.385037 -0.223353 0.263902 0.767572 0.266673
64 -0.132967 -0.581324 -0.0185947 0.213416 -0.3949 -0.165201 0.43392 -0.293415 -0.149526 0.298608 -0.0966616 -0.0747997 0.307451 -0.644978 0.600532 0.436223 -0.259755 -0.640687 -0.215417 -0.331061 0.305845 -0.444492 -0.264918 0.146029 -0.0232512 -0.181973 0.34273 -0.452663 0.376253 0.0318597 -0.387605 -0.103083
118 0.293584 -0.303081 -0.229345 0.486568 -0.0385793 0.103614 0.34458 -0.048379 -0.598507 0.839676 0.00238958 -0.516959 0.451816 -0.0560952 -0.165067 0.243965 -0.167823 -0.717349 -0.203335 0.130686 0.540492 -0.101075 0.281995 0.330641 0.180493 0.0572083 0.176516 -0.420787 0.632867 0.363719 -0.256783 0.00476419
548 -0.316966 -0.233034 0.189093 0.372829 0.306941 -0.20147 0.296313 -0.0413832 -0.194641 0.667548 -0.290227 -0.0416414 0.297829 -0.336211 0.581818 0.305659 -0.0543394 -0.20401 0.266619 0.395419 0.472959 0.0285089 -0.0252517 0.614569 0.0562817 -0.0965393 0.262635 -0.698242 0.361753 -0.00480649 -0.042917 -0.091604
436 0.323766 -0.747601 -0.029587 0.177083 -0.48043 0.0316958 0.0109529 -0.0540545 -0.215195 0.647619 -0.109771 -0.189469 1.05557 0.134575 -0.579301 0.320669 -0.0667284 -0.691588 0.208834 0.241726 0.151643 0.0820796 0.267409 0.24437 -0.28472 0.48106 -0.320218 0.250957 0.250134 0.344293 0.0744753 -0.0735731
53 0.249616 -0.193804 -0.129702 0.536282 -0.113684 0.028732 0.270158 0.00166519 -0.570396 0.654687 -0.089576 -0.403281 0.391437 -0.245957 -0.149988 0.03588 -0.173323 -0.739454 -0.201718 0.12956 0.332496 -0.0221801 0.399763 0.315787 0.0721911 0.00277052 0.176248 -0.300747 0.402448 0.356092 -0.178937 0.038194
376 0.063434 -0.0043639 0.296017 -0.320568 -0.01562 0.363287 -0.571906 -0.357879 0.0871843 0.253053 0.151994 -0.566752 0.622792 0.0377495 -0.38939 0.163798 -0.183188 0.734698 0.0888928 0.126206 0.0998355 -0.0706327 0.159364 0.366819 0.514229 0.475569 0.0631763 -0.368441 0.196074 0.0890913 0.871812 -0.580814
296 0.225916 0.406936 -0.111121 0.119974 0.2426 0.236489 0.0603354 -0.0640583 0.501707 0.230428 0.163314 -0.0620224 0.363939 -0.555333 -0.226424 -0.0320661 0.172515 -0.0581722 -0.464849 -0.493435 0.771426 0.594326 0.0322341 0.480761 0.190817 -0.61485 -0.07844 0.371946 0.491481 -0.405104 -0.537554 -0.454506
574 0.115555 0.307098 0.237306 -0.628216 -0.182913 0.344015 0.79529 -0.307531 -0.456808 -0.25847 0.0337749 0.156722 0.368938 0.27511 0.372793 0.163731 0.283971 0.16331 0.0286917 0.104981 0.0494639 -0.790363 -0.189782 0.258952 -0.617895 0.209383 -0.35681 -0.156548 0.286913 -0.275704 0.0966121 0.316921
421 0.769498 -0.0577852 -0.316175 0.048218 0.379871 -0.20073 0.0600298 -0.194704 -0.353099 0.551777 0.324611 -0.097472 -0.0785526 -0.293327 0.670664 0.621514 0.0428184 -0.218194 -0.0715152 -0.330969 0.178533 -0.00504416 -0.163066 0.166201 0.162233 0.387207 0.0916485 -0.161192 -0.237194 0.00157485 0.477499 -0.25789
641 -0.0677449 -0.0992641 0.181808 -0.221326 -0.278686 -0.215249 -0.0125736 -0.535372 0.438833 -0.0816794 -0.380028 -0.214539 -0.649745 0.101291 -0.412395 0.145898 -0.0491305 0.123408 0.0497315 -0.319041 0.327198 -0.070053 -0.389307 0.510358 0.497344 0.370597 -0.297286 -0.128048 0.457417 -0.000372277 0.0420892 -0.451563
153 -0.0610918 -0.127675 0.139035 -0.0527314 0.321021 0.199619 0.112537 -0.25507 0.101095 0.450559 0.0753807 0.297519 0.071864 -0.268412 0.527756 -0.0735951 0.122867 -0.308581 0.354118 0.307662 0.232685 0.206454 -0.0254661 0.353053 0.249925 0.157943 0.702042 -0.593465 0.0957742 0.429863 0.340872 0.398703
536 -0.201529 -0.0779764 -0.0467263 0.172141 -0.157895 0.0516879 0.140154 -0.32104 0.564451 0.588466 0.55661 -0.927923 0.628996 0.450809 -0.318256 0.0980922 -0.169537 0.803397 -0.443497 0.0209249 0.443526 0.153045 0.133164 -0.203737 -0.479068 0.0165893 -0.763248 0.0363065 0.191763 0.480704 -0.392861 0.707281
237 0.392061 -0.325052 -0.193934 0.485514 -0.0397642 0.142648 0.334068 -0.060436 -0.653257 0.774708 0.102011 -0.570819 0.487324 -0.0673544 -0.152575 0.152802 -0.160758 -0.709136 -0.141627 0.145645 0.605154 -0.110694 0.280563 0.326872 0.21938 -0.00741616 0.245971 -0.390247 0.60642 0.355265 -0.253642 -0.0128131
354 0.442872 -0.501517 0.462333 0.642628 -0.20422 0.198038 -0.0130583 -0.186866 -0.419377 0.403248 -0.16469 -0.873087 0.265751 0.255213 -0.154308 -0.0217023 0.105418 0.129895 -0.398488 0.195707 0.146917 -0.280334 0.155409 -0.165698 0.0962932 -0.269688 0.174413 -0.237631 0.581319 0.163061 0.0224297 0.0987021
224 0.692912 -0.246007 0.0343104 -0.0665415 -0.172548 0.4073 0.147277 -0.21038 0.258522 0.394872 0.243722 -0.0333254 -0.0987902 0.0968673 -0.105619 0.517501 -0.361135 0.191248 -0.63391 -0.51768 -0.63683 -0.0490207 0.0109791 0.0944299 0.162757 -0.237738 -0.834175 0.113941 0.425582 0.0968187 -0.27316 -0.57114
547 0.241008 -0.134089 -0.14916 0.572279 -0.101813 0.00822869 0.269718 -0.0157077 -0.591729 0.645688 -0.155854 -0.425641 0.406448 -0.24187 -0.188499 0.099126 -0.191392 -0.730839 -0.125488 0.147985 0.276746 -0.0243198 0.282301 0.281869 0.101774 -0.00847315 0.149267 -0.311457 0.431228 0.324278 -0.163458 0.0468442
420 0.296627 -0.116304 -0.163637 0.509347 -0.0802988 0.0204198 0.24764 0.10938 -0.556754 0.632955 -0.0367389 -0.427084 0.391095 -0.20834 -0.137408 0.0558179 -0.195292 -0.675653 -0.14449 0.126159 0.298158 -0.0912663 0.425132 0.309597 0.143554 -0.0377297 0.220953 -0.38299 0.397483 0.360782 -0.151679 0.0301654
322 -0.0698955 -0.098143 0.129419 0.541923 0.0990265 0.160412 0.0876813 -0.440233 0.14911 0.433988 0.446404 -0.123811 0.0110095 0.179949 0.235146 -0.426226 -0.228234 0.536225 -0.118626 0.153033 0.366692 0.0481024 -0.269461 0.229465 -0.499134 -0.172314 -0.00568955 -0.656969 -0.143614 -0.161491 0.395502 0.437299
67 0.207224 0.0109877 0.518974 0.282864 0.500164 0.333176 -0.0642053 -0.108218 -0.371428 0.463342 -0.331857 -0.705331 0.226928 -0.248216 -0.228156 0.292822 0.271106 0.588312 -0.349694 0.184769 0.172289 0.346232 -0.0491775 0.278031 0.204451 0.0332347 0.180435 -0.226594 0.214836 -0.119203 0.112518 -0.352011
532 0.10852 0.0900923 0.188488 -0.818809 0.180828 -0.589272 -0.184105 0.0793279 -0.00885378 0.181425 0.210995 -0.0585055 -0.293775 -0.254297 -0.397753 0.218395 -0.429938 0.383097 -0.0508863 -0.100851 0.288568 -0.45456 -0.460213 -0.23372 -0.109463 -0.151892 -0.298094 -0.0752532 0.265569 0.396433 0.112256 -0.33788
696 0.223134 -0.606133 -0.169178 -0.050004 -0.7963 -0.0223672 0.435785 -0.140031 -0.0964991 0.409026 0.045157 -0.307693 0.88452 -0.523261 -0.568843 0.421727 -0.449791 -0.27904 -0.163077 -0.28482 -0.129641 -0.147967 -0.131336 0.310864 0.321908 -0.0215481 0.0254289 -0.0116986 0.497581 0.44729 -0.417949 -0.084215
423 0.114377 0.353702 0.434411 -0.0475604 -0.142584 0.512658 -0.12651 -0.0962168 -0.0982258 0.431975 0.0912941 0.0383428 -0.367064 -0.470662 -0.522759 0.0932942 -0.325814 0.180731 -0.929647 -0.127982 0.0914227 0.0227326 -0.491549 0.310636 -0.0560996 0.00188286 -0.0356116 -0.253022 0.033875 -0.118917 0.0758595 -0.17022
160 0.172831 0.108876 -0.166638 0.168084 -0.114742 -0.0409445 0.231036 -0.478688 -0.591208 0.25494 -0.0840379 -0.667948 0.406584 -0.147408 -0.164368 0.0476302 -0.346398 -0.669379 0.137965 0.184978 0.506503 -0.44774 0.657229 0.222139 0.235448 0.0539622 0.0372936 -0.488407 0.439296 0.181773 -0.0909445 -0.386343
485 -0.296912 -0.313111 0.7003 0.49454 -0.206636 0.157432 0.433915 -0.292217 -0.39705 -0.0572809 0.107442 0.449873 -0.242178 0.369624 0.236947 0.0969436 0.375122 0.369908 0.213804 0.0557806 0.633482 0.101969 -0.292421 0.186741 0.3643 -0.1028 0.0624057 -0.558735 0.180859 0.161243 0.431303 0.18063
13 0.206177 -0.161313 0.143791 0.231655 0.0269988 0.0342336 0.0573701 -0.0669181 -0.394205 0.115868 -0.274558 0.105894 0.104163 -0.123864 0.305796 -0.170167 0.286105 0.566088 0.601738 0.180038 0.274912 -0.157198 -0.564306 0.282514 -0.0303306 0.239268 0.299905 -0.099568 0.97295 -0.538231 0.212541 0.418848
402 0.277065 0.11322 -0.64614 -0.0894394 -0.204832 0.538706 0.552859 0.241143 -0.455809 -0.337151 -0.25146 0.0573433 -0.0314898 -0.334447 -0.173067 -0.151967 0.0600211 -0.11566 0.157959 -0.0504966 0.0939208 -0.513671 -0.279616 -0.314567 0.448411 0.209577 0.776381 0.225968 0.595627 0.747341 0.115564 0.547024
583 0.451701 -0.178359 -0.253143 0.447638 -0.333324 0.224789 -0.0991163 0.394964 0.377551 -0.363175 -0.0698997 -0.391482 -0.215201 0.362568 -0.341299 -0.372451 0.128302 -0.64817 -0.441068 0.424042 0.257522 -0.136877 0.0500628 0.436481 1.65413e-05 0.240406 -0.461687 0.10929 0.00563132 -0.674852 0.220502 0.413484
613 0.552498 0.0737587 -0.703443 0.565242 -0.234499 0.10115 0.277106 -0.237555 -0.120959 0.237078 0.575304 -0.393112 0.397395 -0.18938 -0.305546 -0.528681 -0.15402 -0.432388 0.121858 -0.171141 0.608014 0.236961 0.15549 0.214558 0.00618362 -0.0269494 0.144801 -0.436538 -0.146767 0.0449048 0.416693 0.461405
95 -0.0563802 -0.786386 -0.43328 0.180456 -0.0719482 -0.18424 0.0625183 -0.21307 -0.33987 0.398443 0.436734 0.124139 -0.169422 -0.210434 0.302591 0.218408 -0.292152 -0.174076 0.246259 -0.333601 0.354964 -0.0963595 0.218674 0.310218 -0.14154 0.0451424 0.623222 -0.541387 0.212711 -0.253672 0.64699 0.417152
286 0.60321 0.180698 0.160736 -0.277144 0.337474 0.12637 0.436054 -0.182999 -0.193476 0.893303 0.27973 0.333508 0.159191 -0.0622051 -0.0726845 -0.0511738 0.309901 -0.185934 0.388925 0.290293 -0.256155 -0.0622949 0.341648 0.136922 0.688814 -0.12984 0.631945 -0.343566 -0.42497 0.313303 0.0357228 0.338773
579 -0.106697 -0.491164 -0.0121774 0.480163 -0.0765413 -0.243735 0.13386 -0.097073 -0.322714 0.544813 -0.188442 -0.246298 0.109873 -0.214612 0.717102 0.443102 -0.23943 -0.696586 0.138571 0.0905505 0.492379 -0.126661 0.130509 0.176011 0.00536393 -0.0269226 0.190201 -0.506746 0.411901 0.110367 -0.0116457 -0.00446272
158 0.0278634 0.0282066 -0.566804 0.300179 -0.365194 0.166441 -0.310372 0.148118 -0.183898 0.311135 0.220707 0.0343172 -0.130458 -0.318213 0.433944 0.47483 0.216069 -0.037646 0.589028 -0.00944901 0.507348 -0.443584 -0.0283622 0.0650374 -0.367929 0.116423 0.0450884 -0.666945 -0.0792913 0.693594 0.0833511 0.228413
24 0.185554 -0.721 -0.0493507 0.341035 -0.205456 0.0329027 -0.091603 -0.24539 -0.221486 0.332755 0.188835 0.282118 0.261166 -0.169673 0.278798 0.130907 0.309465 -0.817545 0.264181 -0.0385481 0.483311 -0.338455 -0.057018 0.199687 -0.369696 0.492781 0.0990115 -0.196241 -0.099927 0.0586143 0.585614 0.116479
183 -0.0668526 -0.328035 -0.247029 0.446839 -0.174074 -0.468905 0.431672 0.106902 -0.431362 0.246246 -0.506962 -0.061632 0.0486184 0.0396378 0.685962 0.303072 -0.21992 -0.439366 0.052367 0.0643739 0.435998 -0.188273 0.282123 0.357207 0.0986323 0.652511 0.217069 -0.346391 0.787141 -0.170526 -0.102144 0.100611
328 0.0874654 -0.0882876 -0.2727 0.505848 0.418966 0.289227 -0.188275 0.0856 -0.127087 0.405878 -0.649479 -0.169233 0.142133 0.0888272 -0.635526 0.213823 -0.519058 -0.974535 -0.275475 -0.211071 0.204375 -0.349392 0.160375 0.467963 0.477448 -0.26803 -0.215059 -0.225836 0.261244 0.084517 -0.349804 0.130405
231 -0.0357229 -0.155461 -0.210265 0.381507 0.0726381 0.154959 -0.052744 0.253213 -0.124629 0.325931 0.189182 0.308149 -0.149728 -0.407286 0.287229 0.18278 -0.00389816 0.174275 0.706754 0.387706 0.623771 -0.272587 -0.124132 0.435547 -0.175151 -0.106345 0.517022 -0.574906 0.0221899 0.476574 0.31653 -0.200591
229 0.979764 0.460558 -0.878102 0.163875 0.262115 0.133142 0.480519 0.446982 -0.484995 0.000260496 0.0354297 -0.278366 0.021095 -0.136854 -0.107905 -0.124221 -0.298402 0.217139 0.403335 -0.122007 0.309118 0.0688693 -0.0338177 -0.206017 -0.0634299 0.418733 0.0662258 0.134107 0.062154 -0.000939943 0.313831 -0.0901539
80 0.222038 0.00721088 -0.355125 0.444061 0.32324 0.0346114 0.0953166 -0.232427 -0.0936788 0.27957 -0.0731126 -0.754967 0.252174 -0.250629 0.524871 0.45879 -0.353415 -0.413745 -0.13845 -0.300394 0.856376 0.68895 0.0868724 -0.0473804 -0.147578 0.0702834 0.0314047 -0.368119 -0.114914 -0.363793 0.12236 -0.109364
625 -0.483102 -0.141314 -0.128286 0.113264 0.132073 0.149602 0.329397 0.00150203 -0.72426 0.878405 -0.0678149 -0.285317 0.680091 -0.212665 0.00274991 -0.369602 0.0393485 -0.254577 0.118621 0.617108 0.263144 0.262656 -0.0928778 0.852538 0.385728 -0.251366 0.240469 -0.232818 0.201165 0.188909 -0.193659 -0.517925
60 -0.00216474 -0.0543716 -0.285243 0.428547 0.133396 -0.0845385 0.305832 -0.192255 0.292857 0.417142 0.272975 -0.0293533 0.275906 -0.33193 0.340685 -0.305367 -0.0370942 0.0274997 0.433912 0.181678 0.79062 0.220734 -0.162674 0.571329 -0.107054 -0.128821 0.240887 -0.804151 -0.15681 -0.181027 0.506994 0.301089
808 0.03271 -0.0650383 -0.26288 -0.534259 0.0911425 0.161159 0.204793 0.0435782 0.567694 -0.0443546 0.134302 -0.128064 -0.142402 0.362807 -0.0881087 -0.233195 0.00826858 0.278915 0.00630603 0.11878 0.480206 -0.0559823 -0.298882 -0.201565 -0.0228276 0.0794738 -0.128344 0.0626855 -0.211247 -0.335179 -0.225152 0.113838
190 0.0745996 -0.356443 -0.557746 0.776098 0.321355 -0.0469229 0.159286 -0.294698 0.368091 0.175375 -0.272991 -0.296261 0.34644 0.247881 0.528921 -0.137165 -0.407894 -0.649474 0.199011 -0.415477 0.668965 0.118553 0.348211 0.314288 0.0256835 -0.602041 -0.309982 -0.322549 0.106764 -0.267159 -0.0500947 0.157674
49 0.132664 0.700774 -0.183393 0.305249 -0.84311 -0.208289 0.282901 0.357708 0.331902 0.0345997 0.0148772 -0.0800482 0.17605 -0.272874 -0.166027 -0.562696 -0.460173 -0.571982 -0.346753 0.0623851 0.307733 0.972971 0.53021 -0.205906 -0.18789 -0.705098 -0.324265 -0.11968 0.0385436 -0.449975 0.203698 -0.215874
584 -0.184722 1.11522 -0.263961 0.0664163 -0.741478 -0.025743 -0.195606 0.327114 0.3716 0.224745 -0.39733 -0.102095 0.0960351 -0.328682 -0.516803 -0.065946 -0.286733 -0.622265 -0.391841 0.00317675 0.173428 0.448336 0.196761 -0.223224 -0.18561 -0.360541 -0.655859 -0.518014 -0.176786 -0.266562 -0.128391 0.408683
559 -0.0754901 0.0585241 -0.508362 0.24723 -0.131133 -0.181676 0.22273 -0.105048 -0.0977266 -0.345971 0.153744 -0.0785683 0.0698397 -0.477489 0.433809 -0.358552 -0.354885 -0.275843 0.756983 -0.295246 0.205869 0.318473 -0.375191 -0.312076 -0.313368 -0.378098 -0.180111 -0.240213 -0.122028 -0.364721 0.815219 0.64404
50 0.576253 0.279513 -0.508675 -0.323465 0.0376587 -0.208328 0.379151 -0.031159 -0.166095 0.0449928 0.0483692 0.367721 -0.165533 -0.300509 0.0117011 0.0208284 -0.814738 -0.138809 -0.617133 -0.283959 0.320272 0.0168771 -0.644976 -0.24162 -0.0622898 0.268751 -0.380056 -0.261057 0.137118 -0.436646 0.096195 0.158515
578 -0.286753 0.139823 -0.376579 0.585271 -0.271324 -0.59271 0.190095 -0.0248871 0.261149 -0.133019 -0.215292 -0.228502 0.307456 -0.239751 0.760749 -0.165548 -0.505603 -0.489004 0.305254 -0.101298 0.365827 0.550807 0.217659 -0.218661 -0.406133 -0.38809 -0.00409091 -0.283737 -0.344605 -0.51593 0.15209 0.333553
585 -0.0404032 0.529026 -0.565373 0.611718 -0.241932 -0.32076 0.270733 0.151502 0.0393115 -0.0855045 -0.0832072 -0.476826 0.653193 -0.282276 -0.169177 -0.601932 -0.497628 -0.473945 -0.0382958 0.0279593 0.0418468 0.580382 0.499983 -0.0919644 -0.303097 -0.448207 0.103695 -0.129412 -0.367903 -0.342688 0.0979651 0.378675
111 -0.611108 0.384194 -0.574223 0.166707 -0.243542 -0.0301666 -0.130966 0.212757 -0.30086 0.105325 -0.487718 -0.5098 0.502934 -0.12641 -0.479104 -0.571632 -0.717011 -0.881209 -0.274035 0.203455 0.139481 0.458247 -0.0965545 -0.0328988 0.163961 -0.420321 0.0384393 0.0784362 -0.645267 -0.29261 -0.0835704 -0.052256
449 0.257685 0.701239 -0.553232 0.319984 0.242897 0.0999852 -0.10147 -0.108034 -0.187396 -0.160391 -0.168093 -0.842295 0.331067 -0.464898 -0.144848 -0.0558191 -0.298562 -0.115934 -0.22778 -0.488111 0.291057 1.11008 0.352901 -0.282986 -0.175188 -0.0392871 -0.01434 0.147758 -0.528628 -0.50439 0.0645039 -0.192566
636 -0.0604421 0.559238 -0.549185 0.612799 -0.248022 -0.277676 0.258233 0.167249 0.0331294 -0.218054 -0.119397 -0.436206 0.646864 -0.28831 -0.165893 -0.645533 -0.42173 -0.5262 -0.0505967 0.0106205 0.0709513 0.564821 0.446581 -0.150751 -0.312735 -0.4787 0.0845975 -0.104742 -0.350505 -0.37016 0.0607672 0.337912
472 -0.282454 0.457369 0.453213 -0.0410433 -0.111612 0.0383522 0.179889 0.47139 0.407726 -0.0859599 -0.512691 -0.308134 -0.158441 -0.190888 0.0100619 0.0298053 -0.430949 -0.147855 -0.0194675 0.556463 0.226949 0.310223 -0.449178 -0.0407554 -0.29832 -0.952959 -0.246575 -0.251046 0.250225 -0.707189 0.581233 0.398364
157 -0.0286531 0.569807 -0.576791 0.618402 -0.238543 -0.208848 0.319414 0.0808404 0.119224 -0.206038 -0.0453476 -0.522285 0.712369 -0.230667 -0.170695 -0.708958 -0.401723 -0.45487 0.0615775 0.00490272 0.117252 0.639589 0.544594 -0.213919 -0.305954 -0.464303 0.090541 -0.156434 -0.415687 -0.427999 0.0570174 0.367249
79 0.174501 -0.392598 -0.405137 0.668486 -0.111409 -0.455926 0.230507 -0.13251 0.151115 -0.0963217 0.0913416 -0.812855 0.0063904 0.0396022 0.573753 -0.0923187 -0.219699 -0.662832 0.100755 0.172532 0.538534 0.508518 -0.0572798 0.261405 -0.281981 -0.00692429 0.00193213 -0.809707 -0.0665186 -0.0136892 -0.416861 0.18418
66 0.207091 0.113979 -0.262592 0.233437 -0.368127 -0.00302112 0.644745 -0.799302 0.116572 -0.331099 -0.181873 -0.357438 0.382113 -0.195321 -0.574225 -0.457233 0.0757589 0.485346 -0.116444 0.310888 0.194004 -0.423091 0.0153398 0.233618 0.00616815 0.160856 0.46387 -0.428111 0.0825949 -0.380941 0.17542 -0.114871
259 -0.411627 0.737503 -0.423469 0.62701 -0.17198 -0.101859 0.168334 -0.17997 -0.222412 0.195158 0.31852 -0.229992 0.387958 0.325814 -0.142938 -0.534415 -0.856497 -0.221823 -0.309422 -0.0423341 -0.205313 0.646648 0.211331 -0.198547 -0.711273 -0.274169 -0.279323 -0.0608366 -0.378501 -0.222834 -0.207668 0.36144
706 0.176755 0.4284 -0.733693 0.482826 -0.395166 -0.130199 0.083404 -0.149887 0.0633597 -0.286237 0.459126 -0.0773366 0.30861 -0.465031 -0.337244 -0.727237 -0.201615 -0.244507 0.214987 -0.262251 0.127733 0.386974 0.264072 0.0128064 -0.098328 -0.213089 0.108028 -0.184249 -0.530204 -0.163628 0.681769 0.572703
646 -0.0365169 0.477639 -0.594323 0.69983 -0.266776 -0.293996 0.246776 0.0807436 0.123402 -0.163207 -0.0758414 -0.442822 0.705198 -0.285404 -0.177188 -0.563232 -0.385128 -0.432687 -0.00369605 -0.0155434 0.0366229 0.634971 0.443432 -0.164839 -0.288234 -0.502317 0.0939201 -0.0828818 -0.27024 -0.376895 0.0474798 0.339386
809 -0.0985719 -0.0812908 -0.0801008 -0.575334 0.187372 0.228747 0.130489 -0.0266846 0.30308 0.0523705 0.337991 0.0842865 -0.268882 0.45194 0.0166946 -0.0725502 -0.142688 0.359101 -0.163297 0.118699 0.275828 -0.20838 -0.333889 -0.0985851 -0.171446 0.204099 -0.222538 0.127754 -0.0955361 -0.168463 -0.289031 0.0594996
397 -0.629588 0.819254 -0.247632 0.145281 -0.272891 0.0424268 -0.186374 -0.274829 -0.659953 0.477947 0.208344 -0.0243886 0.271629 0.126596 0.0429401 0.141792 -0.236003 -0.0971584 -0.294585 -0.152915 -0.565387 0.093048 0.155687 0.0141024 -0.551369 -0.0256296 -0.581336 -0.24952 -0.0360299 0.25886 -0.448617 0.373767
221 -0.55584 0.787939 0.0680761 0.114471 -0.0923452 -0.179186 -0.0627579 -0.732734 -0.75982 -0.0574001 0.239891 -0.134172 -0.0187585 0.234457 -0.111322 -0.196353 -0.821867 -0.269787 -0.0904949 0.0874666 -0.351682 -0.256928 0.595399 -0.0595761 -0.498792 -0.0438102 -0.302479 -0.142589 -0.0195339 0.0329945 -0.192516 -0.304509
174 -0.608998 0.646137 0.05151 0.433484 -0.0772671 -0.133401 -0.0264766 -0.129513 -0.882709 0.368189 0.273521 0.113685 0.05513 0.231038 -0.0494189 -0.112217 -0.719423 -0.183433 -0.441434 -0.0502091 -0.690069 0.0959976 0.137943 0.0699708 -0.543959 0.0116288 -0.154218 0.0134677 -0.0688843 0.169639 -0.348385 0.124361
70 -0.70591 0.686841 0.0416322 0.31594 0.0900994 0.0150288 -0.413403 0.048297 -0.531419 0.276739 -0.226924 0.206256 -0.141732 0.151419 -0.634883 0.143666 -1.1144 -0.618881 -0.678299 0.0140516 -0.63364 -0.11866 -0.14937 0.0113094 -0.38424 0.0263723 -0.230766 -0.189211 -0.191805 -0.0193741 -0.397591 0.355148
241 -0.016501 0.250041 -0.452164 -0.0750694 -0.251141 -0.0998744 -0.255657 -0.195428 -0.585546 0.00380187 0.271089 0.14484 -0.0211028 0.0782637 -0.378011 0.239913 -0.481685 0.49386 -0.0937779 -0.363339 -0.509924 0.506429 0.0992103 0.413824 -0.092035 1.06459 -0.330237 0.389124 0.0038483 0.063628 0.339214 0.198634
205 -0.280479 0.61741 -0.0308926 0.428994 -0.11276 -0.107704 -0.601694 -0.323954 -0.688461 0.277886 0.422195 0.378013 0.153465 0.271911 0.0210339 -0.130984 -0.376467 -0.171007 -0.176808 -0.0320259 -0.515239 0.320949 -0.0970614 0.0295874 -0.592176 -0.136229 0.0832517 0.273222 0.310592 -0.255587 -0.683036 0.15182
122 -0.652267 0.525223 0.0401657 0.394633 -0.0896842 -0.130207 -0.0919508 -0.185263 -0.839094 0.285285 0.293101 0.116466 0.0485311 0.298556 -0.0243016 -0.143558 -0.665926 -0.156588 -0.487286 -0.0769405 -0.656935 0.161004 0.106415 0.0778201 -0.597725 -0.0609236 -0.167673 0.0253624 -0.0823906 0.14322 -0.332598 0.153851
462 -0.361873 0.20198 0.485731 0.540114 -0.193815 0.00857478 -0.265312 -0.314368 -0.622517 0.136355 0.107751 -0.262766 0.0135994 0.454745 -0.133942 -0.236986 -0.416303 0.370761 -0.608344 0.0283706 -0.794386 -0.0698199 0.141545 -0.343864 -0.524962 -0.232382 -0.156455 0.0543853 0.109986 -0.00113889 -0.147452 0.191201
660 -0.349553 0.181006 0.501574 0.554512 -0.20764 -0.00606175 -0.208867 -0.273114 -0.65165 0.167542 0.0786793 -0.282257 -0.0104149 0.463269 -0.131341 -0.210887 -0.429719 0.350078 -0.629157 0.105892 -0.784076 -0.0921427 0.0953647 -0.356114 -0.440716 -0.240941 -0.157035 0.0863365 0.0889937 0.00280387 -0.130996 0.211139
810 -0.129597 0.168128 -0.248202 -0.621395 -0.0604622 0.221475 -0.00622697 0.00263435 0.374808 0.107068 0.052493 -0.0997984 -0.0481019 0.209732 -0.000255348 0.12254 0.411357 0.305961 0.0622562 0.0320126 0.278728 -0.311656 -0.164546 -0.156669 -0.131331 0.165202 -0.466468 -0.17333 -0.0382832 -0.0933992 -0.350499 0.31803
521 -0.349296 0.22589 -0.371632 0.0736554 -0.512736 -0.217777 -0.357143 -0.256438 -0.0779268 0.0233929 0.126141 0.27445 -0.00818356 -0.561893 0.587653 0.219666 0.391812 -0.137011 0.426177 -0.295787 -0.0898757 -0.11843 0.0249391 0.107937 -0.279225 0.110181 -0.247979 -0.552003 -0.278849 0.104066 0.395803 0.613441
817 -0.172397 -0.200989 -0.239826 -0.474237 0.0681742 0.259932 0.0449211 0.30745 0.335984 0.0239812 0.3293 -0.0939487 -0.24957 0.24362 0.0654116 -0.110457 0.120877 0.140865 -0.0028209 0.250849 0.257702 -0.24992 -0.272995 -0.231788 0.309719 0.250005 -0.190841 0.122577 -0.135866 -0.496512 -0.25465 0.0823512
669 -0.000622905 -0.265278 -0.351 0.1872 -0.35235 -0.536267 -0.526634 0.288564 -0.253165 -0.64366 -0.290198 0.344531 0.349022 -0.426516 -0.426612 -0.18063 0.151266 -0.72012 -0.397957 0.387006 -0.162686 -0.270022 -0.415401 -0.169412 0.15541 0.778272 0.122129 0.0345082 0.150065 -0.728001 -1.05578 0.159801
151 -0.416623 -0.168553 -0.000155601 0.570176 -0.21739 -0.0400639 -0.27596 0.532328 -0.342563 0.000360948 -0.0214026 0.0252184 0.69823 -0.380452 -0.0400883 -0.217561 0.26756 -0.961696 0.088076 0.338764 -0.394921 -0.247288 0.31953 -0.451995 -0.00331432 0.485981 -0.324034 0.43213 -0.275148 -0.547369 0.00843956 0.0491016
644 -0.875404 0.0807373 -0.385782 0.0238085 -0.226198 0.202162 0.246781 0.461677 0.0592375 -0.159042 -0.250687 -0.191695 0.109156 -0.765149 0.162056 0.56686 -0.0102278 -0.539806 0.177952 -0.516647 -0.494506 -0.521031 -0.706463 -0.647059 0.0744128 -0.00523374 -0.454009 -0.782465 0.159369 -0.465947 -0.359887 0.167943
812 -0.00455617 -0.116568 -0.23208 -0.638059 0.0631971 0.1118 0.248783 0.123804 0.3539 -0.126511 -0.0265505 0.049844 -0.346498 0.425288 -0.0933159 -0.100176 0.0634357 0.285818 0.0165958 0.116738 0.338973 -0.235194 -0.206944 0.0134042 0.0775645 0.417299 -0.0759933 0.171437 0.0384827 -0.342966 -0.236515 0.0602557
427 0.455271 0.58148 -0.429144 0.143778 -0.0823982 -0.80658 0.570065 0.466806 -0.465522 0.0698207 -0.521215 0.232723 0.272058 0.0684743 0.116299 -0.176288 -0.01193 -0.0299766 -0.0816965 0.092163 -0.803503 -0.232159 0.660356 0.0701209 0.250099 0.538917 0.0516764 0.305388 0.318442 -0.181105 -0.149218 -0.162919
208 -0.102521 0.449286 -0.271151 0.355819 -0.227669 -0.551971 0.345527 0.357079 -0.458587 -0.322434 -0.638445 0.0852198 0.260355 -0.281127 -0.0946962 -0.308338 -0.101563 -0.176914 -0.131038 0.0639913 -0.57343 0.000401008 0.633111 0.236312 0.198816 0.651756 0.181549 0.194173 0.687272 -0.174352 -0.149323 0.0625098
17 0.108089 -0.350581 -0.113776 0.154742 -0.635487 -0.480291 -0.304017 -0.0648761 0.112447 -0.777059 -0.0841177 -0.363058 -0.424073 0.14121 0.10376 0.104229 -0.161133 0.527856 0.686414 0.382508 -0.106207 -0.265893 0.360339 0.105241 -0.105562 0.561999 -0.0514257 -0.15061 0.105067 0.325012 0.214531 -0.139752
626 -0.194067 0.427182 -0.413412 0.263812 -0.310957 -0.577768 0.390066 0.377773 -0.553328 -0.372546 -0.723595 0.0960318 0.217009 -0.119001 -0.190852 -0.327338 -0.0352586 -0.0519594 -0.0999982 0.100078 -0.567987 -0.0465066 0.651398 0.1987 0.190255 0.801662 0.183077 0.248527 0.736351 -0.193408 -0.174009 0.110894
338 0.335433 0.479668 -0.117215 0.086869 0.0224592 -0.469942 0.112878 0.497348 -0.248577 0.194378 -0.829732 0.430057 0.353567 0.116634 -0.481323 0.0588344 -0.100575 -0.778934 -0.260519 0.202103 -0.580779 -0.581065 0.253252 -0.112465 -0.118654 0.74075 -0.0475257 0.392311 -0.256365 -0.347625 -0.0907988 0.00603249
36 -0.407196 0.585515 -0.0473811 0.241436 0.0893924 -0.408472 0.487267 0.389007 -0.383182 -0.000417412 -0.685105 0.317193 0.385038 -0.366263 -0.229071 -0.452462 0.0823827 0.366833 0.140578 0.493778 -0.383158 0.186324 0.445998 0.740069 0.203849 0.464815 0.273904 -0.0783476 0.517871 -0.293143 -0.217643 -0.0201897
413 0.0274627 0.532306 -0.355207 0.117686 0.151418 -0.186109 -0.0288386 0.140945 -0.724349 -0.304139 -0.64728 -0.228601 0.0366549 -0.359926 -0.165502 0.260409 0.0454454 0.0549583 -0.279361 -0.298077 -0.270885 0.582485 0.507681 0.18743 0.141867 0.980509 0.0987266 0.409142 0.341094 -0.343847 -0.117939 -0.359534
114 0.0340918 0.0367045 -0.300416 0.1567 0.225495 -0.124479 0.038293 -0.0356332 0.125234 -0.749512 -0.625045 0.0348521 -0.122454 0.40412 0.0638565 -0.589515 0.110372 -0.58344 0.0567241 -0.00868362 -0.763837 0.433503 0.557428 0.422735 0.456795 0.323133 0.123836 0.181638 0.290438 0.315292 -0.651365 0.292261
316 -0.0783716 0.382975 -0.294305 0.399344 -0.252586 -0.643523 0.294279 0.440035 -0.510191 -0.329853 -0.642491 0.116808 0.313864 -0.29841 -0.219874 -0.365759 -0.0557509 -0.105947 -0.0716937 0.116734 -0.570055 -0.00438332 0.668011 0.247609 0.218087 0.71859 0.134786 0.165442 0.65686 -0.208404 -0.174908 0.115394
568 -0.102996 0.124597 -0.496534 0.481974 0.173736 -0.2531 0.184946 0.180643 -0.258619 -0.379009 -0.909449 0.313429 0.188231 0.202615 -0.135338 -0.381896 -0.0560098 -0.227015 0.031958 -0.311264 -0.503664 -0.155138 0.833918 0.566013 0.4276 0.136971 -0.304945 0.455845 0.552476 -0.233116 -0.26477 0.0336904
165 -0.0981579 0.429495 -0.372271 0.4227 -0.225455 -0.586604 0.320912 0.421266 -0.468956 -0.384607 -0.707031 0.104604 0.307178 -0.217802 -0.143834 -0.354328 -0.108388 -0.10014 -0.119166 0.0205832 -0.606824 -0.0213784 0.705269 0.173329 0.187317 0.716614 0.157931 0.203912 0.702294 -0.160377 -0.161632 0.0742864
664 -0.330636 0.169806 0.300803 0.204238 0.0997648 -0.341097 0.273407 0.324456 -0.373124 -0.132644 -0.193311 -0.54023 -0.0275376 0.147004 -0.564751 0.639007 0.723038 0.522959 -0.364137 -0.573394 -0.0849565 0.189435 0.853345 -0.447431 0.322667 0.290418 0.218708 0.447314 -0.156454 -0.330854 -0.203469 -0.203939
813 0.051934 -0.171549 -0.143268 -0.598392 0.0980584 0.237673 0.0934012 -0.00169631 0.436866 -0.0760973 0.240899 0.0910956 -0.343346 0.268506 -0.0748983 -0.107307 0.126756 0.308908 0.0383221 0.0626509 0.346885 -0.251064 -0.373127 -0.0256222 0.057297 0.236776 -0.0549579 0.0637223 -0.15786 -0.192034 -0.00877689 0.0667848
203 0.368537 -0.340233 0.122168 0.518232 -0.50925 -0.222082 -0.401977 -0.138494 -0.169182 -0.730608 0.280172 -0.512748 -0.426901 -0.0947299 -0.244448 -0.592126 0.397886 0.233827 -0.115292 0.18261 -0.689806 0.0788663 -0.0713452 0.120282 -0.0120108 0.012876 0.092719 -0.22899 -0.233089 0.186852 0.234527 0.219679
465 -0.328556 -0.37728 0.764103 0.611596 0.152671 0.327533 0.173756 -0.59334 -0.0134805 0.570459 0.512177 0.504047 -0.161588 0.605518 0.00743639 -0.117053 0.279901 0.0829292 0.0504265 0.285894 0.347718 -0.295569 -0.655922 0.112668 -0.572847 0.475244 -0.113469 -0.167314 0.0740475 -0.0245565 0.453649 0.114466
204 -0.597283 0.186779 0.127111 -0.063495 0.392548 0.00157163 -0.128751 0.294148 0.459092 -0.106238 0.311549 0.487443 -0.224029 -0.562459 0.469227 -0.0217933 0.2283 0.182968 0.629525 0.293641 0.21278 0.0890107 0.319253 -0.041255 -0.079135 -0.0736047 0.815857 0.113288 -0.183407 0.815266 0.166007 0.171531
215 0.581741 -0.0187573 -0.393501 0.200378 -0.15503 0.240057 -0.157673 -0.175109 -0.744405 0.286925 0.401492 -0.0253553 0.292735 -0.385395 -0.195081 -0.16463 0.107686 -0.300575 0.655387 -0.11342 0.27492 0.0827754 -0.647562 0.10588 0.0119567 -0.134004 0.173015 0.0532021 0.806456 -0.128947 0.252369 0.418391
100 0.514128 -0.0228392 0.23645 -0.0285057 -0.227276 -0.0803924 -0.541215 0.0711364 0.242953 0.554346 -0.198754 0.768259 -0.437283 0.280901 0.117925 -0.0711607 0.729854 0.278444 0.614935 -0.0143141 0.0581603 -0.372429 0.0973674 -0.0289363 -0.212922 -0.66895 0.040441 0.34018 -0.258983 -0.300073 0.0915056 -0.386768
96 0.223547 -0.323761 0.00950293 0.585316 -0.0233116 0.21027 -0.470758 -0.325017 -0.0185303 -0.359659 -0.0792376 0.102826 -0.115934 0.10683 -0.289099 -0.50242 0.227966 0.256146 0.0157494 -0.458683 -0.540625 -0.347376 0.291911 0.220429 0.249778 -0.599046 -0.245537 0.234764 -0.0345798 -0.0292647 0.504855 0.214421
192 0.260685 0.519957 0.296243 -0.407758 -0.060038 -0.226323 0.250498 0.133814 0.479487 0.396562 0.069541 0.804336 -0.278283 -0.347449 0.713087 -0.222147 0.0950087 -0.195254 0.156022 0.346745 -0.288281 0.398955 0.108551 0.0544899 0.313781 -0.196937 0.299846 -0.308355 -0.172784 0.0990484 0.608804 0.0433663
86 -0.796963 0.0780697 0.139825 0.0980481 0.257483 -0.5082 -0.019039 0.0081785 0.205651 0.0150506 0.394902 0.377428 0.0026167 -0.786334 0.324169 -0.0333539 0.366772 0.241507 0.327174 0.0807604 0.242036 0.042756 0.207413 0.564477 0.00832948 -0.105784 0.252326 0.0109231 -0.173581 0.168221 0.461804 0.198737
220 0.160193 0.120423 0.516464 -0.0624121 -0.381786 0.348501 -0.535824 -0.138174 0.188173 -0.309626 0.113232 -0.148913 0.217094 0.295161 0.148814 -0.419753 -0.0499279 0.161518 0.0569381 -0.241019 -0.584683 -0.054292 0.00225331 -0.253123 0.42274 0.117075 0.839018 -0.0394227 -0.256264 0.431928 0.566669 0.583748
438 -0.201252 0.535462 -0.00756114 -0.180026 0.0455658 -0.178171 -0.236519 -0.338034 0.0178691 0.0813384 0.665465 0.0411626 0.00871386 0.315118 1.06731 -0.197719 -0.627356 -0.255168 0.246888 0.0575491 -0.51991 -0.633378 0.185163 -0.458686 0.392353 0.5755 0.165204 -0.214537 -0.515837 -0.121816 0.282148 0.174409
336 -0.0779146 0.480092 -0.268513 0.0750863 0.150598 0.257748 -0.467511 -0.448415 -0.764497 0.0612116 0.617766 0.0916773 -0.271725 -0.158581 -0.137168 0.100332 -0.308325 0.0728204 -0.308117 -0.484383 -0.372392 0.444713 -0.0965277 0.190244 -0.319583 0.507531 -0.178817 0.130634 -0.416724 0.0277785 0.364957 0.0108887
456 -0.29947 0.2716 -0.0148593 0.0171884 -0.211339 0.147499 -0.258826 -0.14201 0.101712 0.551091 0.217183 -0.00696983 0.569016 -0.181141 0.541056 0.248723 0.115116 0.221991 0.453653 -0.145302 0.39843 -0.423425 -0.383601 0.84028 0.107745 0.301583 0.165415 -0.99051 -0.163111 0.231639 0.295196 0.464839
218 -0.225668 0.392363 -0.0363136 0.2455 0.10082 -0.0489285 0.0169427 0.00874335 -0.168773 0.200959 0.186861 0.478453 0.178518 -0.736324 -0.403445 -0.538457 0.216483 0.269315 0.528861 0.293354 -0.286233 0.110158 0.0915026 0.739321 0.143526 -0.0332746 0.300357 -0.381176 -0.24123 0.00735976 0.523954 0.113825
680 0.178457 0.129093 -0.0324221 -0.165555 -0.418566 0.153157 -0.668647 -0.328589 -0.112822 0.00440613 0.0152843 -0.525794 0.203483 -0.366451 -0.311785 0.601428 0.376751 0.778405 0.0371912 -0.3969 -0.370218 0.411571 -0.0317745 -0.0252126 0.0469568 0.375093 -0.565052 0.0241592 -0.258038 0.205271 0.500558 0.382913
69 0.0991789 0.11749 -0.319445 0.461345 -0.410712 -0.144704 -0.186804 -0.102723 -0.439169 -0.0813801 0.443398 0.314602 -0.117212 -0.654945 -0.274526 -0.40613 0.0565376 -0.241425 0.223096 -0.128848 -0.307113 -0.116247 0.232791 0.278933 0.106397 0.110824 0.279811 -0.0774899 -0.255812 0.176711 0.646728 0.284736
331 0.248432 -0.40583 0.423942 0.388793 -0.50117 0.106455 -0.443557 -0.159548 -0.225879 -0.207499 -0.0292084 0.0934128 0.24698 -0.065579 -0.421329 -0.413967 0.603905 -0.129884 -0.0139762 0.0371724 -0.355212 -0.301119 0.12285 -0.198419 -0.464512 0.225087 0.0248387 0.321902 -0.302318 -0.106727 0.761257 0.263498
244 0.104129 0.100646 -0.276577 0.413428 -0.435302 -0.161975 -0.177927 -0.0580749 -0.41688 -0.124546 0.414599 0.335142 -0.101796 -0.650407 -0.214054 -0.460498 0.111227 -0.202881 0.256248 -0.169515 -0.310554 -0.0843919 0.252622 0.365307 0.114282 0.0515064 0.224258 -0.102945 -0.278896 0.16203 0.616878 0.316338
62 0.15455 0.160571 -0.26334 0.423977 -0.34416 -0.133192 -0.129163 -0.0532597 -0.443148 -0.0919064 0.428178 0.307282 -0.0624886 -0.690832 -0.187889 -0.481552 0.160675 -0.233738 0.214218 -0.203329 -0.378329 -0.121672 0.210653 0.338005 0.0945627 0.0933807 0.268228 -0.0743417 -0.243372 0.113586 0.616937 0.340205
617 0.136842 0.120841 -0.285662 0.440735 -0.403776 -0.148249 -0.195505 -0.148299 -0.385568 -0.0554295 0.439691 0.372838 -0.0967727 -0.662372 -0.237389 -0.479425 0.114354 -0.276572 0.204212 -0.182941 -0.342967 -0.0549771 0.198014 0.297152 0.163325 0.119274 0.283402 -0.136489 -0.313972 0.131624 0.648342 0.345899
7 0.514921 -0.214647 -0.193296 0.208868 -0.309407 -0.152364 -0.3817 -0.175858 0.246851 -0.490564 0.225505 -0.956952 0.0281853 -0.179153 -0.36973 -0.0631235 -0.0308146 0.504894 -0.0319232 -0.158599 -0.204269 0.908766 -0.0890996 0.0476263 0.0157446 0.245926 -0.263767 -0.0147631 -0.447352 0.0319235 0.314464 0.152111
672 0.0760677 0.183273 -0.303936 0.365882 -0.3314 -0.181627 -0.182507 -0.0413112 -0.463338 -0.103431 0.350073 0.282278 -0.0921938 -0.637004 -0.167613 -0.406397 0.0233329 -0.297826 0.284989 -0.14801 -0.375671 -0.0689711 0.283386 0.235089 0.121484 0.0526134 0.24992 -0.134341 -0.29897 0.12765 0.605746 0.286391
9 -0.19401 -0.0338875 -0.394924 0.290306 -0.386257 -0.57534 0.0604133 -0.0162188 -0.253933 -0.34963 -0.155726 0.48844 -0.283923 -0.270781 0.561318 0.00251118 -0.021359 -0.10213 0.299375 -0.143201 -0.0662263 -0.133332 0.223974 0.366749 0.0293284 0.662275 0.217883 -0.11321 0.184699 -0.200817 0.525301 0.353781
265 -0.224609 0.202841 0.176524 0.117192 0.0967037 -0.0709292 0.187311 -0.452592 0.118315 -0.324193 -0.0680517 -0.386656 0.0796537 -0.398026 0.190658 -0.581683 -0.154195 0.424615 0.729026 0.195319 0.243601 -0.112378 -0.0874528 -0.197808 -0.220975 -0.41091 -0.135334 -0.486423 -0.00194302 -0.516684 0.811387 0.198586
607 0.140994 -0.206644 -0.146608 -0.00771661 0.20306 0.472097 -0.320686 -0.321305 0.219916 -0.253394 -0.148693 0.662358 0.368499 0.0897398 -0.145242 -0.542334 0.388292 -0.913262 0.396154 -0.376549 -0.476622 0.0316454 0.433294 0.0221265 0.0484209 0.111603 0.0482494 0.497108 -0.379554 0.322437 0.431309 0.409621
527 -0.19515 -0.399316 -0.381161 0.247397 -0.257255 0.0534228 -0.144442 -0.250941 0.0285739 -0.236636 0.459627 0.414248 -0.48355 -0.575165 0.563846 0.273491 0.111505 -0.283976 0.538305 -0.234725 -0.460532 -0.113062 0.198826 0.110811 -0.0322444 0.111988 -0.0702586 -0.62556 0.14037 0.0156132 0.530505 0.0937116
113 0.207751 -0.410982 0.430323 0.383162 -0.439453 -0.106897 -0.758294 -0.292324 0.00873606 -0.179189 0.0860163 0.36065 0.108876 -0.0371836 0.321329 -0.0609613 0.652849 -0.0343671 0.273308 -0.0252469 -0.00621248 -0.185821 -0.217437 -0.235994 -0.559451 0.119133 0.242286 0.248777 0.00639934 -0.538409 0.451553 0.269245
814 -0.0321726 -0.205033 -0.0857838 -0.686666 -0.0461311 0.214059 0.266706 0.000656345 0.477449 -0.0989622 0.148469 0.0313914 -0.21391 0.11404 -0.117183 -0.0765157 0.00567303 0.235876 -0.115649 -0.0369755 0.306042 -0.366873 -0.444158 -0.0750758 0.0502113 0.120776 -0.0123998 0.127178 -0.0771631 -0.243249 -0.354122 -0.0744121
1 -0.117068 0.129207 -0.438818 0.328646 -0.608087 0.122523 0.0816742 0.517282 -0.250515 -0.393033 -0.0782065 0.260239 0.226457 -0.832434 -0.338104 0.119073 -0.308505 -0.221768 0.144265 -0.251874 -0.274936 -0.610449 -0.0360076 -0.297237 -0.259938 -0.47046 0.56803 0.0883804 -0.0705662 0.591076 -0.70194 -0.561447
132 -0.2087 -0.185894 -0.286569 0.263697 -0.0599643 0.0434286 0.19432 -0.176286 0.0842545 -0.354356 -0.363209 0.370545 0.514841 -0.493686 -0.257765 -0.232723 -0.110865 -0.53994 -0.228611 -0.840568 -0.677251 -0.509809 0.165454 0.36972 0.334088 -0.817689 -0.150982 0.234877 0.0943801 0.0197297 -0.62545 -0.288276
194 -0.363551 -0.493829 -0.423998 -0.594461 -0.369962 0.403601 -0.168187 0.177895 0.00493971 -0.0770104 0.087537 0.226546 0.201819 -0.73602 -1.01198 0.204516 -0.607284 -0.0217764 0.124803 -0.386581 -0.860221 -0.105888 -0.27598 -0.163384 0.18721 -0.0212246 -0.0481543 -0.311622 0.59958 -0.159525 0.491111 0.224172
163 0.0987688 -0.0997959 -0.0753205 0.112453 -0.1567 0.211985 0.397503 -0.199531 -0.170557 0.341085 0.288947 0.251536 0.408017 -0.82859 -0.383776 -0.284152 0.15572 -0.0660229 -0.0666387 -0.0545066 0.0681196 -0.359082 -0.299618 0.744676 0.233883 -0.0648816 0.479822 -0.512037 0.15865 0.208391 -0.0585549 -0.0146518
632 -0.29083 -0.00588756 -0.1635 0.206931 -0.594952 -0.156679 0.382167 -0.0652832 -0.21198 -0.111326 -0.121006 0.139441 0.602618 -1.05205 -0.197263 -0.113355 -0.175077 -0.465758 -0.339849 -0.50602 -0.619459 -0.357786 -0.05259 0.053379 0.0417797 -0.290387 0.328647 -0.0800449 0.0348877 0.166256 -0.564245 -0.24029
