669 32
800 0.230343 0.0561144 0.184109 0.0998563 0.615858 0.0778193 0.144567 0.310794 -0.377525 -0.202407 0.178412 0.235363 0.0782471 0.248276 0.520276 -0.091481 0.528583 0.564037 -0.347981 -0.0879515 -0.390604 -0.193734 -0.123469 0.31346 -0.852786 0.137499 -0.329645 -0.499608 0.603077 -0.428128 0.348339 0.577651
566 0.286957 0.19907 0.119551 0.0979852 0.289569 0.306254 0.0526835 0.330175 -0.551972 -0.142183 0.100494 0.0155552 -0.0602997 0.0573345 0.416102 0.0154003 0.362546 0.51961 -0.374985 -0.100869 -0.220681 -0.46191 0.322756 0.195712 -0.627677 0.210553 -0.458779 -0.134347 0.374071 -0.0676444 0.210538 0.290864
452 0.341344 0.0768105 0.0677576 0.161236 0.15208 0.220601 0.123709 0.39768 -0.675165 -0.14925 0.0358825 -0.210067 0.073423 -0.126326 0.391606 0.073456 0.347011 0.622552 -0.315686 0.0870977 0.00672173 -0.510708 0.522882 0.196867 -0.501143 0.477087 -0.495536 -0.0566169 0.331501 0.0609104 0.260755 0.150735
32 0.533385 0.304101 -0.0290598 0.155883 0.198282 0.379029 0.101957 0.369017 -0.597755 -0.235663 -0.0200486 -0.0993706 -0.26379 -0.159339 0.295536 -0.105192 0.250584 0.285978 -0.238768 -0.119958 -0.208056 -0.542472 0.511323 0.281739 -0.535188 0.300525 -0.340019 0.0785833 0.381036 0.128885 0.313081 0.138495
230 0.352595 0.276634 0.0352777 0.0618901 0.0933005 0.292201 0.0450547 0.547402 -0.521589 -0.119813 0.0240421 -0.232902 -0.108324 -0.0423195 0.20804 -0.0551421 0.409826 0.450383 -0.310519 0.00137788 0.102869 -0.651409 0.559508 0.159367 -0.426672 0.410169 -0.391846 0.0376761 0.103991 -0.0356537 0.1945 0.0422895
303 0.498676 0.164356 0.0604037 0.0865119 0.211925 0.263964 0.166109 0.386608 -0.60261 -0.241561 0.0835762 -0.205852 -0.0693664 -0.12438 0.358829 0.00114506 0.303755 0.461193 -0.196875 -0.0440047 -0.0940033 -0.467558 0.454255 0.228424 -0.488612 0.404015 -0.474268 -0.0946581 0.306499 0.0824926 0.273583 0.180051
529 0.139183 0.218997 0.102815 0.138489 0.120427 0.319704 0.0404564 0.496744 -0.48265 -0.112427 -0.103133 -0.0306455 -0.0899334 0.0132956 0.294634 -0.0917676 0.495637 0.529153 -0.428473 0.0253175 0.165244 -0.604028 0.698885 0.126848 -0.48463 0.343403 -0.425919 0.136927 0.214342 -0.00902214 0.158066 0.0403354
513 0.397486 0.266665 -0.00432113 0.0166776 0.152658 0.319524 0.0898328 0.409395 -0.61929 -0.0785908 0.102574 -0.26481 -0.101041 -0.140683 0.282876 0.00702056 0.301783 0.523549 -0.265918 -0.0300878 -0.0563256 -0.554952 0.44959 0.221556 -0.463499 0.431824 -0.521614 -0.0480589 0.269 0.037305 0.281613 0.198918
628 0.137249 0.351932 0.033883 0.0894151 0.205423 0.312544 -0.00416767 0.515856 -0.416144 -0.111611 -0.0789837 -0.0132955 -0.218665 0.0494099 0.246945 -0.129989 0.504626 0.456751 -0.398415 -0.0468578 0.00941756 -0.616614 0.521059 0.186888 -0.519128 0.264646 -0.317076 0.102754 0.248886 -0.11783 0.244973 0.151411
692 0.178171 0.355216 0.190417 0.0233404 0.0610742 0.396819 -0.0115508 0.5399 -0.399882 -0.101211 0.0596796 -0.0620802 -0.156503 0.165166 0.271895 -0.0923939 0.522829 0.367512 -0.481101 -0.0947694 0.164145 -0.662407 0.552477 0.112938 -0.419938 0.252245 -0.455483 0.101043 -0.0108318 -0.0919285 0.0140751 -0.00299346
412 0.45975 0.101641 0.0860412 0.14103 0.17103 0.233809 0.102161 0.344665 -0.71489 -0.196637 0.101877 -0.185311 0.0827488 -0.109893 0.426409 0.096501 0.299495 0.57717 -0.327048 0.0130679 -0.123578 -0.552061 0.437541 0.181984 -0.543597 0.405012 -0.53428 -0.121702 0.318183 0.0548061 0.237721 0.158606
119 0.226351 0.249263 0.177188 0.149622 0.0819176 0.307133 -0.0202116 0.475389 -0.506353 -0.172694 -0.0333292 -0.0778072 -0.0589031 0.0709368 0.335182 -0.0335977 0.499901 0.455414 -0.503737 -0.00133442 0.0825786 -0.716696 0.652144 0.0728891 -0.4985 0.28831 -0.365625 0.116087 0.0913655 -0.0588669 0.0715168 -0.039083
332 0.268578 0.230117 0.0298698 0.116359 0.259824 0.335699 0.115189 0.375951 -0.555677 -0.209331 -0.137655 0.00846859 -0.232824 -0.0422418 0.356468 -0.1295 0.3602 0.473181 -0.266335 -0.0956447 -0.0998096 -0.397 0.545074 0.32926 -0.58623 0.302304 -0.426576 0.0664507 0.468908 0.105815 0.301934 0.229348
479 0.339618 0.156751 0.0243051 0.0877707 0.144991 0.297881 0.117008 0.34177 -0.693712 -0.119987 0.0321537 -0.188751 -0.0417534 -0.152682 0.328687 0.0679621 0.279364 0.57259 -0.297536 -0.00462562 -0.0919657 -0.49025 0.49724 0.226272 -0.472821 0.428437 -0.545222 -0.0280339 0.337992 0.12207 0.261842 0.167188
563 0.200532 0.18956 0.192 0.0469326 0.0989895 0.290188 0.0300034 0.4509 -0.567335 -0.068394 0.0950987 -0.129471 0.0369785 0.070805 0.368271 0.0259134 0.447833 0.556954 -0.436664 0.00349609 0.0735077 -0.583189 0.494877 0.113465 -0.475567 0.358638 -0.536084 -0.0307631 0.1403 -0.0712086 0.0780968 0.107099
643 0.210451 0.196205 0.14891 0.0786736 0.153113 0.223105 0.0903061 0.521698 -0.499571 -0.127622 0.0297144 -0.142442 -0.00615925 0.0422231 0.337667 -0.0247423 0.49885 0.546999 -0.334125 -0.0092596 0.0839449 -0.517025 0.476551 0.195581 -0.485649 0.411428 -0.456664 -0.0413882 0.225375 -0.0418285 0.187067 0.146892
108 0.285734 0.248353 0.20727 0.133974 0.134994 0.349606 0.0452302 0.515683 -0.519589 -0.185042 0.0198541 -0.0635888 -0.0651868 0.0868834 0.368815 -0.0653636 0.50419 0.475992 -0.461672 -0.0419146 0.0731108 -0.661499 0.623983 0.140103 -0.500613 0.332259 -0.450838 0.0449264 0.148459 -0.0323893 0.10209 0.0062653
305 0.217624 0.218847 0.133306 0.120687 0.15598 0.254935 0.0233851 0.570379 -0.507561 -0.133682 0.0100054 -0.130008 -0.0234863 0.0339423 0.315175 -0.0407903 0.526327 0.594901 -0.450391 0.0363934 0.0987642 -0.652171 0.569177 0.132894 -0.52467 0.407699 -0.443863 0.00132532 0.201977 -0.124692 0.166535 0.0798961
716 0.469859 0.0470121 0.148735 0.15591 0.0907688 0.200635 0.132135 0.342135 -0.635225 -0.227026 0.0959758 -0.230936 0.128558 -0.135318 0.399628 0.117014 0.266224 0.493581 -0.287828 0.0270022 -0.055588 -0.474504 0.453833 0.109682 -0.434808 0.4257 -0.485522 -0.121386 0.204425 0.0611392 0.16515 0.070572
530 0.114362 0.289483 0.210254 0.0838124 0.0728816 0.399637 0.0119528 0.510558 -0.492745 -0.103312 -0.0275409 -0.0315531 -0.124513 0.159469 0.299564 -0.10019 0.541899 0.444718 -0.538805 -0.0549052 0.153831 -0.636418 0.671898 0.131694 -0.450942 0.316326 -0.487473 0.142075 0.0761492 0.00313294 0.0485396 -0.018015
99 -0.00394138 0.382581 0.146323 0.0846478 0.149882 0.379716 -0.0162093 0.579282 -0.3889 -0.0920834 -0.141908 0.0518136 -0.23443 0.17265 0.26499 -0.198231 0.611614 0.466647 -0.520137 -0.0606984 0.167452 -0.671203 0.721646 0.162491 -0.523259 0.254788 -0.371285 0.228428 0.187435 -0.0801183 0.115984 0.00440767
74 0.318022 0.148756 0.0316893 0.155583 0.13183 0.247717 0.0287364 0.275946 -0.667788 -0.132219 0.0931817 -0.17065 0.0678298 -0.0810677 0.364071 0.140161 0.2573 0.578602 -0.366428 0.0392848 -0.174402 -0.560157 0.397337 0.114397 -0.503079 0.336933 -0.442828 -0.0781037 0.335082 -0.0337412 0.233724 0.159906
480 0.342494 0.292089 0.0610151 0.0454619 0.246291 0.340918 0.0662031 0.391474 -0.538937 -0.150075 0.100494 -0.0469371 -0.165965 0.0354666 0.350333 -0.0572655 0.392455 0.473831 -0.342871 -0.10208 -0.156566 -0.524367 0.386127 0.265967 -0.594027 0.293048 -0.470226 -0.067374 0.376272 -0.0812702 0.27054 0.262445
243 0.416394 0.169513 -0.00876995 0.135827 0.178936 0.209876 0.0929838 0.3968 -0.586015 -0.175613 0.0364592 -0.215998 0.00112359 -0.165175 0.297501 0.0579273 0.305439 0.537051 -0.248513 0.0427799 -0.104389 -0.521591 0.398176 0.169881 -0.502945 0.404674 -0.40094 -0.0849821 0.308352 -0.0185611 0.342026 0.186719
182 0.313707 0.12555 0.116363 0.077099 0.17042 0.209306 0.102335 0.480031 -0.541242 -0.167803 0.0760064 -0.182794 0.0265906 -0.0316979 0.380655 0.00127326 0.415688 0.558063 -0.290633 -0.000867127 0.00536159 -0.491076 0.449297 0.180754 -0.501036 0.430069 -0.48765 -0.128255 0.234427 -0.0313853 0.229766 0.177044
422 0.263257 0.246516 -0.0230299 0.0759529 0.185073 0.281591 0.159278 0.422555 -0.482141 -0.138118 -0.123262 -0.0976338 -0.187544 -0.13266 0.268225 -0.113144 0.352296 0.496733 -0.164472 -0.0259622 0.0391286 -0.421774 0.566267 0.296905 -0.467409 0.402797 -0.392275 0.0850372 0.385348 0.108736 0.342164 0.161402
8 0.252285 0.174637 -0.00252733 0.0244686 0.242744 0.306134 0.155944 0.267341 -0.530321 -0.104351 -0.0179522 -0.0645286 -0.187744 -0.0666244 0.281844 -0.0581203 0.249241 0.442998 -0.138868 -0.110799 -0.0553608 -0.221076 0.412263 0.349134 -0.455635 0.318266 -0.518648 -0.0233876 0.45774 0.171549 0.271449 0.272429
432 0.26757 0.177253 0.0887271 0.0512891 0.178642 0.306981 0.0924442 0.353249 -0.615256 -0.0920844 0.0807221 -0.16656 -0.0113822 -0.0243076 0.358396 0.0543677 0.354692 0.565934 -0.333238 -0.0196591 -0.0571123 -0.475631 0.424784 0.203839 -0.47795 0.354664 -0.551392 -0.066371 0.271194 0.0379764 0.184256 0.195233
329 0.164164 0.315867 0.188291 0.00524259 0.121542 0.402488 0.100418 0.45628 -0.475196 -0.110673 -0.0018558 -0.0287928 -0.201021 0.152226 0.294806 -0.150147 0.508352 0.382074 -0.380405 -0.149524 0.140969 -0.483299 0.592542 0.238214 -0.431983 0.304712 -0.534542 0.115791 0.128407 0.0908822 0.0697625 0.0487164
478 0.367568 0.124749 0.0244642 0.116874 0.225193 0.209037 0.10691 0.351162 -0.645793 -0.163432 0.0744603 -0.19465 0.0356463 -0.0983006 0.385896 0.0428628 0.33148 0.602386 -0.298429 0.0278442 -0.11534 -0.488098 0.438078 0.204511 -0.527737 0.406629 -0.474211 -0.098638 0.367666 0.0125797 0.272439 0.201433
519 0.40693 0.239723 0.00310413 0.0556779 0.13248 0.348587 0.0937129 0.312067 -0.54687 -0.157985 0.0174429 -0.173096 -0.177655 -0.0932759 0.253327 -0.0287029 0.245826 0.36093 -0.232111 -0.0795216 -0.0800127 -0.443983 0.458242 0.234114 -0.411351 0.377153 -0.444561 0.0311132 0.25746 0.15924 0.238924 0.124317
75 0.0651474 0.116015 0.0733181 0.024242 0.250463 0.297069 0.155348 0.278078 -0.609847 -0.0364483 -0.0416363 -0.00621333 -0.0833563 0.00397923 0.375305 -0.0267598 0.347335 0.623881 -0.287369 -0.0335666 -0.0463446 -0.240237 0.44943 0.344276 -0.524812 0.332311 -0.602327 -0.000413968 0.517427 0.157551 0.254376 0.286633
39 0.349661 0.0519754 0.24407 0.152304 0.188164 0.223008 0.0720581 0.355616 -0.635629 -0.23769 0.151398 -0.0998209 0.143918 0.0497185 0.458267 0.118985 0.390134 0.558725 -0.420255 -0.0108462 -0.0763752 -0.526217 0.397316 0.084906 -0.574372 0.316113 -0.506801 -0.162442 0.20052 -0.0714608 0.0900231 0.132169
658 0.0943593 0.287146 0.142253 0.0543619 0.15179 0.344408 0.0356589 0.506084 -0.48448 -0.0626138 -0.0262547 -0.0199698 -0.125588 0.113283 0.334587 -0.0944917 0.540444 0.59468 -0.457709 -0.0309936 0.140582 -0.568022 0.590689 0.175152 -0.498893 0.293678 -0.479202 0.0934136 0.245426 -0.0999676 0.117675 0.13301
645 0.387148 0.240127 0.097667 0.0777832 0.239286 0.386488 0.123977 0.361359 -0.581506 -0.210378 0.035961 -0.0256996 -0.17464 0.0096874 0.367439 -0.0552462 0.355053 0.410899 -0.319192 -0.148436 -0.14064 -0.485265 0.464736 0.273099 -0.570273 0.288113 -0.465407 0.000999957 0.32972 0.0959984 0.200681 0.183977
104 0.407532 0.145074 0.0484022 0.127696 0.145001 0.224578 0.0912795 0.390854 -0.615523 -0.161976 0.0965855 -0.238932 0.0254136 -0.146836 0.319616 0.0838548 0.292227 0.52464 -0.255125 0.0112257 -0.0808123 -0.502352 0.405507 0.194212 -0.455008 0.43375 -0.468024 -0.104963 0.2484 0.0352207 0.245809 0.161169
73 0.275045 0.294377 0.114889 0.114369 0.124567 0.288462 0.0401694 0.574644 -0.500816 -0.160976 0.0192045 -0.152889 -0.0862126 0.00822162 0.288804 -0.0738998 0.494608 0.490855 -0.419077 -0.00495598 0.0836476 -0.70201 0.540314 0.137406 -0.493443 0.379939 -0.418502 0.0317773 0.128607 -0.0891474 0.182881 0.0643892
81 0.432495 0.295265 0.104582 0.109498 0.231663 0.416299 0.0689866 0.36704 -0.587167 -0.232025 0.0621807 -0.0188826 -0.187602 0.0163358 0.37885 -0.0378432 0.354726 0.385107 -0.355808 -0.156312 -0.220569 -0.55868 0.46323 0.20052 -0.604647 0.236272 -0.437976 -0.0130373 0.349019 0.0137313 0.188083 0.184151
301 0.495256 0.148418 0.0232106 0.0580853 0.211931 0.248079 0.188751 0.439816 -0.606305 -0.204055 0.0745637 -0.254329 -0.0377154 -0.192922 0.326458 -0.00597998 0.329754 0.538396 -0.176361 -0.0325139 -0.0463927 -0.440271 0.448075 0.286106 -0.502531 0.490881 -0.513104 -0.107709 0.362225 0.076545 0.330919 0.216909
18 0.155524 0.25305 0.248303 0.0463816 0.114456 0.401141 0.0466065 0.42947 -0.582778 -0.078156 0.0422933 -0.046373 -0.046748 0.141822 0.415274 -0.0297377 0.519288 0.553562 -0.490824 -0.0638864 0.118955 -0.562221 0.571457 0.165472 -0.508902 0.310009 -0.617527 0.0172211 0.183665 0.0451864 0.0554774 0.0785354
411 0.442764 0.182801 0.0945603 0.144468 0.138801 0.331835 0.0576683 0.352104 -0.649264 -0.185952 0.0839501 -0.151651 -0.0529083 -0.0776677 0.383059 0.00938677 0.283382 0.443732 -0.356979 -0.027727 -0.138254 -0.577777 0.479645 0.150043 -0.515889 0.333545 -0.469144 -0.0416372 0.263394 0.0447093 0.166611 0.096416
550 0.285423 0.388777 0.0356762 -0.0115458 0.26636 0.437083 0.0531469 0.33765 -0.526901 -0.0471652 0.103069 -0.0382996 -0.277051 0.0718713 0.311778 -0.103629 0.350283 0.403726 -0.358982 -0.178397 -0.204465 -0.5099 0.373495 0.302543 -0.551032 0.239977 -0.517789 -0.0133146 0.356805 0.00490635 0.217792 0.27666
318 0.622481 0.26091 -0.0263071 0.113371 0.193889 0.33015 0.0941298 0.411273 -0.633988 -0.24747 0.108167 -0.241814 -0.137908 -0.185829 0.271581 -0.0292581 0.262999 0.368153 -0.222058 -0.069772 -0.18832 -0.598936 0.446593 0.22166 -0.511844 0.387284 -0.411857 -0.0489377 0.274315 0.08194 0.288769 0.139994
321 0.311576 0.286944 -0.0637794 0.0605721 0.204799 0.309388 0.130873 0.422724 -0.517172 -0.109179 -0.0571624 -0.13017 -0.251731 -0.0938109 0.239458 -0.0802648 0.308705 0.45123 -0.201274 -0.0588156 -0.0896411 -0.45133 0.49239 0.339335 -0.485142 0.390066 -0.417366 0.0647712 0.368165 0.0962676 0.341038 0.213232
152 0.500678 0.0925639 0.195672 0.154866 0.10169 0.343935 0.0962488 0.225245 -0.657136 -0.276545 0.0776227 -0.104565 -0.0038475 -0.0435664 0.403792 0.0639882 0.230146 0.336413 -0.314518 -0.0808163 -0.137343 -0.506284 0.515231 0.105628 -0.470269 0.30529 -0.468709 -0.0324507 0.203856 0.155652 0.0644663 0.0190886
684 0.346249 0.180963 0.0360911 0.154462 0.236406 0.196991 0.0775327 0.447806 -0.550004 -0.20763 0.00192541 -0.109918 -0.0109361 -0.0718908 0.349862 -0.00059424 0.397745 0.541528 -0.303984 0.0160555 -0.120622 -0.533037 0.385917 0.188415 -0.5731 0.339645 -0.36395 -0.0796879 0.366641 -0.0980186 0.317196 0.214303
26 0.394529 0.252385 0.0815787 0.140203 0.342978 0.3396 0.00391062 0.291088 -0.54701 -0.23293 0.0743338 0.0688829 -0.137345 0.0675507 0.409942 -0.0108898 0.32404 0.400852 -0.393627 -0.163193 -0.365226 -0.523632 0.295275 0.197309 -0.687063 0.120877 -0.368994 -0.117431 0.445243 -0.0895029 0.224048 0.286659
679 0.276961 0.0822054 0.168529 0.0471348 0.161454 0.208562 0.137532 0.450934 -0.643954 -0.0857401 0.13732 -0.21025 0.128434 -0.0169616 0.421922 0.0969033 0.428029 0.655136 -0.347161 0.0333414 0.055838 -0.446072 0.405233 0.214517 -0.480235 0.48233 -0.65065 -0.164702 0.229017 0.0160008 0.196669 0.181412
461 0.279769 0.23197 0.0762844 0.0597153 0.263813 0.323121 0.145716 0.355241 -0.612553 -0.136047 0.06908 -0.064302 -0.0998585 -0.00814063 0.383189 -0.0262389 0.380896 0.565665 -0.281662 -0.0703919 -0.115529 -0.4185 0.394271 0.31775 -0.566528 0.35563 -0.562415 -0.0980933 0.449122 0.0424218 0.274822 0.30932
51 0.365471 0.184607 0.104568 0.104637 0.268183 0.268519 0.0671407 0.386498 -0.548461 -0.183414 0.0776986 -0.0288267 -0.0550853 0.0126417 0.37757 -0.00527284 0.367075 0.471009 -0.325637 -0.0928168 -0.179121 -0.500695 0.356398 0.181353 -0.568865 0.291432 -0.428747 -0.110264 0.354836 -0.0879461 0.230513 0.24391
197 0.14596 0.261519 0.0445794 0.0616279 0.182463 0.319251 0.0990109 0.454814 -0.452806 -0.116642 -0.121289 -0.025487 -0.221236 0.0204161 0.278051 -0.153657 0.449013 0.460392 -0.296641 -0.0632976 0.0718205 -0.441821 0.556042 0.252599 -0.462448 0.318978 -0.404184 0.113076 0.32889 0.0683458 0.233256 0.146714
293 0.283585 0.123524 0.205355 0.101961 0.258087 0.223843 0.0423491 0.312658 -0.568319 -0.150733 0.164608 -0.039296 0.112806 0.0977509 0.467553 0.0850901 0.406691 0.585024 -0.414777 -0.0546092 -0.172779 -0.476587 0.238023 0.141962 -0.590652 0.255985 -0.489656 -0.227506 0.319619 -0.147697 0.130599 0.269765
102 0.393419 0.147064 -0.0133745 0.128362 0.174983 0.200766 0.0871658 0.399343 -0.572192 -0.166789 0.0594764 -0.22179 -0.0293163 -0.140779 0.283761 0.058932 0.284938 0.515401 -0.236367 0.024042 -0.0831142 -0.541986 0.422705 0.172714 -0.477154 0.406654 -0.380054 -0.0446599 0.25003 0.0016728 0.288716 0.138172
370 0.235876 0.242353 0.0279651 0.0160912 0.206317 0.29613 0.0761 0.338373 -0.567159 -0.0183788 0.102733 -0.137057 -0.0757332 -0.00838033 0.316494 0.0211666 0.328099 0.563481 -0.288891 -0.0369817 -0.0978296 -0.424849 0.325382 0.264922 -0.517284 0.332553 -0.552775 -0.10864 0.352214 -0.00563043 0.240579 0.298624
206 0.417692 0.177836 -0.0175919 0.155625 0.27515 0.133588 0.121305 0.4663 -0.562227 -0.203162 0.0116516 -0.184698 -0.0120028 -0.162658 0.333663 0.0139765 0.350116 0.581872 -0.186077 0.0455575 -0.116355 -0.462289 0.340823 0.270138 -0.548175 0.440433 -0.370997 -0.129199 0.445599 -0.0944892 0.421315 0.297146
37 0.527775 0.236222 0.0126137 0.184938 0.274197 0.347674 0.115989 0.346689 -0.574571 -0.272932 -0.0171772 -0.0494086 -0.19121 -0.102425 0.330447 -0.0685355 0.273288 0.358231 -0.230509 -0.118241 -0.260015 -0.484506 0.440589 0.245163 -0.580941 0.274812 -0.34119 -0.0143399 0.435253 0.0667823 0.303348 0.198955
142 0.372847 0.10971 0.149356 0.13118 0.228573 0.297745 0.149232 0.31667 -0.611798 -0.275835 -0.0314308 4.16856e-05 -0.0919381 -0.0414666 0.429973 -0.0491688 0.328749 0.463147 -0.257814 -0.0967607 -0.0687971 -0.363357 0.532858 0.250677 -0.533082 0.349379 -0.496574 -0.0239148 0.396299 0.148046 0.217489 0.160023
511 0.535644 0.177555 0.078685 0.143791 0.201401 0.270875 0.124837 0.422616 -0.63121 -0.233504 0.0749232 -0.210705 -0.0269416 -0.127662 0.394276 0.0200615 0.339654 0.509608 -0.278913 -0.0563279 -0.135419 -0.530613 0.443596 0.234533 -0.544689 0.437836 -0.48485 -0.107863 0.314431 0.0321558 0.298302 0.202181
464 0.459951 0.168884 0.0666765 0.121809 0.160245 0.329816 0.111585 0.380174 -0.647819 -0.20525 0.0531789 -0.180587 -0.0576978 -0.115423 0.363591 0.0368826 0.292399 0.445767 -0.273876 -0.0672516 -0.14075 -0.535006 0.463067 0.203592 -0.512224 0.378149 -0.482372 -0.0728191 0.271151 0.0870216 0.252301 0.140861
90 0.270009 0.0586693 0.0503698 0.218373 0.170291 0.199892 0.093325 0.37512 -0.550036 -0.220155 -0.132714 -0.0754547 -0.0407136 -0.107785 0.358567 -0.0334219 0.35743 0.5316 -0.291807 0.0556456 -0.0139544 -0.439895 0.564083 0.182084 -0.510914 0.406887 -0.39712 0.0225863 0.342674 0.0549369 0.303831 0.0898096
419 0.298848 0.0665258 0.137979 0.186139 0.223511 0.31325 0.202799 0.265871 -0.581123 -0.273261 -0.167765 0.086832 -0.13329 -0.0571022 0.442374 -0.0805961 0.310898 0.418401 -0.225929 -0.0815808 -0.0459255 -0.280873 0.613603 0.290959 -0.514843 0.312583 -0.437786 0.066893 0.492437 0.227575 0.231196 0.141341
697 0.236043 0.280265 0.230696 0.059425 0.0515129 0.392379 -8.35965e-05 0.436742 -0.537199 -0.118327 0.0929803 -0.0898554 -0.0856739 0.0979911 0.34535 -0.03306 0.461448 0.424128 -0.486576 -0.065186 0.106795 -0.670149 0.579557 0.0998463 -0.437721 0.273001 -0.515619 0.0519578 0.0395419 -0.021844 -0.0218563 8.3054e-05
88 0.590979 0.0261215 0.205388 0.268308 0.155757 0.222435 0.122594 0.346466 -0.666357 -0.401129 0.0244121 -0.110262 0.0552117 -0.127711 0.443573 0.0598976 0.278235 0.359134 -0.307282 -0.0606985 -0.124299 -0.534989 0.516532 0.0708072 -0.544072 0.345849 -0.380987 -0.0673487 0.206294 0.0781662 0.167853 0.0214027
76 0.32187 0.274512 -0.0360811 0.0799396 0.230873 0.286848 0.0721654 0.437184 -0.522029 -0.123922 -0.00717187 -0.136752 -0.172761 -0.0630412 0.278518 -0.0649024 0.360012 0.460138 -0.274662 -0.0476483 -0.0869847 -0.495654 0.420374 0.262586 -0.51748 0.364633 -0.389426 -0.000769537 0.356513 -7.52374e-05 0.314788 0.216952
308 0.378229 0.11262 0.0341737 0.103899 0.200944 0.19496 0.0800857 0.324437 -0.585094 -0.121377 0.146342 -0.175869 0.0392223 -0.117016 0.321003 0.0658042 0.271419 0.540246 -0.266523 0.0137914 -0.163253 -0.471156 0.270921 0.148905 -0.5097 0.342964 -0.428473 -0.16973 0.322589 -0.0624078 0.256985 0.234541
23 0.451477 0.303471 0.0196536 0.0120067 0.258319 0.384944 0.097798 0.330627 -0.585232 -0.124137 0.128703 -0.121944 -0.18684 -0.0629311 0.312167 -0.0218225 0.267711 0.408475 -0.212421 -0.147205 -0.219253 -0.456196 0.333785 0.288801 -0.522642 0.335905 -0.483512 -0.0979534 0.364464 0.0611348 0.278451 0.269302
147 0.306961 0.207866 0.0623332 0.203194 0.256256 0.239904 0.0801998 0.380471 -0.497896 -0.277029 -0.0814643 0.0295308 -0.106543 0.0125807 0.366091 -0.0771381 0.420135 0.436172 -0.307998 -0.0861227 -0.138948 -0.510643 0.46348 0.189252 -0.589282 0.241986 -0.273453 -0.0144 0.391915 -0.0653312 0.252178 0.189535
343 0.409747 0.264601 0.0216343 0.0678923 0.227948 0.338457 0.133071 0.392707 -0.561037 -0.183005 -0.00792523 -0.0755765 -0.205425 -0.0829372 0.301701 -0.0852421 0.316272 0.386466 -0.220004 -0.119597 -0.123216 -0.451607 0.458557 0.284356 -0.497769 0.349209 -0.439119 -0.000274187 0.341583 0.100028 0.303691 0.198971
93 0.325898 0.158765 0.0810808 0.0984256 0.273129 0.241269 0.0931353 0.319925 -0.548275 -0.195835 0.0879588 -0.0299824 -0.0269428 0.0133956 0.382352 0.0233912 0.327643 0.506904 -0.291216 -0.0667374 -0.216857 -0.434763 0.297919 0.203724 -0.585271 0.267047 -0.400589 -0.140235 0.366429 -0.0630804 0.239166 0.271925
342 0.450358 0.367062 -0.0751313 0.00865333 0.20058 0.380827 0.0881417 0.430047 -0.56608 -0.0689374 0.0975398 -0.246457 -0.223865 -0.137756 0.214826 -0.0645833 0.276752 0.413826 -0.203949 -0.0728609 -0.138775 -0.53971 0.418664 0.294742 -0.460554 0.380297 -0.478836 -0.0256012 0.310723 0.0665483 0.340525 0.218435
538 0.377191 0.280809 0.0817135 0.0923145 0.183303 0.317732 0.071983 0.457766 -0.553391 -0.173093 0.0423482 -0.124246 -0.154619 -0.0218978 0.281463 -0.0568283 0.395621 0.439489 -0.297564 -0.0782464 -0.0654533 -0.556076 0.49801 0.225361 -0.513138 0.346312 -0.406293 0.0171544 0.263216 0.00199601 0.220081 0.139455
347 0.402343 0.285962 0.056495 0.0946909 0.20262 0.471956 0.0965918 0.350655 -0.632923 -0.225434 -0.015364 0.000137129 -0.26041 -0.0132404 0.378119 -0.0974557 0.319954 0.364258 -0.314362 -0.19226 -0.132694 -0.501166 0.602664 0.281529 -0.55556 0.278053 -0.498308 0.11814 0.363837 0.218682 0.201765 0.140909
539 0.356932 0.173519 0.12253 0.10811 0.159968 0.301415 0.0920417 0.387727 -0.598734 -0.177677 0.0435136 -0.128087 -0.0530011 -0.0263742 0.368045 0.0063602 0.368513 0.48837 -0.329551 -0.0296199 -0.050556 -0.521507 0.48128 0.221549 -0.506385 0.379813 -0.512303 -0.0507133 0.24734 0.0652451 0.214472 0.120856
556 0.22728 0.343054 0.192582 0.0417883 0.109914 0.433466 0.0178779 0.55829 -0.495818 -0.120593 0.0279736 -0.0774721 -0.183504 0.108517 0.302046 -0.11426 0.543158 0.439876 -0.430008 -0.0958818 0.166283 -0.668807 0.618144 0.147454 -0.469357 0.345983 -0.505401 0.10479 0.0837442 -0.0341907 0.0640637 0.0151804
582 0.41317 0.225708 -0.00284491 0.0554613 0.172329 0.285985 0.0836356 0.359867 -0.611971 -0.11377 0.130698 -0.231535 -0.0571847 -0.121665 0.310652 0.0478848 0.281 0.475825 -0.285087 -0.0236263 -0.142595 -0.540882 0.40701 0.19475 -0.475017 0.370294 -0.456028 -0.079291 0.276024 -0.00354767 0.248773 0.184898
381 0.552547 0.139056 0.0519077 0.097543 0.152689 0.299064 0.120746 0.364992 -0.682673 -0.213249 0.138923 -0.253762 -0.00937892 -0.144884 0.350704 0.0792506 0.231184 0.430525 -0.234024 -0.0402155 -0.161079 -0.516273 0.402249 0.209981 -0.464001 0.436857 -0.533255 -0.116433 0.24112 0.10189 0.254432 0.151628
475 0.277271 0.226776 -0.00863409 0.131285 0.154334 0.300894 0.0917126 0.374941 -0.57103 -0.134973 -0.0916445 -0.108054 -0.132068 -0.112642 0.303504 -0.0367506 0.322327 0.467426 -0.272318 -0.00981621 -0.0459267 -0.494367 0.553903 0.230892 -0.484181 0.364554 -0.393095 0.0864664 0.356127 0.102825 0.252384 0.108206
319 0.336968 0.21163 0.000670054 0.100894 0.245219 0.293872 0.128189 0.402668 -0.595051 -0.14275 0.000809927 -0.117904 -0.0991346 -0.0978364 0.359418 -0.0279196 0.32005 0.561906 -0.26686 -0.0116946 -0.121187 -0.448795 0.445139 0.275354 -0.565278 0.410882 -0.461066 -0.0474978 0.443257 0.0331635 0.333537 0.254009
168 0.249288 0.369138 0.148242 0.0538853 0.169155 0.354782 0.0153853 0.550696 -0.471842 -0.130762 0.0709435 -0.102052 -0.143813 0.121429 0.31544 -0.0937527 0.560155 0.436067 -0.445685 -0.0673644 0.0589166 -0.703517 0.528756 0.158765 -0.501235 0.297275 -0.436005 0.00631714 0.119115 -0.102166 0.0907345 0.0782804
57 0.472142 0.288372 0.0111208 0.0210408 0.1976 0.384378 0.126854 0.423706 -0.613524 -0.145977 0.106082 -0.194268 -0.163415 -0.106754 0.310235 -0.0346403 0.326304 0.462116 -0.240162 -0.111402 -0.0880121 -0.534384 0.442262 0.29234 -0.491239 0.399988 -0.544574 -0.04491 0.325617 0.0594101 0.252335 0.23308
177 0.264239 0.16894 0.0427512 0.0754712 0.177411 0.442573 0.14324 0.228775 -0.702869 -0.125333 -0.0114084 -0.050121 -0.157364 -0.0534228 0.406017 -0.0095044 0.256371 0.542369 -0.28863 -0.098284 -0.1211 -0.337353 0.57481 0.334293 -0.544782 0.338448 -0.620567 0.037686 0.463442 0.28088 0.244913 0.208722
429 0.453106 0.150263 0.0163507 0.0743223 0.157564 0.225409 0.124594 0.405674 -0.586454 -0.169536 0.0651488 -0.26916 -0.0377013 -0.174957 0.281483 0.0381416 0.269194 0.465776 -0.171863 0.0230348 -0.0476335 -0.495907 0.44075 0.199071 -0.41431 0.445985 -0.450715 -0.0668178 0.245765 0.0827616 0.261937 0.134059
497 0.447595 0.322533 0.058574 0.0314501 0.179995 0.286598 0.0110458 0.445659 -0.558525 -0.100274 0.284059 -0.221932 -0.0169752 -0.0232904 0.292652 0.0612539 0.314439 0.449451 -0.370981 -0.0478555 -0.193502 -0.681844 0.261502 0.136737 -0.516073 0.317669 -0.469272 -0.192723 0.172097 -0.164788 0.194481 0.197544
425 0.205406 0.27895 0.000477816 -0.0353487 0.260747 0.385773 0.112311 0.286558 -0.571127 0.0242433 0.120596 -0.0984788 -0.198019 0.000577548 0.298808 -0.0459936 0.312942 0.545941 -0.259996 -0.114446 -0.128161 -0.339296 0.34159 0.351341 -0.529232 0.338519 -0.604944 -0.0521891 0.44515 0.0676901 0.266845 0.363605
531 0.265256 0.360713 0.24216 -0.00643962 0.066004 0.39848 -0.0654492 0.477045 -0.515959 -0.0125938 0.253386 -0.18356 -0.0309441 0.159759 0.305861 0.000225737 0.472788 0.466059 -0.54407 -0.108273 0.022932 -0.763672 0.426296 0.0670848 -0.458634 0.294599 -0.588796 -0.047255 -0.0343414 -0.135289 -0.00788332 0.0641597
507 0.467088 0.237479 -0.0752747 0.10369 0.216028 0.289581 0.176978 0.340397 -0.62181 -0.183821 -0.0266858 -0.155597 -0.151458 -0.199743 0.3092 -0.0414028 0.22114 0.437061 -0.135678 -0.0373929 -0.179651 -0.404738 0.453946 0.315591 -0.49022 0.391391 -0.409642 -0.0145345 0.45695 0.123715 0.381944 0.246877
145 0.371943 0.0924483 0.0499081 0.0843295 0.152032 0.214698 0.082733 0.336878 -0.58729 -0.13008 0.108353 -0.23497 0.0311477 -0.106508 0.307933 0.0588319 0.272731 0.50946 -0.251307 -0.0100808 -0.0621712 -0.456228 0.375307 0.176899 -0.437668 0.387345 -0.48728 -0.0950293 0.224185 0.0652748 0.224422 0.156285
144 0.420771 0.241402 0.0335018 0.0322948 0.170944 0.311983 0.056248 0.400112 -0.605309 -0.115715 0.157066 -0.210833 -0.0556364 -0.0643807 0.309659 0.0380981 0.319008 0.485982 -0.296663 -0.0320731 -0.0998455 -0.586522 0.353712 0.164755 -0.490885 0.364507 -0.488296 -0.114097 0.220563 -0.0119415 0.198247 0.184313
141 0.337377 0.124952 0.151837 0.189483 0.22524 0.35208 0.111928 0.312569 -0.592734 -0.277625 -0.100632 0.0586693 -0.137868 -0.0224866 0.438635 -0.0843956 0.379738 0.402399 -0.318813 -0.117132 -0.0708714 -0.426944 0.601072 0.217106 -0.558467 0.271999 -0.445584 0.060235 0.356838 0.125014 0.181107 0.095279
572 0.477171 0.146381 0.0788792 0.10895 0.222133 0.383982 0.136732 0.294263 -0.666638 -0.232095 0.0477152 -0.0826785 -0.112394 -0.0945624 0.413079 -0.0177301 0.256633 0.433259 -0.257303 -0.100048 -0.16874 -0.428644 0.481944 0.24769 -0.551382 0.357757 -0.523441 -0.0485224 0.390835 0.153013 0.241366 0.208356
196 0.258564 0.163884 0.158784 0.107587 0.22807 0.314836 0.0864812 0.37223 -0.543209 -0.199865 0.0375527 0.0120385 -0.0696959 0.0845178 0.403037 -0.0416648 0.438434 0.499358 -0.394592 -0.0973661 -0.0962945 -0.483241 0.442838 0.202993 -0.569638 0.273166 -0.473068 -0.0529059 0.315825 -0.0217317 0.176359 0.20513
143 0.20994 0.375205 0.0891725 0.148334 0.128783 0.405905 -0.0248642 0.488959 -0.495127 -0.142337 -0.0687982 0.0172364 -0.247566 0.110164 0.2736 -0.139803 0.492019 0.394591 -0.497697 -0.0705137 -0.00434184 -0.683811 0.644337 0.128416 -0.529333 0.21872 -0.351197 0.185059 0.212728 -0.039343 0.120237 0.0219204
474 0.26065 0.294567 0.0483994 -0.0383873 0.208206 0.358171 0.13344 0.41664 -0.601995 -0.0449403 0.111021 -0.146113 -0.130237 -0.0233403 0.33979 -0.0167734 0.382034 0.564426 -0.272143 -0.0721964 -0.0515793 -0.429529 0.441963 0.335266 -0.525946 0.414027 -0.613189 -0.0707412 0.369947 0.0478356 0.265734 0.279865
11 0.288894 0.174518 0.127256 0.121193 0.3066 0.295775 0.0658529 0.267983 -0.560519 -0.180958 0.0794314 0.0248662 -0.0449316 0.049195 0.42694 0.0295195 0.352827 0.51171 -0.376083 -0.0834532 -0.24169 -0.450927 0.336776 0.197809 -0.639181 0.199649 -0.437803 -0.119912 0.410078 -0.0584483 0.21019 0.274523
133 -0.0710334 0.441771 0.137621 -0.0401937 0.132641 0.418336 -0.00520365 0.533808 -0.411259 0.0729318 -0.0506109 0.00727478 -0.246518 0.206629 0.246751 -0.1929 0.602587 0.563373 -0.488486 -0.0767766 0.219605 -0.569903 0.624529 0.247689 -0.48844 0.271818 -0.536411 0.174681 0.218104 -0.0641316 0.0886213 0.135656
606 0.245315 0.141487 0.0781502 0.149565 0.190602 0.281019 0.120562 0.415984 -0.577432 -0.188307 -0.112319 -0.044317 -0.0943957 -0.0446929 0.36077 -0.0709239 0.399305 0.522395 -0.306698 -0.0340506 0.0207783 -0.438822 0.590023 0.245523 -0.498722 0.362571 -0.44838 0.0554098 0.352704 0.0817693 0.255011 0.124843
304 0.432784 0.188225 0.102585 0.0561116 0.163409 0.283606 0.148702 0.392508 -0.551411 -0.169104 0.0660656 -0.148468 -0.0783686 -0.0893958 0.33226 -0.0258248 0.317058 0.434141 -0.206346 -0.0786064 -0.0385577 -0.42376 0.39998 0.243725 -0.433846 0.369074 -0.496381 -0.0694678 0.25245 0.077294 0.236527 0.179561
352 0.382994 0.213262 0.0147529 0.0683771 0.152518 0.297601 0.0566474 0.294668 -0.653318 -0.109254 0.152464 -0.211354 -0.0512718 -0.10753 0.310485 0.060031 0.240355 0.477799 -0.28414 -0.0341497 -0.165167 -0.512121 0.40239 0.201498 -0.450741 0.356686 -0.518504 -0.078837 0.270161 0.0764988 0.244349 0.164174
117 0.3512 0.16032 0.0954043 0.12763 0.142185 0.270275 0.0937085 0.394807 -0.561678 -0.198935 -0.0172526 -0.127793 -0.107467 -0.091653 0.324841 -0.0250716 0.325836 0.414295 -0.294332 -0.0058545 -0.041744 -0.497713 0.549112 0.201745 -0.438119 0.364077 -0.409318 0.052607 0.253729 0.111014 0.220538 0.0634801
687 0.172858 0.19798 0.0505343 -0.0214927 0.280034 0.245522 0.085539 0.33548 -0.540689 -0.0114567 0.191059 -0.118186 0.0187237 0.0408488 0.353407 0.0565923 0.366698 0.591734 -0.290784 -0.0401337 -0.144668 -0.377547 0.204596 0.243043 -0.541016 0.314599 -0.529676 -0.208632 0.362132 -0.0761661 0.232476 0.335288
708 0.365755 0.185169 0.0648061 0.173966 0.254408 0.209585 0.0119202 0.37005 -0.547682 -0.19755 0.0887427 -0.0801936 0.00193359 -0.0165225 0.393237 0.0551809 0.371422 0.505098 -0.383376 0.00255719 -0.226366 -0.583709 0.300642 0.138813 -0.592667 0.280664 -0.347081 -0.134086 0.354839 -0.163527 0.247786 0.225498
335 0.592828 0.160213 0.105926 0.216796 0.241551 0.420787 0.10537 0.196741 -0.591567 -0.413732 -0.0504165 0.126373 -0.223631 -0.0664192 0.444131 -0.107922 0.233624 0.222389 -0.286853 -0.228917 -0.289868 -0.475784 0.534909 0.174027 -0.600068 0.146661 -0.329197 0.0653778 0.419931 0.174664 0.171658 0.10818
302 0.30157 0.161114 0.00945015 0.133586 0.156191 0.286696 0.129304 0.326009 -0.606206 -0.169957 -0.107516 -0.0914745 -0.12462 -0.142451 0.32811 -0.0484934 0.285548 0.479416 -0.234296 0.00867846 -0.0175905 -0.3935 0.595027 0.237965 -0.445019 0.361277 -0.434229 0.0858661 0.402138 0.171924 0.293976 0.124544
704 0.241219 0.210448 0.0825208 0.0502691 0.276088 0.279657 0.106155 0.415942 -0.565035 -0.0987659 0.0767687 -0.0861945 -0.0638057 -0.00713123 0.376185 -0.0296438 0.402367 0.578384 -0.315205 -0.0483877 -0.0829582 -0.443095 0.363987 0.267348 -0.59185 0.348371 -0.541495 -0.090405 0.394226 -0.037393 0.271508 0.304025
535 0.258017 0.0736285 0.177421 0.149968 0.281328 0.308163 0.14002 0.261011 -0.591956 -0.244701 -0.0579718 0.156632 -0.0715237 0.0752668 0.477162 -0.0508048 0.387254 0.496763 -0.347636 -0.11118 -0.157064 -0.330441 0.461483 0.224704 -0.624709 0.19791 -0.484109 -0.0565619 0.480623 0.0601726 0.196049 0.234777
35 0.205334 -0.0352802 0.234236 0.129186 0.13762 0.259996 0.144229 0.240698 -0.689211 -0.154405 0.0173509 -0.0323102 0.116508 0.0214989 0.471295 0.0855818 0.31175 0.594349 -0.382887 -0.0154372 0.0169524 -0.312385 0.52957 0.184829 -0.470251 0.349252 -0.618878 -0.0594179 0.320304 0.182396 0.0811124 0.115196
693 0.195798 0.317509 0.152369 0.104851 0.196394 0.347736 0.0614376 0.543266 -0.494661 -0.155466 -0.0633616 0.000214042 -0.150303 0.127394 0.343109 -0.136873 0.562106 0.483873 -0.467292 -0.0542728 0.0580255 -0.622744 0.613078 0.189778 -0.575295 0.311345 -0.421448 0.0637573 0.201133 -0.0605472 0.146402 0.071527
16 0.443704 0.201962 0.0333808 0.227954 0.26076 0.284477 0.0859446 0.388538 -0.557437 -0.307132 -0.0705262 0.030388 -0.167452 -0.0614615 0.382046 -0.0866557 0.364499 0.372824 -0.297315 -0.0882972 -0.224796 -0.504411 0.487772 0.217991 -0.615584 0.268003 -0.286965 0.025174 0.408759 -0.00338199 0.29777 0.1608
698 0.298925 0.201288 0.111455 -0.00582116 0.212912 0.339093 0.107563 0.324815 -0.540689 -0.107811 0.129527 -0.0938542 -0.0709236 0.0377049 0.367429 -0.00467178 0.357486 0.491826 -0.282029 -0.125664 -0.0589763 -0.394407 0.344242 0.234143 -0.473706 0.331905 -0.572696 -0.112279 0.274473 0.0518155 0.172648 0.220501
20 0.31662 0.258597 -0.0157682 0.0987065 0.217482 0.333058 0.105719 0.357174 -0.550747 -0.145047 0.0052335 -0.0852159 -0.131217 -0.0629843 0.333748 -0.00746065 0.316991 0.465326 -0.238847 -0.058356 -0.12646 -0.460841 0.467906 0.261086 -0.526728 0.308564 -0.416271 0.0155808 0.391306 0.0447737 0.280833 0.228422
297 0.51026 0.277751 -0.0795675 0.179979 0.22377 0.289222 0.0512812 0.427782 -0.511728 -0.243363 -0.020039 -0.108307 -0.174525 -0.134252 0.292302 -0.0423917 0.274987 0.373406 -0.263831 -0.030582 -0.246138 -0.635791 0.435661 0.193553 -0.55586 0.297796 -0.24268 0.0135587 0.353248 -0.0441663 0.32678 0.136639
690 0.286297 0.0563294 0.218952 0.136564 0.0856795 0.306301 0.112431 0.312728 -0.693057 -0.15984 0.015098 -0.0998268 0.0581207 0.0109319 0.447513 0.0620814 0.382251 0.575895 -0.421149 -0.0134411 0.0363409 -0.47819 0.630656 0.164927 -0.482409 0.408859 -0.629473 -0.0110907 0.269861 0.138262 0.0991983 0.0647645
502 0.317961 0.0662385 0.141787 0.206215 0.257109 0.187318 0.159028 0.372879 -0.566146 -0.29186 -0.0785213 0.0225799 0.00723374 -0.0377833 0.437028 -0.0355276 0.413149 0.512635 -0.276906 -0.0289893 -0.0802418 -0.398668 0.491615 0.210143 -0.585 0.326928 -0.385592 -0.0432664 0.430938 -0.00667453 0.258288 0.160595
222 0.424579 0.212803 0.0744648 0.124059 0.133798 0.331276 0.0418687 0.344088 -0.538609 -0.20105 0.0611558 -0.0984185 -0.112517 -0.0613943 0.303141 -0.0190778 0.297214 0.357247 -0.321072 -0.0843555 -0.0986865 -0.553348 0.479364 0.162005 -0.476317 0.297461 -0.398668 -0.0112132 0.194362 0.0630457 0.166502 0.0615105
19 0.570548 0.361235 0.0444796 0.0917068 0.277636 0.387367 0.0534417 0.374169 -0.591317 -0.224672 0.150963 -0.0904989 -0.1896 -0.0386326 0.353599 -0.0379531 0.288399 0.331244 -0.311809 -0.158195 -0.32613 -0.634647 0.343541 0.190982 -0.605659 0.227197 -0.39418 -0.0959232 0.335546 -0.0439373 0.250168 0.228139
83 0.527662 0.19175 0.171461 0.120972 0.192802 0.296706 0.0365739 0.394275 -0.622215 -0.241398 0.178964 -0.123345 -0.00523911 -0.014511 0.388575 0.0606178 0.330774 0.398769 -0.367659 -0.0862067 -0.180183 -0.624802 0.365014 0.110285 -0.55071 0.288153 -0.440598 -0.159749 0.170538 -0.0564386 0.127317 0.160025
395 0.286653 0.202635 0.069954 0.104328 0.242343 0.218096 0.0714322 0.3994 -0.504755 -0.155694 0.0666396 -0.0850332 -0.0339231 0.0124004 0.343086 0.0178506 0.375678 0.494118 -0.299006 -0.0221988 -0.137548 -0.460935 0.298068 0.190905 -0.550909 0.282398 -0.394471 -0.121352 0.320077 -0.123944 0.245517 0.240788
718 0.388771 0.255036 -0.093788 0.0367747 0.175465 0.36717 0.140867 0.39241 -0.615468 -0.109018 -0.0415893 -0.208905 -0.216543 -0.164358 0.220953 -0.0437652 0.236547 0.40712 -0.134694 -0.0341553 -0.0746538 -0.388079 0.485919 0.315551 -0.401332 0.409739 -0.459157 0.0530756 0.37702 0.190487 0.342518 0.163465
715 0.402138 0.183842 0.125014 0.0828264 0.128331 0.305916 0.0570631 0.412956 -0.655471 -0.165147 0.119419 -0.196686 -0.000208504 -0.066299 0.372228 0.0546233 0.353422 0.512908 -0.363605 -0.0275496 -0.0696349 -0.59619 0.479964 0.167931 -0.49674 0.401368 -0.519824 -0.0937116 0.214999 0.0211825 0.195446 0.135706
334 0.481851 0.150368 0.0604057 0.137703 0.10996 0.282726 0.0570657 0.360332 -0.654546 -0.188065 0.0984018 -0.238124 0.0175913 -0.122804 0.334094 0.0641659 0.277539 0.490437 -0.320987 0.0178184 -0.101363 -0.604742 0.487637 0.142446 -0.49206 0.409815 -0.433894 -0.0710666 0.25483 0.0131123 0.2411 0.102199
400 0.269699 0.051823 0.216242 0.188823 0.268388 0.337714 0.16997 0.265194 -0.657372 -0.273183 -0.0775596 0.109885 -0.0624824 0.0363544 0.53962 -0.0367713 0.390544 0.525625 -0.344968 -0.100555 -0.108046 -0.311457 0.586471 0.271973 -0.611225 0.289941 -0.532264 -0.0124556 0.492195 0.166288 0.193146 0.205558
406 0.3334 0.205906 0.0660872 0.0821523 0.0839014 0.327467 0.017288 0.331696 -0.649009 -0.0707531 0.128856 -0.219693 -0.0094535 -0.043431 0.329198 0.10065 0.2424 0.493791 -0.392458 -0.00793978 -0.106119 -0.563376 0.420018 0.141284 -0.441463 0.326693 -0.521246 -0.0243906 0.195265 0.0607534 0.158407 0.104211
358 0.292039 0.0837346 0.144167 0.14542 0.304749 0.333669 0.135744 0.23424 -0.594734 -0.237175 -0.018043 0.0901224 -0.0874329 0.0230009 0.466848 -0.0352077 0.320764 0.456965 -0.309361 -0.119153 -0.199116 -0.314235 0.431724 0.272377 -0.602773 0.235174 -0.484547 -0.05071 0.492744 0.106287 0.206961 0.229368
713 0.353452 0.0815755 0.0977903 0.101052 0.161476 0.254484 0.120346 0.380902 -0.651911 -0.19657 0.0593216 -0.172584 0.0278694 -0.0789561 0.375047 0.0584288 0.344307 0.562855 -0.293349 0.0153484 -0.0165778 -0.454282 0.465002 0.224737 -0.486354 0.458218 -0.53662 -0.0918832 0.278537 0.105707 0.213543 0.162166
528 0.473033 0.35642 -0.0318227 0.0728874 0.264329 0.330242 0.0355238 0.501962 -0.578061 -0.150148 0.128396 -0.185444 -0.155064 -0.0805702 0.312024 -0.0171192 0.383502 0.493924 -0.314905 -0.0684725 -0.214967 -0.658033 0.350009 0.224645 -0.608667 0.356893 -0.39701 -0.094283 0.322983 -0.129762 0.361829 0.290964
149 0.22978 0.123406 0.124883 0.0756509 0.210002 0.338024 0.159139 0.274324 -0.583068 -0.146434 -0.0138729 -0.00688739 -0.10887 0.0188736 0.426667 -0.0268634 0.350356 0.490179 -0.287799 -0.0964824 -0.0547318 -0.287296 0.47873 0.313088 -0.520121 0.312796 -0.565949 0.00249165 0.399935 0.17803 0.191576 0.223788
146 0.457984 0.153449 0.102929 0.104959 0.0981433 0.25835 0.0960893 0.390763 -0.648696 -0.168883 0.117195 -0.244262 0.0793845 -0.138176 0.346479 0.109872 0.304907 0.533179 -0.301059 0.0179878 -0.0335393 -0.567595 0.453912 0.132962 -0.473326 0.420347 -0.499224 -0.103189 0.198236 0.0238473 0.183635 0.11078
249 0.301136 0.223222 0.0587559 0.111175 0.221791 0.298389 0.075522 0.392086 -0.581392 -0.149246 0.0443697 -0.0815745 -0.0563215 -0.0176531 0.369255 -0.0036168 0.362435 0.536808 -0.325366 -0.0545345 -0.132676 -0.515817 0.426156 0.199052 -0.545936 0.336713 -0.462085 -0.0559151 0.353096 -0.00876275 0.228699 0.215958
110 0.428501 0.146587 0.0398885 0.0472888 0.0921563 0.270562 0.098004 0.366283 -0.623413 -0.131002 0.116002 -0.257052 0.00512981 -0.130242 0.313303 0.0641161 0.244929 0.441471 -0.234739 -0.0358964 -0.0649532 -0.491825 0.403578 0.203451 -0.426697 0.43988 -0.537905 -0.0822722 0.215976 0.092641 0.20709 0.126513
509 0.260811 0.127899 0.120154 0.178832 0.290065 0.241052 0.0848658 0.320487 -0.555014 -0.210411 -0.0286478 0.0441517 -0.0462489 0.0173607 0.456779 -0.0072415 0.384126 0.53966 -0.370946 -0.0462366 -0.17329 -0.434725 0.396128 0.217835 -0.615947 0.260442 -0.425565 -0.0663349 0.447394 -0.046023 0.223634 0.24931
610 0.53099 0.299753 0.0352725 0.135116 0.244507 0.425011 0.047619 0.292735 -0.563313 -0.255573 0.0590053 -0.0218713 -0.226937 -0.0660873 0.354078 -0.0580183 0.248963 0.270045 -0.292752 -0.186095 -0.282373 -0.535432 0.43254 0.217698 -0.559622 0.213324 -0.369372 0.00262436 0.332181 0.0560524 0.218067 0.179305
581 0.350745 0.245132 -0.0704677 0.0921522 0.179639 0.275897 0.0834703 0.396668 -0.570074 -0.116515 0.0190384 -0.201351 -0.100204 -0.141887 0.247899 0.00780805 0.249973 0.480173 -0.215326 -0.0144761 -0.0814126 -0.4958 0.434203 0.207153 -0.442753 0.383456 -0.406857 -0.00733564 0.319612 0.0302765 0.307108 0.201861
640 0.240405 0.401644 -0.00712949 0.0366926 0.186866 0.321028 0.000315909 0.546385 -0.417845 -0.0565161 0.0205379 -0.126615 -0.222823 -0.00729069 0.215272 -0.132364 0.443293 0.478391 -0.346108 -0.0176706 0.00400953 -0.62401 0.447143 0.205225 -0.506752 0.321297 -0.364744 0.0449296 0.237747 -0.119549 0.250144 0.167701
312 0.37954 0.225535 0.0999345 0.0929662 0.149887 0.188504 0.0418818 0.552349 -0.525344 -0.13672 0.123885 -0.258709 0.0466652 -0.0898114 0.290848 0.0384342 0.420383 0.543181 -0.311293 0.0560736 0.0308244 -0.62933 0.380309 0.116729 -0.474033 0.423037 -0.412266 -0.118236 0.114529 -0.173862 0.254503 0.137737
135 0.217984 0.0564076 0.114054 0.200344 0.203474 0.13684 0.0615431 0.400611 -0.555523 -0.222367 -0.0436989 -0.0552524 0.102293 -0.0243068 0.417871 0.0301682 0.419386 0.585499 -0.370986 0.0557942 -0.0559234 -0.492659 0.442319 0.161023 -0.536496 0.33793 -0.360885 -0.0564334 0.312161 -0.075216 0.235305 0.130799
161 0.348168 0.199489 0.00204585 0.112108 0.13381 0.305643 0.0287629 0.308909 -0.585022 -0.122976 0.0731868 -0.190341 -0.0730403 -0.0902281 0.28346 0.0608308 0.232992 0.467838 -0.27379 -0.0229612 -0.113652 -0.526186 0.433547 0.125356 -0.415436 0.316999 -0.44156 0.0103288 0.231303 0.0545404 0.197391 0.147338
184 0.450317 0.19444 0.112114 0.147261 0.114633 0.32742 0.0288709 0.357181 -0.667693 -0.235937 0.0872687 -0.179984 0.000677835 -0.0573264 0.366458 0.073225 0.316951 0.431068 -0.395576 -0.035396 -0.11647 -0.629733 0.526417 0.10307 -0.515867 0.364271 -0.484522 -0.0330026 0.196205 0.0479099 0.164212 0.0519393
372 0.448368 0.263047 0.00542406 0.123984 0.202752 0.370842 0.0970361 0.385048 -0.585639 -0.217669 -0.0235591 -0.0808371 -0.192298 -0.122957 0.34414 -0.0635813 0.287235 0.402523 -0.253013 -0.0752732 -0.188499 -0.523378 0.526141 0.262064 -0.556944 0.331741 -0.421635 0.0264391 0.392787 0.0912159 0.307714 0.197071
417 0.574412 0.264841 0.0304181 0.121437 0.240763 0.412312 0.0878125 0.248769 -0.533692 -0.285114 0.0567683 0.011776 -0.249768 -0.0694655 0.31926 -0.059249 0.195851 0.230094 -0.241424 -0.202795 -0.31942 -0.482333 0.390983 0.192215 -0.524132 0.168558 -0.344054 -0.01854 0.354474 0.081769 0.195726 0.180745
486 0.379145 0.189417 -0.0052371 0.0859578 0.226071 0.303447 0.124216 0.400333 -0.631794 -0.149573 -0.0348902 -0.138175 -0.124374 -0.138672 0.332931 -0.0431151 0.316777 0.535635 -0.22921 -0.0272175 -0.051556 -0.464345 0.536293 0.276538 -0.512898 0.438111 -0.50119 -0.00844859 0.400681 0.120816 0.313993 0.219738
392 0.461428 0.180777 0.208713 0.00946508 0.0723025 0.459666 0.10048 0.250785 -0.641326 -0.163267 0.166257 -0.138097 -0.087982 0.01732 0.371856 0.0523709 0.204662 0.287573 -0.301346 -0.16318 -0.0635681 -0.448122 0.492687 0.1845 -0.401586 0.308703 -0.650407 -0.00947183 0.125042 0.275787 0.00640859 0.0645412
592 0.397529 0.337618 0.000215811 0.0415649 0.258043 0.423981 0.0809242 0.311937 -0.552027 -0.130965 0.085713 -0.0401308 -0.251585 -0.0366829 0.308101 -0.0705439 0.280659 0.349919 -0.240634 -0.17189 -0.246401 -0.45129 0.350096 0.284906 -0.560536 0.263552 -0.425662 -0.0153818 0.394676 0.0565184 0.28142 0.250179
382 0.392441 0.24476 -0.0418879 0.0848645 0.252804 0.225337 0.0977968 0.407861 -0.594944 -0.156722 0.0578625 -0.1744 -0.076581 -0.133858 0.315984 0.00353766 0.325713 0.530769 -0.206983 -0.037106 -0.202186 -0.476011 0.356241 0.259967 -0.538191 0.393941 -0.432241 -0.109929 0.422642 -0.026735 0.382786 0.280362
357 0.536793 0.163433 0.0485116 0.14047 0.129045 0.2747 0.0577939 0.386145 -0.643365 -0.225107 0.143532 -0.265155 0.0201439 -0.148519 0.315336 0.09926 0.252767 0.429018 -0.270654 -0.0165142 -0.134998 -0.592109 0.430808 0.12957 -0.476377 0.402112 -0.430479 -0.0949982 0.200501 0.0376776 0.214445 0.102531
223 0.221477 0.0890264 0.178432 0.214679 0.247871 0.237597 0.0873514 0.309558 -0.59839 -0.23471 -0.0240958 0.0694403 0.0187838 0.0376042 0.480564 0.00390473 0.418064 0.572348 -0.410195 -0.00185136 -0.136486 -0.457496 0.441555 0.169699 -0.615352 0.243298 -0.395452 -0.0747307 0.428727 -0.0606082 0.182109 0.202596
534 0.444093 0.249278 0.0544875 0.0373299 0.124278 0.284972 0.0724546 0.388247 -0.628939 -0.0842718 0.221171 -0.303443 0.0245606 -0.111689 0.289326 0.0957525 0.260761 0.493734 -0.296684 -0.0185468 -0.0964277 -0.588945 0.345983 0.179718 -0.433606 0.387864 -0.531333 -0.117528 0.170577 0.00740038 0.198911 0.162017
68 0.364615 0.226121 0.0477871 0.125387 0.141195 0.314617 0.0456352 0.377821 -0.622763 -0.128963 0.0154332 -0.149227 -0.0824775 -0.0904505 0.31049 0.00775858 0.299442 0.487085 -0.329701 -0.00920453 -0.0958646 -0.563438 0.524585 0.18093 -0.478777 0.362777 -0.429515 -0.000673746 0.293808 0.0440822 0.232801 0.115085
618 0.197973 0.240601 0.0899583 0.0744666 0.258931 0.315757 0.0445669 0.348456 -0.51295 -0.125561 0.0610334 0.027591 -0.104646 0.0957565 0.3959 -0.0547449 0.411385 0.517759 -0.376767 -0.102241 -0.135568 -0.469923 0.364275 0.218735 -0.598069 0.239952 -0.442731 -0.0407575 0.373916 -0.0717929 0.204233 0.271569
666 0.255865 0.475973 0.149087 0.0329489 0.165773 0.530697 0.011613 0.535752 -0.462896 -0.135546 -0.0478623 0.0654181 -0.358847 0.160082 0.292213 -0.225463 0.548108 0.309765 -0.438772 -0.234192 0.0663788 -0.666913 0.676886 0.238299 -0.546414 0.217819 -0.428899 0.19393 0.167936 0.0290941 0.0640163 0.0426417
621 0.221332 0.197714 0.144822 0.121522 0.309961 0.286399 0.0357208 0.291696 -0.525385 -0.182692 0.0444389 0.0863821 -0.0764227 0.0984864 0.426685 -0.0264362 0.417108 0.501784 -0.411972 -0.0963307 -0.223518 -0.463921 0.344206 0.205139 -0.65584 0.187049 -0.441081 -0.0943862 0.403758 -0.101517 0.183878 0.279878
364 0.397181 0.397838 0.0150684 0.00432856 0.268006 0.467894 0.0286603 0.346932 -0.592346 -0.0983825 0.126263 -0.0460041 -0.276643 0.020272 0.343701 -0.0773251 0.33268 0.402953 -0.35754 -0.205622 -0.252058 -0.569263 0.374402 0.255074 -0.619691 0.240701 -0.516359 -0.0517181 0.343326 -0.000486714 0.226255 0.290449
348 0.329855 0.233945 -0.0517885 0.129388 0.310172 0.184851 0.0527489 0.426281 -0.511251 -0.152172 0.0233837 -0.0859048 -0.0400288 -0.0812378 0.315644 -0.00640844 0.384529 0.586369 -0.32035 0.00963663 -0.221435 -0.532806 0.306671 0.208062 -0.612168 0.322592 -0.310841 -0.103726 0.434867 -0.193112 0.374138 0.29423
211 0.339543 0.246453 -0.0407984 0.0522992 0.157494 0.386086 0.134825 0.354643 -0.606875 -0.107753 -0.063561 -0.16109 -0.228034 -0.145776 0.255974 -0.098327 0.296299 0.460637 -0.195399 -0.069373 -0.0214882 -0.418121 0.569361 0.325614 -0.435689 0.440479 -0.517865 0.0802876 0.364773 0.22474 0.295888 0.174416
631 0.302996 0.208967 0.0949454 0.141978 0.298846 0.331921 0.0895894 0.324762 -0.569762 -0.212575 0.0227605 0.0424792 -0.128335 0.0543329 0.424756 -0.0535479 0.385736 0.51512 -0.389234 -0.119628 -0.207184 -0.45836 0.40153 0.247906 -0.641019 0.2316 -0.42771 -0.0551498 0.440697 -0.0377354 0.234991 0.278148
526 0.217244 0.183884 0.0923175 -0.00539057 0.256589 0.310464 0.143974 0.368193 -0.555034 -0.0779874 0.0655243 -0.0526153 -0.0921608 0.0357368 0.365231 -0.0202776 0.402599 0.59142 -0.265308 -0.0615644 -0.020773 -0.379252 0.392037 0.290547 -0.528224 0.34653 -0.585786 -0.0727479 0.382855 0.0366252 0.238042 0.284886
3 0.317727 0.124973 0.0248641 0.162906 0.287158 0.138892 0.0982251 0.408331 -0.495572 -0.239884 -0.00587243 -0.050638 -0.0380671 -0.0870517 0.375615 -0.000434595 0.382369 0.54232 -0.259011 0.0168776 -0.13659 -0.442655 0.343081 0.210425 -0.589321 0.328441 -0.328482 -0.0973928 0.422856 -0.0935227 0.35771 0.241497
89 0.438525 0.14806 0.0610369 0.1064 0.0844816 0.253463 0.0603904 0.343293 -0.647457 -0.158414 0.138394 -0.27943 0.055018 -0.13801 0.309892 0.128213 0.254924 0.489536 -0.280577 0.0190421 -0.0882097 -0.575388 0.416372 0.121973 -0.441361 0.405855 -0.484626 -0.0735081 0.189861 0.0410772 0.18577 0.114832
638 0.397263 0.187175 0.0818071 0.115123 0.268814 0.284326 0.121983 0.351457 -0.579689 -0.20943 0.0611854 -0.0563426 -0.058798 -0.0248587 0.392781 -0.0183358 0.351834 0.482404 -0.267628 -0.0717545 -0.190851 -0.447512 0.373666 0.236515 -0.592224 0.323514 -0.452995 -0.119012 0.407222 -0.00549321 0.274831 0.245284
379 0.334307 0.197589 0.196635 0.108802 0.192368 0.332665 0.0118939 0.390349 -0.568096 -0.183425 0.140953 -0.0718937 -0.00991871 0.0842685 0.426947 0.038395 0.426286 0.481874 -0.452546 -0.0756105 -0.11111 -0.602597 0.413429 0.11599 -0.553395 0.261915 -0.499736 -0.0837455 0.205087 -0.0822945 0.0801794 0.154871
127 0.477316 0.308262 -0.00952119 0.121808 0.230467 0.406447 0.0644901 0.302051 -0.568899 -0.21127 0.0200649 -0.0291319 -0.250791 -0.0843525 0.341695 -0.0784324 0.276168 0.322493 -0.283639 -0.159275 -0.270751 -0.536071 0.462525 0.235773 -0.563246 0.254527 -0.38478 0.0264055 0.40572 0.0731269 0.261931 0.20292
173 0.444896 0.197016 0.0739794 0.170772 0.235041 0.413304 0.0876851 0.230608 -0.606964 -0.264229 -0.0326985 0.0894422 -0.227334 -0.0356893 0.412801 -0.0640572 0.249937 0.33313 -0.312507 -0.149186 -0.256134 -0.400528 0.536964 0.238727 -0.57466 0.182985 -0.397372 0.0496556 0.453905 0.155276 0.193436 0.166558
424 0.390182 0.268872 0.0642558 0.0811494 0.233475 0.353417 0.0712286 0.321625 -0.575473 -0.180719 0.0731511 -0.0422338 -0.146191 -0.0349348 0.368538 -0.0255664 0.314615 0.416748 -0.312772 -0.113551 -0.197996 -0.505519 0.396242 0.228016 -0.555911 0.252108 -0.438189 -0.0600829 0.359086 0.0139627 0.242893 0.232627
580 0.401251 0.267469 -0.0381981 0.118287 0.255269 0.309378 0.143187 0.425577 -0.53106 -0.201054 -0.0609444 -0.0714275 -0.19851 -0.108207 0.292686 -0.108946 0.348973 0.445013 -0.237073 -0.0677638 -0.130717 -0.473684 0.496637 0.320593 -0.573893 0.348946 -0.368404 0.0353377 0.42682 0.0490012 0.363738 0.195374
671 0.157489 0.395217 0.0551273 0.0923548 0.224032 0.303122 -0.0547456 0.594273 -0.417062 -0.0939677 0.00158151 -0.0152994 -0.143918 0.114314 0.274394 -0.11025 0.578995 0.560287 -0.492608 -0.0115298 -0.0078593 -0.736369 0.452894 0.120598 -0.607971 0.250291 -0.291261 0.0308446 0.245379 -0.305595 0.199523 0.19378
801 1.25105 0.643895 0.0456863 -0.031695 0.209597 0.694768 0.0522768 0.451284 -0.356455 -0.44164 0.321388 -0.131035 -0.683579 -0.127235 0.0848795 -0.320682 0.150829 -0.417925 -0.0262717 -0.583169 -0.350737 -0.773556 0.298362 0.177182 -0.456136 0.115439 -0.221817 -0.0644936 -0.107171 0.112077 0.115208 0.0477683
373 0.0305576 0.428401 0.163108 -0.00697106 0.156258 0.437098 0.0198635 0.563671 -0.389702 -0.0387477 -0.0664333 0.0738125 -0.297038 0.236111 0.270336 -0.196788 0.603519 0.436122 -0.491103 -0.141648 0.155656 -0.617228 0.633254 0.244356 -0.511803 0.269102 -0.438046 0.180147 0.196075 -0.0353713 0.0766608 0.0749862
138 0.497083 0.312968 0.0716788 0.0718451 0.167395 0.422453 0.0591562 0.378939 -0.568246 -0.176944 0.0950283 -0.0822785 -0.220439 -0.018019 0.32427 -0.066046 0.303235 0.317126 -0.309419 -0.161795 -0.15716 -0.563444 0.463854 0.22574 -0.507057 0.287806 -0.438994 -0.000915868 0.232767 0.0902028 0.20107 0.145096
201 0.584144 0.344194 0.0313578 0.0875791 0.170042 0.480477 0.0708004 0.323658 -0.545493 -0.238572 0.0391095 -0.0933951 -0.303399 -0.0807813 0.256966 -0.0832168 0.234241 0.198836 -0.24992 -0.173544 -0.197168 -0.545084 0.487872 0.224323 -0.469916 0.252168 -0.402425 0.0649204 0.24012 0.132286 0.197408 0.0851935
285 0.428489 0.231153 -0.0322441 0.0229185 0.0965392 0.287401 0.138357 0.443996 -0.546151 -0.0934276 0.0380086 -0.299645 -0.142857 -0.181838 0.220021 -0.0409804 0.292885 0.399269 -0.141381 -0.0219822 0.0129896 -0.459332 0.468084 0.277271 -0.374609 0.47459 -0.448802 0.00346826 0.211285 0.127445 0.29442 0.135648
506 0.195056 0.339448 0.0656456 -0.0225004 0.07156 0.420837 0.0635862 0.525872 -0.593946 0.0205964 0.0222927 -0.200725 -0.185604 -0.00211007 0.244028 -0.0870146 0.425933 0.532159 -0.371451 -0.0238435 0.170131 -0.586829 0.661537 0.262016 -0.430132 0.457557 -0.586411 0.130456 0.16887 0.101844 0.170744 0.0679986
616 0.323484 0.143029 0.118519 0.0434803 0.0824538 0.268256 0.175237 0.337716 -0.636462 -0.097879 0.081971 -0.228741 0.00930379 -0.11113 0.343683 0.0634311 0.297592 0.482493 -0.230759 -0.0180332 0.0413899 -0.393279 0.482183 0.233609 -0.362101 0.430591 -0.595731 -0.0445162 0.194575 0.163366 0.17031 0.107038
120 0.324654 0.115199 0.0574844 0.111409 0.144636 0.217192 0.153907 0.41105 -0.609832 -0.164508 -0.00664106 -0.203193 -0.00711098 -0.131836 0.338442 -0.00925617 0.368202 0.57964 -0.242419 0.0431808 0.038827 -0.418656 0.554092 0.257625 -0.492064 0.498675 -0.510598 -0.0513088 0.34048 0.112549 0.287487 0.138768
689 0.437126 0.144188 0.0210048 0.0662624 0.197125 0.274696 0.118929 0.374941 -0.677743 -0.123841 0.119196 -0.263499 -0.016668 -0.124597 0.352392 0.080232 0.271467 0.544348 -0.222957 0.0104548 -0.0937244 -0.458694 0.394142 0.267074 -0.493024 0.470487 -0.559991 -0.142047 0.319337 0.0869069 0.278048 0.21788
512 0.11308 0.338618 0.153083 0.00993174 0.0914784 0.412851 -0.0306966 0.402727 -0.471149 0.0363198 0.0759255 -0.0671931 -0.125257 0.116948 0.257629 -0.0239696 0.416534 0.44144 -0.470664 -0.044582 0.0715347 -0.584386 0.493472 0.124498 -0.411799 0.219819 -0.506244 0.0779483 0.103362 -0.0203911 0.0415365 0.0598607
236 0.424252 0.314975 0.0405968 0.0549945 0.181271 0.413408 0.0825825 0.380477 -0.554003 -0.171568 0.016257 -0.0987751 -0.221875 -0.0338649 0.289948 -0.0952511 0.326752 0.318784 -0.290042 -0.144652 -0.115224 -0.508716 0.499017 0.269637 -0.478951 0.319045 -0.446142 0.0316713 0.261725 0.117838 0.206613 0.12768
200 0.513979 0.38346 0.0475114 0.044504 0.15508 0.494466 0.0473686 0.352947 -0.549064 -0.177646 0.0807385 -0.0744651 -0.317532 -0.0486728 0.296057 -0.110511 0.261636 0.228081 -0.298114 -0.206321 -0.185822 -0.573695 0.495524 0.235231 -0.504593 0.237444 -0.422692 0.0704052 0.24781 0.110177 0.169828 0.0995013
295 0.427911 0.226013 0.08404 0.151364 0.258671 0.400298 0.0716211 0.319691 -0.577872 -0.275655 0.00459653 0.0132456 -0.175622 -0.00475578 0.41195 -0.079781 0.333059 0.379893 -0.338934 -0.164402 -0.238484 -0.495004 0.467643 0.220844 -0.60039 0.23994 -0.428854 -0.0160069 0.398207 0.0369638 0.221161 0.210576
454 0.522205 0.273133 0.124211 0.078668 0.11138 0.419314 0.00502324 0.362884 -0.571558 -0.213338 0.139179 -0.161563 -0.127252 -0.0394485 0.301274 0.00604597 0.278431 0.285575 -0.382911 -0.130051 -0.130179 -0.648818 0.494142 0.122146 -0.470776 0.255361 -0.438839 0.0020745 0.0931499 0.0539942 0.0941575 0.0374551
612 0.550686 0.40127 0.0103292 0.0571248 0.136522 0.50306 0.0428174 0.358873 -0.554753 -0.187425 0.0773151 -0.125814 -0.329988 -0.0908945 0.242153 -0.11241 0.215212 0.188684 -0.281231 -0.175174 -0.202295 -0.62027 0.534114 0.213671 -0.451886 0.275783 -0.393105 0.0948106 0.179832 0.166181 0.198828 0.0535115
508 0.39757 0.324973 -0.0545151 0.0538212 0.146007 0.325109 0.0765217 0.43707 -0.511404 -0.100512 0.0609583 -0.20481 -0.15423 -0.128707 0.209303 -0.0504773 0.27911 0.418264 -0.217486 -0.033095 -0.0678568 -0.556798 0.448062 0.221904 -0.445024 0.393331 -0.402977 0.00471408 0.23622 0.0212919 0.280429 0.128095
180 0.509332 0.389476 0.0269769 0.0658914 0.146149 0.475172 0.0456496 0.37673 -0.564267 -0.214495 0.0248502 -0.0920864 -0.300039 -0.0759762 0.295781 -0.0869588 0.273921 0.273648 -0.316743 -0.171078 -0.189809 -0.610201 0.545031 0.220425 -0.496938 0.296902 -0.406558 0.0739931 0.23592 0.120224 0.192829 0.0846719
282 0.479968 0.297766 0.06954 0.161459 0.211253 0.488072 0.0662594 0.250267 -0.600816 -0.287045 -0.0593776 0.0857215 -0.284734 -0.0286966 0.379717 -0.100576 0.273749 0.247113 -0.331555 -0.197072 -0.245052 -0.523505 0.555 0.221836 -0.597461 0.162855 -0.368381 0.0950472 0.362538 0.165414 0.163478 0.115529
279 0.467379 0.340105 0.0377637 0.0792658 0.182311 0.397753 0.0444022 0.365538 -0.517842 -0.196073 0.047893 -0.0750893 -0.258216 -0.024178 0.296011 -0.0995269 0.299943 0.270923 -0.276883 -0.164074 -0.18509 -0.56374 0.450483 0.229604 -0.505039 0.258458 -0.39863 0.041724 0.236328 0.0727005 0.206414 0.138531
270 0.436697 0.288019 0.0748691 0.105909 0.222775 0.353205 0.0883133 0.393997 -0.529573 -0.209594 0.048191 -0.0507707 -0.169023 -0.0277886 0.342456 -0.0820684 0.353621 0.354653 -0.286666 -0.136794 -0.165006 -0.530845 0.43593 0.210957 -0.543072 0.269796 -0.371362 -0.0283346 0.298006 0.000865164 0.235724 0.175626
677 0.403938 0.355085 0.105362 0.078071 0.155166 0.466672 0.0120918 0.377937 -0.5774 -0.177523 0.0623184 -0.0680408 -0.210615 0.0370564 0.341093 -0.0572486 0.338522 0.321894 -0.401735 -0.138604 -0.164971 -0.63129 0.52169 0.197409 -0.546913 0.249845 -0.457231 0.0407048 0.212802 0.038959 0.140284 0.11156
170 0.357571 0.138486 0.200193 0.0637179 0.0843923 0.234307 0.0521349 0.394857 -0.569254 -0.121976 0.190512 -0.21421 0.107354 0.00800118 0.349481 0.113602 0.351315 0.468526 -0.375911 -0.0306383 -0.0354519 -0.557685 0.365269 0.0806996 -0.416901 0.361027 -0.561549 -0.136702 0.0896238 -0.0486926 0.0839362 0.115135
340 0.417602 0.275666 0.0770458 0.141743 0.214075 0.424202 0.0798318 0.310796 -0.555903 -0.23811 -0.0400032 0.048852 -0.273265 0.0105982 0.353001 -0.123789 0.313203 0.32161 -0.317778 -0.188137 -0.170916 -0.497114 0.560223 0.227529 -0.575686 0.22463 -0.425685 0.0744794 0.353076 0.132298 0.207326 0.150475
240 0.439105 0.335254 0.0321565 0.0454732 0.141453 0.427313 0.071424 0.338783 -0.498664 -0.189911 0.0310493 -0.0803 -0.297755 -0.0577493 0.253033 -0.121423 0.270236 0.221553 -0.233607 -0.153916 -0.101617 -0.523764 0.472971 0.219596 -0.440903 0.251582 -0.385991 0.0814932 0.222313 0.144203 0.179012 0.0947948
238 0.381248 0.251683 0.0655795 0.130458 0.246932 0.426125 0.0983798 0.281395 -0.611033 -0.20069 -0.00380183 0.0320028 -0.192938 -0.0131319 0.389981 -0.0571952 0.306876 0.397547 -0.332844 -0.156897 -0.259331 -0.477943 0.480161 0.244671 -0.602585 0.233583 -0.44734 0.000827277 0.424792 0.0794886 0.20185 0.223148
46 0.440342 0.38194 -0.000840748 0.0667671 0.132914 0.465696 0.00390227 0.343192 -0.559926 -0.166378 0.0378039 -0.107625 -0.311853 -0.0529385 0.252363 -0.0819174 0.246754 0.230961 -0.314552 -0.164605 -0.174325 -0.575966 0.513696 0.194991 -0.464874 0.238368 -0.406563 0.0906886 0.230771 0.113119 0.194775 0.0969278
166 0.368621 0.219045 -0.0541811 0.111064 0.186603 0.28121 0.0934349 0.343032 -0.586292 -0.155107 0.009511 -0.142573 -0.105798 -0.123105 0.280755 -0.0127549 0.25219 0.45216 -0.253625 -0.0102904 -0.163454 -0.501023 0.453337 0.243756 -0.485339 0.329912 -0.390737 0.0222708 0.350927 0.0399964 0.281892 0.156202
518 0.311615 0.117647 0.072908 0.128548 0.163898 0.236824 0.124573 0.388759 -0.626127 -0.151654 -0.00102592 -0.165727 -0.0197895 -0.104662 0.352261 0.0115014 0.363914 0.578932 -0.324013 0.0322733 0.0136475 -0.485306 0.536676 0.213306 -0.482411 0.431144 -0.497032 -0.0350928 0.300598 0.0872069 0.249291 0.13291
167 0.204923 0.393585 0.224174 0.0205534 0.185062 0.402207 0.0086184 0.557579 -0.514051 -0.0923127 0.127851 -0.0189898 -0.0966337 0.20506 0.36903 -0.0686329 0.601685 0.520393 -0.568006 -0.107242 0.0246598 -0.719985 0.506235 0.13803 -0.596104 0.250073 -0.544621 -0.030454 0.171839 -0.167571 0.0601319 0.142952
64 0.322545 0.223303 0.0220503 0.0994205 0.100227 0.428077 0.107405 0.30906 -0.605916 -0.157694 -0.114941 -0.0821291 -0.245268 -0.083388 0.281832 -0.0878835 0.282938 0.361797 -0.257789 -0.0849332 0.00267619 -0.425258 0.668255 0.258291 -0.438189 0.344827 -0.456721 0.159775 0.319232 0.255989 0.194107 0.033295
118 0.497435 0.375384 0.00889569 0.0309573 0.125244 0.435838 0.0473101 0.378388 -0.538669 -0.151992 0.0596757 -0.147391 -0.270163 -0.0895246 0.229646 -0.0847992 0.262127 0.243043 -0.251346 -0.154666 -0.152861 -0.589654 0.497572 0.219175 -0.437513 0.305287 -0.420956 0.0693105 0.211394 0.129073 0.213411 0.0937977
548 0.51899 0.309702 -0.00436146 0.120669 0.0802957 0.387576 0.0845365 0.437368 -0.609206 -0.2049 -0.0369862 -0.204252 -0.216483 -0.176302 0.249676 -0.0802059 0.255992 0.333954 -0.248703 -0.0682631 -0.0514012 -0.607407 0.653561 0.208692 -0.449115 0.420185 -0.416793 0.11802 0.236002 0.188897 0.272058 0.044428
436 0.597324 0.217385 -0.00983567 0.168999 0.100314 0.239225 0.0702073 0.505006 -0.552798 -0.27132 0.0206607 -0.289334 -0.0776542 -0.211008 0.237646 -0.0134201 0.319721 0.360949 -0.19206 -0.00145404 -0.0364816 -0.679251 0.51107 0.14035 -0.423731 0.456269 -0.297712 -0.0070989 0.173118 0.00259142 0.309994 0.0310903
53 0.510224 0.404793 0.037571 0.0951456 0.173581 0.490381 0.0223111 0.386272 -0.563552 -0.224483 0.0542136 -0.0657454 -0.321155 -0.0491014 0.265862 -0.108426 0.289315 0.215601 -0.326466 -0.17468 -0.215562 -0.640846 0.542684 0.188323 -0.502866 0.217153 -0.380442 0.1066 0.248513 0.0762724 0.177158 0.104816
376 0.351492 0.224884 -0.0435808 0.168154 0.117701 0.283999 0.0127209 0.39306 -0.632317 -0.131798 0.00538728 -0.198643 -0.0784809 -0.118315 0.280562 0.0155435 0.297866 0.490717 -0.379615 0.0474491 -0.130662 -0.661522 0.530892 0.159768 -0.515689 0.392 -0.392343 0.0570266 0.252275 0.0122089 0.274592 0.0797042
296 0.481183 0.240586 0.0735541 0.137811 0.288135 0.390731 0.139362 0.351252 -0.615119 -0.258762 0.0233177 -0.0246348 -0.211856 -0.0650494 0.406462 -0.0805955 0.35654 0.392141 -0.28949 -0.151523 -0.21166 -0.478617 0.491215 0.283227 -0.612585 0.285961 -0.454388 -0.0179441 0.412141 0.0863171 0.257724 0.221107
574 0.16397 0.357824 -0.0100863 0.0611626 0.0529292 0.35179 -0.0145286 0.551076 -0.532305 -0.01251 -0.045331 -0.225054 -0.166791 -0.00945505 0.215522 -0.0789535 0.46894 0.488118 -0.47154 0.0609692 0.143745 -0.712304 0.64563 0.16864 -0.410834 0.416214 -0.430735 0.158111 0.0935006 -0.0108145 0.171966 0.0109475
421 0.398617 0.248757 0.0181416 0.0401105 0.148253 0.411581 0.112918 0.327164 -0.523425 -0.132934 -0.00571589 -0.10621 -0.234084 -0.0710949 0.259776 -0.107997 0.234808 0.287611 -0.212168 -0.13876 -0.073844 -0.387742 0.504245 0.288342 -0.399749 0.31186 -0.461407 0.0706108 0.262909 0.195943 0.202156 0.08392
641 0.393963 0.15426 0.0495431 0.110162 0.172684 0.242045 0.0768229 0.421805 -0.570346 -0.184105 0.0572642 -0.175359 -0.0193256 -0.0949464 0.313332 0.0269949 0.351198 0.47781 -0.2551 -0.0233669 -0.0618733 -0.518482 0.409455 0.176992 -0.491463 0.38252 -0.397289 -0.0602343 0.279089 -0.0173831 0.256293 0.150833
153 0.479228 0.235414 0.0433222 0.103036 0.215411 0.321711 0.0954039 0.316364 -0.603678 -0.207866 0.069016 -0.123339 -0.129313 -0.0829899 0.336956 -0.0075236 0.233272 0.37445 -0.250562 -0.0774193 -0.202812 -0.482839 0.403225 0.233238 -0.50971 0.303108 -0.422979 -0.0575441 0.344112 0.0634745 0.256473 0.212463
536 0.461079 0.286926 -0.00271052 0.135304 0.221947 0.333924 0.0255427 0.313047 -0.569597 -0.193999 0.0662178 -0.102874 -0.154306 -0.0940573 0.319933 -0.00358143 0.275958 0.364737 -0.294878 -0.0829612 -0.264321 -0.57433 0.390922 0.163576 -0.560791 0.253763 -0.346917 -0.023472 0.33948 -0.043449 0.25518 0.199484
237 0.597587 0.342633 0.0084371 0.103413 0.110733 0.441873 0.0332223 0.337729 -0.58799 -0.221801 0.0985434 -0.147005 -0.249069 -0.106154 0.251383 -0.020869 0.214304 0.230132 -0.30148 -0.140601 -0.225199 -0.659682 0.492252 0.15694 -0.480718 0.254278 -0.381329 0.03615 0.175489 0.103614 0.179205 0.0403532
354 0.533545 0.308995 0.0342914 0.0988232 0.238467 0.407855 0.0720082 0.275512 -0.525595 -0.252109 0.0702462 -0.0109748 -0.250391 -0.0565734 0.320321 -0.0616026 0.243851 0.232628 -0.248437 -0.20355 -0.277967 -0.514119 0.37806 0.203947 -0.548067 0.200093 -0.355812 -0.025181 0.331565 0.0535574 0.202975 0.196019
224 0.160695 0.423688 0.0347856 -0.00618804 0.229327 0.361483 0.0212782 0.514203 -0.421141 -0.0321009 0.041488 -0.0476957 -0.223355 0.119909 0.245381 -0.140997 0.513783 0.467171 -0.408284 -0.0771579 -0.0145153 -0.614963 0.420022 0.22309 -0.523967 0.279867 -0.403425 0.0127935 0.240165 -0.137509 0.198334 0.19823
547 0.501716 0.309768 0.0404671 0.100244 0.150323 0.414795 0.0381688 0.342188 -0.579494 -0.207572 0.0574102 -0.106249 -0.215818 -0.0838226 0.30124 -0.05315 0.252155 0.274391 -0.293389 -0.124158 -0.198587 -0.589018 0.484206 0.200572 -0.477807 0.264269 -0.382754 0.0427608 0.236145 0.0903562 0.180152 0.081658
420 0.527476 0.373363 -0.0268789 0.0532674 0.14826 0.474321 0.0472811 0.348169 -0.520361 -0.179221 0.0750526 -0.143547 -0.315801 -0.0909669 0.232194 -0.0861384 0.215 0.201536 -0.255683 -0.171385 -0.183219 -0.561011 0.474563 0.230302 -0.447969 0.248313 -0.399712 0.0710781 0.219483 0.123554 0.198692 0.0823012
322 0.367295 0.236576 -0.021323 0.045472 0.146755 0.335849 0.114957 0.336936 -0.568949 -0.119955 -0.00688797 -0.186273 -0.168671 -0.163104 0.277584 -0.041156 0.263886 0.39949 -0.188664 -0.0458038 -0.0484717 -0.404089 0.489471 0.285794 -0.405066 0.393723 -0.47688 0.0357786 0.330034 0.163728 0.307011 0.169651
67 0.541951 0.217045 0.0632979 0.120174 0.191632 0.395008 0.134002 0.314695 -0.556807 -0.280636 -0.0366646 -0.0353988 -0.253264 -0.0923016 0.334103 -0.0854318 0.253012 0.2781 -0.175655 -0.154994 -0.153826 -0.408601 0.533243 0.253953 -0.503879 0.287123 -0.370569 0.0480199 0.347864 0.196251 0.233216 0.123021
532 0.19519 0.233385 0.148145 0.120984 0.11875 0.272668 0.0105763 0.491499 -0.50799 -0.129934 0.0202223 -0.0859998 -0.0168999 0.0742714 0.329549 -0.0349359 0.475859 0.54106 -0.458187 0.0292309 0.0442884 -0.674572 0.545634 0.123503 -0.510729 0.321145 -0.395897 0.0100965 0.176798 -0.113826 0.122 0.0483275
696 0.450728 0.354388 -0.106241 0.039668 0.172658 0.303425 0.077392 0.51714 -0.48116 -0.117481 0.0320169 -0.248985 -0.249026 -0.153186 0.166853 -0.0892649 0.330134 0.378331 -0.172048 -0.0634116 -0.0507558 -0.576871 0.431606 0.264641 -0.444027 0.404916 -0.336915 0.00825021 0.214754 -0.00844223 0.358266 0.182879
423 0.374652 0.205667 0.039875 0.0926729 0.175265 0.263246 0.129032 0.43536 -0.583779 -0.152494 -0.0106691 -0.174324 -0.102004 -0.105275 0.305533 -0.0203655 0.323455 0.435949 -0.233885 -0.0325187 -0.0591188 -0.473318 0.495399 0.248393 -0.477485 0.412207 -0.411921 -0.0152815 0.292823 0.0525182 0.294394 0.1449
160 0.507164 0.220806 0.170163 0.0972812 0.0868247 0.280707 0.0128574 0.466901 -0.583346 -0.205916 0.172866 -0.229361 0.0218842 -0.00878602 0.330253 0.062986 0.347736 0.388505 -0.387871 -0.0401944 -0.0544698 -0.70348 0.432024 0.0811575 -0.456283 0.356718 -0.445662 -0.0881797 0.0241095 -0.0621278 0.0961464 0.0345763
485 0.395192 0.189481 0.00908049 0.120865 0.133122 0.264842 0.0623456 0.375701 -0.594514 -0.155487 0.0773947 -0.205027 -0.0468823 -0.0971722 0.291423 0.0574816 0.275822 0.449078 -0.30064 0.00496284 -0.12629 -0.566856 0.44465 0.176234 -0.4825 0.380098 -0.424666 -0.039769 0.236452 0.0439294 0.248143 0.115996
13 0.250589 0.178934 -0.0156788 0.0834956 0.233925 0.265171 0.14579 0.377294 -0.521864 -0.13538 -0.0760597 -0.0702572 -0.139303 -0.0605642 0.289624 -0.0789684 0.354335 0.517849 -0.211702 -0.017737 -0.0543836 -0.334078 0.442584 0.302303 -0.520079 0.38433 -0.417082 0.0105073 0.444414 0.0823332 0.333543 0.222227
402 0.109711 0.34972 0.0450879 0.0421705 0.195761 0.434181 0.0633459 0.482327 -0.465642 -0.0706195 -0.140268 0.0133044 -0.302438 0.0732279 0.264801 -0.21066 0.475097 0.461959 -0.367044 -0.0895132 0.101286 -0.48356 0.651048 0.287736 -0.500529 0.314815 -0.428172 0.182177 0.335 0.0696865 0.222261 0.124387
583 0.414619 0.15875 0.0767761 0.113539 0.152356 0.270688 0.0906225 0.414491 -0.638838 -0.192426 0.0696699 -0.18528 -0.0133942 -0.0984487 0.36596 0.0500146 0.342991 0.55292 -0.328175 -0.00392027 -0.0630928 -0.565915 0.491229 0.184662 -0.522614 0.409052 -0.495013 -0.053222 0.305035 0.0216341 0.258158 0.144725
613 0.339551 0.357938 -0.00357232 -0.0594272 0.132186 0.440682 0.0798905 0.363188 -0.533056 -0.0444655 0.102743 -0.165119 -0.266523 -0.0518363 0.217103 -0.0859673 0.26155 0.356042 -0.230456 -0.146473 -0.0762745 -0.452108 0.426678 0.284896 -0.394227 0.348006 -0.532187 0.033258 0.260651 0.156074 0.225873 0.169792
95 0.358768 0.256745 0.00772599 -0.00717834 0.104026 0.443152 0.137086 0.304949 -0.602719 -0.0914113 0.0283998 -0.187807 -0.226185 -0.118465 0.248892 -0.0603486 0.252215 0.397807 -0.208311 -0.102837 -0.0150769 -0.402848 0.571457 0.334236 -0.395753 0.402618 -0.589908 0.068236 0.279136 0.275366 0.207812 0.111783
286 0.332536 0.307243 -0.0707525 0.0522563 0.261934 0.269195 0.0839578 0.436184 -0.56489 -0.101586 0.072422 -0.160225 -0.119257 -0.10354 0.279186 -0.0231474 0.365795 0.563006 -0.262633 -0.00231878 -0.148687 -0.544164 0.364673 0.254741 -0.576945 0.362996 -0.422589 -0.0943571 0.422316 -0.0952535 0.346342 0.314817
579 0.443928 0.204224 0.0971675 0.120569 0.106503 0.368303 0.139284 0.360787 -0.571056 -0.243403 -0.0618155 -0.0866299 -0.185684 -0.0897168 0.312851 -0.0794598 0.255914 0.289131 -0.224225 -0.111541 -0.0154655 -0.461164 0.605366 0.203522 -0.40203 0.341951 -0.432621 0.102793 0.215878 0.22371 0.179629 -0.000920937
158 0.52239 0.258666 0.0584079 0.0308282 0.155463 0.463664 0.150455 0.276108 -0.643857 -0.19798 0.0393929 -0.113475 -0.248103 -0.116285 0.309126 -0.0699557 0.210856 0.305321 -0.161896 -0.163675 -0.116398 -0.425121 0.557239 0.307638 -0.434024 0.357586 -0.519105 0.0549118 0.326538 0.290051 0.219146 0.136038
24 0.365098 0.144132 0.168983 0.00455556 0.0291352 0.384418 0.141502 0.291389 -0.72799 -0.0802025 0.149346 -0.254895 0.0217703 -0.0442353 0.377406 0.10254 0.267521 0.467712 -0.3101 -0.0602343 0.0624693 -0.491912 0.561678 0.187355 -0.357354 0.435347 -0.719104 -0.0261466 0.12027 0.271788 0.0450361 0.047623
183 0.561185 0.213319 0.0425231 0.127367 0.110609 0.434525 0.140702 0.313616 -0.632832 -0.257239 -0.0270737 -0.130685 -0.238061 -0.155822 0.312714 -0.0843487 0.184384 0.25971 -0.189554 -0.118715 -0.0982901 -0.426901 0.608986 0.295416 -0.412259 0.384383 -0.467516 0.116408 0.302908 0.317925 0.236727 0.0444289
328 0.449253 0.321915 -0.024095 0.13232 0.1451 0.400398 0.0631012 0.420372 -0.556922 -0.22447 -0.0952473 -0.0880479 -0.282826 -0.144513 0.254676 -0.105926 0.305397 0.320622 -0.258161 -0.0686808 -0.0861116 -0.556299 0.63395 0.259391 -0.480555 0.327027 -0.357049 0.147633 0.31497 0.150657 0.299984 0.0770662
231 0.45607 0.18126 0.082144 0.113112 0.106568 0.324488 0.128828 0.338232 -0.64266 -0.194263 0.0283087 -0.18136 -0.121681 -0.142378 0.319439 -0.0155029 0.265477 0.389504 -0.2425 -0.0612035 -0.0710746 -0.4883 0.559108 0.224565 -0.448186 0.377733 -0.474729 0.00851444 0.275303 0.168325 0.235906 0.0716484
229 0.282351 0.262201 -0.0137693 0.0412228 0.18823 0.311999 0.150842 0.413095 -0.55274 -0.0940526 -0.0248109 -0.163324 -0.148978 -0.0925787 0.261745 -0.0777194 0.357729 0.485603 -0.222827 -0.0389895 -0.0292607 -0.393286 0.4955 0.326401 -0.458789 0.41005 -0.473252 0.0409146 0.338989 0.125644 0.306823 0.169826
80 0.450559 0.188873 0.0883352 0.138355 0.155679 0.363605 0.167036 0.351026 -0.598841 -0.260401 -0.106789 -0.0287662 -0.219843 -0.11345 0.332623 -0.120616 0.299618 0.312454 -0.205646 -0.100273 -0.0705807 -0.408601 0.622966 0.277317 -0.471398 0.345719 -0.423382 0.0834615 0.326161 0.247379 0.22874 0.0772994
625 0.558764 0.273869 -0.0648295 0.143455 0.18897 0.370464 0.105517 0.441788 -0.585189 -0.268473 -0.051019 -0.132278 -0.249651 -0.184744 0.283845 -0.102748 0.290922 0.355113 -0.229249 -0.0874539 -0.1302 -0.576828 0.585361 0.223535 -0.524777 0.367073 -0.351907 0.0634953 0.346679 0.0830185 0.3612 0.160504
60 0.363588 0.249276 0.0223599 0.111484 0.0999174 0.337906 0.11252 0.408129 -0.556546 -0.162905 -0.0441835 -0.188463 -0.193803 -0.123745 0.272182 -0.0847642 0.325477 0.402284 -0.250683 -0.0427252 0.0177574 -0.490278 0.616029 0.24705 -0.39461 0.422082 -0.444856 0.114906 0.250516 0.18259 0.252138 0.0422079
190 0.532559 0.303158 -0.0736591 0.104741 0.119863 0.443471 0.10716 0.371756 -0.620002 -0.205117 -0.0836448 -0.16873 -0.320906 -0.212968 0.229363 -0.128699 0.2496 0.295117 -0.180835 -0.101416 -0.095874 -0.536791 0.667592 0.278808 -0.442984 0.408006 -0.385372 0.168037 0.32272 0.261515 0.326763 0.0705117
49 0.526418 0.373345 -0.0050453 0.0682983 0.16625 0.453401 0.0436403 0.379528 -0.51621 -0.205782 0.0519487 -0.144045 -0.294944 -0.0845303 0.235913 -0.0898925 0.277372 0.21776 -0.268122 -0.145413 -0.20452 -0.63659 0.483244 0.227747 -0.488347 0.298841 -0.367349 0.0699082 0.204105 0.0848072 0.220708 0.0920125
584 0.48896 0.251088 0.121911 0.0917265 0.0826677 0.463424 0.120739 0.368277 -0.547377 -0.239273 -0.0466186 -0.0684803 -0.286327 -0.0481891 0.310425 -0.128944 0.291544 0.210734 -0.248414 -0.172302 -0.029388 -0.489757 0.649624 0.233251 -0.421924 0.298019 -0.442136 0.140278 0.180964 0.261358 0.140897 -0.0231106
559 0.344665 0.259135 0.0332524 0.054055 0.125504 0.38977 0.127561 0.418584 -0.568213 -0.141384 -0.0521304 -0.119323 -0.214873 -0.0757048 0.27889 -0.119294 0.328535 0.390669 -0.247263 -0.0954587 0.0596067 -0.448144 0.612946 0.288776 -0.427258 0.383687 -0.481622 0.0954046 0.290957 0.211761 0.22229 0.0806387
50 0.245994 0.304084 -0.0448974 -0.0134522 0.150641 0.321311 0.168763 0.463335 -0.508777 -0.0450249 -0.0529161 -0.190882 -0.226711 -0.140706 0.182852 -0.104617 0.358022 0.480562 -0.130974 -0.0221004 0.115034 -0.384723 0.563538 0.354914 -0.40315 0.489045 -0.506864 0.0926635 0.344833 0.161343 0.32679 0.176974
578 0.575682 0.22188 0.0830593 0.170578 0.1708 0.4538 0.131219 0.338524 -0.614697 -0.333596 -0.0882692 -0.0293137 -0.290666 -0.114348 0.375494 -0.148574 0.268964 0.243936 -0.211479 -0.188717 -0.143382 -0.461202 0.661432 0.273327 -0.509541 0.301883 -0.416208 0.114443 0.348987 0.278268 0.227177 0.0456128
585 0.479887 0.250789 0.00103059 0.0925654 0.215739 0.385859 0.11061 0.316122 -0.574909 -0.223151 0.0164217 -0.09817 -0.235353 -0.101844 0.300889 -0.0907298 0.245189 0.322153 -0.224885 -0.138433 -0.182993 -0.47357 0.493287 0.273632 -0.513578 0.299765 -0.441422 0.0320045 0.347017 0.14961 0.249752 0.161468
111 0.403387 0.235525 -0.0100577 0.107813 0.120133 0.406557 0.115877 0.307944 -0.592287 -0.16452 -0.0613796 -0.11583 -0.202277 -0.119627 0.281942 -0.0714689 0.255192 0.382058 -0.230864 -0.0656845 -0.0471799 -0.454844 0.608818 0.231834 -0.451709 0.352485 -0.430192 0.126425 0.304715 0.206238 0.215873 0.0957624
449 0.463632 0.279597 0.0308585 0.101758 0.139784 0.446254 0.0804209 0.355522 -0.609775 -0.215496 -0.0459112 -0.102554 -0.272914 -0.0792165 0.285277 -0.106871 0.267674 0.282568 -0.265883 -0.131394 -0.0962088 -0.527547 0.609376 0.228728 -0.477328 0.323084 -0.415107 0.120636 0.274323 0.216851 0.196762 0.0393393
636 0.472777 0.335025 0.0427066 0.103729 0.155312 0.432204 0.0614096 0.374053 -0.598739 -0.192591 0.0623792 -0.116513 -0.217522 -0.0430529 0.309075 -0.0422896 0.309748 0.330309 -0.324466 -0.123854 -0.160949 -0.593991 0.52295 0.19544 -0.509007 0.306841 -0.426757 0.0511337 0.249944 0.0837251 0.176732 0.116562
472 0.451295 0.16776 0.0253628 0.198495 0.22923 0.24726 0.101893 0.386988 -0.540178 -0.277745 -0.0649531 -0.0533187 -0.143803 -0.140314 0.321756 -0.0757889 0.324278 0.395297 -0.204842 -0.0477593 -0.150811 -0.463154 0.48141 0.255568 -0.556604 0.328532 -0.294585 0.00580555 0.394653 0.0576406 0.350086 0.177281
157 0.489983 0.326794 0.0300965 0.0659353 0.0901901 0.414051 0.0481937 0.324471 -0.534271 -0.182123 0.0688286 -0.146089 -0.228675 -0.106582 0.232586 -0.050214 0.230851 0.247408 -0.265849 -0.145914 -0.145881 -0.587022 0.513904 0.171028 -0.42489 0.280274 -0.401876 0.0623982 0.172718 0.120757 0.14684 0.0591464
79 0.420724 0.16899 0.108869 0.173953 0.273452 0.361826 0.103269 0.266379 -0.594502 -0.263453 -0.0622121 0.0660405 -0.160752 -0.038879 0.415058 -0.0699153 0.273334 0.352889 -0.273269 -0.145654 -0.223036 -0.377776 0.491609 0.260978 -0.590799 0.255867 -0.403272 -0.00144565 0.468691 0.135858 0.241083 0.195572
66 0.410284 0.0939173 0.102092 0.13631 0.161414 0.25149 0.084017 0.325805 -0.687185 -0.179712 0.113268 -0.19645 0.0751629 -0.097838 0.380688 0.0972981 0.291781 0.552694 -0.328973 0.0226921 -0.111066 -0.532293 0.4545 0.169015 -0.508126 0.402066 -0.528941 -0.108248 0.254357 0.0415124 0.22689 0.149238
259 0.515239 0.369339 -0.0592368 0.0702617 0.185806 0.416121 0.0556216 0.372152 -0.544638 -0.146555 0.0865319 -0.162124 -0.248534 -0.125345 0.233044 -0.0697139 0.260381 0.29676 -0.251661 -0.126547 -0.190381 -0.592459 0.433139 0.220525 -0.495165 0.300437 -0.388911 0.034169 0.280322 0.0729025 0.2585 0.158926
706 0.29532 0.365614 -0.0117651 -0.0560231 0.136058 0.454482 0.0871633 0.379206 -0.590807 -0.0079254 0.0791859 -0.206645 -0.261984 -0.0374596 0.231233 -0.0779028 0.299545 0.448402 -0.253086 -0.116223 0.002435 -0.462576 0.479332 0.307366 -0.408563 0.400248 -0.607212 0.050915 0.280944 0.152148 0.236371 0.206713
646 0.477024 0.348627 0.0354307 0.0859261 0.219458 0.469281 0.0612158 0.341503 -0.614836 -0.169688 0.0742383 -0.0845534 -0.245921 -0.0164765 0.321755 -0.0558313 0.291713 0.355922 -0.332336 -0.171597 -0.234792 -0.580613 0.465644 0.249005 -0.556856 0.284898 -0.454951 0.0234967 0.306145 0.0569182 0.215594 0.190556
397 0.624668 0.420378 -0.040088 0.0569529 0.177309 0.517713 0.0650623 0.344065 -0.568188 -0.203288 0.0557588 -0.102572 -0.371899 -0.115173 0.254276 -0.144919 0.21832 0.197098 -0.22496 -0.210025 -0.259071 -0.591603 0.482268 0.256637 -0.502482 0.255794 -0.37661 0.0723827 0.290668 0.126384 0.256231 0.152946
221 0.492942 0.241215 0.152068 0.10606 0.104727 0.335125 -0.0166748 0.403814 -0.652283 -0.198383 0.179489 -0.208283 0.00899877 -0.0201938 0.364664 0.0970903 0.334761 0.4058 -0.435425 -0.0317151 -0.125792 -0.757091 0.442272 0.0607974 -0.511803 0.334651 -0.471985 -0.0738244 0.0962464 -0.0493012 0.122305 0.0555049
174 0.492802 0.322471 0.0525591 0.0879787 0.190793 0.415092 0.0844047 0.367372 -0.539224 -0.21161 0.0169618 -0.0736209 -0.248365 -0.0578524 0.288758 -0.109752 0.300662 0.281913 -0.275644 -0.165534 -0.15705 -0.536749 0.499519 0.250903 -0.52643 0.270303 -0.409636 0.057126 0.294052 0.0950833 0.222599 0.134143
70 0.497874 0.259681 0.0146581 0.153299 0.19334 0.43143 0.0980091 0.312529 -0.598573 -0.269919 -0.0563928 -0.0292778 -0.246603 -0.0986722 0.321419 -0.0966719 0.286085 0.312483 -0.278224 -0.121426 -0.173791 -0.535965 0.569649 0.255702 -0.541264 0.27849 -0.387158 0.0992883 0.356825 0.150599 0.25126 0.0931795
241 0.419807 0.272302 -0.103795 0.139676 0.0965992 0.317123 0.0676632 0.393008 -0.593892 -0.142327 -0.0908455 -0.245046 -0.182901 -0.238186 0.210712 -0.0329162 0.239621 0.396279 -0.214913 0.0213555 -0.0517016 -0.530886 0.601743 0.243236 -0.39495 0.409092 -0.375375 0.142772 0.290805 0.160628 0.318013 0.0695682
205 0.456204 0.421904 -0.0546944 -0.0165306 0.12745 0.521673 0.0503448 0.340651 -0.610992 -0.0529365 0.118759 -0.231077 -0.294818 -0.100328 0.203011 -0.0531386 0.228957 0.311822 -0.260534 -0.152903 -0.157361 -0.551259 0.491131 0.269551 -0.409255 0.349624 -0.516744 0.0533825 0.226752 0.171583 0.230365 0.157399
122 0.475619 0.354603 -0.0163626 0.0427044 0.14235 0.443361 0.0666511 0.372568 -0.541659 -0.150577 0.022154 -0.132513 -0.275556 -0.0945186 0.232106 -0.0893935 0.242978 0.276713 -0.233784 -0.140582 -0.147223 -0.54296 0.492752 0.23552 -0.440693 0.301123 -0.402562 0.0703016 0.256365 0.126211 0.215095 0.112578
462 0.338932 0.290382 0.042674 0.0964397 0.267267 0.339427 0.0321012 0.317311 -0.55241 -0.161448 0.0808853 -0.0133114 -0.129841 0.0251548 0.385095 -0.00187342 0.339414 0.463868 -0.404629 -0.109168 -0.283046 -0.533388 0.343917 0.209535 -0.628656 0.195673 -0.417733 -0.0634636 0.389904 -0.0666593 0.233698 0.255307
660 0.350953 0.234847 0.0560872 0.135906 0.304307 0.350156 0.0807596 0.289646 -0.569789 -0.202035 0.0293231 0.055262 -0.177727 0.00816469 0.404292 -0.0332366 0.31605 0.439254 -0.33054 -0.139192 -0.262954 -0.447407 0.391171 0.240202 -0.62031 0.226391 -0.419573 -0.0380511 0.457485 -0.0125151 0.236213 0.281545
521 0.378014 0.327156 0.0331337 -0.0461637 0.147706 0.542532 0.134253 0.272206 -0.662455 -0.0611272 0.0596014 -0.131683 -0.288461 -0.0417625 0.308294 -0.0664893 0.239155 0.383722 -0.242397 -0.160055 -0.0827893 -0.421623 0.537942 0.361003 -0.451508 0.344879 -0.643639 0.082097 0.313133 0.282725 0.186064 0.151695
802 0.0217647 0.491879 -0.210005 -0.594068 0.227299 0.430392 0.311195 0.587323 -0.460698 0.515323 0.37228 -0.528487 -0.228636 -0.0221594 -0.0593009 -0.0247075 0.332123 0.68654 0.134858 -0.0947486 0.258146 -0.115506 0.0576874 0.620365 -0.204742 0.689416 -0.895477 -0.244467 0.289929 0.127016 0.386035 0.609985
669 0.240996 0.128814 0.198551 0.0535985 0.163525 0.319269 0.130311 0.376523 -0.651709 -0.0966323 0.0935551 -0.137275 0.0591868 0.0274223 0.434546 0.0344753 0.416091 0.618994 -0.381914 -0.0241865 0.0670581 -0.447085 0.513614 0.216271 -0.504549 0.412026 -0.677269 -0.0792027 0.249314 0.0830485 0.124333 0.184137
151 0.249895 0.217654 0.130292 -0.0398847 0.0751181 0.367078 0.0963149 0.45141 -0.663768 0.0211235 0.177836 -0.283757 0.0014035 -0.00689635 0.330553 0.0674807 0.392016 0.609578 -0.363679 0.00627127 0.109325 -0.542464 0.484493 0.214299 -0.410479 0.478047 -0.708521 -0.0729055 0.150707 0.0900363 0.147598 0.13322
644 0.209849 0.418606 -0.00664272 0.0777675 0.121264 0.336629 -0.00712445 0.579587 -0.425477 -0.109534 -0.0947721 -0.12138 -0.263968 -0.00850853 0.164323 -0.173586 0.512339 0.437193 -0.411356 -0.0149036 0.0995545 -0.717885 0.630328 0.177254 -0.462734 0.324415 -0.280037 0.165516 0.173536 -0.087028 0.231173 0.0279342
427 0.282492 0.256746 0.0398501 0.0133281 0.167918 0.345344 0.0828081 0.405157 -0.556611 -0.0596829 0.0882533 -0.144834 -0.126989 -0.0272006 0.275559 -0.0182301 0.342978 0.454298 -0.280116 -0.0544246 -0.0571505 -0.48528 0.407009 0.228631 -0.477187 0.363893 -0.516003 -0.0411952 0.234364 0.0219008 0.207217 0.171554
208 0.211607 0.287932 0.0479976 -0.0342085 0.161862 0.372206 0.131757 0.406318 -0.577323 -0.0176456 0.0843368 -0.171237 -0.155785 0.000519288 0.295556 -0.034417 0.37513 0.522023 -0.265727 -0.080673 0.0194571 -0.407815 0.451695 0.318076 -0.441653 0.405036 -0.596797 0.0057148 0.283098 0.118722 0.221872 0.214418
17 0.250132 0.0815739 0.142318 0.118096 0.130503 0.241737 0.100721 0.390496 -0.663327 -0.15017 0.0384195 -0.208853 0.0564174 -0.0628462 0.386122 0.100313 0.362756 0.613334 -0.385378 0.0433004 0.0135461 -0.513053 0.517702 0.194606 -0.481103 0.463123 -0.576429 -0.0678975 0.247481 0.0656404 0.180178 0.110111
626 0.200895 0.262891 0.0125191 -0.145759 0.147637 0.381295 0.128065 0.358733 -0.616498 0.0897292 0.152238 -0.262361 -0.127257 -0.0573525 0.242543 0.00880398 0.284887 0.589574 -0.195026 -0.0433054 0.053021 -0.363962 0.416966 0.354622 -0.391836 0.46777 -0.729035 -0.0611751 0.30066 0.154147 0.254265 0.27939
338 0.316069 0.10759 0.214604 0.0628269 0.0339049 0.288194 0.0904887 0.388208 -0.653148 -0.12463 0.110315 -0.244572 0.0866644 -0.00833194 0.368377 0.088413 0.342101 0.515845 -0.356318 -0.00819516 0.0967308 -0.522248 0.527778 0.153349 -0.391476 0.437648 -0.641482 -0.0650124 0.105654 0.1228 0.0593979 0.0321245
36 0.19272 0.258196 -0.0818969 -0.0382894 0.0989351 0.277474 0.123355 0.434726 -0.549261 0.0346837 0.0521414 -0.305344 -0.0830435 -0.139717 0.211354 0.00134679 0.320566 0.590996 -0.211016 0.0507102 0.080277 -0.451634 0.468307 0.285287 -0.358519 0.485371 -0.556657 0.0100188 0.270055 0.105665 0.318659 0.194704
413 0.273769 0.187872 0.07348 0.0217155 0.130525 0.394573 0.154939 0.392492 -0.657417 -0.101872 -0.00071282 -0.156772 -0.147306 -0.0671791 0.344094 -0.0478476 0.328057 0.528117 -0.278138 -0.0597587 0.0589856 -0.414062 0.622423 0.303584 -0.445942 0.46734 -0.64445 0.0693309 0.312368 0.23973 0.217706 0.143009
114 0.271506 0.251395 -0.0205307 0.041021 0.25959 0.267486 0.0970452 0.401224 -0.583695 -0.0576871 0.0880162 -0.136941 -0.0786315 -0.0361226 0.317004 -0.0169591 0.392846 0.57132 -0.313442 -0.0264135 -0.137856 -0.475602 0.336091 0.270746 -0.569628 0.374381 -0.485129 -0.0960889 0.39708 -0.0486079 0.316239 0.296492
316 0.318881 0.245497 0.0197275 0.018901 0.165229 0.363636 0.118978 0.40975 -0.63567 -0.0478238 0.0624621 -0.213641 -0.138155 -0.08296 0.287509 -0.0323949 0.338466 0.528678 -0.242403 -0.034049 -0.0292944 -0.440661 0.478214 0.301253 -0.469899 0.445441 -0.580549 -0.0208051 0.318552 0.147355 0.26442 0.194377
568 0.27881 0.265739 -0.0398895 -0.00344674 0.140396 0.216608 0.12668 0.542568 -0.547179 -0.022098 0.0723039 -0.312176 -0.0447429 -0.129711 0.20847 -0.0155352 0.39176 0.592697 -0.198065 0.0387601 0.105069 -0.501991 0.442868 0.289284 -0.410686 0.532439 -0.509344 -0.0405645 0.23477 0.0161732 0.321582 0.200043
165 0.26158 0.264442 0.0152407 -0.0598468 0.128475 0.360081 0.109891 0.390587 -0.544533 -0.00755341 0.0860463 -0.195275 -0.13697 -0.0521127 0.235114 -0.0438413 0.307888 0.493484 -0.240392 -0.0651729 0.0371991 -0.427927 0.447658 0.284277 -0.377004 0.418503 -0.583794 -0.00179992 0.242095 0.134971 0.193362 0.188
664 0.0306601 0.263414 0.11882 0.00874527 0.165251 0.353244 0.0654828 0.472524 -0.524542 -0.00385628 -0.0232466 -0.0713292 -0.131936 0.0988185 0.31323 -0.072895 0.509414 0.576654 -0.421336 -0.025581 0.119854 -0.490118 0.55882 0.25005 -0.490558 0.382514 -0.577179 0.0635515 0.26364 0.0321575 0.181304 0.148586
203 0.221503 0.256318 0.0560171 -0.0228805 0.297183 0.327864 0.161252 0.385419 -0.605746 -0.0392578 0.0854101 -0.0812924 -0.121965 0.00318838 0.362649 -0.0369505 0.379457 0.60352 -0.262888 -0.0837161 -0.102306 -0.357425 0.350866 0.357801 -0.577084 0.376377 -0.603822 -0.103604 0.451736 0.0319383 0.286879 0.365515
465 0.413791 0.120965 0.0220398 0.166521 0.141437 0.236212 0.0916544 0.442623 -0.62458 -0.217919 0.0177487 -0.199693 -0.00653186 -0.168256 0.324837 0.0185882 0.339172 0.537257 -0.275416 0.0438222 -0.0332378 -0.571204 0.515404 0.167288 -0.488505 0.447418 -0.421313 -0.0555663 0.281754 0.0287051 0.314748 0.132434
204 0.263399 0.140769 -0.08971 0.102619 0.266931 0.210342 0.189383 0.39053 -0.575893 -0.111376 -0.0998086 -0.161677 -0.118857 -0.18245 0.28012 -0.0441585 0.325299 0.595621 -0.134036 0.0405709 -0.0467093 -0.336017 0.452809 0.339386 -0.496003 0.458439 -0.430468 -0.0113273 0.48788 0.0793508 0.432912 0.27384
215 0.423518 0.339622 -0.0706925 0.0162071 0.145303 0.382042 0.0705367 0.393294 -0.54188 -0.0966134 0.0602133 -0.205814 -0.228278 -0.16136 0.201869 -0.0807641 0.23812 0.340843 -0.197765 -0.0726791 -0.0916067 -0.508811 0.474876 0.255074 -0.417871 0.391824 -0.442013 0.049896 0.259664 0.110726 0.288581 0.128078
100 0.51241 0.121173 1.44979e-05 0.112901 0.136496 0.35373 0.149664 0.296439 -0.696621 -0.177599 -0.0228218 -0.196086 -0.128431 -0.197688 0.349099 0.0054544 0.199863 0.447599 -0.204235 -0.0370191 -0.08257 -0.409465 0.584853 0.270426 -0.44111 0.443893 -0.540446 0.0455692 0.361988 0.273457 0.266827 0.112497
96 0.309044 0.236274 -0.0476841 0.044078 0.2463 0.216362 0.119423 0.496585 -0.526518 -0.0787888 0.0552255 -0.202078 -0.0803418 -0.106225 0.280546 -0.0318497 0.376444 0.569368 -0.214179 0.000967715 -0.0349438 -0.487572 0.382884 0.259535 -0.49376 0.429286 -0.439853 -0.0847928 0.356843 -0.0844703 0.338393 0.273114
192 0.393256 0.273535 -0.0559779 0.0861107 0.229967 0.363106 0.109983 0.39434 -0.588889 -0.135533 -0.0109387 -0.127409 -0.198033 -0.113679 0.320606 -0.0605446 0.326426 0.486675 -0.23933 -0.0599345 -0.134414 -0.485361 0.510066 0.321685 -0.553942 0.371968 -0.451214 0.000706977 0.422199 0.0889863 0.358914 0.255577
86 0.219248 0.115133 0.0705659 0.126595 0.224801 0.171423 0.155143 0.412273 -0.565238 -0.13644 -0.0151787 -0.109329 0.0237003 -0.0642951 0.36621 0.0125008 0.398204 0.6054 -0.250953 0.0383601 -0.0109801 -0.371857 0.425865 0.269601 -0.499091 0.411951 -0.462041 -0.0934963 0.372442 0.00114008 0.276054 0.206204
220 0.202159 0.197086 0.0165795 0.0140676 0.228873 0.255328 0.13104 0.395519 -0.544292 -0.0382388 0.0646106 -0.13644 -0.0634693 -0.0439639 0.331184 -0.00653996 0.358676 0.589795 -0.258901 -0.0109031 -0.054006 -0.403821 0.365752 0.293944 -0.488439 0.371514 -0.534171 -0.100971 0.379347 -0.0144625 0.270701 0.287825
438 0.473238 0.163881 0.103303 0.157391 0.13306 0.236646 0.0344994 0.381238 -0.634697 -0.207437 0.133209 -0.225517 0.0515513 -0.128871 0.34847 0.101767 0.316719 0.46041 -0.359512 0.0347438 -0.145504 -0.625284 0.424438 0.107939 -0.504887 0.388916 -0.447445 -0.0913306 0.177449 -0.0439384 0.210302 0.102776
336 0.34647 0.32976 -0.00566916 -0.00180106 0.142245 0.475312 0.107852 0.348319 -0.583086 -0.0753517 -0.00951616 -0.139675 -0.28371 -0.069358 0.266604 -0.103441 0.283155 0.358953 -0.26758 -0.114637 -0.0598704 -0.451314 0.57969 0.317636 -0.44452 0.36401 -0.569879 0.095989 0.297058 0.256945 0.237865 0.123487
456 0.323357 0.285544 -0.0929939 -0.00681304 0.120723 0.360542 0.110621 0.364825 -0.632729 0.000719588 0.0540446 -0.258498 -0.205649 -0.163551 0.195935 -0.00836848 0.233645 0.486752 -0.204491 -0.00348126 -0.0553973 -0.457691 0.466808 0.302989 -0.391578 0.42245 -0.511666 0.0414124 0.305516 0.169168 0.305319 0.188123
218 0.310585 0.243465 -0.100332 -0.045613 0.190549 0.20952 0.155979 0.492248 -0.536402 0.00507394 0.0823833 -0.327557 -0.0832905 -0.203335 0.181616 -0.0141039 0.316339 0.600104 -0.108353 0.0332114 0.0707403 -0.426438 0.392283 0.320439 -0.391743 0.555168 -0.517339 -0.0647098 0.326426 0.0458408 0.392376 0.268113
680 0.371342 0.267048 -0.0751898 0.143404 0.151816 0.329233 0.116931 0.428333 -0.541352 -0.166796 -0.116828 -0.150545 -0.25755 -0.172606 0.27718 -0.107597 0.291206 0.408069 -0.186749 -0.0202589 -0.0770749 -0.460156 0.574796 0.334888 -0.464155 0.42674 -0.383035 0.103967 0.398615 0.184734 0.368482 0.142281
69 0.267264 0.26899 0.0272514 0.0224263 0.168454 0.35957 0.0744944 0.403715 -0.540788 -0.0485493 0.0642726 -0.150851 -0.127668 -0.041439 0.259431 -0.0300228 0.330593 0.482479 -0.313438 -0.0411903 -0.0398334 -0.496782 0.448223 0.266307 -0.441248 0.353383 -0.5193 0.00299228 0.245731 0.0596837 0.2191 0.187168
331 0.279623 0.11368 0.193535 0.068423 0.175232 0.265429 0.0876552 0.372155 -0.629555 -0.10103 0.165927 -0.134254 0.103172 0.0323534 0.41635 0.0844766 0.383996 0.596706 -0.41169 0.00495462 -0.0765877 -0.485795 0.383453 0.199799 -0.526859 0.366373 -0.607289 -0.1417 0.277529 -0.0155245 0.170632 0.207872
244 0.231375 0.283194 0.0423058 -0.0627499 0.151242 0.329864 0.106507 0.421935 -0.537242 0.0100671 0.0885825 -0.191793 -0.122498 -0.0459302 0.254615 -0.0478083 0.356348 0.515477 -0.233963 -0.0467098 0.0323478 -0.416091 0.437908 0.284047 -0.43134 0.419732 -0.618266 -0.0232414 0.234285 0.100415 0.214059 0.206228
62 0.171287 0.292465 -0.0120062 -0.0816414 0.167197 0.33069 0.107312 0.412128 -0.526041 0.0627651 0.101868 -0.223794 -0.149777 -0.0200178 0.218817 -0.0296037 0.334515 0.52383 -0.261696 -0.030191 0.0436671 -0.395178 0.387007 0.319872 -0.386932 0.41934 -0.587697 -0.0403471 0.261942 0.0794132 0.245205 0.223777
617 0.205175 0.298011 0.0187594 -0.121861 0.155271 0.366058 0.149005 0.382589 -0.537628 0.0454913 0.111864 -0.211077 -0.163951 -0.0288656 0.226815 -0.0375413 0.343739 0.520167 -0.206988 -0.0875838 0.0405282 -0.379327 0.392924 0.321378 -0.378899 0.442797 -0.665954 -0.047764 0.249042 0.125246 0.220938 0.246732
7 0.374687 0.217077 -0.0497852 0.102123 0.151648 0.309577 0.135786 0.318424 -0.644164 -0.127651 -0.0193309 -0.210283 -0.111946 -0.192566 0.280601 -0.0031041 0.234996 0.473771 -0.198271 0.00704475 -0.106822 -0.434691 0.502781 0.291183 -0.458566 0.404861 -0.483818 0.0179188 0.385482 0.15623 0.30762 0.184015
672 0.191039 0.243746 0.0321275 -0.0425919 0.145767 0.340506 0.1355 0.369571 -0.605383 0.021408 0.0749516 -0.174866 -0.125994 -0.039222 0.290619 -0.0187389 0.333405 0.539317 -0.241856 -0.0362177 0.0439092 -0.370535 0.482025 0.320738 -0.407073 0.435364 -0.638771 -0.0100171 0.289878 0.156116 0.230556 0.215375
9 0.247264 0.096875 0.0540578 0.0132215 0.0922832 0.344449 0.201399 0.280775 -0.655164 -0.0516394 -0.0317375 -0.187504 -0.115817 -0.122886 0.299642 -0.0156526 0.239426 0.47202 -0.160292 -0.0304134 0.109689 -0.25233 0.604702 0.346069 -0.330639 0.478435 -0.680018 0.0472501 0.321692 0.356304 0.218067 0.111882
265 0.279515 0.144538 0.0919738 0.113089 0.121878 0.230525 0.0446372 0.398467 -0.535143 -0.152665 0.00982042 -0.137173 -0.010853 -0.024382 0.30868 0.0296329 0.367813 0.48141 -0.35587 -0.00147474 -0.0149597 -0.532523 0.452136 0.136385 -0.462991 0.342217 -0.412026 -0.000900399 0.192174 -0.0194497 0.171669 0.0885092
607 0.373296 0.128117 0.0953219 0.166201 0.125727 0.136728 0.0520022 0.494168 -0.638103 -0.183158 0.134946 -0.310594 0.176465 -0.0824811 0.366916 0.125706 0.410989 0.626905 -0.380309 0.110511 -0.0510587 -0.677127 0.402973 0.104019 -0.506789 0.454116 -0.452221 -0.155313 0.171317 -0.1295 0.218279 0.117536
527 0.00476136 0.219784 0.207917 0.0490138 0.0584313 0.344109 0.051229 0.5327 -0.495567 -0.0550581 -0.0803767 -0.0437996 -0.100725 0.137422 0.334836 -0.102526 0.554398 0.536517 -0.483715 -0.00490877 0.296568 -0.550829 0.730621 0.184198 -0.411901 0.357526 -0.524242 0.160719 0.130581 0.0654374 0.0495232 -0.00669805
113 0.207319 0.0766155 0.172732 0.0430807 0.136689 0.255724 0.126776 0.276924 -0.600993 -0.101691 0.0986806 -0.123635 0.0546585 0.0246263 0.401327 0.0646298 0.329107 0.500712 -0.302478 -0.0231125 0.0117246 -0.373115 0.390222 0.194589 -0.441688 0.354547 -0.597629 -0.0898285 0.224747 0.0818748 0.110335 0.141881
1 0.268962 0.167306 0.106604 0.0410743 0.149246 0.403262 0.162062 0.289869 -0.660152 -0.0898354 -0.0234453 -0.0749614 -0.156143 -0.026593 0.366938 -0.0624124 0.322395 0.496107 -0.279735 -0.092405 0.0177181 -0.322922 0.581176 0.329364 -0.449777 0.372235 -0.621496 0.0437153 0.375907 0.25558 0.190367 0.159941
132 0.282613 0.256478 -0.0490029 -0.00351615 0.161463 0.266836 0.106416 0.5067 -0.550921 -0.015661 0.0381931 -0.263593 -0.12775 -0.139199 0.197618 -0.0421049 0.371688 0.543142 -0.207236 0.0398773 0.0579246 -0.483921 0.476125 0.303321 -0.428955 0.48458 -0.481805 0.0200523 0.271164 0.0441765 0.330574 0.170693
194 0.191125 0.284666 0.0831666 0.0763864 0.0160266 0.325341 -0.0154952 0.507612 -0.535342 -0.0525891 0.011066 -0.179899 -0.0803472 0.0320556 0.258303 -0.0232769 0.44265 0.466618 -0.466137 0.047069 0.0990667 -0.706515 0.606952 0.0869341 -0.411471 0.363418 -0.435157 0.118743 0.0696367 -0.0081282 0.0904785 -0.0628911
163 0.37109 0.348522 -0.0581756 -0.0142841 0.127411 0.355141 0.0713475 0.425284 -0.522866 -0.0360898 0.058163 -0.229108 -0.2126 -0.12719 0.205211 -0.062727 0.294797 0.404609 -0.204692 -0.0504793 -0.0341907 -0.531367 0.444482 0.267933 -0.401546 0.395784 -0.472679 0.0137642 0.222983 0.0963849 0.269398 0.153498
632 0.24011 0.213838 0.0359398 -0.02105 0.156735 0.312886 0.131828 0.369341 -0.564689 -0.0172851 0.0760767 -0.18492 -0.0636916 -0.0521848 0.296491 -0.00750072 0.315351 0.552242 -0.248683 -0.00816715 0.0141854 -0.38298 0.416771 0.285651 -0.442737 0.418056 -0.5677 -0.0418102 0.311664 0.103561 0.249671 0.211711
176 0.198976 0.218488 0.0432908 -0.0406795 0.121648 0.344389 0.122023 0.365794 -0.605023 0.0180707 0.0938797 -0.225013 -0.067681 -0.0567171 0.292193 0.0226323 0.347114 0.574868 -0.264508 -0.0116931 0.0704357 -0.382887 0.443029 0.297258 -0.407151 0.456064 -0.660778 -0.0170842 0.276125 0.112983 0.207274 0.209262
300 0.241238 0.280658 -0.0637086 -0.00354346 0.206099 0.286046 0.106409 0.52485 -0.576833 -0.00456047 0.0480936 -0.232174 -0.117105 -0.107715 0.251018 -0.0304861 0.393727 0.62425 -0.238405 0.0126216 0.0438209 -0.48578 0.45667 0.331441 -0.492452 0.492208 -0.556855 -0.0179022 0.350492 0.0103481 0.342111 0.254856
129 0.27849 0.282917 0.000258361 -0.0642536 0.160057 0.366747 0.159188 0.416141 -0.563739 -0.0124963 0.10562 -0.214173 -0.17006 -0.0630648 0.255587 -0.0473301 0.322594 0.493942 -0.194852 -0.0874335 0.031643 -0.399541 0.431869 0.316071 -0.403368 0.439629 -0.606886 -0.0299188 0.289482 0.120449 0.250643 0.23673
97 0.175866 0.162331 0.0919028 0.0122719 0.136374 0.369888 0.162234 0.297096 -0.655289 -0.0378424 -0.0088618 -0.0966318 -0.0926021 -0.0463234 0.357976 -0.0339629 0.289469 0.53994 -0.276564 -0.043647 0.0275018 -0.279833 0.539175 0.313615 -0.443007 0.419095 -0.662259 0.017994 0.361226 0.25532 0.203769 0.172265
193 0.22784 0.155707 0.118218 0.0283753 0.245775 0.351805 0.131374 0.263338 -0.577766 -0.12417 0.0419263 -0.014217 -0.117027 0.00436635 0.391717 -0.024374 0.306494 0.514093 -0.271515 -0.116411 -0.0929391 -0.305267 0.413049 0.290615 -0.515715 0.29035 -0.574679 -0.0536965 0.406753 0.122136 0.209065 0.273008
112 0.310895 0.292514 0.0290012 -0.0439611 0.205699 0.408022 0.154171 0.31692 -0.55428 -0.053817 0.0750052 -0.0904966 -0.206001 -0.0308946 0.287738 -0.0637549 0.28499 0.441589 -0.202537 -0.133962 -0.0837899 -0.332589 0.439363 0.360964 -0.449021 0.353647 -0.587624 -0.0205205 0.354274 0.179324 0.234475 0.268024
116 0.302974 0.255944 0.0721936 -0.0166161 0.126597 0.456764 0.186216 0.317984 -0.598353 -0.0882131 -0.00645221 -0.0868909 -0.246652 -0.0144487 0.291976 -0.0961826 0.295459 0.370612 -0.210533 -0.163456 0.0136106 -0.326677 0.600127 0.353238 -0.406573 0.354854 -0.622776 0.0944679 0.306237 0.307461 0.176196 0.140073
40 0.206149 0.228458 -0.0135958 -0.0643116 0.143972 0.362352 0.146218 0.354931 -0.581489 0.0217565 0.0906599 -0.199428 -0.125686 -0.0831361 0.25956 -0.0224206 0.302347 0.54921 -0.223451 -0.0406293 0.0246036 -0.369145 0.421357 0.32457 -0.409069 0.431461 -0.627812 -0.0231418 0.306385 0.152716 0.237579 0.228702
488 0.166083 0.262197 -0.0286794 -0.0864165 0.104687 0.312497 0.0907972 0.388732 -0.548129 0.0758333 0.0883266 -0.22321 -0.10901 -0.0462898 0.208111 0.0202593 0.302588 0.557338 -0.259433 0.00483692 0.0372706 -0.412871 0.404994 0.296309 -0.382702 0.437488 -0.599938 -0.0152732 0.257694 0.0832366 0.227029 0.220098
663 0.180418 0.148434 0.192955 -0.0364629 0.0462687 0.38352 0.107033 0.313606 -0.679823 -0.00276453 0.088723 -0.209479 -0.00690857 0.00605975 0.34016 0.0690249 0.35949 0.567946 -0.343503 -0.047217 0.149534 -0.42013 0.604537 0.212273 -0.342551 0.421732 -0.780337 0.0247766 0.153675 0.268572 0.0564138 0.0696866
627 0.337643 0.114224 0.169362 0.121699 0.121837 0.340286 0.107963 0.305568 -0.628425 -0.200704 0.0513307 -0.0864161 -0.0410326 -0.0380672 0.407131 0.0154371 0.315125 0.453221 -0.326996 -0.0666189 -0.0365319 -0.448549 0.555715 0.178233 -0.463892 0.342264 -0.552932 0.0118342 0.224733 0.16113 0.13808 0.0662178
622 0.246514 0.317304 -0.0172583 -0.0331333 0.141727 0.384004 0.104467 0.398832 -0.584462 0.0183774 0.0851525 -0.220087 -0.173733 -0.0680829 0.254378 -0.0190481 0.32251 0.51622 -0.29294 -0.0427987 -0.00772675 -0.474961 0.471498 0.301652 -0.440791 0.39565 -0.558134 0.0191452 0.282847 0.111855 0.262269 0.218108
148 0.430243 0.368282 -0.0607418 -0.0467401 0.138298 0.449452 0.100849 0.348641 -0.581812 -0.041977 0.0849262 -0.208284 -0.303468 -0.112501 0.211246 -0.0708406 0.219984 0.333771 -0.146315 -0.161131 -0.0983959 -0.447612 0.425224 0.305285 -0.404322 0.341685 -0.538561 0.0371198 0.286052 0.191141 0.249652 0.191823
15 0.337326 0.198929 0.0369773 0.0555869 0.189724 0.250202 0.130589 0.357328 -0.553902 -0.0954557 0.0648482 -0.1472 -0.07167 -0.093445 0.293868 -0.0194503 0.305006 0.509861 -0.231558 -0.0193762 -0.0924796 -0.413615 0.38745 0.257354 -0.467663 0.368247 -0.486446 -0.0808724 0.326468 0.0268149 0.29006 0.220751
803 0.461897 -0.289177 0.387558 0.262839 0.0798121 0.222594 0.42466 0.355601 -0.448624 -0.539675 -0.511504 0.184474 -0.0854703 -0.179726 0.480024 -0.274714 0.328202 0.294396 0.0685147 -0.0937148 0.465278 0.0354821 1.02472 0.277059 -0.307452 0.535416 -0.48015 0.226498 0.407426 0.532267 0.196836 -0.103445
