669 32
800 0.780447 -0.0330998 0.244941 0.224389 0.224335 -0.503969 0.456857 0.110884 0.168694 -0.571158 -0.0370179 0.520981 -0.105785 -0.341016 0.304927 -0.299124 0.219 -0.0991332 -0.304762 0.037873 -0.050422 -0.114185 -0.122533 0.11609 0.024054 -0.10405 -0.138362 -0.325404 0.453563 -0.132542 0.527564 0.53541
566 0.346473 -0.0211427 -0.135517 -0.0607916 0.254046 -0.103713 0.085677 0.126533 -0.109764 -0.491626 -0.376809 0.106784 -0.0988172 -0.230146 0.351141 -0.251547 0.0661638 -0.211471 -0.0771677 -0.141614 0.136464 -0.0786085 -0.0753786 -0.214161 0.135271 0.141284 0.129043 -0.353612 0.269342 0.267146 0.0588128 0.405203
452 0.258146 -0.172398 -0.284504 -0.183518 0.313163 -0.0156756 0.200022 0.336525 -0.11571 -0.454951 -0.224967 0.0563356 -0.333702 -0.0842069 0.464565 -0.179468 0.0856534 -0.143651 -0.0933634 -0.285294 0.0111478 -0.216477 -0.183294 -0.164896 0.306238 0.40683 0.129257 -0.475759 0.101475 0.528638 0.315997 0.414404
32 0.187399 0.0307568 -0.305813 -0.119783 0.296182 -0.0571646 0.141295 -0.0157108 -0.372723 -0.431034 -0.546346 0.0292859 -0.208449 -0.254877 0.37266 -0.289588 0.0534238 -0.387643 0.02115 -0.0688954 -0.122828 -0.0619392 -0.125684 -0.0738435 0.140942 0.0607969 0.167906 -0.226713 0.532801 0.454835 0.132827 0.329652
230 0.124377 0.0239736 -0.373215 -0.131115 0.0228463 -0.181397 0.0396447 0.145505 0.0653929 -0.645122 -0.341576 0.0285355 -0.114468 -0.202817 0.302837 -0.39747 0.132524 -0.305346 -0.0708496 -0.281113 0.368438 0.176773 -0.0724511 -0.39376 0.239926 0.265267 0.14097 -0.507649 0.217664 0.176028 0.0083775 0.520801
303 0.43493 -0.100782 -0.274851 -0.0962746 0.210059 -0.0554294 0.0841248 0.078228 -0.0438618 -0.56322 -0.359122 -0.099763 0.0166964 -0.0407109 0.409874 -0.169962 0.103848 -0.0611916 -0.0772199 -0.202789 0.0958245 -0.0942436 -0.318 -0.266533 0.121772 0.370677 0.13717 -0.403823 0.32235 0.330559 0.258659 0.416918
529 0.26062 0.0399794 -0.331758 -0.209256 0.137585 -0.216709 -0.00559311 0.238567 0.131077 -0.533378 -0.217798 0.0970748 -0.198433 -0.192938 0.255357 -0.428951 0.0920732 -0.225367 -0.140785 -0.220468 0.400348 0.12476 -0.039094 -0.325241 0.397026 0.325353 0.131391 -0.586538 0.151342 0.246207 0.0126129 0.44339
513 0.352319 -0.0388203 -0.255113 -0.118294 0.32318 -0.00707689 0.088817 0.107914 -0.176747 -0.528814 -0.471555 -0.0679138 -0.121775 -0.0254159 0.539996 -0.175678 0.0531797 -0.132373 -0.0290211 -0.298557 -0.0371017 -0.160698 -0.328994 -0.255481 0.143417 0.306442 0.0350563 -0.38181 0.353205 0.34031 0.323652 0.335044
628 0.194989 0.159551 -0.347406 -0.107681 0.106814 -0.313944 -0.0498146 0.0309404 0.0791292 -0.572567 -0.433141 0.156546 -0.0439956 -0.328443 0.172026 -0.481078 0.147422 -0.427413 -0.139154 -0.123076 0.415017 0.16445 -0.0126736 -0.256322 0.341354 0.0390343 0.320282 -0.4436 0.326133 0.16284 -0.225972 0.374422
692 0.163974 0.0804731 -0.360803 -0.106082 0.0978915 -0.284251 0.00557593 0.123575 0.165044 -0.688855 -0.384624 0.0712528 -0.0653955 -0.172829 0.234975 -0.462891 0.165871 -0.305288 -0.13563 -0.237812 0.461058 0.248052 -0.0412226 -0.396269 0.389953 0.270141 0.125092 -0.490159 0.245492 0.0565567 0.00798672 0.456679
412 0.312892 -0.0954104 -0.281828 -0.179051 0.162434 -0.037666 0.0934707 0.167927 -0.0941365 -0.509474 -0.326205 -0.0308799 -0.163965 -0.0801625 0.450087 -0.196496 0.0823429 -0.0745954 -0.0837681 -0.31477 0.0758183 -0.0936794 -0.272854 -0.269102 0.180683 0.364615 0.0552718 -0.519449 0.198268 0.382289 0.336253 0.404621
119 0.119676 -0.0509484 -0.394498 -0.229858 0.108547 -0.104712 -0.0490609 0.111417 -0.00593146 -0.660207 -0.360027 -0.0400128 -0.0999686 -0.112211 0.300938 -0.436667 0.105182 -0.284647 -0.0290875 -0.171017 0.364516 0.153303 -0.0411252 -0.348315 0.409504 0.433698 0.218356 -0.490955 0.172754 0.34243 0.109128 0.414825
332 0.122036 -0.0241697 -0.335346 -0.0803063 0.257626 -0.223522 0.0849216 0.0290391 -0.185534 -0.591277 -0.51726 0.184738 -0.199576 -0.197735 0.376475 -0.338056 0.110632 -0.45491 -0.0554825 -0.0898823 -0.0117332 -0.08024 -0.143403 0.0158844 0.287579 -0.0280576 0.333443 -0.266938 0.399643 0.423372 0.0938401 0.184736
479 0.184222 -0.14069 -0.347902 -0.229437 0.185212 -0.0847246 0.110105 0.164862 -0.129976 -0.53793 -0.317984 -0.00805435 -0.141448 -0.127841 0.302152 -0.276372 0.130531 -0.261776 -0.0469818 -0.173267 0.109964 -0.025997 -0.111043 -0.184803 0.322214 0.390351 0.252034 -0.422043 0.231377 0.473483 0.158174 0.385511
563 0.222981 -0.0734445 -0.253368 -0.173911 0.072865 -0.13457 0.079725 0.0917883 -0.0202337 -0.622423 -0.34159 -0.0128313 -0.111642 -0.153741 0.25176 -0.400988 0.151643 -0.259063 -0.0304095 -0.193418 0.303544 0.139522 -0.0335128 -0.37479 0.177433 0.337187 0.0885762 -0.431666 0.251378 0.161464 0.0427668 0.532455
643 0.20567 0.0127557 -0.386302 -0.18019 0.0716678 -0.298026 0.000424321 0.185386 0.0828176 -0.706818 -0.238944 -0.000491394 -0.0888943 -0.0873735 0.202506 -0.512111 0.243252 -0.339341 -0.110358 -0.182037 0.331002 0.203988 -0.08063 -0.262365 0.332764 0.37548 0.15798 -0.516795 0.147473 0.094062 0.182418 0.431935
108 0.178716 -0.0755683 -0.296794 -0.156063 0.040041 -0.0788159 0.0459681 0.165906 0.0690218 -0.648437 -0.253363 -0.0370792 -0.070542 -0.126832 0.29213 -0.328526 0.125789 -0.149602 -0.057311 -0.269569 0.373788 0.132882 -0.0534538 -0.408416 0.300233 0.426631 0.149806 -0.504972 0.175531 0.253098 0.0902092 0.540023
305 0.0740422 -0.0292452 -0.368662 -0.276959 0.147847 -0.108945 0.005742 0.330065 0.0136488 -0.651113 -0.277811 -0.115822 -0.111513 -0.0989953 0.281447 -0.374637 0.180265 -0.240533 -0.053101 -0.303055 0.35504 0.125572 -0.0375581 -0.403714 0.319752 0.507447 0.0792868 -0.565346 0.045717 0.200088 0.109233 0.445388
716 0.337899 -0.018053 -0.295575 -0.125376 0.156377 -0.013164 0.0426557 0.147021 -0.107188 -0.48809 -0.322315 -0.0377046 -0.078707 -0.115718 0.452375 -0.180729 0.0554775 -0.0723548 -0.0907489 -0.218565 0.0977964 -0.0439005 -0.289446 -0.219161 0.287357 0.352529 0.169151 -0.488714 0.300544 0.512669 0.258769 0.354706
530 0.36379 0.0266631 -0.345186 -0.191095 0.045981 -0.12097 -0.0528803 0.102343 0.165444 -0.534184 -0.204439 0.00437385 -0.164028 -0.120434 0.254186 -0.360723 -0.0175058 -0.0905603 -0.107641 -0.22705 0.332046 0.144469 -0.154854 -0.359627 0.383027 0.394465 0.136725 -0.561989 0.281466 0.341523 0.0479174 0.528802
99 0.0521305 0.176632 -0.224969 -0.0948507 0.303375 -0.27297 -0.0571743 0.133003 -7.75775e-05 -0.639083 -0.434596 0.131419 -0.118054 -0.243222 0.191687 -0.546756 0.0529833 -0.450859 -0.023587 -0.00861425 0.285289 0.20494 0.104184 -0.201988 0.551092 0.139665 0.226281 -0.322395 0.40687 0.185554 -0.0357723 0.37487
74 0.347259 -0.0482361 -0.419273 -0.211345 0.172576 -0.0736115 0.0525287 0.0613781 -0.143205 -0.489996 -0.348841 -0.0541468 -0.154446 0.00329566 0.376114 -0.285895 0.123195 -0.171069 -0.0807836 -0.233212 0.0358016 -0.0697139 -0.344871 -0.194674 0.1364 0.355021 0.0922375 -0.471189 0.223195 0.315911 0.315429 0.255106
480 0.142582 0.0751327 -0.319177 -0.127002 0.309866 -0.0363227 0.0347348 0.126578 -0.315863 -0.593988 -0.555986 -0.00995783 -0.15716 -0.191047 0.540525 -0.272848 0.0211292 -0.351428 0.0193609 -0.224904 -0.00473546 -0.0467156 -0.173453 -0.177622 0.208678 0.140879 0.0744366 -0.377015 0.40184 0.396561 0.195794 0.314427
243 0.390355 -0.0173984 -0.317007 -0.139223 0.289557 -0.00851905 0.0746748 0.0776508 -0.207599 -0.533738 -0.479118 -0.115467 -0.0839116 -0.0605243 0.46645 -0.203906 0.104316 -0.167211 -0.0277853 -0.236088 -0.012396 -0.107746 -0.316702 -0.259676 0.0625827 0.344512 0.019101 -0.395001 0.34332 0.320624 0.312491 0.387982
182 0.350023 -0.159135 -0.154694 -0.119541 0.268416 0.0154261 0.157665 0.293167 -0.0595463 -0.576561 -0.296341 -0.00661224 -0.169362 -0.0975854 0.509302 -0.181353 0.0351886 -0.0444422 -0.0507273 -0.314945 0.103062 -0.128699 -0.149329 -0.34968 0.184822 0.431118 -0.0132166 -0.456621 0.18312 0.331292 0.308767 0.5447
422 0.216422 0.0722682 -0.296851 -0.160924 0.211767 -0.0456923 0.0878595 -0.0303123 -0.331739 -0.465658 -0.550177 0.00494212 -0.129665 -0.281498 0.433732 -0.265498 0.0608111 -0.320264 -0.0226478 -0.0900011 -0.0268244 -0.0278282 -0.185722 -0.145248 0.155827 0.14251 0.170721 -0.374048 0.51769 0.526461 0.163279 0.355409
8 0.152549 0.000522989 -0.343778 -0.131955 0.276866 -0.12996 -0.0122037 -0.0595465 -0.250442 -0.471873 -0.629113 0.0239084 -0.0631789 -0.224218 0.362156 -0.321364 0.104551 -0.378549 -0.0833117 -0.031385 0.118689 -0.0427511 -0.162759 -0.125607 0.267975 0.11187 0.340591 -0.374058 0.410163 0.468638 0.028227 0.199798
432 0.412946 0.0127456 -0.31033 -0.215374 0.245492 0.0666398 0.0471948 -0.00794818 -0.16501 -0.288268 -0.392151 -0.0689378 -0.248954 -0.0334547 0.446523 -0.196798 -0.0669016 -0.0459143 -0.0362925 -0.190717 -0.0712349 -0.059128 -0.341269 -0.199684 0.240364 0.305026 -0.0283809 -0.427404 0.388551 0.479907 0.329945 0.337999
329 0.173025 0.0799834 -0.355556 -0.130781 0.0416949 -0.183252 0.0163146 0.171848 0.112458 -0.649437 -0.377019 -0.0753216 0.05222 -0.203975 0.30194 -0.389619 0.226476 -0.196722 -0.11592 -0.291899 0.452105 0.224642 -0.114241 -0.455082 0.262231 0.386871 0.0748164 -0.533231 0.220758 0.085663 0.0742291 0.555976
478 0.237747 -0.0865183 -0.177626 -0.0984236 0.275661 -0.0948187 0.113735 0.421456 -0.123222 -0.535211 -0.161403 0.123037 -0.183199 -0.237353 0.428194 -0.162818 0.0558501 -0.160663 -0.115158 -0.228618 0.0976478 -0.218162 -0.108942 -0.105015 0.360987 0.269421 0.24928 -0.494378 0.151274 0.54989 0.192184 0.415858
519 0.448637 -0.168975 -0.32699 -0.189573 0.174602 -0.0194387 0.0214277 0.125785 -0.105813 -0.582165 -0.332195 -0.0661718 -0.0777437 -0.0398381 0.432055 -0.177157 0.106099 -0.107277 -0.0916673 -0.333278 0.146549 -0.164783 -0.321422 -0.256506 0.0673731 0.369672 0.195522 -0.503883 0.121352 0.410043 0.155582 0.322222
75 0.317854 -0.0924659 -0.279875 -0.16924 0.120945 -0.141882 0.148955 0.219263 -0.0895342 -0.37487 -0.144545 0.147206 -0.206183 -0.322145 0.258053 -0.21286 0.122202 -0.230304 -0.17237 -0.126119 0.126572 -0.150589 -0.102112 -0.0622196 0.291384 0.184562 0.407073 -0.520746 0.264216 0.663132 0.01581 0.429599
39 0.357745 -0.093789 -0.153038 -0.106096 0.252425 -0.0546699 0.149788 0.176304 -0.0907169 -0.466093 -0.286388 0.0671157 -0.162297 -0.160481 0.355972 -0.207665 0.0769765 -0.124281 -0.0955962 -0.176549 0.119374 -0.10424 -0.112425 -0.24613 0.162804 0.294464 0.0825037 -0.387812 0.202805 0.320218 0.174453 0.445207
658 0.135136 -0.0583025 -0.387363 -0.228815 0.060722 -0.185772 -0.0246955 0.113636 0.0630037 -0.707668 -0.263976 -0.00226672 -0.175186 -0.107359 0.150462 -0.509265 0.132092 -0.339301 0.00414167 -0.207979 0.345934 0.207688 0.0521673 -0.336297 0.308958 0.34629 0.195632 -0.441844 0.152888 0.155275 -0.0480161 0.445278
645 0.549167 0.07627 -0.294665 -0.0430561 0.206744 -0.146345 0.0446335 -0.170365 -0.14599 -0.269913 -0.544504 0.101876 -0.00156204 -0.288284 0.36761 -0.182477 0.0695328 -0.213294 -0.186996 -0.0782192 0.0778632 -0.168581 -0.36228 -0.0946428 0.0944128 -0.0323429 0.365178 -0.370066 0.559883 0.507281 -0.0699609 0.287442
104 0.483424 -0.172964 -0.343547 -0.143395 0.201019 0.0702596 0.140943 0.135023 -0.0934315 -0.562946 -0.319869 -0.149744 -0.12889 0.0316137 0.484383 -0.116479 0.0803361 0.0233216 -0.0358871 -0.391537 0.00493457 -0.18137 -0.365982 -0.337645 0.0737843 0.528945 0.0216696 -0.463255 0.258489 0.386198 0.353277 0.544158
73 0.213622 0.072151 -0.348864 -0.176437 0.172766 -0.126624 -0.0803738 0.324497 -0.00110601 -0.700947 -0.174408 -0.0675039 -0.178953 -0.0839852 0.338477 -0.396832 0.0325116 -0.27995 -0.014838 -0.292648 0.24383 -0.00402691 -0.106933 -0.283217 0.306618 0.348635 0.118146 -0.547363 0.128768 0.244957 0.113547 0.414294
81 0.432677 0.0417006 -0.144637 -0.0147687 0.337615 -0.0929938 0.0933526 0.017418 -0.176734 -0.5251 -0.626936 0.0394313 0.0108477 -0.238907 0.480827 -0.235664 0.0892065 -0.211437 -0.0728223 -0.143065 0.115011 -0.102855 -0.216497 -0.267851 0.0936286 0.123579 0.0887007 -0.299305 0.455481 0.231392 0.0944709 0.367686
301 0.166904 0.0673615 -0.401433 -0.131074 0.224976 -0.132444 0.0547681 0.265093 -0.0349713 -0.497136 -0.3028 0.0514853 -0.197721 -0.135161 0.424362 -0.285965 0.0850074 -0.200742 -0.115192 -0.277176 0.132555 -0.0203027 -0.252229 -0.165772 0.399217 0.288274 0.136915 -0.530765 0.20157 0.396406 0.283875 0.298365
18 0.397525 -0.132578 -0.395822 -0.253316 0.102974 -0.160464 -0.00338485 0.0713703 0.140242 -0.571022 -0.283192 -0.0639127 -0.0697682 -0.0959893 0.100753 -0.418065 0.189897 -0.184805 -0.0989868 -0.15859 0.473536 0.0691781 -0.0133874 -0.45079 0.269197 0.476619 0.261807 -0.462588 0.0973286 0.199852 -0.148356 0.489925
411 0.267698 -0.119983 -0.251511 -0.172898 0.205494 0.0447416 0.118725 0.08199 -0.250083 -0.428771 -0.474112 -0.0920386 -0.0908069 -0.163026 0.463937 -0.170657 0.0899389 -0.123949 -0.0699661 -0.216744 0.0470152 -0.110337 -0.26085 -0.277607 0.115306 0.361808 0.0887379 -0.448727 0.286645 0.445372 0.234098 0.398152
550 0.414466 0.0620296 -0.199964 -0.0533454 0.315264 -0.122955 0.0120726 0.0124104 -0.106001 -0.438257 -0.510019 0.0618018 -0.0601303 -0.18293 0.375152 -0.293169 0.0279622 -0.235004 -0.103079 -0.106275 0.13784 -0.0748437 -0.171445 -0.203374 0.214279 0.126467 0.153863 -0.322564 0.379355 0.257392 0.0203988 0.305421
318 0.290179 -0.130652 -0.336482 -0.182301 0.291224 -0.0938824 0.16157 0.119285 -0.105962 -0.370789 -0.35617 0.0381607 -0.205496 -0.0710348 0.342357 -0.252915 0.115144 -0.165876 -0.123096 -0.112034 0.0102478 -0.113758 -0.227428 -0.110994 0.389508 0.361523 0.208813 -0.375856 0.27479 0.506866 0.330306 0.289008
321 0.206037 0.0436074 -0.299403 -0.137407 0.237297 -0.103414 0.124805 -0.0200615 -0.338272 -0.404993 -0.56653 0.0630686 -0.154692 -0.294278 0.383861 -0.271982 0.106543 -0.372301 -0.0608298 -0.0630793 -0.0395249 -0.068998 -0.154992 -0.0723724 0.125515 0.0142345 0.226416 -0.309227 0.443802 0.470323 0.0954216 0.27083
152 0.589149 -0.205947 -0.237749 -0.0883646 0.257456 0.0477941 0.151609 0.0652624 -0.0454768 -0.516468 -0.416019 -0.100655 -0.0376827 -0.0370872 0.465606 -0.127202 0.0856001 0.021004 -0.0808127 -0.301143 0.152853 -0.201378 -0.319806 -0.437256 0.0319634 0.488637 0.088492 -0.399775 0.255693 0.316819 0.163996 0.530866
684 0.235774 0.0314119 -0.177315 -0.0416532 0.359573 -0.070522 0.126361 0.143994 -0.199465 -0.532001 -0.492648 0.0656287 -0.164985 -0.202501 0.441865 -0.254856 0.0441136 -0.271695 -0.0096872 -0.155742 -0.00796992 -0.0928843 -0.131076 -0.193514 0.213078 0.137436 0.0544878 -0.277667 0.409308 0.312183 0.191852 0.412283
26 0.426655 0.0163418 -0.183372 -0.0992183 0.308238 -0.0787808 0.0856086 0.0430609 -0.223171 -0.453234 -0.482125 0.0424266 -0.111916 -0.223836 0.39764 -0.24699 0.0384672 -0.239338 -0.0631071 -0.114589 0.0280419 -0.117125 -0.17662 -0.172246 0.12031 0.130105 0.102653 -0.353015 0.436286 0.359303 0.105328 0.391272
679 0.430707 -0.132865 -0.246506 -0.128912 0.136152 -0.0826196 0.122029 0.208431 0.0245861 -0.323644 -0.183068 0.128108 -0.162572 -0.205269 0.328933 -0.137759 0.0684765 -0.0748478 -0.199513 -0.213178 0.200985 -0.156672 -0.175069 -0.186437 0.278758 0.283129 0.303471 -0.529177 0.182883 0.5727 0.0477908 0.424585
461 0.338286 0.0392469 -0.220767 -0.0708612 0.291521 -0.145122 0.115813 -0.0452805 -0.196257 -0.398036 -0.523486 0.0761054 -0.0446969 -0.235066 0.328553 -0.272627 0.147877 -0.287706 -0.104766 -0.00671884 0.0746263 -0.0758906 -0.196637 -0.117237 0.199001 0.117171 0.201422 -0.271952 0.438009 0.34418 0.0745723 0.304995
51 0.415077 -0.0158565 -0.111714 -0.0747728 0.297289 -0.0936703 0.0844743 0.141539 -0.145408 -0.438 -0.368652 0.102977 -0.0940487 -0.229695 0.342005 -0.225304 0.0309409 -0.216902 -0.0823612 -0.127802 0.092938 -0.150713 -0.079547 -0.202553 0.14963 0.151244 0.115048 -0.331648 0.319226 0.287115 0.020967 0.400654
197 0.0519118 0.247963 -0.374272 -0.0618759 0.229294 -0.35083 -0.0441577 0.216652 0.091559 -0.619741 -0.424755 0.0965573 -0.0244736 -0.279819 0.160149 -0.523086 0.180295 -0.476468 -0.10291 -0.0541101 0.401588 0.199916 0.018831 -0.210654 0.519629 0.131492 0.31732 -0.358074 0.365856 0.127861 -0.137515 0.395622
293 0.474126 -0.0996986 -0.0890812 -0.10602 0.298016 -0.0230188 0.11151 0.287681 -0.0392349 -0.552412 -0.25233 0.0329727 -0.157702 -0.117251 0.439364 -0.229238 0.0345248 -0.0348602 -0.0713447 -0.266879 0.181084 -0.127405 -0.127329 -0.323005 0.228384 0.418675 -0.0170198 -0.474218 0.1813 0.282275 0.216554 0.550221
102 0.413873 -0.0816844 -0.249863 -0.188518 0.238963 -0.0559324 0.0153042 0.0309214 -0.169293 -0.523673 -0.469485 0.0414896 -0.141799 -0.111046 0.457464 -0.282491 0.0489585 -0.163428 -0.0765214 -0.207155 0.118451 -0.113427 -0.200633 -0.27012 0.103105 0.252031 0.0582459 -0.489015 0.176141 0.312247 0.173044 0.24714
370 0.295662 0.113362 -0.180381 -0.042246 0.266752 -0.123904 0.0770055 0.156059 -0.126841 -0.359192 -0.386944 0.121924 -0.175832 -0.300624 0.355791 -0.249077 0.00689075 -0.249364 -0.0964626 -0.108627 0.0956047 -0.0936226 -0.106385 -0.127578 0.27219 0.0945617 0.182145 -0.412535 0.412392 0.410882 0.0287661 0.427985
206 0.240175 0.0581613 -0.267553 -0.0876512 0.307657 -0.0931548 0.0768279 0.125079 -0.239371 -0.50678 -0.499445 0.0391966 -0.162792 -0.207268 0.439319 -0.267897 0.0448961 -0.302732 -0.0427419 -0.159766 0.0302964 -0.0708314 -0.169379 -0.154516 0.226084 0.162572 0.0960758 -0.328285 0.382256 0.367443 0.169639 0.345401
37 0.16055 0.105943 -0.170622 -0.00918071 0.411025 -0.131889 0.142856 0.00600279 -0.356717 -0.613857 -0.714534 0.0641316 -0.0777929 -0.246633 0.455023 -0.338089 0.109999 -0.440561 0.0361065 -0.0598956 -0.104793 -0.0203938 -0.136099 -0.104414 0.0793591 -0.0329543 -0.0369653 -0.151401 0.547516 0.144899 0.249187 0.277105
142 0.312308 -0.031131 -0.280623 -0.081745 0.187135 -0.158738 0.15542 0.0671786 -0.183852 -0.492696 -0.362165 0.134789 -0.161606 -0.315681 0.288122 -0.253182 0.108853 -0.34445 -0.0908401 -0.114619 0.0766285 -0.127485 -0.0638903 -0.124794 0.157128 0.0885233 0.347758 -0.322569 0.40738 0.458045 -0.0610236 0.443914
511 0.139201 -0.0277139 -0.278885 -0.179874 0.289193 -0.0769335 0.134582 0.172382 -0.133861 -0.440204 -0.475197 -0.00384886 -0.204596 -0.136276 0.382746 -0.332308 0.1708 -0.236506 -0.0753452 -0.179306 0.0707412 -0.0294062 -0.14429 -0.215225 0.257109 0.360575 0.0233029 -0.416078 0.223461 0.296124 0.278675 0.359843
464 0.119105 -0.0946095 -0.182687 -0.0993815 0.155806 -0.0126641 0.176549 0.127643 -0.198535 -0.515418 -0.449891 0.0440652 -0.0591 -0.266539 0.476593 -0.144776 0.0938601 -0.192742 -0.0502313 -0.228128 0.106088 -0.0719449 -0.16794 -0.221075 0.196611 0.203038 0.194398 -0.378933 0.308854 0.506997 0.17523 0.383931
90 0.314619 -0.162439 -0.270157 -0.152699 0.126993 -0.0123211 0.136835 0.148651 -0.0354904 -0.455383 -0.285304 -0.00128448 -0.126583 -0.154658 0.359101 -0.174029 0.1144 -0.118875 -0.106624 -0.246034 0.174403 -0.107898 -0.192752 -0.299885 0.189435 0.366623 0.216968 -0.491556 0.170837 0.470009 0.121662 0.442604
419 0.362983 -0.136733 -0.0729048 0.142896 0.198876 -0.0388823 0.26142 0.210434 -0.137197 -0.568534 -0.239408 0.195796 -0.0291854 -0.428237 0.396539 0.0544491 0.0270136 -0.230247 -0.0451768 -0.22179 0.0844326 -0.344695 -0.0485225 -0.127107 0.15704 0.0122162 0.544973 -0.253747 0.492935 0.662969 -0.16343 0.678882
697 0.392263 -0.0907355 -0.449223 -0.154149 -0.083746 -0.205801 0.0183195 0.0170471 0.185593 -0.59808 -0.226536 -0.00759279 0.00488603 -0.168118 0.186483 -0.343317 0.199106 -0.171823 -0.160692 -0.259781 0.502763 0.0764715 -0.155432 -0.429462 0.162013 0.367493 0.389991 -0.583357 0.201529 0.276456 -0.178622 0.530912
88 0.318465 -0.0976836 -0.157141 -0.0388564 0.306801 -0.0397757 0.164696 0.122464 -0.173677 -0.593834 -0.443523 -0.0116252 -0.0677862 -0.155116 0.431431 -0.199918 0.0759295 -0.195405 -0.026544 -0.198624 0.0622279 -0.112801 -0.149372 -0.279607 0.111385 0.287862 0.0543702 -0.257042 0.309476 0.269053 0.223905 0.453399
76 0.245089 -0.0193676 -0.360684 -0.151807 0.27949 -0.140789 0.0422038 -0.0626519 -0.330477 -0.446987 -0.560264 0.0781013 -0.153831 -0.221298 0.322957 -0.297726 0.115897 -0.418457 -0.0380743 -0.0271734 -0.0413045 -0.0895305 -0.151969 -0.0068127 0.156766 0.0143273 0.332354 -0.255539 0.427739 0.45184 0.0369468 0.157723
308 0.182087 -0.130447 -0.293997 -0.16973 0.166102 -0.0245312 0.11913 -0.0140477 -0.186334 -0.423058 -0.472468 0.0554844 -0.193113 -0.137663 0.449629 -0.223861 0.0629889 -0.161547 -0.0840777 -0.186226 0.0478806 -0.0904795 -0.262379 -0.18687 0.253155 0.269194 0.213038 -0.494676 0.332786 0.544056 0.244558 0.265099
23 0.412656 0.120897 -0.347943 -0.122344 0.236385 -0.195166 -0.0300764 -0.0598198 -0.0181915 -0.350391 -0.522102 0.0910568 -0.100298 -0.174349 0.345574 -0.351455 0.10525 -0.239482 -0.176148 -0.125478 0.182485 0.00111468 -0.275226 -0.216164 0.27529 0.149702 0.227014 -0.438686 0.365412 0.292549 0.0229993 0.24133
147 0.128518 0.0481471 -0.324101 -0.0900185 0.211218 -0.119626 0.115328 -0.00833091 -0.300706 -0.576077 -0.550133 0.0159746 -0.119144 -0.227071 0.352866 -0.328833 0.137462 -0.394618 0.0137102 -0.117952 0.00497715 0.00254434 -0.11566 -0.146262 0.13765 0.0819675 0.151168 -0.270801 0.466609 0.29756 0.147082 0.384382
343 0.29231 0.0884075 -0.37721 -0.200195 0.336084 -0.0570259 -0.0258156 -0.0258092 -0.303345 -0.419315 -0.609384 -0.0717003 -0.124059 -0.135336 0.341286 -0.335753 0.0403678 -0.366532 0.0128386 -0.107027 -0.0292107 -0.0798724 -0.18523 -0.171736 0.148511 0.146475 0.160407 -0.317303 0.453234 0.372676 0.0264936 0.215647
93 0.358118 0.0230933 -0.126798 -0.0350044 0.325636 -0.102272 0.0971464 0.145601 -0.141536 -0.538074 -0.441429 0.10457 -0.0883008 -0.236234 0.407992 -0.228449 0.0186548 -0.199146 -0.0522581 -0.158364 0.107861 -0.113884 -0.11509 -0.216973 0.178709 0.145947 0.127866 -0.327759 0.364808 0.29539 0.0542776 0.448282
342 0.293271 -0.0373126 -0.403172 -0.152381 0.159999 -0.131434 0.0999033 -0.158086 -0.257021 -0.340302 -0.489843 0.0776148 -0.227744 -0.242419 0.322118 -0.333289 0.100316 -0.35865 -0.0939908 -0.0305373 -0.0885211 -0.0685774 -0.222558 -0.00088716 0.178067 0.0404866 0.296479 -0.332883 0.512544 0.551782 0.102955 0.259494
538 0.128015 0.0989316 -0.269589 -0.0747825 0.220272 -0.0801099 0.0777843 0.0998291 -0.348257 -0.496219 -0.416869 0.0247975 -0.15836 -0.269622 0.389572 -0.220971 0.0573968 -0.400326 0.0115931 -0.114193 -0.0728341 -0.0752616 -0.129592 -0.0414211 0.172411 0.0396769 0.222053 -0.302511 0.47301 0.473636 0.138234 0.329089
347 0.410474 0.0708729 -0.302366 -0.125612 0.190027 -0.134474 0.0687119 0.0453934 -0.101138 -0.323455 -0.438441 0.0656662 -0.0454861 -0.297164 0.363115 -0.250577 0.124247 -0.208947 -0.1852 -0.118777 0.196619 -0.0801722 -0.23184 -0.19732 0.190864 0.161647 0.247985 -0.476472 0.38889 0.464006 -0.0298062 0.3848
539 0.351315 -0.0910402 -0.296105 -0.163338 0.213228 -0.0589635 0.107072 0.0754031 -0.100141 -0.519592 -0.456185 -0.0125721 -0.0852236 -0.112875 0.441602 -0.244347 0.146452 -0.125007 -0.102228 -0.238337 0.138078 -0.0509168 -0.283017 -0.307474 0.170408 0.380143 0.0777939 -0.492363 0.256392 0.333971 0.280548 0.394233
556 0.185514 -0.0558274 -0.334187 -0.0893516 0.179249 -0.112404 0.0111621 0.24972 0.0246283 -0.662212 -0.266943 -0.0858404 -0.0398281 -0.0618697 0.258334 -0.293328 0.116408 -0.171597 -0.0414905 -0.212101 0.268153 0.0866855 -0.133203 -0.323848 0.361697 0.471952 0.170251 -0.387489 0.226729 0.261495 0.197095 0.470692
582 0.321958 -0.115149 -0.322431 -0.143857 0.264262 -0.0816718 0.147908 0.202856 -0.139392 -0.4892 -0.273515 0.0150299 -0.215497 -0.114799 0.411442 -0.191742 0.0810821 -0.178025 -0.0676204 -0.22484 -0.0196626 -0.136687 -0.206621 -0.140151 0.238706 0.320477 0.16923 -0.409801 0.284569 0.445941 0.266388 0.413211
381 0.443026 -0.143915 -0.28653 -0.222449 0.214723 -0.0217034 0.15707 0.186515 -0.0520142 -0.385109 -0.286052 0.0327053 -0.252025 -0.0996588 0.404227 -0.194102 0.0829032 -0.0599248 -0.135712 -0.284672 0.0964635 -0.156079 -0.263307 -0.245979 0.22012 0.412942 0.0931633 -0.559609 0.161089 0.47315 0.237922 0.43248
475 0.161097 0.100082 -0.329998 -0.0667662 0.279952 -0.184756 0.0962373 0.0234091 -0.147162 -0.379901 -0.490469 0.125622 -0.167106 -0.233665 0.32678 -0.337845 0.0774971 -0.388907 -0.0745039 -0.0519608 0.0321668 -0.026291 -0.144142 -0.064953 0.328981 0.0732896 0.275015 -0.281288 0.47474 0.399089 0.0774267 0.277511
319 0.103244 0.00440481 -0.277791 -0.207563 0.246923 -0.0267153 0.125873 -0.0168707 -0.4593 -0.45265 -0.568408 0.0224267 -0.193759 -0.251305 0.445223 -0.295254 0.0770872 -0.398377 0.00487915 -0.0777212 -0.0932037 -0.0670274 -0.164004 -0.0999765 0.0981165 0.0914322 0.165276 -0.352683 0.419734 0.510261 0.181229 0.256117
168 0.419294 -0.0825094 -0.372221 -0.21909 0.214473 -0.140059 -0.0766271 0.126697 0.113844 -0.645647 -0.377989 -0.112247 -0.0074434 0.0131333 0.287576 -0.424521 0.172819 -0.140905 -0.0826831 -0.259193 0.413535 0.0406872 -0.139941 -0.448522 0.231127 0.496483 0.103146 -0.487929 0.0693418 0.0721672 0.0148451 0.352291
57 0.15437 0.137672 -0.313435 -0.133719 0.306593 -0.151831 0.137812 0.0229207 -0.306133 -0.30005 -0.534624 0.0812917 -0.172716 -0.323323 0.313036 -0.288719 0.127311 -0.429491 -0.0716807 0.00695502 -0.0503914 -0.0571095 -0.130619 0.0200417 0.27517 0.00946478 0.265625 -0.276853 0.578985 0.468302 0.0551466 0.296285
177 0.494468 -0.028357 -0.310579 -0.157486 0.177554 -0.0934998 0.105855 -0.163568 -0.212467 -0.320533 -0.472626 0.0721082 -0.150102 -0.234113 0.33683 -0.259855 0.0754669 -0.236216 -0.11409 -0.0422282 -0.0282995 -0.083987 -0.257795 -0.0786865 0.105237 0.078222 0.281084 -0.384419 0.506348 0.529868 0.0763871 0.337102
429 0.361375 -0.0563757 -0.235895 -0.0799262 0.389662 -0.0148007 0.10961 0.226759 -0.14451 -0.436786 -0.403841 -0.00488216 -0.141769 -0.0713027 0.518778 -0.122427 0.0290635 -0.0908174 -0.0794501 -0.207978 -0.0558359 -0.232886 -0.325296 -0.133971 0.273282 0.321846 0.1257 -0.387638 0.335468 0.491852 0.323628 0.336689
497 0.282257 0.120753 -0.22828 -0.206065 0.277369 0.00611683 -0.062281 0.145949 -0.176705 -0.343713 -0.451799 -0.0595795 -0.107493 -0.135413 0.46698 -0.295529 -0.0150918 -0.091192 -0.0979882 -0.138313 0.136241 -0.0199665 -0.256938 -0.243022 0.311842 0.35653 -0.0343437 -0.559947 0.271432 0.415401 0.283866 0.268351
425 0.409532 0.0386345 -0.185084 -0.0391198 0.307816 -0.154496 0.078527 0.0604195 -0.101864 -0.385247 -0.417533 0.155675 -0.164621 -0.261111 0.366858 -0.271684 0.0382688 -0.236022 -0.128331 -0.0970967 0.0940906 -0.111328 -0.144754 -0.120494 0.273226 0.115341 0.236868 -0.37508 0.432303 0.425617 0.034763 0.370552
531 0.392593 0.00939153 -0.253543 -0.0580544 0.185588 -0.182178 -0.0609963 0.205373 0.219931 -0.714886 -0.346876 -0.0155217 0.00852169 -0.119813 0.316239 -0.406357 0.0645033 -0.128059 -0.115215 -0.300405 0.513496 0.098496 -0.107282 -0.516257 0.382239 0.43878 0.131216 -0.497127 0.202217 0.101418 -0.0332946 0.585929
507 0.13949 0.115545 -0.332194 -0.126916 0.199686 -0.142397 -0.0126576 0.0627001 -0.220395 -0.498938 -0.459893 0.098783 -0.142873 -0.267934 0.378115 -0.361996 0.0535948 -0.427413 -0.0576626 -0.143071 0.0850549 -0.0118917 -0.11142 -0.116161 0.243957 -0.00309042 0.251548 -0.406155 0.31438 0.387769 -0.0113737 0.214627
145 0.20129 -0.0934025 -0.33656 -0.17034 0.238771 -0.0408689 0.0943639 0.166421 -0.109882 -0.462293 -0.40457 0.0322499 -0.182092 -0.0501547 0.483952 -0.18674 0.109636 -0.158802 -0.0867755 -0.343325 0.0580269 -0.175178 -0.28502 -0.19203 0.191989 0.26701 0.157744 -0.484097 0.172523 0.416196 0.213008 0.287254
144 0.34659 -0.147014 -0.303465 -0.139328 0.181139 0.0188947 0.135918 0.0757509 -0.166724 -0.429469 -0.386776 -0.0327285 -0.145243 -0.121706 0.433926 -0.151868 0.0871029 -0.148233 -0.0520586 -0.253857 0.0166717 -0.216515 -0.241848 -0.223515 0.0917611 0.283762 0.175411 -0.425741 0.307137 0.499623 0.119729 0.425582
141 0.345745 -0.0187725 -0.261117 -0.0588868 0.256194 -0.105929 0.138881 0.0429093 -0.198384 -0.465754 -0.451878 0.123425 -0.155698 -0.317478 0.383565 -0.229317 0.0640484 -0.313162 -0.0890909 -0.146134 0.0468506 -0.14157 -0.124177 -0.157118 0.174007 0.0563572 0.269636 -0.322314 0.436133 0.452396 -0.0155629 0.430935
572 0.4185 -0.139143 -0.233335 -0.0179293 0.115169 -0.04077 0.135526 0.121134 0.0362352 -0.655874 -0.335173 -0.00389699 0.00173151 -0.163854 0.437734 -0.173632 0.0726078 -0.0993235 -0.0895991 -0.348807 0.255949 -0.0768765 -0.197518 -0.433853 0.103279 0.350603 0.157486 -0.416007 0.265852 0.275056 0.0772169 0.602078
196 0.381485 -0.00764251 -0.213478 -0.0905175 0.250026 -0.0884773 0.104634 0.141615 -0.141489 -0.503172 -0.350768 0.0566964 -0.138047 -0.233954 0.342846 -0.254481 0.0558843 -0.236501 -0.070137 -0.15303 0.0899582 -0.120431 -0.100594 -0.189173 0.202053 0.171913 0.163846 -0.369711 0.337945 0.363937 0.0437066 0.455785
143 0.0944463 0.00985996 -0.420441 -0.112574 0.0937859 -0.290985 -0.00780957 -0.00842951 0.0666938 -0.745231 -0.463967 0.0485263 -0.0629188 -0.20265 0.0958941 -0.572867 0.190126 -0.487237 -0.0361821 -0.104832 0.427496 0.291392 0.0921761 -0.398108 0.331776 0.205032 0.284849 -0.267637 0.327707 0.0442799 -0.186864 0.477554
474 0.326196 0.0754193 -0.281353 -0.106584 0.211821 -0.190382 0.0576733 0.17278 -0.0725726 -0.40939 -0.267778 0.16401 -0.177304 -0.275015 0.320631 -0.261771 0.0524467 -0.282807 -0.14633 -0.10475 0.113921 -0.0783491 -0.129264 -0.0463878 0.34088 0.109461 0.311251 -0.46933 0.337313 0.467547 0.0529046 0.335501
11 0.345941 -0.015842 -0.110285 -0.0932347 0.277162 -0.0763746 0.116097 0.110859 -0.138449 -0.416365 -0.312426 0.0597837 -0.140996 -0.215368 0.296061 -0.227233 0.0447482 -0.198 -0.0441663 -0.0705726 0.0651606 -0.0958738 -0.0544538 -0.168139 0.141774 0.15598 0.101308 -0.310123 0.298065 0.287871 0.0779683 0.410848
133 -0.0545722 0.0330627 -0.286346 -0.119549 0.124255 -0.210139 0.0171221 0.170569 -0.071756 -0.763692 -0.387371 0.0925658 -0.165774 -0.277596 0.198466 -0.488781 0.119822 -0.512711 0.0599616 -0.160468 0.292974 0.172193 0.192555 -0.274627 0.288377 0.117652 0.227749 -0.327419 0.26119 0.163419 -0.117713 0.459358
606 0.215554 0.0144413 -0.293617 -0.0709103 0.317964 -0.135694 0.115952 0.0645222 -0.211818 -0.53684 -0.559137 0.116147 -0.151389 -0.251115 0.406729 -0.299622 0.110595 -0.384808 -0.0575124 -0.170217 0.0433331 -0.0821488 -0.118827 -0.148446 0.188692 0.0431177 0.195222 -0.281015 0.406233 0.313029 0.0394688 0.325193
304 0.318156 -0.0389065 -0.311037 -0.197073 0.286503 0.0101567 0.0885189 0.151148 -0.244954 -0.418305 -0.394462 -0.0272523 -0.235681 -0.128858 0.480568 -0.216494 0.0291856 -0.158172 -0.0665479 -0.239495 -0.0209844 -0.14674 -0.284546 -0.201007 0.232501 0.320549 0.104779 -0.455758 0.264219 0.509834 0.289516 0.345919
352 0.235302 -0.0785287 -0.332134 -0.233805 0.222255 -0.00668237 0.0584596 0.128083 -0.184862 -0.433597 -0.35112 -0.073712 -0.169241 -0.06263 0.373286 -0.209907 0.119983 -0.196733 -0.0218607 -0.252212 0.0251193 -0.129483 -0.185602 -0.193471 0.145158 0.345984 0.144901 -0.463464 0.201659 0.443668 0.16551 0.307865
117 0.414634 -0.0370276 -0.129661 -0.101152 0.279526 -0.0276858 0.0732696 0.0763397 -0.196184 -0.346484 -0.451532 0.0222513 -0.0344711 -0.22527 0.464945 -0.113795 0.0571342 -0.0903328 -0.138662 -0.104929 0.0323302 -0.225317 -0.286209 -0.103834 0.218173 0.220837 0.276938 -0.457038 0.411131 0.622416 0.170702 0.338727
687 0.321655 0.0150283 -0.192387 -0.0817965 0.2921 -0.107576 0.0751875 0.111668 -0.116089 -0.372364 -0.403994 0.136923 -0.143655 -0.273162 0.3872 -0.229342 0.0299814 -0.215478 -0.127443 -0.100969 0.100879 -0.128001 -0.133177 -0.150798 0.303242 0.142981 0.248372 -0.410371 0.361208 0.486273 0.049183 0.348004
708 0.327669 -0.0486181 -0.0423514 -0.0475066 0.384245 0.0560577 0.0758049 0.176558 -0.233667 -0.649092 -0.500403 -0.0311864 -0.105265 -0.14061 0.565814 -0.194828 -0.0128142 -0.140668 0.0496491 -0.233984 0.057839 -0.130944 -0.144374 -0.348975 0.0890898 0.291943 -0.141843 -0.301854 0.328781 0.202876 0.243006 0.466627
335 0.340542 -0.0169769 -0.282102 -0.0388612 0.202473 -0.0655865 0.0713402 -0.144457 -0.172766 -0.476913 -0.608525 -0.00187105 0.032405 -0.21992 0.408364 -0.205773 0.0900472 -0.24773 -0.0766938 -0.141823 0.0949969 -0.0560903 -0.251396 -0.277995 0.0479745 0.102897 0.212412 -0.224922 0.498738 0.310909 0.0156549 0.367791
302 0.268639 0.0534175 -0.301521 -0.207947 0.288838 -0.13561 0.0251375 -0.0573999 -0.352698 -0.492822 -0.544676 -0.00448312 -0.139099 -0.151062 0.397232 -0.395827 0.129876 -0.371504 -0.0349825 -0.0471705 -0.0548423 -0.0234393 -0.221173 -0.0985435 0.057059 0.103495 0.0234657 -0.319235 0.361142 0.237794 0.223757 0.155445
704 0.32876 0.0621243 -0.282109 -0.132474 0.225255 -0.153118 0.0570848 0.199948 -0.101773 -0.375217 -0.263859 0.134264 -0.235571 -0.271397 0.357687 -0.287224 0.000873672 -0.24795 -0.138617 -0.12004 0.0799966 -0.0764855 -0.162744 -0.0917377 0.332449 0.148413 0.238664 -0.494541 0.335291 0.526672 0.108529 0.387195
535 0.390606 -0.0592143 -0.22099 -0.0894211 0.233377 -0.0913405 0.132338 0.0721747 -0.197449 -0.463636 -0.403932 0.0916385 -0.123944 -0.231901 0.333438 -0.222143 0.0922785 -0.255315 -0.0754657 -0.112493 0.0400355 -0.153652 -0.124025 -0.164213 0.131786 0.116254 0.22194 -0.332881 0.36556 0.404069 0.0379871 0.393551
35 0.402064 -0.0978486 -0.249164 -0.134784 0.159052 -0.101836 0.106113 0.222674 -0.0714771 -0.40277 -0.224618 0.0673622 -0.104201 -0.209201 0.320992 -0.171049 0.104517 -0.128231 -0.172764 -0.206446 0.169188 -0.167019 -0.177654 -0.163542 0.212751 0.273545 0.291864 -0.545098 0.218409 0.499285 0.048736 0.419766
693 0.282418 -0.086702 -0.363872 -0.0634324 0.142445 -0.262957 0.0941823 0.145502 0.14674 -0.726137 -0.256377 0.107275 -0.127164 -0.113518 0.212631 -0.394901 0.142906 -0.28495 -0.0869863 -0.188109 0.24038 0.071955 -0.0371283 -0.264955 0.323809 0.301175 0.296565 -0.346313 0.241414 0.193889 0.0244929 0.526037
16 0.282689 0.0163921 -0.250409 -0.0316972 0.314419 -0.0772568 0.183861 -0.114442 -0.310057 -0.551555 -0.658357 0.0126264 -0.0579946 -0.227891 0.395246 -0.231888 0.119037 -0.383833 0.0839448 -0.119351 -0.110994 -0.0375764 -0.146053 -0.183545 -0.0276766 0.0205294 0.11752 -0.0832336 0.628813 0.226884 0.0945025 0.434241
698 0.435374 0.115643 -0.225475 -0.00415217 0.356063 -0.093838 0.0439724 0.0400735 -0.172315 -0.433839 -0.511658 0.0762985 -0.0949665 -0.239147 0.439617 -0.233472 0.00835408 -0.249572 -0.0752919 -0.107658 0.0268991 -0.13536 -0.209455 -0.130578 0.230406 0.0775093 0.187168 -0.30936 0.51431 0.412183 0.0546204 0.364008
20 0.258462 0.0784213 -0.307532 -0.147895 0.263719 -0.111673 0.0581688 0.0600305 -0.209018 -0.435809 -0.449229 0.0792309 -0.160201 -0.23215 0.397992 -0.299138 0.0846883 -0.354133 -0.077603 -0.136508 0.048367 -0.0832048 -0.154528 -0.110767 0.19342 0.078424 0.189409 -0.413008 0.363322 0.403602 0.0849463 0.290645
297 0.355314 -0.000420213 -0.147703 -0.0302265 0.37168 -0.0246173 0.0891263 0.101833 -0.152828 -0.535616 -0.521604 0.0330703 -0.0696617 -0.170955 0.455284 -0.241153 -0.0146982 -0.188364 -0.0255568 -0.150706 0.0727819 -0.105141 -0.132151 -0.287647 0.158186 0.188031 0.0229761 -0.260308 0.40813 0.238726 0.0985153 0.433924
690 0.45466 -0.0945229 -0.258903 -0.114876 0.229858 -0.0407703 0.128942 0.263344 -0.0450142 -0.384383 -0.266388 0.0649942 -0.182576 -0.161733 0.462616 -0.111368 0.0555848 -0.0655188 -0.155799 -0.333016 0.0879967 -0.253802 -0.24649 -0.200713 0.214357 0.326127 0.213623 -0.559041 0.226449 0.537379 0.14002 0.449472
502 0.200311 -0.0232217 -0.240411 -0.0980926 0.332256 -0.0986967 0.144987 0.1362 -0.299841 -0.59233 -0.49511 0.0908518 -0.145988 -0.254458 0.40897 -0.292882 0.118103 -0.373432 -0.0305947 -0.121743 -0.00179506 -0.121263 -0.0807487 -0.151395 0.167341 0.130719 0.184494 -0.290544 0.375369 0.358463 0.139131 0.354333
222 0.373682 -0.0508614 -0.30638 -0.158352 0.152222 -0.020371 0.100123 0.0844799 -0.151951 -0.487062 -0.354907 0.0139575 -0.213398 -0.152334 0.48161 -0.238577 0.0566124 -0.169817 -0.0736446 -0.299883 0.0546324 -0.139115 -0.247892 -0.255745 0.0606919 0.252034 0.0486862 -0.52528 0.268014 0.383815 0.208895 0.385345
19 0.44165 -0.00255895 -0.199682 -0.0674698 0.320088 -0.080506 0.102362 -0.0219479 -0.190678 -0.447043 -0.49769 0.0314397 -0.0744208 -0.172179 0.383622 -0.24123 0.0446361 -0.216323 -0.0661519 -0.0817647 0.0267183 -0.118295 -0.182701 -0.224977 0.13596 0.15898 0.129352 -0.2658 0.456538 0.319869 0.0979486 0.383492
83 0.467879 -0.0717869 -0.177152 -0.0884896 0.32058 -0.0326739 0.0403107 0.163964 0.0302346 -0.567912 -0.417514 -0.055409 -0.0464216 -0.0527363 0.409738 -0.257091 0.0554079 -0.023333 -0.0718938 -0.255795 0.271396 -0.0604841 -0.174587 -0.471541 0.186655 0.463455 -0.0258608 -0.38501 0.197539 0.126753 0.149891 0.512636
395 0.343065 0.0421081 -0.171758 -0.088391 0.281844 -0.0965175 0.0857796 0.15059 -0.171586 -0.493495 -0.391686 0.0630348 -0.140981 -0.213929 0.38233 -0.266402 0.0485898 -0.254729 -0.0549875 -0.129169 0.0751513 -0.0773507 -0.112248 -0.203156 0.154698 0.151484 0.0686818 -0.367555 0.283258 0.263811 0.102278 0.365339
718 0.221144 0.0861085 -0.292771 -0.0523048 0.297665 -0.196357 0.0412607 0.0287096 -0.230215 -0.437936 -0.556918 0.112224 -0.0184347 -0.283759 0.335238 -0.276451 0.155866 -0.385546 -0.115948 0.0257154 0.0389987 -0.0400385 -0.186504 -0.0170055 0.302839 0.0172665 0.354711 -0.314182 0.485112 0.416868 0.0811419 0.195303
715 0.20792 -0.081979 -0.183425 -0.244622 0.252639 0.0242656 0.114538 0.311851 -0.225862 -0.458836 -0.275517 -0.00992027 -0.230553 -0.146514 0.485834 -0.216765 0.0703335 -0.102168 -0.0772958 -0.239649 0.0331265 -0.126009 -0.173548 -0.196874 0.253162 0.431623 -0.00258703 -0.568784 0.11896 0.472121 0.409236 0.384411
334 0.151755 -0.00296696 -0.230389 -0.167664 0.227311 0.0487682 0.144363 0.188215 -0.219367 -0.418481 -0.34299 -0.0250429 -0.238349 -0.10689 0.508169 -0.20626 0.024537 -0.124908 -0.0436291 -0.256446 -0.0691527 -0.0587935 -0.241593 -0.205214 0.248657 0.357943 -0.051299 -0.448495 0.286661 0.415653 0.482103 0.388505
400 0.305195 -0.00653293 -0.225792 -0.0996294 0.192395 -0.0955399 0.0731542 0.035522 -0.173477 -0.481629 -0.419293 0.0709946 -0.089398 -0.25223 0.354522 -0.261994 0.10326 -0.283526 -0.0597124 -0.123135 0.10544 -0.0653509 -0.122362 -0.165851 0.124433 0.10538 0.224795 -0.36591 0.335172 0.360685 0.0268001 0.35571
406 0.365585 -0.246809 -0.242798 -0.236581 0.0735307 0.041413 0.166684 -0.0354968 -0.210031 -0.548503 -0.400003 -0.0412433 -0.169308 -0.0384987 0.516141 -0.196067 0.147809 -0.0781002 -0.0768811 -0.358744 -0.0100153 -0.0721832 -0.331398 -0.307788 -0.091983 0.350455 -0.0434072 -0.556502 0.210054 0.362405 0.415053 0.365017
358 0.367329 -0.0183099 -0.280518 -0.148753 0.203907 -0.122848 0.120068 0.0515184 -0.216995 -0.453246 -0.349369 0.085152 -0.179235 -0.289299 0.296021 -0.289278 0.11158 -0.327898 -0.0951938 -0.0945991 0.0369944 -0.104389 -0.122873 -0.109139 0.113232 0.100396 0.217708 -0.402947 0.349494 0.400208 0.0436648 0.369237
713 0.288384 -0.107092 -0.422685 -0.210587 0.215028 -0.0540487 0.058904 0.135569 -0.129651 -0.508677 -0.365832 -0.048206 -0.133422 -0.00485719 0.447991 -0.212882 0.122359 -0.132043 -0.114066 -0.239027 0.0489623 -0.116103 -0.363726 -0.160245 0.284698 0.441344 0.204857 -0.520841 0.193442 0.489132 0.35636 0.248772
528 0.23239 0.145793 -0.121479 -0.0118886 0.403044 -0.0368877 0.0152565 0.0289558 -0.307233 -0.5113 -0.682578 0.0577714 -0.0913503 -0.24369 0.555304 -0.264991 -0.0414146 -0.294556 -0.00596688 -0.11935 0.00798167 -0.0694712 -0.182682 -0.201008 0.166315 0.0210937 0.0150568 -0.243753 0.491866 0.281141 0.129284 0.298253
149 0.353055 -0.0346567 -0.309803 -0.153885 0.154557 -0.158566 0.0984912 0.125552 -0.123471 -0.439051 -0.275355 0.0995417 -0.176638 -0.303072 0.285793 -0.274402 0.122901 -0.292157 -0.129004 -0.104897 0.129639 -0.0829425 -0.110317 -0.102557 0.224596 0.161273 0.34093 -0.451348 0.282309 0.508136 0.000140441 0.409279
146 0.286664 -0.129934 -0.264149 -0.267747 0.245383 -0.0386159 0.0969742 0.0690913 -0.217558 -0.433341 -0.441155 0.0246354 -0.195265 -0.132802 0.347954 -0.302434 0.0996277 -0.221088 -0.071419 -0.0985961 0.0642576 -0.0918837 -0.152449 -0.205642 0.232014 0.332777 0.145042 -0.41813 0.19563 0.433466 0.248426 0.282311
249 0.345131 0.0457182 -0.168912 -0.049876 0.302125 -0.0749402 0.108616 0.117904 -0.192429 -0.429678 -0.431662 0.0719718 -0.103413 -0.239063 0.408257 -0.226831 0.0492252 -0.221351 -0.0679606 -0.138963 0.0194135 -0.134865 -0.184635 -0.170628 0.166032 0.136315 0.13209 -0.349341 0.390751 0.370001 0.104541 0.395479
110 0.29243 -0.153891 -0.291914 -0.158153 0.104452 0.00462104 0.138375 0.166701 -0.160391 -0.468312 -0.251677 -0.00876094 -0.144643 -0.167624 0.366725 -0.134356 0.0755917 -0.133028 -0.066779 -0.265419 0.0938516 -0.147704 -0.17931 -0.228485 0.112922 0.336467 0.199399 -0.441856 0.252069 0.491545 0.150383 0.473512
509 0.374218 0.0453246 -0.131776 -0.0116788 0.381703 -0.130137 0.0919288 0.0840727 -0.136229 -0.460405 -0.496008 0.0957011 -0.10825 -0.253375 0.383603 -0.273445 0.029191 -0.263078 -0.0707289 -0.0663144 0.0746532 -0.0825968 -0.114061 -0.181872 0.241797 0.132832 0.115943 -0.258368 0.450333 0.286252 0.049186 0.431223
610 0.443198 0.0140577 -0.224579 -0.110785 0.264093 -0.0834015 0.0660412 0.00913975 -0.136675 -0.438096 -0.482025 0.00849588 -0.0293703 -0.203486 0.343203 -0.268139 0.111602 -0.225136 -0.0972053 -0.107393 0.155382 -0.0687952 -0.170722 -0.243432 0.132337 0.228619 0.136673 -0.342974 0.368311 0.266424 0.0410129 0.388884
581 0.123635 0.0176352 -0.288847 -0.0526795 0.287928 -0.202965 0.0784466 -0.010722 -0.122137 -0.527348 -0.591002 0.2442 -0.171901 -0.276158 0.33985 -0.369078 0.06526 -0.445831 -0.0877322 -0.130962 0.163835 -0.00142219 -0.0189276 -0.162588 0.318729 -0.0545534 0.302091 -0.242743 0.367405 0.310952 -0.116421 0.254074
640 0.321219 0.317205 -0.376876 -0.151924 0.318809 -0.272183 -0.201864 0.127697 0.0299957 -0.582547 -0.510264 -0.0198738 -0.0532189 -0.20457 0.221448 -0.61025 0.0637326 -0.39571 -0.0905704 -0.0738266 0.414125 0.184079 -0.0433183 -0.359505 0.372519 0.246978 0.0597064 -0.437375 0.330498 -0.0192846 -0.144449 0.326735
312 0.421524 0.0168548 -0.191762 -0.162135 0.313028 -0.00430032 0.0302521 0.167758 -0.105389 -0.422257 -0.421438 -0.0373965 -0.157833 -0.103796 0.486572 -0.263219 0.000151031 -0.0395299 -0.100767 -0.193232 0.144782 -0.0478724 -0.268782 -0.320377 0.277042 0.406242 -0.0552337 -0.514943 0.257567 0.336228 0.315026 0.406448
135 0.214594 -0.162766 -0.177428 -0.192493 0.273846 0.0716063 0.17502 0.404513 -0.174247 -0.566858 -0.193342 -0.00479113 -0.295511 -0.0840337 0.487674 -0.186268 -0.00832209 -0.0816551 0.0142457 -0.307418 0.00444845 -0.135356 -0.102553 -0.245626 0.289692 0.467746 -0.0445924 -0.477422 0.138556 0.479272 0.417385 0.537068
161 0.517382 -0.202884 -0.211233 -0.127845 0.241486 -0.109283 0.137602 0.0947153 -0.0519455 -0.554842 -0.374043 0.0218544 -0.0272382 -0.0978068 0.408565 -0.228604 0.184028 -0.0838685 -0.163144 -0.197883 0.186102 -0.156653 -0.269921 -0.282314 0.115155 0.378094 0.147704 -0.457945 0.119979 0.295959 0.223112 0.360762
184 0.200553 -0.0877319 -0.276039 -0.190188 0.188964 -0.0202754 0.116908 0.11725 -0.195748 -0.499454 -0.41271 0.00611901 -0.121232 -0.172706 0.425339 -0.21335 0.158983 -0.231319 -0.0930914 -0.245956 0.109598 -0.0801049 -0.203084 -0.256491 0.116013 0.297899 0.131064 -0.436504 0.166932 0.419311 0.208521 0.336019
372 0.206721 0.0588133 -0.375608 -0.115768 0.302769 -0.144909 0.0429607 -0.0149134 -0.238566 -0.428337 -0.534934 0.128077 -0.259908 -0.203016 0.377347 -0.350725 0.0277968 -0.41807 -0.028354 -0.0406716 -0.110261 -0.0411209 -0.172897 -0.00659095 0.28678 0.0129516 0.227722 -0.280878 0.489612 0.450838 0.144195 0.217633
417 0.466038 0.032956 -0.25117 -0.0442481 0.320312 -0.054034 0.0739905 -0.0286651 -0.195225 -0.454561 -0.563182 0.0275011 -0.0547844 -0.199843 0.455893 -0.206459 0.0196028 -0.182257 -0.0651255 -0.156906 0.0170353 -0.10955 -0.263232 -0.228456 0.120475 0.124625 0.106304 -0.31513 0.49831 0.329685 0.090015 0.37028
486 0.321753 0.0895604 -0.326066 -0.124946 0.23556 -0.149463 0.0141738 -0.0670975 -0.262915 -0.401847 -0.486499 0.0721959 -0.12149 -0.214115 0.400725 -0.327862 0.0709613 -0.30435 -0.110492 -0.0529022 -0.0476702 -0.0596826 -0.296225 -0.0216184 0.175252 0.0550306 0.17255 -0.406514 0.420632 0.417482 0.223021 0.164979
392 0.448441 -0.132762 -0.29539 -0.123309 0.126931 -0.0534362 0.0728341 0.0838455 -0.0626908 -0.446994 -0.211719 0.0241619 -0.157272 -0.132351 0.303643 -0.166657 0.0299328 -0.140295 -0.0908294 -0.199378 0.103759 -0.140899 -0.160766 -0.219967 0.174311 0.279234 0.299471 -0.443065 0.273751 0.507695 0.0395258 0.440346
592 0.309148 0.172331 -0.226991 -0.020904 0.287219 -0.148417 0.0380217 0.0140745 -0.147727 -0.368071 -0.523552 0.101162 -0.0448206 -0.278736 0.408001 -0.260832 0.0578798 -0.272608 -0.130969 -0.0778172 0.0931889 -0.0292444 -0.230245 -0.13217 0.259359 0.082932 0.188717 -0.339625 0.505593 0.347318 0.0921825 0.308389
382 0.187293 0.197114 -0.182516 -0.024066 0.389403 -0.0685574 0.00597658 0.0949285 -0.268042 -0.553551 -0.616532 0.00864666 -0.0952364 -0.128141 0.583361 -0.287101 0.00209849 -0.257366 0.026994 -0.19663 -0.0734242 0.0106077 -0.256327 -0.204674 0.182495 0.124159 -0.16363 -0.276739 0.460231 0.153663 0.367188 0.246948
357 0.246465 -0.0836758 -0.445498 -0.240815 0.206446 -0.0547472 0.12325 -0.126013 -0.178262 -0.334946 -0.562145 -0.0106467 -0.18686 -0.0903966 0.355303 -0.301689 0.138163 -0.229458 -0.0884517 -0.133706 -0.0188272 0.00305204 -0.295368 -0.21428 0.181143 0.281281 0.150056 -0.36921 0.343011 0.388234 0.254811 0.237056
223 0.263538 0.0262472 -0.148715 -0.029044 0.285652 -0.0763399 0.117575 0.182226 -0.206512 -0.532008 -0.413603 0.107429 -0.109239 -0.300811 0.423324 -0.221161 0.0695947 -0.273718 -0.0384528 -0.156512 0.0887055 -0.162097 -0.0895216 -0.173348 0.148505 0.0867834 0.193695 -0.355688 0.35826 0.354171 0.00676201 0.437793
534 0.256388 -0.1071 -0.393065 -0.275312 0.199668 -0.0139661 0.138333 0.129269 -0.187478 -0.389026 -0.386021 -0.0977437 -0.157271 -0.0888622 0.389939 -0.228124 0.157448 -0.163728 -0.111773 -0.22236 0.0551705 -0.110265 -0.28713 -0.216099 0.163963 0.398216 0.139811 -0.475983 0.192192 0.47775 0.25634 0.316948
68 0.392507 -0.12053 -0.284624 -0.180291 0.122519 -0.0178079 0.0803481 0.0474901 -0.0971893 -0.35124 -0.334515 -0.0184068 -0.115544 -0.14975 0.330849 -0.200932 0.109485 -0.0882666 -0.111747 -0.219737 0.140853 -0.0777788 -0.209632 -0.267405 0.10923 0.323698 0.147752 -0.474712 0.1865 0.405763 0.105302 0.351766
618 0.328375 0.00393617 -0.155301 -0.0769677 0.233333 -0.0849972 0.0798862 0.0415663 -0.19698 -0.393246 -0.36992 0.0601612 -0.093268 -0.200212 0.333655 -0.237336 0.0645032 -0.209924 -0.0700915 -0.0706708 0.040609 -0.118891 -0.118748 -0.138316 0.0838327 0.121917 0.122221 -0.281483 0.32337 0.288372 0.0755239 0.328991
666 0.333045 0.0756357 -0.385352 -0.124135 0.0638976 -0.265427 -0.0361905 0.0108353 0.154239 -0.49637 -0.358283 0.101319 -0.110417 -0.296618 0.100112 -0.484343 0.107945 -0.318894 -0.124049 -0.102202 0.471362 0.204452 0.0553511 -0.346831 0.389621 0.215402 0.362569 -0.446256 0.324523 0.271361 -0.292851 0.514986
621 0.334967 0.0162792 -0.174935 -0.0963066 0.268245 -0.119651 0.068577 0.0545422 -0.132749 -0.416336 -0.400798 0.0676754 -0.119337 -0.199502 0.297497 -0.283329 0.0796151 -0.241081 -0.0672471 -0.0698668 0.0818253 -0.0679633 -0.102903 -0.164426 0.164669 0.162159 0.113375 -0.317687 0.316698 0.278502 0.0587282 0.346566
364 0.51087 0.117459 -0.26905 -0.0299348 0.335672 -0.187799 0.0187647 -0.0894457 -0.131958 -0.384064 -0.616121 0.0985316 -0.0395761 -0.258144 0.377149 -0.312324 0.0677879 -0.290418 -0.113247 -0.0576817 0.0998309 -0.0727153 -0.216047 -0.185633 0.150794 0.0504851 0.186854 -0.279601 0.51673 0.260137 -0.0344423 0.322914
348 0.344161 0.0754552 -0.195275 -0.0964407 0.341889 -0.0721514 0.0792191 0.120521 -0.225588 -0.440641 -0.441136 0.0698235 -0.152535 -0.252267 0.382524 -0.267913 0.0128731 -0.255604 -0.0363055 -0.0994344 -0.0156634 -0.100505 -0.123184 -0.141226 0.176204 0.124152 0.0794686 -0.303398 0.400667 0.334754 0.110363 0.364747
211 0.280685 0.0759736 -0.313468 -0.205184 0.188385 -0.0302611 -0.0987552 -0.111234 -0.314592 -0.396183 -0.545118 0.020903 -0.206897 -0.149125 0.500874 -0.305749 -0.0339025 -0.242209 -0.0504342 -0.130116 -0.057611 -0.0496843 -0.314171 -0.0988854 0.184634 0.0788224 0.0716039 -0.517967 0.345613 0.476714 0.222135 0.0580042
631 0.341002 0.00460609 -0.145041 -0.0762804 0.240197 -0.102166 0.109413 0.0719726 -0.141157 -0.375177 -0.338981 0.0814632 -0.127476 -0.218174 0.263159 -0.248216 0.0599739 -0.210604 -0.0846047 -0.0552676 0.0820509 -0.0907306 -0.0751054 -0.118837 0.1639 0.115796 0.17534 -0.272348 0.300562 0.304159 0.0221135 0.348363
526 0.140664 -0.0391376 -0.267309 -0.0712404 0.261333 -0.151916 0.152574 0.160364 -0.206939 -0.480681 -0.359216 0.197415 -0.211167 -0.336788 0.307564 -0.231472 0.0816015 -0.401448 -0.0623376 -0.0357268 0.0450728 -0.124591 -0.011168 0.000422435 0.405951 0.0393374 0.450982 -0.293077 0.439656 0.632623 -0.00721685 0.410175
3 0.216913 0.0043991 -0.207784 -0.105589 0.337608 -0.0801361 0.0934951 0.0596884 -0.246193 -0.493855 -0.483217 0.0820947 -0.1986 -0.188342 0.398177 -0.285079 0.0330807 -0.30838 -0.00535203 -0.0902925 -0.00276581 -0.0603963 -0.101993 -0.155015 0.168165 0.101908 0.0669891 -0.253396 0.368575 0.304763 0.139664 0.306231
89 0.323355 -0.11039 -0.362123 -0.213587 0.151926 -0.0593772 0.0662469 0.123086 -0.137499 -0.555593 -0.354916 -0.0181632 -0.18182 -0.0995987 0.457954 -0.228529 0.102677 -0.150703 -0.0975078 -0.315908 0.0753818 -0.105776 -0.29028 -0.240378 0.133612 0.356164 0.100673 -0.538864 0.152669 0.4047 0.277493 0.3011
638 0.408831 0.0173039 -0.155583 -0.0800475 0.27908 -0.0754814 0.0855023 0.126019 -0.138717 -0.458238 -0.371129 0.0405817 -0.103793 -0.192891 0.359283 -0.240953 0.0392207 -0.209966 -0.0509615 -0.128984 0.0696606 -0.117844 -0.133477 -0.216967 0.14427 0.196884 0.0915466 -0.359455 0.332779 0.302354 0.086133 0.409756
379 0.489065 -0.0982029 -0.118264 -0.105268 0.263147 -0.0135576 0.0968455 0.300747 -0.0130153 -0.512259 -0.21462 0.00972188 -0.142102 -0.136601 0.424167 -0.184373 0.0354463 -0.005659 -0.102084 -0.257667 0.188391 -0.147604 -0.139627 -0.323242 0.190543 0.417274 0.0211139 -0.501679 0.154439 0.313937 0.169062 0.536794
127 0.439548 0.0706065 -0.274867 -0.108472 0.266878 -0.0969668 0.0362475 -0.0589557 -0.180597 -0.455664 -0.570632 0.00663222 -0.0317351 -0.235783 0.381727 -0.328909 0.104646 -0.285832 -0.0781727 -0.119366 0.14381 -0.0508839 -0.193506 -0.276816 0.098779 0.163243 0.134035 -0.334407 0.453045 0.260489 -0.0117096 0.384602
173 0.361629 -0.026315 -0.283998 -0.128382 0.222284 -0.0827274 0.0565325 -0.0310138 -0.218599 -0.480092 -0.521407 0.0426569 -0.129526 -0.205997 0.399802 -0.257798 0.0819525 -0.291735 -0.0658608 -0.141989 0.0418223 -0.0865477 -0.175921 -0.191544 0.111718 0.123579 0.212638 -0.348565 0.428015 0.394861 0.0228123 0.357618
424 0.428122 0.0322049 -0.149481 -0.0279668 0.264452 -0.136605 0.0961047 -0.057231 -0.173808 -0.478539 -0.54945 0.113589 -0.0280141 -0.273186 0.404785 -0.247438 0.0889825 -0.247091 -0.103141 -0.0762867 0.0896463 -0.11615 -0.168904 -0.197857 0.0667722 0.0276208 0.182697 -0.294496 0.479903 0.273602 0.0357241 0.385211
580 0.309318 -0.0263312 -0.397121 -0.206022 0.200913 -0.0498807 0.112897 -0.0834552 -0.271638 -0.354893 -0.502073 0.0130277 -0.157895 -0.208929 0.363151 -0.253762 0.0915805 -0.284425 -0.0754719 -0.111209 -0.0571591 -0.0524791 -0.265435 -0.0916285 0.158478 0.172275 0.24503 -0.355175 0.435206 0.566863 0.169256 0.267058
671 0.137254 0.141362 -0.24457 -0.0774076 0.299391 -0.186235 -0.0172543 0.175815 0.0306259 -0.761033 -0.548032 0.0319693 -0.0834884 -0.192093 0.313262 -0.515571 0.0684854 -0.35278 -0.00792728 -0.176121 0.405411 0.2278 0.0414047 -0.461137 0.405889 0.289214 0.0247358 -0.316966 0.33054 -0.0129049 -0.0331631 0.53987
801 1.19015 -0.133777 -0.357692 -0.193747 0.57098 -0.0827904 -0.1428 -0.129246 -0.15865 -0.410217 -0.293711 -0.0199483 -0.303467 0.20863 0.146226 -0.412344 -0.156915 -0.228314 0.0588532 0.0082818 -0.136757 -0.412266 -0.129846 -0.127689 -0.103958 0.153319 0.0422358 -0.0885368 0.190821 -0.0190666 -0.219982 0.108567
373 0.374278 0.0081814 -0.379531 -0.0710798 0.115469 -0.281566 0.0165211 0.0548538 0.105861 -0.629791 -0.328393 0.0811482 0.0203141 -0.276161 0.108475 -0.390525 0.142279 -0.347506 -0.125145 -0.122268 0.451299 0.0690495 -0.00711122 -0.331943 0.312818 0.232939 0.481075 -0.360393 0.374719 0.278028 -0.323374 0.569607
138 0.382754 0.0202453 -0.239124 -0.136364 0.232915 -0.0983364 0.0580344 -0.0238905 -0.218991 -0.379262 -0.473978 0.00126136 -0.0895559 -0.168118 0.330718 -0.303862 0.120353 -0.237045 -0.0840016 -0.0701719 0.0611421 -0.0509255 -0.1652 -0.189169 0.0615094 0.177998 0.0704058 -0.323369 0.324889 0.234104 0.117171 0.296626
201 0.388703 -0.0735252 -0.329905 -0.113348 0.209101 -0.0860333 0.131263 -0.123303 -0.176707 -0.46828 -0.528514 0.0399844 -0.159839 -0.17534 0.308349 -0.280922 0.131706 -0.312573 -0.0632608 -0.113665 0.0443817 -0.0520824 -0.180872 -0.200908 0.0824187 0.136652 0.202203 -0.29121 0.410967 0.338849 0.0407109 0.363973
285 0.306317 -0.0794697 -0.471491 -0.313212 0.178423 -0.113999 0.05497 -0.100291 -0.231519 -0.330208 -0.448348 0.0187033 -0.259032 -0.0753054 0.332515 -0.360323 0.142524 -0.299542 -0.124249 -0.10947 -0.0301406 -0.0290384 -0.294384 -0.0631687 0.180206 0.195231 0.189954 -0.431369 0.210266 0.448923 0.222719 0.0936953
506 0.288864 -0.149084 -0.643825 -0.484006 0.0279493 -0.202251 -0.076002 -0.0224929 0.0599559 -0.588603 -0.283125 -0.0997534 -0.244572 0.0534745 0.0669685 -0.636008 0.220326 -0.311288 -0.0760727 -0.188793 0.36937 0.214104 -0.0797729 -0.37244 0.260378 0.543362 0.185304 -0.572444 -0.0314171 0.16453 0.0347999 0.240607
616 0.341582 -0.0848642 -0.306011 -0.265201 0.173278 -0.0404363 0.0894173 0.130549 -0.20645 -0.392899 -0.327634 -0.0490084 -0.169906 -0.124057 0.430641 -0.247938 0.159268 -0.145284 -0.137445 -0.214834 0.0482839 -0.147817 -0.294087 -0.190267 0.128153 0.374133 0.0789108 -0.601113 0.115621 0.421712 0.27987 0.266855
120 0.353016 -0.0113258 -0.321713 -0.195152 0.198527 -0.000807552 0.0848306 0.0395973 -0.202964 -0.355494 -0.382474 -0.0423686 -0.198213 -0.120952 0.422274 -0.2119 0.05496 -0.154091 -0.043075 -0.212884 -0.0158754 -0.0998167 -0.256281 -0.197752 0.0869473 0.289608 0.0578629 -0.481478 0.348257 0.446044 0.246271 0.353768
689 0.147245 -0.00980879 -0.250639 -0.158498 0.226377 -0.0626149 0.194186 0.128618 -0.210891 -0.351935 -0.473202 0.121912 -0.212575 -0.280928 0.422856 -0.199373 0.129671 -0.251897 -0.0979726 -0.171249 0.0062239 -0.0727892 -0.158652 -0.11983 0.217414 0.161221 0.134082 -0.466959 0.362098 0.49163 0.22305 0.345123
512 0.203062 -0.0247096 -0.489593 -0.156251 0.160497 -0.209327 -0.0331762 0.15227 0.0751 -0.716374 -0.393222 0.0242343 -0.090324 -0.0913796 0.272917 -0.452452 0.177801 -0.370702 -0.0513253 -0.238713 0.353909 0.0749239 -0.0867673 -0.319751 0.332738 0.327627 0.273883 -0.46905 0.161296 0.201644 -0.00184091 0.342769
236 0.362448 0.0161256 -0.209908 -0.124737 0.231997 -0.112943 0.0587437 -0.0218047 -0.174825 -0.421882 -0.456222 0.028657 -0.0608938 -0.194435 0.292135 -0.304355 0.116808 -0.267847 -0.0834228 -0.073263 0.0919568 -0.042719 -0.131025 -0.175424 0.0767354 0.122757 0.112628 -0.320781 0.289606 0.215066 0.0400852 0.28913
200 0.385362 -0.0315073 -0.209089 -0.184582 0.182377 -0.090717 0.0821007 -0.0111078 -0.157053 -0.36539 -0.366012 -0.00572989 -0.108354 -0.151917 0.286883 -0.299735 0.107499 -0.201222 -0.067763 -0.0719045 0.07148 -0.0267047 -0.156041 -0.186123 0.0568964 0.21125 0.0559311 -0.334293 0.255811 0.206705 0.126713 0.27096
295 0.407815 -0.0258006 -0.22386 0.019418 0.23468 -0.097665 0.109031 -0.0713936 -0.157605 -0.589156 -0.565153 0.0669034 -0.0324545 -0.286752 0.386126 -0.241355 0.0738712 -0.307891 -0.0505129 -0.16089 0.084928 -0.0840324 -0.136828 -0.245258 0.0730631 0.0456034 0.239985 -0.234713 0.51726 0.302823 -0.0506402 0.485803
454 0.486218 -0.173101 -0.215342 -0.235014 0.197112 -0.00900211 0.111864 0.0686526 -0.0654377 -0.496825 -0.338586 -0.0949775 -0.0899 -0.0853081 0.339234 -0.270779 0.134272 -0.0516716 -0.105545 -0.210137 0.205688 -0.0568815 -0.171284 -0.398505 0.0325798 0.453686 -0.0173306 -0.455606 0.121107 0.191605 0.188844 0.454018
612 0.330519 0.00104437 -0.258867 -0.136806 0.250526 -0.0943012 0.0607423 -0.0346189 -0.159524 -0.419563 -0.466268 0.002253 -0.0831094 -0.138195 0.344361 -0.29944 0.0785407 -0.229372 -0.0520761 -0.0955346 0.0429512 -0.0230111 -0.198853 -0.206713 0.113129 0.192268 0.0873416 -0.307066 0.323638 0.228496 0.150343 0.265015
508 0.392677 -0.116869 -0.31548 -0.189485 0.161624 0.00469468 0.141904 0.0765561 -0.127782 -0.417137 -0.381266 -0.0368947 -0.141581 -0.109406 0.43497 -0.193405 0.128431 -0.0884994 -0.10413 -0.317035 0.0454207 -0.141818 -0.314781 -0.28198 0.0492005 0.348582 0.0508021 -0.468642 0.192707 0.366123 0.243526 0.356572
180 0.395318 0.0530819 -0.213876 -0.12967 0.267384 -0.119357 0.070844 -0.0770841 -0.166305 -0.403369 -0.545662 0.0288299 -0.0719965 -0.198215 0.337699 -0.308965 0.100569 -0.240582 -0.100139 -0.0501062 0.0592054 -0.0239172 -0.176106 -0.213065 0.101214 0.173876 0.0875335 -0.310126 0.37578 0.209242 0.0828501 0.298012
282 0.512146 -0.0341476 -0.28592 0.011506 0.262156 -0.0421395 0.146472 -0.173886 -0.26731 -0.474422 -0.620709 0.0289389 -0.0223548 -0.225229 0.455974 -0.132273 0.0642415 -0.244154 -0.0469989 -0.134535 -0.0643207 -0.20377 -0.306144 -0.187443 -0.0413981 0.0337885 0.243904 -0.209994 0.607795 0.411474 0.0481446 0.4149
279 0.44077 0.0528627 -0.291667 -0.152212 0.233377 -0.150475 0.0199243 -0.138192 -0.209886 -0.468288 -0.601428 -0.00957511 -0.048191 -0.192251 0.315565 -0.410287 0.150373 -0.319752 -0.0674507 -0.0355094 0.116009 0.00509627 -0.169392 -0.252345 0.0492903 0.166388 0.099618 -0.317112 0.399756 0.189265 0.0491356 0.31281
270 0.408383 0.0652002 -0.188016 -0.0643365 0.262443 -0.104851 0.110531 0.0363895 -0.176842 -0.372819 -0.445682 0.0687585 -0.0600396 -0.262431 0.325021 -0.260358 0.0864942 -0.246145 -0.0989393 -0.0573291 0.0918027 -0.104011 -0.135333 -0.186612 0.152896 0.119569 0.195973 -0.283838 0.423797 0.331315 0.0151341 0.392524
677 0.333873 -0.00104203 -0.227133 -0.119426 0.198014 -0.109063 0.0669108 -0.037955 -0.138221 -0.400781 -0.440397 0.019888 -0.0739845 -0.161404 0.274067 -0.289292 0.0948317 -0.251049 -0.0626691 -0.0502885 0.0826154 -0.00483565 -0.132111 -0.173859 0.110471 0.171035 0.124624 -0.290331 0.308758 0.222158 0.0861611 0.298296
170 0.333969 -0.114371 -0.3028 -0.0621218 0.110663 -0.0493733 0.0384367 0.145268 -0.0671559 -0.727884 -0.316897 0.00219129 -0.0936651 -0.0872254 0.460183 -0.23433 0.0622731 -0.187542 -0.0357448 -0.359292 0.14373 -0.0734145 -0.170482 -0.31245 0.116941 0.287842 0.142363 -0.44633 0.189961 0.289029 0.166608 0.411751
340 0.51251 0.0551017 -0.202877 -0.076663 0.29897 -0.107751 0.101237 -0.0844032 -0.211301 -0.399421 -0.53468 0.0429357 -0.0879777 -0.224013 0.352594 -0.292234 0.0562399 -0.243921 -0.0783955 -0.070505 0.0331737 -0.0881721 -0.187907 -0.22095 0.0516879 0.104926 0.0737607 -0.30314 0.468817 0.267089 0.0616052 0.395456
240 0.311791 0.0249494 -0.272666 -0.150522 0.199038 -0.102719 0.0601787 -0.0601676 -0.18599 -0.370076 -0.424936 0.00812248 -0.12873 -0.169963 0.314694 -0.300975 0.0949423 -0.241785 -0.0632832 -0.0611628 0.0527286 -0.0160804 -0.195961 -0.177761 0.120951 0.156632 0.0809212 -0.326348 0.349148 0.291163 0.129137 0.281317
238 0.409725 -0.0372981 -0.258651 -0.0243127 0.245892 -0.0921389 0.151415 -0.0898912 -0.169145 -0.429765 -0.591672 0.0915287 -0.0478551 -0.300546 0.382117 -0.205981 0.110173 -0.26518 -0.10776 -0.136466 0.0625618 -0.130994 -0.20883 -0.21886 0.108568 0.0839815 0.297076 -0.291515 0.550798 0.418364 -0.0363208 0.455936
46 0.319248 0.00557745 -0.280524 -0.13487 0.207379 -0.0907263 0.0409717 -0.0217577 -0.164319 -0.374725 -0.42973 -0.0234519 -0.103107 -0.142183 0.28502 -0.257412 0.0850996 -0.233063 -0.0708741 -0.0929468 0.0648869 -0.0210025 -0.168626 -0.197418 0.125472 0.175023 0.114578 -0.306442 0.321039 0.259383 0.0915609 0.284372
166 0.202295 0.0939112 -0.340569 -0.172669 0.246666 -0.133678 0.0444953 -0.0392104 -0.240212 -0.289636 -0.571918 0.075337 -0.112568 -0.274371 0.35108 -0.308474 0.110097 -0.349299 -0.133516 -0.0331023 0.071396 -0.0506259 -0.195163 -0.0841023 0.255006 0.0665846 0.259384 -0.379936 0.424488 0.467607 0.0434748 0.189096
518 0.43673 -0.0941084 -0.307642 -0.195597 0.299321 0.0261891 0.0545919 0.0792954 -0.216483 -0.480939 -0.402004 -0.106206 -0.128093 -0.0406014 0.400856 -0.242213 0.076042 -0.165203 -0.00852121 -0.1975 0.0240648 -0.160977 -0.237305 -0.256073 0.096366 0.362359 0.0948226 -0.362604 0.245362 0.367637 0.179749 0.348519
167 0.325941 0.0644338 -0.268954 -0.106658 0.1359 -0.197888 -0.000493583 0.297313 0.265969 -0.596171 -0.191425 0.01177 -0.0782428 -0.16493 0.176095 -0.402713 0.0578246 -0.136424 -0.115278 -0.239885 0.50856 0.184675 0.0276027 -0.497259 0.448872 0.45075 0.0769845 -0.483956 0.200395 0.108213 -0.0523196 0.669818
64 0.320351 -0.0190097 -0.453757 -0.275908 0.101028 -0.222004 0.0878203 -0.106938 -0.197291 -0.322317 -0.407179 0.103892 -0.223602 -0.244519 0.190688 -0.387336 0.209406 -0.38713 -0.151097 -0.00752452 0.0533682 -0.00169412 -0.188365 -0.00484683 0.178719 0.103532 0.368005 -0.476972 0.342556 0.483345 0.0612306 0.183466
118 0.495994 0.0182659 -0.229791 -0.157686 0.27137 -0.123408 0.0700787 -0.165523 -0.218238 -0.415123 -0.631646 -0.0142288 -0.00889685 -0.199336 0.304038 -0.3534 0.15214 -0.271319 -0.0731449 0.000141827 0.0788488 -0.0215658 -0.185857 -0.264755 0.0467599 0.195631 0.0834598 -0.27213 0.471154 0.213269 0.0907206 0.335224
548 0.33269 0.0470367 -0.271253 -0.0991966 0.244671 -0.159807 0.0556706 -0.10653 -0.218929 -0.509519 -0.574781 0.0660599 -0.110253 -0.218436 0.333428 -0.371814 0.075386 -0.379253 -0.0344175 -0.0727989 0.0438384 -0.0116989 -0.143176 -0.190842 0.0994136 0.057348 0.150767 -0.2787 0.451306 0.255254 0.0471308 0.312922
436 0.36642 -0.119245 -0.284709 -0.199364 0.272663 -0.00450359 0.0885302 0.205989 -0.0914944 -0.486604 -0.32729 -0.0985602 -0.141631 -0.0125351 0.411208 -0.251719 0.112268 -0.0792116 -0.0664319 -0.248429 0.117069 -0.0975844 -0.233459 -0.306421 0.223217 0.523218 -0.0382473 -0.468725 0.132404 0.284621 0.350031 0.386516
53 0.399338 0.0168642 -0.275901 -0.153867 0.231023 -0.108428 0.0269484 -0.0588902 -0.182134 -0.434531 -0.508085 0.00317325 -0.0735176 -0.173434 0.331362 -0.321201 0.0932954 -0.249509 -0.0772773 -0.0905463 0.104759 -0.000512737 -0.192268 -0.257525 0.119949 0.171397 0.0884589 -0.353795 0.353641 0.234552 0.0628634 0.298079
376 0.149001 -0.0648438 -0.465605 -0.18964 0.25593 -0.0621707 0.0908573 0.0447023 -0.145056 -0.451927 -0.55249 -0.0354965 -0.195391 -0.0326525 0.419475 -0.277398 0.11767 -0.274994 -0.0596241 -0.291419 0.0335963 -0.0555949 -0.259342 -0.285383 0.181447 0.342712 0.0727263 -0.366654 0.288261 0.29306 0.21473 0.282581
296 0.0657056 0.138125 -0.336357 -0.137553 0.269036 -0.0979065 0.0406984 0.219328 -0.228944 -0.466983 -0.449391 0.0646279 -0.205832 -0.265902 0.419517 -0.306473 0.0473153 -0.387932 -0.0571889 -0.185089 0.0601035 -0.0432407 -0.127077 -0.110335 0.29312 0.0904839 0.155557 -0.441162 0.333241 0.40397 0.0756892 0.290588
574 0.271822 0.0117738 -0.386255 -0.199965 0.225081 -0.229429 -0.0526499 0.25074 0.138517 -0.62472 -0.229078 -0.0470236 -0.140252 -0.0327688 0.120214 -0.499456 0.120461 -0.290855 -0.0301525 -0.1271 0.363611 0.144256 0.00908276 -0.299721 0.446013 0.469556 0.117324 -0.424658 0.133923 0.0835101 0.018811 0.453939
421 0.343613 -0.00233339 -0.500746 -0.231662 0.119656 -0.179488 0.109687 -0.0939332 -0.1558 -0.284329 -0.463497 0.031565 -0.129271 -0.236608 0.240518 -0.341472 0.224806 -0.319799 -0.181815 -0.0866529 0.0779923 -0.000556002 -0.250711 -0.0893646 0.175321 0.162628 0.321612 -0.446166 0.361841 0.452048 0.0552551 0.232429
641 0.277971 -0.0639072 -0.361016 -0.248662 0.241482 -0.0377852 0.154744 0.255115 -0.175629 -0.334563 -0.300239 -0.00396069 -0.258139 -0.146195 0.42129 -0.195994 0.114732 -0.184398 -0.120573 -0.25388 -0.0168883 -0.207742 -0.282481 -0.115482 0.228927 0.322304 0.163189 -0.549794 0.20081 0.515771 0.251622 0.31337
153 0.25037 -0.000718723 -0.320591 -0.201915 0.240126 -0.192586 0.0602986 -0.101232 -0.215661 -0.431089 -0.605156 0.0716532 -0.175694 -0.198445 0.297513 -0.407046 0.137717 -0.380028 -0.0988375 -0.0323305 0.0894832 0.00935299 -0.137594 -0.151486 0.194297 0.0994671 0.190717 -0.360473 0.357834 0.29304 0.081994 0.203384
536 0.154337 0.324998 -0.0653124 0.0201413 0.610263 -0.0868962 0.00993381 0.154807 -0.290759 -0.691389 -0.838249 0.0340516 -0.162487 -0.207977 0.646998 -0.432983 -0.0158305 -0.428093 0.0835903 -0.241702 -0.0430217 -0.0164327 -0.0899837 -0.332117 0.06201 0.00581449 -0.389644 -0.201749 0.503189 -0.19341 0.187012 0.326697
237 0.402614 -0.0137795 -0.313054 -0.177132 0.208067 -0.0710549 0.0639427 -0.128931 -0.206291 -0.442051 -0.569245 -0.0570679 -0.066122 -0.147722 0.33731 -0.315319 0.130913 -0.225603 -0.0703099 -0.0934131 0.0861339 0.0141398 -0.229776 -0.282099 0.0634989 0.234012 0.0496989 -0.350634 0.36808 0.240211 0.157089 0.287082
354 0.385912 0.102532 -0.125529 0.0575544 0.319809 -0.0542646 0.0393775 -0.0604823 -0.119025 -0.537197 -0.677353 0.0528998 0.0456932 -0.264746 0.491711 -0.213147 0.0103985 -0.208429 -0.0514756 -0.175303 0.177248 -0.0661803 -0.198123 -0.369131 0.126229 0.108803 0.105677 -0.252692 0.565864 0.22257 -0.0322287 0.489781
224 0.131313 0.0960186 -0.37119 -0.144484 0.150373 -0.270431 -0.0165344 0.14949 0.034874 -0.637008 -0.383592 0.129869 -0.1156 -0.25044 0.224266 -0.483055 0.115545 -0.416629 -0.106212 -0.14983 0.359279 0.136319 0.0122326 -0.233042 0.408118 0.163072 0.264993 -0.453331 0.226049 0.224274 -0.115691 0.358878
547 0.361101 -0.0172569 -0.199145 -0.136775 0.172235 -0.0834411 0.0561786 -0.0447181 -0.160895 -0.328317 -0.355251 0.0167406 -0.090302 -0.149378 0.229353 -0.255271 0.0897487 -0.21176 -0.0565187 -0.0376232 0.0469806 -0.0471447 -0.121261 -0.129417 0.0707807 0.130605 0.102016 -0.252967 0.254422 0.211994 0.0452825 0.22332
420 0.412951 0.000544007 -0.291948 -0.15018 0.270284 -0.112191 0.0651512 -0.0771017 -0.21032 -0.459995 -0.530305 -0.0247795 -0.0882684 -0.16804 0.328364 -0.34338 0.127867 -0.275712 -0.075315 -0.0330877 0.0430389 -0.00124044 -0.195165 -0.192795 0.0806874 0.177032 0.0716847 -0.301839 0.40205 0.225589 0.148803 0.282123
322 0.244145 -0.00997003 -0.34618 -0.205708 0.22427 -0.0863771 0.114606 -0.079329 -0.258185 -0.298981 -0.502944 0.0596968 -0.311063 -0.169433 0.392909 -0.306347 0.0694762 -0.291502 -0.0904372 -0.0881946 -0.0996913 -0.0293651 -0.231289 -0.0725874 0.227555 0.127174 0.107801 -0.335574 0.421075 0.452491 0.272047 0.243429
67 0.290619 0.0044451 -0.259447 -0.0564816 0.26526 -0.0111971 0.095227 -0.0189087 -0.195166 -0.538097 -0.56464 -0.0264198 -0.114729 -0.134869 0.493004 -0.207727 0.0466013 -0.231457 0.00493196 -0.220875 -0.00970339 -0.0467935 -0.233734 -0.287233 0.0993852 0.187133 0.0723291 -0.258133 0.501273 0.301212 0.184555 0.43219
532 0.13644 -0.072232 -0.448087 -0.151261 0.0739152 -0.160997 0.0458017 0.26247 0.0673691 -0.678777 -0.143915 0.0223322 -0.111891 -0.118307 0.217107 -0.369883 0.150684 -0.304217 -0.0636459 -0.20844 0.310156 0.0218162 -0.054612 -0.243447 0.377826 0.371348 0.344843 -0.482127 0.145077 0.357626 0.0222257 0.469338
696 0.189057 0.0839519 -0.412479 -0.206908 0.274095 -0.130728 -0.000434578 0.0228916 -0.223259 -0.463281 -0.553294 -0.0210273 -0.210953 -0.0799087 0.417245 -0.42734 0.114128 -0.34525 -0.0658863 -0.134652 0.0287264 0.0414881 -0.23432 -0.151084 0.235092 0.219353 0.0196205 -0.406384 0.24837 0.235414 0.312398 0.130224
423 0.241337 -0.00978508 -0.292699 -0.143321 0.284812 -0.112513 0.0897398 -0.0127503 -0.339714 -0.468356 -0.54104 0.0647225 -0.141236 -0.207097 0.387812 -0.274837 0.0798254 -0.42873 -0.0036042 -0.0761844 -0.0675708 -0.107803 -0.138436 -0.0429723 0.110921 0.022983 0.251985 -0.258048 0.415255 0.417977 0.0539697 0.217565
160 0.424343 -0.034297 -0.207358 -0.171032 0.268884 -0.0953925 0.0761503 0.104817 -0.144494 -0.441748 -0.352994 -0.00648658 -0.131711 -0.117318 0.287103 -0.308813 0.0980982 -0.186342 -0.0651349 -0.098443 0.0917181 -0.0652232 -0.1009 -0.213391 0.0925459 0.292314 0.0173324 -0.347721 0.219951 0.195308 0.145441 0.375071
485 0.319771 -0.0255573 -0.258754 -0.208965 0.250374 -0.00222588 0.142497 0.206786 -0.14983 -0.321841 -0.35925 -0.0654638 -0.0745116 -0.199495 0.390925 -0.182987 0.132854 -0.103224 -0.124547 -0.179877 0.118811 -0.128974 -0.192511 -0.264103 0.203485 0.423401 0.120759 -0.534534 0.259106 0.476415 0.171496 0.460372
13 0.266883 0.0997276 -0.403085 -0.136555 0.132772 -0.198161 -0.0284799 0.0207522 -0.128961 -0.485743 -0.408737 0.0506688 -0.0948867 -0.157941 0.325859 -0.371912 0.120209 -0.325557 -0.11945 -0.091343 0.0616773 0.0430536 -0.253801 -0.0817798 0.246726 0.131518 0.223553 -0.432804 0.354899 0.354052 0.177753 0.170061
402 0.162874 0.050215 -0.429345 -0.145613 0.127617 -0.250256 -0.0959816 0.155794 0.0755053 -0.670852 -0.317652 -0.00451103 -0.0304219 -0.141406 0.196518 -0.499472 0.162707 -0.356432 -0.107119 -0.125868 0.386157 0.19517 -0.0553474 -0.254971 0.435747 0.341656 0.286034 -0.45083 0.215249 0.193796 0.0322391 0.355621
583 0.383833 -0.194748 -0.228806 -0.215227 0.0771604 -0.00173489 0.141898 0.0785587 -0.0845791 -0.439141 -0.298332 0.0167809 -0.166826 -0.126402 0.468304 -0.170451 0.117101 -0.0302425 -0.144549 -0.30435 0.143109 -0.112764 -0.273056 -0.28112 0.133242 0.398316 0.112255 -0.616862 0.147552 0.485759 0.277792 0.392664
613 0.475694 0.0361187 -0.328604 -0.220463 0.1953 -0.143451 0.0288171 -0.0646899 -0.152375 -0.378542 -0.474051 -0.0214451 -0.0673541 -0.161794 0.290062 -0.36087 0.160157 -0.219078 -0.142816 -0.0539211 0.120888 -0.0292769 -0.258217 -0.214403 0.100677 0.238288 0.133888 -0.413546 0.315028 0.265776 0.109992 0.218777
95 0.393935 0.0108231 -0.355678 -0.230063 0.0577651 -0.12057 0.0571332 -0.122758 -0.180355 -0.334892 -0.373904 0.043586 -0.109051 -0.279922 0.245694 -0.302719 0.164814 -0.278045 -0.15277 -0.0373022 0.102156 -0.022472 -0.188485 -0.0976971 0.112972 0.120805 0.314369 -0.490149 0.363276 0.482682 -0.0173759 0.286387
286 0.179659 0.129046 -0.236294 -0.10122 0.324339 -0.149792 0.00731715 0.101867 -0.194938 -0.457187 -0.520666 0.111944 -0.135969 -0.2405 0.437952 -0.324859 0.0466273 -0.302353 -0.0827538 -0.104662 0.0819241 -0.0272726 -0.162389 -0.129263 0.32426 0.0844681 0.112512 -0.407433 0.373571 0.360485 0.151565 0.220203
579 0.316646 -0.00518819 -0.346202 -0.175255 0.139341 -0.124342 0.0765468 -0.109079 -0.193874 -0.440733 -0.500131 0.0290339 -0.0868406 -0.195702 0.313354 -0.329507 0.13811 -0.31314 -0.0821445 -0.109348 0.116707 -0.00518296 -0.186875 -0.219294 0.0880976 0.138292 0.206639 -0.372827 0.348128 0.327078 0.0271515 0.27927
158 0.434416 0.00384699 -0.443519 -0.214122 0.176338 -0.146862 0.000568448 -0.152419 -0.221046 -0.43203 -0.535375 0.0163823 -0.0765306 -0.177688 0.349325 -0.33108 0.161652 -0.315794 -0.119129 -0.0988353 0.0695234 -0.0717057 -0.311377 -0.13504 0.124499 0.149163 0.325117 -0.440824 0.422149 0.450932 0.0585557 0.24126
24 0.542586 -0.0973586 -0.441789 -0.35301 0.0934875 -0.0576566 0.101201 -0.0298585 -0.0796934 -0.183848 -0.294777 -0.0821974 -0.149817 -0.0833541 0.280613 -0.268983 0.179817 -0.0401196 -0.208968 -0.148045 0.152006 -0.0723416 -0.35073 -0.255057 0.137404 0.48037 0.152286 -0.635099 0.190226 0.488889 0.214555 0.313408
183 0.403801 -0.0717548 -0.393833 -0.214526 0.0717943 -0.111514 0.079514 -0.0847512 -0.170082 -0.400545 -0.360141 0.0289408 -0.159767 -0.216062 0.254365 -0.329801 0.133948 -0.299097 -0.126404 -0.0842932 0.0932031 -0.0383719 -0.193156 -0.150258 0.133573 0.205942 0.312552 -0.433462 0.351641 0.491629 0.0220138 0.355305
328 0.29078 -0.0801718 -0.38659 -0.237549 0.194264 -0.107 0.0931805 -0.0866139 -0.229858 -0.50239 -0.490026 0.022676 -0.198465 -0.154686 0.258464 -0.387885 0.142527 -0.368414 -0.0191989 -0.0330409 0.0154918 0.0282501 -0.118236 -0.159326 0.155653 0.187676 0.151249 -0.304279 0.341236 0.320472 0.17254 0.274456
231 0.278762 -0.0140392 -0.496735 -0.280529 0.0686535 -0.187491 0.0681048 -0.0825722 -0.264639 -0.460791 -0.363766 -0.00135766 -0.253036 -0.193903 0.244075 -0.399998 0.183883 -0.398567 -0.0693158 -0.11577 -0.00648362 0.0169814 -0.182912 -0.0753976 0.106279 0.149323 0.234532 -0.474229 0.323964 0.392588 0.152734 0.231832
229 0.275126 0.0327747 -0.601709 -0.354794 0.0397831 -0.158405 0.00156902 -0.212731 -0.295539 -0.41653 -0.496404 -0.0997634 -0.121362 -0.164939 0.171054 -0.464195 0.249998 -0.446793 -0.0740817 -0.0255511 0.0413059 0.117838 -0.220623 -0.109715 0.0442325 0.170908 0.279249 -0.44512 0.355118 0.379613 0.0622803 0.145759
80 0.428429 -0.0440968 -0.393958 -0.182818 0.132788 -0.141594 0.0899092 -0.166656 -0.19862 -0.501091 -0.533823 0.00340045 -0.0934941 -0.181215 0.254781 -0.379391 0.194498 -0.343427 -0.0747183 -0.0842664 0.0841216 0.0052681 -0.201484 -0.237322 0.0270653 0.163465 0.208615 -0.335199 0.393121 0.279137 0.0186365 0.348396
625 0.224429 -0.0280469 -0.43331 -0.206963 0.170723 -0.114834 0.1027 -0.060708 -0.248139 -0.507243 -0.544747 -0.00788569 -0.121505 -0.181695 0.348389 -0.350256 0.193258 -0.372942 -0.0785341 -0.146411 0.0586308 0.0174124 -0.199926 -0.200873 0.0964437 0.14963 0.185129 -0.359043 0.329337 0.329907 0.137481 0.279942
60 0.183645 -0.0131855 -0.48957 -0.261522 0.0277001 -0.170447 0.0816852 -0.192235 -0.235444 -0.520644 -0.51369 0.000903855 -0.159395 -0.221105 0.268191 -0.450764 0.261436 -0.451804 -0.0870812 -0.118622 0.0922826 0.0910176 -0.176007 -0.17541 0.0554605 0.138624 0.269753 -0.446478 0.345385 0.364503 0.0695577 0.232422
190 0.206072 -0.0155709 -0.344207 -0.201122 0.216122 -0.0999087 0.0816321 -0.0564433 -0.263023 -0.458059 -0.483395 0.00767398 -0.179067 -0.201748 0.27608 -0.386101 0.121459 -0.368389 -0.0235122 -0.0337163 0.0195556 0.0318086 -0.100056 -0.167431 0.223289 0.195714 0.188826 -0.270472 0.380347 0.363234 0.157192 0.316655
49 0.349355 0.00701382 -0.239278 -0.13038 0.210185 -0.0744928 0.0811431 -0.0972144 -0.166018 -0.400301 -0.486858 -0.0204018 -0.0718657 -0.182335 0.310854 -0.286622 0.108565 -0.241612 -0.062748 -0.0676668 0.0517299 -0.00904098 -0.173415 -0.209496 0.0709889 0.185126 0.0882933 -0.300211 0.378913 0.246983 0.10467 0.326042
584 0.430749 -0.0786621 -0.445545 -0.191912 0.102037 -0.153491 0.102612 -0.158111 -0.204667 -0.448983 -0.454811 -0.00440342 -0.150692 -0.17094 0.234672 -0.336947 0.177653 -0.356256 -0.0660927 -0.0503609 0.00616212 -0.0315479 -0.197618 -0.144669 0.0347817 0.131403 0.30645 -0.300973 0.406447 0.346187 0.0414895 0.301555
559 0.209633 0.0231426 -0.423177 -0.296569 0.184831 -0.167391 0.0616851 0.000547522 -0.297219 -0.5064 -0.467639 -0.00728352 -0.225663 -0.160889 0.314118 -0.487473 0.166716 -0.433631 -0.0580349 -0.0851228 0.0347872 0.0519548 -0.15132 -0.129912 0.165562 0.199236 0.124147 -0.425994 0.27333 0.304058 0.20143 0.202941
50 0.0983046 0.0220751 -0.555808 -0.332044 0.0741337 -0.192845 0.0284803 -0.0235902 -0.299084 -0.500737 -0.406227 -0.00309044 -0.248307 -0.178424 0.240696 -0.459041 0.224794 -0.515915 -0.0453161 -0.0818432 -0.000769323 0.0332457 -0.165314 -0.0148008 0.157078 0.14631 0.275596 -0.478604 0.237539 0.434995 0.151033 0.0894433
578 0.367682 -0.00277718 -0.287955 -0.166879 0.190994 -0.13052 0.085081 -0.097094 -0.225815 -0.388743 -0.515853 0.00947122 -0.11403 -0.232429 0.289929 -0.358299 0.158697 -0.303189 -0.0782462 -0.0234894 0.0468249 -0.00183793 -0.162465 -0.168027 0.10021 0.143056 0.160601 -0.340738 0.419628 0.319924 0.0860172 0.305965
585 0.347094 0.0112859 -0.168096 -0.111718 0.204581 -0.0874172 0.0727922 -0.0264026 -0.17523 -0.338414 -0.369763 -0.000272652 -0.079476 -0.170661 0.250652 -0.262344 0.0750761 -0.203894 -0.0629102 -0.0362712 0.0284784 -0.0544136 -0.106225 -0.148439 0.0306565 0.122867 0.0291269 -0.252645 0.285971 0.188505 0.0744782 0.258293
111 0.443707 -0.130909 -0.307299 -0.19825 0.116912 -0.141346 0.147542 -0.0732793 -0.183455 -0.50136 -0.395741 0.0209846 -0.06184 -0.216101 0.212265 -0.328417 0.228558 -0.289105 -0.0769802 -0.0533337 0.14479 -0.0489878 -0.0876382 -0.216372 -0.025777 0.191864 0.255428 -0.333654 0.253775 0.264801 -0.0260228 0.374693
449 0.431884 -0.0883901 -0.315653 -0.168816 0.195016 -0.107282 0.103087 -0.0928256 -0.203919 -0.446259 -0.463795 0.00333668 -0.122679 -0.170616 0.275363 -0.314527 0.140338 -0.27801 -0.0625124 -0.0684142 0.0664007 -0.0579745 -0.177785 -0.195265 0.0727179 0.188565 0.225407 -0.304101 0.378803 0.354362 0.0792781 0.336211
636 0.331508 0.0114346 -0.259944 -0.122467 0.225368 -0.0983611 0.0777672 -0.0287025 -0.178419 -0.413034 -0.474385 0.0156509 -0.102747 -0.159543 0.33496 -0.288969 0.120575 -0.238762 -0.0850148 -0.0860793 0.0689762 -0.0231237 -0.166641 -0.211907 0.110572 0.187866 0.116285 -0.318251 0.337251 0.253055 0.0967458 0.304946
472 0.156746 -0.00718732 -0.149529 0.069015 0.407436 -0.0784821 0.112303 0.0270366 -0.35516 -0.724321 -0.622454 0.0679763 -0.0824336 -0.20766 0.470639 -0.246787 0.0527253 -0.423472 0.106474 -0.0586764 -0.134841 -0.110178 -0.0823358 -0.103724 0.107531 -0.0101059 0.101437 -0.04598 0.557274 0.237429 0.209297 0.373659
157 0.407816 0.0378096 -0.246275 -0.143114 0.21259 -0.110541 0.0518473 -0.116885 -0.198959 -0.437215 -0.567855 0.00216626 -0.0370687 -0.23532 0.34962 -0.318155 0.11613 -0.256169 -0.079844 -0.100608 0.0951589 -0.0390393 -0.191264 -0.252026 0.0508062 0.141089 0.104755 -0.353853 0.40617 0.242423 0.0339003 0.31541
79 0.340468 -0.125683 -0.271692 -0.050561 0.221667 -0.0587067 0.146359 -0.0347759 -0.216956 -0.461741 -0.503633 0.0876491 -0.0655206 -0.227893 0.374564 -0.15001 0.103528 -0.293372 -0.0675492 -0.164343 0.0255398 -0.175552 -0.180969 -0.171184 0.0758475 0.122577 0.356393 -0.246821 0.422929 0.482713 -0.0224724 0.383567
66 0.394648 0.0352718 -0.195556 -0.116191 0.322287 0.0282977 0.0731686 0.235141 -0.164584 -0.451302 -0.372782 -0.0736421 -0.115533 -0.124391 0.593991 -0.159479 0.0176517 -0.0271766 -0.0861024 -0.296971 0.0205386 -0.170963 -0.356793 -0.248874 0.151157 0.385723 -0.0902133 -0.547216 0.257386 0.388395 0.400552 0.40669
259 0.397433 -0.00824062 -0.298612 -0.118114 0.261743 -0.137234 0.0893308 -0.0691217 -0.149963 -0.426533 -0.502349 0.038715 -0.0704363 -0.182145 0.318383 -0.316009 0.14084 -0.268332 -0.086976 -0.0769328 0.0783849 -0.0362372 -0.213311 -0.19695 0.116935 0.155159 0.143779 -0.294195 0.377852 0.247516 0.0956519 0.291287
706 0.422149 0.00769068 -0.29272 -0.193998 0.149395 -0.141573 0.0387799 -0.0368377 -0.205642 -0.440698 -0.365778 0.0295777 -0.137086 -0.184393 0.275652 -0.363008 0.1208 -0.283884 -0.108299 -0.0661731 0.0887705 -0.045718 -0.17868 -0.137069 0.101163 0.164952 0.175984 -0.420044 0.294556 0.301318 0.0902395 0.269622
646 0.459706 -0.0109876 -0.248618 -0.134812 0.232853 -0.102691 0.0915824 -0.0435932 -0.191403 -0.445663 -0.449923 0.0183314 -0.100452 -0.192068 0.313504 -0.308456 0.102335 -0.241002 -0.0763851 -0.0878188 0.0791016 -0.0363145 -0.167649 -0.192926 0.0802444 0.18849 0.127999 -0.358379 0.333455 0.258512 0.0597193 0.351512
397 0.436094 0.00828062 -0.24085 -0.172223 0.251053 -0.111698 0.0637285 -0.0326318 -0.228197 -0.475741 -0.502758 -0.00067578 -0.0708044 -0.17824 0.331499 -0.375045 0.139099 -0.281413 -0.0766805 -0.0577813 0.0788274 -0.0407911 -0.160407 -0.233955 0.0496974 0.185983 0.0683414 -0.337691 0.329085 0.174487 0.100245 0.322783
221 0.453228 -0.0527504 -0.247023 -0.18005 0.267443 -0.0589314 0.0627776 0.0398899 -0.140708 -0.442409 -0.409183 -0.0323757 -0.123374 -0.066307 0.389092 -0.261595 0.0758169 -0.141628 -0.0778568 -0.154128 0.0783165 -0.0915608 -0.256398 -0.274386 0.0990831 0.333434 0.0215976 -0.393615 0.271757 0.240303 0.230648 0.361748
174 0.339095 0.0277382 -0.228158 -0.135804 0.197248 -0.109979 0.0774592 -0.107868 -0.197553 -0.374287 -0.502374 0.00592335 -0.0739608 -0.190324 0.295087 -0.307251 0.111259 -0.261397 -0.0736205 -0.0539214 0.0426502 -0.0145338 -0.172642 -0.176576 0.061296 0.123248 0.0874919 -0.281169 0.384361 0.243447 0.100377 0.294055
70 0.374294 -0.00885491 -0.340326 -0.197742 0.129685 -0.139607 0.044026 -0.111731 -0.165708 -0.547441 -0.48602 -0.00482599 -0.062055 -0.210418 0.223927 -0.423678 0.17466 -0.343702 -0.055937 -0.0613515 0.190619 0.06128 -0.107661 -0.252441 0.0682139 0.178055 0.167989 -0.342544 0.326535 0.186634 0.00650904 0.332089
241 0.249693 -0.0436585 -0.465278 -0.246039 0.177892 -0.121786 0.109503 -0.11594 -0.343259 -0.41155 -0.496892 -0.00197193 -0.239566 -0.172571 0.301989 -0.351449 0.190551 -0.41991 -0.0593894 -0.065883 -0.107208 -0.0313353 -0.204177 -0.0629468 0.0881412 0.127311 0.201094 -0.347168 0.337342 0.416888 0.171782 0.195198
205 0.386808 0.0364211 -0.366034 -0.209868 0.174066 -0.118812 0.0485385 -0.0116391 -0.149184 -0.391968 -0.387663 -0.00893246 -0.138867 -0.151117 0.288935 -0.337394 0.130936 -0.236988 -0.116213 -0.114715 0.0701796 0.00543558 -0.216054 -0.175219 0.181865 0.227555 0.15881 -0.464899 0.33011 0.332424 0.147856 0.301388
122 0.39481 -0.00724714 -0.295981 -0.129069 0.222244 -0.125433 0.0548135 -0.0697185 -0.154243 -0.48909 -0.553711 0.0180735 -0.0537719 -0.17825 0.330329 -0.33234 0.122188 -0.276382 -0.0835645 -0.103866 0.119893 -0.012436 -0.20169 -0.2499 0.123894 0.175729 0.154097 -0.327051 0.377315 0.233834 0.0644863 0.309945
462 0.437261 0.0372163 -0.212238 -0.0966646 0.270529 -0.134191 0.102473 0.00577268 -0.208617 -0.512343 -0.510328 0.0400872 -0.0771539 -0.231379 0.396548 -0.300554 0.105799 -0.266868 -0.0762462 -0.107539 0.0384902 -0.0694032 -0.178819 -0.176232 0.0461821 0.104196 0.0758285 -0.313825 0.396152 0.23742 0.120812 0.345723
660 0.416939 0.0335586 -0.255905 -0.0814153 0.254748 -0.123548 0.0742315 -0.00630684 -0.169278 -0.469456 -0.483112 0.0401087 -0.0829147 -0.210012 0.372952 -0.273514 0.0815091 -0.246012 -0.0970581 -0.129609 0.0944619 -0.0614525 -0.190408 -0.233372 0.108493 0.166523 0.129554 -0.330887 0.396401 0.260539 0.0423389 0.389357
521 0.277828 -0.0463994 -0.398682 -0.234346 0.124502 -0.20417 0.107835 -0.0387798 -0.13841 -0.441625 -0.382125 0.108859 -0.195555 -0.206084 0.227118 -0.382202 0.19871 -0.356795 -0.123857 -0.0628537 0.0983606 -0.00968757 -0.141025 -0.0762257 0.195502 0.150759 0.331843 -0.417829 0.270819 0.385474 0.065439 0.252935
802 0.266717 0.207288 -0.252355 -0.488629 0.288842 -0.160586 0.226925 0.18842 -0.0852969 0.322408 -0.367351 0.0728091 -0.429044 -0.42488 0.0348379 -0.489858 0.271788 -0.264015 -0.304049 0.0116567 0.233906 -0.0856855 0.108092 -0.207037 0.165709 0.287705 -0.0393317 -0.676487 0.147227 0.305834 -0.257722 0.397831
669 0.522452 -0.0913882 -0.181003 -0.0470535 0.154675 -0.0578116 0.171911 0.353031 -0.0671925 -0.381603 -0.0558108 0.135104 -0.106009 -0.342178 0.405574 -0.0284795 0.0444128 -0.0787207 -0.201139 -0.208562 0.158368 -0.321955 -0.177878 -0.0959588 0.23614 0.219193 0.417215 -0.602179 0.247757 0.759817 0.0226119 0.57103
151 0.493109 -0.109048 -0.25479 -0.238304 0.19652 -0.0599019 0.0825532 0.183827 -0.0752803 -0.398454 -0.182036 0.0109578 -0.232762 -0.0961568 0.32186 -0.284543 0.0600188 -0.107719 -0.0932002 -0.148383 0.113443 -0.112514 -0.182095 -0.199225 0.215365 0.385517 0.0903463 -0.541443 0.141457 0.385001 0.22911 0.367085
644 0.123296 -0.049858 -0.517901 -0.356874 0.0220367 -0.274623 -0.0218773 0.0298072 -0.0352372 -0.704603 -0.344169 -0.00924779 -0.174447 -0.163741 0.0616752 -0.636858 0.254269 -0.453686 -0.0572158 -0.113669 0.376495 0.261593 0.0563755 -0.302709 0.316598 0.34017 0.243836 -0.483084 0.113624 0.150312 -0.0325049 0.328108
427 0.446795 -0.0127777 -0.311187 -0.216997 0.187259 -0.144187 0.0700258 0.0942348 -0.124649 -0.29509 -0.224582 0.0863839 -0.226909 -0.186924 0.209084 -0.318851 0.087396 -0.222188 -0.128409 -0.0318958 0.0589581 -0.079042 -0.160524 -0.0829807 0.203668 0.223697 0.191165 -0.472821 0.215978 0.390752 0.101248 0.270496
208 0.347412 -0.0167154 -0.34111 -0.229594 0.144478 -0.187072 0.0777047 0.0174841 -0.148399 -0.346347 -0.296058 0.0895376 -0.211383 -0.201889 0.217864 -0.35383 0.145995 -0.283945 -0.138404 -0.0312709 0.0978474 -0.00871847 -0.137688 -0.06581 0.239322 0.180132 0.272066 -0.451566 0.255136 0.432301 0.0780898 0.259736
17 0.177628 -0.0857328 -0.1938 -0.154231 0.291835 -0.0573434 0.144084 0.36776 -0.0859391 -0.458335 -0.281135 0.0614823 -0.255568 -0.189079 0.403627 -0.204822 0.056851 -0.159266 -0.106138 -0.210274 0.107655 -0.139885 -0.108165 -0.158661 0.403171 0.361741 0.151076 -0.4913 0.177863 0.483365 0.227959 0.423985
626 0.368762 -0.0137773 -0.294701 -0.2294 0.209346 -0.180743 0.050078 0.100873 -0.141372 -0.415668 -0.302407 0.0978463 -0.21308 -0.208663 0.254825 -0.368538 0.112884 -0.289564 -0.106705 -0.0503778 0.113104 -0.0597788 -0.103734 -0.0921029 0.232819 0.193284 0.224427 -0.476843 0.247375 0.377517 0.0922804 0.28433
338 0.513138 -0.244445 -0.348778 -0.29536 0.101226 -0.0415911 0.160094 0.232572 -0.0488353 -0.409427 -0.112627 0.0176392 -0.266823 -0.102956 0.351271 -0.187857 0.118577 -0.0265474 -0.176598 -0.285715 0.131196 -0.218048 -0.246138 -0.207346 0.192016 0.489536 0.203334 -0.675702 0.0478864 0.597972 0.234836 0.435889
36 0.293341 0.0229406 -0.314028 -0.199247 0.178547 -0.129259 0.068447 0.0605542 -0.156103 -0.414106 -0.373392 0.0762971 -0.201703 -0.20716 0.371233 -0.348384 0.0921504 -0.265967 -0.111457 -0.108567 0.0751077 -0.0367947 -0.184616 -0.133832 0.247068 0.17974 0.143018 -0.488213 0.281798 0.425422 0.187081 0.274999
413 0.325784 -0.070573 -0.33424 -0.201608 0.176205 -0.14916 0.0757543 0.0531635 -0.150157 -0.47668 -0.299754 0.0928167 -0.210711 -0.180333 0.268977 -0.339873 0.107536 -0.321834 -0.103323 -0.0883281 0.0614315 -0.0575621 -0.121593 -0.104996 0.239462 0.187983 0.273722 -0.410164 0.292846 0.441128 0.0709435 0.32868
114 0.211753 0.0588927 -0.254927 -0.150321 0.290896 -0.103744 0.0942202 0.120793 -0.259401 -0.410023 -0.416411 0.105487 -0.208897 -0.256749 0.380019 -0.300832 0.0593378 -0.31751 -0.0780702 -0.102047 -0.0017713 -0.0750461 -0.137561 -0.0904708 0.279275 0.123945 0.173045 -0.400876 0.358589 0.482924 0.155785 0.28558
316 0.291254 -0.00691435 -0.243604 -0.127674 0.14315 -0.114395 0.0342686 0.0398307 -0.125157 -0.304745 -0.272237 0.0380535 -0.138599 -0.158447 0.215244 -0.255648 0.0746111 -0.207107 -0.0780456 -0.0547589 0.0505709 -0.0239841 -0.132925 -0.101075 0.152769 0.140318 0.162508 -0.341039 0.233109 0.312138 0.0631304 0.225204
568 0.254522 0.0576805 -0.322785 -0.268076 0.197901 -0.113528 0.0412193 0.139493 -0.19841 -0.36967 -0.310728 0.0416343 -0.24311 -0.193244 0.310759 -0.372218 0.0753043 -0.242887 -0.097916 -0.106885 0.0837214 0.0047164 -0.132086 -0.13137 0.266911 0.257894 0.0784613 -0.515809 0.219435 0.422451 0.198613 0.285274
165 0.314872 -0.00959574 -0.24248 -0.154981 0.177175 -0.117776 0.0777753 0.0457514 -0.127093 -0.346583 -0.309779 0.0709869 -0.13496 -0.170394 0.253265 -0.275624 0.0908983 -0.207563 -0.0890944 -0.0770223 0.0493781 -0.0610255 -0.131068 -0.0942696 0.159519 0.161805 0.150905 -0.355506 0.272254 0.323464 0.0852677 0.26704
664 -0.0219474 0.081249 -0.210828 -0.051481 0.191954 -0.277636 0.0719629 0.300901 -0.00822954 -0.644433 -0.250502 0.203442 -0.20974 -0.333774 0.216424 -0.425103 0.10483 -0.447833 -0.0701895 -0.0822889 0.246955 0.152636 0.136446 -0.140881 0.490895 0.124867 0.265225 -0.386604 0.311798 0.298495 0.0116219 0.498338
203 0.337374 0.0424126 -0.302844 -0.121233 0.266705 -0.155243 0.0631316 0.109442 -0.142681 -0.45182 -0.430671 0.111719 -0.162622 -0.234836 0.37743 -0.301391 0.0375521 -0.28127 -0.107386 -0.112165 0.0975924 -0.0686073 -0.197776 -0.117516 0.334624 0.168422 0.26933 -0.422293 0.375023 0.489008 0.0964468 0.32758
465 0.331487 -0.0528507 -0.318678 -0.227544 0.124 -0.0629275 0.0327419 0.074774 -0.145017 -0.392095 -0.306856 0.0282091 -0.116951 -0.155383 0.353732 -0.262298 0.138829 -0.163514 -0.160973 -0.165343 0.130511 -0.0877801 -0.285412 -0.183334 0.214636 0.32285 0.217868 -0.625314 0.176789 0.499934 0.234209 0.273395
204 0.153751 0.0753479 -0.246207 -0.130974 0.251939 -0.109857 0.0564124 0.158771 -0.2943 -0.486165 -0.33657 0.137447 -0.272797 -0.257244 0.414714 -0.282593 0.00208508 -0.371327 -0.0262656 -0.132913 -0.0802053 -0.0949941 -0.130118 0.0142248 0.25086 -0.00505096 0.158905 -0.4317 0.314941 0.494095 0.18701 0.222618
215 0.303841 0.0899177 -0.314398 -0.252492 0.273811 -0.148919 -0.00679249 0.0152904 -0.229292 -0.423975 -0.488489 0.0509686 -0.211875 -0.172433 0.363532 -0.446001 0.0824507 -0.334044 -0.0918161 -0.0604231 0.0386269 0.0344408 -0.178681 -0.125324 0.220324 0.167605 0.0220126 -0.446566 0.275228 0.273801 0.209105 0.142888
100 0.299233 -0.0414509 -0.217391 -0.122381 0.315055 -0.0822258 0.152519 0.158804 -0.00553355 -0.328646 -0.391846 0.106266 -0.228384 -0.161037 0.401641 -0.234314 0.0482668 -0.112095 -0.133518 -0.210983 0.0835201 -0.0544613 -0.183569 -0.210638 0.327826 0.287204 0.0576359 -0.402143 0.294967 0.377463 0.244337 0.420927
96 0.222296 0.0733677 -0.279824 -0.141743 0.277871 -0.115301 0.0832245 0.135806 -0.27735 -0.457947 -0.423729 0.0859279 -0.233976 -0.228514 0.452173 -0.319905 0.0263108 -0.3318 -0.0496166 -0.160196 -0.0227371 -0.0654003 -0.154598 -0.0880019 0.216381 0.0974059 0.0660118 -0.422064 0.354119 0.373987 0.205199 0.273839
192 0.233071 0.0460425 -0.367556 -0.080023 0.257847 -0.102028 0.00621612 0.0124813 -0.162865 -0.517011 -0.480062 0.0403197 -0.158116 -0.184903 0.386975 -0.327479 0.0291327 -0.36663 -0.026519 -0.121673 0.0524565 -0.0274964 -0.160368 -0.127218 0.278396 0.106896 0.238108 -0.320059 0.4442 0.409538 0.0786963 0.329181
86 0.0469338 0.0574712 -0.351038 -0.0854528 0.304162 -0.100188 0.0920772 0.18048 -0.218802 -0.443496 -0.458345 0.128933 -0.236835 -0.244294 0.448085 -0.241595 0.0558483 -0.378468 -0.0462681 -0.207628 -0.0148491 -0.107778 -0.172676 -0.0495965 0.327018 0.0850387 0.244203 -0.393136 0.3312 0.519541 0.129476 0.240265
220 0.0258717 0.156389 -0.309795 -0.156807 0.310173 -0.184743 0.10314 0.284221 -0.210521 -0.384287 -0.376424 0.141138 -0.281949 -0.331695 0.384016 -0.360414 0.0847051 -0.405613 -0.0942922 -0.0717084 0.0291331 -0.0408469 -0.0774563 0.012085 0.469443 0.111965 0.177765 -0.481719 0.355611 0.481847 0.19083 0.306959
438 0.357319 -0.0658019 -0.256775 -0.0963488 0.281883 0.0154887 0.0954368 0.177712 -0.136676 -0.51249 -0.379947 -0.0576205 -0.124896 -0.0872767 0.506337 -0.165099 0.0556583 -0.108262 -0.057256 -0.258901 0.00817772 -0.139966 -0.282879 -0.242647 0.173248 0.380435 0.0406113 -0.430567 0.272821 0.386498 0.338873 0.387914
336 0.455033 -0.022702 -0.439915 -0.233381 0.103373 -0.110334 0.0901567 -0.115381 -0.137687 -0.241153 -0.407692 0.0189614 -0.1531 -0.196255 0.293888 -0.269698 0.146759 -0.221007 -0.184798 -0.0895336 0.0403145 -0.0713912 -0.292952 -0.127438 0.145396 0.203186 0.277788 -0.491345 0.362276 0.541476 0.109796 0.272177
456 0.264942 0.0153164 -0.566378 -0.307136 0.119784 -0.154765 -0.0226611 -0.100786 -0.264551 -0.422834 -0.413318 -0.00552701 -0.292535 -0.0939911 0.268147 -0.437181 0.127891 -0.3916 -0.0568929 -0.0807308 -0.0568426 0.0493496 -0.259152 -0.0388459 0.188744 0.160171 0.212394 -0.462816 0.319932 0.432165 0.207875 0.133645
218 0.315212 -0.00836305 -0.24976 -0.21614 0.283566 -0.151195 0.0758 0.0501531 -0.203069 -0.403025 -0.389087 0.090677 -0.212778 -0.194269 0.297712 -0.364175 0.0990136 -0.294285 -0.0873045 -0.0529829 0.0370914 -0.0577721 -0.109367 -0.107038 0.204161 0.180624 0.100598 -0.380481 0.271623 0.322003 0.182353 0.24964
680 0.306707 0.0286273 -0.291762 -0.098354 0.23076 -0.0360987 0.0739809 0.0054502 -0.292262 -0.437614 -0.497144 0.00716951 -0.0998607 -0.207322 0.456096 -0.213547 0.0807306 -0.280542 -0.0608269 -0.108752 -0.0605062 -0.146359 -0.280289 -0.0959835 0.0971972 0.123755 0.191285 -0.342562 0.465225 0.480977 0.158135 0.30592
69 0.32175 -0.0289717 -0.286589 -0.18993 0.181395 -0.124095 0.0782808 0.0423718 -0.164993 -0.349914 -0.32835 0.0755577 -0.15723 -0.214498 0.217819 -0.324249 0.116 -0.277655 -0.113238 -0.0315121 0.0759686 -0.0573927 -0.107335 -0.0762911 0.18602 0.142531 0.21323 -0.394873 0.243652 0.383262 0.051545 0.274424
331 0.419091 -0.105542 -0.206772 -0.165541 0.223737 -0.016594 0.115763 0.309458 -0.0487454 -0.453018 -0.183076 -0.00510894 -0.165351 -0.0954714 0.404714 -0.187061 0.0612942 -0.0532389 -0.118493 -0.252237 0.107594 -0.150402 -0.2042 -0.238427 0.236631 0.433806 0.0609469 -0.516355 0.14961 0.429419 0.285997 0.45957
244 0.352803 -0.01678 -0.239864 -0.183411 0.166247 -0.134462 0.0714415 0.0625122 -0.151072 -0.337713 -0.284773 0.11106 -0.176943 -0.230183 0.270653 -0.291152 0.080017 -0.238887 -0.110398 -0.0587836 0.0552072 -0.0836527 -0.130212 -0.0881196 0.172855 0.141631 0.202377 -0.427861 0.236033 0.450968 0.0755981 0.269005
62 0.338378 0.0171394 -0.262054 -0.170278 0.187141 -0.115653 0.0616216 0.0773407 -0.151398 -0.342845 -0.300843 0.04815 -0.156793 -0.197885 0.264741 -0.27609 0.0829595 -0.246168 -0.115897 -0.0892086 0.0954468 -0.0597675 -0.138597 -0.0994761 0.18148 0.158547 0.190401 -0.422285 0.252621 0.371479 0.0613103 0.268572
617 0.316893 0.0193368 -0.265444 -0.162923 0.188574 -0.142446 0.0831988 0.0546595 -0.114922 -0.377828 -0.31169 0.0863607 -0.184801 -0.195775 0.254173 -0.305318 0.0844393 -0.253595 -0.0890977 -0.0753473 0.0606465 -0.0491579 -0.129959 -0.121836 0.221033 0.177765 0.171849 -0.391411 0.283993 0.360666 0.086611 0.31522
7 0.116918 0.0740484 -0.35365 -0.142178 0.0887756 -0.140737 0.0352104 -0.0629685 -0.249045 -0.534701 -0.485058 0.0706729 -0.122961 -0.281453 0.330836 -0.358736 0.120808 -0.429946 -0.052741 -0.0906798 0.0680954 0.0467872 -0.117263 -0.0772195 0.155531 -0.00239802 0.26487 -0.396187 0.40111 0.399056 0.00878046 0.242857
672 0.340146 0.0173946 -0.287462 -0.168775 0.184499 -0.151416 0.0756022 0.0578799 -0.141553 -0.341152 -0.303751 0.0926321 -0.188935 -0.20353 0.280164 -0.314001 0.0885239 -0.249625 -0.105377 -0.0553429 0.07162 -0.044383 -0.144137 -0.0668229 0.235915 0.172892 0.199335 -0.423568 0.268915 0.396443 0.114603 0.277974
9 0.266192 -0.0947989 -0.453711 -0.222054 0.0629272 -0.213789 0.114484 0.0256825 -0.175706 -0.396985 -0.258904 0.12596 -0.253146 -0.254149 0.195275 -0.31365 0.19192 -0.393783 -0.137774 -0.0671771 0.057452 -0.0718982 -0.133133 0.0183748 0.230634 0.113918 0.426547 -0.456597 0.271733 0.567826 0.0503674 0.265013
265 0.37991 -0.128399 -0.384156 -0.250934 0.0934257 0.0451696 0.11157 -0.00036133 -0.188678 -0.372552 -0.378513 -0.112896 -0.153955 -0.102845 0.380381 -0.192903 0.0946004 -0.110912 -0.0824721 -0.26884 0.0348593 -0.0901488 -0.330583 -0.280405 0.0415433 0.372317 0.10934 -0.485173 0.268701 0.4669 0.223564 0.40901
607 0.213812 0.0603745 -0.167357 -0.147247 0.349466 -0.039899 0.0543678 0.415988 -0.0901675 -0.393953 -0.248874 0.051303 -0.240345 -0.151778 0.510892 -0.226233 -0.0560275 -0.0853532 -0.104683 -0.227946 0.0878254 -0.124263 -0.2052 -0.163673 0.465137 0.347524 0.00604959 -0.580028 0.168364 0.482007 0.302145 0.358968
527 0.178202 -0.077775 -0.503067 -0.28309 0.0616313 -0.245781 0.045863 0.139477 0.0305544 -0.55816 -0.194488 0.0846217 -0.25997 -0.17843 0.10043 -0.482757 0.172864 -0.404402 -0.100251 -0.141136 0.313452 0.116049 0.0337021 -0.19143 0.371387 0.268629 0.370686 -0.474587 0.125928 0.343911 -0.0845288 0.37992
113 0.457677 -0.133683 -0.232381 -0.0723787 0.260177 -0.000331908 0.13419 0.335529 -0.0728243 -0.514224 -0.150753 0.0675771 -0.219789 -0.167642 0.490134 -0.089076 -0.0320578 -0.0545736 -0.0982127 -0.321105 0.0911457 -0.283244 -0.203228 -0.21445 0.274759 0.335434 0.221769 -0.509935 0.236439 0.605827 0.144381 0.54705
1 0.329441 -0.0642505 -0.346162 -0.264343 0.0569203 -0.162583 0.0992426 0.071639 -0.179118 -0.403507 -0.215501 0.0791262 -0.223858 -0.253487 0.210213 -0.337802 0.163744 -0.300437 -0.138897 -0.0870067 0.121097 -0.0356498 -0.109198 -0.0609298 0.207882 0.183753 0.313258 -0.542322 0.210532 0.499312 0.0602225 0.317331
132 0.257432 0.0585118 -0.279257 -0.229407 0.271163 -0.139134 0.0508709 0.157641 -0.259585 -0.448752 -0.359783 0.0911979 -0.276517 -0.220595 0.364713 -0.382958 0.0780396 -0.352159 -0.0473389 -0.111175 0.00886495 -0.0363505 -0.10847 -0.0631845 0.21844 0.12883 0.100889 -0.457855 0.269131 0.371372 0.185991 0.248753
194 0.299796 -0.0113477 -0.410091 -0.330221 0.0630931 -0.0400696 0.017224 0.204696 -0.113314 -0.525883 -0.138494 -0.170195 -0.226302 -0.0892536 0.252982 -0.418972 0.102553 -0.184251 -0.0151096 -0.225212 0.198182 0.123951 -0.113624 -0.328812 0.195956 0.5042 -0.0123369 -0.573375 0.113636 0.300251 0.225982 0.457163
163 0.172637 0.126088 -0.423125 -0.265268 0.248658 -0.186311 -0.0209566 0.0663438 -0.245399 -0.426457 -0.469939 0.0181383 -0.215672 -0.160761 0.320403 -0.47019 0.135591 -0.39662 -0.0655326 -0.0327651 0.0463939 0.0612598 -0.173676 -0.0587944 0.299715 0.186373 0.080271 -0.447008 0.252745 0.316095 0.234486 0.0965095
632 0.35772 0.0304276 -0.255586 -0.190473 0.133911 -0.146373 0.0444634 0.0453263 -0.121945 -0.342284 -0.262944 0.092889 -0.155455 -0.209438 0.247261 -0.32337 0.0798361 -0.252724 -0.123837 -0.0412762 0.103091 -0.0416199 -0.121296 -0.0805779 0.154951 0.120402 0.18339 -0.430146 0.232743 0.346777 0.0617877 0.230207
176 0.270182 -0.00376565 -0.283791 -0.145459 0.163604 -0.118323 0.0549531 0.0516635 -0.0951888 -0.351062 -0.286589 0.0682566 -0.167082 -0.184036 0.233384 -0.284613 0.0983064 -0.254824 -0.093568 -0.0628304 0.0983626 -0.0130138 -0.111268 -0.09281 0.229027 0.17697 0.193708 -0.347806 0.24859 0.337485 0.0541464 0.270244
300 0.292544 0.0567132 -0.321756 -0.28117 0.205661 -0.167803 0.0405764 0.127924 -0.208603 -0.32859 -0.295171 0.100651 -0.303344 -0.244842 0.250344 -0.420706 0.0605949 -0.329985 -0.100154 -0.0108297 0.0618819 0.0177209 -0.0624036 -0.0616284 0.288194 0.192278 0.09279 -0.488867 0.233979 0.400833 0.14384 0.251913
129 0.388683 0.010982 -0.284343 -0.187084 0.165017 -0.166526 0.075501 0.0580097 -0.136996 -0.344526 -0.267876 0.0792493 -0.211753 -0.225555 0.212737 -0.352319 0.0941615 -0.279009 -0.09726 -0.0463669 0.0825951 -0.037202 -0.102608 -0.0986382 0.185654 0.166788 0.180404 -0.426947 0.266979 0.331151 0.0732365 0.291056
97 0.252769 -0.0582483 -0.2993 -0.221498 0.137479 -0.174676 0.136464 0.0743897 -0.231178 -0.365214 -0.298829 0.140484 -0.196725 -0.310909 0.212599 -0.327902 0.166371 -0.361391 -0.13031 0.0121973 0.0573386 -0.0837897 -0.0667041 -0.0253342 0.196652 0.124816 0.364294 -0.431251 0.266529 0.527472 0.0246899 0.292637
193 0.280765 0.02007 -0.226741 -0.130183 0.193624 -0.135533 0.10779 0.149815 -0.172938 -0.361495 -0.241573 0.208983 -0.275848 -0.36177 0.306999 -0.254315 0.0149726 -0.297293 -0.126722 -0.0729522 0.0278731 -0.12155 -0.0727759 0.0187284 0.328674 0.0437542 0.363294 -0.474189 0.385868 0.643358 0.028032 0.399472
112 0.374634 -0.0224069 -0.408596 -0.142193 0.136392 -0.206173 0.0733326 -0.0508949 -0.0750109 -0.391133 -0.397958 0.123926 -0.0833311 -0.258142 0.224738 -0.276587 0.142922 -0.301809 -0.186939 -0.053617 0.162615 -0.0545968 -0.177454 -0.0863962 0.295936 0.130115 0.471611 -0.408864 0.383436 0.543236 -0.0665577 0.314211
116 0.391113 -0.0939555 -0.542125 -0.286554 0.0540513 -0.168269 0.129016 -0.242365 -0.289192 -0.331456 -0.511772 0.0138055 -0.156014 -0.201337 0.240413 -0.327668 0.239258 -0.381751 -0.147465 -0.0483864 -0.00127953 -0.0418447 -0.263534 -0.0655377 0.0947358 0.133561 0.409315 -0.419036 0.420901 0.58379 0.0598886 0.222282
40 0.346989 -0.0276105 -0.338043 -0.250643 0.177256 -0.12836 0.100763 0.0619278 -0.173746 -0.362696 -0.322439 0.0730121 -0.220769 -0.233389 0.258486 -0.34929 0.114742 -0.275018 -0.116565 -0.0633561 0.0823964 -0.0580268 -0.137842 -0.0999388 0.221722 0.20573 0.205227 -0.464516 0.263555 0.454247 0.0800283 0.28997
488 0.349219 -0.0275378 -0.280873 -0.230328 0.146138 -0.138118 0.0629352 0.0869773 -0.160859 -0.366307 -0.282603 0.0810197 -0.192083 -0.201712 0.257734 -0.303509 0.0844259 -0.234651 -0.121233 -0.0495811 0.0718232 -0.0538643 -0.12788 -0.0851512 0.192387 0.211129 0.186954 -0.47302 0.234628 0.416711 0.109347 0.283231
663 0.406952 -0.248893 -0.380207 -0.312277 0.0736383 -0.0626726 0.170151 0.178629 -0.0839671 -0.374728 -0.126452 0.031004 -0.271618 -0.133934 0.292162 -0.200328 0.170971 -0.112178 -0.164426 -0.233567 0.0768642 -0.181033 -0.205766 -0.145807 0.228427 0.419343 0.304116 -0.637892 0.0633919 0.675261 0.228202 0.369269
