668 32
805 0.972377 0.267655 0.779273 0.422082 0.21594 0.0165313 0.0193953 0.432965 -0.410879 0.366466 0.894498 -0.261613 0.123774 0.124854 0.241252 -0.0633763 0.0683354 0.111626 -0.497472 0.714729 -0.354704 0.134133 -0.184228 0.108945 -0.505349 0.0654778 -0.767534 -0.972646 0.655369 -0.00211762 0.00946181 0.930748
566 0.614974 0.280777 0.337078 0.163036 0.169111 0.23278 -0.130712 0.211469 -0.461554 0.136881 0.362559 0.052993 0.0415854 -0.141212 -0.0133716 -0.0399646 0.00982698 -0.195163 -0.436155 0.465842 0.0246774 0.117547 -0.35477 0.189448 -0.302912 0.100377 -0.31588 -0.85765 0.500843 -0.129738 -0.0907214 0.870236
452 0.630327 0.144485 0.385333 -0.139927 0.119826 0.325015 -0.131904 0.174371 -0.646601 -0.174183 0.251162 -0.00810346 -0.0578457 -0.00872573 -0.10803 -0.203997 0.12155 -0.043286 -0.250181 0.503377 0.349446 0.33425 -0.500365 0.585815 -0.274486 -0.0239169 -0.338633 -0.751487 0.121735 -0.016421 -0.12819 0.985771
32 0.576187 0.224029 0.339188 -0.015543 0.0791974 0.288997 -0.0881326 0.112881 -0.583287 -0.0618759 0.154833 0.0299226 -0.13075 -0.0369669 -0.101997 -0.166943 0.0340203 0.000919384 -0.216593 0.398194 0.325384 0.2344 -0.422951 0.553133 -0.294018 -0.0110789 -0.230514 -0.702185 0.204382 -0.0798074 0.0447526 0.904895
230 0.456351 0.328219 0.0224478 0.148631 0.0617023 0.142637 -0.125615 0.00970456 -0.400942 0.0293922 0.147184 0.144825 0.0635749 -0.33022 -0.339267 -0.0363948 -0.0757113 -0.394826 -0.439116 0.341719 0.309974 0.264847 -0.250477 0.325867 -0.378039 0.16732 -0.143047 -0.718603 0.534003 -0.244315 -0.0852644 0.66303
303 0.549 0.166406 0.0789042 0.0755126 0.0704922 0.148879 -0.0798417 0.111446 -0.421139 -0.0855988 0.192199 -0.0942632 0.0438534 -0.233614 -0.186036 -0.112808 0.0842882 -0.280604 -0.300699 0.433954 0.185285 0.328808 -0.312884 0.294026 -0.373704 0.0934331 -0.279999 -0.750738 0.247757 -0.134233 -0.229673 0.760317
529 0.471634 0.131513 0.0381126 -0.00750824 0.0705588 0.154011 -0.0902921 0.0724266 -0.444322 -0.0623157 0.0985439 -0.0131564 0.0443696 -0.211324 -0.276972 -0.0975653 0.102903 -0.258302 -0.276148 0.364316 0.325415 0.357667 -0.292551 0.353905 -0.320599 0.0744407 -0.28498 -0.633007 0.164002 -0.107583 -0.227811 0.653098
513 0.463182 0.27091 0.0909088 0.226041 0.144002 0.102948 -0.064883 0.118263 -0.329439 0.018495 0.316792 0.0555182 0.144596 -0.286344 -0.221316 -0.0885633 0.0173094 -0.271399 -0.417717 0.386333 0.215746 0.267263 -0.269524 0.250639 -0.440539 0.194465 -0.234095 -0.745243 0.437209 -0.178706 -0.0740493 0.683378
628 0.450718 0.170615 0.133207 -0.053943 0.171392 0.164041 -0.149972 0.0766153 -0.499331 -0.0810148 0.211138 0.10832 0.139942 -0.221825 -0.26644 -0.090104 0.0461716 -0.335111 -0.445775 0.385887 0.409135 0.382131 -0.400566 0.33519 -0.255353 0.118114 -0.334415 -0.71638 0.306683 -0.115927 -0.28253 0.706683
692 0.502397 0.217725 0.123328 0.0171029 0.0693269 0.204634 -0.0657851 0.150578 -0.401863 -0.227312 0.263289 0.054166 0.075493 -0.216915 -0.253749 -0.148014 0.0508677 -0.182379 -0.313084 0.376877 0.31081 0.380133 -0.338056 0.472425 -0.369337 0.0777789 -0.230886 -0.658576 0.261183 -0.110613 -0.112591 0.720853
412 0.512811 0.337122 0.101119 0.107302 0.104364 0.144963 -0.137804 0.105811 -0.393962 0.0237869 0.330804 0.153001 0.16073 -0.332715 -0.250157 -0.0564259 -0.00929504 -0.363208 -0.50668 0.412629 0.210868 0.24323 -0.315977 0.252276 -0.358668 0.177016 -0.254906 -0.782065 0.559904 -0.150199 -0.186948 0.678432
119 0.507724 0.235754 0.114325 0.0351431 0.0237377 0.213159 -0.0848471 0.0564124 -0.427776 -0.048741 0.131644 0.0208203 -0.0427562 -0.243671 -0.179256 -0.0812442 0.0457971 -0.226633 -0.27859 0.368128 0.201865 0.195437 -0.276083 0.315314 -0.284196 0.0474397 -0.17808 -0.674753 0.306353 -0.161149 -0.129995 0.720882
332 0.427939 0.3074 0.0543671 0.340485 0.121287 0.080649 -0.074534 0.096175 -0.219997 0.0300597 0.268545 0.0740446 0.143853 -0.308388 -0.200122 -0.0584322 -0.0360924 -0.272295 -0.378125 0.316251 0.138117 0.19853 -0.241564 0.218693 -0.472007 0.21393 -0.122186 -0.727857 0.485443 -0.214985 0.0298881 0.670385
479 0.516857 0.227539 -0.015501 0.257061 0.0174768 0.113674 -0.0523467 0.112407 -0.321404 -0.00604141 0.150253 -0.080089 0.075803 -0.385764 -0.214879 -0.0571199 0.055495 -0.365432 -0.325775 0.363325 0.0595683 0.248717 -0.265674 0.209106 -0.42405 0.180449 -0.187702 -0.839066 0.384762 -0.280472 -0.177955 0.726427
563 0.643134 0.212056 0.11781 0.00547427 -0.0381012 0.21873 -0.0816124 0.196242 -0.449424 -0.223486 0.269066 -0.0797597 0.0947665 -0.310588 -0.199604 -0.149276 0.127549 -0.305141 -0.330674 0.504975 0.142144 0.375762 -0.31942 0.368426 -0.37938 0.0785129 -0.289721 -0.810058 0.300752 -0.146886 -0.314018 0.813464
643 0.479183 0.326043 0.0864916 0.188785 0.0617039 0.145748 -0.0742386 0.102057 -0.311623 -0.0537903 0.277855 0.110159 0.104898 -0.313437 -0.247504 -0.105724 0.0220117 -0.234879 -0.378167 0.397494 0.217815 0.253595 -0.259512 0.308761 -0.429011 0.157575 -0.132825 -0.726014 0.47201 -0.155575 -0.0470143 0.711977
108 0.486907 0.357932 0.218758 0.231541 0.215818 0.136798 -0.0899651 0.14418 -0.291195 0.0655432 0.413702 0.180873 0.173152 -0.233688 -0.166462 -0.0570867 -0.0324532 -0.189523 -0.4658 0.384273 0.156999 0.170165 -0.267782 0.25887 -0.386503 0.1889 -0.187348 -0.681273 0.546996 -0.125105 0.0490886 0.660862
800 0.339176 -0.165522 -0.324447 0.183092 0.531959 -0.367976 -0.189017 0.227131 -0.320702 -0.110668 0.249976 -0.240073 0.702894 -0.405703 -0.642053 -0.023038 0.193067 -0.910918 -0.624592 0.386873 0.464963 0.966395 -0.266511 0.189011 -0.565704 0.483117 -0.664427 -0.684939 0.189787 -0.173461 -0.714184 0.231636
305 0.456758 0.198105 0.0928435 0.0557467 0.0533439 0.171816 -0.0698674 0.0700291 -0.405948 -0.0993529 0.130841 0.0204538 0.0101918 -0.199874 -0.245519 -0.123424 0.0520567 -0.180332 -0.287069 0.334744 0.35132 0.333483 -0.291739 0.407861 -0.338602 0.103143 -0.223871 -0.655723 0.246175 -0.154376 -0.0778487 0.691804
716 0.51495 0.227438 0.107944 0.0820853 0.0383573 0.213388 -0.0688972 0.0840261 -0.416438 -0.143459 0.173315 0.0109547 0.0575146 -0.274494 -0.234922 -0.119479 0.0515157 -0.282325 -0.314809 0.358987 0.200448 0.292537 -0.319424 0.352062 -0.325835 0.127923 -0.176579 -0.718887 0.312557 -0.179811 -0.122201 0.752221
530 0.477856 0.252739 0.0831914 0.222284 0.193221 0.102452 -0.1184 0.0658352 -0.386079 0.0351676 0.245549 0.0768766 0.153691 -0.272037 -0.267876 -0.0609884 -0.0148145 -0.364464 -0.446852 0.373296 0.291126 0.310252 -0.322668 0.257033 -0.441602 0.219903 -0.253342 -0.79913 0.457491 -0.227002 -0.0954611 0.714942
99 0.404205 0.234564 0.109705 0.123846 0.158128 0.137719 -0.118808 0.0549209 -0.401967 0.0662182 0.211544 0.109026 0.0994213 -0.177945 -0.224494 -0.0448221 -0.0282702 -0.282926 -0.402495 0.319056 0.29437 0.246389 -0.325231 0.245966 -0.302798 0.188534 -0.224533 -0.666298 0.419203 -0.176769 -0.0787553 0.647709
74 0.551199 0.226936 0.0247185 -0.000241142 -0.0440118 0.174282 -0.0991867 0.133347 -0.397707 -0.149382 0.257214 -0.00887458 0.122537 -0.377834 -0.230124 -0.0760439 0.100565 -0.436819 -0.411406 0.453304 0.110881 0.32552 -0.273715 0.183493 -0.289445 0.104239 -0.307041 -0.752807 0.401258 -0.175358 -0.395909 0.651603
480 0.532991 0.321952 -0.00446014 0.217083 -0.010895 0.165295 -0.0679155 0.084851 -0.313017 -0.00940791 0.181598 0.0194386 0.0739311 -0.402761 -0.240809 -0.0453671 0.0304987 -0.370313 -0.375457 0.396513 0.0674776 0.202015 -0.217131 0.192448 -0.401513 0.155919 -0.114838 -0.765092 0.508056 -0.231447 -0.131252 0.685256
243 0.493546 0.151363 -0.0166886 -0.0929287 -0.108505 0.216052 -0.0650326 0.0707741 -0.428849 -0.320009 0.0614821 -0.0737456 -0.0210822 -0.286176 -0.317073 -0.193209 0.0843257 -0.224071 -0.188495 0.365686 0.364802 0.464371 -0.279255 0.516718 -0.363686 0.0244955 -0.21308 -0.658662 0.120076 -0.131965 -0.217079 0.712289
182 0.493682 0.254094 -0.151029 0.178794 -0.103522 0.124022 -0.026332 -0.00361482 -0.331774 -0.156866 -0.0170389 -0.0605381 0.0168934 -0.444714 -0.3544 -0.0988438 0.035456 -0.359195 -0.23373 0.302532 0.266075 0.361315 -0.207573 0.369063 -0.49318 0.134058 -0.122069 -0.731037 0.267007 -0.262268 -0.149448 0.668053
422 0.422178 0.191518 -0.151877 0.049258 -0.065944 0.118523 -0.0824876 -0.0688776 -0.396183 -0.232483 -0.0491574 -0.019648 0.000594992 -0.381264 -0.481271 -0.139791 0.0178371 -0.331655 -0.252004 0.286471 0.502307 0.476293 -0.217868 0.518191 -0.463078 0.105968 -0.133889 -0.623354 0.195531 -0.239632 -0.151264 0.623627
8 0.455415 0.364718 0.0111679 0.215694 0.0599842 0.151541 -0.0562012 -0.0113353 -0.338608 -0.0653945 0.146321 0.143858 0.0740825 -0.368808 -0.34606 -0.0905508 -0.0460214 -0.290275 -0.385793 0.325319 0.352275 0.280952 -0.272067 0.406064 -0.456149 0.177584 -0.0692147 -0.692851 0.460031 -0.264786 0.0222169 0.712547
432 0.417896 0.305661 -0.0511323 0.065837 0.0487422 0.128537 -0.0795516 -0.0209135 -0.357681 -0.163957 0.154238 0.185605 0.123954 -0.356426 -0.45302 -0.132517 -0.0174639 -0.268424 -0.389645 0.311762 0.512912 0.419879 -0.243199 0.474417 -0.433243 0.167906 -0.13394 -0.596082 0.382776 -0.166616 -0.0699098 0.580345
329 0.447117 0.199487 0.185281 -0.0428511 0.116002 0.166208 -0.12148 0.070929 -0.484105 -0.108571 0.260252 0.056089 0.106183 -0.177743 -0.1954 -0.107698 0.041711 -0.249914 -0.41258 0.406758 0.329426 0.316404 -0.376343 0.328045 -0.249168 0.105034 -0.280046 -0.662779 0.33503 -0.120666 -0.209443 0.693031
478 0.629354 0.311552 0.0933343 0.172104 -0.04229 0.207047 -0.05269 0.212184 -0.330112 -0.111534 0.312948 -0.0875433 0.0900977 -0.409792 -0.126426 -0.0732435 0.105063 -0.340527 -0.378183 0.50218 -0.084526 0.19642 -0.27625 0.166447 -0.398468 0.133858 -0.203935 -0.896796 0.513527 -0.215572 -0.260696 0.816668
519 0.483081 0.352495 0.195882 0.228686 0.189008 0.142034 -0.10104 0.0482756 -0.348972 0.072028 0.28405 0.22094 0.0939157 -0.262048 -0.278987 -0.0854469 -0.0780486 -0.210231 -0.441202 0.346064 0.291429 0.184239 -0.284278 0.365811 -0.438666 0.180456 -0.131084 -0.663281 0.550865 -0.161353 0.136081 0.686981
75 0.351835 0.148189 -0.158988 0.304458 0.0693401 0.0383059 -0.11248 -0.112482 -0.381025 0.120134 -0.120772 -0.0510963 -0.039585 -0.261566 -0.341946 -0.00960081 -0.0359971 -0.428601 -0.296883 0.203041 0.402594 0.345433 -0.236944 0.266988 -0.430816 0.212069 -0.149018 -0.705338 0.254608 -0.347081 -0.0861379 0.641233
39 0.389637 0.135184 -0.158 0.215589 0.0707754 0.0349537 -0.10325 -0.0224853 -0.368247 0.0429849 -0.0181181 -0.0820461 0.0379197 -0.301262 -0.319908 -0.0359779 0.0262509 -0.418139 -0.302063 0.248603 0.353831 0.376405 -0.266234 0.255161 -0.393868 0.20056 -0.203388 -0.709181 0.249892 -0.305755 -0.219836 0.607366
658 0.539649 0.160148 0.297184 -0.0449549 0.147247 0.21941 -0.15197 0.0821365 -0.580767 0.0554829 0.185658 0.0100074 -0.00577239 -0.0808194 -0.142904 -0.0506631 0.0334999 -0.220995 -0.39277 0.426029 0.273729 0.230673 -0.42523 0.33052 -0.203113 0.0593857 -0.326122 -0.722591 0.298582 -0.114722 -0.199994 0.8223
645 0.428263 0.286017 0.204353 0.1249 0.194394 0.175763 -0.12461 0.0989072 -0.404587 -0.0250497 0.318162 0.196551 0.135769 -0.211088 -0.193734 -0.0664104 -0.0191904 -0.184907 -0.441441 0.361986 0.298961 0.247848 -0.350298 0.336341 -0.343501 0.165048 -0.198482 -0.679539 0.412474 -0.10693 -0.0496042 0.70622
104 0.538923 0.220196 0.205039 -0.0534865 0.0399498 0.225026 -0.0992311 0.142318 -0.483222 -0.136174 0.267317 0.0132099 0.102226 -0.243012 -0.180854 -0.091427 0.0459141 -0.311747 -0.411922 0.465803 0.177264 0.285766 -0.37538 0.308902 -0.243274 0.0653064 -0.317029 -0.722879 0.371362 -0.111283 -0.282736 0.731352
73 0.418258 0.137333 0.335962 0.134708 0.334837 0.123015 -0.186758 0.0517746 -0.570091 0.295958 0.186612 0.064999 -0.00109973 0.0758966 -0.0771674 -0.00364371 -0.0256765 -0.200156 -0.434666 0.352326 0.402819 0.225554 -0.442668 0.276453 -0.224952 0.154605 -0.382588 -0.728012 0.3297 -0.129412 -0.0345784 0.788104
81 0.385542 0.119422 -0.170424 0.360067 0.125898 -0.0142178 -0.0971887 -0.0746983 -0.349227 0.156553 -0.0865765 -0.118953 0.0126611 -0.284595 -0.305603 -0.00392118 -0.00155135 -0.424152 -0.306283 0.207625 0.371851 0.353378 -0.252346 0.232277 -0.494759 0.253694 -0.200638 -0.788714 0.25254 -0.361655 -0.0848048 0.679714
301 0.56624 0.332399 0.159654 0.114642 0.0424844 0.207447 -0.104627 0.0830943 -0.403621 -0.000772358 0.234671 0.0847158 0.0531045 -0.291889 -0.193953 -0.0821958 0.0152227 -0.244182 -0.399412 0.418754 0.195138 0.206302 -0.299745 0.296723 -0.341518 0.0979434 -0.207692 -0.736641 0.478141 -0.157773 -0.0936395 0.728123
18 0.501743 0.262831 0.00556113 0.238495 -0.0439414 0.129922 -0.0460148 0.122763 -0.304316 -0.0187995 0.195802 -0.102968 0.0798541 -0.398973 -0.1298 -0.0565332 0.043447 -0.418919 -0.352432 0.406938 -0.0514231 0.185304 -0.245812 0.102831 -0.366834 0.150967 -0.157062 -0.822187 0.468092 -0.270325 -0.232206 0.707462
411 0.391495 0.313825 -0.138402 0.28748 0.0397342 0.074832 -0.0461098 -0.0525811 -0.222743 -0.110736 0.104901 0.138573 0.0678465 -0.407735 -0.461968 -0.147143 -0.0576593 -0.251094 -0.296218 0.223534 0.436246 0.385929 -0.164087 0.487847 -0.583812 0.203395 -0.0330529 -0.621593 0.360455 -0.237054 0.126307 0.578018
550 0.389806 0.308246 0.00472626 0.126882 0.108088 0.0899355 -0.0541163 0.0100095 -0.30156 -0.215177 0.247814 0.211753 0.168385 -0.351045 -0.453753 -0.16624 -0.0296348 -0.19318 -0.372449 0.301204 0.511256 0.416681 -0.246145 0.516742 -0.493978 0.160619 -0.112139 -0.571258 0.354526 -0.139214 0.055624 0.546181
318 0.589846 0.175393 0.00714682 -0.0401559 -0.115189 0.207375 -0.0411734 0.149614 -0.418677 -0.28887 0.181342 -0.130537 0.0721095 -0.387823 -0.252718 -0.118742 0.138966 -0.35598 -0.29205 0.460934 0.113729 0.372426 -0.266032 0.322458 -0.347721 0.0556435 -0.277341 -0.758308 0.248036 -0.157961 -0.406549 0.724554
321 0.295061 0.157682 -0.042372 0.22389 0.173915 0.0683519 -0.129394 -0.177931 -0.432327 0.157526 -0.124428 0.0746082 -0.0657225 -0.144194 -0.342892 -0.0381039 -0.0776081 -0.297796 -0.288347 0.175166 0.568599 0.304143 -0.312037 0.378504 -0.395665 0.222965 -0.0954188 -0.634298 0.231559 -0.286348 0.075048 0.651208
152 0.410801 0.316175 -0.108913 0.176459 0.00605652 0.11592 -0.0379029 -0.0062017 -0.265986 -0.1902 0.118628 0.144735 0.0763438 -0.386237 -0.447104 -0.146869 -0.00821348 -0.196114 -0.265751 0.257998 0.446453 0.380836 -0.202121 0.501984 -0.531518 0.146169 -0.0399647 -0.580619 0.319331 -0.187557 0.0741665 0.571757
684 0.431107 0.140963 -0.124364 0.249463 0.0980016 0.0343096 -0.126111 -0.0200526 -0.389198 0.0471025 -0.0368704 -0.0784957 0.0583537 -0.300022 -0.369011 -0.0321251 0.0185126 -0.413506 -0.310233 0.270986 0.387151 0.391447 -0.259697 0.332132 -0.476577 0.214417 -0.223676 -0.786103 0.257575 -0.296264 -0.137273 0.68372
26 0.428274 0.142764 -0.14218 0.261218 0.0920267 0.00502813 -0.0961949 0.0196889 -0.333289 0.0148681 0.0508662 -0.0650421 0.124529 -0.350169 -0.327736 -0.0334978 0.0432581 -0.471326 -0.38167 0.298391 0.327219 0.407484 -0.256976 0.23541 -0.456158 0.239179 -0.24338 -0.763482 0.29304 -0.2687 -0.202539 0.617581
679 0.428845 0.290676 -0.084024 0.258284 -0.0138663 0.095352 -0.0677214 -0.0423229 -0.330505 0.00650032 0.0553276 0.0252389 0.0361241 -0.383599 -0.330913 -0.0450288 -0.0125871 -0.414867 -0.344782 0.307743 0.273394 0.247339 -0.224252 0.257356 -0.422895 0.194663 -0.111971 -0.729238 0.449268 -0.276854 -0.108277 0.634257
461 0.414745 0.193957 -0.23636 0.235944 -0.0759802 0.0503091 -0.0453475 -0.0564923 -0.278824 -0.0914294 -0.061691 -0.0569914 0.0292853 -0.430894 -0.426736 -0.0863328 -7.94281e-05 -0.408874 -0.238795 0.21952 0.308532 0.373473 -0.154955 0.328628 -0.495947 0.192445 -0.0693802 -0.671664 0.267239 -0.314782 -0.107577 0.581117
51 0.335809 0.121853 -0.0845078 0.202394 0.179047 -0.0126793 -0.109389 -0.00563879 -0.347482 0.072206 0.0665075 -0.0300076 0.130063 -0.237669 -0.325778 -0.0236371 0.0224881 -0.402606 -0.383463 0.237323 0.402371 0.394644 -0.276319 0.245164 -0.397273 0.239326 -0.27344 -0.66374 0.257176 -0.221841 -0.191267 0.559222
197 0.382963 0.148804 0.0291636 0.253854 0.272414 0.0219044 -0.151259 -0.0620456 -0.410886 0.130155 0.0561189 0.0598349 0.0724997 -0.115585 -0.338949 -0.0686515 -0.0279466 -0.244729 -0.344979 0.222614 0.577275 0.420232 -0.339928 0.433247 -0.455622 0.252141 -0.264631 -0.679276 0.247231 -0.203284 0.0385697 0.669631
293 0.392405 0.117075 -0.143512 0.228539 0.173069 -0.0242834 -0.106552 0.0258196 -0.348874 0.0018515 0.130438 -0.03426 0.203835 -0.36067 -0.373313 -0.0184421 0.0370336 -0.487702 -0.416006 0.304478 0.362426 0.455442 -0.248803 0.223376 -0.47216 0.268825 -0.31611 -0.733729 0.299767 -0.227514 -0.274499 0.570564
801 0.516943 0.140982 -0.215367 0.590906 -0.137038 0.0900369 0.0127808 -0.0577507 -0.158409 0.0780406 -0.373776 -0.319136 -0.342317 -0.313243 -0.0569833 -0.0716748 0.0300285 -0.282618 0.162044 0.0296769 -0.11452 -0.0202003 -0.198049 0.187657 -0.569017 0.189739 0.254529 -0.792715 0.0271619 -0.50759 0.287995 0.932003
102 0.388495 0.26268 -0.130402 0.234655 0.0853015 0.020857 -0.100481 0.0145676 -0.302823 -0.0831703 0.117123 0.0643684 0.182091 -0.395262 -0.412597 -0.0648672 -0.0134981 -0.44776 -0.414329 0.305692 0.394175 0.428407 -0.243095 0.331268 -0.462754 0.254881 -0.17401 -0.674654 0.403098 -0.246859 -0.136412 0.569997
370 0.428319 0.209436 -0.0645801 0.225146 -0.0223082 0.168607 -0.0727153 -0.0720787 -0.407966 0.0258377 -0.164369 -0.0553289 -0.163636 -0.222539 -0.287168 -0.0865507 -0.0304672 -0.226705 -0.154155 0.208234 0.350294 0.23945 -0.276964 0.409151 -0.389797 0.0989681 -0.0515669 -0.692032 0.203735 -0.293512 0.0362386 0.759706
206 0.368492 0.0997068 -0.148408 0.31583 0.223332 -0.0692388 -0.154018 -0.0205233 -0.377325 0.144382 0.0385414 -0.0719913 0.168561 -0.303065 -0.343961 0.00726693 0.0139359 -0.521031 -0.435004 0.277956 0.393022 0.434161 -0.280287 0.167726 -0.467254 0.332211 -0.319538 -0.813116 0.318564 -0.314488 -0.250456 0.611883
37 0.46954 0.22842 0.0392874 -0.0338484 -0.0492554 0.225434 -0.0821216 0.0353362 -0.416478 -0.249535 0.10083 0.0263041 0.00333969 -0.262006 -0.330987 -0.15827 0.043205 -0.203982 -0.274235 0.318856 0.39582 0.419096 -0.326278 0.538519 -0.335247 0.0519017 -0.19946 -0.637636 0.209726 -0.133055 -0.139471 0.706662
142 0.540677 0.374567 -0.0782104 0.15041 -0.25115 0.288148 0.00587895 0.0209789 -0.310934 -0.223784 0.00341665 -0.00692848 -0.0989589 -0.483281 -0.325373 -0.138338 -0.0177175 -0.259728 -0.172818 0.308012 0.157709 0.204583 -0.194275 0.417029 -0.427893 0.0554309 0.07332 -0.70538 0.372726 -0.278007 0.00503873 0.740788
511 0.576063 0.196876 0.179006 -0.0356134 0.0789975 0.236897 -0.10977 0.117724 -0.529822 -0.0938904 0.221862 -0.00495634 0.0459205 -0.187531 -0.184541 -0.0961872 0.0846856 -0.30572 -0.392843 0.465892 0.244844 0.320159 -0.406767 0.314007 -0.274358 0.102186 -0.356247 -0.779844 0.31509 -0.128806 -0.278102 0.779354
464 0.364996 0.328563 -0.0591137 0.189556 -0.0535944 0.193902 -0.0246495 -0.11716 -0.324314 -0.124738 -0.0476049 0.148794 -0.122593 -0.323861 -0.396685 -0.137253 -0.0955373 -0.124621 -0.143641 0.189793 0.489898 0.258997 -0.218967 0.572684 -0.447711 0.106945 0.0943751 -0.554601 0.271696 -0.245456 0.215547 0.646278
90 0.512485 0.347314 -0.0931279 0.159348 -0.219835 0.249617 -0.0307338 -0.0449343 -0.35133 -0.182546 -0.036915 0.0235628 -0.148312 -0.433108 -0.309971 -0.145947 -0.0226579 -0.223098 -0.165844 0.30455 0.232457 0.198662 -0.194744 0.446887 -0.410043 0.0384263 0.0575361 -0.683393 0.351481 -0.287599 0.00792934 0.758648
419 0.452572 0.378774 0.104162 0.0699683 -0.0407809 0.260334 -0.0254439 -0.0276944 -0.381435 -0.187664 0.111673 0.202085 -0.0694533 -0.302165 -0.354951 -0.17476 -0.085025 -0.0653281 -0.246365 0.293791 0.426769 0.270083 -0.237441 0.591586 -0.423961 0.0660222 0.0134619 -0.548412 0.344538 -0.129113 0.189759 0.686192
697 0.480708 0.341439 0.134275 0.208473 0.149575 0.154161 -0.104814 0.0757598 -0.373245 0.0406268 0.231261 0.169917 0.0600893 -0.251677 -0.266166 -0.085418 -0.0402643 -0.219132 -0.381049 0.360241 0.303969 0.209127 -0.29634 0.350621 -0.411575 0.181072 -0.130036 -0.704608 0.501165 -0.168757 0.0708849 0.720896
88 0.593472 0.263294 0.00994562 -0.0524094 -0.219335 0.330997 -0.0401598 0.0227995 -0.522656 -0.301834 0.00299348 -0.0376467 -0.119012 -0.383133 -0.344761 -0.198882 0.0637419 -0.2237 -0.212458 0.403335 0.315093 0.352266 -0.294381 0.542723 -0.39243 -0.00598398 -0.0972007 -0.718725 0.248953 -0.212903 -0.166515 0.823584
76 0.510216 0.415057 -0.0372662 0.141944 -0.116785 0.273182 -0.0515821 -0.0162839 -0.350035 -0.173292 0.0281561 0.140558 -0.105246 -0.399679 -0.377566 -0.157678 -0.0510052 -0.177038 -0.212328 0.273566 0.334944 0.245822 -0.217569 0.536406 -0.457044 0.0832851 0.0706622 -0.642297 0.374333 -0.245528 0.124025 0.731565
308 0.446363 0.258896 0.301107 -0.0801054 0.118232 0.248622 -0.131928 0.0810587 -0.528387 -0.103062 0.25479 0.170826 0.04593 -0.109398 -0.18734 -0.114374 -0.0109025 -0.155381 -0.387568 0.378139 0.369925 0.238061 -0.402985 0.426034 -0.200684 0.0741759 -0.22309 -0.634215 0.37185 -0.071738 -0.0740368 0.753719
23 0.573416 0.246359 0.144608 0.254192 0.0957358 0.109967 -0.0810454 0.18737 -0.382122 0.116675 0.264318 -0.0689641 0.100429 -0.265108 -0.0950036 -0.0222209 0.0514076 -0.35101 -0.39359 0.438041 -0.0338717 0.158455 -0.274113 0.0998625 -0.367656 0.166586 -0.278335 -0.882958 0.467576 -0.221388 -0.179718 0.774242
147 0.459684 0.180723 -0.122479 0.356052 0.0609697 0.0395697 -0.0815225 -0.0161423 -0.375476 0.107484 -0.0441221 -0.10947 -0.0136077 -0.292004 -0.273545 -0.0195844 -0.000808866 -0.397283 -0.279898 0.267483 0.230631 0.285373 -0.254096 0.245123 -0.490669 0.231265 -0.147164 -0.840167 0.310409 -0.356328 -0.0716047 0.762777
343 0.402897 0.352888 -0.0621707 0.0679164 -0.11799 0.22863 -0.0552455 -0.119816 -0.38724 -0.166737 -0.0494527 0.176672 -0.108965 -0.35007 -0.461823 -0.180638 -0.0867464 -0.163146 -0.220965 0.25955 0.547048 0.311533 -0.21823 0.636163 -0.417253 0.0698541 0.0265211 -0.554412 0.314826 -0.217314 0.139836 0.649048
93 0.487069 0.252823 -0.0280761 0.245054 -0.0725103 0.193985 -0.0794394 -0.0590238 -0.424418 0.0257421 -0.120712 -0.0605908 -0.206414 -0.24504 -0.25784 -0.0782419 -0.03185 -0.212916 -0.142088 0.228364 0.308783 0.188992 -0.259654 0.409259 -0.407984 0.114403 -0.0119281 -0.728261 0.251106 -0.321832 0.0767181 0.823046
342 0.624127 0.197743 0.00204117 -0.13259 -0.27998 0.320807 -0.0357525 0.100063 -0.460929 -0.366172 0.0287688 -0.141935 -0.112763 -0.364208 -0.224174 -0.176313 0.144698 -0.236708 -0.115475 0.417824 0.113931 0.306891 -0.24329 0.430089 -0.300824 -0.0905156 -0.127 -0.677388 0.153754 -0.13592 -0.301717 0.790179
538 0.314245 0.16645 -0.059702 0.287384 0.240265 -0.0020079 -0.105201 -0.057073 -0.321121 0.0460946 0.054168 0.0988969 0.0877959 -0.177228 -0.391933 -0.077899 -0.0424022 -0.217365 -0.306078 0.193148 0.574468 0.435395 -0.294898 0.475025 -0.514179 0.249431 -0.18214 -0.631885 0.223599 -0.20783 0.117549 0.604332
347 0.414334 0.286688 -0.00332629 0.0594498 -0.0936705 0.237819 -0.0531938 -0.0467487 -0.368953 -0.205926 0.0139346 0.111167 -0.0800411 -0.328302 -0.35435 -0.156251 -0.0320308 -0.170383 -0.196227 0.275986 0.389969 0.286452 -0.233883 0.493159 -0.380219 0.0652672 -0.00316393 -0.539374 0.289744 -0.191025 0.0508065 0.627748
539 0.327099 0.209929 0.100368 0.109609 0.1827 0.154041 -0.141264 -0.160158 -0.532397 0.130025 -0.0639072 0.179966 -0.171833 -0.0475196 -0.310659 -0.0964727 -0.116778 -0.0902807 -0.268198 0.187634 0.66678 0.273785 -0.360962 0.57278 -0.324357 0.130952 -0.107567 -0.585853 0.230497 -0.222369 0.217038 0.739104
556 0.526229 0.280805 0.173211 0.0757143 0.0699909 0.22444 -0.0586155 0.146713 -0.35767 -0.143217 0.279297 0.0948777 0.0674461 -0.237772 -0.224938 -0.109785 0.00425737 -0.168603 -0.323029 0.392094 0.203911 0.276823 -0.282851 0.40752 -0.355586 0.10065 -0.188118 -0.65733 0.36161 -0.106393 -0.0313225 0.696147
582 0.466185 0.383176 0.138831 0.119577 0.108235 0.183838 -0.0978897 0.0756221 -0.362217 0.0162747 0.257957 0.211409 0.111377 -0.313909 -0.260096 -0.0811506 -0.0470995 -0.267548 -0.416502 0.369848 0.248861 0.206756 -0.270871 0.319923 -0.352185 0.144105 -0.1531 -0.653443 0.550399 -0.139719 -0.0389 0.622865
381 0.449582 0.199551 0.166257 -0.00053871 0.0245497 0.263292 -0.0791532 -0.0216412 -0.512492 -0.120856 -0.0333357 0.0422555 -0.179575 -0.0588021 -0.256996 -0.183852 -0.0245349 0.0236497 -0.1183 0.264998 0.535515 0.317482 -0.379359 0.659553 -0.357802 0.0189552 -0.0963141 -0.595552 0.0594726 -0.14768 0.141463 0.846995
475 0.283195 0.285316 -0.16457 0.277959 0.0608309 0.0359214 -0.041963 -0.0832993 -0.211931 -0.0763612 0.0851278 0.157284 0.0915847 -0.370188 -0.436797 -0.122354 -0.0518498 -0.257107 -0.28396 0.216016 0.499288 0.365521 -0.169585 0.438646 -0.528795 0.215025 -0.0450676 -0.571746 0.342667 -0.219479 0.0728076 0.491858
319 0.513527 0.136297 0.0247815 -0.0910544 0.0058313 0.213515 -0.0968909 -0.00267722 -0.541999 -0.166403 -0.0140455 -0.035953 -0.0830708 -0.189502 -0.332617 -0.157887 0.0578701 -0.211723 -0.218556 0.322018 0.483986 0.421447 -0.32233 0.547985 -0.305651 0.019886 -0.26978 -0.620546 0.114108 -0.145028 -0.180259 0.723765
168 0.385621 0.0860394 0.236215 -0.120047 0.204523 0.212816 -0.175127 -0.00172017 -0.590955 -0.00831601 0.100565 0.0828829 -0.00922465 0.0226704 -0.200151 -0.0955138 0.00682838 -0.150327 -0.329965 0.305325 0.551836 0.380062 -0.465448 0.469046 -0.193588 0.06761 -0.344511 -0.619782 0.116497 -0.0737061 -0.119836 0.736469
57 0.390155 0.214158 0.0636323 0.211968 0.15594 0.132497 -0.110644 -0.0577768 -0.444428 0.0220566 0.00253863 0.096273 -0.073999 -0.159019 -0.316875 -0.114372 -0.053161 -0.171649 -0.262155 0.265165 0.549234 0.312069 -0.339363 0.517831 -0.463018 0.172075 -0.110733 -0.699582 0.240064 -0.248775 0.143097 0.784526
177 0.462596 0.319694 -0.156708 0.219244 -0.191523 0.181882 -0.0201479 -0.0354814 -0.313298 -0.153659 -0.0449493 -0.0191566 -0.0934699 -0.428446 -0.355487 -0.142817 -0.0305737 -0.287011 -0.184997 0.263086 0.250745 0.256858 -0.174304 0.422632 -0.467027 0.105363 0.0263446 -0.708379 0.320993 -0.332039 0.00989226 0.707729
429 0.429432 0.218664 0.0248984 -0.150827 -0.0938319 0.248985 -0.0885806 -0.0329319 -0.480559 -0.283148 0.0320953 0.0764838 -0.0406922 -0.28401 -0.374084 -0.156332 0.0226554 -0.250233 -0.265145 0.297055 0.487872 0.40343 -0.309904 0.535093 -0.26832 0.0284555 -0.165253 -0.545472 0.196034 -0.130532 -0.201873 0.660677
497 0.451311 0.283289 0.063856 0.247361 0.0914861 0.0792432 -0.0917379 0.0791988 -0.29237 0.0130996 0.279393 0.0762207 0.176919 -0.355591 -0.275087 -0.0645951 0.000415162 -0.343566 -0.469506 0.380742 0.191275 0.26849 -0.257002 0.217901 -0.427411 0.226379 -0.193029 -0.735885 0.50533 -0.219878 -0.121152 0.637489
425 0.511328 0.360076 -0.0175865 0.173475 -0.164282 0.25012 -0.017458 -0.0221801 -0.366837 -0.129211 0.0105961 0.0555312 -0.10921 -0.38081 -0.264711 -0.135521 -0.0449583 -0.216125 -0.208495 0.315346 0.200673 0.187829 -0.2063 0.41108 -0.393196 0.0517092 0.0339701 -0.675968 0.375222 -0.263828 0.0491218 0.765086
531 0.458643 0.277283 0.18367 0.225223 0.154264 0.172179 -0.085644 0.0100949 -0.389253 0.0773478 0.107337 0.114612 -0.0574504 -0.114745 -0.191112 -0.105741 -0.0499391 -0.0474181 -0.25213 0.262699 0.327374 0.171514 -0.310733 0.423496 -0.398404 0.10158 -0.0841966 -0.627238 0.320097 -0.175255 0.23115 0.775801
507 0.473403 0.377604 -0.0699037 0.1441 -0.132536 0.244309 -0.035668 -0.0249139 -0.340505 -0.167126 0.0224319 0.138289 -0.0926213 -0.400402 -0.371281 -0.154287 -0.0398273 -0.202789 -0.226959 0.293532 0.333919 0.237855 -0.219557 0.48568 -0.446838 0.0974206 0.0581052 -0.652198 0.382866 -0.238004 0.09018 0.690918
145 0.513465 0.224174 0.111019 -0.00869009 -0.0390389 0.273253 -0.0898636 0.00672171 -0.541227 -0.103232 0.0335041 0.0173006 -0.0780318 -0.255262 -0.211102 -0.113895 0.0298596 -0.245106 -0.274309 0.379075 0.302918 0.255027 -0.365733 0.402835 -0.286807 0.0316865 -0.16862 -0.729341 0.256303 -0.21286 -0.131407 0.831736
144 0.488211 0.295711 0.15522 0.174842 0.118972 0.169589 -0.090114 0.0592171 -0.390556 0.0216714 0.216383 0.12278 0.0454798 -0.248305 -0.254124 -0.117187 -0.0473902 -0.188256 -0.370478 0.367459 0.334095 0.261414 -0.285426 0.391509 -0.414367 0.163051 -0.175738 -0.691995 0.410743 -0.176079 0.0487032 0.74116
141 0.420354 0.185106 -0.0577152 0.213727 0.010783 0.151091 -0.0803879 -0.0846889 -0.422025 0.0520944 -0.108409 -0.0274721 -0.141477 -0.202455 -0.292753 -0.0753621 -0.027995 -0.234528 -0.206491 0.212198 0.389219 0.236516 -0.28578 0.397818 -0.3836 0.148692 -0.0841576 -0.692795 0.201349 -0.285702 0.0678064 0.758657
572 0.375677 0.24973 0.0133003 0.230563 0.109242 0.121651 -0.0995341 -0.108013 -0.424495 0.0673082 -0.0283256 0.130413 -0.09189 -0.153794 -0.353997 -0.0997259 -0.0948196 -0.180862 -0.266226 0.194249 0.540666 0.293952 -0.314533 0.498805 -0.414951 0.151226 -0.0697065 -0.607317 0.281012 -0.247651 0.200434 0.720795
196 0.397351 0.213139 -0.101884 0.250582 -0.00230125 0.10805 -0.0711959 -0.0999167 -0.358989 0.0810466 -0.125616 -0.0308858 -0.120133 -0.267774 -0.277611 -0.0447085 -0.0449569 -0.286466 -0.181506 0.184469 0.323797 0.237581 -0.208932 0.338877 -0.41988 0.154617 -0.0479244 -0.670564 0.242003 -0.319124 0.0608607 0.68001
143 0.455482 0.405474 0.0925 0.0649797 -0.086894 0.281402 -0.0334727 0.0160388 -0.315471 -0.216391 0.180591 0.187892 -0.0409145 -0.342141 -0.315649 -0.158779 -0.04157 -0.0854856 -0.250037 0.343796 0.300369 0.211479 -0.235934 0.50861 -0.411355 0.0289894 0.0247713 -0.603192 0.391538 -0.158161 0.104565 0.681883
474 0.314815 0.222012 -0.0485039 0.276124 0.210823 0.0209424 -0.127592 -0.104058 -0.344178 0.0399351 0.0501009 0.159909 0.0679976 -0.213579 -0.433445 -0.106948 -0.0831069 -0.231246 -0.333464 0.183498 0.646435 0.4244 -0.305734 0.509202 -0.513272 0.240251 -0.128251 -0.605746 0.28002 -0.238114 0.134942 0.625985
11 0.444401 0.183005 -0.0423755 0.202512 0.0151356 0.155118 -0.0893905 -0.0346526 -0.427341 0.0573962 -0.124128 -0.0790928 -0.139219 -0.211995 -0.245318 -0.0870267 0.00376941 -0.238193 -0.179453 0.238173 0.325536 0.25936 -0.27511 0.375782 -0.376763 0.102684 -0.112095 -0.706745 0.189624 -0.293224 -0.00437294 0.758657
133 0.430815 0.343009 -0.13398 0.224198 -0.109956 0.155785 -0.0341231 0.00507745 -0.269153 -0.128578 0.050974 0.070622 -0.00639505 -0.45493 -0.323149 -0.127203 -0.00628845 -0.276733 -0.261328 0.278656 0.250636 0.26107 -0.194649 0.360421 -0.456628 0.113152 -0.0126911 -0.689316 0.365513 -0.260077 -0.0167616 0.653821
606 0.465691 0.125231 0.129556 -0.0686893 0.0488151 0.203419 -0.0975038 0.031751 -0.531842 -0.206925 0.0967553 -0.00301155 -0.0495553 -0.1301 -0.28715 -0.187684 0.0854141 -0.0861393 -0.182827 0.358544 0.485767 0.458024 -0.350845 0.598707 -0.335383 0.0113394 -0.280213 -0.6513 0.0678201 -0.0623215 -0.110406 0.73024
304 0.532079 0.301236 0.0641208 0.211145 0.0555226 0.144527 -0.0670154 0.0750088 -0.347304 -0.0396337 0.207256 0.0422141 0.0491622 -0.344325 -0.245388 -0.0830386 0.0183473 -0.290765 -0.347841 0.384242 0.168949 0.260526 -0.252225 0.319388 -0.422247 0.176542 -0.134899 -0.764243 0.455456 -0.214003 -0.0486967 0.744869
352 0.580629 0.458549 0.222203 0.111749 0.0403096 0.314066 -0.0774147 0.0913126 -0.421458 -0.0377737 0.278344 0.216855 -0.0225948 -0.270508 -0.20293 -0.132016 -0.0631744 -0.0975331 -0.34043 0.408724 0.206546 0.113783 -0.285306 0.443974 -0.365002 0.0756285 -0.0520862 -0.707412 0.545879 -0.133185 0.144346 0.785878
117 0.546169 0.184219 0.0905808 -0.187783 -0.14154 0.302662 -0.1024 0.0888337 -0.513285 -0.272982 0.0726924 -0.0600429 -0.0813519 -0.272132 -0.212699 -0.140992 0.12617 -0.209893 -0.202631 0.437961 0.232781 0.322047 -0.315317 0.43994 -0.20322 -0.0418179 -0.229124 -0.61804 0.147742 -0.0710137 -0.30451 0.722775
687 0.514362 0.339638 -0.132556 0.198042 -0.200917 0.218304 0.00216882 -0.0113644 -0.286313 -0.198571 0.00667236 0.0149212 -0.0954089 -0.473613 -0.311357 -0.15716 -0.00336329 -0.240451 -0.183094 0.298984 0.166724 0.204366 -0.18507 0.40528 -0.492491 0.0674797 0.0702997 -0.691006 0.36018 -0.282137 0.0162427 0.729288
708 0.444336 0.202744 0.216645 0.160388 0.313164 0.0634815 -0.161113 0.11146 -0.443254 0.183752 0.3121 0.120147 0.173482 -0.124912 -0.168917 -0.0187463 -0.0094264 -0.26365 -0.508156 0.399904 0.318766 0.281284 -0.352036 0.21427 -0.314335 0.202542 -0.395354 -0.739992 0.452432 -0.127353 -0.115479 0.67034
335 0.535957 0.260959 -0.0794674 0.204826 -0.123222 0.199462 -0.0627358 -0.00986437 -0.407504 -0.118975 -0.0650349 -0.0771792 -0.109919 -0.393949 -0.300718 -0.139068 0.0214701 -0.283015 -0.188663 0.351552 0.264636 0.290752 -0.276417 0.401825 -0.483495 0.0814354 -0.0405142 -0.766775 0.266733 -0.304272 -0.0528311 0.827736
302 0.521502 0.267559 -0.139446 0.135842 -0.0912156 0.138705 -0.0450045 0.052981 -0.331077 -0.195352 0.108989 0.000153025 0.0880388 -0.46513 -0.396245 -0.12138 0.063085 -0.382125 -0.32855 0.370319 0.226844 0.388965 -0.187761 0.344065 -0.479287 0.13666 -0.155425 -0.737938 0.365274 -0.225772 -0.18427 0.623988
704 0.432141 0.131153 -0.229984 0.35504 0.0496077 0.00858642 -0.0921897 -0.0475132 -0.36248 0.070726 -0.102846 -0.143874 0.0122902 -0.35134 -0.353643 -0.0272917 0.0086357 -0.470386 -0.283769 0.229748 0.30557 0.367436 -0.241562 0.274128 -0.494517 0.235082 -0.145468 -0.810224 0.260595 -0.377321 -0.136393 0.696897
535 0.395542 0.219545 0.0799462 0.142625 0.149688 0.179338 -0.0885169 -0.0831344 -0.448873 -0.00493786 -0.0223503 0.147451 -0.116756 -0.116721 -0.319352 -0.147094 -0.0635095 -0.0516229 -0.191695 0.225442 0.582236 0.33993 -0.325921 0.573456 -0.432047 0.117769 -0.0853449 -0.608976 0.148198 -0.170168 0.22353 0.773672
35 0.520782 0.338932 -0.149582 0.0423943 -0.312026 0.30759 0.0205151 -0.0117012 -0.33611 -0.310921 -0.100166 -0.00848071 -0.197395 -0.465952 -0.333525 -0.186941 0.0341921 -0.203513 -0.0423555 0.269471 0.194969 0.241005 -0.199792 0.50677 -0.382469 -0.0217962 0.123624 -0.61005 0.215604 -0.27387 -0.00824537 0.747251
693 0.538923 0.233597 0.128483 -0.0576871 -0.0442478 0.273189 -0.0916473 0.0839071 -0.476115 -0.180822 0.162394 -0.00326598 -0.0208571 -0.229279 -0.163471 -0.123598 0.0822689 -0.222562 -0.31028 0.41326 0.25113 0.280936 -0.343777 0.359624 -0.254436 0.0424416 -0.238431 -0.737187 0.281438 -0.119243 -0.226945 0.761144
16 0.34448 0.285861 -0.184235 0.154432 0.00342534 0.11511 -0.0749237 -0.138888 -0.349809 -0.131364 -0.0701795 0.134756 0.0303785 -0.388913 -0.530077 -0.0898629 -0.0750082 -0.346166 -0.283863 0.197057 0.619759 0.430941 -0.220643 0.542765 -0.491283 0.176783 -0.0220407 -0.584054 0.277784 -0.279621 0.0484413 0.59169
698 0.442852 0.130799 -0.135685 0.188535 0.0176325 0.100559 -0.0862706 -0.0105237 -0.382243 0.00463899 -0.0537133 -0.0911175 0.00805661 -0.30494 -0.286204 -0.0691538 0.0361713 -0.399171 -0.289437 0.290906 0.298693 0.345845 -0.277821 0.294394 -0.426501 0.162521 -0.20117 -0.758411 0.232587 -0.28409 -0.197813 0.696294
20 0.668352 0.309373 0.238167 -0.00830277 -0.12257 0.335935 -0.0490512 0.165226 -0.426925 -0.155731 0.205228 -0.0322551 -0.067379 -0.248069 -0.0675298 -0.119702 0.0561912 -0.216374 -0.26157 0.434815 -0.0844593 0.092886 -0.296831 0.306816 -0.232475 -0.000757395 -0.115646 -0.749336 0.423686 -0.168735 -0.112233 0.859901
297 0.51462 0.387384 -0.152889 0.193283 -0.229743 0.266667 -0.0083959 -0.0610568 -0.333964 -0.173454 -0.0946067 0.0240451 -0.168787 -0.470714 -0.370193 -0.160015 -0.0217408 -0.238565 -0.151513 0.26486 0.228896 0.185328 -0.171162 0.437467 -0.485094 0.0748055 0.137821 -0.677695 0.365675 -0.329127 0.0745577 0.733596
690 0.44386 0.260366 0.123452 0.197165 0.171664 0.135983 -0.115175 0.0460116 -0.379063 0.0589358 0.224428 0.124127 0.0852148 -0.234996 -0.226941 -0.0801995 -0.0123834 -0.235716 -0.39027 0.355928 0.323857 0.238732 -0.3242 0.316225 -0.395358 0.18946 -0.181761 -0.738129 0.399252 -0.175642 -0.0112354 0.723429
502 0.427489 0.240941 -0.16328 0.145183 -0.0597809 0.0862008 -0.034446 0.0233988 -0.296693 -0.218646 0.0984028 -0.0127002 0.112522 -0.452913 -0.405537 -0.132966 0.0551126 -0.366868 -0.290134 0.338894 0.321115 0.432807 -0.187069 0.378035 -0.488715 0.140806 -0.14514 -0.689567 0.28879 -0.21804 -0.183011 0.585904
222 0.606732 0.296873 0.126247 -0.0514179 -0.0968304 0.308256 -0.0849383 0.0746098 -0.482697 -0.221584 0.127782 0.0232639 -0.0358712 -0.339106 -0.227958 -0.130742 0.0340961 -0.288536 -0.303769 0.409449 0.184813 0.245392 -0.295584 0.410192 -0.292861 0.0202473 -0.130986 -0.707074 0.351055 -0.165882 -0.172151 0.813441
19 0.450528 0.122865 -0.151344 0.302891 0.0975504 0.0280048 -0.111779 -0.0239651 -0.412122 0.0895106 -0.0590649 -0.148375 0.0153096 -0.281967 -0.299536 -0.0159473 0.0328919 -0.444019 -0.28435 0.288148 0.315496 0.383267 -0.278796 0.24307 -0.475319 0.211239 -0.26107 -0.818049 0.219386 -0.323146 -0.17677 0.705721
83 0.533082 0.120756 0.0401278 0.0316361 -0.0792439 0.27319 -0.0951333 0.0254296 -0.535944 -0.119593 -0.113521 -0.155406 -0.189658 -0.16832 -0.198015 -0.12362 0.0871691 -0.188486 -0.0941058 0.335225 0.274711 0.304618 -0.339217 0.455842 -0.298614 -0.00343522 -0.155137 -0.718903 0.0782059 -0.228362 -0.0882915 0.838501
395 0.330716 0.214463 0.0868819 0.180907 0.10825 0.161724 -0.116106 -0.0833504 -0.421155 0.0676654 -0.00126726 0.123083 -0.119789 -0.120606 -0.230094 -0.109577 -0.0805782 -0.0982832 -0.23847 0.214376 0.46983 0.216114 -0.321048 0.449883 -0.371993 0.119818 -0.0696837 -0.630922 0.236884 -0.210762 0.179369 0.739361
718 0.525422 0.125631 -0.0490332 -0.0662927 -0.0589047 0.177595 -0.0878744 0.0515362 -0.456714 -0.280544 0.0721493 -0.0847634 0.0475299 -0.313872 -0.38275 -0.180409 0.109156 -0.281654 -0.229725 0.370074 0.395705 0.496484 -0.278478 0.489171 -0.385029 0.0764118 -0.270217 -0.69175 0.0951602 -0.146754 -0.264785 0.68259
802 0.815426 0.653124 -0.226901 0.0425527 -0.470923 0.415378 0.131286 0.354386 0.140282 -0.740118 0.472752 0.229646 0.113911 -0.853401 -0.452361 -0.33938 0.145781 0.0227281 0.00438499 0.393316 -0.246172 0.216882 0.138188 0.544627 -0.59248 -0.0632778 0.149112 -0.529506 0.486733 0.0344476 -0.0313783 0.481989
715 0.440958 0.166964 0.0677263 -0.156716 -0.0373771 0.252007 -0.0704428 0.0622934 -0.471312 -0.367344 0.114139 0.0557996 0.0288654 -0.216563 -0.354937 -0.216184 0.0748762 -0.119426 -0.214583 0.361377 0.511556 0.498048 -0.33129 0.632164 -0.324031 -0.00360046 -0.204133 -0.525692 0.109794 -0.0358112 -0.139717 0.655951
334 0.384938 0.29962 -0.0900433 0.136299 -0.0923463 0.234273 -0.0572285 -0.127995 -0.374827 -0.139122 -0.119931 0.0790877 -0.131031 -0.356132 -0.402217 -0.124061 -0.0839774 -0.219028 -0.181629 0.215445 0.419265 0.268535 -0.246667 0.527896 -0.400923 0.0825937 0.0727715 -0.583275 0.277316 -0.289484 0.111614 0.670939
400 0.530376 0.391886 -0.0368009 0.0513069 -0.207844 0.280062 -0.00580303 0.0428724 -0.316831 -0.310003 0.147935 0.0993149 -0.014992 -0.494726 -0.333864 -0.172914 0.0176666 -0.235318 -0.277122 0.397299 0.16442 0.245501 -0.200654 0.425395 -0.405196 0.0547023 0.0103717 -0.659712 0.416603 -0.172145 -0.105437 0.681684
406 0.48001 0.226209 0.251931 -0.0834358 0.0683834 0.258211 -0.0986739 0.0855225 -0.478967 -0.189149 0.234792 0.0806623 1.02373e-05 -0.132178 -0.187511 -0.149303 0.0226586 -0.0924879 -0.283659 0.375136 0.359021 0.311333 -0.374622 0.486759 -0.272909 0.0388817 -0.208078 -0.601248 0.23603 -0.0630389 -0.032304 0.769109
358 0.39424 0.274336 -0.221922 0.120487 -0.0668818 0.0515947 -0.0571091 0.0521158 -0.199375 -0.219898 0.203205 0.0510453 0.234404 -0.56029 -0.441077 -0.076823 0.047872 -0.483722 -0.420059 0.346495 0.235567 0.442139 -0.138546 0.261954 -0.439888 0.19133 -0.163659 -0.600333 0.443906 -0.181931 -0.302655 0.415994
713 0.47093 0.367581 0.157431 0.127728 0.120305 0.170969 -0.0863249 0.100788 -0.29883 -0.011343 0.355232 0.222553 0.170973 -0.28388 -0.240038 -0.0785314 -0.0428866 -0.206898 -0.448045 0.373749 0.203933 0.207003 -0.234494 0.272109 -0.350123 0.152562 -0.162338 -0.61084 0.535404 -0.10625 -0.0242237 0.563607
528 0.532798 0.520016 0.232997 0.0591724 -0.0297183 0.336865 -0.0664728 0.0505485 -0.39347 -0.0889723 0.269935 0.30804 -0.0320167 -0.303204 -0.256278 -0.149361 -0.123748 -0.130741 -0.376265 0.359244 0.222532 0.0882283 -0.291573 0.440796 -0.317668 0.0747634 0.0128049 -0.654399 0.616157 -0.134396 0.146455 0.765913
149 0.582 0.297579 0.073278 0.150354 0.0194312 0.153295 -0.0779825 0.193703 -0.34233 -0.0447978 0.322959 0.00980762 0.186991 -0.402169 -0.200317 -0.0685036 0.0413401 -0.41894 -0.464306 0.461512 -0.00754286 0.237255 -0.251602 0.147018 -0.375886 0.174007 -0.259231 -0.807533 0.556063 -0.187908 -0.296825 0.680318
146 0.418251 0.299955 -0.0758371 0.300738 0.0549115 0.0779471 -0.0477092 -0.0230498 -0.230849 -0.0606867 0.117934 0.120993 0.0609014 -0.386186 -0.353669 -0.122087 -0.0456395 -0.249773 -0.307638 0.259906 0.353566 0.334649 -0.226667 0.40861 -0.523918 0.196616 -0.065016 -0.651818 0.385543 -0.236867 0.0637128 0.635293
249 0.527341 0.368067 -0.0857357 0.0468181 -0.224891 0.288221 -0.013878 0.0184178 -0.334149 -0.285779 0.0449336 0.0514359 -0.05857 -0.484309 -0.351339 -0.152727 0.00937345 -0.281364 -0.215966 0.32108 0.225824 0.274 -0.181411 0.455578 -0.388134 0.0438955 0.0153784 -0.639361 0.353656 -0.229111 -0.086258 0.692607
110 0.601281 0.289789 0.0334198 0.205628 -0.0373132 0.189584 -0.0397585 0.159994 -0.358053 -0.0621912 0.1935 -0.0917292 0.0525681 -0.363515 -0.154348 -0.0852097 0.0458679 -0.343744 -0.320594 0.399676 -0.0225471 0.218187 -0.207852 0.196186 -0.39544 0.0948679 -0.176585 -0.793329 0.423177 -0.208545 -0.188525 0.761007
509 0.560945 0.355055 -0.104291 0.150342 -0.273051 0.27413 -0.0191276 -0.0305669 -0.349668 -0.19823 -0.073886 -0.0390914 -0.174275 -0.474509 -0.322678 -0.153059 -0.00868885 -0.236879 -0.14233 0.319207 0.160551 0.189808 -0.172186 0.410346 -0.438639 0.0373664 0.0703694 -0.682546 0.325754 -0.285206 -0.00972158 0.730438
610 0.470018 0.312048 -0.187392 0.115165 -0.152073 0.128896 -0.0332113 0.0857663 -0.239871 -0.236582 0.178962 0.00612978 0.202503 -0.60282 -0.38896 -0.0722503 0.0516959 -0.485723 -0.390053 0.407499 0.121701 0.36614 -0.133966 0.185967 -0.428258 0.148789 -0.114186 -0.662422 0.461167 -0.237176 -0.334151 0.491759
581 0.481436 0.290755 0.0432087 -0.0318076 -0.10419 0.298166 -0.0602437 -0.0236454 -0.495217 -0.245488 -0.03583 0.0681072 -0.127037 -0.272236 -0.329627 -0.194215 -0.019639 -0.142459 -0.172224 0.297124 0.423732 0.315555 -0.317425 0.641264 -0.34631 0.00400284 -0.025021 -0.609444 0.202403 -0.18326 0.0414333 0.786403
640 0.541552 0.250567 0.0538831 0.222703 0.108888 0.138165 -0.102028 0.117568 -0.38058 0.0247003 0.241876 -0.0461703 0.108983 -0.338035 -0.209756 -0.047543 0.0252689 -0.383896 -0.397285 0.405421 0.119018 0.265054 -0.287788 0.19544 -0.392049 0.182104 -0.262351 -0.832383 0.442298 -0.23356 -0.228858 0.729773
312 0.424166 0.270439 -0.16171 0.151777 -0.0661331 0.135445 -0.0691259 -0.0313713 -0.304947 -0.131895 -0.00331668 -0.0256948 0.0448851 -0.422616 -0.369035 -0.0685316 0.00976849 -0.41998 -0.272042 0.257315 0.238027 0.325038 -0.188275 0.30075 -0.430285 0.170236 -0.0904103 -0.679176 0.335558 -0.281951 -0.126612 0.602336
135 0.408718 0.198062 -0.288231 0.240778 -0.0777293 0.0589933 -0.0666214 -0.0267427 -0.267653 -0.0898635 -0.0475608 -0.0842655 0.0884675 -0.515422 -0.411398 -0.0698682 0.0403786 -0.520031 -0.281489 0.282655 0.274887 0.394937 -0.160088 0.252862 -0.510269 0.193602 -0.0965346 -0.717485 0.304078 -0.316856 -0.227439 0.584313
161 0.429401 0.259315 0.00622838 0.200292 0.121682 0.10182 -0.0779118 -0.00222091 -0.358865 0.0291083 0.14687 0.135538 0.0824172 -0.312452 -0.326903 -0.0487899 -0.0511472 -0.286207 -0.385716 0.30419 0.360389 0.295476 -0.258266 0.328476 -0.423446 0.200782 -0.164421 -0.693977 0.423962 -0.210804 -0.0408516 0.654041
184 0.503707 0.319376 0.188041 0.189732 0.141068 0.175219 -0.119567 0.0982957 -0.391261 0.0715215 0.24608 0.125924 0.052979 -0.225325 -0.156948 -0.076437 -0.0448865 -0.242055 -0.39708 0.371667 0.166819 0.121692 -0.286783 0.26304 -0.336376 0.151101 -0.171544 -0.725141 0.508888 -0.182491 0.00801563 0.73461
372 0.358639 0.251879 -0.135458 0.119418 -0.00875044 0.112945 -0.0825534 -0.0933766 -0.334044 -0.150713 -0.0319212 0.11187 0.00670187 -0.330132 -0.455297 -0.0969564 -0.0647643 -0.298035 -0.278603 0.217811 0.520369 0.410254 -0.22339 0.504945 -0.441484 0.147722 -0.0440225 -0.559935 0.26985 -0.221108 0.00115874 0.593692
417 0.463697 0.270578 -0.163979 0.19893 -0.18842 0.177643 -0.0198294 -0.0448251 -0.322892 -0.170262 -0.055846 -0.0565971 -0.0465857 -0.439493 -0.345501 -0.117639 0.0215576 -0.325866 -0.16826 0.279937 0.231717 0.311629 -0.193769 0.389496 -0.482204 0.115336 0.0132484 -0.672667 0.276376 -0.304296 -0.045529 0.664445
486 0.411666 0.194992 0.051558 -0.0976842 -0.0554859 0.199122 -0.0881178 -0.0237554 -0.450488 -0.254881 0.0471241 0.0850191 -0.0151325 -0.224487 -0.338368 -0.160811 0.0236528 -0.172445 -0.227668 0.288464 0.477402 0.422912 -0.289836 0.544348 -0.322068 0.0357517 -0.186397 -0.523573 0.179053 -0.0902915 -0.0885002 0.613666
392 0.520976 0.24885 0.134691 0.0252852 0.0881439 0.18815 -0.107573 0.134609 -0.397773 -0.164229 0.274396 0.0518434 0.159493 -0.297389 -0.276352 -0.0909025 0.0177823 -0.342943 -0.395058 0.399674 0.224912 0.336959 -0.302027 0.347794 -0.335214 0.116684 -0.234741 -0.681028 0.394213 -0.119191 -0.198528 0.677254
592 0.443127 0.246479 -0.188525 0.182099 -0.0938421 0.113889 -0.0301196 0.0353038 -0.284183 -0.200191 0.0964666 -0.0466798 0.105981 -0.497747 -0.370964 -0.0974754 0.0644714 -0.421662 -0.293056 0.334103 0.194669 0.368579 -0.191716 0.299764 -0.460738 0.154524 -0.105776 -0.721723 0.337119 -0.267576 -0.248489 0.597495
803 -0.00756905 0.250251 0.387629 0.0911351 0.48392 0.113917 -0.0872611 0.0651545 -0.275898 -0.368605 0.510447 0.555457 0.181402 0.123223 -0.301452 -0.305147 -0.173961 0.27895 -0.334831 0.170506 0.945262 0.428235 -0.582991 0.890154 -0.443176 0.182754 -0.0949727 -0.375026 0.147114 -0.00103377 0.558805 0.685889
382 0.475464 0.205258 0.198113 -0.0908805 0.00433233 0.301239 -0.116288 -0.0544303 -0.570296 -0.114864 -0.0226031 0.107601 -0.195539 -0.0850513 -0.280815 -0.168855 -0.0368279 -0.0520859 -0.18437 0.272006 0.515702 0.315625 -0.36332 0.649162 -0.259009 0.00721601 -0.143127 -0.570585 0.153585 -0.111711 0.0679917 0.812731
357 0.443742 0.355669 0.0143149 0.21363 -0.015298 0.194885 -0.0561449 -0.0668223 -0.36025 -0.119246 0.0865227 0.160345 -0.0408586 -0.305601 -0.364143 -0.164512 -0.0840535 -0.140722 -0.265649 0.268356 0.442527 0.272513 -0.270305 0.564926 -0.497184 0.142135 0.0188009 -0.646625 0.376778 -0.250132 0.21629 0.742361
223 0.368664 0.360178 -0.0620989 0.146465 0.0678343 0.091689 -0.070564 -0.000697405 -0.248883 -0.193418 0.226629 0.250181 0.199787 -0.422196 -0.495808 -0.141829 -0.0550281 -0.26018 -0.397561 0.282487 0.51807 0.423675 -0.204112 0.521179 -0.520465 0.206158 -0.0748894 -0.556456 0.425794 -0.15341 0.0226157 0.503583
534 0.370252 0.26821 0.0141541 0.198237 0.106474 0.0957098 -0.10235 -0.0591012 -0.347088 -0.0446994 0.0803227 0.163449 0.0313401 -0.28317 -0.392759 -0.123784 -0.0433618 -0.25196 -0.328528 0.268641 0.506147 0.346998 -0.288584 0.476048 -0.478596 0.184396 -0.117319 -0.659137 0.314003 -0.234965 0.0667517 0.669132
68 0.345815 0.245382 0.0577284 0.199589 0.131412 0.172314 -0.120887 -0.149368 -0.466987 0.0848269 -0.10853 0.179769 -0.190276 -0.0937506 -0.30485 -0.119382 -0.122326 -0.0886657 -0.206823 0.153105 0.636288 0.24275 -0.349277 0.575358 -0.405611 0.140966 -0.0216072 -0.620508 0.214111 -0.249205 0.300027 0.786205
618 0.43629 0.309969 0.217007 0.0356295 0.202696 0.206176 -0.12981 -0.0153129 -0.474267 -0.0122075 0.18121 0.27672 0.013484 -0.135516 -0.329591 -0.134269 -0.0854003 -0.0933443 -0.384683 0.314294 0.553763 0.307014 -0.379691 0.559084 -0.342803 0.131692 -0.166683 -0.590302 0.371072 -0.130916 0.155558 0.725066
666 0.489936 0.179186 0.153739 -0.127955 0.00136771 0.310978 -0.149838 -0.05583 -0.663149 -0.127553 -0.0812961 0.0481905 -0.222619 -0.0605502 -0.301559 -0.190313 0.0259827 -0.0526868 -0.172395 0.309379 0.628321 0.346146 -0.423954 0.682352 -0.240368 -0.0020706 -0.239897 -0.647252 0.0530209 -0.111112 -0.0392696 0.874863
621 0.317951 0.225805 0.0490723 0.247731 0.182312 0.11508 -0.110536 -0.142043 -0.423956 0.123932 -0.0773017 0.158105 -0.154725 -0.0633619 -0.341103 -0.103637 -0.118487 -0.0745243 -0.237485 0.13841 0.662287 0.286081 -0.329143 0.559364 -0.409067 0.165036 -0.0538592 -0.569177 0.208192 -0.242874 0.296534 0.710202
364 0.480042 0.289 0.0142931 0.102392 -0.0684281 0.214846 -0.0317979 -0.0355857 -0.368732 -0.162226 0.0382205 0.0796503 -0.0965398 -0.294615 -0.328539 -0.144628 -0.025118 -0.140187 -0.179076 0.281525 0.355718 0.266604 -0.241587 0.509534 -0.426301 0.0588839 -0.0278608 -0.596359 0.284054 -0.204861 0.101386 0.708854
348 0.353541 0.316519 0.157717 0.0438869 0.129013 0.223626 -0.109784 -0.124168 -0.459468 -0.0458571 0.06122 0.323841 -0.115159 -0.112476 -0.353319 -0.137314 -0.141355 -0.0247838 -0.290028 0.230576 0.689224 0.28828 -0.362067 0.655338 -0.367926 0.0869032 -0.0580314 -0.524197 0.306585 -0.135235 0.289186 0.710151
211 0.52303 0.208691 0.210518 0.0475942 0.12296 0.201497 -0.126135 0.157616 -0.472247 -0.0578376 0.246706 0.0190876 0.0666871 -0.207849 -0.178862 -0.0822632 0.0539111 -0.251905 -0.363645 0.448015 0.177829 0.24053 -0.347809 0.295926 -0.302847 0.11588 -0.274417 -0.733226 0.361969 -0.130066 -0.20195 0.769099
631 0.339527 0.306072 0.127613 -0.00672346 0.110954 0.21372 -0.110919 -0.0963754 -0.457884 -0.0705498 0.0811801 0.286772 -0.0395906 -0.13034 -0.395528 -0.144924 -0.11602 -0.102206 -0.298367 0.246554 0.655705 0.324244 -0.355782 0.624065 -0.332929 0.114945 -0.0814291 -0.509147 0.288275 -0.120691 0.187707 0.640797
526 0.667502 0.211409 0.480614 0.024886 0.202589 0.325549 -0.143612 0.151554 -0.617699 0.0514504 0.248519 0.0394602 -0.136431 0.0472989 -0.00482363 -0.130881 0.037058 0.0325217 -0.279197 0.474002 0.226002 0.171056 -0.440418 0.475792 -0.262422 -0.0172836 -0.301799 -0.742068 0.258859 -0.0460212 0.0482214 0.982053
3 0.368033 0.261927 0.00900835 0.155057 0.180238 0.05823 -0.100906 -0.0127171 -0.331261 -0.0296695 0.231709 0.204161 0.188539 -0.302998 -0.402163 -0.099119 -0.041977 -0.329181 -0.452817 0.281892 0.518033 0.422813 -0.273711 0.412381 -0.446359 0.22788 -0.218216 -0.612641 0.428253 -0.162241 -0.0346014 0.565639
89 0.371026 0.0680621 0.0282174 -0.0242011 0.11202 0.134678 -0.1735 -0.0765726 -0.578782 0.0202232 -0.116055 0.0198865 -0.10843 -0.0926014 -0.319066 -0.0714407 0.0163889 -0.270321 -0.26608 0.239772 0.61396 0.439768 -0.38404 0.496963 -0.276971 0.0963156 -0.259947 -0.632093 0.0693034 -0.178526 -0.149215 0.717526
638 0.390357 0.293042 0.125372 0.0991712 0.13673 0.162283 -0.112979 -0.0443457 -0.428077 -0.046277 0.102332 0.220687 -0.00667419 -0.184462 -0.349281 -0.134159 -0.0664933 -0.101092 -0.316363 0.281993 0.596539 0.328976 -0.331854 0.570807 -0.420517 0.121642 -0.106874 -0.613087 0.300925 -0.174212 0.16711 0.726948
379 0.326151 0.282071 0.155202 0.0586155 0.224077 0.167565 -0.107635 -0.106583 -0.420881 -0.0104165 0.076823 0.332433 -0.0393597 -0.0824941 -0.397263 -0.145627 -0.141397 -0.00628724 -0.291716 0.18885 0.73884 0.346405 -0.341809 0.677848 -0.386238 0.124554 -0.0988686 -0.449838 0.2502 -0.0934557 0.300225 0.629266
804 0.718176 -0.226872 0.211832 -0.701712 -0.134135 0.366212 -0.121823 0.273667 -0.840786 -0.570447 0.130902 -0.20748 -0.185365 -0.0596659 -0.265055 -0.404245 0.623466 0.351622 0.0691289 0.916407 0.599315 0.809731 -0.440377 0.691865 -0.270694 -0.321949 -0.668619 -0.670938 -0.582912 0.378775 -0.844434 0.813967
127 0.480692 0.166101 0.160158 -0.122472 0.0148195 0.280365 -0.133518 -0.0562796 -0.622059 -0.08617 -0.0591433 0.056615 -0.213425 -0.0316861 -0.267084 -0.171673 -0.00886078 -0.0590633 -0.170423 0.282186 0.572667 0.328328 -0.367382 0.661904 -0.250403 -0.0127245 -0.204975 -0.578611 0.0908831 -0.104689 0.00978511 0.808028
173 0.555802 0.0841306 0.0801981 -0.0530257 0.0484137 0.138913 -0.103885 0.126554 -0.4955 -0.194413 0.178136 -0.0974289 0.107812 -0.242668 -0.291804 -0.127517 0.136034 -0.286565 -0.327476 0.443707 0.360129 0.497084 -0.366151 0.413332 -0.361205 0.0972965 -0.386787 -0.769373 0.138601 -0.1201 -0.367417 0.756214
424 0.650323 0.170353 0.0394287 -0.164633 -0.280474 0.348345 -0.0462704 0.115568 -0.515821 -0.41386 0.00487296 -0.138384 -0.156123 -0.301591 -0.236222 -0.237266 0.162052 -0.12121 -0.0838536 0.440532 0.228551 0.372386 -0.287311 0.567449 -0.308576 -0.103565 -0.145896 -0.694555 0.0371964 -0.0994846 -0.249028 0.854809
580 0.635899 0.262276 0.373908 -0.201277 -0.0144804 0.386075 -0.08859 0.145054 -0.561985 -0.229236 0.276938 0.0757518 -0.0677773 -0.110011 -0.128683 -0.171774 0.0752529 -0.0682925 -0.301651 0.49479 0.214361 0.256795 -0.394735 0.503424 -0.171254 -0.0811191 -0.282194 -0.634679 0.275216 -0.0152658 -0.172155 0.822509
671 0.578101 0.18999 -0.000103042 -0.104932 -0.255616 0.330178 -0.0327869 0.0356772 -0.492934 -0.28313 -0.0584023 -0.138542 -0.165116 -0.308724 -0.22189 -0.17865 0.133799 -0.195149 -0.0850364 0.37276 0.173608 0.302723 -0.265999 0.470909 -0.283872 -0.0695373 -0.105277 -0.662865 0.0994353 -0.146543 -0.232822 0.79065
373 0.549981 0.375989 0.321216 0.136476 0.111573 0.256614 -0.0817407 0.144492 -0.368947 0.0200127 0.381075 0.205282 0.0159298 -0.180146 -0.11857 -0.125405 -0.0376586 -0.0240863 -0.356609 0.420839 0.150309 0.106511 -0.322553 0.357243 -0.354902 0.0815085 -0.0899775 -0.692899 0.504241 -0.108734 0.119256 0.805132
138 0.623928 0.289819 0.301118 0.203048 0.130001 0.198583 -0.0965332 0.189265 -0.463462 0.0881495 0.354392 -0.00215344 0.0548083 -0.194282 -0.0376698 -0.0600677 0.0586988 -0.225392 -0.41674 0.492796 0.018805 0.141195 -0.367727 0.205304 -0.334887 0.10592 -0.289907 -0.881722 0.462084 -0.175729 -0.128521 0.882565
201 0.504903 0.332871 0.332492 0.117341 0.309091 0.150525 -0.172066 0.153206 -0.457167 0.105359 0.484052 0.23511 0.188759 -0.159237 -0.173078 -0.0638368 -0.0227217 -0.243429 -0.583056 0.488968 0.306644 0.250345 -0.388624 0.27542 -0.347089 0.202162 -0.35269 -0.799443 0.60868 -0.0733557 -0.0828902 0.754779
285 0.451385 0.314446 0.113005 0.251516 0.15823 0.127856 -0.112679 0.0501404 -0.350224 0.0719746 0.225356 0.141621 0.0616198 -0.229159 -0.231822 -0.0561496 -0.0578995 -0.237663 -0.391801 0.33435 0.276884 0.21491 -0.287739 0.313575 -0.403645 0.176453 -0.130755 -0.698341 0.453563 -0.21187 0.0524021 0.678283
506 0.581831 0.387187 0.142531 0.298239 0.0637723 0.203896 -0.0637964 0.127456 -0.313018 0.0105752 0.304343 0.11107 0.0586695 -0.365775 -0.193683 -0.0700561 -0.017217 -0.241292 -0.370402 0.424414 0.10468 0.158019 -0.274368 0.291082 -0.460312 0.1555 -0.115614 -0.805374 0.534971 -0.22111 0.0512776 0.778744
616 0.340958 0.232607 -0.104436 0.161648 0.105717 0.0555459 -0.0908357 -0.0547252 -0.316099 -0.0673279 0.0620088 0.131407 0.095191 -0.327296 -0.45158 -0.108929 -0.0207089 -0.285853 -0.343928 0.262284 0.519888 0.424685 -0.243985 0.452409 -0.461031 0.188422 -0.115607 -0.59434 0.297177 -0.207838 -0.0150733 0.542518
120 0.2668 0.143209 -0.0119855 0.199154 0.229089 0.0217636 -0.147184 -0.0949067 -0.386664 0.108639 0.014217 0.129891 0.0513247 -0.16618 -0.348211 -0.0652748 -0.0619135 -0.2754 -0.343057 0.20663 0.630293 0.403216 -0.341292 0.410578 -0.416805 0.223361 -0.189261 -0.619631 0.231422 -0.242814 0.0292271 0.599589
689 0.455129 0.142146 -0.0149195 -0.113295 -0.0784552 0.213445 -0.0973656 -0.00271752 -0.48875 -0.257288 0.0150198 -0.0498294 0.00226334 -0.324725 -0.341395 -0.132188 0.057456 -0.35908 -0.280114 0.339841 0.378978 0.452998 -0.312971 0.444899 -0.277667 0.0543625 -0.229457 -0.615099 0.169881 -0.176208 -0.294386 0.682637
512 0.541754 0.174447 0.18944 -0.0475997 0.0372511 0.276701 -0.0811894 0.150207 -0.494935 -0.209478 0.220978 -0.0209578 0.0101849 -0.216893 -0.193833 -0.154025 0.0827123 -0.14394 -0.284039 0.451867 0.298372 0.361578 -0.398864 0.47161 -0.344811 0.0233182 -0.257791 -0.766318 0.211433 -0.145667 -0.179315 0.876227
236 0.371762 0.177755 -0.122449 0.166534 0.112354 0.0302174 -0.0987624 0.018576 -0.334489 -0.036265 0.116793 0.0231753 0.178526 -0.385069 -0.389268 -0.0581382 0.00183351 -0.455699 -0.410033 0.313428 0.391739 0.439806 -0.262028 0.28777 -0.438008 0.248616 -0.228464 -0.732595 0.329444 -0.242954 -0.220882 0.56503
200 0.369055 0.141671 -0.0980575 0.191515 0.214782 -0.046212 -0.136884 0.0273121 -0.341081 0.0389905 0.19563 0.0194955 0.286178 -0.335088 -0.394038 -0.0305307 0.0117873 -0.527194 -0.503074 0.326932 0.394048 0.478716 -0.274088 0.202193 -0.428665 0.295406 -0.375867 -0.734703 0.36429 -0.235059 -0.32044 0.513541
295 0.429384 0.215599 -0.215002 0.279299 -0.0792379 0.0697517 -0.0508984 -0.0562732 -0.29521 -0.062536 -0.0958458 -0.102097 0.00701768 -0.444811 -0.36075 -0.0665188 0.00536035 -0.415811 -0.250397 0.244601 0.264125 0.378213 -0.186405 0.299815 -0.490831 0.198229 -0.0733961 -0.752377 0.257387 -0.348167 -0.139325 0.650726
454 0.40435 0.153968 -0.132639 0.234101 0.0329864 0.0660515 -0.0987895 -0.0378819 -0.391036 0.0774369 -0.0679451 -0.0774762 0.00816322 -0.300808 -0.296471 -0.01958 0.0243093 -0.381681 -0.28102 0.276019 0.321056 0.30543 -0.247836 0.265813 -0.430474 0.176576 -0.194672 -0.756942 0.255725 -0.290813 -0.172282 0.668727
612 0.476389 0.157725 -0.0107704 0.195247 0.124466 0.0444976 -0.116245 0.0584957 -0.379031 -0.0194164 0.159026 -0.0320679 0.148206 -0.29216 -0.281841 -0.0742589 0.0567542 -0.404993 -0.387599 0.360908 0.308306 0.399485 -0.291981 0.268367 -0.448475 0.202638 -0.304463 -0.769741 0.308479 -0.208734 -0.225132 0.689573
508 0.45957 0.295536 0.000931265 0.158442 0.0254486 0.143733 -0.0596494 0.0622909 -0.342729 -0.108791 0.202578 0.0786405 0.105665 -0.354084 -0.336117 -0.131174 0.0271775 -0.267536 -0.345701 0.336568 0.323854 0.346352 -0.244182 0.397371 -0.474396 0.148079 -0.12511 -0.684815 0.345072 -0.183075 -0.0446114 0.665309
180 0.461419 0.274042 -0.0857561 0.0607115 -0.0698966 0.117954 -0.0348858 0.0836644 -0.246862 -0.300764 0.230483 0.0550493 0.223498 -0.497673 -0.410387 -0.12575 0.0321122 -0.392037 -0.356882 0.384364 0.235096 0.435913 -0.152313 0.356686 -0.463704 0.148192 -0.160098 -0.616812 0.392369 -0.158665 -0.231575 0.504206
282 0.554044 0.24682 0.158878 0.142073 0.0849666 0.186889 -0.0910673 0.142097 -0.402899 -0.0187701 0.247464 0.0194858 0.0596041 -0.223129 -0.17893 -0.0967798 0.0328337 -0.251863 -0.365128 0.40367 0.135267 0.230751 -0.291306 0.271899 -0.337744 0.131361 -0.222436 -0.719357 0.410245 -0.153524 -0.106451 0.750374
279 0.444958 0.152471 -0.0384399 0.18745 0.15317 -0.00300488 -0.11398 0.0690211 -0.3595 -0.0175001 0.232081 -0.0262226 0.248428 -0.328567 -0.333576 -0.0465664 0.053538 -0.495541 -0.478623 0.370016 0.302124 0.44619 -0.289073 0.202573 -0.447066 0.22904 -0.376846 -0.786092 0.354818 -0.210966 -0.313803 0.613713
270 0.365069 0.12881 -0.1145 0.20443 0.0634561 0.0457914 -0.10187 -0.041548 -0.372349 0.0378646 -0.0166766 -0.0581732 0.0181001 -0.274664 -0.286557 -0.0469181 0.0248189 -0.367093 -0.272495 0.257902 0.368871 0.33562 -0.268132 0.261793 -0.411374 0.171153 -0.220594 -0.700407 0.234428 -0.249116 -0.160399 0.627064
677 0.422986 0.183356 -0.0441636 0.223473 0.128686 0.0522953 -0.0935662 0.0419917 -0.349064 0.00285633 0.167593 0.0134239 0.18089 -0.331167 -0.333035 -0.0579639 0.0200611 -0.391601 -0.41748 0.332882 0.312685 0.389198 -0.268359 0.265185 -0.445699 0.234498 -0.256668 -0.756078 0.373716 -0.240686 -0.19102 0.643071
170 0.485487 0.155008 -0.0805532 -0.029017 -0.090167 0.186215 -0.0802933 0.0385397 -0.460193 -0.315346 0.00448548 -0.106214 0.00275743 -0.349865 -0.376661 -0.155697 0.0970413 -0.346255 -0.227461 0.345305 0.37826 0.488109 -0.294803 0.48659 -0.384666 0.0551089 -0.218783 -0.701586 0.133369 -0.194372 -0.237183 0.715003
340 0.485388 0.0772998 0.0371865 -0.103236 0.0672351 0.157364 -0.119439 0.0554424 -0.555705 -0.17107 0.0939075 -0.0662944 0.0761388 -0.229378 -0.316227 -0.131119 0.105689 -0.343571 -0.338193 0.408269 0.444993 0.478312 -0.358851 0.425777 -0.306944 0.0862352 -0.393135 -0.701612 0.139424 -0.148477 -0.362328 0.707756
240 0.38005 0.117495 -0.117695 0.181488 0.182789 -0.0264792 -0.103479 0.0393118 -0.347176 -0.00822977 0.150969 -0.0577187 0.216054 -0.346728 -0.363177 -0.0422449 0.074209 -0.482424 -0.442371 0.324081 0.378769 0.476525 -0.27803 0.226103 -0.445266 0.254975 -0.342857 -0.748792 0.298221 -0.215593 -0.31363 0.576628
238 0.389602 0.154363 0.0291043 -0.072424 0.0984623 0.101759 -0.116759 -0.0056767 -0.48479 -0.112781 0.103885 0.0988125 0.112647 -0.204073 -0.408676 -0.100887 0.011989 -0.315612 -0.400751 0.318018 0.586128 0.50126 -0.314174 0.473776 -0.307021 0.109031 -0.352063 -0.582858 0.227728 -0.106511 -0.221789 0.583322
46 0.360113 0.142874 -0.115051 0.217603 0.167427 -0.0264171 -0.103683 0.0491136 -0.283789 -0.00572248 0.196055 -0.014287 0.241379 -0.352425 -0.365226 -0.031606 0.0418052 -0.469693 -0.426876 0.305595 0.327559 0.452212 -0.23765 0.208244 -0.465571 0.2593 -0.292794 -0.711209 0.373931 -0.22631 -0.248533 0.501642
166 0.303205 0.240752 0.0402511 0.174858 0.142413 0.139963 -0.138228 -0.17582 -0.440737 0.14102 -0.154886 0.205398 -0.168063 -0.0906351 -0.352518 -0.0750381 -0.131807 -0.120408 -0.204912 0.120086 0.644284 0.230446 -0.311077 0.530312 -0.35682 0.158377 -0.029031 -0.537667 0.223678 -0.228085 0.291468 0.685132
518 0.518809 0.20491 0.0667469 -0.215989 -0.175144 0.300859 -0.0593878 0.0912013 -0.48366 -0.40539 0.0953666 0.000112222 -0.0406313 -0.27241 -0.322776 -0.227143 0.115593 -0.147495 -0.163389 0.408612 0.362482 0.421967 -0.309315 0.561905 -0.295174 -0.0454999 -0.200899 -0.606518 0.101097 -0.0591037 -0.250318 0.721556
167 0.340362 0.247938 0.0972848 0.11456 0.131262 0.190452 -0.117504 -0.127164 -0.478108 0.00569203 -0.00201771 0.204619 -0.105576 -0.103073 -0.345501 -0.125141 -0.0931091 -0.09469 -0.249213 0.203931 0.666612 0.296314 -0.377916 0.62771 -0.377238 0.139934 -0.0881006 -0.587926 0.249395 -0.178416 0.233856 0.733622
64 0.58081 0.322034 -0.122522 0.0531383 -0.290605 0.297479 -0.00847895 0.0306199 -0.381386 -0.301753 -0.0496672 -0.0491367 -0.133965 -0.498989 -0.354666 -0.169572 0.0384409 -0.294763 -0.118509 0.353131 0.139725 0.264013 -0.167706 0.439805 -0.378538 -0.00943372 0.0384645 -0.678518 0.304894 -0.270416 -0.129507 0.7576
118 0.463339 0.206419 -0.0647956 0.220748 -0.0516091 0.151961 -0.0522246 -0.0324884 -0.387444 -0.0625947 -0.0736945 -0.0317105 -0.100019 -0.296349 -0.288041 -0.132844 0.00252708 -0.22545 -0.17271 0.270149 0.304201 0.264128 -0.245645 0.425999 -0.462094 0.123583 -0.07065 -0.691581 0.201308 -0.283814 0.043311 0.745953
548 0.43455 0.202597 -0.131429 0.28332 -0.0278323 0.128259 -0.0750573 -0.103246 -0.425256 0.111385 -0.167416 -0.0874505 -0.158792 -0.284328 -0.31473 -0.0589874 -0.0345042 -0.319757 -0.213917 0.237823 0.348519 0.266591 -0.250324 0.358198 -0.426015 0.148624 -0.0703635 -0.729591 0.249843 -0.355037 0.00754396 0.765093
436 0.439464 0.266026 0.0192022 0.224797 0.102787 0.165482 -0.074008 -0.113964 -0.426864 0.013706 -0.0575712 0.12432 -0.134031 -0.196821 -0.344023 -0.142264 -0.0758678 -0.126448 -0.211874 0.217097 0.56004 0.292795 -0.315525 0.587153 -0.464584 0.14202 -0.0306507 -0.656446 0.226689 -0.248632 0.248261 0.803426
53 0.427807 0.162301 -0.127647 0.236063 -0.0726384 0.172777 -0.0584725 -0.0827526 -0.401204 0.0358532 -0.241818 -0.131387 -0.199113 -0.242389 -0.24749 -0.0762276 -0.0121275 -0.229613 -0.0856983 0.16813 0.292293 0.225487 -0.24079 0.397144 -0.385191 0.0846189 -0.0070772 -0.680167 0.132077 -0.340339 0.0397867 0.747907
376 0.57598 0.302238 0.244282 0.00583987 0.0358855 0.299117 -0.104667 0.14082 -0.473072 -0.0938065 0.241142 0.0833634 -0.00991519 -0.225386 -0.133369 -0.0999686 0.0260902 -0.192228 -0.319312 0.405605 0.167581 0.170733 -0.353506 0.36006 -0.255568 0.0406617 -0.155151 -0.719632 0.420892 -0.134372 -0.0756091 0.797002
296 0.446207 0.264433 0.15284 -0.177978 -0.0317073 0.26156 -0.0899195 0.0568972 -0.465873 -0.348516 0.181555 0.165707 0.0386302 -0.246262 -0.353292 -0.194369 -0.00373268 -0.177896 -0.321509 0.376387 0.474326 0.392289 -0.340309 0.586095 -0.269936 0.0167954 -0.170869 -0.546293 0.267766 -0.0716397 -0.101261 0.682325
574 0.521373 0.217495 0.143074 -0.0607758 0.0256583 0.256725 -0.109094 0.0672822 -0.503382 -0.149308 0.150111 0.0359287 -0.00127032 -0.218194 -0.207915 -0.114822 0.0871264 -0.250103 -0.306903 0.393222 0.287844 0.321076 -0.340937 0.381287 -0.28299 0.0592362 -0.23603 -0.670462 0.257325 -0.12384 -0.191494 0.761987
421 0.3133 0.239924 -0.00167157 0.230314 0.137593 0.113393 -0.0888622 -0.141455 -0.39287 0.0472466 -0.0318588 0.19216 -0.112823 -0.154862 -0.379757 -0.101337 -0.108865 -0.0975592 -0.231526 0.164098 0.634391 0.307883 -0.311326 0.56859 -0.460699 0.15496 -0.0444989 -0.590111 0.221683 -0.212759 0.279273 0.67184
641 0.374841 0.190224 -0.137665 0.069236 -0.0494893 0.106032 -0.0676149 0.0205276 -0.339439 -0.21924 0.0588682 -0.000568281 0.104324 -0.404574 -0.362148 -0.103988 0.0631649 -0.391395 -0.304467 0.311524 0.354392 0.415072 -0.24274 0.346229 -0.417496 0.151261 -0.177396 -0.668488 0.252687 -0.239996 -0.257632 0.595456
153 0.504505 0.318786 -0.116768 0.177171 -0.151069 0.210995 -0.00206403 0.00821785 -0.297687 -0.208903 0.0291955 0.0179978 -0.0430309 -0.421516 -0.321304 -0.151975 0.0144562 -0.240143 -0.191894 0.311715 0.209033 0.264949 -0.188088 0.392653 -0.463108 0.0977848 0.00173515 -0.6788 0.310753 -0.225674 -0.0298168 0.688408
536 0.521592 0.246029 0.0429653 -0.142372 -0.173069 0.316949 -0.0563221 0.00226626 -0.474774 -0.304077 -0.0192617 0.0213632 -0.141184 -0.299756 -0.307502 -0.187694 0.043841 -0.131358 -0.110382 0.316521 0.363908 0.319581 -0.247301 0.589755 -0.29848 -0.0440593 -0.0681718 -0.553752 0.128986 -0.118344 -0.0967192 0.691094
237 0.44006 0.183959 -0.0580397 0.240968 0.0201358 0.15162 -0.0825892 -0.0607688 -0.414456 0.0338483 -0.125024 -0.0522884 -0.138277 -0.240643 -0.275496 -0.0756876 -0.0223456 -0.257504 -0.197718 0.243586 0.373996 0.276181 -0.27487 0.409752 -0.427199 0.119928 -0.0820832 -0.717855 0.228444 -0.320813 0.0420665 0.761541
354 0.442759 0.172389 -0.0924879 0.151889 -0.0398768 0.145225 -0.113756 -0.0724625 -0.431876 0.0164771 -0.156801 -0.109702 -0.121394 -0.261399 -0.289709 -0.0870807 0.0237184 -0.319683 -0.189039 0.248988 0.360736 0.306245 -0.260241 0.381527 -0.36385 0.105746 -0.126685 -0.695721 0.179023 -0.297656 -0.0702558 0.725177
224 0.517438 0.269688 0.182503 0.197163 0.190822 0.12168 -0.118524 0.109926 -0.3691 0.114748 0.315918 0.0730047 0.11283 -0.220816 -0.188012 -0.029049 0.00159179 -0.265976 -0.435326 0.396218 0.18452 0.23392 -0.272338 0.212189 -0.393543 0.187526 -0.241727 -0.738079 0.477077 -0.173566 -0.0581202 0.691304
547 0.428603 0.180097 0.0086134 0.204293 0.0251873 0.169251 -0.0960066 -0.0765626 -0.489109 0.0857323 -0.115734 -0.0300498 -0.198227 -0.134726 -0.255502 -0.104186 -0.0375698 -0.159721 -0.167651 0.24611 0.442522 0.248271 -0.306517 0.463974 -0.377872 0.123398 -0.104759 -0.73748 0.172292 -0.283221 0.0904648 0.823587
420 0.4143 0.173969 -0.047754 0.206971 -0.0114615 0.168533 -0.0991769 -0.116811 -0.474845 0.0667761 -0.218587 -0.0487869 -0.215011 -0.171259 -0.25932 -0.0763263 -0.0338476 -0.229882 -0.148421 0.181306 0.431559 0.230911 -0.283253 0.432168 -0.372582 0.105758 -0.0390471 -0.673877 0.134793 -0.304692 0.0733322 0.783028
322 0.391067 0.330035 -0.0257047 0.0582319 -0.11472 0.212359 -0.0159758 -0.0476782 -0.316159 -0.177428 0.0207816 0.151324 -0.0656346 -0.344389 -0.370725 -0.138445 -0.06719 -0.163421 -0.188424 0.225057 0.369504 0.27915 -0.177672 0.50312 -0.400173 0.0762923 0.0549757 -0.497694 0.307926 -0.179461 0.086755 0.576093
67 0.363181 0.162148 0.0313168 0.214434 0.158519 0.110525 -0.121624 -0.0500874 -0.409905 0.0721711 -0.0590775 0.0526825 -0.0940596 -0.107068 -0.262211 -0.0823182 -0.0619562 -0.165434 -0.224263 0.200971 0.465298 0.268718 -0.298867 0.443061 -0.39267 0.164392 -0.11646 -0.625817 0.172134 -0.230091 0.116701 0.707595
532 0.441829 0.157355 0.0310321 0.01525 0.0352054 0.16809 -0.069664 -0.00226502 -0.445564 -0.180832 0.0687284 0.0120655 0.00186974 -0.210509 -0.344639 -0.134037 0.0266313 -0.182184 -0.237186 0.319464 0.464669 0.431897 -0.329198 0.552835 -0.412377 0.0691518 -0.19463 -0.656239 0.136248 -0.165448 -0.0616581 0.74769
696 0.521935 0.433906 0.0364298 0.0346543 -0.21852 0.326112 -0.0258257 -0.000716248 -0.346971 -0.243981 0.0877764 0.145814 -0.10936 -0.382696 -0.326719 -0.18179 -0.0500848 -0.114723 -0.211068 0.318748 0.237002 0.201938 -0.213339 0.512014 -0.392265 0.0204639 0.0726678 -0.568145 0.388335 -0.162781 0.104627 0.699495
423 0.42982 0.195842 -0.0208317 0.209376 0.139241 0.0855123 -0.0891828 0.0497704 -0.360629 -0.0777811 0.17668 0.0219747 0.127353 -0.290392 -0.320093 -0.117568 0.0256432 -0.263558 -0.338908 0.32557 0.382734 0.390676 -0.299504 0.393417 -0.510732 0.206967 -0.219632 -0.737963 0.294383 -0.216877 -0.0727734 0.685693
160 0.491352 0.313109 -0.106072 0.24367 -0.146384 0.180712 -0.0169247 -0.0303903 -0.29826 -0.126692 -0.00614463 0.00714641 -0.0689185 -0.430995 -0.314684 -0.102271 -0.0110579 -0.273445 -0.210574 0.271997 0.231531 0.23057 -0.183598 0.37337 -0.465661 0.117313 0.0305982 -0.708019 0.371964 -0.322033 0.0477846 0.714862
485 0.4457 0.20951 0.161676 -0.0594613 -0.00457189 0.267197 -0.101185 -0.000771996 -0.540068 -0.130978 0.00899041 0.0577494 -0.152175 -0.0965703 -0.257898 -0.172968 -0.00648466 -0.0688434 -0.187937 0.303627 0.499887 0.323292 -0.358547 0.589347 -0.282133 0.0164642 -0.174843 -0.614809 0.152585 -0.12743 0.0258176 0.784764
13 0.560467 0.110384 -0.0886314 -0.0418226 -0.175215 0.223489 -0.0708673 0.0518705 -0.461439 -0.245792 -0.0479204 -0.228618 -0.0702344 -0.341124 -0.275016 -0.126216 0.171456 -0.316088 -0.162604 0.377852 0.211275 0.394094 -0.269721 0.382444 -0.352239 0.00220513 -0.219198 -0.753664 0.0850601 -0.205127 -0.363612 0.754841
402 0.43218 0.203171 -0.137319 0.298921 -0.0301442 0.0635194 -0.0516162 -0.0193077 -0.300769 -0.0362447 -0.00566369 -0.0800679 -0.0186957 -0.361605 -0.290843 -0.0845479 0.0294564 -0.311506 -0.214237 0.274507 0.255283 0.276035 -0.203779 0.279656 -0.494623 0.175256 -0.0864971 -0.735015 0.271919 -0.30642 -0.0555015 0.670752
583 0.501894 0.278523 -0.036845 0.271075 0.0865542 0.0803253 -0.0933936 0.0545939 -0.372675 0.0663135 0.14901 0.0185275 0.0978954 -0.349813 -0.282586 -0.0506477 -0.00163289 -0.404077 -0.42214 0.367228 0.253302 0.292846 -0.255035 0.222908 -0.462896 0.224825 -0.233177 -0.832005 0.455278 -0.27129 -0.147368 0.696903
613 0.471649 0.310473 -0.0775621 0.142216 -0.120496 0.226503 -0.0651572 -0.0579008 -0.390819 -0.10356 -0.0444401 0.0260572 -0.11191 -0.370714 -0.34069 -0.115692 -0.0336461 -0.274374 -0.198794 0.273664 0.280339 0.230592 -0.231702 0.431509 -0.402645 0.0976819 0.0188152 -0.683923 0.354823 -0.290114 -0.00240139 0.750296
95 0.540464 0.221673 0.272906 0.115023 0.0899592 0.23419 -0.0838025 0.0996053 -0.494264 0.069951 0.158699 0.00973126 -0.0964077 -0.0782654 -0.0338799 -0.0933658 0.022617 -0.0879131 -0.259293 0.409008 0.148718 0.104033 -0.365426 0.317888 -0.280068 0.0412934 -0.195972 -0.763677 0.330596 -0.155566 -0.0170466 0.89109
286 0.621861 0.344451 0.128906 0.132487 -0.105926 0.302752 -0.0573314 0.0674062 -0.430543 -0.0749581 0.0967431 0.0201183 -0.120519 -0.297759 -0.195059 -0.134597 -0.0312324 -0.167596 -0.240357 0.391876 0.126112 0.135065 -0.26646 0.410711 -0.344277 0.0530092 -0.0417292 -0.707024 0.390316 -0.207223 0.0477077 0.828582
579 0.466992 0.211562 -0.0852139 0.226976 -0.0272545 0.168267 -0.0943675 -0.0727062 -0.413034 0.0252677 -0.167419 -0.0407922 -0.164534 -0.263168 -0.303739 -0.0760718 -0.0151089 -0.2649 -0.157221 0.247331 0.382132 0.267123 -0.260373 0.43075 -0.415421 0.111638 -0.0529493 -0.741538 0.209188 -0.323782 0.0491597 0.791575
158 0.586544 0.246249 0.000774838 -0.103723 -0.27377 0.323013 -0.0159717 0.0700358 -0.431975 -0.403719 0.0471027 -0.108191 -0.10983 -0.416579 -0.309133 -0.206828 0.110367 -0.199505 -0.106559 0.389144 0.169507 0.329831 -0.236982 0.504124 -0.330701 -0.0627737 -0.0734728 -0.674862 0.171343 -0.160505 -0.190921 0.758819
24 0.479167 0.227901 -0.0240334 0.269796 0.0246326 0.169808 -0.0928948 -0.0815646 -0.447963 0.1224 -0.131953 -0.0590168 -0.170641 -0.21203 -0.241776 -0.0756766 -0.0201642 -0.23586 -0.204819 0.250712 0.299637 0.212037 -0.27793 0.362212 -0.403274 0.123007 -0.0640691 -0.746321 0.254331 -0.312579 0.068635 0.810069
183 0.416148 0.159099 -0.149644 0.316578 0.0670683 0.0220073 -0.0969258 -0.0133804 -0.347135 0.080931 -0.0399861 -0.104825 0.0420485 -0.343357 -0.314573 -0.0400785 0.0304692 -0.459576 -0.312188 0.278169 0.269692 0.330897 -0.254938 0.208936 -0.466322 0.23493 -0.182124 -0.807552 0.272918 -0.327187 -0.158444 0.685201
328 0.370499 0.0676243 -0.200808 0.30656 0.0594574 0.0363783 -0.0857547 -0.101202 -0.395124 0.106899 -0.197914 -0.164031 -0.0826306 -0.240272 -0.280592 -0.0393712 0.0203508 -0.40917 -0.220618 0.17281 0.381215 0.33522 -0.27906 0.266435 -0.466402 0.203208 -0.152394 -0.777549 0.122109 -0.385007 -0.0719752 0.735031
231 0.546952 0.407816 -0.0606199 0.172687 -0.227257 0.297823 -0.00832177 -0.0169134 -0.329855 -0.199291 0.00760596 0.0266228 -0.163429 -0.440042 -0.319129 -0.172336 -0.0062528 -0.20407 -0.175205 0.305508 0.189706 0.209932 -0.191202 0.453486 -0.420832 0.0456427 0.064892 -0.694192 0.39634 -0.281338 0.0435666 0.764613
229 0.384011 0.242573 -0.0988077 0.088148 -0.0259274 0.130231 -0.0566008 -0.0135023 -0.325523 -0.197747 0.112207 0.0569873 0.0803043 -0.396403 -0.399264 -0.156637 0.0207472 -0.287127 -0.296305 0.299277 0.396346 0.391581 -0.25252 0.421774 -0.449731 0.165364 -0.100451 -0.633245 0.295947 -0.207314 -0.0817164 0.612111
80 0.421495 0.29213 0.0281891 0.165578 0.0412672 0.166921 -0.0268777 -0.0264149 -0.323741 -0.18498 0.11042 0.143167 0.00502017 -0.305272 -0.410554 -0.182453 -0.0423484 -0.127784 -0.233624 0.286631 0.483683 0.359074 -0.253968 0.617496 -0.527452 0.135829 -0.0269507 -0.60527 0.283112 -0.197972 0.167027 0.688696
625 0.616961 0.234708 0.234149 0.284019 0.114489 0.213944 -0.0967181 0.14046 -0.454368 0.151301 0.147604 -0.0544285 -0.108796 -0.13498 -0.0230033 -0.0709454 0.0257316 -0.132742 -0.261196 0.408769 0.0828155 0.11128 -0.368142 0.280929 -0.388666 0.103249 -0.178901 -0.898127 0.356569 -0.251579 0.0537711 0.962022
60 0.515987 0.320935 -0.100056 0.0749515 -0.199645 0.24059 -0.0538688 0.00934979 -0.401379 -0.203199 -0.024015 -0.0042714 -0.0651844 -0.44168 -0.345625 -0.142071 0.0115107 -0.299411 -0.22399 0.322251 0.260368 0.284926 -0.202807 0.411479 -0.384166 0.0542362 -0.0157798 -0.689192 0.338942 -0.23928 -0.111127 0.69277
190 0.435391 0.312418 -0.221163 0.308552 -0.104485 0.0858279 -0.0329339 -0.0468097 -0.2585 -0.117864 -0.0311347 -0.0225486 0.02457 -0.492736 -0.423503 -0.0930868 -0.0121604 -0.406784 -0.241952 0.253817 0.288544 0.335162 -0.158165 0.35653 -0.555889 0.200128 -0.010335 -0.711268 0.3546 -0.333034 -0.0369457 0.636563
49 0.472973 0.271575 -0.120583 0.0620191 -0.0675188 0.124071 -0.0554085 0.101357 -0.271094 -0.328553 0.213101 0.0521787 0.197487 -0.515487 -0.445218 -0.160728 0.0580953 -0.367729 -0.335786 0.370246 0.291528 0.483722 -0.182286 0.410561 -0.470495 0.130235 -0.171326 -0.640403 0.376793 -0.15495 -0.239971 0.525093
584 0.563685 0.079118 0.0401296 -0.191031 -0.0810616 0.213998 -0.0596478 0.137888 -0.476202 -0.393518 0.153779 -0.160681 0.0754047 -0.297469 -0.274578 -0.197471 0.179584 -0.29466 -0.231582 0.447475 0.232452 0.478601 -0.286662 0.436748 -0.308668 -0.0167912 -0.356496 -0.648762 0.0802948 -0.0604332 -0.432459 0.684267
559 0.541544 0.303453 -0.0725158 0.0980935 -0.125536 0.246645 -0.0313084 -0.0129733 -0.412772 -0.21874 0.00547861 0.00971814 -0.0604918 -0.403915 -0.376657 -0.178146 0.0209538 -0.250636 -0.217684 0.360204 0.365117 0.35952 -0.259874 0.516522 -0.459958 0.0810906 -0.0432441 -0.723336 0.290161 -0.268635 -0.0674147 0.799469
50 0.443811 0.270192 -0.0254339 0.0191237 -0.137216 0.257846 -0.0596864 -0.0589535 -0.452443 -0.206939 -0.0692863 0.0253671 -0.122877 -0.325826 -0.350079 -0.168829 -0.0277389 -0.256693 -0.195898 0.271409 0.415285 0.299214 -0.287029 0.507277 -0.374126 0.0516143 -0.00881985 -0.644803 0.265034 -0.241003 -0.0218481 0.740384
578 0.48295 0.350965 -0.0906674 0.181726 -0.16343 0.237414 -0.0209629 -0.00522948 -0.337043 -0.191578 0.0130833 0.030721 -0.0665054 -0.433216 -0.343638 -0.126324 -0.000315921 -0.271799 -0.219721 0.316543 0.216468 0.266721 -0.200975 0.423317 -0.45099 0.0981496 0.0575722 -0.672601 0.373161 -0.287045 -0.00823312 0.735058
585 0.476012 0.281356 -0.00642653 0.0320166 -0.131228 0.205063 -0.0335154 0.0455734 -0.318539 -0.250574 0.141645 0.0479128 0.0419196 -0.40873 -0.322433 -0.136056 0.0434057 -0.236775 -0.247756 0.355936 0.212991 0.295103 -0.202719 0.404747 -0.382792 0.0594686 -0.055402 -0.569918 0.326189 -0.147902 -0.102348 0.61536
111 0.542145 0.326343 0.0460168 0.162365 0.00641965 0.126455 -0.0663282 0.161467 -0.305157 -0.0752568 0.35295 0.0418226 0.200522 -0.44578 -0.240039 -0.0636243 0.0524028 -0.396494 -0.459753 0.449713 0.0312243 0.247579 -0.222504 0.169669 -0.404823 0.171251 -0.235396 -0.815391 0.556632 -0.209874 -0.279529 0.662261
449 0.501438 0.389825 0.0833881 -0.0129905 -0.0431734 0.265971 -0.0476946 0.0574206 -0.371405 -0.326829 0.230377 0.227308 0.0717058 -0.38333 -0.423393 -0.212284 -0.0293355 -0.146145 -0.296243 0.359261 0.405952 0.383907 -0.256209 0.612836 -0.4408 0.0645327 -0.0614907 -0.561788 0.386689 -0.0813727 0.0159917 0.649635
636 0.57165 0.384717 -0.0479228 0.0339622 -0.182486 0.274109 -0.022345 0.0776351 -0.3094 -0.360931 0.213876 0.0811667 0.0576161 -0.540746 -0.384095 -0.177191 0.0333006 -0.260821 -0.265006 0.405297 0.168535 0.315087 -0.176303 0.456944 -0.442697 0.0597691 -0.0518065 -0.688198 0.424013 -0.17224 -0.128253 0.690891
472 0.4997 0.226121 0.0743742 0.114817 0.12769 0.107835 -0.0849167 0.151332 -0.31643 -0.0354319 0.32582 0.0414194 0.221221 -0.33557 -0.242446 -0.0623164 0.0666479 -0.339733 -0.413747 0.406708 0.133627 0.295074 -0.255974 0.186184 -0.354031 0.157121 -0.285778 -0.683943 0.438505 -0.130413 -0.250309 0.580094
157 0.543947 0.378469 -0.0534657 0.0843538 -0.172667 0.245861 -0.0206552 0.0398142 -0.309754 -0.325165 0.165808 0.0812041 0.0220319 -0.476612 -0.379374 -0.195004 0.0116745 -0.255703 -0.268881 0.353811 0.256344 0.328091 -0.208894 0.456537 -0.454492 0.077059 -0.0215495 -0.655134 0.405521 -0.201919 -0.0760441 0.682085
79 0.447472 0.233375 -0.189517 0.29315 -0.0221642 0.0526914 -0.0317723 -0.0363337 -0.28977 -0.0701403 0.0420805 -0.0455135 0.0940063 -0.439289 -0.413615 -0.062795 0.00683082 -0.430969 -0.310717 0.277082 0.282646 0.393516 -0.180611 0.311265 -0.518947 0.226323 -0.119125 -0.698916 0.341503 -0.310047 -0.139108 0.588307
66 0.557603 0.132995 -0.13541 -0.000501987 -0.200987 0.203181 -0.047419 0.0565871 -0.415284 -0.271314 0.00134904 -0.185123 -0.0115519 -0.393982 -0.315291 -0.162842 0.16143 -0.329925 -0.176875 0.395233 0.211064 0.429757 -0.231765 0.370754 -0.39909 0.0347411 -0.209389 -0.750926 0.124474 -0.225513 -0.358087 0.718389
259 0.363178 0.313231 0.077939 0.0433383 0.0332081 0.182575 -0.0617751 -0.0196049 -0.345408 -0.190776 0.166161 0.252195 0.0363705 -0.279439 -0.360973 -0.145935 -0.060075 -0.12701 -0.298 0.310449 0.481104 0.311405 -0.276194 0.53062 -0.424569 0.104687 -0.036733 -0.522102 0.344012 -0.133475 0.116699 0.600818
706 0.459726 0.320712 -0.153065 0.161811 -0.208753 0.174733 0.00743861 -0.0105379 -0.259272 -0.210672 -0.0123028 -0.017079 -0.0455618 -0.470418 -0.383515 -0.15593 0.0227415 -0.250501 -0.168258 0.285012 0.229076 0.287721 -0.149173 0.42022 -0.483788 0.0729755 0.0243317 -0.627444 0.297233 -0.270863 -0.0383169 0.646916
646 0.562532 0.326167 -0.0228404 0.117429 -0.121311 0.228168 -0.00413616 0.0979144 -0.285971 -0.276699 0.205257 0.0342216 0.0617165 -0.462849 -0.313571 -0.173449 0.061343 -0.241647 -0.259967 0.399533 0.147052 0.283123 -0.225124 0.404387 -0.464217 0.0700746 -0.0725278 -0.701372 0.372888 -0.20824 -0.089997 0.692309
397 0.421806 0.126432 0.186632 -0.199824 0.0729761 0.256587 -0.135728 0.00221976 -0.587827 -0.235147 0.0500628 0.100648 -0.0707817 -0.0596992 -0.308951 -0.196318 0.0775949 -0.0141015 -0.19768 0.354932 0.645085 0.46587 -0.418201 0.680131 -0.253195 -0.0374007 -0.260493 -0.514596 -0.0124545 -0.025289 -0.0910525 0.742427
221 0.394969 0.419223 0.00946375 0.13433 -0.0569139 0.22758 -0.025797 -0.0676034 -0.293212 -0.201031 0.128331 0.266938 -0.00773095 -0.372845 -0.438556 -0.170077 -0.087214 -0.0889208 -0.276578 0.271604 0.462494 0.292958 -0.199301 0.563028 -0.457761 0.0950821 0.0800579 -0.533224 0.416788 -0.187945 0.222222 0.621661
174 0.380621 0.313013 0.153953 0.077171 0.142371 0.200956 -0.104763 -0.0563283 -0.436906 -0.0580247 0.115031 0.278085 -0.0306982 -0.151701 -0.382162 -0.160931 -0.121458 -0.0504932 -0.302691 0.254413 0.635573 0.331217 -0.347499 0.636744 -0.398388 0.122082 -0.090403 -0.563569 0.309776 -0.141025 0.226157 0.705873
70 0.33482 0.232794 0.00267624 0.155613 0.24325 0.0175681 -0.123008 -0.0233538 -0.35746 0.0239671 0.162679 0.199383 0.161613 -0.2397 -0.382721 -0.0514786 -0.0534099 -0.325878 -0.47731 0.261271 0.559493 0.412567 -0.315736 0.399234 -0.425811 0.243128 -0.242037 -0.625907 0.382057 -0.176717 -0.0210837 0.56061
241 0.287052 0.167963 -0.03973 0.162539 0.225843 0.021709 -0.132645 -0.0430512 -0.385599 0.0221581 0.0862677 0.147444 0.101708 -0.183572 -0.396183 -0.0692075 -0.0377025 -0.267208 -0.378791 0.231913 0.608355 0.441736 -0.311376 0.448873 -0.423865 0.234583 -0.249982 -0.585959 0.236398 -0.192974 -0.0204052 0.583612
205 0.426014 0.194742 0.24676 -0.325445 0.0575972 0.360342 -0.144781 -0.0576165 -0.67083 -0.269321 0.0198995 0.230235 -0.149154 -0.041711 -0.340861 -0.22235 -0.0128686 0.0060322 -0.227142 0.335683 0.759154 0.427335 -0.475465 0.806444 -0.216995 -0.0541444 -0.206326 -0.506687 0.077077 -0.0287932 -0.0113309 0.784643
122 0.387601 0.2853 0.0784107 0.125327 0.114028 0.19169 -0.0890504 -0.0737125 -0.433201 -0.0357902 0.0441637 0.179821 -0.0593679 -0.186438 -0.328295 -0.128587 -0.0637736 -0.0939899 -0.27156 0.23335 0.552122 0.306936 -0.314026 0.561565 -0.398161 0.133672 -0.0816495 -0.600525 0.284707 -0.173813 0.171487 0.72545
462 0.33931 0.268923 -0.011486 0.266777 0.119319 0.145705 -0.110139 -0.154663 -0.383754 0.107327 -0.0882103 0.146566 -0.144049 -0.159826 -0.318272 -0.0926931 -0.131461 -0.114043 -0.197269 0.151722 0.562486 0.238656 -0.269244 0.494629 -0.435474 0.150073 0.00459115 -0.587318 0.231832 -0.243917 0.26554 0.713401
660 0.354631 0.219256 -0.0393932 0.290623 0.0827109 0.148313 -0.104342 -0.15748 -0.416116 0.137674 -0.158809 0.0837151 -0.17664 -0.162893 -0.317428 -0.0851858 -0.109294 -0.162852 -0.181207 0.160831 0.571866 0.254172 -0.321647 0.488734 -0.436792 0.176887 0.00340828 -0.667908 0.209984 -0.295778 0.261978 0.765281
521 0.530417 0.0925912 0.103506 -0.13912 -0.0858006 0.301511 -0.0955084 -0.0400649 -0.639301 -0.195683 -0.169537 -0.124932 -0.24564 -0.111474 -0.237844 -0.185013 0.0795737 -0.117871 -0.0925448 0.316436 0.449276 0.333185 -0.396559 0.584321 -0.236276 -0.0397908 -0.187043 -0.677438 -0.045238 -0.181527 -0.113926 0.88342
669 0.59986 0.18851 0.113357 -0.0351408 -0.07247 0.250404 -0.0701524 0.167101 -0.483697 -0.129491 0.179157 -0.11169 -0.00616461 -0.28078 -0.160522 -0.107611 0.117326 -0.309796 -0.270762 0.459675 0.0794694 0.294015 -0.294437 0.28701 -0.298322 0.0273296 -0.310246 -0.788393 0.263956 -0.159808 -0.337183 0.767195
151 0.560329 0.234919 0.205883 0.267261 0.0949778 0.172358 -0.0970128 0.124635 -0.453757 0.200436 0.157179 -0.0753192 -0.0740697 -0.125654 0.00723378 -0.016046 0.0377437 -0.201167 -0.299424 0.393704 0.00969437 0.0714072 -0.326623 0.142986 -0.306652 0.117044 -0.208824 -0.846003 0.400758 -0.2394 -0.0630068 0.871063
644 0.515528 0.207677 0.297661 0.00366551 0.156199 0.217864 -0.127485 0.0940524 -0.539755 -0.0216299 0.236586 0.0834761 -0.00327316 -0.124779 -0.187568 -0.0939702 0.0102187 -0.145566 -0.387141 0.432316 0.339457 0.264509 -0.417589 0.415865 -0.272412 0.0920787 -0.280848 -0.714986 0.325206 -0.11819 -0.0913213 0.799981
427 0.34792 0.19583 0.085277 0.126885 0.282474 0.0370918 -0.150071 0.0266984 -0.357898 0.0412148 0.25779 0.206597 0.206877 -0.209703 -0.351302 -0.056949 -0.033777 -0.286813 -0.460768 0.327024 0.505229 0.378828 -0.295386 0.345797 -0.422304 0.229776 -0.270255 -0.614615 0.390839 -0.132664 -0.0696697 0.525308
208 0.406591 0.153718 -0.108393 0.17397 0.0803599 0.0500114 -0.12388 0.00440412 -0.391096 -0.0364465 0.061196 -0.0443612 0.109453 -0.314414 -0.362402 -0.0678838 0.042828 -0.408762 -0.364151 0.308473 0.413215 0.440442 -0.280789 0.335096 -0.44675 0.210211 -0.283033 -0.753731 0.266822 -0.230532 -0.227864 0.653655
17 0.290842 0.274824 -0.0226747 0.109898 0.0823485 0.103742 -0.055578 -0.039876 -0.297044 -0.157789 0.143698 0.18829 0.116542 -0.311846 -0.393983 -0.131573 -0.0221422 -0.201839 -0.341799 0.269069 0.544085 0.372792 -0.277294 0.458893 -0.432701 0.171465 -0.0639018 -0.547355 0.300139 -0.172984 0.0642086 0.554634
626 0.425085 0.15215 -0.0697583 0.139743 0.127206 0.0510789 -0.136238 0.0143743 -0.413012 -0.0223336 0.110264 -0.0140716 0.14361 -0.313399 -0.359013 -0.0518641 0.0259146 -0.473719 -0.441833 0.321937 0.392252 0.434989 -0.297505 0.285874 -0.41097 0.222739 -0.310463 -0.736009 0.318543 -0.239428 -0.274781 0.633323
338 0.374257 0.169941 -0.0618608 0.145391 0.143974 0.0733813 -0.134478 -0.100001 -0.470442 0.122782 -0.0564608 0.0560292 -0.00869176 -0.194458 -0.356684 -0.0409143 -0.023019 -0.357533 -0.330221 0.207047 0.511087 0.360434 -0.318736 0.364996 -0.369574 0.196157 -0.205404 -0.673713 0.252496 -0.239501 -0.0733425 0.659842
36 0.408402 0.127184 -0.188046 0.30978 0.0544749 0.00405086 -0.121228 -0.0477582 -0.372261 0.108944 -0.0734418 -0.129796 0.0318088 -0.319968 -0.340891 -0.0191577 0.0213236 -0.468773 -0.308271 0.263388 0.32597 0.377386 -0.249336 0.228081 -0.456181 0.248178 -0.198166 -0.782611 0.280296 -0.319541 -0.186239 0.642513
413 0.272729 0.135127 0.0244959 0.0990902 0.226363 0.0109864 -0.131887 -0.0369479 -0.384665 -0.0269854 0.134436 0.118151 0.182656 -0.167258 -0.374648 -0.0756194 -0.0181335 -0.245299 -0.380573 0.243766 0.57442 0.449612 -0.299004 0.388754 -0.404857 0.204021 -0.245979 -0.526595 0.205359 -0.131362 -0.0515308 0.519629
114 0.415326 0.27957 -0.176495 0.153808 -0.0298129 0.053076 -0.0391193 0.0477804 -0.213609 -0.187869 0.21052 0.0753131 0.243208 -0.521761 -0.448535 -0.0993762 0.0103745 -0.429312 -0.420246 0.337858 0.252138 0.398002 -0.143848 0.282804 -0.465784 0.216637 -0.156363 -0.642251 0.471426 -0.20947 -0.253159 0.457431
316 0.407834 0.190684 -0.0624749 0.232224 0.156358 0.0122467 -0.120084 0.0310189 -0.348558 0.0464582 0.182879 0.0175372 0.199802 -0.34086 -0.352961 -0.0197963 0.0229001 -0.502095 -0.489935 0.335334 0.343148 0.4136 -0.285566 0.214691 -0.458195 0.270579 -0.2967 -0.767968 0.414713 -0.24674 -0.219451 0.596865
568 0.386517 0.138864 -0.0509915 0.180962 0.158724 0.00556929 -0.111008 0.0375975 -0.379934 0.0729364 0.0911207 -0.0260299 0.13883 -0.283181 -0.310278 -0.0275448 0.018553 -0.433721 -0.392668 0.303664 0.350071 0.389066 -0.271505 0.211823 -0.393451 0.23286 -0.300596 -0.703841 0.295776 -0.219885 -0.250131 0.580508
165 0.400483 0.116682 -0.14605 0.150694 0.124517 0.04223 -0.131122 0.0139949 -0.415188 -0.033123 0.0947004 -0.0220255 0.163556 -0.358639 -0.399005 -0.0449606 0.0474004 -0.545704 -0.443793 0.336845 0.426569 0.464994 -0.290009 0.247199 -0.404141 0.244203 -0.317307 -0.77794 0.300523 -0.238786 -0.331622 0.607437
664 0.459731 0.265744 0.0340235 0.252131 0.179139 0.106744 -0.10836 0.0531162 -0.398691 0.0945199 0.177428 0.0565819 0.0972107 -0.286621 -0.258444 -0.0326842 -0.00816109 -0.355281 -0.428641 0.359084 0.282172 0.285371 -0.309801 0.232712 -0.430188 0.216252 -0.24062 -0.789897 0.414329 -0.218153 -0.10166 0.713681
203 0.373212 0.111335 -0.0905352 0.276621 0.147021 0.0240757 -0.131316 -0.0815314 -0.420477 0.150844 -0.0806624 -0.083036 0.00624059 -0.222644 -0.308644 -0.0247432 -0.0130356 -0.418448 -0.313433 0.235471 0.431337 0.360441 -0.301627 0.287263 -0.447303 0.241088 -0.233053 -0.758285 0.226995 -0.337812 -0.0863646 0.679783
465 0.451185 0.241581 0.0424449 0.097987 0.0158533 0.236755 -0.116999 -0.0883007 -0.471999 0.00816767 -0.0899954 0.0886342 -0.185399 -0.179646 -0.269027 -0.110007 -0.0469148 -0.166731 -0.22718 0.239659 0.459348 0.258576 -0.328413 0.50554 -0.341548 0.0671756 -0.0614141 -0.636839 0.234499 -0.228991 0.0772108 0.79805
204 0.469717 0.366993 0.0587658 0.142931 -0.0436925 0.246236 -0.0430147 -0.0499374 -0.39635 -0.0361778 0.0102748 0.154901 -0.176116 -0.239897 -0.277868 -0.153416 -0.10681 -0.0880255 -0.193343 0.249442 0.373962 0.165057 -0.248563 0.522165 -0.36448 0.0580295 0.0416394 -0.595464 0.370978 -0.216229 0.214038 0.747289
215 0.608595 0.17345 0.00425551 -0.195684 -0.308674 0.361083 -0.0269286 0.101409 -0.482499 -0.400722 0.0148846 -0.149239 -0.132697 -0.338632 -0.22602 -0.205708 0.162868 -0.202512 -0.0905075 0.442402 0.1569 0.33249 -0.250089 0.487277 -0.260275 -0.118648 -0.155248 -0.666939 0.104289 -0.123364 -0.337934 0.772225
100 0.538665 0.245853 0.0894496 0.00440837 0.0453375 0.22505 -0.10722 0.104507 -0.462244 -0.187112 0.157069 0.0627321 0.0435897 -0.277634 -0.325902 -0.152129 0.0477558 -0.25751 -0.307884 0.399596 0.346499 0.399813 -0.335605 0.481706 -0.350686 0.0779134 -0.241297 -0.71604 0.281083 -0.133044 -0.187787 0.722869
96 0.372765 0.160825 -0.15121 0.256114 0.0919936 0.0298027 -0.110823 -0.0479873 -0.37415 0.0953052 -0.0337235 -0.0443036 0.0162584 -0.302786 -0.337099 -0.0408178 -0.00399134 -0.403866 -0.306236 0.257535 0.393687 0.350534 -0.282063 0.303933 -0.42952 0.226693 -0.204493 -0.763127 0.28211 -0.320363 -0.130933 0.679645
192 0.309753 0.268416 -0.129488 0.174154 0.0431034 0.0564701 -0.0644814 -0.0828667 -0.277586 -0.119666 0.102349 0.182704 0.144583 -0.427159 -0.479076 -0.0780533 -0.0527886 -0.365164 -0.38752 0.263581 0.486107 0.418864 -0.176136 0.37583 -0.47492 0.228448 -0.0950966 -0.541334 0.376052 -0.213952 -0.0394113 0.464439
86 0.345698 0.24661 0.0605043 0.0951722 0.0781536 0.20336 -0.0740529 -0.086265 -0.358702 -0.0345614 -0.0490621 0.177205 -0.14864 -0.106383 -0.309943 -0.160152 -0.0675949 0.0420423 -0.115445 0.18631 0.548034 0.251157 -0.272753 0.604418 -0.378428 0.0540346 -0.0197686 -0.481423 0.137587 -0.122464 0.289933 0.646113
220 0.610016 0.181681 0.0349509 -0.0635806 -0.213339 0.319928 -0.0325691 0.0506929 -0.528517 -0.28291 -0.0541555 -0.124443 -0.202832 -0.285375 -0.250232 -0.193515 0.116284 -0.152954 -0.0859298 0.388576 0.226948 0.306572 -0.312618 0.527487 -0.329603 -0.0675211 -0.102654 -0.719575 0.0865362 -0.188311 -0.153275 0.875248
438 0.553617 0.235622 0.276575 -0.0464355 0.0791893 0.271219 -0.118096 0.0647247 -0.506604 -0.0862266 0.199719 0.106311 -0.055246 -0.128943 -0.161759 -0.142205 0.0224258 -0.074528 -0.272287 0.379881 0.315311 0.240662 -0.382716 0.461704 -0.277709 0.0177992 -0.200568 -0.652416 0.255059 -0.0795505 -0.0218001 0.820227
336 0.336788 0.20543 -0.0089761 0.238197 0.0947933 0.123643 -0.122795 -0.151338 -0.417988 0.0971778 -0.118183 0.0794241 -0.140996 -0.151542 -0.342018 -0.104586 -0.0877226 -0.178743 -0.215054 0.191773 0.579446 0.299524 -0.310179 0.51369 -0.434466 0.157171 -0.08143 -0.610022 0.202578 -0.240293 0.151213 0.70686
456 0.573385 0.0887443 0.073681 -0.114892 -0.101333 0.305337 -0.0898555 0.0247353 -0.603896 -0.237838 -0.102114 -0.142664 -0.16458 -0.190762 -0.262494 -0.188273 0.113996 -0.186865 -0.130724 0.375397 0.390337 0.383539 -0.366739 0.568997 -0.282148 -0.0632328 -0.237017 -0.711823 -0.0205083 -0.161189 -0.229965 0.887696
218 0.448415 0.221678 -0.0776394 0.229851 -0.0599272 0.173733 -0.0793376 -0.0711829 -0.383422 0.0299356 -0.132959 -0.0212898 -0.142809 -0.271307 -0.311693 -0.0924383 -0.0309265 -0.271425 -0.173812 0.238354 0.329731 0.244101 -0.238944 0.415155 -0.405757 0.113815 -0.0275769 -0.696435 0.242993 -0.298744 0.055935 0.749473
680 0.461349 0.216333 0.147955 -0.118343 -0.0616779 0.309441 -0.103231 -0.093038 -0.575905 -0.196509 -0.116612 0.0687577 -0.238344 -0.122448 -0.309091 -0.221377 -0.017665 -0.0440066 -0.100228 0.275625 0.575621 0.334025 -0.381168 0.694345 -0.306164 -0.0408886 -0.103754 -0.583529 0.0454461 -0.133668 0.0621446 0.848921
69 0.407089 0.210965 0.0142757 0.194068 0.0642408 0.16977 -0.095804 -0.0629929 -0.432267 0.0678641 -0.0909079 0.00596192 -0.17248 -0.141449 -0.257849 -0.0923204 -0.0554361 -0.175084 -0.19617 0.215108 0.425833 0.239872 -0.313296 0.441251 -0.352427 0.1145 -0.0760898 -0.676125 0.195846 -0.260194 0.10057 0.753637
331 0.397502 0.19624 -0.0229432 0.24383 0.0420482 0.12089 -0.0792493 -0.0970276 -0.381109 0.102043 -0.126055 -0.0159013 -0.16746 -0.160354 -0.230047 -0.0672022 -0.0370795 -0.20436 -0.154305 0.182704 0.338003 0.194526 -0.277628 0.359267 -0.375298 0.133628 -0.0916133 -0.676614 0.189695 -0.290876 0.0992965 0.729737
244 0.468335 0.207513 -0.000591772 0.186634 0.00837951 0.173457 -0.0912146 -0.0512535 -0.466554 -0.0139203 -0.0806678 -0.0508934 -0.120113 -0.221613 -0.280751 -0.121081 0.0166474 -0.243107 -0.209857 0.290705 0.372596 0.296763 -0.287203 0.442084 -0.411626 0.0971577 -0.138757 -0.732719 0.197057 -0.265563 -0.0171426 0.800365
62 0.443557 0.182755 -0.0446635 0.15138 -0.0626763 0.173246 -0.06228 -0.0679626 -0.436179 0.00259657 -0.153923 -0.0747056 -0.20152 -0.217946 -0.239474 -0.113287 -0.00722158 -0.217099 -0.104046 0.238856 0.316293 0.240658 -0.246733 0.421275 -0.336779 0.0807103 -0.063106 -0.655588 0.135273 -0.276165 0.0296688 0.746844
617 0.445945 0.2037 -0.0820066 0.255229 -0.0349915 0.144952 -0.0821582 -0.069245 -0.393898 0.0496709 -0.13249 -0.0860185 -0.176393 -0.248847 -0.273097 -0.0840033 -0.00942004 -0.260366 -0.164063 0.226136 0.326846 0.215664 -0.257171 0.393001 -0.407352 0.127456 -0.0485315 -0.724552 0.205869 -0.334486 0.0584056 0.773655
7 0.427389 0.254101 -0.0995611 0.152188 -0.00310939 0.118084 -0.0768567 -0.0284138 -0.326237 -0.0943332 0.0537478 0.0708646 0.0535219 -0.373936 -0.418469 -0.110455 -0.0128498 -0.277405 -0.29333 0.272551 0.385525 0.362956 -0.225083 0.420609 -0.4678 0.146483 -0.0965682 -0.62283 0.303283 -0.230108 -0.0296789 0.615451
672 0.399853 0.204238 -0.053418 0.184902 -0.0160472 0.155336 -0.0930243 -0.0871895 -0.423849 0.0800164 -0.128291 -0.0218516 -0.151261 -0.177712 -0.254797 -0.0791315 -0.0447913 -0.221735 -0.178161 0.213011 0.350121 0.217803 -0.278609 0.379016 -0.335073 0.109726 -0.07605 -0.662393 0.212785 -0.267648 0.029767 0.727816
9 0.414913 0.10599 -0.17338 0.196887 0.0170927 0.0643328 -0.0900073 -0.00804957 -0.377981 -0.0254949 -0.0495406 -0.143579 0.0104396 -0.316277 -0.318411 -0.063125 0.0436506 -0.412673 -0.255775 0.267282 0.340227 0.393942 -0.231863 0.308834 -0.42069 0.162288 -0.198513 -0.734015 0.201494 -0.280939 -0.212615 0.654801
265 0.513334 0.319113 -0.082073 0.203521 -0.201811 0.244318 -0.0186033 -0.0372118 -0.354315 -0.0761912 -0.0655763 -0.0511477 -0.195896 -0.362415 -0.236498 -0.124438 -0.00020639 -0.209031 -0.137051 0.290907 0.153285 0.137442 -0.171767 0.375201 -0.41489 0.048308 0.0266741 -0.676002 0.305687 -0.281289 0.0328564 0.740447
607 0.449924 0.233922 -0.190062 0.239657 -0.12399 0.0958644 -0.0179799 0.0227224 -0.252102 -0.171997 0.0389038 -0.106175 0.0506957 -0.458941 -0.335342 -0.112427 0.0585115 -0.361486 -0.23641 0.29094 0.186021 0.340411 -0.18995 0.324539 -0.481382 0.148298 -0.0734322 -0.727323 0.282115 -0.308987 -0.148574 0.6368
527 0.552436 0.219657 0.19131 0.190352 0.114922 0.185576 -0.105696 0.104372 -0.447949 0.1243 0.151355 -0.0168724 -0.0644329 -0.153175 -0.103727 -0.0692995 0.0212824 -0.207546 -0.27889 0.366969 0.152085 0.152045 -0.330011 0.276471 -0.347372 0.103976 -0.194027 -0.788999 0.332945 -0.222159 -0.0378751 0.824163
113 0.477105 0.0635915 0.0907876 -0.137457 -0.0566756 0.258372 -0.0752345 -0.00263041 -0.593468 -0.173066 -0.0876858 -0.104116 -0.185347 -0.0940611 -0.207993 -0.178406 0.0991888 -0.115734 -0.103923 0.332226 0.415702 0.358737 -0.390865 0.542441 -0.250192 -0.0343464 -0.223527 -0.625985 -0.0191772 -0.142454 -0.148828 0.815184
1 0.498823 0.282671 -0.0403502 0.0375785 -0.125897 0.186892 -0.0291524 0.0661647 -0.317407 -0.279414 0.152679 0.0277948 0.0677979 -0.437495 -0.342478 -0.166709 0.0558693 -0.252939 -0.249001 0.391558 0.257921 0.354447 -0.209303 0.410356 -0.42032 0.0776023 -0.127153 -0.633389 0.297714 -0.140692 -0.162976 0.598517
132 0.500721 0.340498 -0.0901305 -0.00344819 -0.158169 0.200529 -0.0292455 0.114991 -0.256076 -0.315725 0.275589 0.0670764 0.198288 -0.56958 -0.371486 -0.127993 0.0489739 -0.406879 -0.393982 0.43755 0.154495 0.36995 -0.174497 0.280848 -0.393813 0.110679 -0.149173 -0.651844 0.471755 -0.142843 -0.317207 0.51384
194 0.538358 0.334386 0.151095 0.100472 0.043771 0.212682 -0.0966064 0.0404544 -0.405559 -0.0430792 0.23785 0.126553 0.0526365 -0.299572 -0.238255 -0.0765659 -0.0236617 -0.269347 -0.390809 0.393011 0.24893 0.234915 -0.287017 0.375329 -0.36252 0.136426 -0.131667 -0.676486 0.480252 -0.175526 -0.0435333 0.718577
163 0.480903 0.340478 -0.166949 0.215804 -0.246058 0.209505 -0.0184149 -0.0397234 -0.297046 -0.1546 -0.076865 0.00884824 -0.123164 -0.467407 -0.321299 -0.12407 -0.0297144 -0.257285 -0.138824 0.266922 0.207834 0.207539 -0.146371 0.386119 -0.445312 0.0639484 0.0810928 -0.642953 0.333159 -0.302179 0.0127962 0.668149
632 0.551234 0.309244 -0.00225888 0.0423629 -0.134956 0.238739 -0.0280021 0.0861338 -0.359591 -0.288747 0.177095 0.0474661 0.0282283 -0.446418 -0.316702 -0.166527 0.0330127 -0.297591 -0.286659 0.396414 0.206183 0.32369 -0.245679 0.386134 -0.381128 0.0659997 -0.094696 -0.687312 0.393 -0.183213 -0.157207 0.701537
176 0.480089 0.3766 -0.0872667 0.183489 -0.152264 0.174324 -0.00178331 0.0906423 -0.222943 -0.265039 0.208542 0.0705423 0.0898712 -0.524817 -0.360528 -0.175736 0.0151008 -0.247462 -0.276559 0.374401 0.163694 0.312403 -0.16831 0.383958 -0.514677 0.122886 -0.0114672 -0.667324 0.412349 -0.212376 -0.0366973 0.599147
300 0.507844 0.303877 -0.125305 0.115703 -0.0858903 0.17219 -0.049642 0.0386576 -0.326853 -0.272009 0.176448 0.0224173 0.131065 -0.534074 -0.419226 -0.127225 0.0397206 -0.411362 -0.366671 0.381968 0.269133 0.425209 -0.21995 0.379534 -0.498161 0.139714 -0.137081 -0.756033 0.40178 -0.235028 -0.226651 0.670792
129 0.35152 0.264739 0.0832595 0.0577511 0.128736 0.172636 -0.104996 -0.103212 -0.444662 -0.0588864 0.0643827 0.251853 -0.0270796 -0.155063 -0.395842 -0.124984 -0.105209 -0.0989759 -0.314529 0.235968 0.661818 0.364048 -0.323395 0.616064 -0.36426 0.124871 -0.130888 -0.546453 0.250691 -0.132462 0.144258 0.669054
97 0.368173 0.264779 0.134643 0.104588 0.157677 0.159623 -0.112249 -0.0688272 -0.475983 -0.000836193 0.0909457 0.217559 -0.0168284 -0.123315 -0.358254 -0.109877 -0.0791755 -0.133298 -0.339019 0.248814 0.614682 0.322913 -0.351305 0.582983 -0.383677 0.131012 -0.145033 -0.589219 0.281412 -0.166879 0.167579 0.723476
193 0.271922 0.137946 -0.046367 0.224852 0.204164 0.0282554 -0.111439 -0.094125 -0.373877 0.0784431 0.0142573 0.10154 0.0481022 -0.192922 -0.384348 -0.0788736 -0.0587209 -0.248313 -0.322421 0.190411 0.620362 0.394341 -0.305498 0.444575 -0.453893 0.237821 -0.173604 -0.610643 0.216181 -0.211966 0.066849 0.598618
112 0.424555 0.293269 -0.0362771 0.11969 0.0728414 0.0757519 -0.0744863 0.0275528 -0.306977 -0.139611 0.239702 0.187574 0.191854 -0.396811 -0.437088 -0.0968242 -0.0494222 -0.327624 -0.451133 0.338793 0.411216 0.415612 -0.237579 0.422871 -0.481053 0.21381 -0.185356 -0.64802 0.459631 -0.177734 -0.0753783 0.57499
116 0.666086 0.227432 0.282285 -0.0558821 0.0468938 0.295936 -0.121138 0.121687 -0.570403 -0.0976519 0.171131 -0.0143613 -0.0631986 -0.147007 -0.165083 -0.129548 0.0708371 -0.167963 -0.283432 0.431561 0.235 0.279871 -0.385549 0.467765 -0.265737 0.00758152 -0.298661 -0.751117 0.273329 -0.0774674 -0.121936 0.879486
40 0.351974 0.221524 0.105307 0.157232 0.237911 0.129052 -0.135772 -0.0599151 -0.424641 -0.0336111 0.117544 0.218989 0.0227924 -0.146252 -0.404815 -0.138496 -0.0774288 -0.0959204 -0.329932 0.245612 0.691896 0.410933 -0.367787 0.598511 -0.465467 0.178035 -0.15751 -0.593968 0.226641 -0.16662 0.196992 0.717992
